#pragma once

#include "C:\Users\Baron\Desktop\EE_297_Repo\EE_297\hardware_imp\vitis_hls\lane_seg_hls\lane_seg_top.h"

// Auto-generated with BN folded

data_t enc1_pw_w[1][1][32][16] = {
  {
    {
      {-0.010021,0.022463,-0.014067,0.037147,-0.026276,-0.000291,0.000222,-0.052553,0.060084,-0.013977,0.013835,0.012780,-0.006088,-0.024317,-0.005062,-0.001196},
      {0.081284,0.023802,0.785934,-0.078006,-0.474744,-0.188928,0.372568,0.110819,-0.021467,-0.386907,0.157942,-0.210972,0.634287,-0.376763,-0.449570,-0.272573},
      {-0.066327,-0.778494,0.149323,-0.136620,0.360720,-0.030724,-0.095086,0.263779,0.529334,-0.047764,-0.099326,0.365269,-0.005731,-0.051579,-0.044821,-0.254183},
      {0.176816,-0.113277,0.591872,0.148271,-0.031510,-0.570086,-0.341398,-0.062962,-0.259696,-0.320569,-0.088257,0.179611,-0.176344,0.032493,0.240451,-0.203510},
      {-0.015769,0.140536,-0.363650,0.475132,0.217771,-0.331872,-0.396919,0.556286,0.170679,-0.020924,-0.058480,-0.110111,0.120128,0.161176,-0.543709,0.380284},
      {0.737390,-0.009942,-0.305052,-0.508865,-0.831699,-0.240042,0.027250,0.607169,0.490827,0.067954,-0.044324,-0.230683,-0.489006,-0.113626,0.196864,-0.023005},
      {0.218897,-0.101695,-0.389889,0.053109,0.116174,0.439256,0.030844,-0.233055,-0.190901,-0.133900,-0.132577,-0.246205,-0.488602,0.170287,-0.986960,-0.544561},
      {-0.028374,0.125452,0.095587,0.074379,-0.377887,0.463548,-0.717275,0.201367,-0.193561,0.099114,-0.192442,0.143788,0.195833,-0.479621,0.072636,-0.236545},
      {-0.046863,0.114524,-0.211407,-0.303818,0.227466,0.452108,0.161132,-0.112845,0.266505,0.263814,0.086014,-0.737260,0.415170,-0.391886,-0.029112,0.407175},
      {0.005440,-0.000178,-0.001604,-0.000804,-0.010206,0.002682,0.001462,-0.002946,0.012892,-0.001702,0.001148,-0.002997,-0.000209,-0.000994,-0.001069,0.000661},
      {-0.011847,0.187129,-0.042585,0.063057,0.169926,0.079872,-0.055841,0.211013,0.035557,-0.055285,0.493493,0.021524,-0.114317,-0.076522,0.075210,-0.283251},
      {0.256980,-0.065384,0.438252,-0.472518,-0.150638,0.468632,0.167721,-0.640256,-0.031009,0.057783,0.048240,0.042024,-0.458811,0.032165,0.422832,-0.278216},
      {0.081815,-0.145903,0.128516,0.280085,-0.252355,-0.036141,-0.111692,-0.253984,0.433124,0.609671,0.086039,-0.331615,0.491047,0.589226,0.022073,-0.401998},
      {-0.116430,0.309489,-0.038639,0.348592,-0.023997,0.059114,0.146684,-0.014608,0.330580,-0.060713,-0.122447,-0.063311,-0.156798,-0.184344,0.062562,-0.124060},
      {-0.001832,0.001359,0.004919,0.002896,-0.006531,-0.000245,0.000140,0.000693,-0.008581,0.005082,0.001357,-0.003594,0.000180,-0.000441,-0.000676,-0.002131},
      {-0.004778,0.002135,0.007624,0.001934,0.010623,0.003688,-0.002369,0.000613,0.006409,-0.010145,0.002002,0.008423,-0.002729,-0.002118,-0.009258,-0.000257},
      {-0.009954,0.024044,0.023995,0.004987,-0.011406,-0.007858,0.007414,0.009737,0.027299,0.013402,0.013712,-0.034868,0.001396,-0.011455,0.011358,-0.005200},
      {0.016434,0.012643,-0.004039,0.011480,0.007538,-0.005065,-0.001713,0.005099,0.005589,-0.000449,0.003897,0.013917,-0.009103,0.020140,0.004555,0.007191},
      {0.449279,0.223162,0.081985,-0.128423,0.523764,0.014022,-0.248584,-0.185367,-0.002396,-0.124444,-0.057557,-0.404818,0.131562,-0.012966,0.168400,0.253681},
      {-0.347417,0.555010,0.071614,-0.402557,0.155061,-0.050543,0.029762,0.406231,0.212683,-0.128873,-0.075499,-0.297379,-0.174692,0.257323,0.166277,-0.465364},
      {-0.205549,0.261399,0.025457,-0.308938,-0.269372,-0.160772,-0.002888,-0.168060,0.053507,-0.125251,-0.029245,0.122490,0.049050,0.207735,-0.122349,0.047228},
      {0.019061,0.003308,0.727723,0.432589,0.397794,0.386457,0.292820,0.578651,0.430177,0.329462,-0.075871,0.146134,-0.544906,-0.285728,0.031742,0.033567},
      {-0.071838,-0.112907,0.118509,-0.122710,-0.277934,-0.089704,0.123792,-0.268431,0.086505,0.077279,-0.984398,-0.092617,0.131659,0.143636,-0.101610,0.352750},
      {-0.004411,0.000376,-0.001074,0.001437,-0.001734,-0.004219,-0.003917,-0.004548,0.021740,0.005241,0.001839,-0.001329,0.006211,-0.000252,-0.004945,-0.001514},
      {0.154301,-0.154669,-0.011548,-0.157096,0.103363,0.115332,0.099939,0.351170,-0.623193,0.103438,-0.183901,-0.175361,0.107036,0.185121,0.097773,0.046407},
      {0.271487,0.101166,-0.445529,0.036195,0.079484,0.165550,0.163556,0.051234,0.001191,-0.254251,-0.142096,0.287302,0.422447,0.210709,0.083664,-0.230701},
      {0.066365,-0.342703,-0.064439,-0.410692,0.251040,-0.124191,-0.222921,0.047147,-0.276354,0.119159,0.172278,-0.070366,0.139205,0.018544,-0.019845,-0.100487},
      {0.023542,0.388089,0.677403,-0.457968,0.037743,0.290000,0.039863,0.317061,0.025666,0.440355,0.077008,0.662161,-0.227644,0.251314,-0.517359,0.723699},
      {0.042143,-0.185514,0.092351,-0.319373,0.121618,-0.000726,0.086292,0.425181,-0.652528,0.184471,-0.050279,-0.223128,0.073589,0.332795,0.064507,-0.014028},
      {0.109765,-0.024142,-0.009148,0.305600,-0.038582,0.073359,0.185076,0.078962,-0.025247,0.067039,-0.151219,-0.113727,-0.053665,-0.100795,0.060783,-0.029236},
      {0.305916,0.336026,-0.184741,-0.000651,0.523603,-0.603076,0.142369,-0.211405,-0.294008,0.865924,-0.053528,0.306472,0.216753,-0.604235,-0.129586,-0.426551},
      {0.196177,-0.162027,-0.019828,-0.064514,0.432939,-0.039954,0.142955,-0.184167,0.420786,-0.151826,0.062198,-0.121150,-0.058066,0.253789,-0.096538,0.107839}
    }
  }
};
