#pragma once

#include "C:\Users\Baron\Desktop\EE_297_Repo\EE_297\hardware_imp\vitis_hls\lane_seg_hls\lane_seg_top.h"

// Auto-generated with BN folded

data_t enc14_ir13_dw_w[3][3][1][576] = {
  {
    {
      {-0.076880,-0.122866,-0.063512,0.299803,0.382280,0.020124,0.859310,0.287042,-0.039675,0.161853,0.363014,-0.020105,0.254618,-0.083594,0.508114,0.395561,-0.094561,-0.065350,0.373004,0.261953,-0.190101,0.058329,-0.189500,0.129176,-0.172482,0.053580,0.117347,-0.492209,0.247673,0.234835,-0.347431,-0.182543,0.116027,0.355280,0.189520,-0.143547,-0.232879,0.498298,0.033339,-0.288850,-0.282192,0.525396,0.188425,0.286175,-0.113701,0.176331,0.826827,-0.219200,0.440350,0.103757,0.284546,0.248493,-0.313186,0.005071,0.140153,0.049968,0.484615,-0.856187,-0.200571,0.815994,0.163959,0.298972,0.149006,-0.052396,-0.130172,-0.118590,0.137815,-0.149861,0.063705,-0.349001,-0.293677,0.403948,0.126768,-0.407916,0.464203,0.243382,0.114970,-0.245702,0.325756,-0.054621,0.389969,-0.172429,0.556021,0.796357,0.041353,-0.609117,-0.322578,0.405374,0.331153,-0.245490,-0.047669,0.128777,0.174946,0.336788,0.015252,0.126695,-0.116584,-0.084228,0.604040,-0.387522,0.168863,0.240910,0.190815,0.566473,0.183553,0.506248,0.129480,0.310928,0.312747,0.615682,0.425979,0.271958,0.284447,-0.286913,-0.115958,0.455614,0.112729,-0.145596,0.301577,0.349846,0.066621,0.436976,0.350097,0.158745,-0.280502,0.050791,0.057920,-0.092849,0.260233,-0.207069,0.290285,0.252890,0.728211,0.149250,0.037850,0.006001,0.376745,0.113840,0.199920,0.286559,-0.222231,0.358979,-0.501859,0.222883,-0.274433,0.246297,0.180271,0.161116,0.172587,-0.091031,0.177891,-0.154766,0.262225,0.225228,0.295659,0.537619,0.142474,-0.280962,-0.424553,0.164740,0.212485,0.022911,0.123528,-0.178624,0.258584,0.270020,0.169693,-0.073710,-0.247635,0.233658,-0.140424,0.156532,-0.296893,0.376951,-0.253910,-0.034204,0.224244,-0.118409,-0.306877,-0.227711,-0.651653,-0.123771,0.076781,0.075634,-0.066812,0.466147,0.178843,0.388717,0.189294,0.020498,-0.357621,-0.045022,1.870892,-0.392569,-0.078995,-0.001910,-0.324584,-0.035048,-0.323061,-0.038594,0.201729,-0.086534,0.098233,0.050682,0.225299,-0.226010,-0.080068,0.175777,-0.156608,0.185462,0.322316,0.288957,-0.106012,0.356254,0.134119,0.393386,0.151607,0.209394,-0.203136,0.693555,-0.272633,-0.039776,0.322363,0.291643,0.151459,-0.064530,-0.015266,0.191900,0.029851,-0.263802,0.313945,0.658846,0.025997,0.142598,-0.020029,0.239341,0.504055,0.219654,0.293544,-0.185297,0.673874,0.296579,0.239768,0.226388,0.140014,0.073014,-0.198143,0.564811,-0.109242,0.068680,-0.043648,-0.300188,0.036425,0.262064,0.273823,-0.060682,0.177349,-0.182812,0.344117,-0.171387,0.126714,-0.175684,-0.264708,0.235589,0.042317,0.094047,0.549027,0.283710,0.169645,0.021722,-0.057029,0.472246,0.258080,0.162747,-0.050763,0.345464,-0.083089,0.057222,0.197729,-0.093820,-0.189061,0.051747,0.462292,0.404055,-0.222373,0.215099,-0.174724,0.119098,-0.058138,0.108008,0.039551,-0.059854,0.303780,-0.227614,0.052735,-0.312558,0.243032,-0.102579,-0.196493,-0.099552,0.561051,0.047225,-0.164225,-0.444544,-0.038223,0.134711,0.192314,0.189723,0.116314,0.618623,0.438114,-0.041892,0.636760,-0.269156,-0.175733,-0.084733,0.209173,-0.156108,0.475106,-0.152506,0.616234,-0.187637,-0.198995,-0.039209,0.329093,0.371452,0.326131,0.202871,0.087404,-0.020414,-0.199555,0.444951,0.216386,0.641534,0.658776,0.183862,0.570961,0.666751,0.056582,-0.175227,0.651027,0.447295,0.036971,0.241159,0.341869,0.128314,-0.205926,-0.031946,0.306669,0.087694,-0.258192,-0.150999,0.056009,-0.005069,0.284813,0.032726,0.587336,0.029109,-0.078512,-0.296259,-0.140907,-0.120683,-0.170181,0.569750,0.008580,0.092026,0.094791,-0.069626,0.057202,0.636513,0.090522,0.508976,0.591716,0.011714,-0.069332,-0.165168,-0.090570,0.278961,0.248544,0.317369,-0.019081,0.160406,0.180445,0.333483,0.663409,0.429441,0.043058,0.183157,0.243725,0.343035,0.427863,0.166073,-0.069584,0.073692,0.539186,0.250839,0.083436,-0.083105,0.069496,-0.231568,0.078337,0.236756,-0.841583,0.364064,0.222140,-0.155857,-0.299990,0.272833,0.440979,0.424419,0.411811,-0.273463,0.133770,0.154599,-0.135891,0.443327,-0.065942,0.315954,0.119658,0.373717,0.021269,-0.272637,0.579048,-0.313267,0.616622,0.120401,0.214855,0.362126,0.346742,-0.160894,0.638019,-0.588711,-0.508520,0.131007,-0.230586,-0.225975,0.246101,0.279598,-0.146169,0.055483,-0.158086,-0.036250,-0.028778,0.260677,-0.056217,-0.198263,0.422287,-0.248395,0.192051,0.694398,0.349328,-0.131808,-0.163492,0.344949,0.279946,0.328774,-0.037468,-0.225635,0.295922,-0.061165,-0.303422,-0.120380,-0.123896,0.005364,-0.044841,-0.159253,-0.224246,0.462139,-0.158460,-0.283671,0.319305,-0.351742,-0.137388,-0.025682,-0.045218,-0.177919,0.290351,-0.134034,0.021633,0.455282,-0.009859,0.213296,-0.104314,-0.155546,0.714261,0.330850,0.054581,0.274437,-0.307688,0.358218,0.445329,0.530561,0.172639,0.309813,-0.141870,-0.056274,-0.091239,0.215869,-0.412731,-0.066840,-0.214466,0.130501,0.532197,0.467237,0.276167,-0.095345,0.282088,-0.057872,0.005463,0.103760,-0.164364,0.821844,-0.098756,0.282054,-0.101550,-0.205275,0.168798,-0.058732,0.185697,-0.186686,0.359581,0.681228,-0.054798,0.154183,0.076757,0.083652,0.089189,-0.102910,-0.071342,-0.172698,0.626770,-0.207430,-0.102016,-0.151624,0.156752,0.316458,0.205409,0.245801,-0.480108,-0.466914,0.160500,-0.233694,0.206038,-0.069122,0.024185,-0.065361,0.229403,-0.234449,0.193691,0.275753,0.421632,0.160502,-0.157637,0.018470,0.435382,-0.199936,-0.178590,0.287143,-0.012299,-0.106344,0.109018,0.341205,0.222413,-0.051685,-0.133507,0.233537,-0.298235,-0.112099,0.115489,-0.118915,-0.255402,0.890355,-0.253378,-0.229488,0.336594,-0.346924}
    },
    {
      {-0.309120,-0.511067,0.809308,0.335887,0.496091,-0.417549,0.841227,0.629049,1.046937,0.353539,0.548497,-0.727281,0.726976,-0.294297,0.303565,0.497354,0.083374,-0.324866,1.186009,0.079815,-0.303389,0.454624,-0.356396,0.251374,-0.184774,-0.424723,0.903816,-0.430929,0.433881,0.387770,-0.415403,-0.215323,0.495729,0.598967,0.273396,-0.220132,-0.394569,0.602262,-0.160336,-0.368144,0.145632,0.673980,0.575518,0.441028,-0.434475,0.507553,0.723523,-0.276937,0.688471,0.419134,0.673184,0.558449,-0.392921,-0.434289,0.427644,0.576619,0.827966,-0.527982,0.549947,1.232182,0.667556,0.436981,0.421260,-0.455684,-0.387278,-0.533497,0.451951,-0.261050,0.524888,-0.394876,-0.206899,0.654490,0.449061,-0.077813,0.589397,0.690423,0.287463,-0.448083,-0.458220,-0.154314,0.482229,-0.268969,0.711643,0.479845,0.059473,-0.372853,-0.411204,0.422216,0.388662,-0.315090,0.505681,0.605110,0.433599,0.601671,-0.456259,0.538544,-0.177879,-0.281746,1.335847,-0.260609,0.459242,0.648246,0.474658,0.743727,0.366590,0.448128,0.340405,0.792266,0.442366,0.932181,1.354946,0.672379,0.190129,-0.224158,-0.344422,1.230540,0.490741,0.608852,0.630619,0.686955,0.611154,1.290410,0.961597,-0.077671,0.036086,-0.490667,0.386630,-0.158323,0.190959,-0.803574,0.141671,0.514677,0.548918,0.554245,-0.508013,-0.161582,0.370514,0.380960,0.398380,0.371302,0.341899,0.413646,-0.348535,0.500527,-0.257261,0.459061,0.763004,0.282077,0.384185,-0.392775,0.615250,-0.376315,0.756355,0.405486,0.403478,0.760312,0.380479,-0.329923,-0.612479,0.743341,0.528782,0.453803,0.430191,-0.321048,0.610566,0.216783,0.786367,-0.174008,-0.429231,0.595200,-0.479385,0.374734,-0.424302,0.893299,-0.313112,0.480308,0.517138,-0.368438,-0.383176,-0.499997,-1.243016,-0.187841,0.444278,0.260084,-0.360982,0.431554,0.337972,0.341135,0.275759,-0.455516,-0.117380,-0.511721,-0.116974,-0.227922,-0.340189,0.486113,-0.443231,-0.591540,-0.668434,-0.349931,0.422567,0.799715,0.489531,0.429085,0.369746,-0.375857,-0.353377,0.924873,-0.261409,0.242331,0.414683,0.788986,-0.350006,0.359515,0.584095,0.578513,0.573967,0.570659,-0.605101,0.489959,-0.302964,-0.389524,0.394641,0.725837,0.498681,-0.402731,0.699526,0.710682,0.616524,-0.249470,0.442791,0.882344,-0.559301,0.376699,-0.320208,-0.927938,0.498093,0.727151,-0.359502,-0.206373,1.095028,0.682606,0.956339,0.459910,0.078648,-0.578380,-0.451230,0.903644,-0.724156,-0.543421,-0.267542,-0.206184,0.530545,0.721401,0.782382,-0.080073,0.622575,-0.525168,0.490769,-0.302973,0.467202,-0.025203,-0.199003,0.567248,0.084613,0.694775,0.915685,0.358563,0.583366,0.810146,-0.169974,0.472025,0.585662,0.169903,-0.303664,0.390116,-0.385858,0.354114,0.880969,-0.306948,-0.376761,0.583468,0.563035,0.754702,-0.641500,0.509783,-0.816732,-0.164481,-0.426085,0.362552,0.320078,-0.322206,0.442137,-0.454713,1.030968,-0.223993,0.593552,-0.474281,-0.276739,0.058587,0.675335,-0.296933,-0.175030,-0.582138,0.047689,0.295130,0.285982,0.118182,-0.296302,0.611731,0.897850,-0.394691,0.943235,-0.383067,-0.448827,-0.434031,0.737081,0.561715,0.401262,-0.253195,0.791886,0.466612,-0.256142,-0.379189,1.028781,0.739619,0.548590,0.761611,0.287526,0.509539,-0.305747,0.684674,0.673215,-0.291242,0.802281,0.777109,0.853217,-0.440575,0.742630,-0.448592,0.478364,0.284798,-0.259063,0.312942,0.864889,0.197818,-0.623281,-0.362690,0.274369,-0.846685,-0.475147,-0.486384,-0.682727,0.699827,0.281966,0.203800,0.613865,-0.265828,-0.350223,-0.290633,-0.486176,-0.369311,-0.527679,0.648634,-0.580722,0.431297,0.842958,-0.265049,0.198242,0.720302,-0.397426,-0.049930,1.008594,0.359301,0.205373,-0.205029,-0.313827,0.379284,0.308658,0.575377,0.155792,0.847265,1.096535,0.585760,0.581026,0.696269,0.434082,0.447184,0.317376,0.554205,0.722678,0.662145,-0.232212,0.648619,0.804255,0.869200,0.103912,-0.229705,0.316293,0.407297,0.420277,0.514733,-1.288826,0.963108,0.504688,-0.434097,-0.376711,0.472307,0.164774,0.812045,1.255047,-2.203365,0.263437,0.834527,-0.334439,0.791084,-0.355009,0.632635,0.475792,0.847199,0.449676,-0.580171,0.404263,-0.257468,0.874256,1.017915,0.526202,0.288467,1.148613,-0.150897,0.616555,-0.151867,-0.716532,1.124608,-0.175716,-0.405818,0.450704,0.521960,-0.515762,-0.239998,-0.363218,0.053581,-0.144716,0.752301,-0.260708,-0.360673,0.490681,-0.312302,0.549993,1.068136,0.385126,-0.267132,-0.291339,0.324831,0.320929,0.270687,-0.576589,-0.352869,1.074522,-0.309070,-0.307278,-0.393636,-0.096538,0.219645,-0.213074,-0.349500,-0.395672,0.858501,-0.457281,-0.204040,0.661716,-0.587849,0.698312,-0.266467,0.400345,-0.267686,0.413228,-0.433039,-0.124290,0.612262,-0.190887,0.595983,-0.400122,-0.357733,-0.110328,0.437636,-0.123695,0.727150,-0.153230,0.397909,0.939323,0.609922,0.503426,0.549505,-0.198414,-0.440888,-0.349256,0.552745,0.898962,-0.276783,-0.489326,-0.291234,0.558807,1.495934,0.504030,0.746559,0.356345,-0.193406,-1.411152,0.940476,-0.188722,0.450712,-0.218871,0.696415,-0.262918,-0.269216,0.616439,-0.116682,0.599135,-0.495902,0.668365,0.814291,-0.372705,0.424791,0.485606,0.686253,0.545358,-0.330547,-0.493027,-0.293574,0.283855,-0.501732,0.157327,-0.340851,0.328107,0.602424,0.349852,0.527422,1.835500,-0.411870,0.392730,-0.499911,0.659314,0.332839,-0.318460,-0.627778,0.357611,-0.345110,0.595580,0.496224,0.906791,0.638583,-0.369733,-0.318762,0.543774,-0.590089,-0.423094,0.439598,-0.752066,-0.302846,0.499653,0.317401,0.575138,-0.398887,-0.472326,0.693029,-0.377323,-0.233036,0.761857,-0.341061,-0.178583,0.593920,0.026115,-0.234251,0.544071,-0.217196}
    },
    {
      {-0.220053,-0.208471,0.532842,0.173090,0.152080,-0.193781,0.723838,0.468811,0.249375,0.111223,0.350427,-0.723722,0.626225,-0.175784,0.240886,0.188545,-0.390543,-0.265218,0.194126,0.326625,-0.171267,0.399595,-0.248368,0.180972,-0.196001,-0.403504,0.386259,-0.285011,0.397896,0.285173,-0.353342,-0.078770,0.542665,0.527850,0.131715,-0.051382,-0.378872,0.344468,-0.053455,-0.046850,-0.054579,0.596507,0.378953,0.170117,-0.228209,0.285289,0.518667,0.367912,0.682480,0.317546,0.612216,0.301596,-0.431612,-0.298358,0.256251,0.225156,0.516105,-0.038139,0.138473,0.466235,0.380977,-0.021926,1.029003,-0.315598,-0.133868,-0.191813,0.498074,-0.160743,0.086795,-0.267048,-0.308449,0.261576,0.116442,-0.296783,0.357571,0.535874,0.481445,-0.278760,1.004161,-0.051809,0.137598,-0.369638,0.418873,0.958521,0.218241,-0.327292,-0.408723,0.436394,0.349425,-0.131861,0.504101,0.366968,0.362850,0.355998,-0.145605,0.356649,-0.221416,-0.237288,0.608799,-0.386369,0.314621,0.351655,0.558356,0.699032,0.272572,0.570657,0.256126,0.479509,0.349392,0.688033,0.903468,0.681382,0.222555,-0.447289,-0.111970,0.746648,0.215647,0.289877,0.278897,0.340652,0.298019,0.896158,0.665578,-0.050227,0.153736,-0.210545,0.311158,-0.200402,0.277844,-0.623065,0.338871,0.349604,0.866044,0.342547,-0.244394,-0.027716,0.144361,0.403490,0.523311,0.195428,0.296740,0.594370,0.465014,0.474996,-0.142452,0.237837,0.752387,0.117901,0.087183,-0.419488,0.342167,-0.134598,0.293156,0.235914,0.306408,0.479231,0.261166,-0.228156,-0.168030,0.417447,0.309925,0.492249,0.117394,-0.062270,0.200385,0.161369,0.600160,-0.185238,-0.241431,0.362054,-0.072290,0.370735,0.042558,0.182687,-0.211519,-0.013863,0.172851,-0.271687,-0.063451,-0.388709,-1.042681,-0.281811,0.379558,0.143181,-0.116345,0.749365,0.175424,0.367504,0.233336,-0.219944,-0.371896,-0.295087,-0.020569,-0.302880,-0.268654,0.280000,-0.308980,-0.032445,-0.217870,-0.168958,0.235789,0.466072,0.250082,0.232369,0.506348,-0.295990,-0.294806,0.571427,-0.538861,0.156641,0.616871,0.490763,-0.353664,0.247801,0.019137,0.583160,0.001416,0.404004,-0.525720,0.489164,-0.194178,-0.428871,0.293856,0.519771,0.265644,-0.286971,0.308166,0.517203,0.454357,-0.134329,0.435284,0.528523,-0.356532,0.294611,-0.273169,-0.334090,0.163493,0.683022,-0.017288,-0.251742,0.520980,0.624117,0.351535,0.403116,0.554875,-0.276553,-0.536255,0.529923,-0.291181,-0.436868,-0.192916,-0.299767,0.406994,0.324661,0.655960,-0.176252,0.523049,-0.096713,0.769432,1.180287,0.120785,-0.329900,-0.335452,0.394553,-0.729908,0.296843,0.620980,0.249594,0.355030,0.785620,-0.252850,0.476609,0.385732,0.319678,-0.203208,0.355958,-0.252403,0.464381,0.382836,0.022198,-0.257090,0.026701,0.350817,0.293089,-0.425942,0.257401,-0.228030,0.020178,-0.184287,0.102928,0.235881,-0.326523,0.455615,-0.425850,0.954441,-0.097745,0.479685,-0.761626,-0.232517,-0.675024,0.393060,-0.316538,-0.179945,-0.016468,0.079713,0.297957,0.180479,-0.096856,-0.163580,0.300561,0.580783,-0.196429,0.278369,-0.320982,-0.009099,-0.343030,0.472750,0.685865,0.824355,-0.230605,0.392064,0.471333,-0.326497,-0.034650,0.535163,0.358121,0.371160,0.451221,0.299668,0.365273,-0.098479,0.703106,0.374583,-0.066181,0.626663,0.848042,0.541706,0.524390,0.244848,-0.265445,-0.087829,0.640178,-0.332027,0.167149,0.628993,1.021875,-0.356845,-0.140840,0.372567,-0.072064,-0.301487,-0.280849,-0.135836,0.291874,-0.006219,0.221898,0.444727,0.021648,-0.158081,-0.340813,-0.289926,-0.142811,0.071721,0.274313,-0.362052,0.277290,0.431544,-0.215680,0.172718,0.598474,-0.060311,0.294504,0.644857,0.256623,0.026351,-0.296330,-0.417054,0.260496,0.437231,0.339472,0.052948,0.884692,0.562868,0.927329,0.231348,0.757444,-0.018888,0.281139,0.209263,0.175276,0.474472,0.271339,-0.019644,0.563249,0.530009,0.620292,0.243703,-0.253573,0.161617,0.490362,0.345000,0.609894,-1.102554,0.346863,0.252599,-0.043663,-0.145994,0.235410,0.229675,0.332207,0.762382,-1.914667,0.586924,0.207686,-0.246899,0.313544,-0.139467,0.097130,0.303278,0.755585,0.031114,0.041562,0.658164,-0.036828,0.629336,0.760314,0.345294,0.269667,0.437845,-0.137407,0.136450,-0.269702,0.538985,0.447873,0.021112,-0.194874,0.556041,0.550690,-0.204767,-0.146102,-0.263244,-0.161542,-0.114396,0.446924,-0.245753,-0.168554,0.226453,-0.569991,0.374780,1.260400,0.370572,-0.187666,-0.009372,0.426568,0.354300,0.029218,-0.410158,-0.230386,0.664224,0.111079,-0.248744,-0.238247,-0.227848,0.175855,-0.461788,-0.453194,-0.018242,0.920919,-0.254902,-0.158675,0.392026,0.101588,0.656719,-0.455567,0.044099,-0.209278,0.339466,-0.311535,-0.435418,0.422544,-0.094430,0.443385,-0.247792,-0.239104,-0.324879,0.516719,0.007406,0.401718,-0.431436,0.499783,0.732663,0.299405,0.128312,0.402044,-0.261771,0.074496,-0.204435,0.289388,0.372552,0.027837,-0.205323,-0.335417,0.391253,0.566007,0.465403,0.469503,0.260972,-0.258553,-1.029582,0.563205,-0.286428,0.087600,-0.292701,0.531914,-0.142818,-0.354959,0.189028,-0.192017,0.515911,-0.591090,0.238616,0.717150,-0.219935,0.133276,0.347339,0.452676,0.779813,-0.135065,-0.074737,0.138192,0.680197,-0.564859,0.346544,-0.164842,0.282986,0.387661,0.451951,0.342176,1.262907,-0.247849,0.504018,-0.457800,0.657746,0.333586,-0.127391,-0.241749,0.271793,-0.046739,0.255781,0.402442,0.441202,0.338014,-0.173965,-0.332335,0.175660,-0.117449,-0.529892,0.648155,-0.125145,-0.134846,0.083505,0.387593,0.232943,-0.293664,-0.223847,0.538212,-0.288614,-0.154888,0.305916,-0.509089,-0.315913,0.911320,-0.008220,-0.392069,0.584498,-0.307993}
    }
  },
  {
    {
      {-0.257356,-0.534725,0.480391,0.331912,0.591758,-0.375006,1.078511,0.454960,0.568520,0.636493,0.756329,-0.352789,0.438792,-0.279726,0.022310,0.419190,-0.109995,-0.043484,0.467261,0.283408,-0.294490,0.475098,-0.278336,0.419049,-0.161968,-0.328298,0.982932,-0.320484,0.445512,0.298231,-0.309427,-0.142669,0.239371,0.792008,0.230753,-0.141453,-0.348802,0.319659,-0.210552,-0.195474,-0.369824,0.840777,0.289029,0.400557,-0.267233,0.544926,0.656177,-0.235339,0.845414,0.276166,0.751198,0.323487,-0.407520,-0.408169,0.407149,0.183900,0.326645,-0.536613,0.587430,0.866838,0.516799,0.353121,0.481683,-0.448447,-0.344498,-0.421706,0.450455,-0.205136,0.367637,-0.379709,-0.182175,0.596606,0.379691,-0.572525,0.621423,0.351177,0.749769,-0.097006,-0.472947,-0.249934,0.355571,-0.431772,0.125993,0.558231,0.467889,-0.395743,-0.442215,0.339377,0.562431,-0.244091,0.576698,0.457447,0.558001,0.513198,-0.132975,0.428184,-0.274190,-0.311118,0.583393,-0.382546,0.278854,0.493051,0.618223,0.573633,0.336073,0.627663,0.431093,0.739915,0.317727,0.289388,1.087860,0.706788,0.376744,-0.238081,-0.295175,0.792203,0.211968,0.475724,0.586730,0.498863,0.561696,0.064332,1.344837,0.303073,0.121757,-0.343981,0.460809,-0.254897,0.448761,-0.726365,0.491574,0.210471,1.083454,0.402158,-0.141967,-0.269089,0.294983,0.617020,0.422369,0.180706,0.293539,0.235240,-0.992035,0.417677,-0.300074,0.392240,0.858158,-0.212959,0.380981,-0.469680,0.317360,-0.328665,0.776696,0.337789,0.596002,0.789264,0.377115,-0.255349,-0.191905,0.275942,0.680619,0.137439,0.321204,-0.264089,0.506714,0.414363,0.060229,-0.331982,-0.210780,0.499843,-0.394047,0.320787,-0.742219,0.706672,-0.009479,0.583297,0.294795,-0.282266,-0.261834,-0.604947,0.402032,-0.222288,0.390755,0.344963,-0.287195,0.608764,0.165601,0.579828,0.237020,-0.104142,-0.272450,-0.265817,0.577878,-0.105096,-0.236416,0.548869,-0.132747,-0.293694,-0.137545,-0.342853,0.401180,0.434712,0.435424,0.242520,0.367267,-0.292465,-0.472263,0.282602,-0.454540,0.411420,0.456321,0.401809,-0.313994,0.025793,0.240335,0.034198,0.641337,0.423332,-0.540736,0.408730,-0.263298,-0.265600,0.418473,0.527484,0.349175,-0.162834,0.527129,0.833587,0.512259,-0.320455,0.202442,0.709895,-0.240610,0.169797,-0.257939,-0.249902,0.501896,0.373584,-0.572987,-0.347628,0.487154,0.482983,0.516025,0.280994,0.437778,-0.494266,-0.285733,0.429835,-0.472272,-0.371575,-0.206104,-0.242087,0.444071,0.462411,0.546026,-0.267107,0.474733,-0.160796,0.498230,-0.329747,0.412626,-0.195520,-0.369911,0.253384,0.625104,0.504044,0.891507,-0.009186,0.285686,0.634151,-0.149817,0.555199,0.373241,0.339605,-0.248632,0.601933,-0.199267,0.334300,0.605908,-0.244076,-0.274336,0.387722,0.358271,0.729451,-0.199872,0.668135,-0.295582,0.220995,-0.071288,0.339831,0.505710,-0.278968,0.367045,-0.334956,1.094190,-0.576536,0.406671,-0.359929,-0.254649,-0.714259,0.189227,-0.167815,-0.307686,-0.237959,0.027015,0.564649,0.235941,0.185984,-0.409063,0.910913,0.650270,-0.205522,0.893289,-0.152077,-0.327172,-0.285630,0.447674,0.858847,1.124397,-0.010505,0.649342,-0.066329,-0.341788,-0.242795,0.762372,0.414558,0.527804,0.472111,0.307465,0.543181,-0.108317,0.717181,0.467787,-0.379756,-0.014367,0.613832,1.255754,1.059477,0.680786,-0.206664,0.561947,0.437553,-0.416477,0.361730,0.606834,0.357362,-0.170724,-0.265052,0.281849,-0.614467,-0.693614,-0.355442,-0.313635,0.341168,0.243105,0.207453,0.991883,-0.170595,-0.175819,-0.433660,-0.076437,-0.296492,-0.496265,0.529354,-0.442954,0.329107,0.742811,-0.226583,0.417995,0.468568,-0.370264,-0.034605,0.757968,0.429490,0.448385,-0.232679,-0.282268,0.489800,0.489002,0.460352,0.282662,0.753928,0.579410,0.618834,0.488107,0.468466,0.401998,0.408158,0.861762,0.407432,0.504918,0.593745,-0.169803,0.764193,0.238746,0.778732,0.258512,-0.017265,0.226305,0.846003,0.282284,0.397352,0.266497,0.652379,0.257400,-0.218556,-0.180849,0.421241,0.440316,0.666655,0.171636,1.218381,0.250150,0.453411,-0.405236,0.316148,-0.329141,0.506401,0.317400,0.352025,0.216467,-0.492706,0.528300,-1.561121,0.298713,0.674782,0.501585,0.346426,0.697347,-0.269248,0.375417,-0.324109,-0.688665,0.880057,-0.318738,-0.498851,0.556395,0.582788,-0.319346,-0.118715,-0.420296,-0.583685,-0.191393,1.397077,-0.219307,-0.211096,0.411681,-0.776312,0.713518,1.090691,0.426313,-0.198999,-0.352080,0.418942,0.200556,-0.275521,-0.057055,-0.215833,0.600481,-0.250710,-0.326508,-0.279838,-0.384454,0.184830,-0.417570,-0.278190,-0.178991,0.670223,-0.296236,-0.229810,0.315203,-0.353738,0.403884,-0.263478,0.433185,-0.337084,0.468338,-0.289265,-0.145610,0.865332,-0.362737,0.764275,-0.272913,-0.247109,0.710169,0.420369,-0.231421,0.438742,-0.252581,0.398868,0.641604,0.689309,0.456724,0.614791,-0.282617,-0.509930,-0.217659,0.662719,0.166957,-0.226542,-0.238936,-0.239255,0.538776,1.111649,0.496969,0.267981,0.412591,-0.185958,0.084122,0.660582,-0.317666,0.854326,-0.195734,0.432231,-0.316449,-0.266690,0.523774,-0.105625,0.352604,-0.231581,0.278697,1.025393,-0.357129,0.448239,0.246325,0.500181,0.325301,-0.120034,-0.730286,-0.152051,0.626014,-0.377867,0.219877,-0.208629,0.357177,0.392824,0.416191,0.482078,1.404915,-0.296253,0.608502,-0.278390,0.878614,-0.253683,-0.147055,-0.430712,-0.072006,-0.325666,0.196987,0.494698,0.470600,0.598286,-0.266243,-0.441299,0.419485,-0.396866,-0.436584,0.425508,-0.329761,-0.162176,0.282834,0.533875,0.614396,-0.385979,-0.284635,0.388853,-0.187087,-0.140013,0.328868,-0.277772,-0.254933,0.633030,0.683229,-0.126418,0.323622,-0.389798}
    },
    {
      {-0.457203,-0.461856,1.337305,0.700107,1.045697,-0.718879,1.452372,0.926574,1.091177,0.616318,1.025063,-1.015024,1.006845,-0.851184,0.985228,1.074217,-0.520847,-0.559797,1.636955,1.317132,-0.803104,0.904093,-0.395189,0.771527,-0.416455,-1.136082,1.354444,-0.748352,1.320442,0.833909,-0.535260,-0.504784,0.728766,1.184066,0.677920,-0.618200,-0.660102,0.894491,-0.204213,-0.856429,-0.949685,1.079522,0.922768,1.028689,-0.533853,1.395354,1.502542,-1.295639,0.725955,1.486841,1.114901,0.884719,-0.762267,-0.516553,0.588617,0.915652,1.318432,-0.703800,0.957781,1.201491,1.244956,0.910049,1.167239,-0.907504,-0.126494,-0.803048,1.349820,-0.454418,1.108466,-0.673661,-0.606178,1.116424,1.143319,-1.018305,0.658400,0.884402,1.501236,-0.443312,-0.552140,-0.367604,0.881831,-0.611259,0.802804,1.550688,0.908528,-0.057348,-0.842898,1.032265,0.904616,-0.871788,1.269609,1.225588,0.677469,1.160279,-0.616703,1.025413,-0.438018,-0.589736,1.542467,-0.160761,1.009503,1.363323,1.263379,1.137768,0.894398,1.055575,0.774102,1.008034,0.988653,1.461980,1.570775,1.124649,0.693973,-0.396234,-0.589426,1.596320,0.902394,1.576995,1.141350,1.175326,1.245934,0.031756,1.325199,0.496406,0.895814,-0.395909,0.797625,-0.425080,1.089742,-0.648211,1.155756,0.738811,1.553297,0.541021,-0.883690,-0.785458,0.969706,0.810278,1.067873,0.489588,1.528271,0.881686,-0.204484,0.901499,-0.503680,1.005554,1.564049,-0.207240,0.686353,-0.700050,0.825538,-0.462999,1.580808,0.818915,0.762858,1.961594,0.608919,-0.428830,-0.646562,1.377387,1.207994,0.811194,0.757119,-0.468466,1.190332,0.631251,0.408746,-0.336130,-0.850848,0.828505,-0.660323,1.006420,-0.492758,0.865597,-0.889350,1.161610,0.803926,-0.888163,-0.765167,-0.686649,2.086326,-0.380865,0.945548,0.506920,-0.341408,0.833281,0.475067,1.411191,0.615591,-0.909806,-0.534636,-0.234646,1.463491,-0.538243,-0.328431,1.203558,-0.591573,-0.604312,-0.417730,-0.339999,0.824054,0.967709,0.913141,0.963270,0.704111,-0.736032,-0.720622,1.264543,-0.410530,0.783199,0.863164,1.271195,-0.368658,-0.217188,0.940481,0.209676,1.157209,0.862916,-0.679962,1.313609,-0.284081,-0.619421,1.009784,1.122238,0.964447,-0.246529,1.282410,1.606964,0.805739,-0.468120,0.927824,1.384570,-0.614327,0.928455,-0.715420,-1.281427,1.147017,1.206600,-0.145077,-0.327598,1.199448,1.218874,1.563182,0.872748,0.872070,-0.968062,-0.181786,1.123555,-0.763803,-0.344125,-0.580693,-0.495736,0.795197,0.818571,1.432202,-0.737989,1.369438,-0.749977,0.645593,-0.649720,0.902393,-0.380729,-0.766708,0.702226,0.070891,1.076046,1.265952,-0.366793,0.931462,1.768014,-0.437725,0.919576,1.001203,0.977442,-0.487833,0.665041,-0.498103,0.796484,0.512106,-0.762443,-0.292535,1.250338,1.309768,1.024027,-0.776196,1.285818,-0.998628,0.387268,-0.513585,0.889445,0.789517,-0.545650,1.031684,-0.674848,1.442446,-0.074260,1.012360,-0.192343,-0.584691,-0.301451,1.039418,-0.426290,-0.439981,-0.757301,0.177562,0.862726,0.937238,0.773525,-0.654177,1.317945,1.376803,-0.523879,1.427873,-0.803942,-0.621864,-0.466008,0.843177,1.038633,2.369668,-0.599051,1.569257,0.918914,-0.129800,-0.625329,1.096779,0.771621,1.417799,0.886591,0.803906,1.157596,-0.537233,1.020190,1.398518,-1.051419,0.012315,1.576671,1.614602,0.251281,0.778036,-0.634410,0.648243,1.027475,-0.206247,0.644547,1.318176,1.070531,-0.592377,-0.534990,0.909814,-1.175723,-0.902507,-0.355818,-0.235996,0.878703,0.592847,0.745996,1.368412,-0.731420,-0.335191,-0.318917,-0.466580,-0.405141,-0.673336,1.047159,-0.679091,0.766904,1.527348,-0.658706,0.790419,1.348238,-0.864954,1.717454,1.558105,0.628198,0.811537,-0.657028,-0.703613,0.779664,0.868965,1.334262,0.791015,1.548762,1.147937,1.169616,1.236681,1.347520,1.036223,0.721862,1.009714,1.118204,0.938589,0.890759,-0.451748,0.930025,1.562068,0.831809,0.901588,-0.443251,0.799657,0.920059,1.345260,0.951542,0.683192,1.298254,2.072953,-0.520428,-0.386866,0.558827,1.021798,1.024143,-0.028981,0.248484,0.792094,1.164235,-0.382707,0.818003,-0.560468,0.858579,0.905274,1.106483,0.532282,-1.100725,0.802408,1.644569,1.396005,1.258073,1.085340,0.943723,1.031456,-0.317722,1.451793,-0.733836,-0.842234,0.936017,-0.719250,-0.523316,1.173505,0.890991,-0.591070,-0.554126,-0.537317,-0.192686,-0.360166,2.041391,-0.787025,-0.111394,0.685317,-1.178995,1.008888,1.609828,0.862039,-0.414076,-0.683586,1.040056,0.793281,-0.632692,-2.006715,-0.545244,1.132273,-0.648219,-0.407369,-0.487877,-0.381393,0.609436,-1.064544,-0.553253,-1.059661,0.914641,-0.586445,-0.433137,0.676333,-1.102569,1.239323,-0.643041,0.615108,-0.480449,1.235258,-0.446377,-0.764116,1.654452,-0.380401,1.402799,-0.681287,-0.475854,0.000264,1.146251,-0.643336,1.332750,-0.682070,1.050750,1.374845,0.940196,0.684140,0.727518,-0.627765,-0.845578,-0.608871,1.058932,0.993754,-0.668919,-0.281165,-0.533445,1.165327,2.275753,0.975840,1.344715,0.732940,-0.588666,1.547556,2.034405,-0.409722,1.075025,-0.475772,1.602886,-0.528737,-0.625007,1.052658,-0.703480,0.896241,-0.978079,1.065033,1.082698,-0.581678,0.911855,0.763988,0.913842,1.310139,-0.365279,-0.207357,-0.709183,1.231994,-0.437152,1.017296,-0.487219,0.787653,1.073746,1.328930,0.978966,1.619514,-0.696409,0.687061,-0.474989,1.137114,0.074610,-0.628142,-0.416910,1.330155,-0.610717,0.850522,1.037462,0.736876,1.066090,-0.675679,-0.888848,1.181822,-0.474132,-0.481595,1.421440,-0.386346,-0.542771,0.735362,0.918413,1.064991,-0.223461,-0.587826,1.465445,-0.660065,-0.331600,1.063910,-0.280428,-0.603283,1.548197,1.444059,-0.564004,0.984942,-0.269706}
    },
    {
      {-0.569314,-0.585523,1.109422,0.643790,0.669722,-0.511368,1.461175,0.849398,1.009012,0.806359,0.990404,-0.326448,0.643963,-0.341935,0.614036,0.734706,-0.781820,-0.371597,1.219877,0.741877,-0.437722,0.394125,-0.476674,0.433884,-0.275338,-0.626966,1.213331,-0.313160,0.492725,0.734007,-0.602215,-0.301553,0.804164,0.720805,0.552069,-0.257361,-0.356100,0.742485,-0.512703,-0.434249,-0.471667,0.657932,0.875464,0.728917,-0.501743,1.109853,1.392370,-0.681181,0.601132,0.847505,0.924591,0.581125,-0.696065,-0.373845,0.756542,0.818018,1.016651,-0.387343,0.672906,0.849785,0.686200,0.520362,0.743780,-0.789905,-0.665289,-0.418873,0.756333,-0.366820,0.678141,-0.733461,-0.445874,0.834507,0.635514,-0.576018,0.695233,0.839287,0.526358,-0.417268,2.759056,-0.308582,0.404048,-0.323025,0.709339,0.978645,0.823687,-0.785143,-0.828228,0.695036,0.740854,-0.471705,0.704194,1.092312,0.700249,0.969225,-0.413456,0.571389,-0.390568,-0.368242,0.904190,-0.495685,0.517694,0.940387,0.874093,0.899762,0.515294,1.084052,0.381390,0.923942,0.429787,1.349558,1.322316,1.007619,0.453839,-0.271850,-0.335574,1.550874,0.423756,0.544079,1.051341,0.891374,0.895461,0.340410,1.136009,0.587322,0.774793,-0.315249,0.728373,-0.451362,0.638649,-0.673275,0.801375,0.537482,1.635243,0.878129,-0.259802,-0.782389,0.987420,0.573139,0.676436,0.410498,0.456998,0.921764,1.133318,0.627661,-0.440022,0.725528,1.341168,-0.395075,0.479331,-0.442698,0.617922,-0.279000,0.793339,0.570747,0.665759,1.290436,0.551293,-0.399843,-0.432990,0.837158,0.863916,0.756642,0.529517,-0.321578,1.234276,0.877932,0.263792,-0.466523,-0.397935,0.656681,-0.441159,0.735717,-0.476235,0.718494,-0.236549,0.910596,0.878717,-0.527529,-0.305875,-0.564599,1.694937,-0.332355,0.610246,0.664110,-0.348572,0.632520,0.480559,0.692509,0.468524,-0.414239,-0.167356,-0.429981,1.623253,-0.189627,-0.356431,0.601765,-0.719909,-0.321411,-0.491148,-0.425842,0.506049,0.663470,0.545599,0.668548,0.558272,-0.124014,-0.629769,0.773038,-0.454775,0.578297,0.761915,1.016362,-0.335624,-0.238560,0.621479,0.073312,0.732965,0.730840,-0.954764,1.047947,-0.547994,-0.427446,0.935842,1.000393,0.482337,-0.289986,1.133240,0.898401,0.622858,-0.290230,0.757328,0.646571,-0.643799,0.661981,-0.576563,-0.609504,1.131308,0.856656,-0.739047,-0.433521,1.416417,0.448020,0.754008,0.580702,0.834406,-0.732619,-0.535395,1.263217,-0.539312,-0.420845,-0.325656,-0.293775,0.493803,0.560315,0.828328,-0.375763,0.696514,-0.516310,0.682316,1.375118,0.510896,-0.305713,-0.433534,0.415107,-1.768439,0.664686,0.822828,-0.558014,0.450283,0.994630,-0.295515,0.907080,0.704041,0.497099,-0.538049,0.681246,-0.230167,0.829900,1.131202,-0.550551,-0.358725,0.536178,1.012983,0.646895,-0.485187,1.112095,-0.436240,0.494176,-0.591635,0.456310,0.692142,-0.573320,0.608223,-0.702145,1.411859,0.055561,0.792929,-0.534364,-0.097378,-0.572370,0.433992,-0.652071,-0.366483,-0.282404,0.200070,0.486763,0.518452,0.531297,-0.514187,0.890370,1.170223,-0.241115,1.102657,-0.515889,-0.356632,-0.431259,0.600894,0.913496,1.116064,-0.142953,1.301523,1.010103,-0.384111,-0.325762,1.007495,0.987865,0.577672,0.763658,0.821454,0.771312,-0.316589,1.314613,1.161930,-0.788251,0.019703,0.566961,1.033062,1.424834,0.946916,-0.382886,0.299261,0.984056,-0.317053,0.661288,0.829376,0.558615,-0.714300,-0.703339,0.653154,-0.914298,-0.859409,-0.551694,-0.645331,0.822865,0.367300,0.484321,0.898786,-0.335162,-0.362141,-0.201452,-0.347549,-0.443610,-0.551304,0.831815,-0.680258,0.590435,1.021806,-0.348482,0.789929,0.872524,-0.559502,1.117932,1.446238,0.616300,0.531577,-0.217071,-0.401705,0.364034,0.735355,0.551959,0.458434,1.409181,1.229033,0.732043,1.358061,0.978195,0.833675,0.602410,1.032055,0.459843,0.704212,0.583610,-0.207749,0.575018,0.871779,0.828376,0.691497,-0.248784,0.479210,0.254475,0.736698,0.392432,0.435947,1.044536,0.898726,-0.379924,-0.166937,1.148785,0.517391,0.879683,0.249645,-0.004547,0.584747,0.688967,-0.571356,0.382969,-0.270504,0.779155,0.483857,0.398749,0.571413,-0.385026,0.757273,-0.613255,1.114038,0.745405,0.699922,0.853033,1.285444,-0.372386,0.400593,-0.259613,0.829414,1.289499,-0.125971,-0.504439,0.736987,1.020416,-0.433046,-0.382911,-0.485862,-0.426211,-0.233223,1.040039,-0.325221,-0.741174,0.460365,-1.091468,0.732937,1.185153,0.669390,-0.204877,-0.221836,0.474467,0.490007,-0.517274,-0.331973,-0.558473,0.830790,-0.357418,-0.374668,-0.424907,-0.510530,0.593339,-0.518050,-0.240412,-0.570857,0.916802,-0.259125,-0.326716,0.575151,-0.540443,1.140942,-0.417766,0.511561,-0.419283,0.599561,-0.291985,-0.606017,0.774203,-0.433948,0.705023,-0.411416,-0.396763,-0.408408,0.717962,-0.537173,0.576088,-0.279986,0.794263,0.905713,0.620873,0.590770,0.486695,-0.367576,-0.594058,-0.238958,1.077762,1.101909,-0.397317,-0.230099,-0.290925,1.047265,1.800835,0.656502,0.843345,0.466278,-0.291086,1.269964,1.020272,-0.367290,0.822658,-0.444192,0.837694,-0.367871,-0.373726,0.521835,-0.360598,0.518526,-0.652422,0.610662,1.292297,-0.687789,0.522648,0.483240,0.878047,0.887472,-0.208766,-0.769634,-0.493687,0.824477,-0.532272,0.632848,-0.314253,0.452384,0.750267,1.046657,0.562632,0.727932,-0.289597,0.871206,-0.447688,1.139941,0.336876,-0.316777,-0.575278,0.574653,-0.632971,0.696999,0.628969,0.467545,0.686067,-0.397759,-0.726917,0.459307,-0.457335,-0.416922,1.241020,-0.614831,-0.204146,0.481116,0.872990,0.533585,-0.473137,-0.643494,1.011005,-0.354232,-0.332553,0.546898,-0.435812,-0.624182,1.480621,0.834157,-0.440547,0.984321,-0.302200}
    }
  },
  {
    {
      {-0.213126,-0.429099,0.315707,0.198685,0.190903,-0.408484,0.795630,0.282546,0.445972,0.279721,0.387604,-0.280714,0.452599,-0.129672,0.068030,-0.055373,-0.185477,-0.181570,0.476813,0.717149,-0.362378,0.270176,-0.353364,0.343575,-0.046172,-0.285653,0.592653,0.082514,0.245149,0.103233,-0.150219,-0.304916,-0.004701,0.273161,0.237818,-0.067496,-0.258925,0.531095,-0.273246,-0.239652,-0.021113,0.504237,0.130865,-0.050907,-0.243246,0.269859,0.318906,0.008681,-0.202916,0.573066,0.189374,0.299455,-0.089388,-0.297987,0.162488,0.305923,0.114072,-0.149969,0.381688,0.319158,0.102260,0.341001,0.222464,-0.197154,-0.280203,0.081543,0.295118,-0.173728,0.260469,-0.263234,-0.073789,0.492396,0.476323,-0.407727,0.002384,0.134182,0.466778,-0.111756,-0.751944,-0.086794,0.089878,-0.170159,0.237207,0.419262,0.550449,-0.101134,-0.599227,0.147343,0.429856,-0.149477,0.501927,0.567735,0.011282,0.626919,-0.084282,0.244862,-0.145035,-0.200418,0.386983,-0.712371,0.194920,0.356965,0.252424,0.518044,0.340839,0.205842,0.259367,0.311474,0.151221,0.577091,0.390560,0.825038,0.102072,-0.222593,-0.091126,0.462636,0.257363,0.520074,0.229339,0.433859,0.288586,-1.228383,0.710655,0.251859,0.348637,-0.318555,0.210338,-0.017258,0.378469,-0.769194,0.462505,0.358436,0.978080,0.514398,-0.429800,-0.445865,0.474245,0.213508,0.389419,0.092641,0.466704,-0.164837,-0.990527,0.371675,-0.189792,0.012268,0.429918,-0.534545,0.239002,-0.247088,0.072025,-0.229869,0.322937,0.314979,0.266933,0.500824,0.233013,-0.093891,-0.101722,0.381217,0.496196,0.578036,0.179724,-0.193435,-0.165263,0.601301,0.104021,-0.181245,-0.330490,0.295714,-0.053718,0.524781,-0.265789,0.537352,0.260662,1.043434,0.041693,0.168009,-0.084289,-0.202617,0.150850,-0.030253,0.492664,0.158339,-0.175219,-0.076897,0.272457,0.516557,0.209521,-0.296177,-0.232924,-0.431007,0.488874,-0.288152,-0.165268,0.238863,-0.364472,-0.219464,0.065500,-0.048482,0.476303,0.410532,0.170248,0.334586,0.327539,-0.314086,-0.330072,0.298462,-0.151405,0.638506,0.311249,0.586632,-0.197637,-0.446620,0.306801,-0.063775,0.641052,0.340772,-0.080736,0.715395,-0.140987,-0.209166,0.292419,0.375756,0.156788,-0.361490,0.498233,0.883692,0.152823,-0.121123,0.482863,0.070028,-0.201916,0.348766,-0.072660,-0.800160,0.447988,0.675324,-0.205139,-0.304362,0.423868,0.290780,0.667899,0.440316,0.253719,-0.254062,-0.105489,0.295519,-0.438417,-0.430263,-0.136797,-0.053621,0.238055,0.240236,0.266170,-0.260223,0.358722,-0.106856,0.309161,-0.361615,0.304720,-0.261462,-0.301159,0.189519,0.812183,0.412587,0.551717,-0.538300,0.573061,0.596424,-0.104416,0.337618,0.345306,0.273609,-0.083373,0.360213,-0.089165,0.370206,0.473441,0.040094,-0.078049,0.375890,0.257011,0.356721,-0.227562,0.273128,-0.566060,0.389260,-0.347841,0.165749,0.341825,-0.220988,0.379116,-0.388531,-0.033805,-0.484919,0.250540,-0.280840,-0.190155,-0.449668,0.577464,-0.190297,-0.198160,-0.443843,0.088354,0.361096,0.142305,0.380152,-0.060299,0.844765,0.265142,-0.164938,0.680034,-0.231334,-0.197075,-0.205322,0.388105,0.758904,0.549487,-0.163823,0.246267,0.159022,-0.230498,-0.107971,0.591713,0.506104,0.268045,0.408449,0.371051,0.162184,-0.088120,0.049596,0.759248,0.592711,-0.561427,0.237260,1.242542,0.466360,0.388331,-0.015187,0.771799,0.513470,-0.340534,0.448207,0.304573,0.227827,-0.121357,-0.112930,0.059194,-0.654148,-0.414367,-0.342090,-0.070806,0.629625,0.138543,0.165613,0.513743,-0.200861,-0.169881,-0.153625,-0.049192,-0.243528,-0.064973,0.131045,-0.172657,0.144682,-0.050117,-0.139730,0.207909,0.203216,-0.182401,0.141642,0.781256,0.041259,0.244780,-0.228197,-0.327673,0.242673,0.189448,0.498124,0.226004,0.264780,0.316980,0.340866,1.098609,0.424252,0.251376,0.095588,0.678658,0.427499,0.432508,0.229672,-0.165114,0.151912,0.454576,0.101884,0.315720,-0.298677,0.414942,0.803768,0.621982,0.263232,-0.103487,0.030729,0.787870,-0.158939,-0.172716,0.118700,0.129058,0.128112,0.221206,1.232426,0.195922,0.171527,-0.227685,0.178547,-0.274768,0.444552,0.235142,0.316444,0.118569,-0.235056,0.326893,-1.821739,0.433230,0.524326,0.161425,0.424941,0.571492,-0.060443,0.155989,-0.029845,-0.534747,0.028669,-0.429341,-0.264334,0.322883,0.519148,-0.104812,-0.396729,-0.114706,-0.434765,-0.149891,1.099104,-0.280104,-0.390571,0.245265,-0.443353,0.304942,1.018742,0.037288,-0.169848,-0.006001,0.390229,-0.073871,-0.156369,-0.737907,-0.112481,0.128583,-0.175744,-0.090804,-0.141212,-0.249060,-0.093617,-0.086340,-0.267087,-0.165198,-0.044034,-0.019797,-0.149240,0.512423,-0.294773,0.241511,-0.186418,0.269415,0.009125,0.294487,-0.172696,0.001767,0.199879,-0.042789,0.155409,-0.118304,-0.082359,0.648984,0.156574,-0.366075,0.576043,-0.033517,0.676883,0.309495,0.348180,0.123592,0.228364,-0.181906,0.118972,-0.064467,0.090719,0.427662,-0.161279,-0.314517,-0.480119,0.436014,0.533969,0.636623,0.886234,0.121172,-0.045430,-0.134411,0.422840,-0.159860,0.636457,-0.150690,0.676352,-0.150586,-0.183273,0.255632,-0.171199,0.108800,-0.452073,0.291527,0.461362,-0.293646,0.326194,0.317493,0.203471,0.036081,-0.145139,-0.414002,0.123385,0.468676,-0.319530,0.123482,-0.110943,0.174933,0.478284,0.373213,0.259779,0.334507,-0.086741,0.154171,-0.059913,0.433733,-0.210114,-0.057393,-0.271114,0.125612,-0.146972,0.205462,0.198436,0.009300,0.328508,-0.024994,0.003538,0.115780,-0.170084,-0.265590,0.646287,-0.537805,-0.136313,0.180482,0.429658,0.568026,-0.376201,-0.229921,0.576027,-0.404554,0.041275,0.478616,-0.273866,-0.150436,1.252356,0.495228,0.008927,0.342760,-0.154803}
    },
    {
      {-0.582157,-0.522033,1.185704,0.426477,0.544766,-0.448550,1.588177,0.700511,0.656543,0.413778,0.973612,-0.341313,0.552353,-0.359653,0.670648,1.183262,-0.494167,-0.454098,0.864341,1.155737,-0.516773,0.447924,-0.659451,0.454277,-0.212448,-0.668713,0.884908,-0.420751,0.820148,0.597165,-0.385197,-0.287766,0.585171,0.821788,0.481717,-0.407393,-0.398273,0.504602,-0.257189,-0.463531,-1.293676,0.852543,0.694706,0.517596,-0.445129,0.806744,1.018348,-0.889771,0.931127,1.056314,0.612135,0.521083,-1.122049,-0.357393,0.960048,0.972680,0.803391,-0.681786,0.802974,0.702000,0.743704,0.614573,0.752888,-0.429668,-0.514397,-0.484298,0.695629,-0.269278,0.488318,-0.484563,-0.340534,0.606946,0.419150,-0.599006,0.879254,0.568439,0.693910,-0.242702,-0.957557,-0.319185,0.454144,-0.471498,0.372924,1.157853,1.164471,-0.681492,-0.448519,0.823720,0.549910,-0.425895,0.900937,1.034246,0.786151,0.895562,-0.361350,0.549455,-0.627785,-0.389280,0.686703,0.051085,0.422798,0.828302,0.796004,0.768090,0.537380,0.493864,0.577180,0.626421,0.417951,0.979359,0.930222,1.212771,0.794411,-0.180255,-0.327546,1.778974,0.476225,0.631689,0.901449,0.817731,0.600698,-1.577863,1.131056,0.559665,0.639597,-0.585467,0.518429,-0.319243,0.688561,-0.629187,0.728911,0.425565,0.817395,0.908261,-0.251741,-0.484527,0.630328,0.476197,0.776960,0.293117,0.395956,0.933745,-0.032798,0.685234,-0.306628,0.446838,1.115164,-0.773366,0.452047,-0.136117,0.607845,-0.362642,1.180727,0.729870,0.500147,0.835319,0.447842,-0.444326,-0.212237,0.587979,0.606180,0.483362,0.439192,-0.327908,0.724026,0.673161,-0.089657,-0.391502,-0.522443,0.596050,-0.448079,0.828036,-0.560669,0.848336,-0.410915,0.475232,0.422214,-0.718365,-0.184063,-0.635854,0.688099,-0.370088,0.403934,0.674985,-0.292759,0.782243,0.354589,0.877163,0.499698,-0.528734,-0.665436,-0.298500,2.123915,-0.405623,-0.316639,0.825220,-0.458582,-0.365852,-0.064755,-0.228342,0.616440,0.646201,0.371549,0.498098,0.645617,-0.470440,-0.543738,0.396066,-0.595684,0.820636,0.747120,0.603445,-0.174297,-0.918424,0.675589,-0.269353,0.943848,0.676506,-0.828892,0.837446,-0.308367,-0.340465,0.818457,0.857615,0.510257,-0.531337,0.732565,1.101584,0.806298,-0.322087,0.694746,1.009149,-0.745587,0.826992,-0.494665,-0.216158,1.168464,0.158130,-0.682739,-0.155641,0.921441,0.938092,0.668874,0.953682,0.473765,-0.418080,-0.320518,0.623501,-0.636775,-0.253207,-0.294778,-0.257448,0.559700,0.456109,0.789275,-0.576034,0.814871,-0.324184,0.837289,-0.697673,0.835032,-0.608389,-0.548746,0.421980,0.267272,0.622321,1.204947,-1.316808,1.081082,0.947741,-0.453629,0.823853,0.790856,0.563723,-0.438918,0.669522,-0.287347,0.627344,1.176042,-0.298406,-0.119782,0.691214,1.008113,0.707274,-0.116024,0.754472,-0.657445,1.153101,-0.211373,0.436586,0.426462,-0.601155,0.444339,-0.624322,1.510075,-0.251774,0.872951,-0.213527,-0.364731,-0.777997,0.935550,-0.259111,-0.376298,-0.799345,0.200490,0.607365,0.633109,0.561183,-0.503897,0.735945,1.010723,-0.100378,0.967888,-0.518432,-0.175491,-0.310116,0.617486,0.741264,0.967454,-0.396633,0.753715,0.861085,-0.349747,-0.262413,1.156705,0.625508,0.786374,0.635029,0.537718,0.345347,-0.338452,1.398784,1.385083,1.868966,-0.797129,0.990094,1.355669,-0.200421,0.774780,-0.430285,0.200197,0.927095,-0.347915,0.729792,1.138143,1.165287,-0.540183,-0.227224,0.376964,-0.587592,-0.365070,-0.381620,-0.645130,1.017530,0.420458,0.480346,0.714510,-0.312690,-0.289548,-0.201729,-0.293173,-0.268983,-0.512205,0.693421,-0.448612,0.515885,1.155721,-0.349989,0.600416,0.701858,-0.628542,1.000719,1.269097,0.337302,0.706124,-0.524802,-0.658407,0.406327,0.695499,1.067863,0.540553,0.779500,0.715286,1.224666,1.680356,1.068478,0.859628,0.589678,0.655387,0.433709,0.411371,0.685018,-0.316782,0.496111,0.656482,0.374709,0.886160,-0.444765,0.752675,0.797166,0.507363,0.698099,0.263911,0.589006,1.419677,-0.356822,-0.185917,0.731916,0.625099,0.657220,-0.141904,1.926575,0.241864,1.068667,-0.471885,0.521424,-0.361010,0.926429,0.353407,0.623148,0.359423,-0.310284,0.884367,1.759912,1.380335,0.789332,0.922091,0.674918,0.989460,-0.447831,0.571807,-0.312327,-0.495298,1.152091,-0.403690,-0.380088,0.919931,1.134628,-0.353326,-0.468951,-0.439003,-0.168085,-0.234736,0.971732,-0.314927,-0.630915,0.386344,-1.157391,0.542581,1.238684,0.556488,-0.223583,-0.372804,0.622190,0.603554,-1.271676,-0.270844,-0.283828,0.792171,-0.324801,-0.512380,-0.190104,-0.519799,0.421961,-0.864267,-0.275371,-0.367168,0.959242,-0.189594,-0.305776,0.788670,-0.226262,0.556649,-0.502860,0.492153,-0.313476,0.679039,-0.262605,-0.731882,0.669627,-0.599243,0.469951,-0.346336,-0.189074,-0.043380,0.655188,-0.649224,0.592495,-0.590821,0.630124,0.516823,0.316328,0.694601,0.808419,-0.213324,-0.645511,-0.393613,0.338197,0.808736,-0.451801,-0.373434,-0.345404,0.962258,1.822202,0.635062,0.580675,0.288031,-0.448925,0.067979,1.030867,-0.519312,0.887878,-0.511151,0.711517,-0.175892,-0.192324,0.585362,-0.330327,0.674786,-0.561488,0.724606,1.303115,-0.469073,0.776344,0.571882,0.702448,0.975507,-0.208969,-0.060882,-0.678535,1.000275,-0.408415,0.416128,-0.227483,0.514290,0.655375,0.692484,0.500834,-0.127127,-0.188028,0.978468,-0.770868,0.793184,-0.250753,-0.606029,-0.565782,0.954710,-0.125069,0.539024,0.619233,-0.239607,0.547360,-0.415033,-0.669257,0.706084,-0.320045,-0.715520,0.700683,-0.059127,-0.138207,0.555719,0.674372,0.676209,-0.649049,-0.255677,0.902963,-0.082088,-0.399908,0.182137,-0.484472,-0.286110,1.036896,0.857273,-0.484007,0.709494,-0.251159}
    },
    {
      {-0.483836,-0.211051,1.069760,0.359511,0.562911,-0.377099,1.150751,0.323374,0.581614,0.180433,0.653454,-0.474600,0.423638,-0.205071,0.503161,0.389251,-0.420226,-0.347521,0.735190,0.481663,-0.347359,0.445693,-0.357670,0.248921,-0.134110,-0.738288,1.024241,-0.401833,0.563735,0.383178,-0.271177,-0.445975,0.705597,0.499613,0.303583,-0.288538,-0.458211,0.392246,-0.030459,-0.243588,-0.672299,0.361134,0.295820,0.755004,-0.542860,0.553089,0.754541,-0.461316,0.762405,0.484346,0.672613,0.257377,-0.503786,-0.185220,0.292406,0.655715,0.544362,-0.439950,0.517042,0.513134,0.524639,0.395192,0.460362,-0.485173,-0.498442,-0.288279,0.667375,-0.196029,0.599257,-0.403218,-0.105188,0.747074,0.374164,-0.484620,0.720213,0.575862,0.731678,-0.378682,1.668343,-0.198142,0.401859,-0.219340,0.419644,0.932157,0.961854,-0.295423,-0.383717,0.474877,0.349440,-0.352782,0.568216,0.556046,0.689456,0.671411,-0.252083,0.595460,-0.546487,-0.394876,0.553027,-0.449034,0.534286,0.828336,0.499183,0.815080,0.349633,0.571469,0.345014,0.368986,0.362010,0.845847,0.849057,1.147015,0.238256,-0.264823,-0.375065,0.719630,0.323730,0.470682,0.368866,0.420551,0.585815,-1.085259,1.022986,0.426725,0.898226,-0.430114,0.291371,-0.261800,0.482656,-0.614860,0.629069,0.466599,1.290045,0.526575,-0.214832,-0.844288,0.505573,0.542163,0.376986,0.219774,0.438306,0.353432,1.127738,0.429399,-0.152287,0.414678,0.695791,-1.108897,0.331077,-0.258472,0.413940,-0.244465,0.506712,0.691517,0.345553,1.076146,0.312179,-0.256288,-0.299652,0.419386,0.755990,0.435497,0.437608,-0.262315,0.242026,0.474364,0.005148,-0.272653,-0.427466,0.528505,-0.413216,0.722220,-0.533417,0.670757,-0.640127,0.946339,0.166701,-0.243286,-0.347773,-0.642427,0.051291,-0.253727,0.481474,0.568640,-0.359973,0.364043,0.242116,0.729604,0.298483,-0.573101,-0.622654,-0.355142,1.008917,-0.349212,-0.194737,0.771933,-0.609877,-0.478362,-0.078862,-0.397097,0.481696,0.753072,0.468387,0.345327,0.467582,-0.182237,-0.368724,0.650034,-0.417721,0.680706,0.330304,0.679708,-0.283781,-0.817259,0.511383,-0.206945,0.928983,0.418647,-0.265122,0.653990,-0.461617,-0.035203,0.484414,0.609654,0.408931,-0.255368,0.520882,0.568972,0.375487,-0.384048,0.603325,0.533024,-0.144527,0.528035,-0.300698,-0.210078,0.553412,0.412679,-0.650517,-0.286209,0.278838,0.505883,0.917474,0.434242,0.477382,-0.621878,0.024136,0.495970,-0.561150,-0.276416,-0.336332,-0.158078,0.514164,0.269379,1.022340,-0.160406,0.580066,-0.305557,0.425615,1.480321,0.407567,-0.411353,-0.332028,0.291516,-1.195838,0.511009,0.794441,-1.321520,0.597666,0.926500,-0.377253,0.615856,0.561682,0.250137,-0.227065,0.469849,-0.235287,0.278621,0.534456,-0.136203,-0.124036,0.643121,0.648176,0.954232,-0.401294,0.589890,-0.678697,1.205890,-0.246946,0.538986,0.496819,-0.272121,0.682339,-0.270594,1.085837,-0.069531,0.122031,-0.437481,-0.124015,-0.219776,0.593221,-0.363285,-0.198050,-0.542767,0.200607,0.646264,0.306955,0.338298,-0.376376,1.132060,0.560061,-0.202000,0.952504,-0.181099,-0.394616,-0.351519,0.365714,0.396416,1.248931,-0.166217,1.113244,0.269926,-0.171328,-0.256531,0.670166,0.736114,0.331296,0.452011,0.288079,0.494711,-0.219142,0.249867,1.327771,1.963140,-0.638755,0.644145,0.664296,1.057017,0.623548,-0.259946,-0.157992,0.649938,-0.368459,0.583126,0.653875,0.269967,-0.357704,-0.269818,0.340141,-0.375320,-0.424715,-0.498060,-0.427355,0.798775,0.324667,0.478682,0.596494,-0.142587,-0.304090,-0.314967,-0.241014,-0.269808,-0.390924,0.427801,-0.368965,0.389759,0.690994,-0.234166,0.565785,0.711219,-0.516414,0.697934,0.966629,0.230553,0.469155,-0.003952,-0.368862,0.294023,0.584038,0.456841,0.301442,1.009276,0.531865,0.607545,0.520334,0.655501,0.321261,0.409482,0.831559,0.580562,0.447671,0.474566,-0.227967,0.455180,0.645271,0.311862,0.533833,-0.221936,0.527523,0.762540,0.551541,0.230073,0.040815,0.721743,1.620121,-0.285084,-0.222135,0.581214,0.312334,0.640032,-0.167695,1.883305,0.070340,0.757186,-0.235525,0.263169,-0.183472,0.900041,0.324948,0.635782,0.415536,-0.283353,0.663422,-0.665179,0.607946,0.836073,0.974855,0.554999,0.378248,-0.277704,0.607145,0.035289,1.330437,0.465822,-0.404193,-0.248122,1.010559,0.594339,-0.107136,-0.388422,-0.089460,-0.673760,-0.231334,1.501682,-0.283291,-0.639066,0.472593,-0.363839,0.351687,0.624026,0.465949,-0.032090,-0.345648,0.197424,0.137275,-1.392069,-0.895646,-0.289057,0.513304,-0.350222,-0.153107,-0.436277,-0.112993,0.306615,-0.413163,-0.195192,-0.692829,1.078781,-0.414292,-0.219149,0.711283,-0.536608,0.404088,-0.180304,0.614048,-0.401600,0.530738,0.037629,-0.128079,0.559092,-0.449251,0.450244,-0.419080,-0.257944,-0.329550,0.378124,-0.434805,0.557752,-0.127630,0.628676,0.641866,0.454754,0.312305,0.363327,-0.225091,-0.458765,-0.186330,0.575393,0.520787,-0.261034,-0.358258,-0.264818,0.772158,0.940634,0.706028,0.595445,0.343378,-0.187805,0.295690,0.638834,-0.196442,0.547684,-0.378166,0.984248,-0.108126,-0.309088,0.428578,-0.121485,0.437307,-0.632675,0.410854,0.706608,-0.234921,0.462308,0.332683,0.372649,0.587756,-0.286397,-0.327894,-0.324584,0.324899,-0.325428,0.677153,-0.351293,0.294298,0.405795,0.418150,0.312322,0.482048,-0.161821,0.168452,-0.638928,0.699076,0.303177,-0.251106,-0.383075,0.560143,-0.316248,0.408160,0.539783,-0.072096,0.296981,-0.430383,-0.460308,0.670062,-0.320577,-0.132939,1.045531,-0.161647,-0.165310,0.249639,0.764940,0.521389,-0.371952,-0.348024,0.388699,-0.504021,-0.282148,0.415321,-0.463210,-0.374759,0.493955,0.795195,-0.160704,0.650189,-0.209380}
    }
  }
};
