#pragma once

#include "C:\Users\Baron\Desktop\EE_297_Repo\EE_297\hardware_imp\vitis_hls\lane_seg_hls\lane_seg_top.h"

// Auto-generated with BN folded

data_t enc12_ir11_dw_w[3][3][1][576] = {
  {
    {
      {-0.854149,0.672959,-0.653366,0.064086,0.541713,-0.554355,-0.572270,-0.126780,0.644216,-0.290225,-0.478459,0.611941,-0.212283,-0.065338,-0.120049,-0.618107,0.225056,-0.423795,0.598972,-0.824805,-0.175906,0.257253,-0.499729,0.019000,0.890090,0.009031,-0.423776,-1.217195,-0.315924,0.832825,0.927089,0.071411,0.448106,0.243475,-0.248484,0.004576,-0.421211,1.441841,0.181808,-0.161906,0.616040,0.638796,0.089943,-0.315047,-0.019275,0.813942,-2.170592,0.318748,-2.111681,-0.063906,-0.050364,-0.540907,-0.062745,-0.448303,-1.309464,0.015894,-0.083164,-0.569665,0.768705,0.885939,0.533990,0.950206,0.151370,-0.866552,-0.197671,-0.158860,0.007906,-0.369909,0.526431,-0.306981,1.558321,-0.246891,0.211836,-0.166791,-0.240976,0.189011,2.138282,0.020496,-0.492305,-0.670898,0.652651,0.193867,-0.070545,-0.554372,-0.541407,0.050098,-0.898231,-0.211174,-0.045878,-0.007433,-0.028240,-0.592312,-0.527968,-0.475700,0.393869,-0.779455,-0.225797,0.486289,0.950068,-2.291269,-0.687106,-0.467440,-0.978995,0.212604,-0.119884,0.357536,-0.033194,1.609611,-0.498443,-0.341203,-0.520485,0.174125,-0.189308,-0.359339,-0.303645,-0.297508,-0.662007,0.126653,-0.061268,-0.278843,0.826342,-0.599572,2.279418,0.758427,0.261268,-0.057629,-0.157953,-0.028352,0.912428,0.230017,-0.216670,-5.390603,-0.307098,-0.968719,1.668579,-0.127711,0.667608,2.912731,0.243762,1.532549,-0.240548,-0.194605,-0.019611,0.467039,-0.352571,0.051196,-0.274907,0.406119,-0.566250,-0.039301,-0.653383,0.061365,0.087696,-0.252469,-1.630962,0.414831,-0.576162,0.370293,0.037200,0.449233,0.241608,-0.202633,-0.003578,-0.030438,0.214240,0.774352,-0.054082,-0.656448,0.858176,-0.396976,0.928423,1.954010,-0.605481,-0.272356,-0.100295,0.002511,1.992318,-0.290112,-0.904076,-0.338890,0.782039,-0.474387,-0.342457,0.150916,-0.498967,-0.260053,-0.717626,1.522261,-0.096787,0.316797,-0.105377,0.485859,0.475834,0.171618,-0.054423,-0.326468,-0.086548,-0.611648,1.138854,0.297919,0.058932,-0.578418,1.194640,-0.580099,-0.305821,1.401884,0.002136,-0.103124,0.544011,-0.059618,-0.284055,-0.055991,-0.051877,-0.430646,-0.428155,-0.575904,-0.023453,-2.389769,-0.775865,0.150305,1.291334,-0.763445,-0.727304,-0.249311,-0.392592,0.528581,-0.056002,0.154021,0.254721,0.432608,0.906973,-0.071294,-0.023148,-0.144564,-0.448760,-0.003958,-0.284240,0.084997,0.387675,0.481250,-0.529408,-0.137110,-0.283871,1.002872,-0.771752,-0.253213,-0.302067,-0.230054,0.851363,1.070672,-0.171677,-0.078404,0.348581,-0.062205,-0.582043,-0.199886,-1.064330,1.498991,-0.194003,0.180065,-0.262958,0.359130,-0.399569,-1.062371,0.521471,-0.193050,0.021279,-1.036440,-0.329373,-0.358232,-0.150808,0.742611,-0.705692,-0.197204,-0.042420,-0.312964,0.199835,0.427720,-0.408249,1.014946,-0.878406,0.303977,-0.157775,0.290747,-0.372752,-0.429044,-0.550882,0.430566,-0.321769,-1.213784,0.379982,-0.246755,1.257127,0.118782,1.270858,1.349304,-0.350622,0.504578,1.771808,0.346628,-0.088064,-0.209896,-0.780239,-0.717041,-0.780582,-0.990484,0.140466,-0.356748,0.658778,0.841451,0.735182,1.043480,-0.569905,-0.110783,-0.630682,-0.884897,-0.159249,-0.243701,-2.243732,0.653636,-0.816240,-0.158041,-0.301895,0.011058,1.639505,-0.023346,-0.014515,0.122128,-0.729022,-0.119339,0.649844,-0.059593,-0.448827,-0.334361,-0.317895,-0.553855,0.364388,0.153547,-0.539646,-0.559756,-0.394095,0.618636,0.298189,-1.000941,1.014320,1.339997,0.347207,-0.078791,-0.225041,-0.760589,-0.435461,0.138934,0.400284,-0.723497,-0.156783,0.026694,-0.726313,0.758429,-0.213908,-0.236819,-0.138628,0.839439,-0.121246,-0.210896,-0.296166,-0.130817,-0.128407,-0.589094,-0.278370,-0.060949,0.634121,0.671513,-0.435722,1.566010,-1.554539,-0.943414,-0.225573,-0.251817,-0.211530,-0.611262,-0.157018,-0.810845,-0.242018,-0.591060,-0.542721,0.430191,0.113120,-0.336649,-0.299494,-0.282230,-0.513200,-0.094631,-0.799075,-0.425299,0.250140,-0.719345,-0.176135,0.437499,0.207055,-0.674963,-0.372843,-0.015713,-0.162280,-1.974582,0.201145,0.568240,-0.731771,-0.288653,0.057752,0.226852,-0.128349,0.646858,-0.094225,0.618756,-0.821399,-0.530604,-0.701910,0.704479,-0.047348,-0.350501,-1.881955,0.175735,-0.133773,-0.617869,-0.348552,1.062371,-0.036086,0.291340,-0.081917,-0.757796,1.355027,-0.550136,-0.270165,-0.277011,-0.482113,-0.342012,-0.232847,-0.213455,0.074499,0.459813,1.444172,-0.881046,0.285964,0.326449,-0.377411,-0.385899,0.924007,-0.360868,-0.476551,0.250039,-0.069785,0.141762,-0.140006,-0.184968,0.215740,-0.689456,-0.473717,0.854499,-0.328983,0.429487,-0.226519,1.915114,-0.551489,0.480313,0.261791,-0.320651,-0.314219,0.576128,-0.668534,-0.812087,-0.934002,1.127828,-0.370218,-0.826643,0.222188,-0.509520,0.040265,-0.086313,-0.907874,-0.873679,0.108801,0.752678,-0.426153,-0.992268,0.055347,0.000869,-0.299244,-0.468339,0.057786,0.736847,-2.223671,0.430896,-0.247214,-3.356942,-0.175457,-0.378153,0.871653,-0.199226,0.872713,-0.244382,-1.264912,-0.129015,0.226863,-0.243117,0.281537,-0.209326,0.091943,-0.490934,0.416111,0.140621,-0.213028,-0.778887,-0.604126,-0.448434,-0.177320,0.177714,-0.563338,0.462715,0.035020,-0.868397,-0.410653,-1.013345,0.277145,0.728939,-0.262346,0.221657,-0.106796,0.256798,0.108527,-0.074722,0.186689,-0.370898,0.331929,-0.215644,0.047913,1.523949,-0.148180,-0.293832,-0.496763,-0.438033,0.033278,-0.010952,0.981802,-0.288726,-0.124901,-0.603345,-0.076464,0.000559,-0.093535,0.372978,0.129959,0.100459,-0.204381,0.438234,-0.129737,-0.800510,0.375302,-0.857621,0.217162,-0.650086,-0.257143,0.523896,-0.665553,-0.175554,0.071397,0.483111,-0.680716,0.312910,-0.398403,0.225141,-0.364538,0.257988,-0.169443,0.491382,0.274849,0.728352}
    },
    {
      {-0.929937,0.211408,0.143950,-0.586004,0.176209,-0.514616,-0.850448,0.874896,0.838826,1.444013,0.207689,-0.346363,0.220242,0.503842,-0.735758,-1.242950,0.757690,-0.532900,0.410898,0.348662,-0.452771,-0.205300,-1.317569,1.581428,0.487568,-0.616153,-0.320765,1.413227,-0.399538,-0.448543,2.281097,-0.272705,0.770629,-0.760829,-0.791889,0.700767,0.580709,3.130608,-0.428044,0.791395,-0.102800,1.707511,0.421051,-0.394461,-0.604806,1.289352,-2.460311,0.667502,-1.214199,-1.730034,0.157972,-0.117298,0.948973,-0.428260,0.073307,-0.171975,-0.490388,-0.162946,-0.262812,-0.798102,-0.211187,-0.309864,-0.298093,0.032668,-0.054298,-0.120068,0.171450,-0.266997,0.481373,-1.054843,0.855910,-0.799339,-0.181766,-0.159558,-0.602567,2.100236,3.052804,1.404742,-0.488854,-1.078439,-1.142256,2.125299,-0.428033,-0.265941,-0.216101,0.021941,-1.018257,-0.152472,-0.344061,0.024041,0.020381,-0.728141,-0.936383,-0.685644,0.308775,-0.454084,-0.339901,-0.116944,0.882071,-0.824378,-0.729754,-0.838421,-2.716627,0.474984,-0.742474,2.268950,-0.581378,0.254525,-0.669926,-0.415048,-0.717884,0.024770,-0.376036,0.351938,0.461890,-2.364705,0.191015,-0.042851,-1.951948,-0.111178,1.407111,-0.516960,0.768505,0.578545,0.264579,0.828367,-0.282241,-0.796130,0.417807,0.614889,-0.282173,10.304539,-0.301742,-1.678439,2.148446,-0.015158,-0.677215,-0.711873,1.983890,1.760582,-0.894834,-0.631411,-0.887122,0.068386,-0.182076,0.771996,-0.106553,1.127545,-0.736321,0.459771,-0.296960,0.714671,-1.612868,-0.310822,-1.072099,0.863865,-0.552771,-0.137571,0.437932,0.147825,1.507626,-0.566913,-0.275599,-0.043033,0.195022,-0.064036,0.146969,-1.834579,0.264872,-0.605552,0.582651,0.772627,-0.661993,-0.211402,-0.492665,0.101893,-1.295882,1.180444,-0.682077,-0.253560,-0.409253,-0.935516,-0.422771,0.282051,-0.364420,-0.206903,-0.340790,3.277800,-0.354825,0.174672,0.161346,1.572835,0.457188,0.255784,0.464640,-0.083792,-0.268821,0.037351,-0.732080,-0.594947,-0.152220,-0.625217,2.773459,-0.534679,-0.511202,-0.866958,1.123140,0.677332,-0.662666,1.502548,1.395797,-0.378027,-0.621500,-0.883845,-0.036439,-0.636438,-0.469736,-2.290923,-0.348869,-0.136218,0.757627,-0.468386,-0.526272,-1.046256,-0.568780,-0.169191,-0.803255,-0.689041,-0.133972,0.793280,1.740069,-1.013748,-0.046469,-0.444609,-0.561466,-0.021448,-0.634960,0.855943,-1.407951,1.178657,-0.456561,-0.556906,-0.071251,2.131759,-0.823115,0.081828,-0.713492,-0.249487,2.447234,-0.092784,0.383084,-0.452593,-0.019351,-0.198646,-0.869895,-0.799130,0.376472,0.739133,-0.118571,0.585026,-0.370372,1.579206,-0.843733,0.020510,2.290295,0.019526,-0.540386,-0.672733,-0.366001,-0.515415,-0.376544,1.530732,-0.258959,-0.546769,-0.483275,-0.671743,0.291521,0.016912,0.142131,-0.376135,0.258078,0.688001,-0.487406,1.945682,-0.339451,-0.471717,-1.134576,1.605622,-1.115363,-1.440515,0.719618,-0.764100,0.191134,0.433760,0.612086,0.332259,1.002800,0.446573,-0.171646,2.872526,-0.305703,-0.347510,-1.031627,0.270287,-0.273195,-1.193599,0.998666,-0.412770,-0.005827,0.456755,1.209188,1.345059,-0.491590,-0.315220,0.116015,-0.831347,-0.148070,-0.042663,-2.312253,1.576987,-0.754221,-1.141969,-0.284152,0.526874,-0.156686,0.559219,0.581534,0.115197,1.564107,-0.186837,1.754943,-0.225358,-0.157116,-0.372640,-0.335942,-0.345140,2.028363,-0.361772,0.247880,-0.589074,-0.277332,-0.649898,3.291125,-0.861925,1.962977,-0.351187,-0.240053,-0.356807,0.217133,0.123337,-0.412275,1.648370,1.471670,-0.247649,-0.205286,0.821529,-0.940419,-1.229997,-0.238882,-1.821943,-0.432834,3.239842,-0.558622,-0.480029,-0.456486,-0.707075,-0.253127,-0.242082,-0.585298,-0.051067,1.292494,-0.098265,-0.283924,3.872838,-2.105438,-0.145529,0.214673,0.052428,-0.755488,-0.128950,-0.029244,-1.704186,-0.054753,-1.536139,-0.861188,1.414039,0.844709,-0.266021,-0.346889,-0.602883,-0.353120,2.927012,2.470511,-1.132208,0.412391,-0.074770,-0.283612,0.630247,-2.184472,-0.632788,0.620317,1.550405,-0.225721,-2.518194,0.698553,0.672141,0.832307,0.084575,-0.276885,-0.125965,0.089808,-0.602332,0.706534,0.070889,0.354862,-0.621138,-0.137879,2.677396,-0.439190,-0.401559,-2.784819,0.062958,0.424920,0.848798,-0.029129,0.970178,-0.253463,0.531820,-1.465174,-0.292816,2.331240,-0.802729,-0.643662,-0.313157,-0.035880,0.552601,-0.118862,1.167150,0.186186,1.659795,0.846748,-0.450316,0.568964,0.953548,-0.658715,-0.341308,1.645845,-0.510837,2.523237,1.864648,-0.694639,2.074915,-0.669058,-1.083809,0.588211,-0.336928,-0.512159,0.251675,-0.231708,0.331149,-0.116738,1.289938,-0.408170,0.565540,-0.792816,-0.242476,1.189184,1.568349,-0.014258,0.426825,-0.429691,-0.671195,0.005968,0.617574,-0.421908,-0.585570,0.239317,0.025223,-0.639140,-0.864843,0.426292,2.291886,-0.402949,-0.414275,-0.248959,-0.023473,-0.319584,-0.688746,-0.566300,0.199661,0.252517,1.136102,-0.517800,3.359550,-0.293367,-1.360823,0.924188,-0.345471,-0.840706,-0.803804,-0.414318,-0.371949,-0.458296,-0.441386,-1.350629,-0.164389,-0.263105,-0.506871,1.055911,-1.474640,-0.136469,-0.905791,-0.867428,-0.442653,-0.406168,0.733443,-0.387711,0.318103,-0.160130,-0.429832,-0.402322,-1.281390,0.266061,0.519157,-1.419857,0.019096,0.063801,1.480706,-0.364233,-0.020042,-0.319829,0.208153,0.475942,-0.328713,0.404426,-0.595110,0.407144,-0.195007,0.160804,-1.501556,-0.369831,-0.425436,1.770880,-0.171129,-1.215164,-0.203741,0.007307,-0.115507,1.388778,-0.203939,-1.741695,-0.568168,-0.220332,0.242159,-0.357922,-0.171890,0.366109,-0.656499,0.360126,-1.361138,-0.673359,2.008790,-0.456415,-0.513120,0.463857,1.918190,-0.722656,0.247135,-0.273983,0.711795,0.253677,0.757285,-0.085092,-0.332029,0.638879,0.240892}
    },
    {
      {-0.482387,0.049613,1.004506,-0.251443,0.024862,-0.181722,-0.633240,1.725778,-0.336801,-0.549799,0.343536,-0.615197,0.024402,-0.036704,-0.352942,-0.324726,0.137264,-0.366878,0.365333,2.229693,-0.156340,0.312208,-0.598918,1.494025,0.227880,-1.283680,-0.310236,-1.342800,-0.339545,0.748209,0.776528,-0.299305,0.536447,-0.006848,3.490322,-0.258862,-0.343408,0.819000,-0.115682,0.065535,-0.449731,0.278305,0.172070,-0.623128,-0.270269,-0.486475,-2.021049,0.099189,3.135240,-0.570538,0.073356,0.228769,0.378652,-0.493452,-1.077744,0.289245,-0.026061,-0.311391,-0.661389,0.629288,-0.555661,-0.781162,0.607929,-0.635809,0.235393,-0.254142,0.091977,-0.368023,0.137878,-0.250860,1.648663,-0.220571,1.138839,-0.073589,-0.195321,-0.061372,2.734626,0.174862,0.761569,0.646561,0.530442,0.280175,-0.230796,-0.632140,-0.471911,-0.373472,-0.868509,-0.307953,-0.272150,0.005647,0.188514,-0.051858,-0.190758,-0.571225,0.131500,-0.376461,-0.348005,-0.379575,0.929135,-1.769575,-0.153558,-0.267464,-0.122980,0.054142,1.042662,0.896385,0.070106,0.191107,0.468173,-0.468292,-0.106063,0.286769,-0.261061,-1.788710,-0.133053,0.690181,-0.728985,-0.053259,-0.560323,-0.308487,0.571400,-0.163023,-1.789963,-0.269197,-0.713353,-0.376651,-0.153249,0.047119,0.689650,-0.016012,0.049004,1.662417,-0.001703,-0.552808,1.802060,-0.419973,0.803760,-0.341728,-0.383369,1.218581,-0.562228,0.133880,0.311646,0.964214,-0.368029,0.871082,1.563283,0.321201,-0.038570,0.381307,-0.654418,0.673448,-0.348068,-0.681136,-1.720985,-0.048955,-0.867266,0.488056,-0.040227,0.543889,0.134519,-0.174869,-0.096927,-0.026258,-0.089279,0.601887,-0.067000,-0.438724,-0.529361,-0.656455,0.357663,0.620844,-0.692550,0.200597,-0.572230,-0.569077,-0.410162,0.787676,-0.637202,0.520985,-0.357145,-0.282720,-0.424860,-0.184464,-0.399883,-0.140842,-0.665106,1.244012,-0.248431,0.311365,0.222598,0.156020,0.373415,-0.397591,-0.696726,0.424486,0.057165,-0.645883,-0.158392,0.135114,-0.097757,0.976637,1.075766,-0.396426,-0.243810,-0.174367,-1.602935,0.354744,0.657677,-0.023324,0.815499,0.193358,0.025130,-0.448355,-0.750380,-0.049816,-0.566022,0.256321,-0.455546,0.298085,-0.078044,-0.420643,-0.744339,-0.381957,-0.686242,-0.040487,0.036571,-0.167968,-1.310406,0.563684,1.381364,-0.192087,-0.021860,-0.091749,-0.598240,-0.024770,-0.532225,0.010512,0.324545,0.685894,-0.335034,0.020737,-0.174095,0.792435,-0.175153,-0.204325,-0.201387,-0.237512,1.331274,-0.599387,-0.209896,-0.108009,-0.141545,-0.101739,-0.613491,-0.118186,1.673697,-1.248168,-0.257077,0.333552,-0.310833,0.406027,-0.172669,0.764461,0.329835,-0.041359,0.103045,-0.740266,0.698827,-0.669882,-0.134191,0.776885,-1.127297,0.149254,-0.380580,-0.336498,0.301466,0.312978,-0.414933,0.702405,0.356215,-0.108486,-0.505846,0.305118,-0.243164,-0.350672,-0.668464,0.535430,-0.107940,1.268443,0.187140,-0.568563,0.273054,0.269375,-0.830703,-0.174575,-0.685410,0.165940,1.856438,0.687487,-0.388951,-0.240609,-0.907714,0.797364,-1.005833,-1.002963,0.239525,0.071225,-0.824284,0.952630,0.896475,1.035150,0.533617,-0.233223,-1.299016,-0.906497,-0.232507,0.179871,-2.139337,1.310937,-0.602341,0.128570,-0.770619,-0.072450,-0.998891,0.311687,0.261633,0.575234,-0.678082,-0.267534,1.036927,-0.517548,-0.405481,-0.473647,0.367193,-0.146640,0.334093,-0.181172,-0.763930,0.085624,-0.350130,0.378297,0.544629,-0.851465,0.722837,0.065728,0.304065,-0.167034,-0.088000,-1.298208,-0.187201,1.206150,0.297847,-0.150363,-0.054995,0.042848,-0.867345,0.141909,-0.414385,-0.543834,-0.424530,0.710439,-0.207650,-0.262493,-0.376742,-0.048044,0.369421,-0.091001,-0.152342,-0.061070,0.862341,-0.421878,-0.542897,1.394098,-1.687421,2.086407,-0.424515,-0.420124,-0.137289,0.455736,-0.190567,-1.387582,-0.309619,0.006278,-0.591864,0.466223,0.256889,-0.086109,-0.357864,-0.570362,-0.801446,0.168056,-0.887248,-0.971870,0.394814,-0.525702,-0.462415,0.152102,0.912423,-0.321750,-0.571652,0.606572,-0.334638,-2.325101,-0.165829,0.608383,0.123978,0.420541,0.273372,0.236063,0.694074,-0.030784,-0.107639,-0.512380,-0.343053,-0.657666,-0.128381,0.444088,-0.299647,-0.138007,-3.009403,-0.479639,0.203999,-0.107813,-0.212354,0.674624,-0.114704,0.237086,-0.127605,-0.764017,0.823156,-0.764530,-0.331199,-0.183581,-0.461129,0.699596,-0.183727,0.096974,0.069597,-0.655788,-0.294152,-0.964807,0.399164,-0.298438,-0.212258,-0.130728,0.702077,-0.327682,-0.450807,0.283471,0.997386,0.567102,-0.206518,0.006741,0.456813,-0.493678,-0.458303,1.115343,-0.256123,0.536643,-0.412026,1.618748,0.798984,0.269875,0.362553,-0.667345,-0.856468,-0.802443,-0.676811,-0.596473,-0.511191,-0.204026,-0.611951,0.501455,0.345946,-0.399211,0.195273,-0.286431,-0.613415,-0.519320,-0.697318,1.223649,0.036226,-0.487818,-0.197532,0.094302,-0.172723,-0.462861,-0.128819,0.091596,2.461218,0.509902,-0.882272,-3.365144,0.018381,-0.184259,0.591373,0.000346,-0.070854,-0.470173,-0.402560,-0.610491,0.254877,-0.068821,-0.154420,-0.501030,-0.125672,0.124243,0.697579,0.221215,-0.328656,-0.233286,0.135416,-0.450508,0.153082,-0.213207,-0.538677,0.418057,-0.464612,-0.824575,-0.178241,-0.782106,0.348425,0.488990,-0.315305,-0.014594,-0.047132,0.272983,-0.022776,0.224319,-0.432871,-0.359205,-0.322161,-0.476342,-0.019621,0.388962,-0.059413,0.452997,1.776419,-0.521927,-0.302822,0.007273,0.817009,-0.047574,0.154006,-0.731300,-0.079593,-0.008474,0.075833,-0.820780,0.250894,-0.411775,-0.281733,-0.000558,-0.080244,0.296829,0.368271,-0.428224,0.102047,-0.449908,0.074611,1.171415,-0.366306,-0.526368,0.026738,0.126025,-0.205264,0.467628,-0.896236,0.354069,0.172574,0.326676,-0.177918,0.707343,0.075340,0.405948}
    }
  },
  {
    {
      {-0.724535,0.442763,-1.717797,-0.109180,0.759973,0.197726,-1.158383,-0.252370,0.815211,0.290529,-0.492404,2.177371,0.839131,0.409852,-0.173652,-1.925176,0.095588,-0.403507,-0.149926,-0.772286,-1.059693,0.675269,1.323231,-0.952219,-0.313477,1.045520,-0.486218,-1.331321,-0.662503,1.238509,-0.091157,-0.284348,0.478909,-0.622616,-0.115123,1.029623,-1.725218,0.105139,-0.327102,0.264995,1.692013,0.666401,0.107778,0.189417,-0.323946,2.145530,2.647352,0.434205,3.372106,0.471389,0.635766,-0.946941,1.753997,-0.198220,-0.336611,0.590221,-0.493784,-0.561219,0.894950,0.737120,0.976191,2.290339,2.145921,-0.682440,-0.617868,0.241413,0.007252,-0.214570,0.297758,0.841704,0.053950,-0.344756,-0.249554,-0.339178,-0.358174,-0.579567,-1.816480,-0.140998,-0.856728,-1.401690,0.943906,-0.275788,-0.274042,-0.091980,-0.534360,0.465824,-0.172096,-0.116818,-0.419577,0.001111,0.007270,0.297068,-0.944323,-0.196788,-0.809929,0.760721,-0.465419,0.878253,0.298896,0.479852,-0.726252,-0.049559,0.669913,0.491913,-0.160563,0.983566,0.573406,1.327575,-0.957439,-1.503667,-0.676947,0.503335,-0.713987,1.155502,-0.078092,0.392625,0.446174,0.075238,-1.113994,-0.703066,-0.322031,-0.541591,1.774428,0.794842,1.377923,-1.066660,-0.536230,0.327375,0.008405,0.506059,-0.445422,6.976678,-0.781389,-0.675209,1.473357,-0.712311,2.862080,2.212480,0.531508,0.778714,-0.575456,-0.487778,0.054310,1.129824,-0.325953,-0.817398,-0.875934,0.904166,-1.280625,1.041669,0.074528,0.484275,-0.009667,-0.204937,1.043128,0.646046,-0.068370,0.335656,0.460243,1.019933,-0.050681,-0.387618,-0.287783,0.015291,0.140358,-0.070267,-0.232863,0.839332,2.425056,-0.009285,1.266835,-0.523641,-0.283529,-0.239744,-0.839557,-0.580004,2.625758,-0.897882,-0.551388,-0.699908,1.531738,-0.618173,-0.044116,0.301174,-0.531586,0.502932,-0.574437,-0.205575,-0.282472,0.215778,0.211794,1.221147,0.444666,1.492535,-1.074854,-0.142511,1.404547,0.008606,2.633995,1.737773,1.329226,-0.866641,-0.057063,-0.582817,-0.788952,2.845046,-1.045823,0.060857,0.947579,-0.089490,-1.736195,0.754789,-0.517428,-0.537854,-0.578220,-0.468966,-0.415161,1.126678,-0.071231,0.653734,1.490199,-0.295097,-0.419839,-0.555918,-0.669828,1.676767,-0.154986,0.662815,1.615734,0.760219,-0.230162,-0.190773,0.008108,-0.818309,-0.382633,-0.019071,-0.281975,0.843800,-0.009923,-0.002971,-0.294819,-0.556989,-0.471424,0.140595,-0.847145,0.429879,-0.377578,0.289267,-0.660757,1.879621,-0.028269,-0.326828,0.044785,-0.015512,-0.537095,0.110789,-0.464897,0.236558,-0.602478,1.184847,-0.237353,-0.464880,0.987188,0.346624,-0.581948,-0.544240,1.185150,-0.292195,-0.728518,-0.402918,-0.545417,0.728444,-0.362191,-0.029402,-0.844218,-0.327758,0.390741,0.051390,-0.199534,0.203932,-1.456670,0.217760,-0.062492,0.064847,-0.467534,-0.608496,1.258639,-0.303979,-0.359460,-1.278803,0.314153,0.757278,0.117643,0.029472,-0.607411,1.400756,-0.977302,0.395500,2.073196,-0.038296,-0.704447,-0.230507,-0.102936,0.136055,-0.493113,0.076694,0.351964,-0.457349,1.415300,0.295401,-0.066371,0.025165,-1.407677,-0.481324,0.621304,-0.560973,0.787007,-0.740869,0.705932,0.873543,0.263397,1.338394,-0.356925,0.605798,0.365803,0.593925,0.759694,0.119660,0.626275,-0.270136,-1.466499,0.073389,-0.280768,-0.625171,-0.571908,-0.655407,0.009511,2.050695,0.156141,-0.387266,-0.339294,0.219254,-0.312266,0.244616,0.568787,2.082179,1.599208,-0.619697,-0.449134,-0.230892,-0.351306,-0.035166,0.588578,1.498715,-0.673894,0.617617,0.030661,1.301016,-0.466564,-0.259944,-0.382378,0.773617,-0.552626,-0.649495,0.012266,-0.141024,-1.342688,-0.335672,-0.522412,0.021802,-0.375628,1.389604,-0.821385,1.475888,-0.800590,-0.881460,0.033817,-0.273180,-0.596291,-1.187586,-0.189579,1.422812,0.181290,-0.633568,-0.026645,-0.542749,0.837867,-0.521553,-0.428400,-0.516915,-0.902298,-0.561757,-1.767569,-1.006479,0.228941,-0.555678,-0.670414,0.781739,0.588576,-0.488703,-1.282285,0.725232,-0.743508,-0.227191,0.806806,-0.152747,1.427105,-1.367800,-0.934799,0.473885,-0.659634,1.067572,0.584737,1.405960,-0.347702,-0.362851,-0.616480,-0.792640,-0.223648,-0.650411,-1.098461,0.193654,0.054516,0.284389,-0.628188,0.241243,-0.224452,0.276029,-0.905046,1.204632,0.416819,-0.139461,-0.087912,-0.180999,-0.413262,0.148245,-0.331023,0.437851,0.231948,0.600849,0.556084,-0.835062,0.014766,0.973026,-0.374626,-0.450164,0.810480,-0.022794,-0.933667,-0.352793,0.223733,-0.421779,0.454020,-0.833889,0.153246,-0.524615,-0.229306,0.189377,-0.280581,0.784317,-0.291180,0.250233,-0.623075,0.442698,-0.802741,-0.372791,1.399941,1.144139,-0.278402,-0.354459,-0.910063,2.321469,-0.570037,1.029407,0.148968,-0.291175,0.147594,-0.291981,-0.399724,-0.388673,0.194574,-1.032911,0.718582,-0.738970,-0.134170,-0.073624,-0.405752,-0.229836,1.212500,0.691627,0.245768,-0.392218,-0.982913,1.760715,0.307826,-0.590050,1.693867,-0.331232,2.182007,-0.579245,-0.438908,-0.649354,0.096529,-0.644224,-1.007078,-0.027918,2.154030,-0.452675,0.814154,0.503357,-0.400265,-0.728590,-0.765194,-0.303532,-0.914512,0.252632,-0.440637,0.496801,-0.420186,-0.307506,-0.130764,0.297336,1.042745,0.583204,0.240409,0.303971,-0.620434,-0.334068,2.113463,-1.160526,1.798968,-0.501593,0.121581,-0.755779,0.630810,1.137443,0.869022,-1.286174,0.604605,0.340431,0.152593,0.005750,0.152816,-0.338048,0.110071,-0.278310,0.223085,-0.225300,0.646254,1.080110,-0.901914,0.728027,-0.403428,0.540974,0.208962,-1.133191,0.547880,-0.346865,0.798796,0.026746,0.398028,2.547589,-0.392361,-0.344474,0.235689,-0.074493,0.648742,0.459377,-0.460831,0.484498,-1.139496,0.750254,-0.369368,0.573319,0.722851,0.605542}
    },
    {
      {1.397450,2.815607,0.293942,-0.394704,1.419088,3.620151,-0.108560,-0.577085,0.625287,1.044534,0.334460,-0.231922,2.101470,1.998008,-0.180133,1.007161,0.795700,0.050137,1.176002,-0.082493,-0.042914,2.112709,0.396784,-0.486505,2.302326,1.891387,-0.509213,5.238300,-0.402534,1.244325,-1.462032,-0.321036,2.332683,-1.755951,-2.023971,0.327851,1.801867,1.955918,-1.026487,0.615114,1.211076,-0.360529,1.689725,-0.503873,-0.386971,-1.028800,3.662168,1.905697,4.586942,2.440380,2.300896,0.615409,1.396716,-0.342266,-0.172558,1.889885,-1.037860,-0.150232,-0.092011,1.605503,0.043164,-2.685485,0.900190,-1.270257,3.487693,2.097649,2.302424,2.057383,1.435055,-1.587686,-0.976529,-0.204609,-2.293670,-1.345302,0.869304,-0.426738,-0.934875,2.252395,-1.294961,0.344588,-1.919820,-0.400473,0.040740,-0.401120,-0.284398,3.054116,2.319209,0.315707,-0.414101,0.131563,-0.220277,0.982882,-1.023596,-1.010447,-1.234562,0.265734,-0.404819,-0.197131,-1.159081,5.576679,-0.085019,-0.238769,1.261494,1.804613,-1.204800,-0.120284,-0.970712,-1.979377,-0.607311,-0.311335,-0.938211,2.283749,-0.843691,1.816742,-2.388191,0.425435,3.277074,0.062023,-0.531321,0.082192,-0.641080,-1.516048,-3.017110,0.487315,0.326907,0.445810,-1.498304,1.933484,-1.397327,1.686735,2.376670,-10.517640,-0.900116,3.836965,-2.358506,0.032811,-0.943875,1.502449,6.030506,-1.606394,-0.137510,-0.684627,-1.001874,3.295363,-0.915302,-0.152458,-0.451425,1.484264,1.663102,2.064656,-1.464676,1.904317,2.078920,-0.310059,1.487201,2.198674,-0.176470,1.733521,0.558952,1.304673,-1.001842,-1.312570,-0.624916,0.108900,1.479418,2.630183,3.211128,0.045953,-2.287143,-0.408676,1.573382,-2.151751,-0.478474,-2.726758,-0.661024,-0.119809,-0.824021,0.404567,-0.818861,-1.165772,-1.047809,-0.668322,-0.357318,2.537784,0.495079,-0.021862,-0.632999,-0.712907,-0.217063,2.003113,3.015319,3.167882,1.604494,0.094900,2.360561,-0.148919,-0.259891,2.290548,-1.311886,-1.296265,0.179155,-1.175972,2.295742,-0.267277,-0.978714,-1.159773,1.568405,2.939912,1.589951,0.454054,0.490421,-2.900706,-0.443766,0.936456,-0.361781,-0.644805,-0.541443,-0.373712,-0.556197,2.137928,-0.974791,-0.207306,1.984860,-0.665548,0.135919,-0.878026,-1.204351,-1.515052,0.131675,2.400151,1.180779,-1.091067,0.063632,-1.296635,-0.271675,-0.014053,-0.097402,2.096195,1.030648,-0.515836,-0.965746,-0.487056,0.320207,1.750237,-0.282549,0.840596,-0.092389,1.935534,-1.363717,-1.254233,1.688548,-0.318128,-1.653244,-0.915919,1.688872,-0.442708,-0.050301,1.619803,-0.944045,-0.333443,-0.917153,-0.879145,-1.191955,3.577394,-1.156804,-0.316626,-1.899077,0.661189,-0.788561,-0.206832,-0.343442,0.162754,-0.612281,-0.362679,-0.506559,-0.445022,0.864296,2.357792,0.008852,1.739233,1.160647,2.496891,-0.583350,0.308467,-0.395772,0.038578,-0.208367,0.461784,-0.805215,-0.929538,1.271210,-0.050401,-1.672887,0.168089,-1.090998,1.411089,2.260573,2.127009,3.494350,-0.919347,-1.141156,-1.746149,1.491798,-0.001351,-0.556339,1.325721,1.479338,-0.348758,0.119465,-1.404603,-0.318044,2.390585,-0.804240,-0.441437,4.982517,-0.438913,-2.133276,-0.759805,2.468992,-0.820575,-0.638142,1.230470,0.058385,1.783550,1.761843,2.305009,1.135786,1.084332,1.275497,0.205454,0.876708,-0.071252,-0.627014,1.681313,-0.571624,-0.288558,-0.208918,-0.342757,1.784461,-0.504303,-1.204377,3.762681,-1.602309,0.619840,-1.385766,-2.243098,0.026145,2.646346,2.142557,2.687039,-0.703377,4.213339,0.670154,-1.504431,-0.401053,1.131217,1.500017,0.217533,-0.196931,0.442114,-0.228244,1.282030,-0.615762,-1.357035,-0.628914,-0.783029,-1.019565,-0.673209,0.029784,0.196852,-0.025544,-0.355183,1.619580,4.078104,0.741365,-0.698518,-0.458276,-1.308479,-0.338143,-0.427492,-0.075044,0.572662,1.814772,-0.568480,1.006310,-1.097112,2.001626,0.393071,-0.893576,0.420896,-0.891280,0.222239,2.282906,-0.638394,1.449535,-0.201147,1.744992,3.260980,0.125281,-0.412940,2.608864,1.870898,0.477627,-1.028238,2.911738,1.567538,1.594555,-0.856665,-1.233929,2.023537,0.674143,-1.771966,1.312601,-0.351039,2.484043,-1.008221,-2.700331,-1.432886,-0.306714,0.105239,3.857713,1.050536,2.250666,2.922112,-0.432867,2.281963,-0.300371,2.282503,1.272143,1.834047,3.302687,-0.824787,0.516873,-0.339191,1.353800,-0.824354,-0.914233,2.630826,1.243511,0.455199,-0.302385,-0.688402,0.799678,2.271784,-0.686283,-0.637251,-1.472205,0.034604,-0.639428,-0.503129,-1.101589,-0.793037,2.661864,-0.532640,0.957106,-0.022342,-0.543984,1.994186,-0.453747,2.752859,-0.376597,4.045426,-0.457822,1.374558,-3.746856,-0.529181,3.315851,1.989800,2.672812,3.051018,-0.443350,-0.777583,-0.554037,-0.007887,-1.159565,0.065675,2.394178,-0.475910,-0.024136,1.508883,3.642415,-2.506248,-0.321978,-0.807661,-0.656046,2.222175,-0.441219,0.000174,2.277913,2.637887,0.468958,0.002574,-0.706663,3.759352,1.546311,0.608223,1.032253,-0.334237,-1.092603,-0.398475,-1.422974,-0.006167,-1.314825,-1.597573,-1.611009,-0.935180,0.280244,-0.422760,-0.695163,2.212946,-0.334500,-0.402304,3.036215,-0.532335,-0.206322,2.091304,-0.217615,0.859186,-1.301618,-0.544408,-0.582326,2.038369,0.869056,0.728485,1.016268,1.643108,3.087163,-0.058616,-3.155479,-0.986036,-0.271558,0.283009,2.861859,-0.475856,0.913969,3.280318,1.154644,-0.479588,0.789182,1.067685,2.817806,-2.227927,-0.990472,-0.644893,-2.132005,2.066380,0.909471,-2.346463,-4.748572,0.761844,4.247553,-0.491247,-0.779433,2.907506,3.000104,-1.055630,-0.918090,-0.120847,1.616661,-0.748791,-0.486243,-3.486789,0.115890,0.020118,1.005914,-0.421896,-1.860693,1.339412,-0.727443,2.383359,0.389839,0.823825,-0.772878,2.246432,0.653898,1.282048}
    },
    {
      {-0.424859,0.385100,1.532340,-0.222159,0.548673,0.747378,-0.679149,1.113148,-0.678345,0.249659,1.798354,-1.014144,0.695834,0.541499,-0.425955,0.874019,-0.096275,-0.539607,-0.271044,1.806912,-0.874335,0.449920,1.255485,-0.079866,-0.537713,-1.203196,-0.453270,-0.077069,-0.637161,1.292989,-0.190389,-0.323278,0.124878,-0.577092,-0.614358,1.365400,0.198549,-0.586056,0.723247,0.294105,-0.540163,1.373591,0.299470,0.122487,-0.419264,-0.498871,0.453597,0.396618,4.275383,1.080697,-0.134807,0.700265,2.221218,-0.389925,-0.763453,0.718349,-0.221127,-0.134005,-0.805104,0.502521,-1.083062,0.011786,1.946991,-0.205223,0.558796,-0.188574,-0.047352,-0.427504,0.090941,0.772021,0.460311,-0.490311,-0.240535,-0.361354,-0.380756,-0.607817,-0.667471,-0.067764,2.082583,1.820339,0.658677,-0.481760,-0.571060,-0.198294,-0.364427,0.767792,-0.144294,-0.079849,-0.828396,0.012937,0.163739,0.085610,-0.608576,0.046699,-0.803581,-0.789179,-0.584004,-0.872937,0.348363,1.709116,-0.727882,-0.347145,0.842535,0.632574,1.676099,1.613155,0.833860,0.467858,1.830335,-0.893584,-0.177388,0.096342,-0.292128,-0.498166,-0.083316,0.774418,0.046421,-0.042502,2.125775,-0.633217,-0.043101,-0.538581,0.133979,-1.433735,-1.120724,-1.096613,-0.399365,0.561027,0.026894,0.616742,-0.553526,6.296643,-0.632782,-2.556469,1.051174,-0.254149,2.437710,-0.618057,1.603460,0.511551,-0.632365,-0.834586,2.344847,-0.294219,-0.288397,1.615265,2.879639,1.149171,-1.298499,1.101393,-0.103861,-0.444447,0.320361,-0.299950,0.760075,0.127334,-0.314379,0.340477,0.594629,1.109515,-0.074493,-0.196312,-0.403547,0.009013,0.501112,0.439743,0.231283,-1.766211,-0.354671,-0.102282,1.124656,-0.282598,-0.349084,2.664527,-0.397993,-0.526643,-0.796599,1.206966,-0.837042,1.537610,-0.422091,-0.492789,-0.354496,0.251754,-0.716306,0.469986,-0.973582,-0.384606,-0.413971,0.253389,0.375355,1.460400,0.705961,-1.715037,-0.726910,1.493149,0.031315,-0.063989,0.003410,0.130843,-1.055943,1.906179,-0.022559,-0.063622,-0.716957,-0.155621,1.709342,0.193417,1.388186,0.100371,1.375740,1.425686,-0.539851,-0.545984,-0.736244,0.590133,-0.487484,2.629151,-0.451430,0.392632,-0.345366,-0.253169,-0.567269,-0.740338,-0.943713,-1.042371,-0.158891,0.308122,-0.633601,1.201812,-0.679197,-0.212986,-0.045875,-0.937197,-0.469406,0.031977,-0.602029,0.367676,-0.048150,0.064782,-0.230311,-0.369920,-0.559805,0.438558,1.599369,-0.311341,-0.377249,0.296891,-0.361884,-1.373727,-0.111472,-0.428897,-0.019315,-0.019105,-0.210918,-0.117943,0.902526,1.180843,-0.751163,0.962868,-0.508029,-0.362999,-1.274153,0.412671,-0.818304,-0.254286,1.393981,-0.403782,1.622226,-0.911078,-0.269804,0.723274,-0.393587,0.611344,0.622099,-0.469241,0.530042,0.279092,-0.261180,0.254998,0.948116,0.427864,-0.200971,0.285402,-0.369708,-0.776346,1.234610,-0.573591,-0.214330,1.877507,0.513826,-0.999200,-0.496426,0.014409,0.048762,0.632265,-1.525408,0.685926,1.284443,0.603712,-0.705565,-0.677604,-0.307855,1.393945,-0.384815,-0.164598,0.381384,-0.224909,-0.629530,0.258405,-0.174421,0.656326,2.343720,-0.499001,0.422833,-0.473042,0.537592,1.638303,-2.665902,0.564685,0.391237,1.319591,1.037341,0.524766,1.130933,0.595065,0.429093,0.127181,0.229408,-0.218835,-1.837693,1.485355,-0.501018,-0.549779,1.680437,-0.368015,0.322749,-1.619980,-0.223066,-0.460903,-0.451779,0.335585,0.372165,0.195498,0.682828,-0.320174,1.517115,-0.596439,0.380911,-0.354190,-0.530445,1.403733,0.215376,-0.083796,-0.625518,0.464851,0.136858,1.736005,-0.670702,0.005396,-0.339995,0.954945,-0.335756,-0.715554,-0.564280,-0.135786,2.232400,-0.271468,-0.543671,0.011355,-0.258562,-1.210034,0.866101,0.823109,0.878100,1.545493,0.030132,-0.761836,-0.586264,1.425622,-0.117210,1.998987,0.281521,-0.477506,-0.046518,-0.300445,0.934811,-1.313869,-0.615335,-0.908668,-0.430359,-0.047667,-1.742479,1.887845,0.761934,-0.695306,3.614680,0.915762,1.958658,-0.603539,-1.385928,1.243037,-0.690197,0.221586,0.881083,0.294609,-0.961181,2.245174,1.985915,0.371833,1.628681,0.230717,0.579145,-1.175700,-0.760673,-0.703865,-0.150521,-0.451915,-0.080918,-0.508346,0.542684,-1.423703,0.122541,0.162981,-0.136321,-0.098296,-0.372458,0.411249,-0.710455,1.051956,0.810024,-0.596002,-0.184366,-0.259662,-1.212742,1.248832,-0.430312,0.618066,0.170444,-1.742391,-0.187458,-0.837503,0.005693,1.073840,-0.910174,-0.501397,1.045372,-0.474775,-0.839551,-0.332682,1.080937,-0.229077,0.504162,-0.694244,0.560896,-0.360730,-0.447108,0.079089,-1.012258,0.691779,-0.563729,0.007920,1.080046,0.391507,-0.825156,-0.366311,0.715727,1.498575,-0.438606,-0.517525,-0.856718,-1.112683,-0.907718,-1.839505,1.132786,-0.260540,0.224540,-0.321919,-0.220206,-0.611022,0.242947,-0.344456,-0.668515,-0.368067,0.021886,-0.039153,-0.239940,-0.313033,1.170373,0.510000,0.085742,-0.264014,-0.885512,0.487723,0.553779,-0.805286,1.395682,-0.283388,0.578416,-0.117812,-0.206140,-0.562822,1.592119,-0.590216,-0.952053,-0.042035,-1.948035,-0.671806,0.741432,0.843986,-0.114709,-0.736139,-1.383253,-0.152356,1.240934,0.491131,-0.487025,0.570574,-0.014648,-0.083484,-0.234507,-0.767264,1.157897,0.694723,0.264600,0.333148,-1.049234,-0.306617,1.075032,1.948451,-0.446818,-0.456638,0.617016,-0.544056,0.614678,2.655051,0.753774,1.852104,0.419793,0.361902,0.902425,-0.062300,0.351492,-0.340806,0.587588,-0.112957,0.308655,-0.633007,0.914521,-1.266006,-1.585484,-0.888013,-0.322748,0.019003,0.541307,1.508863,0.515767,-0.257029,0.816895,0.076858,0.337167,2.752518,-0.391646,1.089249,0.397857,-0.017893,-0.462691,0.481726,-0.577575,0.670170,0.578003,0.383036,-0.191269,0.430734,0.713370,0.068756}
    }
  },
  {
    {
      {-0.468413,0.095766,0.464221,-0.291234,0.491533,0.157890,-0.621227,-0.813491,-0.311328,0.116564,-0.086086,0.970901,0.001552,0.056194,-0.082335,-1.579446,-0.379722,-0.369533,-0.791036,0.195084,-0.476591,0.077135,0.661440,-0.188521,0.770586,1.344757,-0.213298,-0.931016,0.109183,0.647768,-0.310641,-0.378360,-0.349090,-0.076702,0.303245,0.085990,-0.115039,-0.744899,-0.436317,-0.064721,0.394984,-0.153605,0.052764,1.121705,-0.602168,1.104043,2.026411,0.254165,0.424859,-0.005951,0.034713,-0.708311,0.633084,-0.479726,-0.658531,0.258554,0.458447,-0.014971,0.864103,0.994373,0.667244,0.690075,0.266726,1.103227,0.414929,0.107049,-0.069837,-0.884849,0.536887,0.823023,-0.154505,-0.167517,0.543793,0.645436,-0.044941,0.047096,-0.989460,-0.097178,-0.444166,-0.686302,0.676473,-0.065061,-0.304872,-0.323389,-0.613003,0.391182,-0.020091,0.926689,-0.339056,0.009485,-0.013547,0.829797,-1.223328,0.665947,0.432455,0.845441,-0.664007,0.697571,0.205346,-0.291049,-0.610816,-0.146832,-0.134077,0.283665,-0.414783,-0.209850,0.671124,1.230693,-0.643124,-1.097894,-0.356780,0.021368,-0.544794,-0.042795,0.245718,1.279281,0.601876,-0.095861,-1.296316,-0.435506,-0.349568,-0.212676,-1.689133,0.202707,0.241814,-0.075264,0.371816,-0.863748,-0.132611,0.058494,-0.444453,0.565817,-0.222757,0.214209,1.263444,-0.161581,0.689786,-0.595909,0.004313,-1.808437,-0.506487,-0.507508,-0.494559,0.359709,-0.349319,0.202624,-0.518344,0.433684,-0.535393,0.094499,-0.399590,0.072335,0.592723,-0.467316,0.294927,0.556916,0.554201,0.100789,0.072669,-0.064859,-0.158922,-0.122664,-0.138707,-0.001122,0.076608,-0.379155,0.378061,1.294846,2.689854,0.406773,-0.082869,-0.665417,0.505500,-0.075800,-0.241638,-0.463639,-0.436744,-0.114094,-0.364469,-0.239384,0.388367,-0.415342,-0.220781,-0.045964,-0.482029,0.841455,-0.531239,-1.031516,-0.307248,-0.061293,0.377124,-2.062514,-0.007525,0.530563,-0.332742,0.031857,0.871695,-0.598165,-0.096711,0.492353,0.625842,-0.133373,-1.984570,-0.293413,-0.577146,0.887791,-0.761742,0.212528,1.041409,-0.016149,-0.670967,0.626203,-0.389996,-0.434595,-0.272864,-0.305699,-0.236330,-0.130800,-0.614689,0.416183,-0.072270,-0.816135,-0.932448,-0.602499,-0.356959,0.603044,0.230326,0.911889,1.367042,-0.855640,-0.520911,0.538006,-0.031786,0.857066,-0.702978,-0.018042,-0.377213,0.307448,0.709353,-0.904471,0.931360,-0.182071,-0.200499,0.003145,-0.828233,0.320556,-0.697285,0.110412,-0.070577,1.257413,-0.099739,-0.224564,2.066451,0.039659,-0.060722,0.086893,1.201602,-0.668510,0.532974,0.249945,-0.195185,-0.640634,0.784133,0.575872,0.019723,-0.450291,0.245545,-0.413253,-0.295760,-1.048254,-0.481960,0.669295,-0.419412,0.423815,-0.541437,-0.684704,0.294995,0.473146,-0.599703,0.150991,-0.912201,1.047837,0.986746,-0.302707,-0.724641,-0.431627,0.296322,-0.445148,0.295808,-0.625655,0.199033,1.922841,2.554084,-0.469385,-0.723491,-0.139228,-0.085620,-0.234032,-0.954597,-1.552093,-0.163911,0.137031,-0.180012,-0.610156,-0.455694,0.513826,0.014482,-0.418536,0.129487,-0.134160,-0.386543,1.064866,1.215870,-0.070229,-0.012360,-0.394409,1.567208,-0.290316,-0.226055,-0.580758,0.638348,0.533629,-0.398063,-0.044558,-1.579495,-0.085560,0.677741,0.233296,-0.382111,-0.270845,0.445826,-0.522795,-0.183828,-0.466117,-0.314209,-0.466754,-0.126910,0.218507,-0.531992,-0.375054,0.749330,0.175135,0.148331,0.051902,0.041312,0.724294,0.516706,-0.317820,-0.098448,-0.556323,-0.253073,-1.043911,0.077156,1.551592,-0.508205,-0.277156,0.061076,0.130447,-0.430418,0.495335,-0.430387,-0.821785,-0.208642,0.467689,-0.514157,0.396182,-0.236981,-0.773253,-0.301814,-0.020545,-0.433410,0.354874,0.001060,-1.796882,-0.276176,0.676547,1.068941,0.820003,-0.369976,-0.334468,-0.522218,0.809804,0.192881,0.365375,0.066739,-0.199298,0.262775,-0.397039,0.870591,-0.621672,-0.697847,-0.011813,-0.212059,-0.324842,-0.189494,-0.030801,-0.595074,0.449121,1.176416,-0.208083,0.133947,0.111232,-0.245922,2.753608,-0.559078,0.250326,1.598337,-0.151497,-0.410787,0.041741,0.060181,1.604469,0.464457,0.968985,-0.750737,-0.625674,2.624510,-0.112122,-0.188066,-0.228402,0.033377,0.127293,-0.016006,0.276621,-0.375708,0.058699,-0.099137,0.298973,-0.338095,-1.031300,1.053726,-0.443697,0.648319,-0.339101,-0.460444,-0.571342,-0.912846,-0.295638,0.039568,-0.078564,-0.003007,-1.117125,-0.446507,-0.416376,-0.408560,-0.324691,0.139120,-0.552642,0.268610,-0.068602,0.464637,-0.012245,0.117698,0.143710,0.320378,-0.464150,-0.411476,0.623052,0.029572,-0.005030,-0.093233,1.978599,-0.571717,0.093721,-0.258630,-0.675813,-0.350914,0.467032,-0.871885,-0.603603,-0.082023,0.567199,-0.918723,0.968503,0.144118,-0.471703,0.170666,-0.490211,-0.446516,-0.590765,-0.164359,-0.158432,1.180044,-0.396322,-0.323886,0.097580,-0.420680,-0.326538,0.511624,0.051195,2.685299,-0.477554,-0.840356,1.933359,0.401897,-0.222083,0.426648,0.041058,-0.227618,-0.580551,0.687658,-0.259782,0.193475,1.075649,-0.076825,-0.224581,0.042690,-0.482788,-0.021868,-0.343789,-0.541749,-0.338919,-0.719512,-0.181531,-0.421501,0.114299,-0.462886,-1.232269,0.404076,-0.635277,-0.087362,0.132384,-0.282469,0.248534,0.121423,0.135146,-0.264981,-0.377135,-0.011020,-0.554127,0.026177,-0.633042,0.461535,-0.338414,0.241889,1.443772,0.112488,-0.298183,0.846956,-0.116980,-0.343433,-0.279237,-0.395263,-0.144042,1.004998,-0.301561,-0.273458,-0.068353,0.467341,0.863780,-0.170577,1.156601,-0.197217,0.105568,-0.232489,-0.206320,0.499818,-0.421027,0.202948,0.139294,0.650976,2.028210,-0.121628,-0.506505,0.073757,-0.172336,2.204886,-0.061276,-0.204746,0.144089,-0.295612,-0.464097,0.019008,-0.031970,0.351510,0.739540}
    },
    {
      {-0.582046,0.287809,-0.117521,-0.279019,-0.159279,-0.166864,-0.775637,-1.549066,-0.900034,-0.669816,-0.147678,-0.298010,0.352116,0.495446,-0.645571,2.343715,-1.342848,-0.403640,-1.306760,-0.412904,-0.257940,0.758681,-0.759257,-0.626271,0.425428,4.142588,-0.154784,1.399225,-0.909723,1.731615,0.233067,-0.198528,0.582531,-0.179184,0.340945,-0.352338,0.265394,-0.777403,0.831814,-1.824023,-0.592515,-0.590210,0.069876,1.284277,-0.634246,0.994928,4.888676,0.108003,-0.951863,-0.058515,0.300567,0.036977,1.037362,-0.265724,-0.568929,0.004868,2.065696,-0.513703,-0.169146,0.075101,0.023763,2.058380,-1.234421,1.774792,0.257507,0.214098,0.351121,-1.112403,0.209673,1.523820,-0.098041,-0.079693,-0.381898,0.883062,0.528124,-0.333428,-1.477480,-0.045001,-0.810252,0.973343,-1.767747,-0.537890,-0.210889,-0.319381,-0.561187,0.723532,-0.004143,1.886849,-0.251469,0.019998,0.058295,1.733237,-0.759899,1.728528,3.382683,0.845199,-0.305770,0.103349,-0.911662,1.952416,-0.245379,-0.728093,1.486025,0.412280,-1.045013,-0.934436,1.666199,0.698473,-0.454445,-0.916021,-0.470138,0.366841,-0.154944,-0.120919,2.135268,2.476649,-0.662150,-0.012503,1.283316,-0.261242,-0.565482,-0.449221,-0.253806,0.058167,-0.216349,-0.785885,2.092359,-1.117764,0.075454,0.148865,-1.136213,2.595962,-0.322215,0.132359,-0.650908,-0.051213,2.251104,-1.084378,1.339922,-1.040423,-0.715591,-1.011459,-0.951019,-0.209316,-0.107642,0.441117,-1.388205,1.068799,3.285420,0.529264,-0.175610,0.800017,0.985370,-0.358838,1.080077,0.742099,1.358014,1.198478,0.478113,0.954829,-0.561818,0.022710,-0.240743,0.052668,0.388604,-1.080387,0.483577,0.956546,0.922160,1.296725,-0.694324,0.253935,0.979474,0.068533,-0.993292,-0.707816,-0.173967,-0.858113,-0.415585,-0.099838,-0.559231,-0.365221,-0.486887,0.594325,-0.248244,1.659887,-0.783461,-0.593292,-0.157857,-0.114792,-0.284234,-0.273730,0.485788,0.198419,1.395804,-0.660740,0.721091,0.107146,-0.941465,-0.730044,-0.038601,-0.168018,-0.711958,-0.634109,-0.252039,0.889094,-0.396127,-0.004426,-0.846311,-1.092900,-0.270705,0.686379,-0.512966,-0.746479,-0.593904,0.651174,-0.247551,1.357997,-0.785918,0.764251,0.181768,-0.863353,0.040016,-0.588962,-0.526067,0.099509,2.180635,1.136305,-0.172659,-1.057495,-1.031858,2.127479,0.113245,2.126691,-0.656129,0.045911,-0.741326,0.279854,3.460459,-0.889740,1.258090,-0.384007,0.002520,-1.823302,0.818142,1.013675,-0.165249,0.715377,-0.815185,0.094825,0.622333,-0.345342,0.685960,-0.060117,0.246775,-0.868230,-0.311132,0.091259,2.673260,0.727766,-0.637168,0.156567,1.847678,1.305753,-0.476345,-0.074004,-0.378287,-0.654613,-0.187462,-0.237452,-1.125692,0.123404,-0.679648,3.002459,0.419345,-0.449038,0.337406,0.433722,-0.062225,2.185264,0.093632,0.213385,1.057934,-1.795797,-0.344389,0.319612,-0.816459,-1.081967,2.880749,-1.036533,0.043476,0.457776,1.709303,2.895333,0.057750,3.234038,0.639441,0.296323,1.163899,-0.231741,-0.508816,-0.903221,0.623616,-0.481658,-0.412628,0.945791,0.091744,-0.303652,-0.347035,-0.751813,-0.936628,0.536673,1.981493,-0.354126,0.304723,-0.880715,0.917811,0.114287,0.020801,-0.566352,0.364859,1.732932,0.500794,0.251500,-0.512272,0.865033,0.157711,0.681712,2.380044,-0.424150,2.046979,1.053317,-0.629453,-0.357950,-0.587867,-0.620183,-0.118827,-0.133154,0.199226,-0.468422,1.735864,-1.023617,-1.049625,0.761953,-0.165336,-0.260511,0.102164,-0.410585,0.324057,-0.024872,-0.389935,1.073919,-0.595717,-0.516807,-0.776774,0.645894,0.168555,-0.627064,-0.305600,1.173378,-0.235681,0.614504,-0.283210,2.061679,-0.370148,1.654281,0.064435,-0.438759,-0.382181,0.085354,-0.924654,0.039737,0.159510,0.787129,1.048119,-0.220135,1.910752,2.137868,-0.600439,-0.084282,-0.458369,2.929765,0.246218,2.494390,2.627337,-0.185924,1.016755,-0.143073,1.697787,-0.743915,-0.114082,-0.409860,0.947960,1.562741,0.544612,-0.813687,-0.246746,1.164654,2.470854,-0.701914,0.413021,0.537308,-0.072243,4.789420,0.795135,0.899946,-0.013536,0.223733,-0.104504,0.440336,-0.479926,-0.542185,0.688864,-0.067978,-0.544143,-0.567877,0.215400,-0.552533,-0.431258,-0.567079,1.322228,0.356947,0.047811,0.901698,-0.359734,1.143964,-0.232819,1.279304,-1.025464,-0.462165,1.398847,-0.744905,1.385718,-0.304678,-1.327804,0.108517,-0.001967,0.020609,0.157070,-0.765833,-0.961112,-0.462421,-1.120328,0.163563,-0.591546,-0.448964,-1.120853,-0.390645,0.102949,-0.573435,2.233845,-1.419188,-0.662751,-1.146262,0.536740,-0.229388,-0.662483,-0.461323,-0.747656,-0.272305,-0.710586,1.799092,-0.413634,-0.058790,-0.457427,-0.345783,1.942589,1.968354,0.413295,0.362624,-0.262243,-0.349622,-0.387363,-0.090911,-0.332839,-0.130761,0.033080,-0.430039,-0.490242,-0.355417,0.320226,0.146430,1.071667,-0.773142,-0.508654,-0.021146,-0.360465,-0.394746,-0.003718,0.740579,-0.054064,-0.932716,-0.659866,4.622843,0.067785,-0.778812,0.785402,-0.311956,0.678356,-0.619103,1.662665,-0.012869,-0.570135,1.434900,-1.713548,-0.205998,0.287591,-0.255723,-0.302528,-1.778882,0.072705,-0.715188,0.873194,-0.359789,-0.813390,0.144517,-0.681017,-0.916352,2.011912,-0.146700,-0.392495,-0.240358,0.401858,0.655594,0.307054,0.746140,-0.061582,-0.748814,0.619714,-0.581479,0.325083,-0.480630,-0.497582,0.400878,0.409462,-1.368211,0.876123,-0.245445,0.135844,0.535299,0.544464,-0.317665,-0.601955,-0.356828,1.068720,-0.646673,-1.022694,-0.429524,1.554274,-0.008555,0.213547,0.465831,-0.174544,0.580259,-1.629314,0.036341,0.429091,-0.158136,0.159684,2.369395,0.515986,1.967133,-0.242989,0.726755,0.514953,-0.817092,1.084721,0.630210,-0.479287,0.135749,0.294246,0.607577,-0.488831,0.624703,0.432713,0.418086}
    },
    {
      {-0.384384,-0.149838,-0.420782,-0.476723,0.216589,0.027343,-0.959688,0.025438,-0.238583,0.102096,-0.097026,-0.527902,0.043315,-0.063187,-0.011640,1.535135,-0.618736,-0.289002,-0.437019,-0.609430,-0.126655,-0.110005,0.784981,-0.327455,1.041626,2.088964,-0.302698,0.462838,-0.410759,0.414356,-0.112803,-0.320937,0.087757,-0.172541,-0.515378,0.009083,-0.078259,-1.008632,1.423907,-0.169665,0.153416,0.105518,0.310115,1.156720,-0.435667,-0.926865,0.781756,-0.098417,-0.577720,-0.098292,0.197650,0.096508,0.290011,-0.421080,-0.816043,0.218670,0.312594,-0.396431,-0.711271,0.560784,-0.978177,1.368384,0.384369,0.812647,0.474280,-0.050330,0.175565,-0.431258,0.298200,1.191085,-0.279015,-0.193590,1.487904,0.902179,-0.121246,0.095309,-0.729914,-0.164533,0.857929,0.986054,0.932905,-0.331914,-0.226774,0.078118,-0.176022,0.076732,-0.145845,1.390827,-0.136341,0.016412,0.244198,0.907120,-0.754693,0.844175,0.341762,-0.453013,-0.561239,-0.811022,-0.185954,-0.359871,-0.350617,-0.369135,-0.042143,0.590313,1.057833,-0.193198,0.732258,-0.688804,0.355450,-0.969810,-0.438867,-0.099525,-0.603238,0.196232,0.446900,1.111865,-0.254267,-0.024549,2.468214,-0.548840,-0.245609,-0.498229,2.203938,-0.445662,-0.433448,-0.364238,0.216519,-0.759493,-0.306369,0.178494,-0.389977,1.151471,-0.177362,0.536220,0.668641,-0.533613,-0.142495,-0.115189,0.619863,-0.956053,-0.782105,-0.575976,0.424926,0.918151,-0.274724,0.329231,-1.950214,0.648472,-0.728802,0.351819,-0.648027,0.235807,0.702182,-0.411972,0.852109,0.233345,0.713433,0.865975,0.057018,0.023693,-0.084150,-0.012148,-0.214244,0.003928,0.031107,-0.957514,0.190631,-0.392553,-0.785244,0.593407,-0.094793,-0.203318,0.533870,-0.324372,-0.294318,-0.875803,0.572726,-0.680356,-0.233750,1.202803,-0.159928,-0.535371,-0.196968,0.055163,-0.329437,0.581070,-0.288478,-0.895278,-0.384015,0.058586,0.339581,0.052092,-0.298347,-0.680242,-0.475275,0.067259,-0.105803,-0.662539,0.217662,0.056699,-0.886122,0.324168,-1.593962,-0.403897,-0.667485,0.352899,0.867840,-0.091571,0.627731,-0.287775,-0.752276,1.045163,-0.638496,-0.746129,-0.226666,1.270793,-0.275657,0.580923,-0.850151,0.967312,-0.286193,-0.825137,-0.801009,-0.193337,-0.437328,-0.618749,0.227596,0.805219,-0.296965,-1.287336,0.029010,0.496036,-0.055872,0.600496,-0.667002,0.020712,-0.375706,-0.190544,1.001502,-0.852091,0.860634,-0.051286,-0.247279,-0.105562,1.354790,0.082529,-0.490372,0.514179,-0.320451,-0.595996,0.348905,-0.273691,1.673628,-0.062634,-0.147577,-0.316149,-1.459822,1.543554,0.759276,0.262348,-0.094673,-0.488911,-0.222598,0.845683,0.031065,-0.331806,0.294666,-0.344768,0.586956,-1.027290,-0.606197,0.431072,-0.541879,0.336260,2.154993,-0.249826,0.236746,-0.114230,-0.940663,-0.650187,0.167163,0.849200,0.628774,-0.094441,-0.405475,-0.498317,0.271252,-0.558781,0.483187,1.246853,0.213710,-0.278262,-0.617190,-0.443364,0.836239,0.007689,-0.511192,-0.278840,-0.374335,-1.345135,-0.694131,-0.015253,-0.044957,0.810752,-0.545465,0.324952,-0.081738,-0.786224,-0.208317,-0.172190,-0.392977,0.895185,-3.196872,-0.268308,0.288156,-0.721582,1.203538,0.381428,-1.393107,-0.909729,0.840936,0.460145,1.411855,-0.274375,1.555747,0.595156,0.813924,0.305562,-0.815319,-0.444099,0.393484,0.747796,-0.229367,-0.186479,0.555113,-0.385988,0.002981,-0.491547,-0.577651,-0.159837,0.423479,0.245861,0.311292,0.279396,0.014225,-0.397172,0.107677,-0.295964,-0.097099,-0.104950,-0.282742,1.847442,-0.088719,-0.274932,-0.534949,0.022247,-0.153990,0.808227,-0.680110,0.546762,-0.389207,0.091193,-0.612738,0.255386,-0.618200,0.454791,0.417444,-0.698550,-0.471980,-0.051311,-0.492166,-0.554584,-0.214111,-1.829146,0.290091,-0.700389,0.966661,1.130004,-0.441343,0.401059,-0.400207,1.734204,0.325951,0.518153,0.347959,-0.190070,0.286707,-0.330158,0.654296,-0.526255,-0.373165,0.489244,0.013545,1.267027,-0.193327,-0.445353,-0.843234,0.104569,1.658894,-0.409315,-0.316416,0.058736,-0.103715,2.597135,0.262787,0.238895,-0.869410,-0.037306,0.522080,0.068053,0.153773,-0.367226,0.227947,-0.486925,-0.744135,-0.278435,-0.521366,-0.361121,-0.221341,-0.333688,-0.809974,-0.858917,-0.018504,-0.117657,-0.334274,0.577225,-0.284845,0.954376,-0.304186,-1.115215,0.668813,-0.558455,0.467526,-0.515497,-0.420022,0.965171,-0.789409,0.296920,0.101680,-0.802599,-0.814670,-1.348407,-0.668849,-0.365181,-0.380804,-0.309061,0.439713,-0.220508,0.247466,-0.060471,-2.256219,0.004027,-0.226013,-0.180198,0.101642,-0.596469,-0.667077,0.425920,-0.351068,0.549789,-0.286090,1.645023,0.627492,-0.234768,-0.159192,-0.336621,-1.421412,0.294765,-0.928685,-0.504799,-0.228393,-0.157363,-1.029656,-0.752202,0.613215,-0.489836,0.362292,-0.328589,-0.730336,-0.368850,-0.220079,-0.249098,-0.570619,-0.385548,0.046160,0.423976,-0.374634,-0.458795,0.441240,0.130940,-2.370027,-0.505568,-0.430941,2.226108,0.149453,-0.249969,-0.205872,-0.039289,0.006153,-0.222576,0.302940,-0.577673,0.301307,0.886255,0.224171,2.220633,-0.345692,-0.636135,0.319508,-0.162122,-0.734016,-0.639786,-0.186631,-0.611112,0.749747,0.250209,-0.600436,-1.097752,0.633627,-0.293056,-0.273337,0.130853,-0.067056,0.304988,0.195437,0.185878,0.055780,-0.357408,-0.276690,0.650640,-0.269174,-0.352942,-0.679568,-0.431344,0.006485,0.993515,0.017136,0.459971,-1.256745,-0.064147,-0.300742,-0.129442,-0.220322,-0.222854,0.765477,-0.434972,-0.114741,-0.358251,0.352645,-0.808815,-0.378204,0.225995,-0.004685,0.329921,-0.414160,0.154666,0.530383,-0.415578,0.191699,-0.082441,0.643640,2.792257,-0.296104,0.568236,0.016522,-0.499572,-0.362008,0.021117,-0.517540,-0.127355,0.037376,-0.275794,0.015587,0.263049,0.324681,0.567222}
    }
  }
};
