#pragma once

#include "C:\Users\Baron\Desktop\EE_297_Repo\EE_297\hardware_imp\vitis_hls\lane_seg_hls\lane_seg_top.h"

// Auto-generated with BN folded

data_t enc17_ir16_dw_w[3][3][1][960] = {
  {
    {
      {0.598308,-1.007388,2.012817,1.781156,1.819139,0.827343,0.556672,1.195401,2.176093,2.624110,-0.876373,-0.676057,0.270075,2.492485,0.856857,1.537691,2.076544,1.789355,1.024292,3.043652,1.717160,-1.435014,1.219444,-0.768204,-0.610451,1.462919,0.878792,1.709129,-0.954831,-0.799921,0.630946,3.941803,-0.306271,-0.043123,-0.618437,1.382766,1.334006,1.691425,-0.493221,-0.546580,0.725647,2.595423,-0.354817,0.898334,-0.849127,-0.653378,0.836543,-0.388004,-0.746920,0.775382,-0.379943,-0.060937,-0.513020,1.131155,-1.066266,1.666119,-0.587235,-0.421580,0.493071,1.293363,-1.761201,1.435148,-1.046871,2.397826,1.791146,3.027363,-0.503147,1.861175,-0.693921,-0.319419,-0.975810,3.150939,2.108525,1.048332,2.467187,0.318951,1.681695,-0.436838,4.229249,-0.325552,-0.883291,0.881768,2.044448,1.400271,2.050224,1.904514,3.405053,-0.350700,0.147476,-1.275474,2.051831,-0.350264,-0.511935,2.571555,-0.224577,-0.278580,0.326195,2.114580,-2.001844,-0.763957,0.903405,0.985632,1.368709,0.708356,-1.053076,-1.951586,-0.474632,-0.466052,2.351047,-0.299351,2.785768,-0.610115,0.490267,-0.063247,-0.171957,-0.971729,1.834136,1.838884,2.622211,2.262895,-0.031393,-0.359048,-1.530471,-0.659200,1.430020,-0.934845,1.741308,-0.994202,2.246552,1.419020,1.502376,2.983628,2.398088,1.357519,-0.785148,1.618883,0.465232,-0.712066,1.394223,-0.606796,-1.506338,-0.519479,1.389401,1.278261,-0.327817,-0.082894,-1.087238,1.361068,-0.095310,0.665888,1.767225,1.187404,1.381870,0.902207,2.887707,-0.442915,-0.519702,0.849999,-1.410739,1.303528,0.390675,-1.049082,0.404447,2.644345,1.559561,-1.200946,-0.558740,-1.650053,1.283261,0.932725,-1.429109,-0.513408,2.428437,-0.778494,-0.421041,-0.862962,-0.886089,-0.305236,0.143877,2.384757,-1.205329,1.011363,1.462530,1.937897,-0.727024,1.986103,-1.228420,1.128255,1.621127,-0.179535,0.376916,1.244187,-0.634434,2.661650,2.199913,2.433938,-0.453835,-0.508349,2.919802,2.073808,2.025120,3.539624,-0.765278,1.288948,3.153276,2.783559,0.360971,0.682994,2.952019,1.465446,-0.351776,-1.047471,1.352122,2.117460,-1.965726,2.737574,-0.295495,1.646269,-0.938945,-0.323303,-0.516890,-0.775151,-1.301854,-0.402755,-0.788718,1.580054,-0.740145,-0.470489,-0.931428,1.608286,0.226287,-0.200430,-1.202962,-0.502776,0.797879,3.512343,1.295184,4.715414,2.032602,0.217188,2.090744,2.551307,0.884062,-1.170481,-0.865417,1.479776,1.950420,2.763162,0.690113,-0.923075,-0.467732,-0.423483,0.295526,2.793669,0.565894,1.291185,1.667124,1.501065,5.255542,2.917842,-0.654687,-0.174049,-0.532696,-0.281912,-0.665940,0.989652,-0.779082,0.315928,-1.239223,4.449137,1.096064,-0.383872,-1.430105,0.892257,-0.105273,1.109757,3.071713,-1.581192,-1.245273,-0.441892,-0.403791,0.300890,2.846310,2.028923,-0.667167,1.474122,1.622516,-0.654906,3.902621,-0.569416,1.053037,-0.822729,-0.790814,2.613802,-0.548376,-0.819334,-0.371500,0.381285,-0.314650,2.344542,-0.933733,-1.288105,0.887927,-2.256356,-2.079073,2.122910,-0.644779,2.051306,1.609024,-0.602245,3.846784,2.312597,-0.704689,-0.647590,-1.103562,1.972882,0.035725,-0.386970,0.964267,-1.383180,4.040266,-0.271352,1.313373,-1.350655,-1.381838,-0.376050,1.333999,-0.716824,-1.590375,-2.990280,-0.760936,-0.110635,0.034925,-0.499684,-0.429389,-1.112717,1.106899,3.540968,2.951608,-1.276074,1.678981,-1.013803,-1.381652,-1.260008,2.081747,-0.253456,-0.201405,0.431453,-0.311027,1.458887,2.187684,-0.395877,-1.496878,-0.394959,-0.786068,1.970291,1.479864,-0.507949,3.819848,0.888122,0.654399,2.804083,-0.322830,-1.630968,-0.670518,-1.023355,2.259688,-0.381860,-0.132070,-0.644254,0.867668,0.242125,-0.430188,1.592518,1.717808,2.174809,-0.843815,-1.146188,-0.990012,-0.562829,3.928755,-0.873185,1.792631,-0.950087,-0.401010,0.405058,2.086271,1.441191,1.852669,1.345618,2.092470,-0.563944,0.864538,-0.879223,2.241287,-0.558126,2.857103,0.551721,-0.541286,2.371816,-0.674594,-0.593412,-0.422707,0.119918,-0.666719,1.695908,-0.312683,-0.359972,0.686197,2.354660,-0.372643,-0.612230,1.773832,1.739248,1.614440,-0.242074,-2.005705,-1.015614,0.861366,2.090326,-0.971474,-0.582279,3.485181,1.800539,-0.742368,-1.555816,2.641262,1.784706,-0.289367,-0.588806,-0.334520,-1.746273,2.596995,0.123712,-0.865006,0.724600,-0.261070,0.096613,1.074782,-0.273446,-0.549279,1.120690,2.824195,1.065741,-0.884245,2.614575,-0.323590,2.664375,-0.419635,-0.610957,0.328789,1.252412,-0.332145,2.284347,-0.267422,-1.120738,0.756092,-2.316417,0.276144,1.153674,0.725946,-0.422623,-0.765225,3.353445,-1.557094,-0.493041,1.966929,1.414630,-1.104475,0.959512,1.262621,-0.232098,-1.262228,1.207146,2.919118,2.287754,-0.610617,-1.013169,-1.893011,2.174962,1.652023,0.573023,-0.108895,5.267448,-0.282721,0.933259,-0.105157,2.005670,1.178571,-0.548302,1.075468,-0.188365,-1.342920,-0.262456,-1.408072,-1.340987,-0.515668,-0.288695,0.437152,-1.419377,0.537526,-0.420010,1.324816,-0.410604,-1.779855,2.097480,0.433879,-0.271673,-0.914265,-0.327221,0.281224,-0.462334,1.322882,1.879726,4.431900,-0.372616,1.913807,3.344818,-0.702223,-1.653856,0.203831,0.830997,-0.362897,-0.473409,-0.900029,2.310616,0.966630,-1.281909,-1.498889,-0.371798,-0.551054,0.085489,2.209663,-0.656330,1.945850,-0.401966,1.678661,1.695418,2.654596,-1.217238,1.231945,1.271197,-0.388788,1.598166,0.210301,-0.742954,-0.496427,-0.398059,-0.768207,1.999640,-0.969318,2.240575,-0.097526,1.512602,1.983816,1.573657,1.433935,2.185414,-0.677406,-0.294043,-1.828003,1.858613,-0.382949,0.999559,-0.019462,-0.659139,1.997607,1.619007,0.064431,2.136490,3.016623,2.273482,2.193516,1.242074,-0.917783,0.071915,-1.754523,-1.206846,-1.016398,0.235173,-0.196302,0.701118,2.183781,-1.944420,3.446816,-0.970026,-0.638260,1.278879,-0.373928,2.419305,0.288981,2.728057,-0.369502,1.401254,2.966182,-0.924698,1.688268,1.753690,-0.740897,2.193613,2.006137,1.609633,1.223954,-0.000735,1.929612,-0.112573,-0.598195,0.911308,-1.365122,1.280955,-1.703398,0.975488,-0.757940,3.305563,-1.439314,-0.462597,-0.832638,1.956632,0.241512,1.021183,1.088541,-1.276103,-0.598137,0.931232,-0.498369,2.281792,2.721158,-0.390458,-0.426486,-0.278884,0.217454,-0.322447,1.439732,1.621558,1.981506,-0.460311,0.510503,-0.311362,1.500052,3.309204,-0.519418,-0.702061,3.773937,0.607656,1.344603,1.100527,-0.964376,1.554893,3.196811,1.662363,1.870788,-0.477116,-0.532999,0.678047,1.167410,3.563395,1.997073,-0.254475,1.705692,2.284978,-0.553162,1.171323,-0.055855,-0.110039,-0.903573,-0.296850,2.243346,3.100641,0.119340,-0.612335,-0.553420,1.539025,-1.522127,1.512467,2.220313,2.212067,3.555396,-0.150227,3.570508,-0.841710,-5.688478,2.799581,2.991259,-0.239694,0.756934,-0.820657,-0.310824,-0.888950,-1.231326,0.777651,-0.986539,0.036694,0.339900,2.547287,2.435828,-0.060488,1.582497,-1.036772,2.848381,0.870814,0.727114,0.972173,-0.399612,-0.145192,1.923746,0.089641,2.335154,1.071040,-0.670572,-0.584649,2.882387,1.468631,-0.973829,-0.523642,0.336480,0.340343,0.529369,0.932198,-0.139547,-0.211639,-0.414366,-0.249197,0.314619,3.364997,-0.395073,1.958431,-0.304093,-0.499784,1.068334,1.317211,-1.019951,-2.072498,0.632713,-0.199140,2.641465,-0.537068,-0.194229,3.208116,-0.737014,1.971709,-0.203438,-1.737839,3.023761,2.186611,-3.068474,1.311861,1.552713,1.357132,-1.025349,0.352485,0.565615,0.414291,-1.740018,1.387572,-0.298222,1.832056,1.270821,1.007544,4.724144,2.152890,-1.038661,0.530049,0.496773,1.021746,2.263647,0.695689,1.970772,1.776904,-0.803732,-0.282824,1.402023,5.064550,-0.707002,-0.279465,-0.212749,1.759885,1.451149,2.195153,1.701551,1.343333,-0.486706,-0.969928,0.771703,-0.215934,0.725609,-0.626262,0.602227,1.281297,-1.432396,0.952213,0.845878,2.414721,-0.487498,-1.676326,-1.234000,-1.895662,-0.180242,1.955355,3.925054,-0.009701,-0.605925,1.638136,-0.351029,-0.823149,0.731757,0.618354,-0.400776,-0.171600,-0.362937,-1.065904,0.274088,-0.528044,-1.165864,0.724595,3.104101,-0.310036,-0.256229,-0.061376,1.713799,2.841968,3.823393,-0.741824,2.588401,-0.984847,-1.182965,1.069193,1.790293,-0.712263,2.109119,0.787662,2.620526,-0.089608,2.480110,-0.675146,-0.374118,2.949743,1.294611,1.170759,2.485343,1.932461,1.301503,3.786763,-0.328330,1.683559,0.073984,2.032104,-1.176302,0.907201,-0.355561,2.177314,-0.272060,0.582297,1.285551,1.140539,2.110628,-0.271376,0.009350,1.725387,1.446679,-2.119724,1.208659,-0.583800,-0.525891,-0.627435,0.828812,-0.940382,1.527949,-0.562699,3.076849,-0.484303,-0.363976,-0.448994,1.263402,-0.256768,-0.360217,2.251280,2.686926,1.450870,-0.159771,1.789342,0.076127,-0.451603,-0.380734,-0.555695,2.432836,0.948346,0.026707,-3.344654,-0.713270,-0.677210,0.408447,0.741598,-0.608437,0.099372,3.120736,-1.034767,-0.548771,-0.317737,4.138445,1.370158,2.556953,1.871871,-0.104590,-0.178311,-0.390397,1.366278,-0.348082,3.453730,0.001763,2.171012,-0.322663,-0.652725,2.024801,-0.367123,0.536377,-0.748168,2.559118,-0.709399,-0.356263,-1.407497,-0.470434,-0.128692,0.175790,0.627314,0.138923,2.367425,-1.417159,0.196826,2.372473,-0.529703,-0.220837,-0.529092,-0.853956,0.631640,-1.651807,3.062780,-0.415935,-0.539129,-1.443868,1.298568,-1.520126,-0.677974,1.177759,1.544484,-0.640858,0.910220,0.881383,1.165934,2.493727,2.086131,2.136594,0.952503,-0.907619,2.047138,-0.758454,2.485813,0.954972,-0.895315,1.104556,0.150689}
    },
    {
      {1.080678,-0.913402,2.950079,5.360228,0.701415,1.291236,1.391862,2.454295,1.915475,2.899076,0.081532,-0.505868,1.129797,0.616918,0.668293,0.646219,0.733235,3.347954,-0.145552,1.560003,-0.297522,-0.884339,-0.554317,-0.586731,-0.270938,1.943849,0.961400,1.852721,-1.753782,-0.669553,-0.398349,2.851823,-0.206954,-0.007726,-0.724634,1.970541,1.895864,-1.106123,-1.096748,-0.360590,2.588774,1.315064,-1.339460,2.415325,-1.400861,-0.328510,0.059752,-0.057350,-0.346466,-1.122006,-0.591829,0.501834,2.375097,-0.487405,0.106928,1.290248,-0.519074,-0.569282,1.309935,2.977117,-0.345899,2.897083,-0.912041,0.278365,1.394269,2.185942,0.040783,1.105890,-1.236612,-0.192242,-0.254397,2.097068,1.314242,-0.843027,2.870876,-0.791567,0.648378,-0.235751,-0.102901,-0.323716,-0.880230,-0.233689,0.390847,-0.231863,0.611829,-0.807332,-0.531661,-0.345373,0.621897,-2.235946,2.819150,-1.043394,0.023116,-0.536832,-0.394565,-0.120728,-0.263008,2.185919,-0.012573,-2.492509,-0.654432,0.621090,2.153650,1.772777,-0.021651,-1.055511,-0.615776,-2.299651,0.588037,-0.496935,2.156993,-0.374331,2.536125,-0.147460,1.639309,3.852393,2.294833,2.526212,1.534090,1.473188,-0.750793,-0.271292,-0.735441,0.225515,1.750238,-0.254893,0.599988,-1.687826,2.103569,1.227836,-0.622161,1.896960,2.633400,1.249738,-0.272235,2.379878,0.446314,0.908080,2.978848,-0.304187,-0.128361,-0.425926,2.688873,0.324620,-1.279098,-0.728666,-1.399818,1.609853,-0.680119,3.533036,1.666752,1.174061,1.149452,2.637336,2.369970,-0.205497,-2.097839,3.010197,-1.440148,0.689686,-1.677145,-0.135420,2.309836,1.028412,-0.588328,-0.830446,-0.045695,-0.173861,1.677899,2.101444,-0.097951,-1.126402,1.248162,0.078720,-0.299713,-1.639172,-0.812844,-0.314388,0.820649,-0.823750,-1.933526,2.658836,2.357048,1.077951,-1.091199,0.247590,-0.563968,2.752737,1.418891,-1.009780,1.609209,0.678630,-0.607627,1.637466,1.009236,2.860859,-0.426206,-0.401531,-0.075127,1.163694,2.228440,1.355338,-0.457525,-0.380474,-0.042069,1.343261,-0.315439,2.092079,1.261087,0.169814,-1.326426,2.441466,0.857185,2.653206,-0.855767,1.951361,-0.631463,0.100774,-0.245021,-0.160344,-0.051333,0.141233,-0.206398,-2.350535,-0.696014,0.620704,-0.603188,-0.127283,-0.714818,0.217394,2.089452,-1.226919,-0.468698,-0.677943,0.515000,1.274489,3.217259,-0.441935,2.970215,-0.051739,2.445514,1.367183,1.080011,-1.157862,-0.807118,2.569073,0.755937,1.398254,0.783050,-0.949549,-0.618131,0.307774,0.541646,1.386599,2.171287,0.432104,0.815596,-0.124743,0.793134,0.747112,-1.023401,-0.707136,0.058674,-0.248730,-1.216008,-0.018831,-0.390378,-1.080764,-0.298616,2.081732,1.878962,-1.919046,-0.240347,1.220882,1.684635,0.773114,0.911072,-0.205262,-1.431109,-0.443836,-0.045080,0.919616,2.150250,4.230580,-0.417005,0.286489,1.064643,-1.752146,2.390810,0.042016,2.079423,0.264583,-0.459833,3.061100,-1.296001,0.339371,-0.030218,3.126020,-0.178546,2.863994,-0.518266,-0.200179,1.225980,-0.881151,-0.323075,2.720998,-0.209593,1.513618,-0.702072,-1.934401,2.877048,2.374827,-0.299189,-0.038391,-0.250935,2.003707,2.543227,2.845661,1.050311,-0.061909,3.905724,-0.154151,3.141021,-0.392864,-0.469276,-0.558365,0.652760,-0.758142,-1.186507,-0.182478,-1.073790,1.128955,-0.981610,-0.356230,0.143028,-1.008794,-2.308905,0.417556,2.014425,-0.786207,0.236025,-0.744544,-0.781205,-0.974220,1.082331,-0.350178,0.415194,0.851264,-1.308924,1.069821,1.315230,-0.509100,-1.778922,1.728239,-0.356718,2.268590,0.734316,-0.592792,0.835608,2.173711,-1.197733,1.827262,-0.074567,-0.911015,1.343181,-0.172672,0.710511,-0.258573,-1.396163,-0.496525,-0.486234,1.400939,-0.268942,1.288082,-0.426643,1.403841,2.415375,-0.523758,-0.067125,0.241317,-1.580374,0.013553,2.688884,-0.814235,0.011201,2.348103,1.755186,0.923962,1.087965,1.359719,1.798316,-0.395029,-0.139273,-1.117782,1.300617,-0.068634,2.103757,-1.581358,1.517163,1.987109,-0.303783,-0.954456,-1.267546,0.031358,-0.367723,2.907441,-0.162794,-0.220226,3.661580,0.963330,-0.233558,-0.301458,-0.479108,2.811171,3.787879,-0.171202,-0.750359,-0.652237,1.019441,0.351799,0.547836,-0.476505,2.718760,0.508309,-0.039686,0.329042,-2.352530,1.342639,-0.442083,-0.361946,-0.420547,0.243702,1.380225,1.296785,0.402686,1.503289,-0.080722,0.136549,0.540326,-0.141689,-0.332533,1.161181,-0.751387,2.197431,-0.155504,2.690953,-0.283204,0.976776,2.278364,-0.785368,2.582911,2.060641,-0.258536,3.206127,-0.762917,-1.269669,1.748412,-0.321797,1.653431,0.578081,1.160985,-0.602607,-0.552681,-2.228318,0.071663,-0.238877,2.670051,3.346823,1.560359,-0.694504,-0.646576,-0.475159,0.077466,2.108992,2.452253,3.963418,-1.777542,-0.576235,0.346839,4.795667,1.207576,2.795920,-0.050959,3.042784,0.174602,-0.175646,2.011016,3.558333,-0.766707,-0.048867,2.205414,0.841850,-1.175352,-0.741939,-1.579785,-1.051068,-0.328649,-0.587699,-0.174460,-1.225044,0.753673,-0.272824,-0.408402,-0.195510,-0.054180,-1.268250,2.552125,-0.258096,0.591001,-0.123253,2.377925,-0.053149,-0.247135,0.660062,2.637651,-0.887762,2.275904,0.844998,-0.458334,-0.542886,-1.927343,1.581474,-0.022343,-0.716654,-0.398241,2.155862,1.515761,-1.606576,-0.268435,-0.442767,-0.281927,0.971097,1.876960,0.525091,0.758354,-0.234602,-0.006178,1.326592,1.981381,-1.268000,3.530277,2.195432,-0.368490,2.630683,1.221611,-0.567976,-0.414223,-0.542431,-0.913537,-0.809382,-0.165977,1.792245,-0.093794,0.600552,2.111400,2.802955,1.290444,2.013357,-0.310910,-0.318236,-0.882052,-0.185883,-0.270225,2.398632,-0.518061,-0.452465,0.343065,2.284246,-2.380578,0.969070,2.303511,-0.814276,0.320688,2.484053,4.784800,0.242077,2.987618,0.312034,-0.428581,1.104088,-0.124642,-0.545954,2.903278,-0.053534,0.770638,1.063565,-1.367038,2.700464,2.844432,2.220223,1.388713,2.529963,-0.254175,-1.887541,3.071139,0.247338,1.188646,1.548930,-0.127664,3.086998,4.356917,0.252974,1.843391,1.486733,2.482462,-0.139765,-0.871313,0.858662,-0.096513,-0.534792,-0.484912,2.394339,-0.551813,0.971721,-1.098504,-0.228476,-0.222675,2.227632,-0.032424,1.871372,2.302224,-1.281227,-0.168892,2.813155,-0.700291,2.568938,1.021697,-0.369872,-0.071176,-0.749955,2.332124,-0.162255,-0.319241,-0.843130,1.178050,-0.507439,-0.332747,-0.324477,1.507301,0.295462,-0.308284,-0.412782,3.511003,-0.130916,-0.024710,2.154314,1.438175,2.527602,0.357945,2.576748,0.692338,-1.313332,-0.292159,1.976093,1.975734,-0.123112,0.684916,-0.471046,1.749427,1.385710,-1.088868,3.319353,0.873381,-0.920203,-0.802047,-0.276800,1.017447,0.107768,-1.135147,-0.131871,-0.167566,3.324657,-0.338454,2.172166,-0.101593,3.789815,7.614914,-0.405574,3.003985,-0.661745,-3.418570,-0.307547,3.298395,-1.152582,0.863459,0.094747,0.159674,-0.593536,-1.604160,-0.392206,-0.400344,-0.323455,-0.280874,2.140637,5.173747,-0.900900,2.828664,-0.985861,0.677184,0.638511,0.924320,2.428590,-2.603940,-0.347736,2.052379,2.002515,0.552617,-0.671644,-0.539715,0.173056,0.620165,-0.126234,-1.554302,-0.339246,2.486133,0.380217,2.116206,2.276462,6.132762,4.054943,-1.075745,-0.328643,-0.608643,1.631617,-0.559121,4.147802,-0.232966,-0.791438,-0.878863,2.982158,-0.650775,-1.195216,1.986701,-0.541225,0.920181,-0.486524,0.616378,5.107857,-0.005904,2.747039,0.801023,-1.355472,4.332047,1.672254,-0.398873,0.285215,1.816395,1.111348,-0.910079,1.695428,1.154889,-1.450193,-1.885609,0.601411,-1.048433,1.226312,1.324660,2.463496,3.408221,1.101021,-0.636651,3.593544,-1.429517,0.191555,1.630538,-0.195576,0.553308,2.100834,0.097109,-0.150323,-0.062813,1.488987,-0.121404,-0.378612,-0.155447,-1.558849,2.386479,-1.482383,0.223474,1.918834,-0.153092,0.858513,1.273198,0.054364,0.568606,-0.425776,1.710237,4.381537,-0.547405,0.571386,0.289416,0.537944,-0.110875,-0.064972,-1.303192,-1.327574,-0.752183,1.336730,1.334638,-0.241291,-0.267827,0.668447,0.095706,-0.638114,0.724349,-1.375711,-0.153737,-0.080440,-0.512663,0.314961,0.423496,-0.358449,-0.575335,1.706658,0.718925,-0.292131,-0.285254,1.668352,1.210186,1.234165,-0.103259,-0.368790,1.624235,-2.154405,-0.629304,3.254658,3.367474,0.375235,1.407463,-1.617792,1.487925,-0.178920,0.524014,-0.472628,-0.392530,4.174801,2.538733,2.577859,2.890384,1.959820,1.439747,2.136875,-0.420135,3.862840,-1.336757,-0.233244,0.308439,-0.472795,-0.263954,0.330939,-0.229610,2.224692,4.301571,2.325414,1.222330,-1.494486,1.258146,2.904937,1.373643,-0.777179,1.229188,-0.458210,-0.904074,-0.589754,3.396677,-0.453553,2.010851,-0.607954,3.206542,-0.141389,-0.191081,1.137429,1.658033,-0.343182,-0.152196,-0.595513,-1.989566,-0.300703,-0.022584,2.843772,0.207379,-0.274701,-0.216415,-0.565099,0.867878,1.542075,-1.013812,-1.813123,-0.518696,0.868828,-0.203975,0.683396,0.002761,0.604517,0.448088,-1.126859,-0.205586,-0.575676,1.205374,-0.073595,1.099491,0.754148,1.940488,3.159631,-0.484535,2.385113,-0.260402,1.378961,3.786805,-0.560200,-0.459841,-0.272146,2.344184,-0.164013,1.471438,-0.085344,1.892402,-1.314708,-0.299458,0.541334,0.554399,-0.171304,1.017696,0.936434,0.488540,1.833776,-0.621122,-1.237550,2.481424,2.744417,-0.144576,-0.440910,-0.568402,1.937843,-2.073339,1.867513,-0.478720,-0.202557,-1.550670,1.068356,-0.612337,-0.076707,2.207978,-0.815839,-0.272950,0.358128,2.775195,0.573359,0.797912,1.001099,1.521135,2.733515,-0.402858,0.888921,-0.306759,2.232188,-0.298106,-0.106531,-1.869967,1.143843}
    },
    {
      {0.139416,-1.427969,1.778259,1.115813,2.305736,2.510159,0.282797,1.580429,1.614564,1.511628,-0.445252,-0.275845,3.134481,1.428676,1.134167,3.291095,1.678621,2.931002,-0.337956,1.974502,0.905318,-1.590281,-0.143060,-0.702140,-0.481186,2.758715,3.252673,1.664538,-1.449702,-0.622380,2.812237,1.735461,-0.283055,-0.020207,-0.986835,-0.198418,0.515071,3.398377,-0.170541,-0.519438,1.025591,0.768191,-2.269409,1.360070,-1.819069,-0.310099,-0.780660,-0.495535,-1.175553,0.913338,-1.115924,0.125507,1.161611,1.541898,-1.271870,1.708891,-0.292511,-0.556623,1.691144,2.660059,-0.416822,2.915900,-2.030171,2.454040,-0.243761,1.738361,-0.668448,1.200911,-1.716361,-0.474343,-0.929427,3.397137,1.609115,1.343775,2.098089,1.028685,1.956247,-0.696514,3.057379,-0.420150,-0.447217,1.666069,1.315259,0.341041,0.249268,5.097872,4.211631,-0.211255,-0.274946,-2.269711,2.112546,-0.813935,-0.431199,0.883129,-0.591830,-0.221881,-1.256631,1.170960,-1.309149,-1.525189,2.023513,0.737680,2.472916,2.925520,-0.270158,-1.013751,-0.834514,-3.315601,3.133027,-0.588825,2.176370,-0.323342,1.647527,-0.232151,-0.126101,-0.341935,1.269227,1.516808,0.825283,1.594337,-1.256468,-0.320870,-0.452768,-0.105960,2.286614,-0.776744,0.149917,-0.707531,1.178459,-0.177975,0.953851,1.368291,2.318016,1.927679,-1.074837,1.984942,1.650397,-1.961010,3.854412,-0.806877,-1.461910,-0.634951,1.814486,0.442819,-1.146361,-0.922229,-1.677714,1.815930,-1.198596,2.651365,0.089451,1.693329,1.090499,1.310723,0.893950,-0.955930,-2.404684,2.861660,-1.490421,1.705487,-1.646017,-2.273315,2.258314,1.933059,1.914925,0.045111,-2.611804,-0.612914,3.790187,2.344692,-1.711407,-0.377588,1.780146,-2.311033,-0.375095,-0.699069,-0.291824,-0.399671,0.305157,1.557350,-0.766984,1.588638,1.304108,3.992383,-1.115803,1.911618,0.095003,-1.321264,0.650880,-1.110658,1.392398,1.190734,0.692935,1.177888,-0.451183,1.662139,-0.878311,-1.252546,1.259643,3.070014,3.260726,0.569298,-0.838512,-1.429238,2.233766,4.639841,2.087631,1.565675,1.128895,1.950355,-1.431828,-0.048047,2.346347,3.270673,-1.205749,2.352363,-0.578683,1.767551,-1.652106,-1.154922,-0.613878,-0.986789,-1.306895,-1.347265,-0.986678,1.109417,-0.813743,-0.326016,-0.971308,0.598421,2.473859,-2.583739,-0.722841,-0.481291,2.304428,2.747082,2.465889,2.051133,1.441478,2.125326,1.705239,2.942672,3.510944,-1.020947,-1.252192,0.850729,2.155828,2.536633,4.783356,-1.205992,-0.433166,0.464925,2.371889,1.800693,0.573705,0.319697,-0.197590,0.022961,3.274879,0.755078,-1.075291,-0.930525,-0.391327,-0.153086,-0.244919,0.630819,-0.379710,0.054874,-0.458701,3.381201,1.814322,0.024688,-1.795947,3.508566,1.899998,-1.073370,-0.256692,-1.197447,-2.224722,-0.447611,-0.025078,1.905555,1.575508,3.639869,4.379458,1.758313,2.153956,-0.622490,2.256727,-1.416255,1.840530,-0.889315,-0.564671,0.935743,-0.553274,-0.239209,-0.350781,4.381555,-0.337805,4.090767,-0.381244,-0.732969,0.553503,-0.884137,-1.290560,4.071459,-0.590487,2.129906,0.463134,1.670513,1.761979,0.334079,-1.210657,-0.043953,-0.301250,4.335188,-1.159420,3.094686,1.587918,-1.122547,2.115244,-0.420036,2.665306,-1.104257,-0.153208,-0.584179,0.321423,-0.806088,-2.012563,-0.789391,-0.619773,2.285255,2.378928,-0.606976,-0.743909,-1.867308,0.950439,0.413253,2.716404,-1.119454,2.994153,-0.935836,-1.111878,-0.575546,3.269938,-0.454806,3.579674,0.002584,-2.672161,1.885109,2.592276,0.311354,-0.392080,2.278493,-1.243209,1.166805,0.710622,-1.611343,3.019690,1.623196,-1.371782,1.890302,-0.077804,-1.617720,1.525124,-0.996319,2.216093,-0.255484,0.327762,-0.469753,1.075882,0.030194,-0.374435,1.262275,2.585753,1.864178,3.343203,-1.132160,-1.074305,-0.893942,0.844508,-0.220325,0.984503,-1.209036,-0.489823,1.770941,1.530721,2.000446,2.391112,2.323917,1.032133,-0.178834,1.205532,-0.973634,0.475835,-0.494777,0.900601,-2.182165,1.604140,2.350651,-0.494924,-0.886270,0.481693,0.151912,-0.370559,-0.415742,-0.556958,-0.622188,0.889906,3.053929,-0.432303,-0.760846,2.583367,0.549551,2.741505,-0.136893,-0.712841,-0.765884,1.556273,0.774535,-1.289945,-1.082234,4.124596,2.516200,-0.631347,-0.671315,0.365034,1.725935,2.323766,-0.589123,-0.652463,-1.595033,1.391407,1.032755,-0.575406,1.449709,-0.374818,-0.010893,2.517033,-0.343482,-0.612742,1.550766,1.457633,2.090678,-0.598145,0.846576,-0.475118,3.053902,0.229668,-1.112024,2.734238,2.303230,-0.667982,3.249374,-0.340751,-1.586554,2.966225,-1.588256,1.925857,3.004567,2.821911,-0.986122,-0.648163,3.772439,-0.158120,-0.328471,2.016983,0.367151,1.382658,1.499378,-0.231971,-0.548526,-1.405336,1.917923,2.255372,1.989530,-1.001201,-1.377921,0.735890,3.697140,2.456657,3.205973,-0.529438,5.060923,-1.905137,0.951683,4.594050,2.046557,-0.276332,-0.416309,1.545831,-2.522568,-1.226737,-0.347476,-1.492642,-1.318258,-0.287226,-0.461622,1.186195,-0.927307,0.769037,-0.410759,3.596423,-0.233443,-2.306417,2.037696,1.137485,-0.328608,-0.848041,-0.285688,1.078140,-1.012371,-0.226497,1.498676,4.229188,-0.719472,1.628989,1.553436,-0.552023,-0.007804,-2.888128,0.952474,-0.314691,-0.182413,-0.661295,0.718997,2.598200,-1.029855,0.596995,-0.301393,-0.259912,-0.113813,0.610798,-1.473930,0.805883,-0.307762,2.038318,1.680384,2.834090,-1.590680,3.572814,1.126586,-0.247995,1.885618,2.316422,-0.869616,-0.655135,0.606324,-0.961269,1.697232,-1.380290,1.196691,-0.393235,0.538191,1.369112,1.326582,0.867710,4.080371,-0.279245,-0.376318,-1.782403,1.943190,-0.113546,1.191413,0.090503,-0.971790,1.347799,4.026885,-2.659567,2.397822,1.701353,1.791185,1.569834,1.816414,1.964896,-0.058220,1.704084,-1.780493,0.292715,2.219352,-1.378650,1.383997,2.085050,-0.174677,-0.020489,-0.448216,-0.819275,1.268711,1.760390,2.523172,0.837589,-0.452958,-0.371167,0.398620,1.151216,-0.260931,1.162171,2.732862,-0.651034,1.445315,4.521858,-0.216291,1.664396,2.820013,0.987272,-0.085244,-0.354532,2.904714,-1.818289,0.521577,-2.070188,3.118836,-0.862797,1.585832,-1.050089,-0.359754,-0.325197,2.028728,0.213381,1.425359,4.458110,-1.351397,2.779757,2.866022,-0.239648,1.085556,1.693366,-0.477595,-0.296791,-0.339127,3.218061,-0.342985,2.662097,-0.249787,0.952812,-0.852067,1.502395,-1.476517,-0.777462,1.849232,-0.338335,-0.673097,5.253018,0.541559,1.872134,1.165892,0.897905,0.263573,3.060962,1.169517,4.553222,-1.712004,-0.399805,1.350153,2.133352,2.181331,1.688705,-0.417944,1.035565,1.168685,-0.653469,3.800221,1.491284,-0.468159,-0.184510,-1.186558,0.426747,-0.055654,1.572855,-0.508573,-0.417497,2.711691,-1.802304,0.718409,0.337187,1.460514,7.091419,-0.311289,2.591983,-0.913327,-3.571124,-0.285311,2.574170,-0.794649,1.740932,-1.006550,-2.070137,-2.187207,-0.999935,0.452723,-0.749082,-1.913809,2.396173,3.778767,-0.646598,-0.061017,2.649968,-2.238498,1.889298,1.579875,0.227078,3.146977,-0.528085,-0.340777,2.200530,2.561548,4.121405,-0.726206,-0.724770,1.718796,3.604896,1.070019,-1.730400,-0.435336,3.595124,3.465748,2.274668,-0.184852,2.442262,0.230298,-2.225220,-0.352337,0.225872,1.121854,-0.671236,3.755128,-0.388458,-1.336983,2.797015,2.664163,-1.121954,-1.142256,-0.311001,-0.503458,2.058146,-0.805683,1.081969,5.236958,-1.405130,1.997200,1.315998,-1.508265,2.390719,0.132957,0.236186,2.600115,1.669731,1.215544,-1.665147,3.289717,1.083736,2.741329,-1.832728,-0.896823,-1.153177,1.242894,-0.406524,2.857674,2.204783,1.344737,-1.226936,2.304560,-0.471735,3.853386,3.209225,1.662059,1.123506,1.491593,-0.058087,-0.254388,0.416076,1.292199,-0.632551,-0.703483,-1.557760,2.518362,0.241563,3.209095,1.778791,1.620588,-0.615889,-2.133561,0.378238,-0.611230,0.758163,-0.243901,2.489394,3.870852,-1.558704,0.090124,-0.945674,2.697988,-0.628974,0.037008,1.482081,-1.179087,-1.354666,1.018516,2.343238,-0.731680,-1.074384,1.350325,-0.190423,-1.572998,1.495167,-0.019533,-0.286255,-0.438468,-1.452870,-0.942220,3.194330,-0.462258,-0.863346,2.668784,2.500021,-0.412054,-0.571351,1.371634,0.619163,3.789605,1.933388,-0.849781,2.443493,-0.780394,-0.205738,2.424548,2.888502,1.101862,2.037377,1.887593,1.064885,-0.450974,2.102890,-0.537753,-0.907743,2.051893,0.800320,1.291722,3.008008,2.003586,0.036590,2.596164,-0.487552,2.613536,3.166552,2.285038,-0.611284,1.436221,-0.327681,1.871900,-0.080135,2.509676,-0.574632,3.002872,2.994489,-0.657735,1.662763,1.156852,0.623350,-0.537172,1.442756,-0.639174,-0.337886,1.891322,2.191561,-0.562687,0.909104,-0.398142,2.423007,-1.652853,-0.214815,1.209882,0.512043,-0.487171,-0.843405,0.075094,1.725636,0.843098,-0.279394,2.446586,1.973666,-0.482512,-0.594507,-0.224926,2.458985,2.028209,-1.485863,-1.673954,-1.883591,3.891460,-0.110961,2.452986,-0.673905,1.489104,0.472605,-1.549795,-0.485709,-0.370730,1.065481,2.268388,0.589704,1.221937,3.606573,0.988871,-0.696753,1.965326,-0.211420,0.586547,-0.014650,0.152919,-0.385924,-0.838692,1.396288,-0.466711,3.270154,-0.679741,1.904280,0.487281,-0.373189,-3.047984,-0.296978,-0.024132,2.796442,1.262076,2.712755,2.091567,-1.259697,0.908602,1.549292,2.770383,-0.242909,-0.867446,-0.440542,5.201789,-1.774267,2.521494,-0.744340,-1.235883,-0.484759,2.487293,-1.702718,-0.525798,3.132776,0.380611,-0.633436,0.763550,1.660899,1.058449,2.692182,2.734474,3.654329,1.276477,-0.338832,2.128662,-0.602464,2.115955,1.066366,-0.805752,1.349377,2.986326}
    }
  },
  {
    {
      {0.020863,-0.156455,-0.654898,2.480950,0.929191,1.379065,0.272216,0.747801,0.127560,0.784370,-0.250173,-0.145207,0.353553,0.976345,1.345030,-0.336554,-0.436490,2.497848,1.583475,1.156258,1.498870,-0.669171,0.614043,-0.349124,-0.496147,0.055359,0.493001,-0.738929,-0.199454,-0.804679,0.571877,1.074223,-0.265710,0.013133,-0.477883,-1.919662,1.724438,0.637372,-0.212021,-0.193955,2.310708,-0.839484,-0.335031,0.689089,-1.789980,-0.180522,-0.076280,-0.032934,-1.672687,0.248538,-0.614260,0.563088,0.188121,1.242536,-0.857980,3.643916,-1.018283,-0.051226,0.027359,1.078441,-1.775315,-1.537363,-1.034101,1.121102,0.762790,0.698653,0.350110,0.422711,-0.121833,-0.102899,-0.247662,3.152427,1.181053,1.547605,-1.550084,0.666820,1.790284,-0.784791,0.649645,-0.079440,-0.851692,1.124868,0.935425,1.249389,-1.587498,3.292124,-0.811625,-0.293036,-0.000094,-0.106351,-0.066091,-0.332251,-0.241796,3.024354,-0.140866,-0.303361,0.708225,0.300709,-0.659605,-0.753155,2.076648,-0.157327,0.360457,0.412995,-0.180751,-0.827914,-0.695884,0.590917,2.450318,-0.194029,1.171663,-0.164148,0.628109,0.209984,1.878190,0.038448,1.405843,0.035068,0.570622,1.788547,-0.423407,-0.183168,-0.668127,-0.382627,0.644042,0.220121,-0.263853,-0.606962,0.851569,1.603178,-1.101811,2.591626,2.301637,2.401699,-0.786792,0.573242,-1.056768,-1.928424,0.943608,-0.267312,-0.066453,-0.209084,-0.118158,-0.121514,-0.914209,-0.263927,-0.104900,1.031592,-1.103914,2.467727,2.864753,0.576066,0.727168,0.280489,2.880867,-0.324933,-0.454262,-2.020682,-0.966571,0.384950,-1.352867,-0.775674,1.209239,-0.703185,0.898151,-0.438038,-1.588208,-0.050202,0.443054,0.930289,-0.834165,-0.953336,0.805087,-1.540917,-0.294574,0.226538,-0.914041,-0.033410,-0.464841,1.360432,0.314402,2.333699,-0.554507,-2.337548,-0.126952,1.993360,-0.381207,0.600738,1.700059,-0.556326,1.490704,0.702735,0.391415,0.309655,-0.498744,0.879542,-0.878020,0.584750,-0.968053,2.496379,1.845876,0.958663,0.023778,1.192585,0.732084,3.829565,0.501042,0.470704,1.593130,1.667375,-0.671159,0.586051,1.129851,-0.255362,1.011880,2.031261,-0.252025,0.573688,-1.537111,-0.558242,-0.747303,0.327284,-0.281364,-1.734823,-1.017322,1.786177,-0.317543,-0.281144,0.440530,1.356882,1.352806,-0.431796,-0.635210,-0.039445,1.340587,2.218561,-0.118601,5.014572,1.571882,1.146772,2.599696,2.359375,-0.662927,-0.914477,-0.735994,2.198781,3.048460,1.041437,2.280208,-0.479729,-0.304191,1.766866,0.997629,0.610378,2.065933,1.773652,0.842337,0.588056,1.340670,3.123210,-0.672504,-0.468164,-1.365427,-0.371037,-0.319897,0.961691,-0.184369,0.214475,-0.021224,1.159788,1.915026,-2.054822,-0.826504,1.729367,1.821037,2.522900,1.644542,0.814109,-1.408703,-0.442841,-0.476949,1.231303,1.254999,1.686891,1.318693,1.289646,-0.053685,0.445148,2.042567,-1.167705,0.324103,-1.163080,-0.003293,1.324582,-0.024287,-0.339894,-0.447306,1.686882,-0.400236,0.756435,-0.458707,-0.044120,1.353133,0.440255,-1.133378,-0.599635,-0.265119,0.916280,1.457476,0.500587,1.608676,0.287520,-0.612686,0.423558,-0.763629,0.996694,1.996019,2.203688,1.327744,-1.246242,-0.098630,-0.128714,2.851381,-0.627399,-0.749439,0.096648,-1.345542,-0.903340,-1.220930,0.668918,-0.541735,0.960538,0.371471,0.077191,-0.748412,-0.446643,1.725636,1.050178,1.791862,-0.569982,-1.402456,-0.392493,-0.627226,0.088393,2.917453,-0.122366,-0.167179,1.045369,-0.098200,1.994079,1.383461,-1.038721,0.179793,1.372064,-0.168805,4.758530,-0.388400,-0.679256,-0.410797,0.214581,-0.273644,0.720685,0.179630,-0.193720,0.417361,-0.596389,1.201081,-0.055148,0.278529,-0.097040,0.100991,1.387983,-0.298081,0.649686,-0.107567,-0.072805,2.309245,-0.295718,-0.211769,-0.562986,0.359472,-0.505424,2.586378,0.141695,-0.748699,1.819968,1.503844,1.274230,1.134989,1.530674,1.754383,-0.274957,2.303887,0.331005,-0.681726,-0.003246,0.432976,-0.935777,-0.583205,2.766871,-0.360462,0.108480,0.617210,0.313053,0.332335,1.423649,-0.199421,0.069180,2.260466,0.176946,-0.393397,0.355717,1.816241,-0.097121,1.173371,-0.266237,-0.420199,-0.842471,0.965069,1.245903,-0.528455,-0.041979,3.589520,1.354718,-1.461625,-1.343834,2.264853,2.967391,1.019889,-0.285796,-0.700457,-0.403170,0.908092,1.212101,-1.113667,-0.027038,0.056069,0.407237,2.954216,-0.249477,-0.397651,1.020111,0.871744,1.413103,-0.618968,0.310509,-0.228888,1.845526,-0.598491,-0.502222,1.387954,-0.488793,-0.083919,-0.166742,0.130846,-0.333033,1.119613,0.034972,-0.667246,2.075826,2.634152,-0.664164,-0.322555,0.861341,-1.143011,-0.122150,-0.857502,0.253804,2.485387,2.893933,-1.088093,-0.710057,-1.969061,-0.121898,-0.137266,0.944186,-0.736970,-0.575949,3.837247,-0.550851,1.272200,0.925781,-0.102164,0.831290,-0.310107,2.157478,2.645452,1.333959,2.082245,-0.211982,0.150238,-2.417159,-0.782155,-0.204217,-0.473753,0.278854,-0.437274,-0.358359,-1.118698,-0.379331,-0.307073,-0.205139,0.938526,-0.404127,-0.473486,1.847105,1.842070,-0.169593,0.024966,-0.396858,0.386504,-0.355729,2.186087,2.573687,1.581746,0.032299,2.462492,1.175737,-0.420807,-1.496270,-0.880045,1.646063,0.918449,-0.540399,-0.236406,-0.715632,1.220558,-0.714252,-0.577315,-1.186861,-0.112944,0.664911,1.024613,-1.623916,0.500104,0.003059,-0.174180,1.911524,1.796170,-0.168502,-0.325436,0.940210,-0.148462,0.557933,-0.296226,-0.076169,-0.305721,-0.961193,-0.207454,0.926550,-0.241746,-0.544236,-0.310239,1.145102,0.513915,0.415459,1.203026,4.523406,-0.669869,-0.453314,-0.776654,1.983486,-0.252521,2.048145,0.278206,-0.560649,4.002024,0.523124,-0.360604,1.610480,0.887812,1.124913,1.091758,1.677444,1.219534,-0.220971,1.204693,0.544984,0.081024,0.142616,-0.076924,0.759764,1.512446,0.256683,-0.025158,-1.556627,-1.765205,-0.781418,-0.726051,1.247674,2.402567,0.040890,-0.427130,2.708733,1.926764,0.243671,-0.695411,0.993734,-0.345412,0.887545,1.785888,0.671298,0.091470,1.069251,2.997892,-0.999183,-0.689476,0.580254,-0.428964,2.630116,-0.802046,2.759487,-0.192371,1.212995,0.022582,-0.304121,-0.343644,0.560508,0.225646,-0.845410,-0.723695,0.302790,0.852866,1.148013,-0.242876,1.145337,1.182400,-0.407558,-0.318455,-0.051068,1.111604,-0.329570,0.584323,1.007310,1.589744,-0.744340,1.096357,-0.485165,0.935951,1.633620,-0.346248,-0.098016,0.580201,1.185677,1.636352,0.278428,1.228358,1.604593,1.668740,0.003081,0.510213,0.017350,-0.180399,-1.627954,0.613412,0.765526,0.335494,-0.446571,1.841208,1.111668,-1.191211,0.334535,-1.115934,-0.192872,0.144005,-1.035217,0.465148,-0.122864,0.383115,-0.305487,-0.218315,2.132159,-1.186676,1.990933,1.358852,0.095293,4.386453,-0.392206,1.775353,0.024207,0.068860,0.774490,1.139297,-0.640663,2.383186,-0.664247,0.418333,-1.375305,-0.159392,1.349405,-0.245354,-0.148890,1.227121,1.138923,4.864568,-0.507870,1.814245,-0.154393,1.297299,-0.539640,0.714509,-0.520438,-1.764193,-0.745990,0.042524,1.324041,-0.438654,1.725687,-0.395007,-0.475179,1.311513,0.353335,-1.181128,-0.174609,0.287974,0.971509,1.792365,3.075480,1.826627,0.320757,-0.934468,-0.115051,-0.628559,2.655623,0.165446,0.393660,-0.119438,0.032521,0.360252,2.036452,-0.125012,-0.913829,0.401598,-0.297055,0.519471,-0.178482,1.733279,2.265760,-0.877467,1.117509,0.419968,-0.747996,1.524836,0.745219,0.255172,0.769582,3.155818,0.939376,-1.156999,1.153834,1.258819,1.473837,-1.256029,-1.313141,-0.450201,2.084026,-0.841236,-0.672774,0.830212,3.148764,-0.499190,2.924874,0.779429,-1.516129,3.561327,1.252299,1.330217,1.501068,2.268900,-0.213071,0.818871,1.657400,-0.303273,-0.329367,-2.174222,4.788846,0.426245,-1.054853,1.484055,2.849874,-0.045645,-0.840225,1.427819,-0.126552,1.298284,-0.210079,2.570381,-2.268534,0.362436,0.125482,1.074487,2.332328,-1.368510,-0.306634,-0.927850,-1.201628,-0.148002,1.542977,-0.551283,-0.078857,-0.882313,-0.760951,-0.305810,-0.501544,1.377211,1.316523,-0.138299,-0.284746,-1.328024,-0.388362,1.870730,-0.174392,-0.995205,2.161578,1.113767,-0.353533,-0.132565,0.090678,1.503728,2.089251,0.801060,-0.373271,1.151756,0.913307,-0.369311,2.692662,1.670377,-0.085298,0.514563,0.017912,0.316918,-0.166064,2.735512,-0.046421,-0.422383,-0.171753,0.284034,1.703927,2.409809,0.004051,2.844672,1.967395,-0.191342,2.139380,-0.167148,2.166501,-0.571574,2.143133,-0.269891,0.162745,-0.179208,0.319301,1.064940,1.940907,-0.402425,-0.197479,2.487709,1.752542,0.066646,-0.786691,1.258967,-0.200604,-0.502028,-0.950640,1.339379,0.036700,-0.511373,-0.125692,2.329491,-0.292113,-0.312817,1.463855,1.946867,-0.473200,-0.179568,-1.611773,0.137332,1.138147,-0.250340,2.025880,0.406200,-0.505370,-0.343709,-0.412996,0.606568,0.523215,-0.589133,-4.017525,-1.639353,1.388416,2.544507,0.485750,-0.273195,1.206911,-0.573694,-0.624237,-0.237968,-0.184463,1.102194,2.054563,3.333931,2.188855,-0.114116,2.892124,-0.228394,0.681754,-0.345048,1.106907,1.584532,0.292597,-0.386195,-0.331045,0.635978,-0.077846,1.654266,-0.228027,0.343630,-0.772055,-0.245344,-1.521867,0.437435,-0.226275,0.772856,1.283999,0.711568,0.532299,-0.364767,1.827909,1.928892,2.235983,-0.385095,-0.518642,-0.922822,2.533937,-2.033598,0.328035,-0.360108,-0.527030,-0.418227,0.081456,-0.488095,-0.086602,0.483148,-0.594759,-0.549325,1.719642,1.259918,1.635522,1.732399,1.021460,0.837488,1.504114,-0.099217,0.377503,0.051708,0.338954,0.574692,-0.109162,2.978720,-0.025553}
    },
    {
      {0.451863,-0.272649,0.107906,2.831111,0.059545,3.177987,0.813915,-0.535153,0.168838,2.264294,-0.210188,-0.559167,2.140958,0.332358,0.481790,0.689045,0.773721,2.583229,2.496108,0.337605,1.186268,0.167718,0.111713,-0.060324,-0.111677,1.545876,0.464404,2.298531,-0.566474,-1.074702,1.954647,1.146085,0.050127,0.027110,0.245031,-0.491209,0.386301,-0.085157,0.158679,0.114701,1.698057,1.532823,-0.312989,-0.987383,-0.543130,-0.025402,-0.644855,-0.323207,0.942676,1.318608,0.415866,0.174342,0.268308,0.759380,0.293956,3.883371,-0.085808,0.288512,0.793838,0.122185,-0.928450,1.153403,-0.437354,-0.091793,-0.019802,2.292692,-0.642022,0.930490,0.627277,-0.092785,0.181641,-0.577538,1.036748,1.150106,2.570293,-0.753519,0.241580,0.118830,0.724641,0.039302,-0.599087,-0.205142,0.187811,0.079417,2.229651,0.049674,1.333484,-0.211899,-1.236545,-0.453699,1.141303,-0.067847,0.117386,-0.995094,-0.077892,-0.107976,1.341213,-0.691019,0.570775,-1.395541,1.698047,0.141198,0.643211,-0.634851,-0.169123,-0.025923,0.005209,0.270006,3.767628,-0.082854,-0.403266,0.031548,0.879874,-0.228733,1.046560,0.995611,1.550724,0.852060,0.733008,1.044210,-0.426713,-0.218971,-0.012225,-0.114424,0.461129,0.159255,-0.754474,-1.687734,1.223416,1.876059,-0.336793,-0.864207,0.777993,1.050134,0.153132,1.711836,-0.383875,-0.019741,0.703509,0.538617,-0.362607,0.117248,0.757555,3.533570,1.317247,-0.788599,-0.382617,-0.321066,-0.315038,1.080864,0.490157,1.226575,-1.229515,0.428865,2.421825,-0.109088,0.319979,1.626512,0.597766,2.066473,0.213293,0.416092,1.211626,-0.109206,1.318202,0.116597,0.601583,-0.973676,-0.317169,-0.041571,0.313936,0.028769,1.369087,-0.553687,-0.065432,0.287207,-0.290011,-0.238829,0.975966,0.088914,0.608852,0.962450,1.247018,1.198920,0.097757,0.088887,-0.008912,-0.423429,2.650599,-0.020674,-1.105572,2.350554,-0.608603,1.902571,-1.552969,-0.398356,-0.685326,-0.625831,0.046043,0.085225,1.996240,-0.353764,0.278009,1.022156,-0.248337,2.638669,0.994106,0.927785,0.304056,0.335835,-0.320348,-1.936152,-0.209285,1.192211,-0.402764,0.009204,-0.013573,0.355084,0.532247,0.140860,-0.111319,-1.013407,0.080151,0.446275,-0.647841,1.102168,-0.016534,-0.516387,-0.339819,-0.204471,1.695172,0.109366,0.296021,-0.045949,1.955498,1.147241,2.336590,2.584721,0.603847,1.174268,2.509474,-0.463645,1.072285,-0.398719,0.439349,0.716779,0.333387,0.496149,-0.138467,-0.555595,0.322570,1.107928,0.898222,0.163362,-0.193315,1.022536,2.087153,0.704945,2.483649,-0.144929,0.124546,-0.244346,-1.126984,-0.132676,0.505953,3.531186,-0.169854,1.187236,-0.909126,0.630593,-0.016498,2.185726,0.068897,1.607095,1.327102,4.032300,5.535305,0.139535,0.280064,-0.342820,-0.293224,-1.053725,0.582830,-0.297269,0.407321,0.611911,0.501441,-0.715135,-0.051053,-0.028718,1.071262,1.060234,0.140777,2.616566,-1.709691,-0.403030,-0.082627,-0.281706,0.166495,-0.812955,-1.084233,0.247859,0.625911,0.085707,0.751784,1.248284,-0.183155,1.804974,0.077629,0.348012,0.609144,1.833800,0.068394,-0.627691,0.324263,1.761803,0.915628,0.759403,1.503327,-0.171705,3.317226,0.209028,1.135012,0.243058,-1.771725,0.119560,3.599686,0.290975,-1.034861,-0.593344,-0.133500,-0.291533,1.792120,-0.368355,-0.128089,0.424031,1.861663,0.330928,2.920203,-0.116889,1.410460,-0.107143,0.041232,1.045030,-0.068728,-0.254349,2.442533,-0.445054,-0.337565,-1.781579,0.513224,-0.360404,0.090674,3.303654,0.054798,2.581760,1.316877,-1.238723,-1.282983,0.652279,-1.031008,2.297454,-0.962517,0.113675,1.117504,-0.343943,0.082102,-0.283670,-0.313471,-0.052987,-1.612414,2.391164,-0.139672,1.275437,3.111010,-0.359889,0.083062,0.477550,-0.306154,-0.596152,1.368844,0.516613,0.310272,-0.226951,-0.236787,0.936226,2.889951,-0.234525,0.256315,0.662050,-1.181746,-0.013950,0.548091,-1.344529,1.004319,-0.006365,2.281412,-0.082455,0.675927,0.523125,-0.209138,0.193790,1.009514,0.693018,-0.292423,0.399372,-0.102420,0.144404,3.181391,0.157606,0.149466,0.583984,0.971737,0.211835,0.651964,-0.188528,-0.879480,0.125089,0.243405,0.305222,-0.856625,0.340145,1.083796,0.266233,0.602343,0.163092,-0.729458,3.284907,2.244459,0.025618,0.309618,-0.857395,0.862017,0.629851,-0.295574,-0.136943,-0.089508,1.449656,2.870073,-0.284957,-0.045327,1.306453,1.702477,1.375912,-0.345291,-1.885967,-0.569980,1.250164,-0.212024,-0.073850,0.691003,0.984465,0.137067,0.014385,-1.139041,0.480077,0.083222,-0.403620,2.914368,1.701918,-0.137133,0.050473,-0.291307,-2.424779,-0.277169,-0.282970,0.688699,0.123232,1.894338,3.525746,1.722641,0.250062,0.564255,-0.951732,1.246355,0.681460,-0.370248,0.458174,1.228393,2.314410,-1.093606,3.112797,-0.336854,3.239456,-0.322586,1.094873,1.935661,2.807258,0.199937,-0.116864,-0.027280,-2.027581,1.068328,-0.044034,-0.227647,-0.862111,-0.078055,-0.201486,-1.673442,-0.992593,1.297376,-0.031372,0.902855,-0.183623,-0.825723,3.401343,-0.167476,-0.123892,0.539865,-0.198911,0.279789,0.015354,2.435260,-1.198606,1.333545,1.105997,3.233180,1.119337,-0.031922,-0.648766,-0.839653,1.625496,2.025794,-0.374982,0.115861,4.249456,1.453926,0.039502,0.598589,0.228354,0.164333,0.143944,-0.884955,-0.524236,0.933262,-0.390777,0.356417,0.736586,-0.123551,0.057916,0.756698,-0.009244,-0.091293,-0.724107,0.374236,0.173575,0.266382,-0.250482,0.250166,3.161491,-0.156754,0.580449,-0.187870,1.105537,2.588656,0.756238,1.149868,3.017490,0.032775,-0.239292,0.097234,0.052837,-0.311624,2.121273,0.764132,-0.850905,1.086746,1.212098,-0.296775,-0.122940,2.824764,1.119433,-0.528964,3.438798,2.501442,0.435532,2.063683,1.176596,-0.608114,-0.805469,-0.358614,-0.113753,0.458765,-0.801445,1.056200,0.766339,0.118308,0.843462,0.489087,0.731001,-0.536066,0.058060,-0.227978,-0.514899,2.639031,-0.672739,1.251986,0.467521,0.013701,1.479066,1.236303,2.100524,1.073510,0.588947,1.652655,0.096120,-0.216501,1.303762,0.379442,1.388400,-0.056936,1.803376,-0.299515,2.677692,0.285599,-0.311142,-0.395365,-0.461346,-0.161956,2.707902,0.061950,-0.074500,0.946417,-0.803959,0.001609,-0.119949,-1.510486,-0.253424,-0.177872,-0.114207,1.648257,-0.308996,1.600571,-1.051111,1.089879,-0.803535,0.463566,-0.094119,1.052405,0.152963,-0.132689,0.096431,3.105593,1.926934,0.160857,-0.214154,3.276831,0.881159,1.701895,-0.255395,1.055342,-1.385411,0.078326,-0.016863,-0.566298,0.928871,-1.861347,-0.017030,2.374768,0.371471,-0.608494,2.426790,2.830494,0.295538,-0.283175,0.399412,0.056061,0.571985,0.171540,-0.198303,0.069268,1.552266,-0.614437,-1.350318,0.178971,0.701573,4.870991,-0.270022,-1.081578,0.073385,-0.262967,-0.635707,-1.414030,-0.405900,0.367723,-0.195391,-1.497942,0.544357,0.246858,0.221541,-0.134767,0.068858,-0.598922,2.468187,0.241522,-0.260078,-1.126006,-0.424438,2.145591,2.413867,1.285568,1.439978,-0.093558,-0.172570,0.911597,1.218774,0.203944,3.202263,-0.361609,0.655023,-0.462758,0.923638,-0.440018,-0.123962,1.062806,-1.002863,1.548769,0.681135,0.573895,-0.378637,-0.252086,-0.038798,1.237918,0.502976,-0.186726,0.628855,-0.039517,0.269239,1.060799,0.402789,-0.104631,0.211545,0.524989,-0.200108,1.388523,-0.155533,1.718789,3.423329,0.192250,0.870787,1.507265,-1.181367,0.666769,0.115312,-7.494332,-0.770322,0.348072,2.147428,-0.164872,-0.244822,1.247735,2.295101,0.149795,-0.603994,-0.337178,2.186471,1.055334,2.565737,0.774765,-1.135998,0.118156,1.176966,-0.257521,0.597438,-0.970228,2.536374,1.558899,1.453394,1.613364,-0.155268,2.032737,1.923856,0.440531,0.361423,1.212826,0.590572,1.052038,0.619726,1.039269,0.501764,-0.005271,0.494745,2.459971,-0.119325,0.927717,-0.198000,1.920305,0.550714,-1.435404,1.027588,3.486057,0.632360,-1.181790,-1.213204,-0.132309,0.201290,-0.891721,0.848162,1.805170,-0.105521,-0.073919,-0.027800,-0.133443,0.071428,0.191369,3.909647,-0.211727,-0.330128,-1.150972,-0.279532,-0.027033,-0.233655,-0.321525,2.530076,1.307772,-0.250506,-0.180250,4.007948,1.478652,0.008658,0.668805,0.114286,-0.799262,0.460787,0.303723,1.877403,1.865309,1.296116,1.416680,-0.851788,2.953722,-0.071660,0.652485,-0.252059,0.099791,0.549744,-1.170189,-1.123502,-0.055986,0.482245,-0.354530,0.183799,0.116426,-0.056864,1.356923,-2.443498,-0.292419,3.399616,-0.150995,0.425302,-0.016675,-0.135839,0.758698,1.383427,-1.813614,0.197021,1.934098,0.931554,2.074973,-1.219128,0.963863,0.028930,-0.232866,1.090755,0.424199,0.158370,2.168523,0.004996,1.646867,-0.111800,-0.253109,2.799968,0.604466,0.129428,-0.315028,0.022625,3.834413,2.826690,-0.219629,-0.437790,1.054873,-0.104484,0.061425,-0.289923,1.346463,2.629168,-0.871899,-0.745062,-0.098425,1.215993,0.471147,0.557619,-0.318704,1.362398,1.645188,-0.609528,0.248349,-0.321386,-0.251260,3.888366,-0.085086,-0.017725,1.040404,1.426907,-0.326793,0.120383,-0.124470,2.213879,-0.226610,1.796943,0.133518,-0.244093,-0.120168,0.021947,0.201436,-0.467451,-0.455764,-1.464427,-0.035850,-1.464986,-0.512150,-0.177893,-0.276493,0.010287,1.278967,1.595791,0.929325,1.220430,2.208534,-0.112199,-0.135988,0.020611,-0.422079,1.278931,0.067719,0.311242,-0.798401,-0.142035,-0.516803,0.676311,-1.011278,-0.322658,2.280111,0.318867,0.126674,-0.829202,0.566843,0.844545,0.507748,2.187181,0.278031,1.433114,-0.237486,0.145901,-0.041908,0.012921,0.782624,-0.172538,-0.652509,0.466387}
    },
    {
      {-0.353715,0.014411,0.413353,1.665143,0.091546,3.041048,0.965491,-0.096098,-0.441193,0.854407,-0.386993,-0.256656,2.530463,1.832808,1.763116,1.852922,2.785593,2.021574,1.310208,-0.546744,1.114190,-1.016106,1.108836,-0.352126,-0.384543,-0.069061,1.406180,0.602173,-0.001952,-0.122629,1.682131,0.328859,-0.188787,0.034705,-0.444227,1.767690,0.179454,0.470969,0.228743,-0.403914,1.482153,2.337682,-0.214301,1.234674,-0.076560,-0.443180,0.450596,-0.142829,-1.520402,-2.208427,0.084068,1.832295,1.454248,2.191067,-0.014820,0.929654,-0.253877,-0.484922,0.501738,0.845685,-0.994771,1.121788,-1.074151,0.818557,0.484955,1.663310,-0.032536,0.687437,-0.691353,-0.687956,0.151598,0.680500,2.268992,1.756354,1.117558,0.994067,-1.153571,-1.075802,-0.347192,-0.218589,-0.156328,0.512252,-0.516305,1.383892,3.479487,2.100442,3.085725,-0.412585,-1.129853,-1.481850,1.034495,-0.843408,0.066627,0.773524,-0.146062,-0.213843,1.792210,2.012827,-1.149982,-0.734758,0.614811,0.047877,1.089657,1.330114,-0.501723,0.182092,-0.097949,-0.783279,2.255939,-0.208400,1.069915,-0.405696,1.098804,-0.206618,0.885955,0.149441,2.413802,1.497801,-0.676314,1.909198,-0.140365,-0.412644,0.039485,-0.742872,1.544964,-0.867619,-1.167632,-1.414980,0.782336,1.408839,1.090966,0.268720,0.416621,1.644855,-0.067456,2.702056,-1.474834,-1.079402,4.306319,0.075630,-0.033570,-0.347630,2.108705,2.037311,-1.082211,-0.354864,-1.264610,0.542846,-1.770775,2.268283,1.904774,2.725872,0.599026,3.180184,2.936080,-0.773151,-1.326361,1.794439,-0.118700,1.813233,0.474268,-1.399428,1.724431,-0.517920,-0.221190,-1.878671,-0.144736,0.324892,0.900177,1.246578,-0.409495,-1.218018,-0.095870,-0.037789,-0.203454,-0.645342,-0.424223,-0.140191,-0.194222,-0.728519,-0.433088,-0.858698,1.550299,2.608063,0.138106,0.200067,-0.412285,1.087231,2.713630,-0.548465,-0.487511,0.109334,-1.034563,0.843039,1.313790,0.703234,-0.668022,-1.100668,1.353781,-0.668695,2.182748,-0.408473,-0.033402,0.864287,0.650911,2.671033,0.717170,2.161532,-2.389243,0.580870,0.270549,1.571050,0.921975,-0.387731,0.226993,0.814766,-0.291756,0.355478,-0.439163,-0.281979,-0.779383,-1.709973,-0.385446,-0.415177,-0.327275,-0.320383,-0.656906,-0.702562,0.064275,2.553321,1.724210,0.278521,-0.668202,-0.380029,1.592457,2.115685,-0.658488,-5.087162,3.090788,2.450096,1.993836,-0.113462,0.661167,-1.045509,-0.481115,2.356781,-2.003947,0.879436,1.420541,-0.565695,-0.570576,1.963017,0.113375,1.964425,0.364092,0.946011,0.886718,1.787058,2.483696,-0.901064,-0.730247,-0.046664,-0.982745,-0.350943,-0.682610,4.001705,-0.185932,2.661976,-0.325310,1.617123,1.303665,0.136764,-1.132938,3.217223,1.534060,0.179709,1.195009,-0.512571,-0.637504,-1.246565,-0.220986,-0.800566,1.508876,0.845934,0.975632,1.069282,0.029113,-1.493908,0.861550,-0.021205,1.135926,0.259912,-0.402723,3.286229,-1.061825,0.067818,-0.168649,-0.713446,-0.092979,1.698832,0.226448,-0.898597,1.033991,-1.864075,-0.249427,2.189348,-0.530280,2.153820,0.682679,3.924119,3.058610,1.173316,-0.248961,-0.986050,-0.379037,1.827405,1.207816,1.552751,2.971719,-0.873636,2.317996,-0.666550,2.077359,-0.396797,-0.462483,-0.428719,1.202458,-0.398888,-1.444991,-0.813757,-0.616880,2.324553,1.595729,-0.083401,-0.207928,-0.914662,-2.029159,0.152913,0.660800,0.060136,1.778367,-0.344250,0.733271,0.289617,-1.027083,-0.219212,0.765288,0.831412,-0.820876,0.418920,2.027786,-1.370630,-0.922637,2.228925,-0.717087,0.194062,2.221056,-0.958276,0.811923,1.504916,-0.212129,1.994458,-0.628365,-0.284588,2.329227,-0.185952,1.597628,-0.325021,1.216038,-0.438180,0.079453,3.196747,-0.257011,1.501213,0.971203,1.965201,-0.079686,0.012427,-0.570299,0.143956,1.545955,-1.327909,0.679413,-0.274802,-0.953864,1.904094,2.341645,2.545611,2.160456,0.107932,0.248187,-0.392120,1.075688,-1.090639,2.311188,0.340859,0.495161,-1.084477,-0.110037,0.280554,-0.506658,-0.287595,2.400052,0.621158,-0.604425,-0.856683,-0.342675,-0.266668,2.695570,1.223705,-0.396974,-0.489577,1.531230,0.830986,2.334713,-0.566647,-0.895194,-0.652403,1.238654,2.156422,0.753915,-0.324985,1.897920,-1.098751,0.002606,-0.344987,2.123871,0.842595,2.436846,-0.143046,-0.428993,-0.300656,-1.314532,0.188403,-1.031368,1.434919,-0.308948,1.583622,1.960975,-0.312937,-0.515012,1.649416,0.761681,0.514215,-0.553989,0.079853,-0.414753,1.415487,1.588066,0.019937,1.002643,0.642103,-0.209609,0.788333,-0.092601,-0.146947,0.711993,-0.822820,0.574699,2.753505,0.186996,-0.204083,-0.226916,-2.244101,-0.416117,-0.293261,1.444499,2.103382,1.091439,0.421914,2.091194,-0.744220,-0.794207,1.149355,2.962209,-0.602626,-0.586439,-0.891178,2.319770,2.319868,1.279819,1.977446,-0.178036,2.831138,0.414261,2.202537,1.919433,0.918043,1.087354,-0.452584,1.017913,-0.444968,-0.583480,-0.276847,-0.525731,-0.489837,-0.386559,-0.344683,-1.210688,0.744772,0.241094,-0.243736,2.461193,-0.369530,-0.553087,2.230235,1.634363,-0.156012,-0.297009,-0.114652,1.535232,-0.247555,0.806292,0.461983,3.612650,-0.653446,1.435815,1.507259,-0.307223,0.049992,-0.446009,2.387282,1.576392,-0.542096,-0.336091,2.577945,1.601576,-1.059156,-1.128728,-0.634290,-0.304185,0.480883,1.921741,-1.003316,1.925763,-0.080596,-0.106963,2.360966,-0.801204,-0.195272,1.145388,0.733817,-0.239332,-0.950567,-0.234393,-0.258628,-0.286643,0.203270,-0.484666,0.466038,-0.540971,1.281510,-0.351634,1.172796,1.150424,0.691248,-0.428875,3.103174,-0.357342,-0.391949,-1.174076,-0.000416,-0.386805,0.963262,1.342653,-0.154248,0.853478,-0.104247,-0.961256,1.979529,2.593608,0.788938,0.881563,2.574585,0.447716,-0.189592,1.603401,-1.023651,-1.643418,2.139683,-0.997968,2.814198,1.952109,-0.986954,0.120545,-0.077863,-0.355679,0.890111,3.584175,0.877806,2.197935,-0.175249,-0.673611,0.180437,2.440450,0.171844,1.878430,2.883045,-0.215181,1.150048,2.902366,1.319413,2.358525,0.724951,3.334283,-0.472810,-0.836672,2.501245,-1.338292,2.063863,-0.240830,1.629849,-0.693157,1.242481,-0.493716,-0.334108,-0.660131,0.603353,0.502405,3.125104,-0.086223,-0.614080,0.360829,-0.986420,-0.101566,2.446883,1.943113,-0.313451,-0.102176,-0.427510,-1.089850,-0.172756,0.558949,1.575628,0.954369,0.567178,-1.092486,-0.072699,0.830893,0.288321,-0.326823,0.103101,4.660436,1.933585,2.069495,2.191939,0.799159,0.279775,0.763168,-0.358705,-0.068757,-1.829280,-0.216261,0.322277,1.304585,0.927201,1.672263,-0.130083,0.728700,-0.482822,0.023781,3.589712,4.325807,-0.299447,-0.755769,-0.570065,1.715791,0.699799,3.595153,-0.328407,-0.435233,1.279088,-0.803641,3.798156,2.512345,1.032576,3.358290,-0.407646,0.441716,-0.167450,1.258170,-1.226967,2.031368,-0.021052,1.348452,-0.116443,-0.726150,-1.622090,-0.484795,0.536021,-0.125468,-0.350738,0.725912,-0.233567,0.408302,-0.507491,-0.613422,-0.773762,0.072681,-0.053704,-0.252838,1.499882,-0.871992,-0.643650,1.147390,1.867923,1.292975,2.684884,-0.136165,0.112368,0.395557,2.144132,-0.638812,-0.334530,3.399399,1.910304,1.143628,0.426381,1.357579,0.788798,-0.411500,-0.355142,-0.357675,1.496886,-0.085449,2.936069,-0.323957,-1.091480,2.874149,2.329416,-0.446770,-1.209993,1.356358,-0.443695,1.002531,-0.049131,1.330501,3.831092,-0.578881,0.025939,2.721611,-0.440270,2.521831,1.406490,0.140974,1.526165,0.274692,1.556985,-0.661409,0.007063,0.658875,0.397953,-0.690800,1.622581,-0.568346,2.608009,2.715079,0.969350,0.834004,1.786382,-0.339428,0.430924,-0.933863,3.372157,1.771331,1.145425,0.931321,2.798599,2.558031,-0.164992,2.158951,-0.064621,0.232131,-0.518306,0.707362,-0.483878,1.970023,1.082093,0.605096,1.336339,-0.208814,0.204597,0.794924,-0.130682,2.639235,-0.407541,3.022727,1.902351,-0.741455,1.753687,2.063305,2.804016,-1.317382,0.297987,-1.842462,-0.938981,-0.160135,-0.779232,2.485629,-0.653139,-0.376298,0.290566,-0.299192,-0.242257,1.379960,2.590060,-0.282195,-0.251596,-1.014826,-0.814902,1.525862,-0.179371,-1.140225,0.673904,3.098842,-0.703461,-0.244274,2.330007,2.774187,1.745499,3.122285,-0.258198,0.845020,-1.497772,-0.428181,0.794144,2.751408,2.240410,1.563040,0.932284,0.283401,-0.234157,0.230939,0.002212,0.278411,1.483189,1.469186,-0.851154,0.284144,0.980282,2.024932,1.477863,-0.092165,-0.259742,2.485178,1.158295,-0.322710,0.453733,-0.064305,0.790691,-0.353766,1.416345,1.082381,2.085841,1.141666,0.104268,-0.766447,1.196078,2.022544,-1.319266,0.443662,-0.186758,-1.232905,1.609856,2.064184,-0.756608,0.643844,-0.291090,2.104430,-0.880758,-0.276795,2.446826,0.247142,-0.228682,-0.021209,1.708735,1.605439,1.181965,-0.009677,-0.102165,0.552615,-0.677608,-0.635374,-0.341780,-1.018623,2.351439,-0.521172,-4.832896,-0.316113,0.363458,1.145683,0.772131,-0.339048,2.011497,1.057048,0.050456,-0.366136,-0.367114,0.131741,-0.210402,-0.352900,1.950553,0.812653,2.421859,-0.411219,1.151371,-0.079894,2.484295,1.413797,2.723750,-0.434074,-0.709624,1.196033,-0.295807,1.168533,-0.650830,2.582514,0.108617,-0.272699,-0.674469,-0.586633,-0.133146,2.107345,-0.192357,0.512671,0.392698,-1.213038,1.431097,0.921654,2.925207,-0.296269,-0.244442,-1.583876,1.293372,-2.199097,0.971427,-0.857641,-0.383009,-1.159589,0.482896,-0.537670,0.031174,0.044077,1.028699,-0.330451,-1.089072,1.314067,0.608462,1.453793,0.638484,-0.566479,2.236234,-0.610032,1.926560,-0.096435,1.846842,0.750232,-0.119896,1.395338,1.455330}
    }
  },
  {
    {
      {-1.543678,-1.163236,1.311306,1.392000,1.586626,1.916176,2.048816,1.714997,0.762002,1.171912,-0.653851,-0.340003,1.771759,1.851017,0.993901,2.423964,2.635759,0.464434,0.844005,2.107837,1.032550,-0.560144,1.804851,-0.518530,-0.528850,0.201905,1.185756,-0.255891,-0.412206,-0.243680,1.519509,-0.436300,-0.431749,0.030906,-0.904716,1.315416,4.148077,2.665934,-0.486070,-0.543061,1.674513,0.003270,-0.131712,1.740349,-0.698338,-0.392268,3.762447,-0.448471,-1.951453,2.770476,-0.894054,2.179809,1.415650,1.382885,-0.605939,4.600420,-0.633855,-0.534709,-1.623847,1.462653,-0.104752,1.902296,-3.199126,3.800015,1.509444,-0.247798,-0.291321,1.325475,-1.605990,-0.537548,-0.808112,1.432548,0.609076,1.776739,1.585969,0.232499,1.217235,-1.500208,1.627186,-0.324507,-1.195792,0.763533,0.723909,1.274830,-1.959784,-0.277305,1.678486,-0.692490,-1.380197,-0.629946,0.367100,-1.239954,-0.381556,2.012831,-0.472519,-0.113314,-0.197829,2.848380,-0.187765,-0.613347,3.147011,1.960272,2.042464,2.903637,-0.330811,-1.746817,-0.969758,-0.169139,0.293266,-0.180671,1.735269,-0.565939,1.269951,-0.432306,0.899732,0.580711,0.370283,2.566869,-0.064342,1.687403,-0.373656,-0.383203,-1.174503,-0.988288,0.738780,-0.907586,3.203079,-0.067651,-0.403886,1.584114,2.630507,0.859862,0.506173,0.660382,-0.750300,2.244907,1.013075,-0.721739,4.270566,-0.759847,-1.888185,-0.593116,1.297660,0.496367,-0.786529,-1.399356,-0.568891,1.328863,-2.009159,1.702414,1.150754,3.155833,1.583429,1.950797,0.539820,-0.403982,0.018379,-1.339290,-0.783592,1.363437,-0.705578,-1.534682,1.604019,1.936473,0.926325,-0.644344,-0.306261,-0.270819,-0.084679,0.714834,-0.785908,-1.613812,2.041678,-1.988281,-0.202257,-0.504375,-1.235096,-0.264066,1.938243,1.913612,-0.130103,1.115860,1.135755,0.504323,-0.887624,1.112935,-0.960436,-0.140113,1.357003,-0.543376,2.365641,0.930877,-0.466734,1.348953,1.707272,-1.570031,-0.262280,-0.803237,0.133796,1.885207,3.719799,2.095348,0.185942,0.786694,1.595989,2.275230,2.230857,1.246985,2.322875,2.274961,-2.018993,0.573803,1.155960,1.260353,-1.838656,1.902274,-0.284983,2.294330,-1.420145,-1.145275,-0.217564,0.403753,-1.710474,-2.702139,-1.423833,2.955836,-0.661905,-0.188100,-0.890801,2.283795,1.162109,-0.919693,-1.121898,-0.335653,2.790505,1.266279,1.116655,4.604196,1.684873,1.136627,2.255407,1.896402,-0.372394,-1.040953,-1.135039,1.545408,1.083942,1.901730,0.780038,-0.999407,-0.828160,3.076822,2.305789,0.978982,3.179307,1.230121,1.656948,0.409853,2.670311,3.065592,-1.249920,-0.609213,-0.034304,-0.283746,-1.628957,2.330705,-0.236094,1.693392,-1.680920,3.062771,0.873280,-0.362538,-0.824597,0.933770,2.675138,3.288705,1.113963,-0.974853,-0.079962,-0.584725,-0.300619,2.523835,-0.342557,3.233104,1.329389,2.515324,1.498767,-1.451570,0.379631,-1.038179,-0.699844,-0.017901,-0.323728,-0.559014,-0.052421,-0.541020,-0.277490,1.624451,-0.415184,2.181178,-0.699619,-1.332390,2.595215,0.056619,-0.950855,3.391709,-0.534437,1.486202,1.239140,0.606313,0.741001,-0.057496,-0.667843,-0.192902,-0.973839,2.227965,1.419966,2.221345,2.735660,-1.874765,0.194848,-0.205357,3.422758,-0.841921,-1.062798,-0.315577,0.608867,0.012814,2.108366,-1.051392,-1.575219,1.254188,0.730228,-0.581842,-0.576541,-1.040066,0.285986,2.158023,1.150788,-1.774644,2.265359,-0.699092,-0.734068,-0.719454,1.587121,-0.443526,1.989528,3.270898,0.344354,5.259803,2.778151,-1.330226,-0.965239,2.224423,-0.916655,2.992059,2.197644,-0.538817,-0.024446,1.370019,-1.837138,2.478140,-0.412081,-0.895635,1.049497,-0.388865,2.646965,-0.319246,-0.728850,-0.597917,0.908363,2.754650,-0.385520,1.057083,0.692078,2.324868,0.385291,-0.209590,-1.162674,-0.804718,0.407113,-1.066509,2.589363,-0.921010,-0.016438,1.519193,1.278413,2.264034,2.167298,0.812373,1.088325,-0.525548,4.283448,-0.940597,0.141401,-1.110349,0.596783,-0.116263,2.122819,0.741584,-0.476008,-0.219570,1.997679,-0.188168,-0.629761,1.009473,-0.315344,-0.227668,1.360485,1.749103,-0.586425,0.218593,-0.222057,3.675246,2.299972,-0.187826,0.178832,-0.598136,0.835703,0.289429,0.165274,-0.596151,4.197917,2.013074,-0.399556,-1.451907,3.805366,2.233795,1.537339,-0.564742,-1.013270,-1.767390,0.457119,1.628100,0.073436,1.618431,-0.263262,1.567199,1.368777,-0.295814,-0.390906,1.061646,2.568451,1.605892,-0.650637,1.304636,-0.881403,-1.009031,1.545724,-0.736392,1.501687,1.092557,-0.470699,3.120897,-0.292654,-1.638017,2.676775,-0.882720,1.108768,0.577615,2.304216,-0.727764,-0.538472,0.806244,-1.392144,-0.478041,-0.664444,3.064159,1.331144,0.359300,2.095469,-0.298039,-0.584880,1.259762,1.192866,1.586843,-1.229149,-0.262969,1.470970,1.482558,2.509028,2.069836,-0.301711,-0.568174,-1.793516,0.396695,1.532328,-0.293254,1.363035,-0.336260,1.847756,-0.622198,-0.291810,-0.246310,-1.077524,-1.369898,-0.457663,-0.428486,-1.846696,-1.718583,1.948218,-0.309119,3.112454,-0.454441,-0.235311,0.917820,1.517124,-0.412846,-0.091619,0.028941,2.646139,-0.370107,1.754479,1.977185,1.252426,-1.052150,3.794487,-1.372202,-0.137291,-2.391919,-1.370474,2.635423,2.659305,-0.715972,-0.987778,-0.643128,0.455444,-0.980737,-1.907944,0.352013,-0.578541,2.570159,1.719273,-1.970304,2.177048,-1.003054,2.018767,2.346992,2.021933,-0.393284,1.192657,2.564778,-0.512567,1.124331,1.797359,-0.691675,-0.515254,-2.151819,-0.822855,1.906861,-1.027814,2.259954,-0.069986,1.421453,1.806300,1.997920,1.548780,1.424162,-0.305631,-0.242354,-0.183832,-0.271502,-0.348036,0.754026,4.243330,-0.254414,1.778890,1.182142,-0.774179,2.726773,2.240779,2.215585,2.598693,1.018091,2.266386,0.350884,1.148030,-1.087589,-0.374455,0.646541,-0.538245,2.293378,1.467939,-1.596588,1.981807,-2.057029,0.010472,2.145937,1.850231,2.822178,2.619960,1.237197,-0.337808,1.122019,2.253807,-0.834479,0.663642,1.053122,-0.644618,0.096998,1.936002,0.363728,3.151121,2.057282,1.207974,-0.212813,-0.630624,2.102479,-1.402961,1.799134,-0.642871,1.154920,-0.747399,1.738997,-0.969690,-0.297103,-0.339520,0.010647,-0.141543,0.940095,1.186678,-0.909823,0.031089,0.449760,-0.246807,1.295131,1.178765,-0.363493,-0.358659,-0.453121,2.018364,-0.271362,2.352739,1.934236,1.383646,-0.704702,1.622181,-0.854285,1.049947,1.529019,-0.417864,-0.597778,2.109559,0.454625,0.381688,1.778191,1.071052,1.850763,1.757545,1.335694,3.094127,-1.225952,-0.453895,1.019538,1.192986,1.291996,2.809479,-0.566545,2.613474,1.039364,-1.037104,-0.657393,0.284846,-0.503537,-1.085811,-0.597632,1.029274,2.077916,2.063030,-0.282184,-0.527677,0.471014,-0.948548,0.698437,-0.671492,0.126919,2.767535,-0.505521,1.986840,-0.484461,5.604753,-0.654294,1.498323,-1.789549,3.356281,-0.547896,-0.819114,-1.954416,-0.530802,2.185014,-0.578210,-0.828185,1.438557,1.977035,1.667795,-0.002396,1.873273,-0.773581,0.083432,2.154255,2.441886,2.435653,-0.111249,-0.861129,1.126866,1.257404,1.684681,1.028763,-0.794561,1.215688,0.867235,2.064902,-1.364543,-0.221274,2.801207,1.481433,0.497734,1.942732,3.017099,2.247616,-0.261289,-0.328156,-0.172016,0.786654,-0.448325,3.005422,-0.509188,-0.633000,3.976155,1.182299,-1.036842,-1.150136,0.771487,-0.287029,1.677814,-0.829578,1.286129,2.892876,-2.137643,1.682659,2.138709,-1.788835,0.918522,-1.004339,1.064211,0.116980,3.371337,2.287382,-1.382382,0.253954,2.274262,3.474133,-0.658489,1.912956,-0.940843,2.020038,1.269517,2.793618,2.658062,0.623067,-2.126072,2.201511,-1.313673,0.183917,1.976098,1.202814,1.287696,1.897368,-0.138438,-0.062036,0.842354,3.884361,-0.837554,-0.307179,-1.772164,3.552969,-0.326632,1.035530,1.753009,2.115158,-0.581682,-0.657139,1.257488,-0.239602,1.938931,-0.117361,0.436801,1.536350,0.438172,0.989536,2.446081,2.957021,-1.287183,-1.374058,-1.200598,-1.038500,0.002641,0.964995,-0.406678,-0.769604,-0.926817,0.114327,-0.294899,-0.127944,1.450865,1.783156,-0.443177,-0.475401,-1.771649,-0.607423,2.012815,-0.301438,-0.977535,-0.511984,-0.367339,-0.514661,-0.324996,-1.572354,1.859843,0.237749,1.765118,-0.531162,0.874563,-1.193765,-0.131034,-0.647618,-0.567222,4.578617,2.376137,0.488269,-0.746246,-0.253181,0.180905,-0.113722,-0.376581,0.538177,0.169015,3.322157,2.535375,1.260268,0.027332,-0.215901,-0.698557,1.871656,1.328338,1.837924,-1.010897,1.937203,-0.168023,2.656844,-0.297461,0.244621,0.678877,0.091745,-0.265955,-1.509234,1.677150,1.274063,2.118170,0.319342,1.347308,-0.590263,-0.192530,1.830566,1.695986,-0.053540,1.778388,-0.426951,2.043528,-0.965529,-0.464487,2.488258,1.425602,-0.409845,-0.183942,0.742179,1.937966,2.447703,-0.278927,0.644181,1.853865,-0.430248,-0.335044,-0.335443,0.269364,0.233902,-1.116032,8.393429,0.255409,0.928312,2.811833,1.282633,-0.306761,2.189570,1.319483,-1.049169,-0.253441,-0.360876,3.106137,1.187279,2.252712,2.019372,0.699050,1.683614,-0.669489,2.845404,-0.361477,1.861364,2.615187,2.169467,-0.615056,-0.290800,1.205370,-0.309044,1.607076,-0.561191,1.002057,-0.781790,-0.329719,-1.446748,-0.550152,-0.226432,0.079966,-0.074747,1.183316,1.598564,-0.361072,2.797477,-1.367469,2.256547,-0.365685,-0.849854,-1.408577,-0.724262,-0.657089,1.288909,-0.623788,-0.651277,-1.353562,2.444927,-0.643309,-0.387908,0.994679,0.281246,-0.916190,0.818000,-0.115078,2.143976,2.929382,2.569670,-0.755680,-0.025906,-0.955549,1.353599,-0.242828,0.024956,2.565086,-0.891076,1.237805,0.670748}
    },
    {
      {-0.825080,-0.205238,0.417692,2.012766,0.608161,3.091315,2.787485,0.010438,-0.579459,0.627523,0.021733,-0.143276,1.044714,0.630786,2.595431,2.613879,3.743158,0.250456,4.431499,1.185989,3.469270,-0.169064,3.487884,-0.469295,-0.213194,0.699732,1.939656,4.592823,0.664524,-0.760226,1.871137,-0.307821,-0.367668,0.029096,-0.323405,2.075613,2.570219,1.348378,0.062375,-0.636992,-0.088747,1.958754,0.056571,1.405244,-0.657313,-0.388065,2.970391,-0.014969,-0.540559,0.563337,-0.433976,1.368084,1.610517,2.361070,-0.522109,0.539860,-0.200450,0.137639,-0.306456,1.387328,-1.076075,2.130672,-1.554985,1.710708,1.484371,-0.645916,-0.451479,-0.125023,0.485938,-0.475954,-0.170818,0.215389,-0.066987,2.931409,1.085966,2.292673,2.197821,-1.199046,1.522012,-0.279493,-0.665155,2.818461,0.703143,-0.030996,0.321980,1.573478,-0.691223,-0.135676,-1.563201,-0.577471,-0.385364,-1.236158,0.040091,2.075074,-0.198599,-0.454873,0.960992,0.354409,-0.353879,-1.143374,3.199515,1.385896,0.806463,0.767171,-0.134032,-1.119002,-0.004393,0.193447,2.317304,-0.023272,1.401522,-0.137022,1.194353,-0.369294,2.996643,0.990465,2.190564,0.552320,0.284011,1.556897,-0.955842,-0.320711,-1.193328,-0.469290,0.687117,-0.481900,5.584870,-0.954796,0.595517,2.022773,0.801936,2.757185,0.318379,2.484759,-0.893210,3.253900,3.008551,-0.068066,3.440228,-0.493212,-0.925457,-0.455602,0.028924,0.602520,-1.895111,-1.362283,-0.564343,2.003295,-0.691013,1.727345,0.415122,2.641704,1.497342,3.646129,1.249084,-0.255591,-1.536007,2.288747,-0.177548,0.389080,-0.473634,-1.368876,4.236460,1.621382,1.776236,-0.089065,-0.833198,-0.632123,-0.310822,-0.042762,-1.130444,-0.915196,1.632332,-1.074867,-0.197378,-2.273352,-0.862467,-0.071767,0.261283,0.573332,-1.404292,-1.219947,0.464229,1.484535,-1.073682,-0.797552,-0.225419,0.546777,0.491986,-0.366542,1.310441,1.195002,-0.852510,0.746826,1.850767,0.946596,-0.377247,-0.354897,2.626010,0.245213,-0.653943,2.472323,0.419156,1.421219,0.171597,2.362190,1.915767,2.607862,1.816939,3.998990,-0.554721,2.728618,0.420254,0.164624,0.360387,2.421420,-0.291305,0.895579,-0.452432,-1.005716,-1.166544,-1.350970,-0.673544,0.346441,-0.046791,0.828230,-0.943504,-0.144796,-0.761957,-0.271935,4.131701,-1.089327,-0.561606,-0.633417,1.544733,2.179962,1.835111,5.023798,3.065917,2.572086,2.158417,1.067711,2.704731,-0.384485,-0.959783,0.956242,3.696895,-0.071813,0.701968,-0.520514,-1.226615,1.688002,2.242469,1.624278,0.626776,0.946814,3.379047,3.451077,-0.453364,1.686084,-0.245602,-0.558442,0.562621,-0.303541,-0.412441,2.991580,-0.050275,5.444595,-1.069315,0.607282,-0.367755,1.198420,-0.359527,2.020852,2.344125,2.408763,2.167878,-0.069295,1.664152,-0.145302,-0.052768,2.935400,0.205060,-0.274618,-0.089525,1.520591,1.457310,-0.698696,0.814862,-1.934456,-0.058292,-0.555620,-0.261739,1.104011,-0.993984,0.342055,-0.243609,0.687877,-0.344381,0.207249,0.466885,-0.931611,2.083008,-0.868548,-0.272127,-0.608850,-0.187373,1.476591,3.080938,0.993781,0.897530,0.678263,-0.670001,0.079643,-1.080640,-0.886086,1.383245,0.382647,2.241172,-1.217108,2.480111,-0.266073,2.754815,-0.226206,-1.155738,-0.563553,1.853763,-0.491587,0.949557,0.271682,-0.406053,2.172578,2.582811,-0.191504,-0.565498,0.198681,2.627614,0.052038,1.384171,-0.255991,-0.338096,-0.541205,-1.689210,-1.012839,3.099055,-0.316011,1.215835,1.359330,-0.062660,1.009670,2.036809,-0.992844,-0.688199,1.769284,-0.547387,2.755964,1.080390,0.106752,1.321395,1.622157,-1.685381,3.615963,-0.035618,-1.190041,2.109551,-0.425988,1.797010,-0.275595,1.704263,-0.238997,-0.532604,1.582387,-0.138316,0.077005,0.112288,2.298052,-1.438840,-0.365322,0.141030,-0.528563,-0.146913,-0.995763,-0.129512,-0.270780,-0.068395,1.292892,-0.189248,-0.534673,1.545094,1.498547,-1.632183,-0.354615,0.155510,0.140296,1.494043,-0.192003,2.265408,-0.351872,0.117378,-0.097151,-0.374564,-0.207855,1.249057,3.269402,-0.020432,1.194118,-0.054797,-0.211969,3.465016,-1.051779,-0.072606,-0.806361,-0.711398,0.366614,0.663907,-0.055317,-0.483709,0.116159,0.787505,1.578351,-1.052526,-0.277240,1.381861,-0.306202,-1.024511,-0.662162,1.524421,1.095694,2.828625,-0.210259,-0.840725,-1.375419,0.439485,0.747247,-0.417792,2.265133,-0.597197,4.866358,4.128302,-0.243004,-0.038017,1.461175,1.207310,1.996959,-0.442318,1.165570,-0.198138,2.404778,3.844405,-0.743059,1.245387,1.233920,-0.161327,0.586114,0.614444,-0.176358,0.140773,-1.420567,1.557489,-0.963341,-0.166795,-0.606344,0.019784,2.688320,-0.856729,-0.313623,0.429907,1.199842,2.526285,1.202753,0.680156,-0.431085,-0.038438,0.502650,0.371488,1.400273,-0.717496,-0.587266,5.260003,2.537310,2.141480,1.775457,-0.298373,1.715776,-0.027876,3.556894,-0.376056,1.157118,1.194807,-0.397178,2.633629,-2.248594,0.096091,-0.097378,-0.985761,-0.296858,-0.164319,-0.240781,-1.317991,1.108711,-0.281431,-0.348019,2.046414,-0.427489,-0.551872,3.002748,0.467333,-0.015944,-0.565433,-0.418509,2.881618,-0.034734,3.445146,2.065212,2.321215,-1.283280,3.291618,1.811988,-0.147592,-2.826910,-0.536779,2.729012,3.762623,-0.594161,-0.315767,1.478984,2.207108,-0.685540,-1.059540,-2.056695,-0.534500,-0.076334,3.601672,-0.422994,1.114599,-0.186278,-0.048117,0.278416,1.438042,-0.790772,2.970478,0.174210,-0.353542,-0.435412,2.755453,-0.219232,-0.303446,-0.247348,-0.883507,1.103593,-0.339192,0.385810,-0.667987,3.143501,0.843785,3.066529,2.867451,1.355034,-0.630210,-0.261356,-1.386140,1.669738,-0.607421,0.592977,3.770872,-0.056248,1.056056,-0.091285,0.128559,1.279655,1.820243,0.134072,-0.380228,-0.588129,2.596128,-0.095762,0.111557,-0.975711,-0.236113,0.704121,0.283812,0.511031,-0.296134,1.414872,0.972222,-0.782458,-1.980527,2.364496,2.270382,2.275130,0.889421,1.621514,-0.207271,1.751270,1.091452,-0.910365,-1.360589,1.130500,-0.016377,2.053281,0.509476,3.820106,2.705322,2.345829,1.919894,-0.366991,-2.447189,-0.028865,-1.158802,2.052954,-0.913887,0.463580,-0.108005,2.277134,-1.232328,-0.412153,-0.549487,0.635676,0.695548,2.277165,1.767472,-0.109104,0.462347,2.642277,-0.208140,2.164811,1.185690,-0.387114,-0.134563,-0.293868,2.995195,-0.228823,1.096858,1.875933,0.996488,-0.039041,0.563102,-0.353645,2.250621,2.068125,-0.038909,-0.188774,0.067204,0.437230,1.930746,-0.114186,3.045892,1.578566,2.211583,0.915851,1.608374,-1.447419,-0.153575,1.806276,1.030187,0.773550,0.528309,-0.340496,1.012689,1.436179,-0.515521,-0.443515,2.396664,-0.214593,-0.154258,-0.086151,0.764390,1.080335,3.523373,-0.063584,-0.289911,1.492441,-1.943536,0.806283,2.400481,1.112118,3.753412,-0.475461,1.790886,-0.816075,3.121414,1.407605,2.903445,-0.492391,3.999613,-0.104743,-0.057607,-0.923381,-0.367423,0.948052,0.012280,-0.416112,1.400176,3.043025,4.990891,-0.780385,-1.643712,-0.414674,1.048083,3.875970,2.067786,1.446862,-0.870343,0.204502,0.079065,2.030152,1.875958,4.331857,-0.265890,0.222155,1.270996,2.077108,1.116405,-0.231609,1.918590,0.890201,1.623226,1.831903,1.545298,1.590371,-1.412282,-0.468058,0.300802,2.418065,-0.004416,1.724462,-0.592675,-1.590362,2.283955,-0.850380,-0.192160,0.000386,1.453583,-0.238570,0.890753,-0.213244,3.406979,3.975708,-0.777953,0.636445,3.275115,-0.400476,1.044841,2.612695,-1.164969,0.734440,0.461393,1.436433,-0.577746,1.205366,-0.878733,2.846595,-1.185231,6.761819,-0.862169,3.393575,2.493343,-0.505393,1.854189,0.106921,-0.075021,1.581622,-0.441243,2.350567,1.257711,3.623338,1.046282,-0.717235,1.481045,-0.175643,2.030832,1.764504,-0.940373,-0.648210,-0.461613,2.065819,0.835154,0.765100,-0.190741,1.035081,-0.231972,-0.160226,0.992141,-0.326671,1.659178,-0.434866,1.037937,2.506858,-0.801802,0.664381,2.594028,1.123517,-0.710467,-0.088938,0.028621,-0.895717,-0.740644,0.663628,0.502036,-0.629930,-0.544973,2.746973,-0.285211,-0.718483,2.800847,3.430079,-0.186495,-0.284235,-0.450519,-0.166406,0.966253,-0.269976,-0.806788,1.958593,0.031458,-0.568668,-0.290998,3.277072,2.785614,-0.138651,0.516354,-0.507163,0.906119,-0.750811,-1.059181,3.036469,1.701896,2.780453,2.488422,2.673082,1.759024,-0.262039,0.178097,-0.207126,-0.331189,1.759123,1.827402,2.803041,-0.760797,0.921578,0.965901,0.757193,-0.439667,1.587945,2.810356,1.664148,0.326466,3.456469,-0.463328,0.103863,-0.453728,0.316122,0.109132,1.246317,1.200507,-0.818086,0.777904,0.450584,2.997264,-1.532505,-0.177955,-0.332611,0.187206,2.640590,1.827923,-0.575844,0.161734,-0.418599,0.516291,-1.225167,-0.301284,1.320763,1.896725,-0.337990,-0.143782,2.696379,1.604928,4.600189,-0.317654,0.288466,0.890969,-0.177948,-0.560837,-0.298991,0.924480,2.853490,-0.590459,6.221647,-0.037935,0.757346,1.918011,1.461856,-0.205912,2.906421,0.439445,0.054243,-0.122244,-0.390062,0.922011,1.299726,-2.092164,-0.912723,-0.315622,-0.221880,-0.089281,2.528203,-0.129990,2.383987,0.278857,1.634144,-0.062399,-0.402292,0.888300,-0.309348,2.154350,-1.402081,0.422515,0.223103,-0.225907,-0.749116,-0.393965,-0.141715,1.810453,-0.724498,1.893384,-0.033033,-0.714986,2.572979,0.593624,2.160616,-0.150589,-0.584795,-0.294208,-1.041051,-1.084337,2.315492,-0.527493,-0.324264,-0.684131,0.666577,-0.058711,-0.392753,0.794750,3.565499,-0.060896,0.176741,-0.947401,1.524108,2.309545,2.565401,2.372315,0.092035,-0.084480,0.935682,-0.339924,1.724058,2.208458,-0.402182,2.303707,0.803500}
    },
    {
      {-1.696014,-0.925620,1.369316,0.808449,3.356959,1.694742,0.643001,2.634095,0.805506,2.424557,-1.034586,-0.674661,3.011307,-0.270492,0.714358,0.622175,3.629217,0.506448,1.209593,1.194108,2.504989,-0.368620,1.467059,-0.516815,-0.679249,2.128135,2.142184,1.426174,-0.574639,-1.354026,1.361407,0.919026,-0.188512,0.027992,-0.885201,3.836496,0.636514,1.779323,-1.225361,-0.598984,1.391069,1.145100,-0.567566,2.339177,-0.640421,-0.609980,2.375631,-0.299070,-1.167471,2.490864,-0.858630,1.086405,1.757042,3.170577,-1.367931,0.225888,-0.165551,-0.891354,1.626906,0.891644,-1.699020,1.237841,-1.634643,2.819072,1.670904,2.187631,-0.004699,2.428484,-1.552755,-0.606865,-0.458737,1.720710,2.070294,1.204929,0.706482,-0.395325,1.594122,-1.257375,1.546323,-0.322080,-0.952274,1.802749,3.146664,1.350887,1.665086,-0.867260,0.724212,-0.191401,-1.776407,-0.721465,1.572806,-0.717575,-0.271431,1.850497,-0.450975,-0.477454,3.389877,0.336748,-1.068356,-1.520025,2.856134,2.294885,1.382135,0.602494,-0.568021,-1.801529,-0.526630,-1.443651,0.867889,-0.268046,2.320893,-0.576520,2.253666,-1.356081,2.168374,1.883423,0.662915,1.656455,1.491780,1.395006,-1.052656,-0.422352,-1.554250,-1.622095,0.956799,-1.319393,2.720449,-0.292648,1.973662,0.401390,1.557838,2.166570,1.207422,1.263564,-0.043952,-0.286177,2.455530,-1.525951,3.910017,-0.852577,-2.263394,-0.327973,2.603062,-0.424526,-1.228315,-2.080674,-1.175366,2.126027,-1.783757,1.493841,1.866331,1.294630,1.407852,-0.243535,1.889782,-0.737226,-1.799352,0.909769,-1.365895,2.958424,-0.477562,-1.148914,2.879559,3.137258,3.065057,-1.334763,-1.349978,-0.683233,2.704024,2.304217,-1.424700,-1.623896,1.242396,-1.389576,-0.506124,-1.220007,-0.794932,-0.164869,0.780943,2.075910,-1.677483,1.741046,1.322351,0.922117,-2.397846,0.493383,-1.079072,1.381215,2.100479,-0.096843,2.298656,1.949172,-1.876522,2.237690,2.772987,1.080988,-0.969376,-0.987848,1.106920,-0.146517,0.747867,1.698420,0.062452,2.532013,1.621701,-1.025317,1.728633,2.096319,1.811687,4.471332,-0.438451,2.597128,0.424027,1.494952,-2.102115,3.348031,-0.459139,2.299697,0.053459,-0.981043,-0.212229,-1.013985,-0.908196,-0.108459,-1.709780,1.454921,-0.999353,-0.311074,-1.812914,1.132091,2.075215,-0.911260,-0.712436,-0.352451,1.738375,0.189071,0.663186,2.474437,0.102892,1.899539,-0.165753,1.086006,-0.898304,-2.593049,-1.093833,0.999526,3.086465,0.507544,0.642718,-0.721922,-0.863138,2.731007,2.735103,0.318960,2.175980,1.228619,1.262731,3.872695,4.087789,3.670884,-1.012614,-0.799491,-1.684865,-0.305912,-0.903250,2.944830,-0.241000,1.135159,-1.813003,1.847314,-0.289650,2.562566,-0.963853,0.502523,2.690177,2.266060,2.450955,-0.588643,-0.865388,-1.053412,-0.611632,0.951491,0.328054,1.550497,1.030960,3.500952,2.334641,-2.232240,1.171150,-1.305006,2.604082,-0.384498,-0.104642,1.340507,-1.138016,-0.834367,-0.225311,1.378427,-0.388110,1.721421,-0.784583,-1.033812,1.966325,-2.096053,-1.953278,1.641371,-0.433949,2.602968,0.645684,2.066467,2.767617,1.333875,-0.966726,-0.561296,-0.810731,1.789022,1.802841,0.258437,0.576367,-1.689165,0.192854,-0.341608,2.749251,-0.817641,-1.055643,-0.152220,3.419167,-0.534584,2.068520,-1.355184,-0.531732,3.286990,1.531808,-0.422252,-1.202690,-0.950783,0.159327,0.642530,2.429754,-1.287035,0.888085,-0.681959,-0.819632,-1.503150,2.185916,-0.445655,-1.770624,1.376883,-0.484210,-1.024166,1.869960,-1.339812,-0.589755,2.013139,-0.731716,2.312727,2.710274,-0.529348,1.514129,1.621692,-0.803160,2.215546,-0.371091,-0.981337,3.809315,-0.698769,2.628536,-0.296966,1.588243,-0.603278,1.024718,1.932630,-0.300662,0.418298,-0.362376,1.796059,-0.513435,-0.747467,-0.902982,-0.618618,1.354722,0.243971,2.626737,-0.941635,-0.700518,1.360454,-1.158236,2.324827,1.473298,1.826353,-0.112447,-0.523621,2.259328,-3.342144,2.247913,-0.545736,1.376066,-1.474810,2.924079,1.524480,-0.540487,-0.379225,4.082543,-1.150771,-0.689888,2.238878,-0.348104,-0.399997,1.626400,1.392249,-0.460234,-2.045585,1.326118,2.609314,-1.237487,-0.290115,-0.072791,-0.381072,1.201874,3.306169,-1.286685,-0.330570,0.905208,-0.238613,-1.594249,-1.101781,1.280264,3.489472,2.543205,-0.696329,0.232076,-1.721226,0.455637,3.382169,-0.899228,1.595577,-0.435659,1.825174,1.549169,-0.312087,-0.516454,1.092857,1.675731,0.098011,-1.110622,4.179454,-0.987393,2.452922,3.943409,-0.512266,2.330513,2.907883,-0.767008,2.411513,-0.011040,-0.424815,2.232476,-2.122736,2.280768,1.615212,2.799320,-0.700848,-0.467563,3.058792,-1.477589,-0.308369,1.699805,0.448489,1.867923,3.650920,0.455368,-0.350836,-0.748990,1.562160,2.492947,1.750122,-2.002849,-1.462559,2.450752,1.757371,2.871136,2.439659,-0.299048,1.931618,-0.537438,0.956068,1.612774,2.602771,0.863211,-0.400503,-0.222721,-1.964659,-0.017432,-0.384182,-1.226272,-0.655300,-0.204260,-0.497433,-2.765120,-2.323171,2.197405,-0.473659,2.623437,-0.279405,-1.694211,1.247933,2.472623,-0.282530,-0.664455,-0.771665,2.480318,-0.516847,2.029338,2.800677,-6.363645,-1.802830,2.917161,0.574673,-0.534261,-1.292810,-0.562479,1.300902,2.279281,-0.420290,-0.699855,1.206417,2.136040,-0.739381,-0.850565,-1.119878,-0.724302,1.277644,-0.519468,-1.971877,2.977194,-1.935466,-0.042341,0.334156,0.421087,-1.027929,2.799341,0.980213,-0.410426,-0.410422,2.092496,-1.264185,-0.411323,-1.313076,-1.195474,1.184098,-0.730740,1.013981,-0.502372,1.100703,2.834306,2.160872,1.254685,2.248846,-0.820254,-0.575486,-1.397844,2.373284,-0.507966,-0.329864,2.816317,-0.726659,2.024629,2.794968,0.480840,0.783352,4.238026,1.921541,2.018456,0.823587,3.661619,0.710039,2.248879,-0.643362,-0.578800,0.500862,-0.954562,2.073631,2.476159,-2.019044,1.711127,-1.060142,-1.796895,1.250860,1.797708,0.874250,0.930329,0.483977,-0.823163,1.293125,2.825780,-1.437098,1.788922,3.421047,-1.157880,0.882293,1.605392,0.959272,-0.650218,2.829917,2.254251,-0.380258,0.158581,-1.479971,-1.478914,3.365927,-0.333266,-0.548780,-1.284209,0.817028,0.063713,-0.500446,-0.569675,2.117713,-0.063987,2.645532,0.694974,-1.125798,0.748818,0.952530,-0.503562,2.563829,2.068886,-0.351588,-0.468613,-0.140164,1.734714,-0.094741,3.904714,1.356350,3.105985,0.186041,2.453882,-0.778124,1.168279,3.151304,-0.501325,-0.625595,1.233394,1.686219,0.452734,0.893682,2.086124,1.116466,2.508541,0.365669,0.734005,-1.640063,-0.576925,2.142531,1.631029,2.951084,1.243706,-0.526992,2.845388,2.360879,-1.502753,0.526293,2.988235,-0.390680,-1.129040,-1.971226,2.341046,2.293451,4.033169,-0.719110,-0.485475,2.057925,-1.803959,-0.093240,1.737534,0.760418,2.001979,-0.384056,2.352801,0.258814,2.735994,2.067424,-1.537938,-1.022428,2.564659,-0.210123,-0.269667,-2.219717,-1.235290,2.022456,-1.236911,-0.950522,2.247586,1.918978,1.152449,-0.000978,0.344090,-2.558987,0.210061,3.213737,2.508268,1.265637,-0.968040,-0.794414,2.920262,4.123629,0.919087,1.576313,-0.626711,-0.070904,1.377465,3.006495,-0.854823,-0.157471,3.529451,2.761636,1.199399,1.328737,2.214809,2.119080,0.178358,-0.177458,-0.346813,-0.146319,-0.400256,0.975011,-0.528121,-0.951431,2.660019,1.984368,-0.761662,-1.947392,2.210623,-0.356216,3.147497,-0.850330,0.454393,1.466173,-0.882154,2.696486,3.643674,-1.710277,1.914315,-0.145961,-0.177169,0.009587,1.891585,1.865923,-1.546218,1.525158,1.072211,-0.384744,-0.607857,2.304063,-1.111892,0.567815,1.631582,1.451924,3.161057,1.917754,-1.385134,2.702332,-0.781011,1.310055,2.678870,2.786175,2.972044,1.936449,0.122021,-0.203259,2.139958,1.775983,-0.905335,-0.440938,-0.432981,1.005498,0.827300,3.485914,1.849220,2.263929,-0.400393,-1.197951,1.750798,-0.515651,0.410142,-0.407492,1.435519,3.203841,-1.268384,0.687328,2.746147,2.378467,-1.324325,-1.493209,-2.024188,-1.366303,-1.417158,2.498556,1.118724,-0.450044,-0.840733,2.321342,-0.333881,-0.667230,0.888468,-0.190400,-0.372208,-0.356339,-1.236931,-0.569742,2.119223,-0.472841,-0.857894,2.023100,1.524978,-0.232511,-0.921756,1.528869,2.218735,1.512646,-0.333057,-0.479695,-1.490528,-0.865067,-1.235039,2.327927,1.124151,3.904211,1.180938,2.641080,1.900910,-0.240906,0.923605,-0.547928,-0.595575,0.925539,2.494762,2.276511,1.184586,3.532437,2.153443,1.580787,-0.620887,1.285860,1.881850,2.215143,-1.994697,-0.507056,-0.344603,0.138241,-0.494957,0.843837,2.680214,-0.134370,1.701181,-0.672063,0.095723,-0.232848,2.801560,-0.819545,1.196200,-0.279687,-0.641662,0.409327,2.442283,-0.589245,0.275899,-0.524978,3.166907,-0.578176,-0.474748,1.168010,2.623147,-0.362869,-0.820331,2.058233,3.059255,2.604810,-0.516965,4.259791,0.555008,-0.381874,-0.326169,-0.655330,2.148225,0.653682,-1.246619,5.798981,-0.882689,0.793676,2.542418,2.067559,-0.586684,0.604569,2.050479,-1.546974,-0.572949,-0.314945,1.064881,1.398484,0.324013,2.180498,1.363919,2.398157,-0.358452,1.288639,-0.466042,1.153692,1.963673,1.078111,-0.499404,-0.471648,1.304247,-0.248228,-0.821126,-0.493240,1.096042,-0.660336,-0.228475,-0.023250,-0.834103,-0.210959,2.322287,1.633720,1.920206,0.991853,0.032446,1.937941,-0.908318,3.500522,-0.234745,-0.750418,-1.850280,2.431011,-2.446122,1.669142,-1.433080,-0.561450,-2.229293,1.225020,0.161655,-0.545072,1.270520,2.045528,-0.686455,1.441474,0.040826,-0.604755,1.456474,1.510481,-0.932653,1.101880,-0.321158,1.533818,-0.307313,1.258626,0.967212,-1.021590,1.344383,1.375077}
    }
  }
};
