#pragma once

#include "C:\Users\Baron\Desktop\EE_297_Repo\EE_297\hardware_imp\vitis_hls\lane_seg_hls\lane_seg_top.h"

// Auto-generated with BN folded

data_t enc13_ir12_dw_w[3][3][1][576] = {
  {
    {
      {-0.356859,1.220337,-0.006828,0.018171,0.013677,-0.557713,0.434110,-0.592731,-0.531656,0.079947,-0.438996,0.191379,0.810333,-0.477066,-0.704250,1.689980,0.322296,-0.182842,-0.090775,0.123808,-0.149685,-0.177093,-2.604962,-0.719882,0.155799,-0.028162,-0.039999,-0.535951,-0.099819,-0.463532,-0.275194,-1.859420,-0.801133,-0.306900,-0.420911,-0.157609,-0.231561,-0.148264,-0.029587,-0.218816,-0.348162,-0.647383,-0.048122,0.437365,-1.085450,1.897678,0.257663,0.536293,1.690381,-0.898778,0.515152,0.493906,0.750573,-0.426807,1.078334,0.847649,0.080329,0.349316,-0.151251,0.263151,-0.360583,-0.301861,1.529045,0.803824,0.297644,0.028998,0.825761,0.814654,-0.165260,1.581909,0.124332,0.177768,-0.259459,0.222481,-0.248875,-0.497732,-0.189012,-0.552186,-0.258738,-1.210228,0.621379,-0.133384,0.075061,0.132879,-0.539659,-0.177541,-0.443264,-0.140167,-0.648473,0.488723,-0.096232,-0.547848,0.585933,0.166540,-0.594686,3.021337,0.449660,0.090359,-0.656292,-0.178165,-0.254524,0.450902,0.547343,-0.270932,-0.566942,-0.264062,-0.760060,-0.148994,-0.105099,0.211892,-0.570118,-0.235313,0.815586,-0.228793,0.391249,0.233188,-0.383067,-0.369918,-0.231331,0.872467,0.060412,0.076736,-0.108705,-0.581033,-0.003377,-1.242661,1.184998,-0.412930,-0.677571,-0.377901,-0.793508,-0.546555,-0.037527,1.416942,0.469523,0.526500,0.173570,1.090241,-0.249486,-0.142484,-0.290627,0.658371,-0.907092,0.246806,0.087756,2.277552,-0.877584,-0.060784,-0.463825,0.862840,-0.294848,-0.478284,0.406696,-0.280948,1.480735,-0.116464,-0.270772,1.031763,0.249969,0.009375,-0.495306,-0.191587,0.286491,0.196022,1.142629,-0.347716,0.341455,0.207937,-0.309633,-0.714884,0.358835,-0.554960,-0.295778,0.043315,-0.318586,-0.841444,-0.504979,-0.397827,-0.162175,0.070184,-0.338669,-0.052988,0.294114,-0.266954,-0.167087,0.217812,-0.684366,0.516007,0.794651,-0.020141,-0.273930,0.216681,-0.705414,-0.485518,-0.471360,0.669636,0.195939,-0.393370,-0.004762,-0.318512,0.057197,-0.487725,-0.234045,0.130799,-0.510337,-0.385584,0.373437,-0.111796,0.589402,-0.852323,-1.014930,-0.569563,-0.202838,-0.432362,0.211883,-0.420173,-0.215738,0.917532,0.598929,-0.388768,-0.198451,-0.038077,-0.346098,0.849180,-0.298985,2.427810,0.241252,-0.653165,1.525858,0.069798,-0.296557,-0.207881,-0.846998,-0.238034,-0.374066,-0.273545,-1.262184,-0.501715,0.668320,0.013131,0.242945,-0.229702,-0.177562,-0.550761,0.250623,1.251485,-0.641166,0.308585,0.140266,-0.454810,0.135309,1.471802,1.358941,-0.927588,-0.085915,0.696147,0.026118,0.055090,0.227138,-3.666881,-0.127760,1.851802,-0.208858,-0.350506,-0.846366,-0.068875,-0.240807,-0.398023,-0.159738,-0.729885,-0.467030,-0.099726,0.717655,0.495263,-0.115728,-0.034629,0.906216,0.524984,-0.193087,0.969092,0.015167,0.009597,0.070832,-0.686808,-0.321061,-0.284617,-0.417139,-0.294299,0.000228,-0.074343,-0.332699,-0.184492,0.178416,-0.320242,0.526758,-0.531876,-0.514687,0.477433,-0.178044,0.156600,-0.032854,0.265529,-0.587215,-0.591789,0.105137,0.172085,0.411861,-0.306883,-0.507329,-0.316234,-0.300688,0.851616,0.323267,0.152907,-0.560940,-0.444460,-0.553857,1.794729,0.673912,0.400560,-0.417831,-0.154803,-0.190351,0.622384,0.480024,-0.852933,-0.745273,-0.142684,-0.278200,0.166785,0.374911,0.118696,-0.161960,-0.468904,-0.106902,-0.252823,0.654084,-0.620765,1.813497,-0.029287,0.563006,-0.371419,0.131078,-0.329424,-0.282353,0.426936,0.564156,0.731709,0.019639,-0.225092,0.052803,0.571611,-0.002683,1.502386,-0.496654,0.442638,0.024283,0.982030,-0.166937,0.162186,0.443027,0.411206,1.099782,0.025832,0.061025,-0.478562,-0.234011,0.625637,0.032880,1.124975,0.635668,-0.053389,-0.616508,0.323970,0.417253,-0.267292,0.064862,0.038152,0.545223,0.690639,-0.931886,-0.038384,0.072802,1.121170,-0.296307,-0.566696,-0.178393,-0.984234,0.612865,-0.448930,-0.719168,1.026144,-0.206989,-0.156151,0.405416,-0.391852,-0.076370,0.787088,0.618662,-0.001878,-0.849263,0.197656,-0.080948,-0.917413,-0.208555,-0.278217,0.156311,0.227302,0.698623,0.954984,1.046619,-0.168677,-0.423468,0.568994,-0.259698,-0.512192,0.148841,-0.118180,-0.477863,0.260392,-0.346418,0.692453,1.203059,-0.384094,0.753023,0.454458,-0.411627,-0.893497,-0.109749,0.426282,-0.677905,-0.429480,0.453403,-0.759657,0.510305,-0.595194,0.667566,0.614185,-0.016832,0.547635,-0.276531,2.180327,-0.105633,0.900239,0.162181,-0.675185,-0.747971,-0.641448,0.504490,-0.419046,0.929193,0.109976,0.225552,-0.504164,-0.485964,1.224964,-0.359939,-0.781885,0.481426,0.645495,-0.151470,-0.244893,-0.515655,1.248681,0.563389,-0.184791,0.335140,0.107604,-0.350180,0.163864,-0.386506,-0.103800,-0.497096,-0.303328,0.263700,-0.457245,0.041600,-0.644214,2.401111,-1.620222,0.033965,0.013606,-0.864501,-0.166365,-0.284595,-0.942398,-0.208881,0.459171,0.244408,-0.181672,-0.681750,-0.520663,-0.806259,-1.196899,-0.650289,0.101325,-0.978745,1.006381,-0.409563,0.633271,-0.502901,-0.324182,0.565288,-0.063134,-0.263206,0.777677,-0.398197,0.882838,-0.326349,-0.356213,1.429081,0.623513,0.776173,-0.477339,0.349440,0.721680,0.497782,0.827200,-0.145651,0.934732,-0.577923,0.522872,-0.284135,0.497250,-0.423617,0.503462,-0.252964,-0.101501,0.308365,0.415333,0.064375,-0.211878,-0.144654,0.814059,-0.028769,0.581823,-0.356017,0.426987,1.215852,-0.396564,-0.535579,0.197248,-0.289888,0.525362,0.013366,-0.072259,-0.423810,-0.311812,-0.405933,-0.024384,-0.691262,1.070845,0.088841,0.236766,0.387425,-0.100165,-0.096085,-0.519774,0.049198,-1.039289,0.155264,-0.230274,-0.340341,-0.626922,0.331865,0.497330,0.094103,-0.247003,0.308819,1.281571,-0.575159,0.347327,-0.699410,-0.259720,0.152756,0.043437}
    },
    {
      {-0.575984,1.127401,0.223181,-0.458588,0.469175,-0.521694,2.875105,-0.281089,-0.229875,-1.241274,-0.038649,-0.082271,0.153143,0.850832,-0.848123,1.552423,1.506365,0.862923,-0.499995,0.768894,0.490127,-0.400341,1.759337,-0.410686,0.390407,0.060347,-0.405684,-1.432840,-0.422468,0.270871,-0.656219,-2.602993,-0.479811,-0.367644,-0.765839,-0.052890,-0.113823,-1.145844,0.057611,0.313757,-0.780689,-0.114843,0.525174,0.930782,-1.218310,0.944375,0.661738,0.341720,1.460969,0.177203,-0.524043,1.473501,1.088659,-0.538235,0.918880,-0.154658,-0.077004,0.366787,-0.145619,0.589669,-0.935718,1.666588,0.925077,2.598116,0.920419,0.074050,1.168176,-0.815670,-0.542799,0.058522,-0.053181,0.675498,-0.559507,0.740381,-0.329938,2.687925,-0.430303,-0.025862,-1.031800,-1.327804,0.794424,-0.674075,0.427773,0.709663,-0.225835,-0.101759,-0.443018,-0.258373,-0.236083,1.017804,0.230803,-0.760215,1.340212,0.682688,0.349779,-1.636446,-0.056868,-0.027161,-1.069087,-0.270550,-0.768939,0.749245,1.056829,-0.316128,-0.187174,-0.873397,-0.486366,-0.211924,1.103779,-0.331944,-0.776361,-0.276865,1.856226,0.223663,2.041623,0.419840,-0.615847,-0.383851,0.150695,1.772189,-0.842150,0.559912,-0.118253,-0.073271,-0.018874,-1.209014,0.575784,0.048494,-0.664657,-0.668178,0.147644,-0.129844,0.067854,-0.628279,2.229379,2.144986,-0.112848,1.986663,0.735413,-0.464421,-0.046954,0.787669,-0.557104,0.264326,2.275538,4.482119,-0.680861,0.476951,-0.163285,0.705574,-0.297844,-0.964572,-0.139023,-0.341072,2.039345,-0.326387,-0.345726,1.332522,0.998229,0.641666,-0.643533,-0.000833,1.059418,0.367499,0.138428,-0.997731,2.369340,0.261751,-0.653638,-0.163197,1.430382,-0.581354,-0.137219,0.885124,-0.108177,1.223916,-0.811216,-0.128388,-0.434594,-1.261971,-1.104177,0.587140,-0.093905,-0.180528,-0.502301,0.285083,-1.186455,-0.631963,-0.823769,-0.487163,-0.145053,1.698082,-1.742400,1.320015,-0.240236,1.659001,0.648452,0.257353,0.118399,0.490292,1.220140,0.503416,-0.283210,-0.104164,0.924654,-0.226065,0.824780,-0.158583,0.439984,-0.209580,0.417793,-0.270309,-0.191997,-0.699445,0.532478,-0.267402,-0.607691,2.032485,-0.001614,-0.614157,-0.309880,-0.324886,-0.353128,0.862797,-0.459757,4.336800,0.581994,-0.040766,2.568432,0.193977,-0.961925,-0.826530,1.303040,-0.345240,0.088357,-0.408773,-1.348823,-0.121481,0.081641,0.102794,0.524036,-0.973455,-0.070516,-0.152389,0.039942,1.737622,-0.738175,0.090635,1.332462,-0.381967,0.746991,-0.295726,1.359113,-0.019804,-0.859703,1.780681,0.457782,2.497521,0.599517,1.008744,-0.211505,1.717644,0.259670,-0.274541,-0.345496,-0.384641,0.009204,-0.437052,-0.446886,-0.536235,-0.567305,0.836078,0.234457,0.107869,-0.201605,0.103562,1.271879,0.052878,2.676144,-0.429611,-0.003234,-0.005192,0.193851,-0.413720,-0.596170,-0.279685,-0.775591,-0.707682,0.363769,-0.111470,-0.306690,-0.292187,0.120050,-0.380791,-0.406420,-0.150656,0.512355,1.419400,-0.475258,0.086598,0.144593,1.620501,0.040558,-0.002808,1.089340,-0.773134,-0.004407,-0.617425,-0.489619,-0.624005,-0.419320,-0.084009,-0.564107,2.008595,-0.178858,-0.784151,-0.403566,2.796009,0.111273,0.168269,0.191326,-0.783295,0.189660,1.279045,2.285686,-1.007192,-0.320158,-0.243720,-0.120522,0.114020,0.442836,-0.039673,-0.364839,-1.387927,-0.604309,-0.762762,1.119463,-0.290411,1.015948,0.940066,-0.059686,1.485667,0.382524,-0.355518,-0.170737,2.172894,-0.527037,0.627497,-0.452294,-0.513699,-0.709761,1.403721,0.891279,-0.814195,-1.002476,0.294333,0.155710,0.256149,-0.268834,-0.041557,4.265720,1.416136,3.052630,0.386602,0.116429,-0.676760,-0.439768,1.340308,0.800429,-1.301946,1.645892,2.213310,-0.437233,-0.086462,0.958846,-0.628585,0.286697,-1.689421,1.187229,1.284335,0.943205,-0.017849,-0.440318,2.384585,-0.375149,-0.175732,-0.351014,-0.820476,-1.936551,-0.930923,0.073448,1.968812,-0.593301,-0.689105,1.645052,-0.216482,-0.498498,1.439093,-0.675851,0.374461,-0.042765,1.942467,-0.116356,0.372507,-0.281298,1.014938,-0.205599,0.662105,0.261305,2.269667,1.524551,-0.403402,-0.231980,1.931026,-0.265633,1.407689,-0.066492,0.737277,-0.108328,-0.250786,-0.720927,1.176737,1.350010,-0.660479,-0.394671,0.978791,0.907708,-1.178255,-0.884203,0.876886,-0.326516,-0.679341,1.190765,-0.488451,-0.377355,-0.742936,0.195577,1.519236,-1.757789,0.109235,0.060039,3.960572,0.165540,2.009225,0.460813,-0.384803,0.087666,-0.402558,0.339988,-0.526242,1.148979,0.531132,0.052931,-0.320552,0.615076,1.381554,-0.018829,-0.701151,1.243776,-0.322855,-0.034529,1.671055,-0.119620,3.081140,0.148448,-0.556255,-1.294909,0.923693,-0.619551,0.687869,-0.776709,0.694243,-0.460091,-0.589530,-0.149397,2.273363,0.406736,0.082605,-0.158080,-0.820848,0.003429,-0.384297,-0.932490,-1.747667,-0.124446,0.177698,-0.184679,-0.148297,-0.149956,0.340801,0.522179,-0.145681,-0.239704,-0.581791,0.006036,0.735191,-1.542692,0.339508,-0.432427,2.469457,0.606204,-0.292138,1.196058,-1.050371,-1.379912,0.611189,0.087564,0.271635,0.685044,0.840218,4.282532,0.380349,1.252821,-0.551571,0.394156,1.339441,-0.098923,1.966734,0.037060,0.399017,-0.134182,-0.224615,0.111210,0.007029,-0.360243,0.033077,-0.295859,0.641327,0.074753,1.127999,0.229789,-0.559478,-0.259764,1.885290,-0.021848,-0.421797,-0.383353,2.608763,-0.274853,-0.794575,0.161201,0.002095,-0.822795,0.811186,0.027660,-0.249914,-0.044369,-0.690272,-0.336555,0.705113,-1.255222,-0.175250,-0.741520,1.381507,0.629277,-0.931581,-0.038356,-0.698040,-0.325056,-1.012575,3.861461,-0.305433,-0.836702,-0.766241,-0.085487,0.822029,2.496462,-0.185818,1.437768,1.768736,0.069427,0.535074,-0.168567,-0.548168,0.005084,0.024007}
    },
    {
      {-0.556718,1.314424,-0.069684,-0.285129,-0.031456,-0.687689,0.782135,-0.565828,-0.117437,3.085465,-0.642208,-0.805323,-0.544779,-1.123734,-0.175886,1.491454,0.792407,-0.009125,-0.214710,0.279225,0.945953,-0.359700,0.525620,-0.670411,0.086265,0.006194,-0.220522,-0.768767,0.808327,0.537600,-0.450534,-2.482710,-0.929808,-0.707439,-0.123463,-0.402381,-1.220379,-1.194749,0.079144,0.576520,0.479471,-0.722620,-0.219987,0.330556,-1.269727,-0.526105,0.371857,0.244717,1.919483,0.684781,0.528262,0.083059,0.634799,-0.565736,1.434986,0.801313,0.408122,0.200033,-0.178098,0.059716,-0.370245,0.034904,2.315871,2.583814,0.526962,0.528451,0.936831,0.693315,-0.499730,-1.350977,-0.024433,0.498975,0.306436,-0.626965,-0.521715,-0.964942,-0.193718,0.809134,-0.137476,0.791991,-1.169268,-0.253968,0.287556,-0.087031,-0.566406,-0.218973,-0.161696,0.146459,-0.475126,0.469155,0.031192,-0.615025,0.822152,0.278939,-0.996069,-1.087848,0.192973,0.036736,-0.656612,-0.227628,-0.285571,0.498247,0.671950,-0.343450,0.614267,-0.563160,-0.323938,-0.268427,-0.023817,0.766749,-0.295076,-0.163291,0.179611,-0.136820,0.385123,-0.546577,-0.258943,-0.395649,-0.080596,1.162358,0.303866,0.020270,-0.118643,-0.366282,0.045582,0.366305,1.334824,-0.507425,-0.707457,-0.305015,-0.399888,-0.623235,0.001333,-0.006953,0.532939,0.580467,-0.167612,0.938600,0.161769,0.308830,-0.359692,0.742107,-0.446694,-0.145222,-0.084891,-0.121927,-0.857116,-0.415515,0.690575,0.782528,-0.429570,0.571854,-0.479740,-0.389911,0.551274,-0.212929,-0.231515,1.631226,0.247591,0.300321,-0.748610,-0.128701,0.263857,0.096296,0.028452,-0.384119,1.293361,0.265473,0.412104,-0.824763,0.528654,-0.366859,-0.413825,0.697167,-0.121927,-0.730959,-0.590519,-0.372541,-0.473154,0.331827,-0.250255,-0.521290,-0.554881,-0.333403,-0.308939,0.072204,-0.093662,-0.798497,-0.158982,-0.120488,-0.350153,0.231892,-0.720078,-0.161512,-0.333541,1.089132,0.188662,0.035009,-0.302593,-0.144946,0.012652,0.096222,-0.233318,0.054794,-0.475130,0.253227,-0.187682,-0.187826,0.828259,0.701087,0.144324,-0.167926,-0.404617,-0.524953,0.018042,-0.274274,-0.146394,1.444700,-0.971089,-0.275598,-0.143868,-0.158386,-0.343655,0.835478,-0.302645,2.851792,0.437555,-0.406885,0.931883,-0.107704,-0.379202,-0.281819,-0.800867,-0.151096,-0.385934,-0.237611,0.334620,0.996373,0.443927,-0.529022,0.387795,0.072881,-0.206866,-0.556469,0.202891,1.027494,-0.303560,-0.551716,0.195153,-0.995667,0.996674,-1.080489,1.522976,1.182605,-0.385649,0.266840,0.337284,1.582972,0.203879,1.732168,-0.390995,2.337213,0.274799,-0.047312,-0.768110,-0.168323,-0.236331,-0.493534,0.023510,-0.741820,-0.401273,0.382396,-0.813118,-0.545516,-0.174921,-0.220114,0.686507,0.126735,0.064947,-0.587032,-0.018054,-0.002004,0.067291,-0.382398,-0.416554,-0.351996,-0.449542,-0.220649,0.336648,0.021967,-0.268180,-0.234566,0.630156,-0.292205,-0.250034,-1.556877,-0.341349,0.631623,-0.240796,-0.943301,-0.285538,0.385188,-0.516349,-0.608498,0.046061,0.584465,-0.356150,-0.261701,0.889947,-0.633588,-0.211841,0.317086,-0.065740,0.829884,-0.262414,-0.408512,-0.611369,1.458380,0.579080,0.229467,0.628466,-0.662728,-0.361291,1.743730,0.235730,-0.567226,-0.605332,-0.091014,-0.413331,0.149967,0.313173,0.191022,-0.809078,-0.675140,-0.262266,-0.252498,0.554858,-0.547218,-0.366999,0.117989,0.449746,-0.255866,-0.194484,-0.084192,-0.371247,0.562729,-0.120792,0.878153,-0.440644,-0.263306,-0.412055,0.467564,0.104141,1.686187,-0.427220,0.447851,0.203828,1.280664,-0.197786,0.007871,1.173869,0.180396,0.733686,0.080072,0.004934,-0.484687,-0.256167,1.082504,1.126583,1.738427,0.521128,0.251272,0.500355,-0.441711,0.631125,-0.253392,-0.064641,0.340770,0.339809,0.823239,0.496922,0.473369,0.235051,0.568026,-0.566571,-0.022766,-0.151038,-0.037792,-0.263317,-0.620722,0.735334,1.113584,-0.496999,-0.242834,0.379202,-0.159952,-0.258869,0.800776,0.454544,0.282999,-0.934935,0.282183,-0.102647,0.042762,0.169010,-0.295290,-0.882546,0.252265,-0.432054,1.144004,0.996031,-0.141912,0.436895,1.318089,-0.431765,-0.238359,0.371955,0.680338,-0.399489,0.365585,-0.539765,0.863170,1.238335,-0.500977,0.681792,0.575311,0.119072,-0.764563,-0.291225,0.122953,-0.540011,-0.048854,0.553302,-0.700150,0.525135,-0.635147,0.681837,0.682702,0.371304,-0.399658,-0.376954,0.757898,0.084400,0.889909,0.080457,0.939865,-0.229018,0.061460,-1.283582,-0.601962,0.374210,0.200925,0.201832,-0.097902,-0.374636,1.106443,-0.345528,-0.883962,0.387149,-0.508667,-0.507091,0.020208,1.606322,0.300287,0.464950,-0.310792,0.506772,-0.154218,-0.598694,0.101073,0.846154,-0.118123,-0.541062,-0.322164,0.217579,-0.416633,0.015613,-0.981194,-1.177699,0.449629,0.179845,-0.382999,-0.731566,-0.400964,-0.289205,0.285009,0.469276,0.154743,1.385309,0.018144,-1.123559,-0.822714,-0.877527,0.676167,-0.708958,0.192451,-1.367506,1.092248,-0.745179,0.610440,2.355394,-0.353020,0.816351,-0.677031,-0.419846,0.609839,0.492325,-0.705750,-0.173876,-0.033389,0.925477,-1.286692,1.029735,-0.683544,0.392690,1.301259,0.351476,0.425966,-0.203276,0.374899,-0.708558,0.515564,-0.193617,0.026250,2.001102,1.305206,-0.356541,0.017130,1.764340,0.825452,0.153892,1.096789,-0.535004,0.840246,-0.034240,-0.793056,-0.366990,0.749946,0.105727,-0.407621,-0.105398,-0.087337,-0.240428,0.397046,0.006676,-0.236609,-0.554169,-0.188487,-0.543429,-0.044550,-0.667110,0.303122,0.141751,0.396363,0.512035,0.033031,-0.093724,-0.866123,0.407621,-1.188202,1.002071,-0.344707,-0.053534,-0.179661,-0.219345,0.632247,0.258166,-0.059111,0.749709,1.078864,-0.568773,0.129353,-0.644082,-0.668977,-0.228891,0.357745}
    }
  },
  {
    {
      {-1.045499,0.485441,0.309154,-0.416539,0.413167,-0.334823,-1.057031,-0.433041,-0.370700,-0.452218,-0.483899,0.456673,1.523287,0.822974,-0.292384,-0.037026,-0.530455,-0.226463,-0.248902,0.399330,0.574052,0.025706,-2.735691,-0.671341,1.037526,-0.019813,-0.494993,0.328195,-0.475352,-0.535294,-0.377493,0.591948,1.187881,-0.292848,-0.364555,-0.394453,-0.697901,-0.809804,0.399037,-1.094402,-0.654868,-0.080258,-0.830752,0.347829,-0.563361,2.429847,-0.325170,0.151913,1.285304,-0.945056,0.303085,0.573684,0.459655,-0.304715,0.707114,0.512414,0.868927,0.620680,-0.181004,0.766974,-0.353483,0.637141,0.893635,1.731586,0.536146,0.264973,-0.009689,1.413815,-0.386713,0.981501,0.266452,0.940137,1.170024,1.433408,-0.841141,0.718427,-0.433061,-1.405852,0.550300,-3.774527,1.665899,-0.488212,0.353536,1.493199,-0.091033,-0.308264,-0.678775,0.321057,-0.512141,1.085928,0.660119,-0.121568,0.673597,0.199565,-0.094871,-0.381126,1.045188,0.686030,-0.593083,-0.615627,-0.596512,-0.061886,0.725705,-0.383233,-0.950694,-0.942798,-0.828619,-0.264033,0.161656,-0.362871,0.331337,-0.376189,0.568705,0.242529,-0.748510,0.404554,-0.176949,-0.334467,0.983187,0.062639,1.648138,0.287052,-0.022023,-0.381841,0.109104,1.833519,0.956899,-0.052283,-0.898959,-0.547608,1.656492,-0.189185,0.013357,0.075900,-0.038449,1.657663,-0.359784,0.103671,0.429295,-0.776958,-0.754885,0.182227,0.536592,0.037787,0.439831,-1.239900,-0.672746,1.285407,-1.699816,1.018252,-0.498522,-0.689206,0.745150,-0.347192,0.886210,-0.063407,-0.759585,1.334697,-1.363249,0.431365,-0.814438,-0.615787,0.217677,0.288140,1.886667,-0.102726,0.848403,-0.100600,-0.810311,-0.016854,-0.033605,-0.407437,-0.414644,-0.373178,-0.189509,-1.293850,-0.140694,-0.280136,-0.617257,1.820115,-0.160156,0.745642,0.722192,-0.389085,-0.470110,0.068858,2.996548,1.711332,2.782022,-0.302533,-0.274536,-0.409922,-1.231447,-0.075865,-0.308775,0.417977,0.233093,-1.022290,0.267592,0.373907,0.639533,0.991806,-0.320351,-0.109846,0.196216,-1.219273,0.392380,-0.175949,0.055665,-1.009594,1.936676,-0.364478,-0.322662,0.011611,0.149648,-0.569692,-0.036726,0.617592,1.407566,-0.237047,-0.446943,-0.088180,-0.109940,0.078398,-0.107731,2.319618,0.396695,-0.351989,0.279436,0.228575,-0.318334,-0.126868,1.352064,-0.535795,-1.164925,-0.375621,-1.780438,-0.759622,0.444602,0.322796,0.220005,-0.233986,-0.123504,-0.113470,0.429917,0.408497,-0.568579,1.587310,0.270471,-0.426161,1.347230,1.271981,0.772249,-1.068048,-0.336047,1.422842,0.148963,2.291205,0.558306,-3.075204,-0.667459,0.809008,-0.529818,-0.437239,0.126634,-0.461506,-0.886280,-0.408145,-0.366149,-0.209589,-0.734773,-0.095010,-0.401446,0.962748,-0.426425,0.368437,0.939195,0.139291,-0.740815,1.637718,0.042940,0.021193,0.213118,-0.635080,-0.553446,-0.251646,-0.352527,0.008479,0.376809,-1.080523,-0.310817,-0.355894,-0.073435,-0.435998,1.703221,1.986359,-0.800709,0.419865,-0.650414,1.053944,0.002302,-1.288824,-0.324169,-0.123911,0.392937,0.911237,0.512940,-0.956500,-1.364052,-0.610837,-0.303185,0.301744,0.619138,0.187278,-0.384636,0.869752,-0.779784,1.593954,0.232517,0.747861,-0.882679,-0.702194,-0.378824,-0.832053,-1.159401,-1.295263,-0.622572,-0.190419,-0.292160,0.245698,-0.691232,0.122582,0.104079,0.435924,-0.168463,-0.352516,0.425910,-0.778839,0.774512,0.216932,0.748450,-1.282786,1.645462,-0.192820,-0.188759,-0.531993,1.533182,0.838207,-0.558572,-0.273879,-0.791263,-0.373771,-0.102711,2.539715,0.098560,0.133964,0.645535,-0.123344,-0.395966,0.382405,-1.660538,0.374581,-0.309815,0.279760,0.158413,-0.455384,-0.322219,0.209335,0.012331,0.912711,-0.187664,0.502666,-1.025922,1.350997,0.562121,-0.307259,0.468039,0.338250,0.205794,0.476231,-1.363807,0.143533,0.577044,-0.857122,-0.511924,-0.695210,-0.214740,1.352201,1.531247,0.094219,-0.718273,0.216221,-0.278249,-0.460461,0.740628,-0.370237,-0.689924,0.116473,0.274968,-0.132071,-0.621623,-0.687659,-1.267853,1.171713,-1.092574,-1.222827,0.678617,-0.319779,1.393013,-0.769353,-0.295609,-0.507540,-1.172871,-0.403391,-0.398572,0.636676,-0.038842,0.070094,-0.687989,0.576024,-0.510897,0.734996,1.288991,-0.227914,0.293755,0.457423,0.562631,0.105554,0.030218,0.447862,-0.179352,0.098205,0.140414,-0.552357,0.786055,-0.299861,0.408600,-0.740226,0.628029,1.021773,-0.754532,2.188727,0.729524,-1.037042,0.555438,-0.667913,-0.988208,-0.372281,0.890813,-0.706639,1.317108,-0.026930,0.254657,-0.778746,0.621214,1.048773,-0.105117,-0.406385,0.189977,1.736775,-0.906334,-0.667754,-0.898103,-0.388347,0.177437,-0.848152,1.653463,1.205008,0.740075,-0.106093,-0.791654,-0.331764,-0.308405,-0.131233,-0.462549,-0.169365,0.445183,-0.381609,2.430021,-2.377712,-0.424034,-0.641016,-0.356063,-0.192036,-0.380220,-1.368036,-0.500604,1.686252,-0.545560,0.219024,0.208771,-0.357290,-0.036447,0.151490,-0.002153,0.128194,-0.238736,0.639601,-0.434704,-0.174426,-0.636647,-0.175986,0.863480,-1.266668,-0.679913,0.885359,-0.599800,0.271224,0.585311,0.550463,0.855675,1.302595,0.599974,-0.258112,0.047831,-0.978846,0.201782,0.038098,-0.307324,0.855729,-0.703550,0.004417,-0.381046,0.756879,-0.438192,-0.127131,-0.193332,0.294324,1.126487,0.395883,0.314508,-0.310398,-0.279272,1.270191,0.074425,1.542421,-0.261203,0.105033,1.498216,-0.107355,0.160449,-0.287867,-0.481394,0.382211,0.059057,0.203327,-0.288972,0.050382,-0.587943,-0.071489,-0.040932,0.247544,-1.257558,0.020940,-0.434945,0.520046,-0.291963,-0.473020,0.446198,0.274023,2.003029,-0.296296,1.475131,0.845185,0.969731,0.693817,-0.446441,-1.423880,0.405200,2.968408,-0.026168,-0.120952,-0.064520,-0.163934,0.352814,1.286053}
    },
    {
      {-0.821996,-2.627895,2.094410,-0.453443,1.250867,-0.003294,-1.333137,-0.215157,-1.419270,1.325114,-0.264237,0.562514,-0.298278,4.264783,-0.468081,3.992421,2.043972,1.945535,-0.234507,1.555170,2.208072,-1.624827,2.134629,-0.639014,1.233443,0.013521,0.153963,0.456801,-1.086066,-1.329647,-0.412769,0.169746,-1.761497,-1.173119,-0.747313,-1.314678,0.401200,0.607000,0.279052,0.410056,-0.687013,-1.584092,1.038871,2.086247,0.796279,-3.001070,0.640474,1.107316,-1.157181,0.317886,3.388576,2.457319,-1.015429,-0.214127,-1.417781,-2.559883,0.978632,2.008796,-0.667383,2.043202,-0.325038,0.729989,3.993037,-0.299916,2.478319,1.961827,0.094130,1.204053,-0.477882,1.093535,2.025018,1.529531,2.001646,1.343176,-0.621150,-2.208361,-0.536592,-0.470981,-0.888813,0.123883,2.227846,-0.855190,2.314482,-3.252712,-0.366020,0.047257,-0.329668,-0.217975,-0.263260,-0.089736,-0.046369,0.809807,-0.092397,1.777666,-0.640125,0.100164,1.129897,0.650459,0.802084,-0.263424,1.338801,1.232921,-1.236354,0.024882,-0.227633,-0.063725,-0.553762,-0.206512,2.408041,-2.369386,2.462450,-0.063273,1.756171,1.506812,0.451412,3.259763,-0.570502,-0.210354,2.286767,0.537452,-2.251861,1.478569,0.086782,-0.179220,1.533947,0.829628,-0.483256,2.268593,-0.221752,-0.442968,0.077783,-0.687085,0.183975,-2.067813,0.087844,1.381566,-1.117115,0.871786,2.273440,-0.701421,2.280299,2.658908,1.661869,3.661634,0.757801,2.950755,0.675629,0.496230,-0.705217,-0.883126,-0.703652,-1.885803,0.181837,-0.266437,-1.297543,-0.474496,-0.115450,-0.240664,2.244428,2.942104,0.957258,-0.309694,0.159996,2.296004,0.155545,-0.367519,1.143717,2.719173,-0.695476,-0.509876,0.648645,-0.224177,-0.387032,2.364252,-0.159332,6.767004,-0.342448,-0.550055,-0.361159,-0.190019,0.978768,2.499467,0.617558,-0.464501,-0.330938,2.574784,-1.617893,0.157273,-2.010106,-0.674386,-0.654103,-0.042292,1.829002,1.734824,-0.261353,0.812491,1.740604,0.328074,2.391050,3.774873,1.939966,3.266437,-0.660768,1.021515,3.745227,-0.118752,0.760602,-0.524203,-1.329150,-0.135996,-0.713175,-0.267451,-0.491854,-0.175357,2.842989,-0.254778,2.739094,1.948193,-0.233264,-0.184031,-0.457571,-1.034587,-0.713289,-0.584550,-0.158406,-8.612964,0.990645,0.065122,2.410563,1.992189,-0.427051,-1.734753,1.492756,-0.451620,0.447914,-0.526957,0.954704,-1.238304,-0.757632,1.479567,1.594238,-0.617300,2.892704,-0.217821,3.030124,0.288620,1.607526,1.418037,0.221248,-0.439175,2.098041,0.946723,0.692569,-1.040148,0.194304,-0.130292,2.224418,1.886338,1.801353,0.068250,-1.066893,-1.091353,-1.252622,-0.594651,-1.040321,-0.301652,-0.567560,-0.562284,-0.224266,1.001821,-0.317749,2.063813,-2.608912,0.571772,-0.556115,1.721408,2.349593,1.266392,0.115822,-0.911175,0.011288,0.217325,0.989432,-0.657067,-0.727290,-0.999814,-0.654751,-0.585103,3.210377,-0.082169,-0.210078,-0.855987,2.717311,-0.088779,-0.279228,1.060883,2.437609,-0.340018,-0.038168,1.072390,2.911739,-0.810402,0.337955,2.399571,1.998168,0.495976,0.102528,-0.798955,-0.598495,-0.290258,-0.237082,1.846273,-2.270300,1.060659,-0.543189,-2.202950,-0.055400,1.952602,2.150446,2.521884,-0.775568,-0.249377,-1.924109,-3.018449,0.574602,-0.377009,-0.290903,-0.760680,0.072454,2.179464,-0.009889,1.312916,3.347107,1.469877,0.063920,-0.505051,3.761423,-0.556297,-0.173556,1.863322,-3.235788,-0.530815,-0.385234,-0.352529,-0.215946,-0.220777,-0.580026,1.495171,-0.232782,-0.859719,-0.303569,-0.377332,1.869315,-0.903576,0.473966,1.471944,0.580419,-2.322392,-0.181015,0.398904,-3.155842,1.255695,2.697139,0.989941,1.035429,1.830335,-0.926759,-0.646398,-1.911869,0.298066,-1.683590,0.831856,-0.882572,0.985970,1.922107,-0.192255,1.882679,1.440726,0.348588,-0.932939,1.726475,2.287076,1.723948,-0.266370,-0.566119,-0.003524,-0.254546,3.877736,1.598571,0.662560,0.794863,-0.359018,-1.367022,0.039560,-0.378986,-0.515272,-0.542340,-0.197367,-1.815882,2.467842,-0.057414,-0.416517,-1.867140,2.954627,-0.269081,1.772518,1.103651,1.866654,-1.137436,-1.701496,-0.445413,-0.410199,0.264563,1.057143,-0.155221,2.767431,3.246391,1.128570,-0.507889,0.873553,3.986101,2.318557,-0.478236,0.059515,2.063138,-1.336663,2.641658,0.825780,-0.771087,2.395479,-0.451135,-0.251559,0.034468,-0.656159,-0.402137,-2.000420,1.794449,0.021501,1.107248,1.021116,0.042296,-2.439243,1.483469,-1.308695,1.805809,-1.100229,-0.176860,0.430194,4.187737,-0.281763,0.981226,1.625083,0.306412,-0.632147,-1.576921,-1.673246,-0.103248,-0.514280,0.108414,-1.008399,-1.435512,2.130788,0.018805,-0.331351,1.279479,-1.632957,-1.651947,0.948701,-0.777167,0.290620,-2.088756,0.130137,0.308271,2.762951,-1.623486,0.571340,0.762092,-0.014052,0.350293,1.139852,2.626880,-0.521932,0.498285,0.732308,-0.165388,0.712480,-0.554439,-1.416845,-1.583408,1.552290,5.436265,-0.229790,0.545349,3.656375,2.356136,1.400061,2.154342,0.204520,-0.927242,-0.766532,-1.071368,-0.357969,-1.193713,-1.118641,3.007437,-1.440060,0.119896,4.571741,1.255642,1.713807,-1.276725,1.157259,-0.698906,1.280224,1.870712,1.260103,1.408088,0.750460,-1.426371,-1.509397,-0.107592,2.250323,2.086438,2.086308,-0.658317,3.677503,-0.474640,1.528424,3.105246,1.148177,1.788749,-1.381684,-0.323381,-0.178062,-0.034235,0.655635,-0.343721,-1.250538,0.584447,-0.197262,2.109793,2.989432,-0.307973,-0.519317,0.047595,-1.531964,-0.304091,0.904112,-0.476953,1.143494,0.908539,1.345344,-0.079825,1.691061,0.935754,-0.665204,-0.413958,-0.410146,1.451338,0.075727,1.108096,-0.227946,0.264952,-0.190122,-0.224898,3.333614,0.659199,-0.166747,3.055846,-1.447139,-0.918132,0.968825,-0.331454,-0.475179,1.944083,1.252888}
    },
    {
      {-0.596614,0.706805,0.201674,-0.328929,0.465052,-0.181922,-1.352570,-0.620752,-0.401993,2.207757,-0.359082,-1.328649,-0.691298,0.441014,-0.393360,0.381842,-0.656892,-0.136683,-0.509109,0.349713,0.460465,-0.308528,1.897128,-0.785897,1.024866,0.005575,-0.511577,0.433209,1.828632,1.965984,-0.627626,1.072022,-0.263607,-0.368374,-0.762998,-0.399476,2.259424,2.185074,0.532270,1.007878,2.284543,0.030067,-1.237179,0.365087,0.277012,-2.521910,0.021495,0.731856,0.956386,0.893589,-0.028273,0.600362,0.229700,-0.169068,0.708032,0.208957,1.009539,0.471146,-0.232567,0.668093,-0.502591,0.904072,1.351166,0.946125,0.831609,0.424814,-0.476232,0.978040,-0.349842,1.583729,0.508647,0.950694,0.068310,-0.987095,-0.827700,1.174598,-0.770406,1.889533,0.876968,1.627071,1.786593,-0.615077,-0.009819,1.595631,0.053942,-0.331845,-0.319028,0.621309,-0.284101,0.848391,0.692644,-0.073300,1.053251,0.113914,0.373099,-0.551970,0.891562,0.722914,-0.546833,-0.460744,-0.715424,0.018509,0.563963,-0.123078,0.846660,-0.957377,-0.406778,-0.433909,0.584825,0.793480,0.516640,-0.214691,0.200508,0.367650,-0.851056,1.230287,-0.342802,-0.602674,0.152049,0.410587,1.267032,0.664279,0.060178,-0.550714,0.217615,-1.307148,0.737255,0.041440,-0.658576,-0.409799,1.332370,-0.543241,0.045847,-0.313169,-0.469233,1.084177,1.198615,0.123605,0.359057,1.801646,-0.939412,-0.103350,0.837542,0.172897,0.635538,-1.153252,-0.246887,1.489723,1.610861,0.518259,-0.323784,2.775551,-1.325717,-0.339785,0.553347,-0.271270,-0.366732,1.871950,-1.512967,0.218378,-0.534033,-0.530641,0.155908,0.864626,1.029917,-0.399603,1.121780,0.437119,1.695588,-0.155881,0.000141,-0.271678,-1.024315,0.156925,-0.550453,1.493296,-0.622456,-0.455774,-0.510765,1.956657,-0.242726,0.880278,-0.675005,-0.268564,-0.250160,-0.139442,3.781065,-0.584197,-1.250766,-0.163770,-0.241614,-0.284884,-1.086747,-0.436115,-0.569693,0.573627,0.167473,1.728975,0.727745,1.080899,0.454541,0.375944,-0.506132,0.258825,1.436535,1.441282,0.242660,-0.166632,0.990780,1.762973,-0.897305,-0.502704,-0.520023,-0.303139,0.358390,-0.515961,0.403870,1.112175,-0.691948,-0.287374,-0.273023,0.197102,-0.385685,-0.026387,-0.278681,1.911459,0.465876,-0.090827,-0.407023,-0.064035,-0.239165,0.005294,0.771903,-0.534249,-0.995428,-0.403263,1.192061,1.598482,0.293342,0.021108,0.379824,-0.231175,0.485530,-0.391213,-0.170062,1.126521,-1.024932,-0.429309,0.279287,-0.604654,1.717801,-0.636844,0.962283,1.587992,-0.211958,1.126111,0.056044,3.407708,0.964951,3.764815,-0.862715,0.789246,-0.494344,-0.405186,-0.321756,-0.288812,-0.691663,-0.348864,-0.351801,-0.104316,-0.245240,0.808648,0.032854,-1.216952,-0.332058,0.036899,0.062525,0.312007,-0.076203,-0.953036,-0.032083,0.002773,0.322498,-0.371126,-0.241086,-0.423027,-0.669581,-0.016224,0.128621,-0.958027,-0.373440,-0.353945,0.088194,-0.622487,-1.067046,4.677547,-0.670257,-0.099533,-0.486633,-1.713454,0.163207,-1.205729,-0.271581,-0.040438,0.386687,0.747316,-0.601686,-0.465786,1.957917,-0.057489,-0.108149,0.903609,0.467738,0.397537,-0.433511,0.821243,-0.410969,0.440093,0.697812,0.629404,2.033726,-0.954438,-0.039749,1.749453,-1.082782,-0.949855,-0.319431,-0.215992,-0.413658,0.348181,-0.602888,0.241646,0.393120,0.624881,-0.730009,-0.404448,0.323446,-0.062311,-1.322397,0.183689,0.654929,-1.241523,-0.390887,-0.312307,-0.276594,-0.448233,-0.831357,0.373999,-0.666798,-0.211958,-0.545557,-0.567571,-0.210448,2.896069,0.080844,0.367918,0.679257,-0.162714,-0.420778,0.507862,-1.278633,0.778019,0.278243,0.453351,0.053421,-0.753951,-0.583016,0.280812,0.792142,0.808270,-0.120893,0.107853,2.382058,-1.721417,0.277408,-0.659809,0.367533,1.067917,0.333219,0.312871,2.951900,0.344977,0.466382,-0.691795,-0.680217,1.034368,-0.124462,1.496891,0.410609,0.140909,0.715295,0.273399,-0.439831,-0.864461,0.579766,-0.407117,-0.470984,0.534373,0.363811,0.059439,-0.745994,-0.753786,-1.124109,1.155843,1.511436,-1.300986,-1.105583,-0.371931,-0.392899,-0.319290,-0.163513,-0.498545,1.606982,0.491900,-0.469878,0.651535,0.044104,0.107001,-0.527731,0.614363,-0.240193,0.044536,0.485106,-0.505412,0.157727,0.134207,0.402727,0.262838,0.110823,0.506903,-0.435311,-0.079908,0.116520,-0.337778,0.613279,-0.195456,0.453435,-0.587482,1.291903,-1.056185,-0.656744,2.274355,0.400022,-0.857640,0.343957,1.457929,-0.983726,2.083705,0.836680,-0.295209,1.020146,0.020918,0.207222,-0.646287,1.375483,0.845280,-0.289042,-0.770221,-0.034132,-0.519091,2.241357,1.345334,1.196450,-0.509125,0.584736,-0.481483,1.546312,0.646149,0.578751,1.223137,2.367541,-0.356071,-0.395142,0.149494,-0.629485,0.172188,0.490067,-0.393215,-0.737274,0.843931,-1.066381,-0.543830,-0.082233,-0.171954,-0.465294,1.077591,1.093390,-0.777665,0.013909,0.455904,1.048134,-0.195902,-0.468385,1.554688,0.074658,0.184552,0.032948,1.153908,-0.349576,-0.005288,0.177453,-0.051842,0.732488,-0.948812,0.225343,0.747470,0.582036,1.507812,0.306317,0.833685,0.685826,-1.561099,1.767868,0.170826,0.371147,-0.057254,0.214777,0.208903,-0.497439,-0.057577,-0.305357,0.102702,-0.475899,1.015803,2.178733,0.359179,-0.038491,0.287698,2.768634,0.827702,0.221357,1.735314,-0.645481,0.836777,-0.031377,-0.845029,-0.238134,-0.056271,-1.011618,-0.018378,-0.057047,-0.000994,-0.846394,0.387859,0.077149,-0.215784,-0.236199,-0.265749,-0.291781,-0.058440,-0.073134,0.093780,-0.902931,0.012724,-0.494178,0.468353,-0.183865,-0.459757,0.301058,0.267895,1.464559,-0.493412,1.161626,0.867758,-0.827593,0.856412,-0.520518,1.329591,0.417112,1.960978,0.024081,-0.189149,-0.956221,-0.309950,0.306369,0.258441}
    }
  },
  {
    {
      {-0.034176,-0.603805,-0.245928,-0.341365,0.235687,-0.507304,-0.141611,-0.839856,-0.437351,-0.037825,-0.309933,0.067984,0.887358,-0.474933,-0.478328,-2.026306,1.007258,-0.732649,-0.051677,-0.002493,0.156021,0.589007,-2.065888,1.523929,0.010405,0.000093,0.270440,0.184595,-0.108197,-0.495794,-0.754503,1.500992,0.776083,0.722277,-0.180678,0.970794,-1.281071,0.078394,0.551509,-0.371599,-1.053982,-0.533277,-0.832436,0.074714,-0.174109,1.209713,-0.655876,0.458589,0.084340,-0.221938,0.345035,-0.316279,-0.688740,-0.173093,0.657749,0.713479,0.175088,-0.653153,-0.229752,0.102332,0.043913,0.188696,0.830660,-0.434766,0.240338,-0.118563,-1.029854,0.924333,-0.102044,0.676913,-0.679200,0.421503,1.826766,-0.527502,-0.629932,-0.212868,-0.232264,-0.384979,0.965899,1.401715,1.306540,-0.438072,0.163625,0.282944,0.886253,-0.723383,-0.198997,0.171745,-0.224948,0.196060,0.198930,0.040563,0.009098,0.264643,0.877280,-2.217307,0.555826,-0.580267,-0.144945,-0.128858,-0.390193,0.345308,-0.037454,-0.338427,-0.425464,-0.459734,-0.460711,-0.303639,-0.193042,0.827815,-0.081648,-0.280770,-0.623550,-0.175365,-0.539912,-0.567388,-0.287748,-0.254825,0.122590,-0.675039,0.319212,0.226940,0.083142,-0.318642,0.106430,2.832078,-0.520301,-0.617712,-0.145796,-0.302443,0.963276,-0.141058,0.027425,2.042858,-0.485367,-0.334292,-0.000823,-0.368065,0.761033,-0.621516,-0.291455,-0.240501,0.968315,0.082435,0.013480,-3.674634,0.267830,0.404344,-0.351837,0.834660,-0.801634,-0.751774,0.692192,-0.076379,-0.009412,-0.071114,-0.380026,-0.253214,-0.216140,-0.014976,-0.271001,-0.369176,-0.461022,-0.579325,0.948630,-0.595092,-0.144207,-0.290941,-0.644034,0.646793,-0.347059,-0.691124,-0.716463,0.654895,-0.379208,0.566010,-1.110561,-0.335987,-0.255205,0.798391,0.242471,0.006637,0.287499,-0.263033,-0.542859,0.225613,0.067766,0.565308,0.437263,0.174257,-0.380278,-0.460051,1.444926,-0.313849,-0.190323,-0.172911,0.529290,-0.480970,0.128244,-0.818195,-0.069831,0.340400,-0.086076,0.194025,0.233146,-0.490566,0.411537,-0.289414,-0.312897,-0.199930,2.342049,-0.718337,-0.218374,0.344744,0.451523,-0.255444,0.233542,-0.015208,0.557584,-0.624901,-0.477387,0.151239,-0.610676,-0.371580,-0.444178,1.139967,0.502550,-0.790093,-0.882274,0.097962,-0.156083,0.435079,0.437736,-0.144153,-0.477951,0.007443,-1.264184,-0.714357,0.333467,-0.551343,0.193298,0.547786,-0.165476,-0.325447,0.446667,-1.337330,-0.481196,0.950999,-0.411976,-0.773319,0.845091,0.598044,-0.553538,-0.539544,0.107250,0.134092,-0.005886,1.428196,0.151844,-2.780203,0.483349,0.554741,0.530058,-0.305311,2.413972,-0.023983,-0.314588,0.012121,-0.197766,0.142399,-0.420012,0.436585,-0.580680,0.603612,-0.088778,0.041165,0.103189,0.664190,-0.245616,0.685727,0.013490,0.023736,0.124431,-0.230184,-0.223738,1.480164,-1.473779,-0.592504,-0.072801,-0.332913,-0.421377,-0.445858,-0.245030,-0.191684,0.760160,1.527175,-0.666665,-0.433600,-0.553162,0.508304,0.059226,0.216591,-0.505885,-0.703457,-0.833720,0.423831,0.351705,-0.547152,-0.336876,0.641874,-0.728951,0.479729,0.916114,-0.512656,-0.162686,1.212124,-1.096463,-0.579790,-0.003843,0.731698,-0.417549,-0.551607,1.137974,0.147874,0.006660,1.277885,-0.214063,0.073544,-0.601036,-0.083356,-0.549394,0.169647,-0.489299,0.151383,-1.019053,0.014035,0.798336,-0.296023,-0.418050,-0.119849,0.828989,0.173508,0.688137,-0.321692,-0.448585,-0.370170,0.797658,-0.040359,-0.443945,-0.232202,-0.299776,-0.407384,-0.551138,2.223729,0.059341,0.206417,0.363442,0.267206,-0.736086,0.118341,1.080299,-0.413996,-0.349057,0.028071,-0.010724,-0.542298,0.022076,-0.047540,-0.099441,1.141985,-0.334713,0.262460,-0.299976,0.839348,0.028716,-0.509456,0.195415,0.625553,-0.240459,0.016572,-1.207471,0.069650,1.194429,0.302256,-0.757410,-0.751939,-0.264381,0.267237,0.918944,0.203133,-0.668888,-0.624281,0.401763,-0.263172,-0.689020,-0.290837,-0.570172,-0.848245,1.112403,-0.880995,-0.213218,-0.148193,0.150903,1.421991,-0.618170,-0.166399,-0.020499,-1.028877,0.673903,-0.633774,-0.452324,-0.276697,-0.808543,-0.838437,-0.715805,-0.093997,0.141273,0.298318,-0.268440,0.285174,-0.840095,-0.256630,0.118315,-0.633177,0.825567,0.732639,0.072758,0.442170,0.449564,0.452982,-0.361969,0.551870,-0.589630,-0.420128,0.492559,1.187713,0.299329,-0.735325,1.707418,0.409468,-0.654601,0.651268,0.472347,0.206461,-0.047772,-0.589686,-0.337585,-0.746584,0.523802,-0.322044,0.208940,-0.689263,0.265898,-0.387110,1.184874,0.201120,-0.386072,-0.627912,-0.143850,0.504419,-0.625681,0.632910,-0.595126,-0.732658,0.296838,-0.143596,0.265969,0.331519,0.193424,0.337483,-0.793028,-0.488288,-0.310602,0.100490,-0.003220,-0.408040,-0.564868,0.006362,-1.239722,-1.794906,1.912196,-0.281136,-0.170172,-0.012402,-0.169113,-0.768559,-0.112122,0.933763,-0.001924,0.214599,-2.610437,-0.425410,-0.686398,1.482891,-0.624041,-0.603226,0.017069,-0.743687,-0.306279,0.890617,-0.699160,-0.508724,0.309921,-0.297445,0.005785,0.527836,-0.181280,-1.706232,0.098866,0.430207,0.855463,0.651570,0.076563,-0.019504,0.153716,0.724445,0.180233,-0.829476,0.818823,0.452145,-0.666825,0.573476,-0.571092,0.599786,-0.229545,0.694078,-0.485438,0.237183,1.161794,0.258930,0.141684,-0.392192,-0.228908,0.828879,0.019735,0.673420,-0.177364,-0.161881,1.155919,-0.476687,0.192701,-0.110222,-0.359741,0.719574,-0.026050,0.883937,-0.955177,0.085489,-0.493397,-0.414600,-0.001511,0.381164,0.062898,-0.193290,0.379011,0.438244,-0.507357,-0.474863,0.897901,0.546507,-1.513715,-0.341710,-0.028872,0.427421,0.440971,0.454420,-0.467530,-0.774701,-1.012960,0.449725,0.854484,-0.678817,-0.553870,-0.701482,0.226299,0.846293}
    },
    {
      {-0.459483,-0.528335,0.472082,-0.177020,0.531491,-0.431255,-0.463333,-0.234372,-0.398738,-1.173988,-0.737961,-0.127755,-0.483348,2.795734,-0.375457,-2.456446,0.422648,-1.481848,-0.460800,-0.022909,0.799214,2.095309,-1.820305,1.811098,1.203345,-0.024887,1.926528,0.680942,-0.285698,-0.094943,-0.657213,2.967301,1.960262,1.871665,-0.529934,1.912376,-0.349033,-1.297225,1.773009,0.336702,-0.978593,-0.220939,1.896938,1.130916,2.749848,1.070124,-1.440130,-0.296941,0.241062,0.162214,-0.473327,-0.756834,-0.549003,-0.319762,-0.171553,-0.496853,-0.053856,0.417251,-0.297857,0.425855,-0.390432,-0.717647,1.117316,-3.355394,0.502079,0.783824,-0.708289,-0.996301,-0.709392,1.686578,-1.938554,0.527995,3.038385,-0.755512,-0.615978,-1.174175,-0.440493,-0.262048,0.312837,2.348732,0.776774,-0.281854,0.532233,-0.516534,1.177787,-0.269010,-0.398025,1.362683,-0.473873,-0.332444,2.310400,0.685636,-0.837289,-0.094632,3.067093,1.065364,0.237948,-1.063800,1.400997,-0.230388,-0.577102,0.195560,-0.591253,-0.461170,0.055270,-0.254429,-0.346585,-0.295653,-0.365105,0.168432,0.225607,-0.575096,-0.800067,0.344750,-0.754992,0.946089,-0.171887,-0.410284,0.155235,-0.391944,-0.538997,-0.167776,0.138582,-0.139376,0.201412,-0.847145,-1.709017,0.058960,2.848177,-0.309674,3.309575,-0.301025,0.125308,-0.602995,-0.471643,-1.954319,-0.218361,0.041849,0.879121,-0.771489,0.120696,-0.353578,1.423668,0.893811,-0.917706,-1.819403,0.470787,2.089425,-0.402144,1.001680,-0.422704,-1.023595,0.528662,-0.234795,-1.925263,-0.073822,-0.271346,2.390923,2.289911,0.221894,0.074371,-0.411191,-1.189809,0.195950,4.026554,-0.455189,-1.498703,0.174952,-0.430122,1.322577,-1.305159,-0.198861,-0.585870,0.825877,-0.108510,1.165792,-0.302426,-0.243367,0.081707,1.912334,1.060166,-0.014688,0.005771,-0.583725,-0.338925,0.249230,-1.582040,-0.565328,0.005588,1.588591,-0.547154,-0.197827,2.634519,-1.549095,-0.445447,-0.884719,0.117218,0.788269,-0.078034,-1.102906,-0.736710,0.898385,-0.371766,0.827898,-0.029494,-0.183834,-0.018900,-0.216808,-0.726581,-0.619972,-0.911449,-0.334068,-0.430920,2.217795,0.309624,-0.433295,1.265329,-1.202136,-0.132020,-0.218884,-0.634917,1.607430,-0.612502,-1.000319,-0.521324,1.453592,1.350916,-0.577415,-2.247189,0.223779,-0.100727,2.364684,0.415129,-0.606816,0.031750,-0.540876,1.403693,-0.326459,1.320979,-0.086538,0.471822,1.294751,1.121779,-0.410386,0.768299,-1.461908,-0.464758,0.327559,-1.028690,-0.378989,1.607296,-0.108165,-0.366099,0.302161,1.155984,-1.315534,0.221900,-3.827662,0.645259,-0.105726,2.210515,-0.866729,1.798730,-0.322317,0.911632,-0.574522,0.247492,-0.627537,-0.268081,1.053641,-0.614991,0.273249,0.889635,0.069496,-0.257977,0.515894,-1.863812,0.653350,-1.445564,-0.137220,-0.013482,0.102655,0.299101,-0.324858,-0.565116,1.072393,-0.820244,-0.609272,0.415690,0.271623,-0.558311,-0.043667,0.171772,-0.512196,-0.132593,2.082864,-0.055330,-0.925077,-0.514427,0.427316,0.865195,0.753052,-0.071356,-0.007936,0.256590,1.495557,0.010855,-0.244838,-0.429229,1.946772,-0.210968,0.956981,1.984447,-0.366015,-0.341368,1.810745,-0.972839,-1.748047,0.647956,0.641618,-0.215203,-0.606074,1.355579,0.680002,0.526026,2.220218,-0.453442,-0.002948,-0.492782,0.545490,-0.767500,0.231653,-0.170753,0.516212,-0.590151,-0.374439,0.417387,-0.471033,-0.413505,0.781623,0.130022,-0.381072,-0.097421,-0.243593,-0.444987,-0.621356,-0.548769,-0.235451,-0.348971,-0.506416,-0.508503,-0.522670,-0.871024,2.484111,0.534877,0.305701,0.679702,-0.213740,-0.638723,0.814010,0.467464,0.063778,-1.390862,0.269456,0.170884,-0.339040,-0.412712,-1.060144,-0.122341,1.771119,-0.253578,-0.219172,-0.139830,0.066320,0.589770,-0.641365,0.118365,1.455232,-0.574225,-0.157622,-0.334453,0.039666,1.075700,-0.281415,-0.460689,-0.017075,-0.399158,1.544859,1.297643,0.898463,-0.175102,-0.465330,2.893296,-0.759410,-0.724262,-0.357874,-0.654145,-0.984754,0.933423,-1.628382,-0.253703,-0.115595,2.406974,-0.369027,-0.541005,0.510951,-0.038918,-1.228085,0.141977,0.552523,-0.458619,-0.399691,-0.277397,-1.624259,-0.383498,-0.076753,0.175259,0.422856,-0.524945,-0.038991,-0.986996,0.416145,0.453382,-0.328480,-0.452228,-0.656632,0.302924,0.676083,1.015334,0.163848,-0.539785,3.197927,-0.657677,0.154978,2.555015,2.477934,0.193224,-0.608151,2.121810,0.156490,-0.490276,-1.022674,0.358333,-0.723168,0.778222,-0.132658,-0.119396,-0.247324,-0.328978,-0.565491,1.119540,-0.523325,0.365574,-0.538225,2.925794,0.841423,-0.353000,-0.385555,-1.267840,-0.471805,-0.760030,0.563294,-0.063683,0.539358,0.597981,-0.857053,-1.139615,0.795191,1.267460,0.149352,-0.765880,-0.487124,-0.490937,1.057728,-0.795498,2.115741,-1.196557,-1.132669,-0.336926,-0.344534,4.114346,-0.265361,1.240104,-0.590850,-0.001407,0.490535,-0.085663,0.296815,-0.098384,0.209385,-0.488876,-0.388190,0.133117,1.921526,0.117462,-0.971943,0.353446,-1.342994,-0.906235,-0.650645,-0.709600,-0.315184,0.000112,-0.666007,-0.029098,0.003069,-0.170107,1.496088,-0.227634,0.375101,0.615665,0.594444,1.753261,1.435782,0.016032,1.221311,0.273544,-0.496892,1.666858,-0.228700,-0.352190,1.396761,-0.763889,0.558659,-0.797649,0.124523,-0.183570,0.199225,-0.196515,0.381862,0.309165,-0.846616,-0.372260,0.494191,-0.020802,-0.246812,-0.277823,0.026251,-0.119827,-0.092307,1.203330,-0.089826,-0.937919,0.775997,-0.056278,1.379761,-0.204197,2.035603,-0.280069,-0.752366,1.208480,0.495041,-0.969921,-0.693884,1.255738,1.086384,-0.125696,-0.049188,2.892333,1.118335,-3.442194,-0.234247,-1.662627,1.342023,0.172545,2.503756,-0.913983,-0.197434,-0.290454,2.316648,1.359697,-0.809018,-0.512517,-0.046215,1.521269,1.651177}
    },
    {
      {-0.358525,-0.758808,-0.185387,-0.178538,0.032221,-0.568558,-0.405656,-0.615236,-0.192598,0.912250,0.085912,-0.406807,-0.469190,0.598398,-0.342835,-2.810366,0.766513,-0.593728,-0.246283,0.173523,0.295173,0.205775,-0.907111,1.387991,0.522785,-0.020241,0.266512,0.118024,0.109802,1.580106,-0.230841,0.456084,0.314760,0.691379,-0.399413,0.565357,2.384822,1.530762,0.495111,-0.043779,1.267086,-0.682375,-1.303479,-0.251595,0.457287,-0.579286,-0.768887,0.964257,0.408366,0.328689,0.223250,0.170258,-0.508510,-0.188635,0.195745,0.646029,0.458053,-0.269211,-0.288601,0.223368,-0.886936,-0.078185,2.396379,-0.893143,0.820182,-0.042577,-1.199179,0.294026,-0.200041,-0.223339,-0.767714,0.447083,1.044091,-0.283526,-0.783167,-0.126732,-0.414447,0.959996,1.091362,1.158944,1.211324,-0.411126,0.357416,0.287115,1.300247,-0.452774,-0.280579,0.723537,-0.502223,0.188824,0.153396,0.040393,0.136994,0.432413,0.885670,1.648989,0.551790,-0.491520,0.273570,-0.237751,-0.594632,0.160479,0.087131,-0.167022,0.703105,-0.680956,-0.648392,-0.285291,0.517148,1.032779,0.166633,-0.452542,-0.183751,0.149826,-0.701703,-0.420451,-0.766737,-0.392619,0.235377,-0.476073,0.177392,0.386670,0.101394,-0.363926,0.101039,-0.824504,-0.569904,-0.596308,-0.403521,-0.772006,1.288683,-0.337385,0.045435,0.299844,-0.567244,-0.251713,0.649856,0.000874,0.264820,0.710058,-0.217790,0.855866,0.641773,-0.619879,-0.321283,0.496791,0.486738,0.680189,0.375198,0.952072,-0.640337,0.890719,-0.952302,-0.675660,0.079581,-0.086694,-0.895969,1.159160,-0.180823,-0.052940,-0.084719,-0.573141,-0.498971,-0.072464,0.763102,-0.630404,-1.028935,0.373309,1.014354,0.924306,-0.502495,-0.296272,-0.941240,0.727840,-0.488921,1.047517,-0.583993,-0.346354,-0.427167,1.812235,0.147616,0.073550,-0.624257,-0.412334,-0.256032,0.149930,0.032287,-0.119395,-0.192665,0.219827,-0.629604,-0.716196,2.522815,-1.010225,-0.441457,0.032527,0.048782,0.469842,-0.143589,-0.627611,0.196605,-0.240778,-0.241223,0.027616,-0.257434,0.803328,0.584392,-0.234997,0.185543,-0.264499,-1.212699,-0.558761,-0.342018,0.773466,-0.434111,-1.097951,-0.470735,0.846717,-0.973125,-0.581721,-0.638884,0.276096,-0.745729,-0.584124,-0.276412,0.915556,0.221004,-0.398898,-1.448595,0.411356,-0.329778,0.382464,0.702939,-0.452066,-0.117965,-0.245566,0.837484,0.754293,0.926045,-1.058367,0.051868,0.393528,-0.130779,-0.278466,0.084260,-0.730611,-0.714264,-0.327028,-0.515921,-0.467276,0.697969,0.024836,-0.230691,1.140877,0.290309,-0.035728,0.046378,0.757704,0.823132,2.645193,0.491689,0.360581,0.618924,-0.783356,-0.076837,-0.102562,-0.412739,-0.384505,-0.355565,0.015069,-0.289643,0.075311,1.292385,-0.525641,-0.118120,0.078241,-0.217265,0.222245,-0.462238,-0.275389,-0.016240,0.078777,0.184732,-0.483955,-0.294540,1.063986,-1.128869,-0.340042,0.047195,-0.417556,-0.160400,-0.412936,-0.025620,-0.162717,-0.203572,-0.936542,-0.451104,-0.622517,-0.553528,-1.605436,0.135615,0.160284,-0.633012,-0.681763,-0.174492,0.453086,-0.309953,-0.707008,0.283392,0.924638,-0.390677,-0.379496,1.033918,-0.782494,-0.596694,0.842695,-0.012828,-1.064156,0.322217,0.566708,0.455773,-0.009525,1.071197,0.449890,0.095829,0.993352,0.181444,-0.076104,-0.335628,0.049741,-0.630423,0.024218,-1.276982,0.329129,-0.533374,-0.493136,2.202573,-0.608357,-0.822130,-0.031889,0.925555,0.525652,-0.688928,-0.243723,-0.649632,-0.052063,-0.744851,0.178456,-0.052134,-0.400816,-0.107703,-0.579556,-0.572365,1.708074,0.198977,0.336652,0.050032,0.308281,-0.402634,0.482124,0.465738,-0.311931,-0.003447,0.180033,-0.018121,-0.806516,-0.385197,-0.194677,0.412383,0.574767,-0.266790,-0.075391,0.064178,-0.582152,-0.082397,-0.158585,0.216971,0.860911,-0.050199,0.023162,-0.024956,-0.117379,0.457488,0.423683,-0.788550,-0.154382,-0.207754,-0.252659,-0.320592,0.199533,0.659392,-1.017620,0.424066,-0.313632,-0.993469,-0.136040,-0.562310,-0.814984,1.209631,-0.400464,-0.367828,-0.143976,0.235878,1.250140,1.167856,-0.524848,-0.611094,-1.113006,-0.064086,-0.386249,-0.550034,-0.221491,1.029164,-0.296935,-0.221307,-0.407521,-0.044436,0.502399,-0.382196,0.357266,-0.537938,0.335011,0.124835,-0.461216,0.928666,0.385041,-0.321601,0.462211,0.755468,0.428813,-0.701956,0.234401,-0.403909,-0.755350,0.340470,1.144938,0.259319,-0.363508,1.461928,-0.445411,-0.575898,0.918152,0.135690,-0.027637,-0.357825,0.648548,-0.435834,0.586977,-0.116072,-0.117358,-0.368329,-0.755808,0.263703,-0.576370,1.912515,0.364621,-0.282174,-0.509388,-0.302340,-0.441043,0.970737,1.752510,0.831971,-0.452041,-0.003626,-0.318393,0.484049,0.314654,0.324360,0.361427,0.912879,-0.457880,-0.462452,-0.517268,-0.145518,-0.071337,-0.511771,-0.099881,-0.533409,1.016135,0.430134,-0.655005,-0.131928,0.127005,-0.191552,0.077743,0.559061,-0.336579,0.882709,0.195172,-1.054555,-0.709713,-0.450766,0.769926,-0.609425,-0.587170,-0.221874,-0.717999,-0.414547,0.564256,-0.303512,-0.257031,0.105203,-0.051990,0.325517,0.364187,0.366368,-0.114531,-0.034287,0.530181,0.422913,-0.939546,0.872609,0.912297,0.723833,0.786062,-0.129582,-0.607728,0.977855,-0.063615,-0.561760,0.181653,-0.542136,0.789571,-1.120773,-0.740661,-0.289317,0.269498,1.746626,0.013583,-0.319547,0.872406,-0.121815,1.344578,-0.039755,-0.643120,-0.126572,-0.562417,-0.868783,-0.459127,0.591705,-0.079690,-0.785087,0.623918,-0.054286,0.534784,-0.885775,0.652327,-0.902949,-0.539391,-0.010208,0.267060,-0.073952,-0.196169,0.545570,0.776878,-0.568272,-0.584087,0.223887,0.312351,-1.228324,-0.183490,-0.141238,0.937318,-0.384455,0.530667,-0.468111,0.711945,-0.767102,-0.483796,0.665329,-0.673879,-1.372573,-0.446966,0.377205,-0.194264}
    }
  }
};
