#pragma once

#include "C:\Users\Baron\Desktop\EE_297_Repo\EE_297\hardware_imp\vitis_hls\lane_seg_hls\lane_seg_top.h"

// Auto-generated with BN folded

data_t enc15_ir14_dw_w[3][3][1][960] = {
  {
    {
      {0.009830,-0.820934,-0.658496,-0.353340,0.130741,-0.736620,0.125149,0.443077,-0.174688,-0.457024,-0.256739,-0.291346,0.120632,-0.395485,-0.221458,0.417878,-0.354650,-0.472963,-0.735549,-0.433632,0.623601,1.608545,-0.025533,-0.320300,0.592921,-0.442476,-0.357707,-0.529477,-0.642382,0.677622,-0.528907,0.456972,-0.443777,-0.744812,-0.185500,-0.265832,0.585597,-0.576714,-0.463937,-0.631908,-0.352630,0.004558,-0.367764,0.327945,0.641719,-0.306588,-0.323634,0.168247,0.161293,-0.356378,-0.530138,-0.058902,0.322081,-1.030489,0.667711,0.943715,-0.300748,-0.920914,0.289595,0.047649,-0.070020,-0.374989,0.013900,-0.718963,-0.415511,0.793379,0.519825,-0.374379,-0.432145,-0.998913,0.034259,0.745620,0.172452,-0.163058,0.119602,-0.935492,-0.497236,0.555140,-0.183039,0.064959,0.578525,-0.299930,-0.261926,-0.536168,-0.399642,0.071371,-0.586618,-0.410667,0.536009,-0.347547,-0.109179,-0.244650,-1.291853,-0.352085,-0.772456,0.345763,0.529039,-0.298662,-0.196639,-0.386526,-0.749654,-0.577477,0.027680,1.000278,-0.200354,0.073667,0.670675,-0.664508,0.241206,-0.954073,-0.462957,-0.375165,0.836263,-0.518003,-0.111991,-0.360865,1.268634,-0.517635,-0.570734,-0.340852,-0.402991,0.316370,0.104650,-0.376808,-0.273473,-0.022422,0.727917,-0.606883,-0.106997,0.211402,-0.414208,0.223644,-1.390933,0.192333,0.482765,0.485148,0.729659,0.038266,-0.099797,-0.392606,0.097361,-0.297496,-0.388477,-0.066060,-0.242570,0.243852,-0.613116,-0.485209,-0.219165,-0.465534,-0.994588,0.001412,-0.069914,0.465772,-0.291775,-0.354710,-0.993790,0.337656,-0.158920,0.208706,-0.252119,0.012049,-0.660917,-0.211087,-0.367538,-0.757133,-0.485518,-0.266816,-0.954838,0.051193,-0.311278,-0.375253,0.337540,0.424337,-0.703890,0.660032,0.009754,0.483384,-0.459116,-0.329674,-0.209872,-0.429393,-0.264269,-0.497722,0.496546,0.565213,-0.252457,0.787337,0.160401,-0.238609,-0.134752,0.321169,0.424140,-0.022779,-0.132652,0.486593,-0.359720,-0.175624,0.476730,1.435626,-0.459612,-0.992992,-0.266180,0.754360,0.215488,-2.229557,0.719623,1.136671,0.805056,0.601294,-0.190367,-0.027063,-0.561288,-0.621699,-0.347391,0.188522,-0.472219,0.351328,-0.619678,0.126024,-0.398064,-0.843197,-0.438046,-0.355704,-0.832557,-0.124669,-0.462423,-0.541416,-0.487430,0.600626,-0.648596,-0.924803,0.304609,-0.364035,-0.113557,-0.137680,-0.503889,-0.155359,-0.151227,-0.186322,0.592013,-0.656397,-0.065298,-0.364521,0.001485,0.748540,0.590221,0.355843,1.190114,0.013599,0.073885,-1.473583,-0.244041,-0.771235,0.481242,0.739175,-0.277728,0.272976,0.300223,-1.896978,0.045471,-0.645524,-0.586747,0.452776,-0.712772,-0.937066,-0.031303,-0.287740,-0.657497,-0.422269,-0.287743,0.029503,0.332876,0.456618,0.755731,-0.676343,-0.055051,0.560676,0.199377,0.328922,1.224177,-0.659760,-0.485712,-0.537959,1.302832,-0.110155,-0.353746,0.349917,-0.027833,-0.379640,-0.305120,0.772415,1.191579,-0.261727,0.828182,0.020036,-0.095782,-0.380806,-0.358641,0.099258,-0.178682,-0.010702,0.003278,-0.634083,-0.483994,-0.131097,-0.221982,0.561724,-0.664612,0.421746,0.108821,-0.520679,0.577643,-0.200161,1.202210,-0.269197,0.093917,0.336166,-0.132280,-0.627654,-0.772056,0.273982,0.048819,0.449321,-0.471965,0.318307,-0.410062,0.464829,-0.539988,-0.060670,0.721454,0.481382,-0.563247,-0.050321,-0.496595,-0.375508,0.108840,0.095349,-0.229115,-0.727410,-1.025769,0.080370,0.034938,-1.007594,-0.328980,-0.234802,-0.525695,0.694736,0.911791,-0.453946,-0.642250,-0.014560,0.047258,-0.454950,0.121830,-0.023841,0.333531,0.672497,-0.014030,0.007550,-0.459359,0.997649,0.106463,-0.003732,0.161590,-0.693900,-0.223500,-0.868608,0.099727,-0.006800,0.956262,0.083188,0.453014,0.405527,-0.012038,0.178229,0.501536,-1.827900,-0.381166,0.261330,0.493470,-0.577981,0.568980,-0.042565,-0.239066,0.792029,-1.287037,-0.385015,-0.028188,-0.443962,0.187322,-0.252981,0.602155,-0.142995,0.343322,-0.654188,-0.534230,0.455630,-0.462913,0.735769,-0.532812,0.772590,0.117719,-0.468059,0.328582,0.427227,-0.285924,0.629023,-0.174846,-0.005313,-0.363652,-0.442301,0.451510,0.194432,-0.347732,-0.712250,0.377416,0.650926,0.461154,0.830541,-0.583442,-0.306003,-0.804808,0.726318,-0.301228,0.314448,-0.370422,-0.320776,0.588658,-0.010710,0.808686,-0.869512,-0.197043,0.716947,-0.463433,-0.317351,-0.237098,-0.736092,-0.460222,-0.101960,0.554421,-0.358766,0.786102,-0.398754,-2.690864,-0.373176,0.689826,-0.134842,-0.323185,-0.398916,0.591936,-0.936578,0.385245,0.265576,0.489349,0.371959,-0.401526,0.874709,-0.441679,-0.150123,-0.494778,0.478772,0.465188,-0.686742,0.161730,0.462722,0.530035,0.041739,-0.442596,-0.651869,-0.216838,0.292336,0.135116,0.370434,0.342324,0.995634,-0.213715,0.538440,-1.069334,0.658262,0.757993,-0.270622,-0.280148,-0.631665,-1.248229,0.820747,-0.254205,0.113870,-0.376531,0.443459,0.585403,0.140298,0.033948,-0.558458,-0.610021,0.327801,-0.028814,0.251735,-0.294262,-0.430020,-0.647409,0.848956,-0.242100,-0.385077,0.591012,0.318010,-0.165434,-0.288947,-0.255654,0.730544,0.462765,-0.221334,-0.419448,-0.096905,-1.153483,-1.177955,-0.345438,-0.655951,-0.232187,0.824486,0.415014,-0.687957,0.023263,0.277848,0.368666,0.069488,0.036216,0.070260,-0.755763,0.357628,0.733709,-0.481089,-0.557200,0.488141,0.486550,-0.606821,-0.732391,-0.438591,-0.102114,0.529246,-0.140884,0.396120,-0.499513,-0.023837,-0.233523,-0.012326,-0.345069,-0.260217,-0.744054,0.126371,-0.259445,0.607228,0.760732,0.654389,1.520881,0.464095,0.425577,-0.325206,0.140955,-0.017491,0.650298,-0.447925,-0.814701,0.285659,-0.515403,0.948489,0.768591,-0.680931,-1.132727,0.379695,1.054672,-0.703506,-0.436118,-0.278646,-0.643723,-0.229192,0.026289,-0.309629,1.448054,-0.200137,-0.340845,1.378670,-0.505566,-0.615390,-0.354183,-0.349465,0.611290,0.088098,-0.036967,-0.434106,-0.614451,-0.800284,-0.492364,-0.775412,-0.448756,-0.131735,-0.231469,0.356542,-1.192869,0.639135,-0.719829,-0.594280,-0.030982,-0.245078,0.475117,1.217381,-0.348341,-0.519196,-0.376461,-0.341693,-0.574372,-0.025282,0.439870,-0.312894,-0.562553,-0.681858,-0.523654,0.717588,-0.278243,0.870410,0.438628,0.067434,-0.248572,-0.500986,-0.337662,-0.178260,-0.250255,-0.547977,0.935315,-0.404402,-0.260909,-0.434295,-0.299925,-0.453429,0.446902,0.378164,-0.488144,-0.530221,0.654369,0.695706,0.495815,0.328165,-0.279614,-0.404120,-0.744814,-0.130264,-0.973049,0.079352,-0.529972,-0.122855,0.105197,0.100238,-0.289772,-0.862916,-0.536868,-0.010098,1.286025,0.364661,0.593691,-0.743407,-0.466700,0.695250,-0.508268,-0.967926,-0.526804,0.008803,-0.249423,0.699010,0.140565,0.134892,-0.787044,1.351568,0.659960,0.219953,0.524983,1.199816,0.008638,-0.553467,-0.220125,-0.699889,-0.115943,-0.414370,0.648035,0.236909,-0.142537,-0.219539,-0.386688,-0.342141,0.808317,1.320815,-0.140990,-0.490929,0.354623,0.298059,-0.155739,0.303556,-0.413573,0.091203,-0.521866,-0.527925,-0.299186,-0.855899,-0.227717,0.105169,-2.200571,-0.166231,-0.007671,0.503972,-0.719359,0.132002,-0.662481,-0.515023,-0.616010,-0.256667,-0.340115,0.693693,-0.273997,-0.036297,-0.265405,-0.303662,-0.577221,-0.352561,0.119216,0.616187,-0.430659,-0.362516,-0.823290,-0.524228,0.114547,-0.263406,0.412626,-0.675062,0.322042,-0.311178,0.127551,-0.136751,-0.457763,-0.387177,0.164515,-0.256099,-0.261884,0.481348,-0.278942,-0.251837,-0.266529,0.326552,0.521502,-0.449924,0.478054,0.435234,-0.044351,-0.783103,1.627271,0.148130,0.024862,0.185390,-0.438200,0.339949,-0.336025,0.037717,0.433960,0.255488,-0.580315,-0.132300,0.138247,0.070393,0.024623,-0.335327,-0.884406,-0.578818,0.290024,0.707771,0.351841,-0.315248,-0.441120,-0.388189,0.727721,-0.082609,0.642684,0.524215,-1.163929,-0.269411,0.545322,-0.342016,-0.068431,0.528890,0.971320,0.470892,-0.325440,-0.138612,-0.439176,-0.898257,0.192800,-0.547733,-0.471810,0.829805,-0.241644,-0.017407,0.406468,0.332742,0.364411,-0.259729,0.417397,-0.013602,0.657372,-0.776822,0.608298,-0.610339,0.203661,0.345677,-0.099484,0.475936,-0.654180,1.001105,-0.573737,-0.279777,-0.388795,0.038456,-0.641181,-0.373903,0.064697,-0.005051,-0.052200,-0.038564,-0.196060,-0.211455,0.912271,-0.609179,-0.508584,-0.365821,-1.019972,-0.304538,-0.196536,-0.048652,0.115741,0.349584,-0.749400,-0.409408,-0.522918,-0.160077,-0.265703,-0.764847,0.667022,-0.281828,-0.546173,0.185248,0.205652,-0.357663,0.584569,0.137533,0.052510,0.608019,-0.465009,-0.494313,0.493765,-0.206173,-0.058656,-1.158075,-0.281076,-0.471345,-0.682256,-0.008291,-2.960146,0.073713,0.667460,-0.587107,-0.388432,0.208522,-0.255934,-0.842959,-0.660710,-0.424724,1.145037,0.845286,-0.596339,-0.087063,1.560824,-0.205827,0.018730,2.338354,-0.216491,0.468451,-0.109828,-0.172480,0.559156,-0.905060,-0.634747,-0.979428,-1.225032,0.483416,-0.254555,0.605702,-0.247717,0.587502,-0.630173,-0.157897,0.384335,-0.579582,-0.390607,-0.555478,0.840620,0.319303,-0.546416,-0.623902,0.363023,-0.392901,-0.661520,-0.278206,0.074246,-0.712690,1.631941,-0.664799,0.283410,0.892948,0.281735,-0.479813,0.388942,0.904019,0.645107,-0.505485,-0.614094,-0.419284,-0.403669,-0.532807,0.784769,0.606211,-0.818981,0.148360,0.631254,-0.676261,0.868092,-0.118432,-0.523682,-0.504265,0.421567,-0.247247,-0.602105,-0.504264,0.265800,-0.524330,-0.039574,0.468082,-0.013940,-0.261232,-1.144746,0.275737,0.044716,1.095682,-0.464780,0.292149,0.132870,0.260039,-0.628690,-0.005766,-0.588915,-0.374845,0.034954,-0.330383,-0.490368,0.276969}
    },
    {
      {0.665384,-0.419973,0.479278,-1.040124,0.132280,-0.307591,0.324743,-1.034245,-0.530551,-0.277460,-0.396354,1.361297,0.830517,-0.190541,-0.428682,0.627576,-0.335285,-0.506201,0.134291,-0.217952,-0.017020,1.848796,-0.627856,-0.004747,-0.457305,-0.271882,-1.060468,-0.479928,-0.732884,1.503777,0.023151,0.995129,0.032046,-0.214179,-0.231442,-1.075606,0.697524,-0.515383,-0.607939,-0.235758,-0.538246,0.566637,0.346552,0.524706,2.285567,-0.184281,-1.427289,1.404936,0.447208,-0.641315,-0.102017,-0.406612,0.312288,-1.393208,-0.286679,-0.481956,-0.432068,-0.613080,1.151756,1.452143,0.374878,-0.508909,0.709123,0.665506,-0.277185,0.177544,-0.219760,-0.473837,-0.415050,0.787651,-0.155917,1.618672,-0.115938,2.118364,1.091397,-0.826125,-0.559979,3.149707,-1.206764,0.762996,0.949724,-0.281749,-0.281449,-0.682375,-0.462400,1.211541,-1.153890,-0.949166,0.432956,0.026660,-0.253847,-0.233587,1.073566,-0.895248,-0.620853,1.082533,0.833081,-0.000172,-0.075950,-0.961995,-1.285388,-0.163415,0.386387,1.388326,-0.448559,-0.095349,-0.239248,-0.542760,-0.240962,0.375524,-0.103930,-0.461655,-1.420852,-0.105774,2.183778,-0.397614,-0.557565,-0.965782,-0.714338,-0.792529,-0.231095,0.861013,1.387309,-0.567464,-0.405050,-1.215461,-0.199465,-0.578435,0.484173,0.553571,-0.866477,0.828278,-0.621612,0.544293,-0.014197,1.092031,1.361712,0.441122,-0.302071,-0.436904,-0.937325,-1.052495,-0.179804,0.179460,-0.461761,0.383456,-0.063940,-0.277464,-0.632598,-0.916383,1.486247,-0.621046,-1.270375,-0.135192,-0.442051,-0.481617,-0.440923,-0.271848,0.794306,0.605837,-1.171990,0.464596,-1.160409,-0.174206,-0.663493,-0.217549,-0.578547,-0.425778,-0.643285,-0.023490,-0.997804,-0.300960,0.011698,1.008734,-0.797623,0.949936,0.270292,-0.073870,-0.452442,-0.374617,-0.811963,-0.647201,-0.305914,-0.090310,0.698895,1.529949,1.042733,1.878622,-0.941101,-0.368996,1.632689,0.415878,0.058365,-0.331848,-0.108146,0.165374,-0.382238,1.133541,2.182518,2.813282,-0.500386,0.835721,-0.296980,-0.077641,0.047319,-0.165672,0.623696,-3.193370,0.044808,0.669952,0.470029,-0.449242,-0.864719,0.000157,-0.964291,0.558710,-0.766473,0.643352,-0.298072,0.679871,-0.429289,-0.326733,-0.355122,-0.185527,-0.199411,-0.328332,0.005709,-1.455063,-0.240113,1.517285,-0.794588,-0.072438,1.400149,-0.916718,-1.281430,-0.458325,-0.815518,1.116209,-1.277057,0.828544,1.366919,-0.332584,-0.578787,0.047836,0.244845,-0.037505,0.247037,0.160767,-0.523270,1.765163,0.736906,-0.245492,-0.565649,-0.429251,-0.298977,1.405250,-0.681989,-0.043281,0.068875,-2.313185,-0.089475,-0.324655,-0.779189,0.209940,-0.903492,0.158039,1.127757,-0.417400,-0.878360,-0.709447,-0.684039,-0.717292,-0.233322,-0.304409,-0.941139,-0.070060,-0.341185,-0.010468,1.133234,0.734638,1.466897,-0.350701,-0.547623,-1.442296,-0.105051,0.628685,0.456557,-0.280257,-0.297927,-0.229478,-0.446787,1.300848,2.031053,-0.193688,-0.308697,-0.412673,0.066638,-0.145928,-0.714746,-0.556012,-0.553373,1.143197,-0.655272,0.084738,-1.382198,-0.074170,-0.533191,-0.506615,-0.290365,0.092479,1.763897,-0.595743,-0.078986,0.642903,2.085874,-0.491327,-0.674271,0.066787,-0.353821,-0.661208,-0.607135,0.523375,-2.235400,-0.098001,-0.292339,2.096756,-0.269203,-0.070702,-1.173124,1.512926,-0.480479,0.757497,-0.329155,-0.060822,-0.573629,-0.265523,0.220991,0.709445,-0.472152,-0.186381,-1.307729,0.052264,0.925702,0.433217,-0.339118,-0.369772,-1.040430,0.467334,1.143153,-0.148576,-0.493502,-0.484101,0.166335,-0.138433,1.486336,0.233608,1.052822,0.971338,-0.523351,-0.212355,-0.425026,0.676564,0.546219,-0.156748,-0.514027,0.478779,-0.497870,-0.431415,-1.667083,0.732208,2.382191,-0.130808,1.379551,-9.821747,0.201963,2.539347,1.002005,1.527025,-0.696364,0.979947,0.852257,-1.142429,1.529323,-0.262798,1.164715,-0.536867,-0.311241,-0.133535,-0.271888,-0.579903,0.340872,0.067739,1.860136,0.222028,0.433627,-1.428295,-0.433347,-0.129681,1.766919,1.447995,-0.742399,2.279905,1.694849,-0.940877,0.191778,-0.094499,-0.607335,-0.435287,-0.190617,0.324109,-0.472991,-0.516881,0.957689,1.033085,-0.438288,-0.483934,-0.523711,0.056674,1.506947,1.365608,-0.879062,-0.671433,-0.413401,1.028587,-0.400176,-0.788683,-0.179096,-0.538276,2.183398,1.418542,1.542963,-0.318055,-0.679457,1.124673,-0.476250,-0.116008,-0.179844,-0.562322,-0.825277,-0.703538,-0.035590,-0.069641,-0.288360,-0.448360,-1.951823,-0.292547,0.775681,-0.359911,-0.525059,-1.124994,1.178568,-0.600451,1.332869,0.694242,-0.753469,-0.056430,-0.359291,0.968588,-0.459819,-0.562106,-0.565095,-0.026618,1.190217,-0.864965,0.396339,-0.109992,-0.017798,0.182433,-0.446560,-0.932580,-0.599579,-0.116668,-0.412270,0.753220,0.660133,-0.592214,-0.349062,1.472773,0.304618,0.020108,1.755051,-0.810853,-0.303539,-0.465313,-0.775385,1.067236,-0.778012,1.628615,-0.252418,0.142552,0.039411,-0.433987,0.245488,-0.988028,-1.129444,0.116197,0.342285,0.327229,-1.241057,-0.241862,-0.443270,0.666899,-1.011158,-0.868334,0.783869,-0.048603,-0.256203,-0.362854,-0.866403,1.304499,0.556578,-0.002083,-0.217463,-0.109220,0.682099,-1.342961,2.177325,-0.379064,-0.230925,0.203555,1.975902,-0.434907,-0.091062,-0.152406,0.968846,-0.175218,-0.569933,0.968237,-0.488266,0.813267,-0.451123,0.186294,-0.338313,1.252518,0.388867,-0.212756,-1.438712,-0.377378,0.169806,1.236027,-0.498327,0.999845,-0.262648,-0.326133,-0.416352,0.255137,1.108288,-0.826336,0.770952,0.769751,-0.650507,2.244879,1.938229,1.726011,1.627472,1.212761,-0.930937,-0.110282,0.338117,-0.511277,-0.941320,-0.393905,-1.161203,0.817684,-0.163346,1.694900,1.182942,-0.204068,0.776532,-0.112190,1.080416,0.040756,-0.328970,-0.312291,-1.129972,-0.243509,0.991529,-0.300985,1.012208,0.064449,-0.190538,1.140259,-0.435111,-0.182845,-0.049982,-0.442093,1.367254,0.267708,-0.239221,-1.228863,-0.722480,-0.367952,-0.094566,-0.980967,-0.609504,-0.391614,-0.087253,0.943963,-1.435556,0.569367,-2.174116,-1.876547,-0.827886,-0.093228,-1.537693,1.156433,-0.572553,-0.575099,-0.571657,-0.160140,-0.368472,-0.747445,1.142549,-0.282545,-0.955952,-0.370199,0.594480,-0.562215,-0.382082,1.112672,-0.293408,0.570123,-0.362905,-0.466318,-0.249469,-0.310495,-0.736752,-0.641414,0.668006,-0.410314,-0.723777,-1.723359,-0.419166,-0.937376,-0.306566,-0.200881,-0.621759,-0.115370,-0.125646,1.273677,1.053125,0.398434,-0.649764,-0.342872,-0.807297,-0.250144,-0.500751,0.014024,-1.455889,-0.218723,-0.116601,-0.024685,-0.451051,-0.027744,-0.181002,0.124225,-0.355599,-0.049839,-0.306169,-1.369725,-0.473899,0.471391,-0.137473,-0.555392,-0.194058,-0.149993,-0.336424,1.099816,0.515090,0.404911,-0.480402,0.814188,0.408359,-0.286414,0.962557,2.214694,-0.313449,0.179905,1.448318,-0.341703,-0.056943,-0.539137,-0.567068,1.324413,-0.346753,-0.212701,-0.486175,-0.185581,1.984312,1.666977,0.696544,1.520773,0.671768,0.253218,-0.329858,0.351216,-1.106294,-0.168310,-1.146811,-0.470468,-0.398333,-0.949021,-0.173173,0.577423,1.285219,0.758462,-0.289250,-0.233881,-0.883919,0.295913,0.851582,-0.726225,-1.510971,-1.547140,-0.285675,-0.405842,0.301282,-1.129810,-0.027212,-0.662469,-0.228743,-0.530622,1.237818,0.884157,-0.717761,-0.521338,-1.287304,-0.121598,0.153072,-0.437553,0.086512,-1.513895,1.271812,-0.357188,0.346207,2.346915,-0.341768,-0.591162,1.770752,-0.143865,-0.289676,1.788878,-0.394470,-0.866545,-1.059706,0.562162,0.870258,-0.644211,1.368307,1.251897,-0.987469,-1.227775,0.462995,0.674288,0.101712,-0.015715,-0.581384,0.057515,-0.541850,-1.097591,-0.023238,1.055650,-0.309940,-0.420023,1.181043,-0.451786,1.312179,-0.196570,-0.218245,0.111572,-0.104088,-0.867644,1.259948,-0.471505,-0.318794,-0.529781,-0.108092,-0.878350,-0.397763,1.114789,-0.087192,-0.261610,1.558787,-0.438000,0.733841,-0.333817,2.150838,0.076922,-0.475363,-0.070955,-0.419855,-1.002379,0.368757,-0.391319,-0.798009,1.463833,-0.294693,-0.295801,-0.594242,1.506317,0.123138,-1.719103,1.129869,0.307343,2.211859,-0.041852,0.130952,-0.227888,0.559942,1.964210,-0.378355,-0.215878,-1.164065,0.298216,-1.343007,-0.743250,-0.127301,-0.161233,-1.234123,-0.201237,0.436637,-0.384231,-0.252364,0.582737,-0.482460,-0.394036,1.109975,-0.606340,-0.972452,-0.215009,0.840415,-0.275098,-0.615313,-0.243258,0.781941,1.072774,-0.669320,-0.523883,-0.396303,-0.342673,-0.364997,-0.262671,0.036279,-0.407128,-0.739147,-0.261921,0.608557,-0.329742,-0.611393,-0.106960,-0.477600,0.779840,-0.258751,-0.787946,1.016212,0.740003,-0.321807,-0.173814,0.213890,-0.466551,-0.370972,-1.424898,2.368822,1.298310,3.179592,-0.166106,-0.436698,0.087456,-1.486373,-0.608052,-0.425608,0.766180,0.187545,0.807841,-0.502460,0.358003,1.978588,-0.260876,-0.211501,2.319652,-0.591219,0.498336,-0.209313,-0.403572,-0.292574,-1.161040,-0.420577,0.092553,0.165858,1.644251,-0.871255,1.014777,-0.057525,1.606200,-0.394178,-0.576004,0.717996,-0.097583,-0.301098,-0.600407,1.038779,1.310559,0.041958,-0.581972,-0.260996,-0.351115,-0.915382,-0.355974,-0.703670,-0.356537,-3.333817,0.298477,0.332498,-0.433015,1.074724,0.473439,1.412146,2.399960,1.877110,-1.271349,-0.275486,-0.655140,-0.216395,-0.074857,0.592183,2.235836,-0.720117,-0.184587,0.481455,-0.418442,-0.314668,-0.542287,0.464734,-0.090458,1.280733,-0.375456,-0.301477,-1.014011,1.350088,-0.466554,-0.373319,-0.788136,-1.137654,-0.454310,0.957668,0.685769,2.824507,-0.801828,-0.517716,-0.072748,-0.235624,0.951090,0.292776,-0.506056,-0.667060,-1.274949,0.468927,-0.339432,2.657609,1.096948}
    },
    {
      {0.187845,-0.720975,-0.323141,-0.384138,0.025984,-0.666055,0.028773,0.267637,-0.276239,-0.501358,-0.093072,0.076052,-0.176450,-0.333606,-0.166803,0.398180,-0.309065,-0.244460,0.301498,-0.510525,-0.549556,1.503712,0.169760,0.510532,0.681561,-0.349135,-0.753516,-0.421427,-0.460078,0.699867,0.656841,0.674674,-0.476380,-0.613027,-0.123090,-0.514908,0.612037,-0.275180,-0.121213,0.432021,-0.386226,0.126517,-0.147792,0.406736,0.972807,-0.275382,-0.041300,0.489081,0.504432,-0.331026,-0.183517,-0.383621,-0.184772,-0.977317,-0.763347,-0.628763,0.343150,0.794947,0.351728,0.211441,0.090968,-0.277838,0.103569,-0.004074,-0.352565,0.701064,-0.416668,-0.446652,-0.793132,0.362845,-0.080411,0.816928,0.064757,-0.222636,0.275300,-0.805072,-0.931005,1.179826,-0.279517,0.029258,0.411173,-0.194196,0.051098,-0.470918,-0.324769,0.503298,-0.859128,-0.626045,0.708856,-0.418402,-0.165971,-0.168478,-0.170760,-0.460117,-0.621233,0.374519,0.505238,-0.635460,-0.051970,-0.348131,-0.880585,0.310718,-0.049753,0.993545,-0.077910,-0.168234,-0.567412,-0.575540,-0.153040,-0.723090,-0.374303,-0.543836,0.183552,0.543335,-0.442919,-0.493001,-0.816231,-0.774668,-0.571005,-0.689330,-0.243150,0.558136,0.302453,-0.276021,-0.329957,0.074388,-0.291880,-0.723832,-0.164044,-0.146925,-0.674823,0.748429,-1.567115,0.598295,-0.434394,0.540635,0.742847,0.175678,-0.277096,-0.712561,0.169129,-0.554689,0.391536,0.161886,-0.374988,0.296910,0.650221,-0.471800,-0.437086,-0.819478,-0.402434,-0.588791,-0.488715,-0.468376,-0.244556,-0.331866,0.644076,-0.234101,0.057814,0.261080,-0.465094,0.156278,-0.830344,-0.334118,-0.387454,-0.618851,-0.629550,-0.211275,0.659299,0.137934,-0.628174,0.492450,-0.323870,0.608899,-0.782411,-0.196408,0.161305,-0.248278,-0.353518,-0.294137,-0.364923,-0.443171,-0.434436,0.666475,0.400473,0.692548,0.135915,0.731944,0.175320,-0.431721,-0.674798,-0.580153,-0.665633,-0.091939,-0.344811,-0.358688,-0.901124,0.289513,1.701126,0.973862,-0.360059,1.162840,-0.668384,0.049977,-0.878576,1.794347,0.884864,0.329795,0.337699,0.958737,0.070259,-0.154154,-0.856570,-0.252254,-0.696506,0.155298,-0.506326,-1.142394,0.761354,-0.555234,-0.741378,-0.919321,-0.666572,-0.178187,0.241154,-0.201880,-0.935525,-0.564459,-0.672008,0.732362,-0.467602,-0.959016,0.386650,-0.763101,-0.337166,0.654672,-0.244271,0.420985,-0.007946,0.495193,0.913419,-0.739769,-0.228982,0.419169,0.086751,0.724930,0.637064,0.378264,-0.714328,0.352006,0.652497,-1.526545,-0.096630,-0.401678,0.406198,0.949699,-0.491300,0.233213,-0.643186,-2.102185,0.404847,0.193907,-0.928544,-0.717874,-0.723907,-0.911210,0.129596,-0.385839,-0.784725,-0.281810,-0.404743,-0.339861,-0.053880,-0.167444,-0.570429,0.441853,0.029220,0.538621,2.860662,0.309938,1.697888,-0.546990,-0.484221,-0.340430,0.161900,0.060799,0.281441,-0.389751,-0.275452,-0.505201,-0.430027,1.108874,1.721513,-0.411039,-0.522175,0.491077,0.327064,-0.286875,-0.405306,0.063113,-0.257320,0.099021,-0.306643,1.356249,-0.513987,0.405815,-0.080529,-0.181499,-0.334329,0.412071,0.239885,-0.578553,0.375330,0.212914,1.151921,-0.404417,0.125020,-0.552720,-0.476833,-0.607347,-0.679747,-0.052412,-0.344767,-0.453302,-0.708418,0.434678,0.560043,0.201867,-0.678359,0.361691,-0.013649,0.186120,0.688014,-0.374767,-0.626742,-0.262703,0.071891,0.266171,-0.477272,-0.382613,-1.009173,0.312658,0.116263,0.435439,-0.367283,-0.165682,-0.242600,1.016862,0.748370,0.577821,-0.617558,-0.160745,0.025864,-0.285789,1.332421,-0.244521,0.444089,0.567458,-0.095507,0.432030,-0.570388,1.068874,0.463937,-0.513057,0.001776,-0.428496,-0.278748,-0.688136,-0.079701,0.215760,1.363297,-0.079530,0.730066,2.321084,0.122226,-4.597785,0.182359,0.241384,-0.480031,-0.059532,0.444153,-0.605488,0.609874,-0.172435,0.500114,-0.502481,-0.117884,-0.632085,-0.106934,-0.281366,0.119288,0.184680,0.272031,1.891495,0.904790,-0.741587,0.664573,-0.220986,0.780055,0.701143,0.564999,0.253140,0.335861,-0.954638,0.634778,0.507620,-0.419133,-0.381728,-0.415658,-0.003101,-0.259014,-0.531245,0.712094,-0.106606,-0.573110,-0.623011,-0.137174,0.569747,0.401588,0.701996,-0.516855,-0.695358,-0.265611,1.156490,-0.300390,-0.498888,-0.293727,-0.481710,0.733140,0.313769,0.636330,-0.699296,-0.391182,0.620973,-0.552751,-0.389729,-0.539225,-0.394381,-0.462888,-0.498772,-0.534065,-0.652596,-0.366468,-0.325540,-5.159255,-0.615377,0.640711,-0.002006,-0.576522,-0.945430,0.771378,-0.889104,0.783906,0.324172,-0.914145,-0.145291,-0.542796,1.879496,-0.581587,-0.315617,-0.296900,-0.357595,0.653010,-1.261397,0.459681,-0.579046,-0.298680,-0.098177,-0.411570,-0.774113,-0.056015,-0.534429,0.171723,-0.129749,0.356015,-0.775422,-0.298524,0.833271,-0.927294,-0.617563,0.454248,-0.641451,-0.430020,-0.654476,-0.956960,0.969689,0.506679,0.604845,-0.563526,0.503396,-0.633418,-0.180178,0.212042,-0.546659,-0.643140,0.103354,-0.085862,0.160009,-0.365833,-0.476013,-0.731813,0.891162,-0.543321,0.426925,0.689710,-0.267781,-0.118815,-0.402326,-0.254427,0.578677,0.320084,0.430701,0.856918,-1.206278,-0.098637,-1.092908,0.655563,-0.562290,0.581574,-0.184427,0.521847,-0.259619,-0.076476,0.104887,0.295246,-0.332996,-0.034821,0.741246,-0.755112,1.067961,-0.540339,1.059031,-0.251917,1.049791,0.158195,-0.780069,-1.256801,-0.323986,-0.223327,0.610774,-0.216153,0.315224,-0.576948,-0.258548,-0.356572,0.312350,-0.646642,-0.160187,-0.550041,0.204809,-0.324802,0.791475,1.138136,-0.809426,2.361149,0.755169,-0.007405,0.397793,0.116635,-0.301741,-0.818037,-0.286860,-0.805475,0.580831,0.480620,1.313145,-0.042580,-0.592303,0.084930,-0.354897,0.594570,-0.155619,-0.463644,-0.329709,-0.465903,-0.333949,0.422761,-0.585710,1.652104,0.922040,0.047019,1.215056,-0.427444,0.448741,-0.317731,-0.313841,-0.881703,0.118926,-0.250660,0.051562,-0.609190,-1.008193,-0.185403,-1.174706,-0.212516,-0.420244,-0.121612,0.170021,0.160823,0.506203,-2.636471,-0.623374,-0.597373,0.536828,0.162329,2.888240,-0.720665,-0.374773,0.391982,-0.382444,0.691684,-0.137453,0.377051,-0.566336,-0.853972,-0.308751,-0.184112,0.024647,-0.336537,1.013234,-0.429596,0.060507,-0.244882,-0.564261,0.704788,-0.514040,-0.471973,-0.440551,1.058678,-0.313928,-0.324899,-0.971111,-0.204047,-0.382955,-0.363123,-0.328851,-0.552249,1.001442,0.513667,1.066826,0.697169,0.534205,-0.387018,-0.631798,-0.802046,-0.293039,-0.935212,-0.560857,-0.788582,-0.414846,0.164743,0.178435,-0.525992,0.646111,0.402561,0.170127,-0.664866,-0.356564,-0.426912,-1.214667,-0.750886,0.504390,0.680785,-1.152067,0.670145,0.458849,-0.444414,0.602061,-0.220561,0.072204,-0.792149,-2.289034,0.909255,-0.276364,0.385377,0.613840,-0.178976,0.339102,0.639412,-0.772816,-0.261925,-0.714965,-0.626297,0.322306,0.451760,0.328569,-0.240052,-0.655776,0.875716,1.394670,0.080561,1.051680,0.525999,0.607322,-0.379503,0.483574,-0.562754,0.241177,-0.375726,-0.454633,2.268188,-0.944336,-0.507451,0.179655,-0.618573,0.014016,-0.355279,-0.592793,-0.594800,0.381672,-0.793600,-0.478348,-0.700840,-0.979874,-0.806599,-1.254545,-0.545828,-0.419386,0.488737,-0.547399,-0.473441,0.498496,0.576170,1.092665,-0.250863,-0.910577,-0.972864,0.531201,-0.477435,-0.666082,-0.719738,-0.704588,0.407699,-0.347643,-0.105450,-0.083135,-0.262282,-0.257094,0.391352,-0.260268,-0.138357,0.491951,-0.098562,-0.484185,-0.159202,0.285407,0.588473,-0.635526,0.341947,0.636981,-0.022123,-0.765948,0.927646,0.042699,-0.904172,-0.045566,0.007221,0.497255,-0.687867,-0.756523,-0.151407,0.527041,0.730824,0.599609,0.533657,-0.049931,0.509882,0.610180,-0.779251,-0.413361,-0.651201,0.754280,0.641203,-0.367305,-0.352963,-0.590392,-0.444413,-0.733471,-0.414638,0.656576,1.552904,-0.370290,1.282309,-0.436617,0.090759,-0.403308,-0.751119,-0.536305,-0.506808,0.326380,-0.149001,-0.676795,0.236430,-0.524396,-0.406990,0.822467,-0.636114,-0.277071,0.026098,0.533821,-0.117743,-0.026128,0.548591,-0.119788,1.038030,-0.596598,-0.075239,-0.948737,0.556126,0.295573,-0.228357,-0.484483,-0.598143,-0.764292,-0.679753,-0.212031,0.825104,-0.049320,-0.744021,-0.182134,0.138441,0.025791,-0.082960,0.144857,-0.330128,-0.264832,0.623462,0.490611,-0.243060,-0.194966,0.766278,-0.466982,-0.119099,-0.035997,0.218403,0.070822,0.710001,-0.251531,-0.212072,-0.053763,0.624718,-0.577994,-0.695307,-0.358084,-0.895215,0.779833,0.366423,-0.561056,-0.161807,0.132276,-0.825994,0.925787,-0.666341,-0.337212,0.336319,0.331233,-0.215519,0.932928,0.563314,-0.417956,-0.624566,0.524651,0.868675,-0.412113,1.503831,-0.515088,-0.272072,0.270400,-0.503107,-0.386200,-0.720809,-0.335413,0.995891,1.318149,-0.333701,-0.406806,1.927070,0.334694,-0.358478,1.493684,-0.716756,0.555070,0.610945,0.926130,-0.293253,-0.938080,-0.349138,0.613617,-1.641657,0.975580,-0.311802,0.702427,-0.055052,1.103051,-0.696081,-0.564204,0.053015,-0.546077,-0.343629,-0.532896,0.880749,0.456623,0.301926,-0.526928,0.785824,-0.361679,-0.919993,-0.586511,-0.042797,-0.424768,-3.063369,-0.030132,0.336213,0.242612,0.584848,0.228945,0.660809,1.132732,1.178683,-0.590929,-0.818926,-0.433394,0.578525,-0.296131,0.819735,0.489340,-0.878706,-0.018188,-0.688344,-0.531468,-0.510594,-0.362539,-0.456070,-0.543239,0.562245,-0.404331,-0.501686,-0.500177,0.513935,-0.439659,-0.213089,0.409507,-0.131259,-0.377080,-0.279626,0.289116,0.177616,0.044292,-0.283900,0.898841,0.188108,0.216000,-0.409103,-0.573377,-0.458030,-0.333499,0.142074,-0.180318,-2.391756,0.422450}
    }
  },
  {
    {
      {0.298433,-0.269731,-1.027084,-0.599427,0.174302,-0.520207,1.779349,0.858876,-0.299621,-0.161829,-0.414260,1.945138,0.378959,-0.191316,-0.142327,-0.318314,-0.126341,-0.541414,-1.133295,-0.291939,1.515564,0.260164,-0.367277,-0.791907,0.727576,-0.356607,-0.220171,-0.471060,-0.586570,1.026777,-0.868231,-0.049422,-1.012793,-0.387757,-0.417032,-0.014879,0.191833,-0.174280,-0.535131,-1.251989,-0.729506,0.237473,1.139628,-0.559795,-0.436362,-0.555558,-0.115373,0.000883,0.267128,-0.611561,-0.301235,-0.472000,0.186416,-0.534541,1.274342,1.594896,-0.216806,-1.075499,-0.454628,0.571939,0.559118,-0.480036,0.039660,-0.993572,-0.045546,-0.124589,1.404492,-0.319255,-0.650872,-0.826265,0.473032,-0.650833,0.058674,0.494188,0.243576,0.067488,-0.823816,0.942992,-0.043503,0.476125,0.003329,-0.311492,-0.161181,-0.086627,-0.288023,0.595386,0.548016,-0.271262,0.835973,-1.230507,-0.231006,-0.170763,1.906828,-0.021010,0.421759,0.439429,0.010276,-0.133052,0.809716,-0.418794,-0.998540,-1.329622,-0.565916,0.753635,-0.688443,0.533695,1.955334,-0.327441,1.665839,0.453903,-0.203057,-0.323985,0.346231,-1.004175,0.770974,-0.139454,1.779427,0.134557,-0.424025,-0.901225,-0.466998,0.128455,0.741286,0.025874,-0.081225,-0.492388,1.549394,-0.379813,0.367415,0.398687,-0.759715,-0.028833,-0.389193,0.697077,1.225196,0.108880,1.210482,0.446395,-0.160360,-0.474342,0.809735,-0.104519,-1.179857,0.774182,-0.369843,0.557989,-0.899033,-0.182446,-0.408154,0.483936,-1.094956,0.863639,1.762663,1.090907,-0.523827,-0.151442,-1.237731,1.482081,-0.642848,0.151382,0.390748,0.356045,-0.370914,-0.328076,-0.258865,-0.028394,-0.538262,-0.557088,-1.505830,0.440535,-0.368458,-0.507819,1.033601,-0.084688,-0.416617,0.667780,0.562785,-0.144613,-0.516718,-0.237962,0.559904,-0.609764,-0.487608,-0.669687,0.114367,-0.098550,1.032038,-0.426952,1.045500,-0.367828,0.394542,0.360136,1.230949,-0.343600,-0.210814,1.227496,-0.524367,0.568436,0.166941,0.855642,-0.384840,0.454605,-0.349324,0.504741,1.415749,1.096135,0.430122,1.339089,-0.174508,0.898543,0.697491,-0.282974,0.126120,-0.116959,0.618731,0.431354,-0.674624,0.993110,-0.450790,0.597322,-0.237499,-0.407367,-0.595733,-0.331442,-0.961868,-0.243357,0.056615,-0.138362,-0.325413,-0.099996,-0.693912,-0.653808,0.208531,-0.199610,1.336114,-0.802947,1.014929,2.214117,1.107633,1.227081,-0.007561,-0.437216,-0.594862,-0.797559,0.836749,0.014737,0.032159,0.360826,1.276476,0.647143,1.271838,-0.300925,-0.391473,-0.636079,0.659483,-0.544561,-0.488230,0.083688,0.190985,1.569914,0.211407,-0.728949,-0.666711,0.567546,-0.046709,0.024162,0.042399,-0.206371,-0.281910,-0.230129,-0.065265,0.024269,1.796289,1.466628,1.458208,-1.073442,0.878504,0.332635,-2.523620,-0.072932,1.974974,-0.281922,-0.035439,-0.236651,-0.199407,1.022011,0.437112,1.003672,-0.337329,-0.162191,-0.170494,-1.256489,-0.469380,-0.185114,0.989142,1.129585,-1.165254,-0.479454,-0.609868,0.376204,-0.269732,1.140880,-0.547036,-0.511595,-0.352183,-0.752560,-0.296818,2.443022,-0.309546,0.526151,0.971962,-0.208972,1.050924,0.436857,-0.637638,-0.277168,0.472773,1.515285,-0.293534,1.390230,-0.155283,0.651035,1.363746,0.847052,-0.413469,-0.407559,-0.950228,0.143930,-0.552211,1.253447,1.643181,0.338527,-0.823264,0.104119,-0.411565,-0.553797,1.398660,0.370963,-0.210431,-0.173528,3.101228,-0.182983,0.010261,-1.341041,-0.138311,-0.520301,0.361099,0.330386,-0.129491,-0.837025,-0.124221,-0.432554,-0.508581,-0.293340,1.309394,0.708398,0.106576,-0.226735,-0.842415,-1.278553,-0.511491,1.220716,1.021965,0.201177,0.495238,-1.091941,-0.362931,-0.371538,2.132760,0.292920,-1.179842,-0.303539,-0.118678,3.153814,0.136118,0.108580,-0.937082,-2.206517,-0.669502,0.902136,-0.497300,-0.197439,-0.634836,-0.238353,1.094200,1.543318,0.691484,0.200988,-0.220345,-0.144014,0.304507,-1.185451,0.992925,-0.585739,1.162752,0.008793,-1.390626,1.517363,-0.955055,-0.370326,-0.809658,-0.093396,-0.436306,-1.240583,0.587118,0.493477,-0.396156,1.797395,-0.241893,0.324490,-0.276165,-0.201572,0.399691,0.848701,-0.439074,0.954247,1.331262,0.145641,-0.201617,-1.307215,-0.181826,-0.364917,-0.562919,0.498378,-0.269862,1.131700,-0.368784,-0.268712,-0.932935,0.757735,-0.125278,-0.022376,0.400760,-0.084979,-0.280840,-0.413185,-0.320880,-0.155895,-0.179930,-0.292147,1.286930,-0.418317,1.797620,-0.485585,8.116779,-0.264817,0.664002,-0.151488,-0.510103,-0.535316,0.301112,-0.298846,0.042662,-0.163941,1.112060,1.110500,-0.422100,0.895731,-0.246600,-0.332981,-0.509822,1.365581,-0.445402,-0.379300,0.820209,0.766266,1.286836,0.537633,-0.235825,-0.329530,-0.158325,0.910746,-0.329626,0.600958,-0.479455,1.165312,-0.349471,1.189448,0.133857,1.393831,0.606330,0.136440,-0.297011,-0.493462,-0.370185,-0.776577,-0.705731,0.570659,-0.198258,0.112215,0.914361,-0.252073,0.030986,0.000989,-0.394454,0.109385,0.306271,0.667046,-0.116382,-0.404159,-0.167929,-0.260687,0.796317,-1.259376,0.111491,1.530259,-0.182649,-0.315182,0.210626,-0.441959,0.202976,-1.153862,-1.024958,-1.909063,-1.043499,-0.415713,-1.382087,-0.238864,-1.160821,1.359734,-0.685280,-0.342223,-0.100816,0.148137,-0.128534,1.406188,-0.384426,0.571516,-0.656677,0.241652,1.243741,-0.711087,-0.216074,-0.553714,0.269748,-0.268462,-1.369413,-0.482128,-0.014619,-0.144720,-0.498895,0.338183,-0.373319,-0.302113,-0.327890,0.200597,-0.417907,0.115266,-0.479110,0.204170,-0.363798,-0.205146,-0.117425,1.708979,0.330460,-0.083311,1.302943,-0.729207,0.247701,-0.579945,1.608398,-0.331367,-0.049974,0.202093,-1.073158,0.954888,0.534331,-0.074024,-1.731383,0.806005,-0.272619,-0.702316,-0.806127,-0.528081,-0.314380,-0.351264,0.427399,-0.311840,1.040804,-1.119919,0.135043,-0.321322,-0.088459,-0.916485,-0.552369,-0.593030,0.589161,0.272753,-0.400177,-0.706521,-0.398905,-0.396949,-0.434140,-0.860987,-0.297307,-0.387573,-0.429175,0.431870,-1.169495,-0.207822,-1.879921,0.442200,-0.273818,-0.812854,2.565970,1.305012,-0.504312,0.070470,-1.261401,-0.227958,-0.814627,-0.319094,-0.146633,-0.122554,0.091448,-0.185797,0.354224,0.872382,-0.334965,-0.139483,0.966708,0.584857,-0.288825,-0.412264,-0.937073,-0.495357,-0.494203,-0.300029,-0.531373,-0.441205,-0.208222,0.167039,-0.387424,-0.016527,1.054608,1.389637,-0.130939,-0.941660,0.278208,0.822389,-0.394211,0.140574,-0.408926,-0.503646,0.089795,-0.096377,-0.892764,1.756372,0.388214,-0.215014,0.139543,-0.020452,-0.531040,-0.269271,-1.101015,0.160879,1.050827,0.888472,1.155433,-1.171022,0.095131,0.669995,-1.357266,-0.101530,-1.101534,0.148118,-0.177507,0.459143,0.452750,0.505219,-0.590758,-0.018595,0.446864,1.531195,0.031443,-0.887416,-0.403146,-1.050800,1.473226,-0.211495,-0.496788,-0.419340,1.798583,0.167250,-0.952710,-1.160025,-0.724953,-0.173181,0.417005,-0.130297,0.279712,-0.663747,0.802634,0.375388,-0.365052,0.474205,0.021195,0.013070,-0.059248,-0.610220,-0.377512,0.496636,-0.059392,0.745474,1.824127,0.838374,-0.419510,1.176327,0.102093,1.682770,0.176973,-0.420530,-0.342061,-1.095493,-0.747329,1.114504,-0.569016,0.549109,-0.844577,-0.699729,-0.548784,-1.151749,1.104372,0.757297,-0.402521,-0.138198,1.307732,-0.768561,0.476556,-0.350477,0.816793,-0.269165,0.005220,-0.262801,0.364049,-0.305218,-0.478618,-0.421337,0.140164,-0.420871,-0.555102,-0.170382,-0.565777,0.051159,0.121377,0.449165,-0.895787,-0.672769,0.307351,0.018496,0.536003,-0.082175,-0.071087,0.547038,1.467751,-0.026390,0.311514,-0.006018,-0.398665,0.890698,1.637302,0.140325,-0.883942,-1.490939,-0.660510,1.333850,1.339172,-1.390709,-0.444500,-0.231906,0.987476,1.522437,-0.527919,-0.191430,-0.293301,-0.644181,0.797326,0.762921,1.446831,-0.761277,-0.459917,-0.391127,-0.492140,-0.169948,0.276868,1.405646,3.263641,1.210280,-0.180342,-1.042098,-0.372208,0.073142,0.009753,-0.218701,-0.440592,0.264539,-0.329062,-0.224597,0.995564,-0.161250,2.099481,0.691667,-0.070728,0.247197,-0.813738,-0.419290,1.647607,0.171507,0.727044,-1.329036,-0.413891,0.933331,0.142674,1.162903,0.386370,-0.706198,-0.943266,-0.064356,-1.585933,-0.463210,0.586326,-0.262529,-0.377778,0.614648,-0.208879,-0.573298,0.042119,-0.730737,0.249256,-0.501236,-1.840570,-0.390472,-0.611854,-0.338193,0.774182,0.378693,-0.809944,-0.436792,-0.317699,-0.717768,-0.731130,-0.300869,1.297990,-0.347692,0.261313,0.022059,0.009416,-0.319383,1.745416,0.309149,0.679662,0.024495,-0.271309,-0.426643,-0.057200,0.981103,-0.367484,-0.533598,-1.077445,-0.617092,-0.623115,-0.135088,-2.553845,1.306224,-1.578774,-0.276366,-0.277028,0.192059,0.678307,-0.444904,-0.253591,-1.091541,0.803512,0.560618,-0.250510,-0.078130,1.518375,-0.951534,-0.150146,2.311629,-0.609844,0.327825,-1.560886,-1.082231,1.082388,-0.371622,-0.261090,-1.315973,1.175099,-0.395097,0.779762,-0.237733,-0.454989,-0.333960,-0.539314,-0.401299,0.357289,-0.050664,-0.523274,-0.710206,0.344096,0.190487,-0.932617,-0.412678,0.627790,-0.937155,0.152019,-0.675818,-0.786343,-0.489561,0.656123,-0.753951,0.522532,1.694302,0.252751,0.669046,0.573348,0.397295,0.109011,-0.166231,-0.474830,-0.669530,-0.586042,-0.132965,0.269704,-0.270368,-0.370828,0.148736,0.725743,-0.194580,1.627049,-0.523189,-0.522846,-0.363329,0.201014,-0.319020,-0.114476,0.092615,-0.444269,0.077246,-0.141664,0.884113,-2.005611,-0.623518,0.828335,0.810232,-0.736769,1.226457,-0.348252,-0.238742,0.562717,0.283894,-0.316014,-0.312673,-0.240123,-0.100123,0.171599,-0.425436,-0.053361,-0.164419}
    },
    {
      {2.387415,1.719250,-2.359147,-0.284587,2.122225,-0.157048,0.371599,-1.613961,-0.184306,-0.326915,-0.755184,2.763096,0.804303,-0.683526,-1.086194,0.633803,-0.132353,0.371962,-0.330652,-0.096366,-0.256155,-1.839659,-0.658382,-0.548027,-1.706699,1.850613,0.253105,-0.000274,0.306966,0.953887,-0.233782,0.206012,1.103762,0.411210,-0.054314,0.104861,0.178082,0.590461,-1.399358,-0.302403,-0.181720,1.280916,0.964616,1.466020,-0.618438,-0.044173,0.018116,2.098096,2.527049,0.713448,-0.213642,-0.101339,1.831059,1.401691,-0.260551,0.184851,-3.501349,-0.323603,0.287075,0.092866,0.577641,-0.390347,0.980892,-0.570380,-0.611784,-1.059061,0.075170,-0.255881,-0.015339,-0.919808,-1.625258,-1.116947,-1.068694,2.572978,-0.259126,3.573260,-0.430537,-1.964170,0.051977,1.360137,-0.293984,-0.355546,-0.364450,-0.202123,0.013261,0.097611,0.660510,-0.326413,-0.589879,-1.692693,-0.321584,-0.313058,5.162714,-0.113106,1.027108,1.153417,-0.370396,3.315363,0.512742,-0.005665,0.913922,-0.349242,1.301940,-1.983553,-0.742838,2.325830,-0.246307,-0.050103,-0.428297,2.069463,0.021597,-0.558321,2.413269,-0.310861,3.794375,0.313224,-0.723215,0.333281,3.155588,-0.184700,-0.235078,0.314029,0.418341,-0.272839,-0.954125,-0.300858,-0.467984,-0.176409,1.045334,2.310318,1.186629,0.438475,2.552710,1.701802,-0.333949,-0.010187,-0.478636,1.648424,-0.539815,1.526749,-0.760788,0.397011,-0.162152,0.479793,-1.231426,-0.954178,-0.887514,-0.273382,-0.167670,0.222203,0.527697,-1.838614,-0.386573,-0.173890,-0.240445,-0.688067,-0.465855,-0.927885,1.422170,0.798447,-0.934681,1.171959,1.493839,-0.201576,-0.116394,-0.359543,-0.197949,-0.131014,-0.195448,1.678881,-0.104313,-0.214798,-0.276609,0.207133,0.892273,2.507199,1.915089,-0.795623,-0.317775,0.059935,-0.720456,0.116138,-0.316271,-0.436057,0.282677,-1.131239,0.322335,-0.779080,-1.114951,-0.084497,1.206557,1.094178,-0.842614,-0.315766,-0.283017,-0.093483,-0.515250,0.450208,1.475525,1.109317,-0.392481,-1.169364,0.020540,-1.400200,-0.077772,0.016906,1.955696,-0.452205,-1.388490,-0.652961,1.526174,-1.416722,-0.107012,-0.147994,-0.450656,1.966090,-0.053084,0.287720,-0.481122,0.948297,-0.791350,1.446593,0.077398,-0.009116,-0.237783,-0.324454,2.007915,0.741063,1.022192,-0.563888,0.901034,-0.176911,0.050194,-0.268987,-0.558193,-1.161118,4.645667,0.618974,0.187105,1.416409,-0.433982,2.200851,-0.482839,-0.427353,-0.694890,-1.235748,-2.322714,-1.502334,-0.402906,0.140508,0.072325,1.226609,-0.255745,-1.271329,-2.336490,-0.767381,-0.350385,0.916827,-0.234787,2.883386,1.833855,-0.015824,0.164512,-0.701512,0.176222,2.666294,2.064643,0.013231,-0.193912,-0.207919,-0.467827,-0.159881,-0.702823,-0.105880,-0.718614,-0.086694,-0.836492,2.197544,-0.916419,0.610105,-0.479060,0.313988,0.453037,-0.141410,-1.046896,0.929770,1.777172,0.079271,-0.279298,-0.109348,-0.177966,-1.013882,-2.155767,0.111959,-0.482094,0.932774,-0.334821,-0.547362,-0.272419,1.225957,-0.146930,0.278121,-0.545450,-0.565826,0.120453,-0.792328,-0.440474,-0.765123,-0.286033,-2.003403,0.173797,-0.209133,-2.738081,1.191622,-0.322665,0.040318,-1.057258,-0.495196,-0.583648,-0.549535,-0.138966,-0.586935,-0.826140,0.078191,-0.087017,-1.038408,-0.451173,2.480620,0.804850,0.485035,-0.503482,1.602704,-0.233057,3.137619,-0.030529,0.077836,-0.399418,2.062032,-0.669966,-0.657200,-0.678980,-2.196626,0.305419,-1.121561,-0.993384,-0.130488,0.066331,-1.708426,0.770406,-0.344739,-0.053094,-0.552448,-0.584044,1.563852,-0.622775,1.817212,-0.571943,0.341266,-1.173061,-0.084448,0.000686,-0.667451,-1.222049,1.050585,0.888432,-0.746363,-0.854782,-0.503697,-1.675154,1.581812,-0.892487,0.479862,-0.101806,1.642649,1.986404,2.618230,1.849255,0.382354,-0.238920,0.271739,-0.274114,0.546917,-0.549096,-0.301969,0.064391,-0.607031,5.780958,2.619717,-0.375170,0.154438,1.669743,-0.220693,1.336590,-2.604945,-0.400724,0.213387,-0.521777,-0.202221,1.062159,-0.091699,-0.805370,0.915772,-0.687917,0.635914,-0.604400,1.508598,0.013274,-0.579429,-0.279417,0.888875,0.049598,-0.306529,0.089382,0.668129,0.118459,-1.271553,-0.238431,-1.871598,-0.391715,-0.245393,-0.056747,-0.075227,-0.368338,0.927909,-0.145009,-0.205554,-0.156079,-0.266536,-1.419785,-0.263122,-1.688524,-0.058977,-1.012150,-0.312437,-0.094056,-0.679172,-0.382315,-0.524442,-0.003314,-1.301352,-0.167335,-1.251753,-0.543555,0.064241,3.181329,-0.243348,0.089032,-1.800081,-0.389597,2.598280,-1.243383,0.059243,-1.701406,0.161615,-0.537994,0.174688,-0.205959,-1.324267,-0.163489,0.056350,-0.113771,-0.243311,0.336699,0.876912,-0.330765,0.041024,-0.189466,1.011507,0.090429,0.622885,-1.194380,0.460116,-1.414940,2.164042,0.553082,-0.309828,-0.388963,-0.230407,1.388169,0.113122,0.682852,-0.306452,-0.121256,0.471694,2.311150,-0.527711,-0.674169,2.223172,-0.390875,2.144956,-0.256228,-0.196400,0.686624,0.395230,1.047522,1.344683,1.285514,0.556522,-0.688956,0.004116,0.094516,-1.487189,-1.214224,-0.322061,0.079114,-0.291310,-0.716755,0.015199,-1.134691,-0.847328,0.462069,-0.237654,-0.787920,-2.669439,0.814692,-0.535948,-0.857171,-0.080088,-0.398134,-1.989231,-1.281217,-0.187555,-0.578101,-1.202242,0.584447,-0.151575,-1.405049,1.434086,1.437687,2.970222,-1.156262,-1.693724,0.058424,-0.916605,1.262785,0.155097,0.647486,0.046222,1.842792,-0.632962,-0.291974,-0.438704,-0.299175,0.105092,-0.288851,1.927153,3.936224,-2.123893,1.556606,0.457358,0.036462,-1.019401,-2.049062,2.196393,1.804621,-0.141412,0.422507,-1.218037,0.642112,-0.675209,0.060320,-0.256357,-0.764267,0.903522,-1.002781,-1.789070,3.932284,-0.544171,0.932501,0.170303,0.726642,1.377060,0.295326,-0.072233,-0.646807,0.482907,0.768546,-0.506718,-0.862571,-1.812463,3.448601,-1.414843,-0.055489,-0.440450,0.006590,0.287260,1.001564,0.665424,-0.367133,-0.721232,-0.069732,-0.053275,-0.191859,1.317780,-0.632256,-0.122031,-0.082561,1.801213,1.414678,0.563436,0.730411,-0.071703,-0.629591,-0.072235,-2.328955,3.191288,-0.041283,-0.702942,-0.537010,-0.516383,-0.652398,-1.250519,1.456374,0.884929,-0.454914,-0.375198,2.998146,-2.347805,-0.165979,-1.551000,-0.248495,0.945152,-0.145761,0.086665,-0.469272,-0.174867,-0.018518,0.043386,-0.145837,-0.414629,-0.097418,1.099299,-0.017056,0.991254,-0.346183,-0.491847,0.136726,0.010714,2.168476,-1.511297,0.042990,-0.199739,-0.127142,-0.288557,0.142513,-0.588869,-0.936128,-1.093819,1.095558,-0.628953,1.189066,-1.834205,-0.388473,-2.073829,-0.229041,1.265320,-0.083408,-0.154859,-0.154464,1.473153,-2.772901,0.416862,0.036563,2.345660,-0.248774,1.890300,-0.090022,-0.129734,2.195932,2.044143,1.493189,-0.292196,-0.800327,-0.891387,-0.697697,4.449437,-0.291856,-0.669538,-0.448576,-0.077639,0.663495,-0.227437,-1.085315,0.507668,-0.510540,-0.216140,-0.369395,-0.360974,1.530557,-1.767765,1.364730,1.909670,1.259972,-0.870352,-0.304252,1.918191,0.382106,1.450933,0.526599,0.063083,-1.037054,-0.364616,-0.283132,1.118888,4.333630,0.600705,-0.436876,0.022362,0.621411,-0.176967,5.547753,-0.379612,1.657547,0.745517,0.153051,-0.800298,-1.572408,0.118902,-0.116630,-0.218751,-0.277542,-0.227598,-0.137895,0.830998,0.071737,-0.505935,-0.346458,-1.001863,1.285948,-0.293225,-0.035201,2.346402,0.304521,-0.245842,1.300704,0.866765,-0.533357,0.097726,-0.685497,1.311990,-0.988016,0.167718,-0.211390,0.479755,0.565951,-1.025788,0.677731,-0.330810,-0.655252,-0.140404,-0.145753,0.866632,4.123755,0.846194,1.055627,1.439535,1.576844,-1.741876,-0.182822,-1.269438,-0.567950,-0.275045,-0.634067,-1.063908,0.601186,-0.063805,-0.081221,0.227542,-0.111771,-0.669668,-0.141650,-3.000724,0.028959,-0.120517,1.170201,-0.168258,-0.182512,0.521804,0.067974,-0.042759,-1.203743,-0.182380,-1.423986,0.044893,1.941653,0.068717,1.522676,-0.021707,0.221083,-0.070940,-0.429225,-0.198726,1.494336,-0.546454,-0.105582,-2.144748,-0.199537,-0.503713,-0.113035,-0.450698,-0.494741,-0.590346,0.553584,1.027697,-1.004471,1.089310,-0.331242,-0.897993,-0.609236,2.835797,-1.072149,0.133120,0.085806,-0.097840,0.491708,0.002192,-0.350335,-0.506843,0.812292,-0.379109,1.626280,-1.782236,-0.348289,1.678238,-0.654696,-0.092300,-1.013014,-0.198384,-1.627620,0.038737,0.683410,-0.204281,-1.110494,-0.305452,0.836323,1.449876,-0.598648,-0.001003,-0.079867,-0.378756,-0.355429,-0.235192,-0.919647,-0.343997,-0.226851,-1.581873,0.727067,-0.079447,-0.969817,-0.720099,1.087330,0.350693,-0.191469,-0.140300,-0.389542,-0.954502,-0.142736,-0.699421,-0.558166,-0.006117,-0.539052,-0.441742,1.631965,0.706438,0.103661,-0.197405,-1.662669,0.995404,0.584294,-0.146739,2.475482,1.672354,-0.488973,-2.785972,0.016538,2.096773,2.984323,-1.239935,-0.019269,-5.459630,0.134486,2.121607,-0.158194,0.079758,0.022764,0.852759,-0.359983,0.342736,0.722847,-1.269799,-1.648128,1.373475,1.874309,-1.327379,1.207071,-0.488004,1.901760,-0.156768,-0.063494,-0.498798,-0.964569,-0.521789,-0.134762,-0.310940,1.160771,-0.324540,-0.454966,-0.053766,-0.585729,-0.393836,1.233093,-1.088441,-1.854080,2.262218,0.210059,1.341435,-0.069816,2.345398,-0.059456,0.274051,1.013054,-0.243820,-0.278856,-0.106296,-0.958241,1.657415,-0.121143,1.635671,0.954630,-0.367792,-0.959207,-0.510904,-1.746053,1.725993,-0.046720,-0.519693,-0.347102,-0.890395,-0.622058,-1.086407,-0.614256,1.212091,-0.174656,0.419059,2.955451,-0.137080,2.147035,-0.228798,-0.103556,-1.191801,-1.078167,0.953500,-1.519934,-0.413047,0.101113,-0.199945,1.136077,-0.521154,-1.037592,0.342784}
    },
    {
      {0.728525,0.565221,-1.106253,-0.344536,0.281774,-0.234063,-1.119729,0.900457,-0.213677,-0.302573,-0.632228,0.989844,0.465211,-0.283979,-0.333254,-0.382684,-0.434413,-0.649608,1.111460,-0.187583,-1.364060,0.016756,-0.331734,0.984656,0.608429,-0.288383,0.215458,-0.510811,-0.537784,0.804606,0.794626,0.081712,0.860404,-0.822210,-0.305706,-0.065096,0.518490,-0.172836,-0.517459,1.187899,-0.442633,0.430193,0.821568,-0.469837,-0.634162,-0.306666,-0.298682,-0.115980,0.780991,-0.702497,0.109117,-0.613532,0.516348,-0.550290,-0.744737,-1.560587,-0.234659,1.460292,-0.470324,0.875297,0.426019,-0.209613,-0.138325,0.738542,-0.534506,-0.210579,-1.265821,-0.491847,-0.665551,1.400485,0.413989,-0.799516,0.099169,2.133152,0.089958,-0.277710,-0.515680,0.962571,-0.266758,0.785363,-0.051965,-0.417238,-0.243014,-0.058214,-0.254482,0.689561,-1.289214,-0.656647,0.702267,-1.049575,-0.212858,-0.324631,1.544717,-0.097103,0.716718,0.003129,0.205499,-1.544798,0.424194,-0.547753,-0.791376,1.377752,0.179161,0.754277,-0.714904,0.721662,-1.863916,-0.092364,-1.304842,0.543808,-0.255283,-0.336159,0.196357,1.241432,0.888824,-0.218153,-0.395518,0.427197,-0.524693,-0.573535,-0.224731,0.223728,0.957510,0.028528,-0.210839,-0.653330,-1.238582,-0.517410,0.532328,0.504352,-0.530526,-0.189384,-0.148781,0.846046,-1.078815,-0.093326,0.922845,0.379965,-0.322657,-0.571194,0.381225,-0.135325,1.424266,0.980748,-0.598769,0.642806,1.704340,-0.269126,-0.139157,-0.121346,-1.044789,0.364285,0.943976,-0.948522,-0.379292,-0.320841,1.410903,-0.665525,-0.711401,0.240409,0.080264,0.362626,-0.323087,-0.209868,-0.214926,-0.234421,-0.128980,-0.606834,1.296928,0.307838,-0.290432,1.167758,-0.838766,-0.013530,-0.401943,1.279817,0.708792,-0.873629,-0.235748,-0.254927,0.583253,-0.355392,-0.526456,1.024482,0.261906,-0.135977,1.492777,-0.275031,1.322257,-0.292892,-0.105437,-1.077466,-0.593842,-0.372313,-0.154507,-0.631891,-0.632726,0.890658,1.086196,0.669959,-0.548566,2.976096,-0.333374,-0.145879,-0.983132,-1.210397,0.539233,0.337767,-0.366755,0.600801,0.901312,-0.236715,0.196263,-0.327739,0.788634,0.256959,-0.591195,-1.555327,0.983558,-1.261311,-0.395417,-0.172104,-0.300788,-0.472276,1.287877,-0.336215,0.027861,-0.173776,-0.185351,-0.095602,-0.741512,-0.320411,-0.023248,0.055350,1.043120,1.737224,1.145991,1.783354,1.335326,0.915610,-0.054195,0.067076,-0.688620,1.066643,0.843538,0.075730,-0.101162,0.294692,-0.880002,0.932505,0.875864,-0.203928,-0.463524,-0.778668,0.532290,-0.552942,-0.446001,0.172697,-0.117429,2.056959,0.055297,0.794291,-0.140542,-0.736844,-0.185056,0.244575,0.416986,-0.245340,-0.298884,-0.343569,-0.714786,-0.319276,-1.526901,-1.507222,-1.284241,1.153531,1.010217,0.666854,0.922520,-0.024823,2.643151,-0.376593,0.097753,-0.232455,-0.118586,0.542338,0.536076,-1.205160,-0.393889,-0.225672,-0.276311,-1.143657,-0.868948,-0.268529,-0.504524,0.783764,1.312908,-0.375771,-0.637185,0.468737,-0.305802,0.714809,-0.474537,1.682374,-0.306770,1.364070,-0.573741,-1.700808,0.028061,0.530656,0.856361,-0.054117,0.871641,0.344569,-0.362537,-0.342943,0.722132,-0.956218,-0.041206,1.145625,-0.180417,0.917224,0.864554,-0.907848,-0.327919,-0.258348,1.549566,0.706483,-0.509160,2.013085,-1.403880,0.771353,1.103548,0.641169,-0.308185,-0.483586,0.454684,0.474502,-0.278196,-0.485827,2.799802,-0.069163,-0.135691,1.416337,-0.055281,-0.425190,0.259392,0.284809,-0.307453,1.370728,-0.221375,-0.334830,-0.383198,-0.220736,2.134338,0.949355,-0.106396,0.076503,-0.788686,1.508768,-0.420903,1.423110,1.205202,-0.731020,0.393896,-1.031010,-0.377277,-0.229526,2.142518,1.011077,-0.885212,-0.418427,-0.229560,1.152277,0.501098,-4.591348,-0.706908,0.491320,-0.568771,0.810499,-0.679905,-0.287953,-0.581843,-0.338010,1.007053,-1.422993,-0.272628,0.740686,-0.126004,-0.250553,1.229983,1.263599,1.270157,0.770659,0.764826,0.350293,1.536103,-1.272900,1.023479,-0.096559,1.929244,-0.337421,-0.427997,0.584305,0.645770,0.510006,-0.095619,-1.463294,-0.375841,0.330459,-0.270399,-0.181729,0.679442,0.273073,-0.388511,0.732664,-0.950345,0.048917,-0.325341,-0.729886,-0.343596,-0.382363,-0.598867,1.149640,-0.163464,-1.166224,-0.568873,-0.454190,-0.694531,1.012396,0.028181,-0.043657,-0.280133,-0.253022,-0.245010,-0.185416,-0.474317,-0.283929,-0.310875,-0.249827,-1.154633,-0.584445,-1.333867,-0.366602,8.316998,-0.377349,1.145509,-0.536662,-0.547543,0.069402,0.081493,-0.104444,-0.014542,-0.030853,-1.077955,-1.080110,-0.733114,0.709212,-0.593521,-0.400923,-0.415270,-1.002894,-0.697424,-0.482965,0.735349,-0.933057,-0.959590,0.437119,-0.493433,-0.252910,-0.391893,-0.533067,-0.256427,0.541429,1.719402,-1.094849,-0.472599,0.582367,0.438245,-1.525941,0.487554,-0.021244,-0.360540,-0.246176,0.109543,-0.980320,2.031089,0.607296,-0.197196,0.381147,-0.639226,-0.235542,0.081939,0.143713,-0.266017,0.391236,0.174145,0.498518,-0.346586,-0.465638,-0.540705,-0.259137,0.374617,1.537946,-0.061623,-1.210472,-0.213394,-0.340563,-0.298164,-0.581092,-0.087248,0.923738,1.428928,-0.288827,0.443063,-1.153448,1.383670,-0.704925,1.134084,-0.851214,-0.585503,-0.774116,-0.089195,0.130780,-0.055657,-1.490981,-0.586945,0.747277,-0.575732,0.293826,-0.702901,1.029558,-0.496711,-0.395521,0.430973,-0.240381,0.599689,-0.331989,0.444951,-0.256126,-0.493746,0.417443,-0.347124,-0.384143,-0.385442,-0.007566,0.691700,0.108574,0.141797,0.310098,-0.412942,-0.057184,-0.589416,1.450613,0.433586,-0.197848,-1.654509,1.827559,0.455694,-0.571384,-1.384943,-0.496800,0.345349,0.529583,1.692320,0.220080,1.544799,-0.298175,0.969916,-1.157345,-0.103811,0.216272,-0.464357,-0.404676,-0.289652,-0.288097,0.332218,-0.214097,0.518586,1.318425,0.243625,-0.494424,-0.188182,1.358534,-0.366780,-0.541688,-1.611269,0.192502,-0.381310,-0.937327,-0.663889,-0.506830,-0.428661,0.542866,-0.373877,-0.296068,-0.230997,1.097011,1.150680,-0.290666,1.110754,0.721860,-0.879349,0.839575,2.607682,0.596481,-0.308059,-0.087810,1.948546,-0.090177,1.654941,-0.814065,-0.228166,0.303625,0.022708,-0.345785,1.191219,-0.910245,-0.419547,-0.066372,-0.904244,0.566076,-0.400885,-0.390925,1.247054,-0.269185,-0.394978,-0.161166,-0.581666,-0.467018,-0.264766,0.464273,-0.394615,-0.078027,-0.839097,-1.018179,-0.087859,1.477087,0.381905,0.443137,-0.222785,0.029386,-0.305215,-0.285230,0.115935,-0.256948,-0.834346,-0.869285,0.345795,-0.203641,0.403448,-0.005559,-0.379919,1.502669,1.003405,0.132408,-1.516672,-0.901634,-1.042232,0.206264,-0.194096,0.558560,1.396506,-0.182122,1.379985,0.015502,-0.741488,0.377306,0.207209,0.613772,-0.580833,0.535738,0.411266,-1.045784,-0.088082,0.985747,-0.659232,1.444552,1.501362,-0.302692,-0.503896,-0.375006,-0.930805,0.254334,1.442369,1.512963,-0.234257,-1.095760,0.322820,-0.118913,0.373728,0.798854,0.698965,0.439835,-0.557208,0.594527,-0.053781,0.025511,-0.000470,-0.575212,0.288938,0.349666,-0.193829,0.751089,2.464912,0.880864,-0.820335,-0.955194,0.055689,1.731880,0.594237,-0.160113,-0.060437,0.653987,-0.386667,-0.809966,-0.446619,0.368076,1.134593,-0.544094,-0.683300,1.469700,0.707315,0.610197,-0.493833,-0.253922,1.218619,1.298890,0.427480,-0.273747,-0.951245,0.343838,-0.080429,-0.275361,0.092755,-1.380576,-0.493891,-0.624493,0.097456,-0.340282,-0.512652,0.038534,-0.231733,-0.058985,0.114830,0.256670,-0.681263,-0.476242,0.199558,0.082275,0.288097,0.097825,0.557260,0.738500,0.856825,0.237560,0.070217,0.083418,-0.485232,0.953507,-0.929124,0.129136,1.186342,1.657781,-0.567081,1.079982,0.910332,0.986166,-0.248888,-0.551452,-1.447314,1.090203,-0.382518,-0.440630,-0.163064,-0.614417,-0.922894,0.838248,-1.606699,-0.531102,1.327740,-0.372090,-0.141971,-0.526808,0.529358,-1.107554,2.858167,-1.349128,-0.289507,1.050259,-0.335686,0.257107,0.405213,-0.501600,-0.614274,0.160841,-0.580812,-0.381063,-1.137155,-0.151528,-1.208382,0.623568,-0.001820,0.421082,-1.066821,-0.220432,-1.419696,-0.338156,0.694743,-0.862786,-0.270416,-0.547073,-0.015700,-1.133928,0.561408,-0.637945,1.312704,-0.077991,-1.821891,-0.149096,0.383302,-0.140148,-0.293271,0.561002,-0.565755,-0.632568,0.108493,1.145079,-0.044788,-0.339452,1.177757,-0.368637,-0.487608,-0.390696,0.767634,0.558707,1.800062,-0.489937,-0.321307,-0.409452,1.718113,-0.391913,-0.695013,-0.336892,0.436196,-0.098272,0.180945,-0.125476,-0.858370,0.141608,0.687697,-0.310379,-0.605175,-0.361832,-0.065176,0.977883,-0.816822,1.537892,1.357683,-0.429227,-0.422671,-1.297644,0.509576,1.393736,-1.846795,-0.398691,-0.294592,0.194893,-0.757420,-0.465256,-0.239784,-1.087327,1.028217,0.677001,-0.382518,0.130664,0.936626,1.565387,-0.092654,0.569893,-0.954511,0.576349,1.457623,1.134073,-1.457954,0.094622,-0.393197,0.820926,2.140866,-0.400936,1.026993,-0.108572,-0.310581,-0.555281,-0.498572,-0.720175,0.435659,-0.362918,-0.303492,-0.325995,0.412577,-0.011582,0.998315,-0.405227,0.717994,-0.665152,0.194789,-0.495557,-0.979566,-0.417031,3.014040,1.469646,0.424482,1.698813,0.242390,0.555591,0.580883,0.148881,0.863538,0.039816,-0.544652,-0.486570,1.128405,-0.384987,0.085117,-0.210446,-0.283798,0.447644,-1.169768,-0.684341,-1.136141,-0.657118,-0.688404,-0.402754,0.176512,-0.352985,-0.394693,-0.045602,-0.506499,0.204013,-0.471693,1.276110,-2.241342,-0.686962,0.757687,0.779794,-1.238479,-0.595028,-0.251072,0.066289,0.618970,0.731384,-0.074001,-0.438641,-0.262256,-0.176386,0.156222,-0.333654,1.089180,-0.020960}
    }
  },
  {
    {
      {0.184038,0.442107,1.426095,-0.494123,0.234027,-0.471981,1.002073,0.322222,-0.228726,-0.093263,-0.361963,0.220220,0.334110,-0.376374,0.739092,-0.393866,-0.097686,-0.585143,-0.443768,-0.432198,0.612768,-0.642198,-0.231781,-0.775770,0.963056,-0.412525,0.599672,-0.196095,-0.360892,0.604681,-0.396853,-0.554318,-1.331981,-0.538985,-0.437758,0.424028,-0.691047,-0.514327,-0.308155,-0.853918,-0.445723,-0.120149,0.496710,-1.047674,0.133723,-0.328020,0.408880,-0.014619,0.081986,-0.733108,-0.266890,-0.259310,0.396710,-0.148810,0.474737,0.695610,-0.234721,-0.488554,-0.613903,-0.269365,0.213742,-0.235848,-0.300607,-0.886004,-0.345633,-0.055709,0.639988,-0.270218,-0.578773,-1.052281,0.909238,-0.170917,0.512222,0.220260,-0.381183,0.117316,-0.803240,-0.867800,0.377631,-0.244542,-0.397942,-0.183942,-0.260215,-0.567393,-0.426777,0.265640,0.560211,0.909065,0.483214,0.769845,-0.221325,-0.278805,1.150113,0.341281,0.127889,-0.058200,-0.472150,-0.335174,1.031771,0.240405,0.317438,-0.682682,0.193409,-0.309666,-0.118285,0.204814,0.757287,0.493829,0.667242,-0.871837,-0.280671,-0.327210,0.834307,-0.388111,-0.002563,-0.482025,0.630183,0.348358,-0.985964,-0.861104,-0.435962,-0.574643,0.415759,-0.319194,0.355817,0.485578,0.518983,-0.411584,-0.011021,0.006874,-0.517518,-0.509309,-1.175187,-0.114773,0.588720,-0.114672,-0.292503,0.081250,-0.125884,-0.692694,1.158013,0.339951,-0.282150,0.448552,-0.118537,0.156139,-0.191064,-0.493623,-0.534826,0.523523,-0.701166,0.609936,0.805210,0.511228,-0.152156,-0.105479,-1.248476,0.723793,-1.087006,-0.225518,0.890303,0.212313,-0.323763,-0.408709,-0.591374,-0.565241,-0.629218,-0.068547,-0.885496,0.082093,0.397243,-0.625114,0.603123,-0.283714,0.143540,-0.051508,0.184893,-0.107691,-0.332375,-0.202659,1.196808,-0.556443,-0.371551,-0.583151,-0.888004,-0.139776,0.369331,-0.212529,0.280237,-0.333531,-1.390414,-0.513625,0.806241,-0.102236,-0.581309,0.187285,-0.597851,-0.156181,-1.112919,-0.510236,-0.393406,-0.458089,-0.224747,0.918380,0.587312,0.838732,0.173423,1.446330,0.872467,0.645934,0.534332,-0.051258,0.435212,-0.800223,0.599898,-0.040449,0.636620,-0.598633,-0.502790,-0.718399,-0.372869,-0.800372,-0.392735,-0.224368,-0.311241,-0.439432,-0.885927,0.212555,-0.495850,-0.367985,-0.689913,-0.150840,-0.601550,0.264363,1.222795,-0.148637,-1.122945,1.033361,-0.227564,0.180898,-0.848985,-0.630166,0.085370,-0.412895,1.324179,0.225912,0.573434,0.372573,0.717434,0.080158,0.380398,-1.490586,-0.140202,0.480226,0.709004,-0.636154,-0.191322,0.270199,1.685197,1.098283,-0.321955,-0.669077,-0.292702,0.480970,0.429974,-0.861322,-0.433505,-0.312056,0.520526,-0.165091,-0.557065,-0.345498,0.804707,0.604049,0.646176,-0.681394,0.026756,0.394744,-1.444439,-0.542519,0.854522,-0.528179,0.362920,0.472552,0.420645,0.207931,-0.039171,0.228366,-0.255918,-0.591313,-0.170910,-0.297244,-0.877672,-0.602964,0.726139,0.948462,-0.376816,-0.217043,-0.512368,0.025650,-0.151630,0.617122,-0.122036,-0.148757,0.420629,-0.461908,-0.157304,0.383721,-0.325606,0.569287,-0.245261,0.334518,0.678115,0.361197,-1.257014,-0.725962,0.871133,0.757875,-0.448846,1.315665,0.618685,0.547358,0.720453,0.547668,-0.273962,-0.225783,-0.308808,-0.008040,-0.187101,-0.689456,0.725967,0.887153,-0.390739,-0.132231,-0.143359,-0.343750,0.279317,0.267435,-0.774944,-0.200453,0.119806,1.099153,-0.302662,-0.549167,0.482609,-0.244544,0.446160,0.762874,-0.384882,-0.500176,-0.702494,-0.168720,-0.171974,-0.543038,1.842773,-0.727292,-0.330343,-0.641465,-0.013302,-0.517323,-0.281023,-0.258060,0.446477,-0.001103,1.022425,-0.069121,-0.199660,-0.444590,0.181504,-0.435523,-0.449064,-0.725600,-0.237313,6.507005,0.555307,-5.286996,-0.619624,-2.587672,-0.330380,-0.059200,-0.229168,0.150800,-0.256900,-0.422207,0.383629,0.517509,1.030447,-0.543236,-0.108357,-0.503666,-0.068971,-0.188786,-0.817155,-1.044861,0.466697,0.334120,-0.383760,0.313776,-1.504837,0.176354,-0.319183,0.156075,0.035848,-0.907487,0.305195,0.708441,-0.220886,0.638646,-0.294671,0.045554,-0.474273,-0.633209,-0.002041,0.020872,-0.261854,1.426194,0.588982,0.513257,-0.077342,-0.213502,0.072672,-0.315477,-0.361020,-0.656778,-0.431066,0.707256,-0.491659,0.155384,-0.377740,0.651524,-0.576909,-0.619624,0.549699,-0.257601,-0.293223,-0.356721,-0.719305,-0.422550,-0.473333,0.810589,0.479876,0.814438,0.538649,-0.187214,2.578640,-0.546515,-0.286490,-0.150604,-0.275324,-0.472299,-0.358206,-0.604916,-0.434540,-0.280830,0.555948,0.470473,-0.145685,-0.035661,-0.524623,-0.276488,-0.008337,0.575446,-0.871824,0.510582,0.069028,0.644256,0.715679,-0.090397,-0.306150,0.550738,0.415416,0.478167,0.066568,0.267186,0.486480,0.738599,-0.537699,0.639495,-0.881943,0.625653,-0.202517,0.262446,-0.365102,-0.597412,-1.351393,-0.213944,-0.557244,-0.028790,-0.456898,-0.149160,0.492632,-0.053136,-0.469272,0.287051,0.465732,0.132763,0.173524,0.656328,0.495118,-0.512710,-0.071556,-0.722742,1.635215,-0.318541,-0.493092,0.590621,-0.235732,-0.461685,0.643559,-0.008176,-0.476744,-0.297790,-0.626926,-0.093884,-0.583642,0.821941,1.170671,-0.370217,-0.610986,1.161914,-0.399468,-0.380384,0.041352,1.008186,-0.368276,0.248231,0.134148,0.436864,-0.526394,0.333333,1.147031,-0.478648,-0.172183,-0.253776,0.299995,-0.365282,-0.479325,-0.300087,0.167921,-0.227737,-0.269200,-0.305442,-0.174851,-0.293741,-0.234425,0.031986,-0.869624,1.097316,-0.768926,0.041214,-0.432550,-0.470281,-0.147212,0.239614,0.608178,-0.395258,0.702056,-0.356072,0.073038,-0.493479,0.813322,-0.515878,0.425593,0.058268,-0.083473,-0.551679,-1.782645,0.000356,-0.127053,0.461590,-0.844506,-0.744259,-0.477498,-0.275353,0.586229,-0.364276,-0.295266,-0.278223,-0.473802,-0.548086,-0.656014,-0.469601,-0.407822,-0.127532,-0.328196,-0.437104,-1.181368,-0.766324,-0.377560,0.382988,-0.201008,-0.437073,-0.473353,-1.090968,0.430095,-0.381902,-0.125024,-0.524474,-1.112007,-0.264780,-1.845983,0.519427,-0.644101,-0.415467,0.109507,-0.526876,-0.607243,0.805807,-0.184927,-0.320556,-0.578023,-0.452293,-0.054293,0.022526,0.602584,-0.269269,0.899538,-1.152520,-0.329901,0.007370,0.762663,0.125954,-0.348230,-0.390430,-0.311541,-0.253741,-0.812065,-0.346006,-0.496620,-0.195403,0.238353,0.595542,-0.417214,0.288302,1.083385,0.312347,0.375808,-0.804789,0.193873,-0.282076,-0.152934,-0.275458,-0.320483,-0.272738,0.238017,-0.089182,0.406182,0.384543,0.055312,-0.280540,0.155060,0.881701,-0.515498,0.458520,-0.071523,0.162670,0.635208,0.619974,0.644398,-0.853970,1.125359,-0.589163,-0.078749,-0.622477,-0.592383,-0.176382,-0.146146,-0.676432,0.521592,0.187599,-0.924885,-1.147990,0.151434,0.649740,-0.100007,-0.925995,-0.453965,-0.478212,0.274768,-0.537782,-0.338354,0.482113,0.898596,-0.371115,-0.613076,-0.371697,-0.255922,-0.349208,-0.976279,-0.607384,0.155227,-0.894694,0.112078,0.503546,-0.394073,0.886602,0.212829,0.141511,0.431049,-0.214037,-0.385563,0.452511,-0.217411,-0.857405,-1.182063,0.420111,-0.336548,0.615929,0.266337,-0.011451,0.353035,-0.337275,0.318691,-1.210133,-0.832613,1.015006,0.764694,0.391611,-0.276339,0.007719,-0.037917,-0.255628,0.270382,-0.104930,-0.087218,-0.566133,-0.190507,-0.679279,0.177727,-0.268329,0.418717,-0.478605,-0.697168,-0.616656,0.147111,0.512700,-0.334711,-0.247030,-0.270773,-0.290383,0.308372,-0.172138,-0.186001,0.292902,0.287833,0.568880,-0.973404,-0.183046,-0.272570,-0.739212,1.070569,-0.151849,1.052143,-0.039525,0.901872,0.191654,0.534468,0.361698,-0.190848,0.900894,0.249393,-0.371511,-0.372389,-0.238233,-0.334783,1.099834,0.760484,-0.389032,-0.511732,0.534385,0.709637,0.938855,-0.391191,-0.218032,-0.573294,-0.491708,0.575734,0.183149,0.692811,-0.131407,-0.489008,-0.182994,-1.141260,-0.279525,-0.135832,0.527732,0.132659,0.575625,-0.218624,-0.346819,-0.040417,0.472318,0.082529,-0.254096,-0.545132,0.167570,-0.461974,-0.184697,0.922227,-0.595065,0.086890,0.850014,-0.428702,-0.076085,-0.405385,-0.768649,0.731001,0.379537,0.253418,0.160301,-0.151605,0.548792,0.296083,1.118339,0.352087,-0.080811,-0.494520,-0.093010,1.727172,-0.559309,0.078762,0.472112,-0.126689,0.267851,-0.379830,-0.314626,-0.520057,-0.515308,0.803304,-0.345545,-1.335689,-0.309439,-0.164732,-0.167814,0.263582,-0.468783,-0.244607,-0.204689,-0.155642,-0.476121,-0.531856,-0.219744,0.601514,-0.177067,0.423843,0.221724,-0.741046,-0.487351,1.128222,0.572700,0.687539,-0.573045,-0.627089,0.068990,-0.019228,0.676108,-0.428592,-0.383542,-1.010036,-0.182047,-0.651092,0.207879,-1.820868,0.474191,-0.621327,-0.823411,0.932783,0.136916,0.515140,-0.399728,-0.721641,-0.611119,0.363555,0.248007,-0.504781,0.494349,-0.757986,-0.993311,-0.662828,1.951934,-0.398393,0.432271,-0.508766,-0.326572,0.383847,0.761924,-0.467619,-0.740101,-0.130734,-0.090272,1.445056,-0.316819,-0.516525,-0.463593,-0.716305,-0.654255,-0.020889,-0.696286,-0.160395,-0.512589,-0.556297,-0.366278,-0.566292,-0.323161,0.603670,-0.545228,0.236591,-0.206872,-0.094151,-0.369598,1.883688,-0.483415,0.334876,0.459346,-0.530306,0.122843,0.263726,-1.054408,-0.764938,0.595224,-0.957178,-0.089616,-0.554918,-0.391752,-0.234493,-0.865193,-0.826423,0.244171,-0.619480,-0.346999,0.440679,-0.470820,0.726577,-0.476998,-0.596889,-0.750206,-0.458579,0.755319,-0.534225,0.405702,-0.066722,-0.036241,0.891539,-0.333077,-0.091025,0.752358,0.277383,0.810293,-0.128479,0.159793,0.463918,0.322925,0.976487,-0.858228,0.523513,0.336253,0.280473,-0.245629,0.231862,-0.793036}
    },
    {
      {0.253560,0.804510,1.784458,-0.178799,0.262952,-0.503617,0.605905,-0.957517,-0.031526,-0.275145,-0.518227,0.588986,0.678088,-0.584890,1.443787,-0.679833,-0.306992,-0.194226,-0.262621,-0.368791,-0.211002,-1.097695,-0.414648,-0.066630,1.228034,-0.174881,1.433375,-0.551517,-0.921166,-1.033009,-0.107237,-1.052865,0.821209,-0.206251,-0.169114,1.437518,-1.011961,-0.229647,-0.382946,-0.460916,-0.206338,0.195360,0.714194,-1.448935,0.166142,-0.391447,1.281035,0.806879,0.750021,-0.646159,-0.581222,-0.598891,0.422945,0.748699,-0.333650,-0.071183,-0.564634,-0.866373,-1.276364,-1.897751,0.632637,-0.070757,-1.062289,0.851804,-0.397660,-0.191902,-0.335879,-0.354465,-0.485592,-0.833919,0.418777,-0.481535,0.649446,0.734120,-0.975806,0.817035,-0.851013,-0.617137,0.809177,0.375772,-0.970298,-0.441215,-0.704542,-0.593960,-0.243379,0.739823,0.973441,0.926605,0.606772,2.827984,-0.221956,-0.454932,-0.904203,0.934163,0.286180,-0.532753,-0.693512,0.058654,1.542565,1.869803,0.892112,-0.791457,0.433105,-1.143332,-0.767677,1.663960,-0.579641,1.319825,-0.178626,0.441763,-0.138229,-0.462474,1.251649,-0.197575,-1.216984,-0.430865,-0.376943,0.671227,-0.175735,-0.466924,-0.420822,-1.045509,-0.675019,-0.263991,1.073361,1.566804,-0.770470,-0.315849,0.540257,0.520782,-0.733625,-1.198967,0.059758,0.679550,-0.336710,-1.223168,-0.515786,0.039188,-0.302504,-0.220416,1.083254,0.816276,-0.170383,1.336530,-0.196748,0.261414,-0.201147,-0.462905,-0.367374,1.406283,1.366025,1.456403,1.783558,-0.045763,-0.447244,-0.449192,-0.811643,-0.506144,-1.599964,-1.435656,0.911410,0.586389,0.749328,-0.268299,-0.494898,-0.204402,-0.320658,-0.415839,-1.178782,0.170175,1.105657,-0.436228,-0.181469,-0.876439,0.560423,1.172664,0.802565,3.230092,-0.314522,-0.237451,0.589878,-0.567587,-0.189914,-0.156774,-0.289996,-0.479193,0.500472,-0.452611,-1.225399,-0.326446,-2.056024,-1.270708,0.028548,-0.286532,-0.313559,0.172325,-0.631747,0.896915,-0.535845,-1.616510,-0.575801,0.762387,-0.116252,0.356371,0.220512,-0.190721,-0.809215,2.926278,0.141755,0.651684,0.354197,-0.474522,0.920664,-0.540964,0.870245,0.468629,0.987395,-1.679734,-0.120248,-1.401266,-0.340664,-0.505864,-0.387057,-0.541576,-0.579753,-0.647432,-0.203645,1.505659,-0.193242,-0.544247,-0.678095,-0.207778,-0.913685,1.046062,1.802272,-0.636820,1.258273,-0.681913,-1.431618,1.553215,-1.127165,-0.130973,-0.409299,-0.332509,0.981453,-0.245197,0.089756,0.239863,-0.491554,-0.948191,0.716284,-0.279466,-0.566291,1.609126,0.395109,0.123250,-0.749952,0.221499,0.070227,3.169761,0.519648,-0.367637,-0.370838,0.240203,0.766545,0.393908,0.029426,-0.314413,1.234832,-0.160022,-0.128539,-0.445990,-0.225858,-0.163324,-0.723563,-0.234259,-0.280024,0.793319,0.912614,-0.975049,-0.940820,-0.302327,1.262528,1.428495,-0.007480,0.570077,0.514165,-0.364225,-0.394084,-0.242157,-0.318873,0.171060,-1.251315,-0.276460,-0.632359,0.025142,-0.248716,-0.283052,-0.327580,1.537286,-0.331560,0.314547,-0.666683,-0.184476,1.334743,-0.095030,-0.549696,-0.236608,-0.182745,0.017171,-1.129495,0.738627,-0.519317,0.433402,1.040875,-0.221878,1.300372,-0.161295,-0.336728,1.864954,1.337369,0.788852,1.909374,-0.175242,-0.409463,-0.304402,-0.804211,0.749322,1.054093,-1.740500,-0.593917,0.214689,-0.209535,0.710928,-0.243947,-0.474030,0.495395,0.462388,-0.585325,-0.468274,-1.113998,0.924376,-1.156964,-0.994745,0.892617,-0.559643,1.033948,-0.657193,-1.233230,-0.391516,-0.334069,-0.664226,-0.143743,-0.269457,1.358106,-1.212799,-0.552860,-0.785417,-1.132153,-0.575987,-0.225132,-1.134009,0.855225,-0.232120,0.968974,2.305614,-0.614122,-0.508436,-1.567066,0.657105,-0.823137,-0.848398,-1.030907,6.948336,0.713548,-5.914200,-1.796808,1.758633,-0.496126,1.132644,-0.267867,1.001864,-0.744864,-0.525943,0.820617,-0.796132,0.540818,0.606677,-0.198892,-0.288276,0.757016,-0.071378,-1.343738,0.453439,1.248570,0.859800,-0.465097,-0.259872,-1.734497,-0.707567,-0.945962,-1.007292,-1.146538,1.058929,0.240510,1.260657,-0.328177,-0.367725,-0.164044,0.285150,-0.441948,-0.485234,-0.790143,0.606173,-0.496737,1.158365,-0.379576,0.088725,-0.800654,-0.783105,1.065166,-0.450956,-0.422075,-1.699837,-0.407000,-0.701238,-0.513666,1.120785,-0.879421,1.004791,-0.472740,-0.385854,0.814780,-1.018803,-0.213927,-0.316845,-0.574052,-0.361294,-0.349234,1.227105,-0.347118,1.592992,-0.501278,-0.448930,-1.389110,-0.275398,-0.787945,-0.469088,-0.426440,-0.333657,-0.388862,-0.100414,-0.277449,-0.816859,-0.292191,-0.283535,-0.335767,-0.913523,-0.185437,-0.417051,-0.383213,-0.091937,-1.053055,0.741915,0.665851,-0.206169,-0.196480,0.321549,-0.359132,0.870992,1.880664,-0.086557,-0.411246,0.422096,0.563148,-0.799388,-0.349822,-0.373604,0.583847,-0.277158,-0.456534,0.923160,-0.552621,-0.357614,-0.036139,-0.233260,-0.319559,-0.007280,-0.375448,0.318160,-0.027808,-0.250299,-0.677713,1.242740,0.945150,0.539749,0.199292,0.777779,1.508493,-0.355174,-0.003679,-0.402334,1.078728,-0.728173,-0.652024,-0.057574,-0.145361,-0.298632,2.190204,-0.701494,-0.977342,-0.293060,-0.006815,-0.200009,-1.042703,1.327788,1.777980,-0.266046,-0.310076,-0.144464,-0.302784,-0.739316,-0.059803,0.132770,-1.450328,-0.100385,2.244223,1.027098,-0.294475,0.435396,-0.769325,0.270648,-0.297678,-0.024488,0.423105,-0.074446,1.290903,-0.478871,0.634782,-0.868634,-0.294170,-1.294213,-0.264777,-0.183329,-0.300272,0.232045,1.040555,0.831881,-0.453839,-0.620017,-0.257894,-0.588678,-0.687951,0.679633,-0.946605,-0.835382,-0.590053,-0.199790,0.290952,-0.264799,-0.785724,-0.170393,1.193131,0.190815,-0.300135,-0.768567,1.310636,-0.610840,-0.474129,-0.435737,-0.722219,-0.216111,-0.255643,-0.303867,1.531634,-0.256297,-0.046625,-0.335181,-1.913064,-0.497008,0.876189,-0.456610,-0.259905,-0.301990,0.047302,-0.477777,-2.051589,-0.870825,-0.653209,2.119856,-0.309164,-0.368483,-0.409110,0.746990,1.213396,-0.398198,-0.276295,0.402202,-1.105320,-0.762626,1.757908,0.810900,-0.524955,-0.084651,-1.836120,-0.938209,-0.318804,0.950617,-0.702959,-0.174045,-0.068370,-0.664089,0.697422,2.138296,1.064227,-0.273665,0.883869,2.200796,-0.547395,-0.267184,-0.325725,0.663333,-0.211015,-0.474827,-0.085214,-0.168250,-0.593809,-0.483636,-0.846868,-0.215213,1.822156,1.867457,-0.467734,0.896911,-0.519915,-0.301739,0.972827,-0.487861,0.340669,-1.260577,-0.873328,-0.685265,-0.217864,-0.155226,0.996120,-0.005527,1.660934,0.020845,0.018935,-0.474295,0.510193,0.129829,-0.267884,1.192372,-0.261123,0.339561,-0.796349,-0.120610,-0.122964,0.715694,0.142563,-0.544835,-0.440975,-0.271014,-0.337616,1.049790,-0.539456,-0.813560,0.576831,-0.138354,-0.712475,0.083101,-0.381402,-0.495984,-0.732915,0.524760,-0.215331,-0.095056,1.450574,-0.003263,-0.538427,0.907365,-0.270410,-0.887153,-0.434854,-0.436932,-0.497990,-0.689730,-1.949372,-1.043821,0.509285,-1.392063,-0.418189,0.014846,-0.680857,0.471144,0.622183,0.185950,1.173669,-0.909386,-0.584545,0.895564,-0.421597,-0.020005,3.230923,0.718982,-0.583040,-0.230006,0.389149,-0.509961,1.543233,-0.316981,0.712582,0.678271,-0.388640,-0.100728,1.254696,1.836123,-0.254658,-0.661715,-0.434397,-0.722621,0.620833,-0.652035,-0.412863,-0.384188,0.591375,0.006586,1.057806,-0.393083,0.043804,0.896879,-1.045988,-0.309740,0.334690,2.924868,-0.132981,-0.511034,-0.802364,-0.090030,2.252746,-1.042317,-0.362135,1.016097,1.082169,0.452505,-1.252649,-0.580068,-1.142792,-0.649506,1.024710,0.659391,0.813945,0.210744,1.084577,0.061225,3.178769,-0.029407,-0.504509,2.081148,-0.121896,-0.633095,-0.474656,-0.299762,-1.314785,1.589477,1.070439,-0.583910,-0.494675,1.921595,0.209913,-1.047081,-0.693956,-0.136109,-0.230589,-0.764546,-0.396225,0.870600,-0.052487,-1.012220,-0.261398,-0.282840,-1.054478,-0.412693,0.603708,-0.302773,1.561158,-0.361587,-0.042838,-0.376342,-0.503064,1.183895,0.369524,-0.530430,-0.322838,-0.339998,-0.421715,-0.305863,-0.702134,-1.247355,-0.067526,0.045820,-0.828518,0.142270,-0.543636,-0.377673,-0.096487,2.136780,0.343676,1.758364,-0.225531,-0.217028,1.230954,-0.272291,1.056443,-0.738264,-0.370749,-0.235956,1.456192,-0.265912,0.563121,1.197456,-0.230225,0.525540,-0.441574,-0.491503,-0.125838,-0.890481,1.387867,-0.143756,-0.887977,-0.202605,-0.365402,-0.416720,0.252235,-0.199186,-0.538434,-0.250558,-0.376820,-0.575651,-0.487925,-0.110426,0.032264,-0.270053,0.635149,-0.131803,-0.858482,-0.285941,-0.536791,0.860926,2.009995,-0.541263,-0.233231,-0.573846,-0.670105,0.584464,-0.137051,-0.222190,-0.243622,-0.289848,-0.212482,-4.057079,-1.695511,1.097366,-0.545712,-0.231670,0.883813,0.819835,0.595706,-0.226817,-0.779143,0.801634,-1.739836,0.015089,-0.406662,0.245430,0.937996,-0.332090,-0.429310,-0.752773,-0.613732,0.923006,-0.157585,-0.490219,-0.491941,0.779321,-0.369676,-0.833323,1.589407,-0.954109,0.679891,-0.742702,-1.072394,-0.095526,-0.443447,-0.567788,0.893727,-0.303611,-0.264368,-0.327637,-1.163810,-1.239476,-0.159185,-0.262279,0.945057,-0.503901,1.155866,0.007939,-0.710946,-0.148041,4.860143,-0.284408,-0.198710,0.491889,-1.012376,0.408928,-0.651074,-1.500429,0.036491,1.602304,0.023973,-0.715698,-0.226270,-0.238956,-0.803286,-1.432867,-0.447219,0.457456,-1.545124,-0.448767,-0.068461,-0.252683,1.926016,-0.160544,-1.162904,-0.212330,-0.176105,1.239663,-0.940380,1.118502,-0.460465,0.180572,2.045791,-0.590152,0.974017,1.224574,3.458857,-0.493810,-0.187925,-0.145267,-0.756730,0.187328,1.448128,-0.806623,0.817101,1.358343,0.519736,-0.350971,-0.857260,-0.839388}
    },
    {
      {0.282266,0.611206,1.558507,-0.375457,0.228323,-0.565981,0.199967,0.236597,-0.232027,-0.405295,-0.293985,-0.185300,0.382916,-0.562373,0.671316,-0.412361,-0.256645,-0.778745,0.538927,-0.361516,-0.287967,-0.586306,-0.027866,0.737469,1.134858,-0.617072,0.820851,-0.241117,-0.472716,0.428586,0.680446,-0.501206,-0.100176,-0.380498,-0.693967,0.453239,-0.585288,-0.557929,-0.032972,0.554585,-0.433263,0.006612,0.200854,-0.934340,-0.652721,-0.511434,0.259571,0.668356,0.136790,-0.768669,-0.334197,-0.177424,0.203144,-0.099864,-0.290168,-0.537870,-0.301349,0.781749,-0.738361,-1.050600,0.116850,-0.517183,-0.397820,0.365458,-0.613039,-0.094798,-0.236681,-0.277139,-0.419338,-0.787163,0.824349,-0.149117,0.644454,0.854490,-0.365427,0.087540,-1.021013,-1.226798,0.439937,-0.125277,-0.477774,-0.280780,-0.375493,-0.579599,-0.466134,0.317135,-1.013334,0.770604,0.725151,0.916277,-0.077920,-0.271566,1.868995,0.424100,-0.006637,0.248507,-0.586487,-0.503373,0.425038,0.366119,0.711788,0.721109,-0.537246,0.147808,-0.278371,0.810126,-0.252973,0.730475,-0.357518,-0.986409,-0.263649,-0.383805,1.056766,0.591052,-1.641198,-0.451014,-0.058519,0.211636,-1.030792,-0.610849,-0.498455,-0.678229,-0.011968,-0.187517,0.537204,0.641975,-0.502778,-0.569504,-0.033353,-0.212970,-0.837684,-0.915753,-1.691139,-0.400945,-0.328207,-0.385879,-0.231035,0.080411,-0.553033,-0.926023,1.248643,0.436240,0.477741,1.156202,-0.411603,0.246900,0.636991,-0.101109,-0.363834,0.594012,-0.494204,0.591733,1.404286,-0.502195,-0.156416,-0.329178,0.782285,-0.241471,-0.985859,-0.502534,0.607469,0.212722,-0.325344,-0.132319,-0.649836,-0.306206,-0.721417,-0.192269,0.425617,-0.135679,0.498449,0.829549,-0.408023,-0.497684,-0.080100,0.446608,0.212131,0.141149,-0.351035,-0.207898,1.721853,-0.624151,-0.522848,0.489538,-1.031655,-0.646137,0.554005,-0.363745,0.394775,-0.528689,-0.698571,-0.987443,-0.522551,-0.149340,-0.515079,-0.318157,-0.655682,0.066683,-1.018317,-0.163015,-0.325058,0.642178,-0.477604,-0.027363,-0.853989,-0.987815,0.610338,1.970210,0.231080,0.270974,0.526764,-0.059632,0.493839,3.132302,0.733893,0.291851,1.024517,0.072687,0.918194,-0.473462,-0.566133,-0.910673,-0.557490,-0.307486,0.494961,-0.457288,-0.759819,0.303811,-0.656280,-0.401718,-0.506319,-0.642663,-0.372098,0.444730,0.792553,0.505278,-0.052000,0.328541,-0.240753,0.470604,-0.623781,-0.376663,-0.197277,0.466815,1.276773,0.102263,0.641937,0.424358,-0.525101,0.312076,0.293230,-1.968580,-0.268075,1.030860,0.780458,-0.590167,-0.295805,0.289952,-0.498388,1.042021,-0.096131,0.822386,-0.751760,-0.672597,0.824885,-0.786615,-0.153444,-0.660936,0.788579,-0.140804,-0.266596,-0.108358,-0.359981,-0.484652,-0.232698,0.495119,0.100401,0.836230,2.357649,-0.300708,-0.309979,-0.674327,0.641627,0.990092,0.169362,0.199117,-0.074320,-0.517825,-0.368513,-0.395538,-0.181911,-0.436682,-0.692542,-0.583008,-0.732479,0.917521,0.571583,-0.325147,-0.360922,0.447637,-0.310535,0.086816,-0.078144,0.396833,0.550923,0.423683,-0.070303,-0.364856,-0.501807,0.552725,-0.213179,0.548062,0.645835,0.500164,-1.950692,-0.283217,1.159102,-0.381757,-0.494157,1.122438,0.608979,0.722991,1.910861,-0.317897,-0.407998,-0.026585,0.385975,0.697100,-0.069929,0.021646,-0.409183,0.245113,0.688849,-0.101217,-0.276224,-0.539788,0.166519,0.385279,-0.661216,-0.463291,0.114371,1.211075,-0.617021,0.615964,0.559878,-0.078930,0.742795,0.422820,-0.421062,0.724383,-0.559791,-0.313643,-0.064691,-0.454399,1.191494,-0.941210,-0.321839,-0.689491,0.182059,0.946524,-0.442568,-0.826058,0.626740,-0.466990,0.853996,0.473667,-0.094882,-0.682219,0.104144,-0.202878,-0.653886,-0.591015,-0.163715,9.505882,0.717550,-2.013739,-0.320958,0.439948,-1.111749,-0.122258,-0.320865,0.344005,-0.420493,-0.335098,0.984634,-0.174874,-0.373433,-0.461233,-0.260856,-0.747818,0.079529,0.272996,-0.796408,1.289155,0.441087,0.510355,0.635298,-0.354094,-0.919721,-0.273046,1.014413,0.260805,-0.074993,0.486990,-0.000393,0.383829,-0.524271,-0.628146,-0.510174,0.164490,-0.355490,-0.187720,-0.238550,0.442917,-0.197105,1.747492,-0.743476,0.595792,-0.375996,-0.329437,0.269085,-0.606475,-0.589821,-0.534677,-0.539638,-0.150908,-0.489899,0.297814,-0.238438,0.636918,-0.189433,-0.469333,0.709686,-0.569440,-0.237768,-0.506988,-0.684445,-0.692124,-0.461315,0.885668,-0.127355,0.897460,-0.685651,-0.381045,4.814346,-0.550486,0.030414,0.090423,-0.403781,-0.623702,-0.415668,-0.679953,-0.288123,-0.288088,-1.043093,-0.165515,-0.184778,-0.664363,-0.309218,-0.292978,-0.392968,-0.099545,-0.683912,0.405925,0.440483,-0.469298,-0.498177,0.320966,-0.625520,0.726724,0.380882,-0.611301,-0.126432,0.183346,0.895220,-0.468586,-0.354952,-0.106886,-0.703189,-0.327800,-0.519925,0.401964,-0.324603,-0.623359,-0.976731,-0.195188,0.897285,-0.268907,-0.509345,0.461636,-0.905590,-0.003509,-0.506042,0.414800,0.641573,0.498915,0.287921,0.982039,0.548321,-0.636512,-0.237311,-0.533341,1.479051,0.638593,-0.454983,-0.363701,-0.179571,-0.384790,0.728952,-0.237287,-0.537515,0.722415,0.589622,-1.086980,-0.864671,0.845515,0.666829,-0.799857,0.597031,-1.010186,-0.297109,-0.540536,-0.055351,0.611814,-0.351409,-0.483200,0.637140,0.597646,-0.795613,-0.171275,-0.983460,0.750676,-0.478306,-0.256944,0.400344,-0.395002,0.365142,-0.391868,-0.164783,-0.347511,-0.043293,-0.512886,-0.549706,-0.339618,-0.262096,0.058313,-0.594406,1.098731,-0.499699,0.175905,-0.319391,-0.519741,-0.232044,-0.340289,-0.316338,-0.320330,-0.544109,0.978110,0.236720,0.049846,-0.378125,-0.422489,0.905738,0.037792,0.781368,-0.441822,0.017353,-0.542646,-0.173422,-0.360634,-0.658520,0.010322,-0.479447,-0.143067,0.604793,-0.547535,-0.025170,-0.429471,-0.649358,0.816433,0.159233,-0.607318,-0.311546,0.221087,-0.336157,-0.273127,-0.555943,-0.725904,-0.232147,0.714163,-0.341421,-0.136145,-0.622898,0.275257,0.397597,-0.294227,-0.329574,-0.626635,0.642647,-0.650213,0.073188,0.551267,-0.430501,0.586407,0.070333,-1.153495,-0.777172,0.584787,0.652958,-0.242714,0.849076,-0.444610,0.039294,0.562391,0.760956,-0.703914,0.851126,1.268063,-0.378244,0.030929,-0.506808,0.240995,-0.493578,-0.451474,0.535990,-0.182859,-0.289654,-0.786691,-0.567503,-0.357695,0.378559,0.734971,-0.562618,0.388298,-0.540250,-0.240030,0.420395,0.449647,0.477028,-0.239044,-0.422513,-0.371648,-0.519514,-0.029334,0.524704,-0.086169,0.880810,-0.673532,0.083790,-0.160646,0.428659,0.842209,-0.351559,0.558374,0.222850,-0.062105,-0.977348,-0.363574,-0.357283,-0.152092,0.347777,-0.662970,0.580016,-0.852053,0.507767,0.639836,-0.343260,-0.453494,0.395285,0.795000,-0.807842,1.342378,0.298244,-0.291378,0.035818,-2.333638,-0.275540,0.314228,0.543727,-0.409288,-0.362721,0.750442,-0.410239,-0.572653,0.384532,0.489125,-0.372853,-0.381672,-1.015088,-0.558040,-0.085537,-1.507964,-0.014814,0.422570,-0.355427,1.017973,0.421776,0.314715,0.579388,-0.418842,0.722464,0.529412,-0.344992,-1.027826,3.588729,0.294822,-0.578858,-0.729431,0.139753,0.453469,0.375644,-0.625172,-0.024601,0.460914,-0.689861,-0.230662,0.862765,0.203016,0.621644,-0.313052,-0.394964,0.981584,0.240844,0.460688,-0.264328,-0.674125,0.116997,0.437055,0.273587,-0.269697,-0.767631,-0.238716,-0.784150,-0.704874,0.094315,0.921986,-0.180344,-0.465359,-0.149287,-0.301815,0.379966,-0.226764,-0.252702,0.365490,0.465442,0.940681,-1.130537,-0.373597,-0.380732,-0.691264,0.967684,-0.027777,1.950433,0.118582,1.333481,0.419074,1.078421,0.464927,-0.327781,0.806140,-0.451208,-0.511130,0.643769,1.023141,-0.257740,1.085173,0.976804,0.377542,-0.727188,0.814127,-0.763386,0.741596,-0.510220,-0.259551,-0.543841,-0.400758,-0.308876,0.251763,-0.793577,-0.287465,0.565896,-0.427732,-1.144265,-0.475448,0.088611,-0.528008,-0.131740,-0.447700,-0.709499,0.522682,-0.184828,0.498371,0.178646,-0.582158,-0.737847,-0.123147,-0.481739,-0.208269,-0.582397,-0.605812,-0.128489,1.131798,-0.482802,0.152093,-0.221637,-0.491129,-0.304695,0.483985,0.323038,0.202824,-0.189973,-0.469629,0.700893,-0.533165,0.399099,-0.143190,0.648863,-0.079679,2.486490,-0.624921,-0.100204,0.647367,-0.209272,0.287402,-0.776980,-0.498191,-0.184468,0.606749,0.947176,-0.328000,-0.987215,-0.429439,-0.166291,-0.286816,0.708425,0.003077,0.725458,-0.551275,-0.442932,-0.122486,0.930317,-0.058505,-0.448790,-0.372932,0.488100,1.004251,-0.751825,-0.347094,-0.161299,0.689766,1.700840,-0.539519,-0.705541,-0.196208,-0.094572,0.640365,-0.390886,0.730526,0.725335,-0.169309,-0.344157,0.329830,-0.339184,0.319097,-1.619929,-0.697598,1.280288,0.353219,-0.996831,-0.469787,-0.860320,-0.516063,-0.021705,0.280188,-0.570778,0.560704,0.216233,1.134033,-0.918411,0.386202,-0.710376,-0.030715,0.644882,0.336439,-0.606227,0.998940,-0.375751,0.389173,0.059585,-0.454875,1.222842,-0.754459,-0.817709,-0.940866,-0.487243,-0.746191,0.097849,-0.401087,-0.465676,-0.729159,-0.388028,-0.358795,0.585057,-0.280883,0.252901,-0.391232,0.714290,-0.306366,-0.324145,-0.416703,1.755065,0.880986,0.363708,0.233081,-0.682264,0.013176,-0.193544,-2.222633,-0.444994,0.375585,-0.991443,-0.459328,0.806166,-0.407870,-0.553636,-0.591592,-0.226381,0.227129,-1.106466,-0.738265,-0.778698,-0.640399,1.091647,-0.448928,-0.755739,-0.232846,-0.444577,0.729381,-0.676403,0.378648,0.009685,0.027675,1.441605,-0.725173,-0.357063,0.951956,0.566156,-0.377980,-0.176791,0.950250,0.263611,-0.406874,1.338025,-0.636471,0.554384,0.281223,0.385130,-0.317732,0.883639,-0.427229}
    }
  }
};
