#pragma once

#include "C:\Users\Baron\Desktop\EE_297_Repo\EE_297\hardware_imp\vitis_hls\lane_seg_hls\lane_seg_top.h"

// Auto-generated with BN folded

data_t enc1_dw_w[3][3][1][32] = {
  {
    {
      {-0.068289,0.042161,-0.013307,-0.275747,1.427068,-0.130069,0.007864,-0.838364,-0.175756,-0.006398,0.445001,0.478348,-0.060522,-0.430691,-0.000401,0.002097,0.003506,-0.007097,1.397015,0.270221,-0.269959,0.043975,0.151534,-0.004846,0.068696,-0.413984,-0.225760,0.063840,0.129087,0.052344,0.184759,0.761406}
    },
    {
      {-0.081832,-0.133301,-0.088167,-0.208561,4.635818,0.368540,0.592346,-0.425214,0.610895,-0.001804,-0.417517,4.156741,0.133935,-0.170002,-0.001027,-0.006210,0.004662,0.000888,-4.732424,-0.374480,-0.010965,-0.072589,-0.105976,-0.002494,0.436264,-0.048381,-0.432176,-0.036618,0.182652,-0.137510,-0.382802,-0.311926}
    },
    {
      {-0.067462,0.172095,-0.722243,-0.234096,1.082706,-0.555398,-0.615721,1.347160,-0.458904,-0.002029,-1.754398,2.611242,-0.138597,-0.800218,0.002599,-0.005235,-0.002253,0.016266,1.056072,-1.041969,-0.863344,-0.072197,-0.595345,-0.007441,0.551487,0.199891,-0.505639,-0.844312,0.823913,0.037721,-0.857710,-0.518338}
    }
  },
  {
    {
      {-0.137724,0.007720,0.015416,0.137039,0.551033,0.553996,0.147796,-4.132138,0.104757,-0.004203,-0.618428,0.205245,0.100375,-0.096221,-0.006829,-0.002274,-0.003949,-0.023282,8.366245,-0.950865,-0.284580,-0.139206,-0.258708,-0.001050,0.237187,0.189142,0.848293,-0.240224,0.347056,-0.103909,-0.457607,3.726162}
    },
    {
      {0.028510,-0.445383,0.236528,2.335278,1.038237,0.997141,0.034411,-0.559770,-5.309947,0.002096,0.612561,0.192628,0.157836,0.093757,-0.000812,-0.007044,-0.004050,-0.011659,-11.767164,0.664876,-0.438317,-1.032786,0.073046,-0.003376,-0.775407,8.468041,6.675181,-0.153277,-0.159969,-0.293572,-0.077144,-0.374527}
    },
    {
      {0.760304,2.424482,4.930043,-0.980798,0.425439,-5.295131,-5.401116,4.635146,0.965670,-0.000546,1.408740,-0.324536,-2.640252,-1.001064,-0.000651,-0.008860,0.003641,0.013177,6.520123,1.708817,-0.378807,-0.455173,0.588329,-0.009681,-0.159253,-2.500327,-2.993203,0.978165,-1.480333,-0.076802,1.269639,-3.301110}
    }
  },
  {
    {
      {-0.076897,0.100760,-0.017419,-0.180856,-2.081062,0.031029,-0.129697,-0.838357,0.025181,-0.010133,-1.541636,-0.864981,-0.122153,-1.111341,-0.006093,-0.001273,0.006378,-0.009428,-1.172838,-0.391883,-0.765480,0.316176,-0.425695,-0.014847,0.824977,-0.623073,-0.127240,-0.486287,0.441596,-0.077201,-0.445732,0.722502}
    },
    {
      {-0.063008,0.311259,-0.279843,-0.114463,-5.215719,3.582997,-0.479691,-0.296273,0.128221,-0.004527,0.996047,-4.101130,0.045484,-1.028901,-0.003837,-0.007188,-0.009026,-0.003733,1.420576,0.251903,-0.681310,2.119354,0.143277,-0.000686,-0.329770,-0.747265,-1.106247,0.162482,-0.143582,-0.176932,0.460064,-0.236281}
    },
    {
      {0.057455,-2.568696,-0.213455,-0.513963,-1.849911,0.712471,6.059747,1.109337,-0.180326,-0.002183,1.477721,-2.517379,3.262243,4.779670,-0.003533,-0.007866,0.005745,0.012869,-0.988680,0.236610,4.977859,-1.772697,0.620630,0.014521,-1.138947,-1.256351,-0.315888,1.018181,-0.570461,-0.088620,0.630952,-0.436064}
    }
  }
};
