#pragma once

#include "C:\Users\Baron\Desktop\EE_297_Repo\EE_297\hardware_imp\vitis_hls\lane_seg_hls\lane_seg_top.h"

// Auto-generated with BN folded

data_t enc10_ir9_dw_w[3][3][1][384] = {
  {
    {
      {-0.085443,0.284703,0.597108,-0.634793,-0.671743,-0.381305,-0.124918,-0.230650,-0.076851,0.582269,0.100966,0.054118,0.089157,0.074624,-0.279691,-0.160831,0.349761,0.045477,1.008950,0.502904,-0.025197,-0.469413,0.071109,-0.447282,0.096181,0.099853,-0.187569,0.097270,0.659324,-0.580656,-0.065898,0.392814,0.211960,-0.031718,-0.257608,-0.099059,0.285384,-0.263726,-0.214077,-0.203450,-0.330388,0.411153,-0.278621,-0.051075,-0.387799,-0.125611,-0.391373,-0.471308,-0.573919,0.038854,-0.222860,-0.623837,0.155665,0.066576,-0.053331,-0.177081,0.159979,-0.349530,0.259839,-0.472624,-0.280494,0.205276,-0.728427,0.198377,0.049329,0.493635,1.108252,-0.050029,0.116299,-0.031662,-0.687816,0.008923,-0.550814,-0.501767,0.254927,0.677390,-0.067221,0.309510,0.242965,-0.214151,0.831225,0.339434,1.145046,-0.249910,-0.092225,-1.130777,-0.060403,-0.003776,0.233838,-0.109123,0.242353,-0.461479,0.998396,-0.729342,-0.510734,-0.150251,1.975534,0.238409,-0.095100,-0.416436,0.361549,-0.523651,0.273976,-0.516644,-0.420236,-0.293383,-0.250782,-0.634767,0.141919,-0.291328,-0.033374,-0.045184,-0.181849,-0.549465,0.331852,0.208353,-0.876970,0.548541,0.660266,0.014572,-0.421628,-0.218079,0.095297,-0.693889,-0.108885,0.028959,0.070077,0.430697,0.479812,-0.662923,0.237564,0.410434,-0.102584,-0.119002,-0.477695,-0.489060,0.431495,-0.272616,-0.192891,0.566357,-0.616167,0.150852,-0.174003,0.145074,-0.380157,0.359276,0.447974,-0.205214,-0.870904,0.028278,1.545052,-0.281774,-0.359634,-0.628739,0.298708,0.320137,0.000431,-0.038299,-0.232478,-1.010651,0.780218,0.538113,-0.170073,-0.022657,0.561081,0.307816,-1.156605,-1.105624,0.091658,-0.117268,-0.359918,0.721521,-0.637020,0.321407,-0.503825,-0.049082,0.390057,0.568616,0.971734,0.459846,0.338820,0.238992,-0.001899,-0.154884,0.090067,1.054082,-0.079219,0.534314,0.063812,1.015546,-0.110262,-0.453962,-0.199925,0.742704,0.002556,-0.628202,0.120933,0.287828,0.473456,-0.733042,-1.424955,0.842989,-0.336235,0.167845,-0.939135,-0.135170,-0.372175,0.367708,1.127778,0.022507,-0.097670,0.007882,-0.054764,-0.251667,-0.030191,0.042666,-0.654862,-0.000880,0.231171,-0.222128,0.215546,-0.376336,0.792072,0.052195,-0.034451,-0.312429,0.320099,-0.310111,-0.262877,0.261236,0.126654,0.243232,-0.603617,0.123652,-0.518269,0.036268,-0.246516,0.278554,0.435506,-0.018550,-0.169311,0.184532,-0.738918,-1.362772,-0.043772,-0.764697,1.143467,0.919999,-1.450884,0.265194,-0.277559,-0.469445,1.103649,-0.349281,-0.699334,-0.211307,-0.898244,-0.260674,0.132502,0.322817,0.095405,-0.177869,0.425701,-0.546517,0.006765,-0.191949,-0.050836,-0.531094,-0.171461,0.013882,-0.023260,0.110988,-0.471176,-0.234822,0.119181,-0.320171,-0.254833,1.071982,-0.110685,0.832437,-0.292575,0.670754,0.480319,0.448826,-0.208093,0.643370,0.727103,-0.850812,-0.127421,0.317236,0.321793,-0.808184,0.355445,0.449443,-0.866368,-0.884622,1.343361,-1.393715,-0.347079,-0.410240,0.522431,0.718698,-0.165623,0.201995,-0.202024,0.428722,-0.134038,0.880288,0.235845,0.122572,-0.636917,-0.910158,-0.402824,0.227278,-0.152436,-0.148985,-0.474922,0.434366,0.087288,-0.545300,-0.182633,-0.185666,-0.441373,-0.383186,-0.026335,0.109313,1.198979,0.576943,0.263565,0.676331,0.360494,-0.044565,-0.178037,-0.641972,-0.662550,0.682080,0.395588,-0.101033,-0.150997,0.683816,0.856421,-0.706843,1.049036,0.159540,-0.649410,-0.100838,-0.116910,0.779507,-0.978751,-0.354127,-1.088670,-0.010269,-0.172394,1.385112,0.088475,-0.900738,-0.140515,-0.043358,-1.131901,0.437162,-0.972225,-0.181585,-0.302572,0.742337,0.055765,-0.157548,0.273451,0.270148,0.239765,-0.819826,-0.158623,1.864659,-0.145230,-0.229298,0.625467,0.775822,-0.137482,-0.331321,1.458837,-0.401942,-0.211712,-0.300125,0.207376,-0.209897}
    },
    {
      {0.041451,0.450123,-0.053010,-0.477463,-0.003758,0.506079,0.103418,0.018637,0.532867,1.196949,-1.082715,-1.004888,0.249222,-0.467200,-0.138953,0.947258,-0.117278,0.161454,-0.939096,1.331275,0.949368,-0.248480,0.558172,1.541339,-0.255046,-0.706863,-0.018942,0.132272,1.084828,-0.550327,-0.180092,1.713515,0.863990,1.944092,-1.009539,-0.061895,0.413960,-0.279917,-0.457671,-0.378927,-0.132752,-0.279102,0.621476,0.054603,-0.593087,0.012972,-0.789733,-0.711529,0.912605,-0.794111,1.172377,0.633193,-0.932324,0.589147,0.238319,-0.670844,-0.247077,0.097456,0.089077,-0.524189,-0.312822,0.231317,0.268781,-0.067519,-0.339220,-0.476168,0.883944,-0.874899,2.844493,0.021537,-0.667670,0.881280,0.141214,-0.062988,0.353536,1.225556,-0.287427,0.027892,0.914535,0.377988,0.161223,0.119332,1.427869,1.494763,0.992875,-0.791308,-0.108117,-0.961449,-0.838138,-0.639715,0.836069,1.537984,-0.142998,-0.177020,1.573130,2.411947,1.177416,-0.550899,-0.784271,-0.194948,0.023513,0.288718,0.706170,-0.715675,-0.258319,0.118188,-0.330594,-1.214852,0.698356,0.312159,-1.175965,-0.308691,-1.256467,-0.789359,0.745660,1.430937,-0.660233,0.905283,0.436987,0.304051,1.348017,-0.323515,0.392732,-1.154196,-0.428725,-0.824300,0.149457,-0.235385,0.484383,-0.186697,1.672827,0.209682,-0.591288,0.675461,-0.271572,-0.178967,-0.394327,-1.662466,-1.292187,1.485277,-0.162901,-0.554988,1.249334,-1.027792,-0.275370,0.386772,0.132319,-0.282718,-1.156123,0.051188,5.256241,-0.005924,-0.476652,-0.525264,-1.693103,0.267751,1.086867,-0.412500,-0.646035,-1.192679,-0.052658,0.931903,-0.337371,0.765969,2.026041,0.829074,-1.244443,-0.083117,0.939900,-0.549336,-0.633924,1.027130,-0.847183,0.558111,-0.611518,-0.226192,0.829845,1.945540,0.127995,1.172478,1.662705,0.590650,-0.009251,0.532329,1.934620,0.604950,0.440996,1.775857,-0.308837,-0.088312,-0.162707,-0.394482,-0.430155,-0.378263,-0.259530,-0.480163,0.783032,0.368245,0.882746,-0.371723,-0.677934,1.467532,0.289177,0.055229,-0.728635,-0.942947,-1.118294,0.119554,1.015740,0.609206,0.158566,0.246293,-0.306945,0.334698,-0.509908,-0.387747,-0.056423,0.069288,1.856064,-0.000796,-1.622021,-0.609219,0.745302,0.106843,1.129289,-0.596847,-0.621488,-0.110469,-0.057968,-0.422615,0.520233,-0.658862,0.043535,-0.333836,0.567811,-0.456374,2.038060,-0.014100,0.530403,-0.715030,-0.419236,-0.671661,-0.849464,-0.393221,0.318427,-1.108808,1.230821,-0.155507,0.255470,-0.292583,-0.193592,-0.800555,0.957358,0.536228,-0.901864,0.429625,-1.614919,1.861328,0.786252,0.368804,-0.887830,-0.184175,1.539641,-0.624119,-0.656286,-1.134107,-0.199289,1.896309,-1.626051,0.356664,-0.167273,0.091183,-0.476856,-0.184249,0.512195,-0.213592,-0.336533,0.984771,-0.037840,0.784112,-0.478557,0.301451,0.816105,0.390728,-0.652881,-0.958768,2.322199,-0.390180,-0.688925,-0.677352,-0.282090,0.067561,-0.260614,0.301116,-1.335678,0.518240,0.695063,-2.350484,0.202406,-1.309212,-0.131484,1.788902,0.381797,-0.018537,0.247377,0.830463,-0.650179,2.541216,1.691753,0.724879,0.044559,-2.716041,-0.058250,2.123369,0.367490,-0.659697,-0.817843,-0.048991,1.341507,-1.252474,-1.018012,-0.165886,-0.668352,0.513378,0.137858,-0.669176,0.628996,0.861616,1.034477,-1.116931,-0.007726,-0.766499,-1.712025,-0.249817,-0.321626,0.541899,-0.363981,-0.879105,0.211164,0.909382,1.364242,-0.861797,-0.523479,-0.185350,-0.249166,-0.092643,0.124633,0.977088,2.012658,-0.471932,-1.386970,-0.007453,0.785205,-0.068178,0.578702,-0.870461,-1.141436,-0.245491,-0.020766,0.716566,-0.035420,0.326357,-0.255255,-0.370988,0.256297,-0.229539,0.384702,0.562747,0.408749,-0.497535,-1.806250,1.432332,-0.427866,-0.026628,-0.354551,0.578861,-0.680693,-0.559418,2.050516,-0.535744,-0.264962,-0.832976,-0.104755,0.116678}
    },
    {
      {0.091984,-0.271122,-0.836084,-0.038485,0.253729,0.321502,0.286312,0.000216,-0.646669,0.201198,-0.515999,0.833465,0.488302,0.101703,-0.288594,-0.799574,-0.495575,-0.239111,-1.924718,0.552096,0.183576,-0.481275,-0.080196,-0.280801,-0.128189,-0.077582,-0.251353,-0.036280,0.959001,0.056131,-0.133046,-0.648976,0.854201,-0.632814,-0.576044,-0.148773,0.310007,-0.364558,0.230923,-0.145213,-0.093668,-0.187774,0.017266,-0.090595,-0.205236,0.362424,-0.678822,-0.039934,0.666426,-0.236185,1.098643,1.365820,-0.180950,0.304503,0.041008,-0.129047,-0.558914,-0.229110,-0.233336,-0.319507,0.022323,0.122049,-0.541934,0.840951,0.416602,0.384289,1.296738,-0.256503,0.266819,0.255058,-0.380315,0.670730,-0.128607,-0.669728,-0.243435,0.137184,-0.126772,0.263175,0.373909,0.169042,0.020896,0.574904,1.115569,0.369613,-0.539849,-0.375735,1.307512,-0.274520,0.092154,0.193622,0.309150,-1.017115,2.356321,-0.559220,0.430003,-0.214139,1.005330,-0.103986,0.818437,-0.459842,-0.323068,-0.021781,-0.268122,-0.712980,-0.123319,-0.842260,-0.429795,-0.599709,0.196368,-0.217100,0.008219,0.473512,-0.358730,-0.563071,0.491703,0.442743,-0.114737,1.868241,0.526536,-0.150906,-0.063339,0.207168,0.299410,-0.480475,-0.096692,0.763184,-0.037882,-0.465301,0.033004,-0.478130,0.583342,-0.370258,-0.342609,0.289713,-0.377258,-0.692681,0.591758,-0.210507,-0.472820,0.009114,-0.382138,0.449814,-0.218521,-0.481016,0.038242,0.165910,0.040093,-0.092154,-0.001406,0.024128,0.324053,-0.215069,-0.674476,-0.563222,0.555274,0.169302,-0.021263,0.068529,-0.371725,-0.456672,-0.362995,0.662819,1.545159,-0.538554,0.131724,0.088482,-0.020171,-0.009920,0.433785,0.433257,-0.408507,0.392028,-0.342045,0.685918,-0.283087,0.767932,0.069219,0.191137,0.254489,0.740496,0.009453,0.508821,-0.073892,0.268496,0.085670,1.402336,-0.365324,0.153555,-0.373272,0.194764,-0.306193,-0.212895,-0.414877,-0.442018,0.119453,-0.247365,0.299439,0.336281,0.382128,-0.743840,1.433828,0.979455,-1.445049,0.323095,-0.425465,0.256361,-0.716563,0.510625,1.199358,0.735327,-0.314422,0.328204,-0.111034,0.400981,-0.183054,0.477440,-0.616078,0.463411,0.339809,-0.391268,0.162942,0.024982,-0.104041,-0.186357,0.091751,0.034578,-1.146189,-0.289837,-0.221070,-0.115289,0.118623,1.301846,-0.747304,-0.396842,0.188154,0.163986,-0.146644,-0.508328,-0.096738,-0.108590,-0.030339,-0.492078,0.151641,0.098707,-0.928264,-0.582756,1.094579,0.952696,0.310421,0.203417,-0.195161,-1.422422,0.098324,-0.068832,-0.354753,-0.213225,0.364924,0.014276,0.311584,0.394916,0.109050,-0.156434,-0.142625,-0.622135,-0.040066,-1.010779,0.227021,-0.653654,0.538062,0.416204,-0.121063,0.049740,-0.270463,-0.192913,0.097766,0.400734,0.050149,0.937452,-0.349061,0.603056,-0.316324,0.565905,0.164606,0.465230,0.316158,-0.174416,-0.444350,-0.311295,-0.513532,0.252168,0.492634,0.263487,-0.095391,-0.627870,-0.489347,-0.339844,0.639917,-1.005671,-0.104725,-2.252598,0.386611,0.495660,0.043935,0.484218,-0.042480,0.508275,-0.186662,0.084108,0.252099,0.020814,-0.584087,-1.188200,0.085222,0.689568,-0.059331,-0.292518,-0.245075,0.541792,0.210371,-0.694719,-0.534731,-0.548651,-0.168876,-1.018098,0.086229,0.029014,-0.499343,-0.476962,0.897032,-0.522583,-0.162625,-0.482409,-0.562417,-0.314037,-0.202389,-0.800672,-0.097961,-0.113924,0.031240,0.250043,0.636677,0.060036,-0.364449,-0.255993,1.436307,-0.241961,-0.114533,0.492536,-0.648573,-0.115882,0.021955,0.087934,-0.733872,0.370421,-0.429534,-0.343721,-0.080096,-0.043111,-0.533564,0.325833,-0.988633,-0.376911,-0.649554,-0.674218,0.008364,0.066352,-0.066615,-0.825298,1.337803,0.081431,-0.349387,0.968439,-0.141010,0.140297,-0.330189,0.568360,0.012980,-1.084570,1.514651,-0.129788,0.133888,-0.011451,-0.132783,-0.115475}
    }
  },
  {
    {
      {-0.048635,1.406370,1.201914,-0.906607,-1.110992,-1.835595,0.686983,0.146942,0.803823,0.282989,-0.954740,1.109115,1.989376,-0.738015,-0.289407,-0.028354,1.022500,0.110404,-0.242446,-0.063948,1.410909,0.144484,0.558609,2.222577,1.030482,0.069306,0.397049,-0.051877,-0.838320,-0.085004,-0.160720,-0.361444,0.627288,1.859553,0.101605,-0.158392,0.318515,-0.273360,-0.145060,-0.162157,-0.199027,1.122410,0.626340,-0.120797,-0.699077,1.193090,0.099442,0.014912,0.751204,0.338051,0.223504,2.172149,-0.267337,0.548504,0.606597,-0.640881,1.228382,-0.655762,0.582933,-0.440879,-0.049239,-1.356156,-0.169414,-0.231542,0.205403,1.578400,-0.556958,-0.575945,0.010510,0.395006,-0.498239,0.891484,-1.280972,-0.320993,0.324148,0.540605,0.366369,-0.249844,-0.642663,0.635965,1.059997,-0.299034,0.579743,-0.506924,1.114494,0.154191,-0.278940,0.957230,0.204600,0.474276,1.025507,-0.785602,-0.328970,0.155461,1.701019,1.977453,1.115058,2.061981,0.250023,-0.620632,0.336099,-1.447348,0.049657,-0.412919,-0.834146,0.470463,-0.312794,-0.982951,-0.780659,1.043594,0.992036,0.049830,-0.292477,0.067789,0.191218,1.368123,-0.102770,-0.623343,0.900138,0.514022,0.842189,-0.439450,0.260526,0.466495,-0.143388,0.127629,0.265559,0.743430,0.998654,-0.315556,-0.458126,-0.428190,-0.779450,0.356493,0.278197,-0.622721,1.076275,0.730905,1.681991,-1.570726,-0.383012,-0.308758,0.851354,-0.844368,-0.301173,-0.100436,0.076345,-0.385921,2.229675,-0.030469,-1.419605,0.558134,-0.735264,-0.586801,-1.262121,-1.054029,0.053359,0.027865,1.028546,0.060493,0.626309,0.779631,-1.488193,1.184738,-2.206271,0.937199,-0.697909,-0.384554,-0.395061,-0.181976,-0.884429,0.879994,-0.010968,0.219916,-0.922719,-0.295161,1.189577,-0.938731,0.198239,-1.015258,0.052866,1.434104,-0.072731,-0.741132,0.121149,0.705189,-0.135973,-0.598408,-0.170269,0.599703,-0.184018,-0.520695,-0.339614,-0.008365,0.006504,-0.470930,1.403956,0.202409,0.584173,-0.775626,-0.790133,-0.514283,1.001841,0.302114,-0.956408,1.046260,-0.852612,0.511772,0.952971,-0.770855,-0.056537,0.549708,-0.383856,-0.337458,1.639802,-0.002963,-0.308334,2.344468,-1.443935,-0.780317,0.643515,-0.997809,0.672559,-1.949745,-0.269113,-0.460554,-0.577729,-0.125487,-0.138704,0.932470,1.424156,0.932652,0.157966,0.997520,0.140451,-0.372297,0.969141,-0.529883,-0.152306,-0.464361,-0.862718,0.421792,-0.029189,-0.497149,1.040290,0.108077,1.031006,-0.105700,-2.043328,-0.512507,-0.445314,0.277244,0.322609,-0.710835,-0.457329,0.049216,-0.089388,1.421948,2.236418,0.232720,-0.914902,-0.431406,0.263796,-0.499046,0.212006,-0.848536,0.477315,-1.208430,1.136606,-0.084068,0.061760,-0.064339,-0.644024,0.246344,0.092610,0.203489,1.192669,0.482352,-0.874858,-1.418522,-0.185533,0.750559,0.807680,0.244103,0.437623,1.542210,2.504253,-1.340813,-0.733944,0.213653,0.471893,-1.115479,2.002929,-1.809383,0.070079,-0.305223,1.140182,-0.833113,0.454938,0.482438,0.025437,-0.178917,0.288105,0.176144,-1.175426,-0.049521,-0.491602,1.348198,-0.111856,-0.338717,-0.148909,1.436647,0.325892,0.781124,0.529013,-0.239101,-0.783213,0.770250,1.801946,0.801778,0.552973,-0.091173,-0.868777,1.762071,0.095893,0.377195,0.948843,0.303514,-0.110659,0.292029,0.709572,0.502666,-0.073219,-0.319150,-0.321470,0.344850,1.929886,-0.672251,-1.075914,0.708962,1.316347,-0.768031,0.743342,1.497899,0.425212,-0.466921,-0.056127,0.564963,-1.357971,-0.327711,0.483886,0.093605,-1.981369,0.930858,-0.123612,-0.559512,-0.489508,-0.470684,-0.710731,0.768293,-0.221100,0.755358,-0.413719,1.766391,0.641411,-0.387126,0.695295,-1.359116,-1.789709,-0.743898,0.161343,1.600076,-0.182337,1.355704,1.226014,0.204927,0.676151,0.379101,0.661990,-0.276328,0.427059,-1.103346,0.542988,-0.366582}
    },
    {
      {-0.144092,3.111413,0.275739,-0.593052,0.219319,1.109667,-1.770126,1.601714,1.281073,-1.218766,-0.140831,-1.012282,-0.405631,-0.079080,-0.101235,2.264794,-1.373325,2.071424,0.474320,-1.509848,-0.730678,-1.334510,0.902927,-0.364798,0.295231,-0.444219,0.350463,0.561699,-0.937872,-0.246655,-0.235703,-0.629141,1.615706,5.034301,0.890789,-0.705318,-2.107843,-0.574942,-2.005646,-0.381958,-0.497979,-0.548427,1.172984,0.997877,-1.156065,1.664445,1.221631,-0.011819,1.699738,-2.412194,0.456456,1.221319,-1.170044,0.981907,2.010332,-0.853415,-0.739062,-0.660778,0.320623,1.655615,-1.373552,0.606174,1.915677,-1.011121,-0.240187,-2.886066,-1.382765,-0.318916,0.667846,-1.171275,2.350362,1.088324,0.743323,1.605001,0.571795,-0.332992,-0.803193,-0.955891,-0.962727,2.230933,0.015763,-1.895668,-2.460817,-0.740557,0.833976,0.803802,-1.041662,0.129281,1.959552,-0.858211,1.066887,1.130435,-0.387870,1.868830,-0.141592,0.150013,1.626754,-1.446403,-0.273696,0.078140,0.539112,1.419471,1.021152,1.973911,-0.819481,3.186774,-0.961458,2.996002,-2.872199,-2.880030,-0.026364,-0.296412,1.229782,0.014402,1.700838,-1.586108,0.087369,-1.156390,-1.204858,2.524790,1.728744,-1.175696,1.470052,2.322251,1.290486,-1.886255,0.931261,0.272137,-1.203850,1.238219,-0.266328,-0.340232,0.099888,2.735715,0.976735,-0.221060,-0.181913,2.310477,0.451756,-0.103048,0.552019,-0.352529,0.407398,0.323962,-0.039986,1.077871,2.559450,-1.144732,-0.808635,-0.027057,-6.926561,2.036126,0.748770,0.483583,1.460704,-1.089411,0.288977,-0.132031,-0.349932,0.844006,2.184717,-2.250972,2.506027,0.321392,-1.788947,3.297601,0.504328,-0.320762,0.162659,-0.715682,1.544668,1.578656,-0.281113,0.459888,0.060181,-0.538641,-0.494735,-1.913868,2.105100,0.325798,0.501373,2.795819,0.751549,0.257494,-1.585881,0.548913,2.853882,0.081357,-0.128288,-0.450495,-0.668497,-0.157754,0.176499,2.464616,-1.527801,0.247673,-1.190296,-1.595949,-1.576454,-0.422593,0.376075,-1.301706,1.217446,2.014869,0.845672,-1.593868,-0.168784,1.342341,-0.830447,-1.516672,1.547249,3.057026,-0.240239,2.706748,0.710862,-0.061235,2.274668,-0.619616,-0.776583,-0.089033,0.770403,0.711029,-1.365263,1.606371,1.524892,-0.861057,-0.108666,0.385894,-0.608341,0.509430,0.077592,4.131281,1.701931,0.849173,4.624940,-2.623225,0.699327,3.405285,2.638300,-0.642586,0.189282,1.892984,-1.257770,2.353282,1.899823,0.548410,1.562056,-2.873744,1.034442,-0.896826,0.116495,1.305097,-1.182791,0.863707,-0.269059,0.894845,2.740266,1.203903,-0.163554,2.327522,0.204341,-1.776321,0.240331,-0.327125,-1.149376,-0.593067,-1.115672,3.293096,1.617575,-1.383343,0.661423,0.818212,1.553203,0.981348,1.591927,-1.098343,-1.063552,-0.861443,1.209520,2.241547,0.073574,0.988838,0.698790,-1.707299,0.377504,0.185235,1.506366,1.163012,-0.765721,1.006424,-1.750020,1.662904,-1.146487,2.892453,0.295990,3.282506,-4.300355,1.827431,2.260391,1.443575,-1.435646,-0.952222,1.882059,2.404595,1.895053,1.300968,-0.132787,2.296386,0.435544,1.916817,0.225924,0.689382,0.440591,-0.778827,1.417427,-0.723655,0.044588,-3.132965,0.117179,2.202641,1.187576,0.052403,-0.363617,3.476150,-0.630489,-0.904238,0.261186,0.253437,-0.621194,1.876138,-0.807203,0.019377,1.434255,0.861671,-0.721157,1.290597,-2.118401,-0.357906,1.487613,0.535710,-0.261189,-0.480632,-2.585994,-0.329597,-2.837112,0.041018,1.172199,-1.496656,2.433371,-0.644995,0.285760,-0.646513,3.261559,-1.526666,1.823787,0.817407,1.577399,-0.775575,-0.227933,-0.954745,1.772179,2.504212,-0.290615,-1.012810,0.023660,-0.927714,0.838357,-2.860299,1.041226,0.145017,0.656310,5.421797,-1.091137,1.886104,-1.082217,-3.364660,2.262225,0.944351,-2.792065,-0.849125,1.531822,-2.705507,-0.688264,1.060030}
    },
    {
      {0.238697,0.264529,-0.305290,-0.359573,1.088744,0.544129,0.933304,-0.099728,-0.828571,-0.360849,-0.799327,-1.575724,-0.106527,-0.719648,-0.203805,0.399402,-0.326874,-0.087829,1.782252,0.496933,1.052069,-0.056479,0.200912,0.878001,-1.270537,-0.313351,1.444097,-0.214862,1.501696,-0.426285,-0.389206,2.045359,0.681172,0.325134,-0.871486,-0.375501,0.413147,-0.246470,0.826503,-0.495631,-0.346235,-0.283531,0.596859,-0.083997,-0.559415,0.371491,0.080284,-0.019944,0.691240,0.650115,0.574939,-0.181507,-0.859533,0.493988,0.446369,-0.445384,-0.621699,-0.637931,0.171373,-0.672673,1.236069,-1.571326,-0.156666,0.607184,0.511125,1.347149,-0.143451,-0.326000,-0.222362,0.523855,-0.658919,-0.266939,1.245493,-0.598362,0.537786,-1.039729,0.186219,1.467490,1.593174,0.383746,-0.664492,2.089167,1.009577,-0.185923,1.505266,1.505888,1.688239,0.927586,0.215153,0.685281,-1.067171,-1.091849,2.230001,0.151725,1.077844,-1.859695,1.532523,2.022529,0.898607,-0.806177,-0.878900,1.065797,3.412869,-0.551855,-0.802247,0.616049,-0.054327,-0.631995,1.529312,1.145371,0.872818,1.508552,-0.112734,-0.127854,0.285176,-0.000374,0.689355,0.396210,0.543542,0.337635,0.949204,-0.293009,0.428144,0.825820,-0.346649,1.251535,0.189978,1.262426,-0.311430,-0.158902,-0.017087,-0.504786,-0.790290,0.213863,-0.055279,-0.577308,-0.196092,1.028239,-1.037897,0.647717,-0.338952,2.480312,-0.633146,-0.764697,-0.723782,0.276721,0.528208,-0.271051,-0.795780,-0.040260,-1.354481,0.402623,-0.391885,-0.073408,0.490414,-1.494433,0.112434,1.705617,-1.201108,-0.029649,-1.162420,0.938938,-1.112096,-1.114580,3.306487,0.584827,1.287444,-0.470548,1.870729,1.222523,-0.969704,-0.384762,-0.714289,-0.036237,-0.716930,1.835343,-1.148976,1.745070,0.363350,0.946627,-0.009648,0.648464,0.279133,-0.836689,1.077608,0.301469,0.148271,-0.742585,-0.848877,0.205519,-0.200688,-0.579512,-0.229603,0.796925,0.102656,-0.407716,-0.283534,0.482073,0.367702,-0.391343,-0.183576,-0.703100,-1.229873,0.698704,0.515617,1.233420,0.396221,0.626672,0.543811,1.830324,-0.096931,0.320720,-0.390894,-0.269816,-0.120199,-0.057363,-0.242493,-0.495072,-1.877137,-0.542770,0.464231,-1.345923,-1.650717,0.115718,0.370040,-0.513437,-0.230165,-0.001828,-0.247041,0.710079,0.194437,0.160679,0.218025,-1.315455,0.728981,-0.316402,-0.665813,-1.878909,0.143989,-0.137694,-0.346802,0.710131,1.194758,-0.315078,-1.760347,0.147651,0.580539,-0.212639,1.939008,1.549815,-0.509399,-0.097578,-0.184080,-0.269898,-0.596625,-0.100596,-0.014887,0.860097,-0.762525,0.302341,-0.549893,-0.255772,-0.198029,-0.329452,0.632331,-1.040355,-0.548801,-1.046478,-1.574723,1.477797,1.091112,0.619758,-0.471348,0.224989,0.424653,1.619204,0.800041,0.467628,-0.908394,0.962684,-0.414566,0.435561,0.167674,1.939327,1.151144,0.190750,1.044667,0.547091,-0.147895,-0.043351,0.413754,-0.460934,-0.372544,-1.478259,0.655714,-0.202851,0.847376,0.739804,0.755275,-0.341267,0.058831,-0.914808,-0.072298,0.257732,-0.147735,0.213927,-0.527498,0.320930,0.236155,0.965413,-0.504142,-0.411135,0.528363,0.696472,0.608811,-0.218938,-1.185730,0.632033,-1.513638,0.426274,-1.149285,-0.135750,-0.489776,1.792150,2.280596,-0.065306,-0.977828,-0.550885,1.265768,-1.280646,-0.134060,-1.155664,0.122688,-0.326962,-0.468435,0.961524,-0.116725,-0.680996,-0.075357,0.268575,0.890633,-0.674766,0.278462,-0.538179,1.723587,-0.568915,-0.609725,0.679058,-1.698350,-0.229726,0.120452,0.211271,-1.495618,-0.469883,0.356174,0.531127,-1.839926,-0.430573,-0.534155,0.296987,0.104425,0.972919,-0.019378,-0.429471,0.639686,1.695325,0.898879,-1.255067,1.334900,-0.825952,0.294710,1.910812,-0.309085,-0.648580,-0.077018,-0.079406,0.254295,-0.516981,0.886707,-0.014998,0.565371,-0.510719,-0.294861,0.260689}
    }
  },
  {
    {
      {0.010219,1.182949,0.890997,-0.010457,-0.334395,-0.335575,0.246977,-0.028327,0.006039,-0.363569,-0.313159,1.157931,0.101791,-0.009636,-0.246003,-0.176000,0.333284,0.066625,0.006440,-0.035498,-0.176331,0.337954,0.681355,1.147625,0.464869,0.019393,0.006582,-0.244036,-0.451067,-0.083749,-0.151047,-0.637920,0.421823,0.221694,-0.041727,-0.264992,0.809772,-0.230181,0.575157,-0.495109,-0.290875,0.257690,-0.414870,-0.417977,-0.253623,-0.125541,-0.293284,0.408503,0.137027,0.960351,-1.157011,0.459671,-0.106837,-0.015357,-0.258343,-0.022186,0.045976,-0.360606,0.523359,-0.525682,0.090282,-0.002556,-0.647141,0.380863,0.487298,0.578182,0.136040,-0.020407,0.380884,0.589767,-0.160035,0.272952,-0.204352,-0.220451,-0.716946,-0.145202,0.432689,-0.023963,-0.151284,0.166954,0.269338,0.270314,0.048578,0.162135,0.118799,1.506009,0.188992,0.077547,-0.101460,0.315802,-0.178405,1.661948,-0.329834,-0.630310,-0.551978,-0.061012,1.876951,1.240970,0.693997,-0.506662,-0.086517,-0.780864,0.401557,-0.440883,0.002532,0.193565,-0.264836,-0.555207,0.069155,-0.119326,0.449845,-0.080088,-0.165931,0.240805,0.225693,0.218501,0.359842,0.150546,0.580932,-0.010021,0.138731,-0.077210,0.140030,-0.218514,-0.005988,-0.423366,0.092957,-1.029246,0.249794,-0.222926,-0.542802,-0.487769,1.228352,0.240955,-0.597876,-0.511798,1.187631,0.136376,0.195641,0.870010,-0.355355,0.079822,0.065539,-0.696682,-0.162492,0.606636,0.093866,-0.083612,-0.629258,-0.035368,0.790847,-0.252532,-0.621328,-0.697105,0.007260,0.078178,-0.090791,-0.331789,0.447155,-0.051660,0.398853,0.126911,0.604409,-1.005748,-0.932947,-0.000249,0.280669,-0.142761,0.027654,-0.055845,-0.580613,0.589737,0.219700,1.989459,-0.109666,-0.689819,0.154927,-0.194783,1.236683,-0.799919,0.083673,-0.434671,0.087294,0.314891,-0.348035,0.409886,0.363877,0.275658,-0.275006,1.063377,-0.484787,-0.114248,-0.441065,0.176429,0.141090,-0.391377,1.207429,0.285171,0.197430,-0.164126,1.527144,-0.059358,1.197044,0.590501,-0.517399,1.355591,-0.542517,0.589582,0.319904,0.054262,-0.671197,0.427092,-0.328067,0.516831,0.452865,0.742004,-0.548294,-0.140854,0.124310,-0.033417,-0.098785,-0.215417,-0.269779,-1.212026,-0.238602,-0.228443,-0.272915,-0.266212,-0.424214,0.422301,0.385467,0.498751,-0.894332,-0.062740,0.297188,0.797190,0.247464,-0.379604,0.484348,-0.259887,-0.289328,-1.276861,0.098688,0.069434,0.205901,0.111511,0.895266,0.917749,0.472932,-0.001535,-0.176651,0.167182,-0.278454,-0.742840,-0.669319,-0.345712,0.268009,-0.306397,0.194476,0.550141,-0.314234,0.951786,-0.180060,-0.445926,0.664065,-0.943794,0.939003,-0.905353,0.212459,-0.099889,-0.143895,-0.105164,-0.518382,-0.380120,0.354402,-0.059079,0.404148,0.461059,-0.146975,-0.931053,-0.115672,0.213761,0.457308,-0.547971,-0.154659,0.006477,-0.757583,0.353928,-0.405429,-0.364315,0.755944,-0.633625,0.532378,-0.938647,0.341103,-0.214926,1.603413,-0.126536,-0.600774,0.803982,0.613830,-0.507558,0.703202,0.491498,-0.813458,-0.343488,0.020441,-1.450658,0.481742,0.189552,-0.478714,2.189433,0.103758,-0.234523,-0.072535,0.374187,-0.401563,0.880393,0.844793,-0.238827,-0.013831,-1.119489,-0.207114,0.749952,-0.079390,0.522892,0.169057,-0.176698,-0.334561,0.198214,0.488628,-0.517583,0.145281,-0.476246,-0.067071,-1.286643,0.496555,-0.250831,-0.468339,0.327971,0.510407,0.042813,0.869378,0.372411,-0.533282,-0.225159,-0.196594,0.355655,-1.306393,-0.361295,0.053616,0.113497,-0.399487,0.316657,0.059598,-0.325973,-0.324832,-0.142523,-0.095710,0.102186,-0.942764,0.327738,-0.342555,0.402796,0.175915,-0.339037,-0.043624,0.555443,-1.126761,-0.023688,0.288876,0.208194,-0.322620,1.297918,0.347174,0.502340,-0.570949,0.453399,0.142985,-0.293240,0.028723,0.453911,1.213856,-0.746140}
    },
    {
      {0.076765,-0.361579,0.574743,-1.002196,0.058660,-0.725471,0.934299,0.087644,0.119047,-0.250190,-1.406696,1.734873,0.664207,-0.474566,-0.291892,0.759553,0.755522,-0.036401,-0.367790,-0.183592,-0.418688,1.345349,0.980399,4.741781,0.153217,-0.483487,0.634881,-1.366818,-0.719451,-0.387333,-0.394260,-0.004640,0.215434,0.330118,-0.041098,-0.052076,0.475312,-0.144238,1.085215,-0.624101,-0.261606,0.147701,-1.652195,-0.982636,-0.824997,0.112133,0.298990,0.633198,0.838224,1.737319,-0.541748,-0.305018,-0.682090,0.354376,0.823321,-0.748391,1.483343,-0.622566,1.132579,-0.377896,0.907892,0.366120,0.094425,0.089938,1.277126,-0.339011,-0.663127,-0.868761,0.354204,1.100601,-0.569576,-0.556604,0.187301,-0.509614,-1.174159,-1.001421,1.330445,0.980097,-0.074919,0.242476,-0.409154,1.960813,-0.767617,-0.037698,0.884401,0.014462,-0.141848,-1.269051,0.010846,1.504519,-0.991274,-2.367656,-0.303606,-0.158586,0.204254,-0.113008,0.308294,3.410021,1.154378,-0.441110,-0.307179,0.097658,0.812878,-0.581791,-0.471577,0.104483,-0.157048,-0.556255,1.416131,-0.009841,-0.996104,-0.149654,0.406347,1.758375,0.071319,-0.710238,0.789251,-0.881930,1.139941,0.589792,0.992411,-0.127131,0.485205,0.736713,-1.413121,-0.681264,0.252556,-0.622579,-0.244890,-0.642683,-0.604679,-0.545365,3.250846,0.483782,-0.697512,0.154098,1.720465,-1.450930,0.389018,-0.599023,-0.446314,-0.259035,-0.997296,-0.436110,-0.610375,1.601481,0.600885,-0.220404,-0.312991,-0.032391,4.943511,1.108207,-0.534133,-0.675451,0.711046,0.161039,-0.103818,-0.487056,1.410191,0.233707,1.135528,-0.221618,1.027202,-0.645681,0.396631,0.894012,1.128009,-0.469554,-0.968272,-0.244380,-0.622365,1.559460,-0.173736,1.917297,-1.104753,-0.649404,-0.906427,-0.930617,0.575914,-1.013445,-0.007927,0.323112,0.037765,2.080144,-0.730995,0.928184,0.941444,0.581650,-1.060126,1.711521,-0.088871,-0.201895,-0.543446,-1.892233,-0.114785,-0.643902,0.414752,0.886061,-0.639533,-0.569624,0.204364,-0.144858,0.114590,-0.172920,0.160914,2.180130,0.336785,1.520100,-1.325576,0.472309,-1.364364,-0.232705,-0.646786,1.233192,1.424461,1.304749,-0.160420,0.330458,2.008208,-0.575833,-1.418737,-0.475133,0.053354,-0.274532,-1.055601,-0.188398,-0.304255,-0.260889,-0.775365,-0.065820,-0.309591,0.842701,0.151164,-0.238982,-0.023286,1.134071,-0.909716,-0.120612,-0.622939,-0.523298,-0.510088,-0.998687,1.527030,0.011930,-0.589604,1.181474,-0.185146,-0.206641,-0.265637,-0.123476,-0.910789,0.065563,-0.122418,-0.351007,-0.508874,-0.974117,-0.388263,0.911214,0.420841,0.161565,-0.851576,2.657139,-1.066798,-0.140619,1.237548,-0.463992,0.511895,1.658047,0.895391,0.400767,0.944843,0.132556,-0.525598,-0.873602,0.054913,-0.826656,1.141159,-1.158184,-0.424346,-0.338688,-1.196979,-0.244118,0.042637,-0.340752,2.008070,1.256994,0.842938,1.832993,0.209653,-1.189099,0.507678,0.039721,-0.387485,0.121087,0.818896,0.593239,0.659227,0.436378,0.461773,1.239414,0.372099,0.517502,0.478782,0.465494,-0.909684,0.383971,-0.254853,-1.240528,-0.655217,0.347253,-0.460885,0.871994,2.004665,-0.908589,0.313683,1.450389,-0.587588,0.640314,1.039742,0.306622,0.175313,-0.212088,-0.467510,1.419522,-0.004167,1.340236,0.024592,-0.374375,0.120659,1.347355,-0.207645,-0.627761,1.578869,-0.391254,-0.172117,0.649338,0.607887,-0.865911,-0.051611,0.855295,-0.717195,-0.161402,0.856315,-0.182844,-0.739591,-0.265747,-1.182089,-0.287454,2.016054,-0.436628,1.231996,1.655431,0.179937,-0.425514,0.575751,0.455329,-1.775086,-0.420591,-0.663748,-0.139745,0.060926,1.078417,-0.574126,1.373535,0.734270,0.308130,0.442555,1.533564,0.261541,0.137298,1.453064,1.700066,-0.344554,1.181291,-0.085081,0.650904,-0.941253,0.896183,-0.871279,-0.686030,0.460032,3.161671,0.305021,-0.858417}
    },
    {
      {0.100645,1.114888,-0.331107,0.071726,0.300339,0.290358,0.815243,0.078843,-0.538048,-0.502420,-0.290431,-0.437198,0.068177,0.093790,-0.197529,0.041627,0.055196,0.265927,0.216698,-0.143572,0.054035,0.506103,0.379577,-0.531945,-0.269069,-0.319967,0.149035,-0.205408,0.437637,-0.234026,-0.298301,0.181445,0.133307,-0.240672,-0.143025,-0.306764,0.634104,-0.175500,0.428851,-0.371288,-0.114087,-0.318686,-0.816460,-0.575793,-0.235616,-0.315646,-0.278601,0.297853,0.322501,1.099409,0.039824,-0.451408,-0.461163,-0.082694,-0.017228,0.153622,0.282146,-0.002029,0.405999,-0.664096,0.249258,0.067547,-0.483945,0.890628,0.480559,-0.519233,-0.182757,-0.334885,0.729700,0.858871,-0.304513,-0.798497,0.036872,-0.540920,-0.323672,-0.309693,0.609373,0.172965,1.289847,0.311874,-0.585053,1.612413,0.629646,0.114336,-0.025800,-0.280070,-0.090722,0.016509,0.201859,0.185995,-0.842495,1.353822,-0.240688,-0.504508,-0.438414,0.517458,1.512353,1.509429,0.510583,-0.499705,-0.114797,0.347205,-0.179937,-0.900570,-0.414138,-0.163964,-0.285631,-0.462483,0.805638,0.157499,-0.077389,0.159768,-0.100474,0.265819,0.462314,-0.380652,0.809228,0.165506,0.649945,-0.076596,0.573866,-0.128551,0.218678,0.170589,0.030923,0.934806,0.106052,-0.710123,-0.240799,-0.321169,-0.503729,-0.302623,1.440222,0.066962,-0.294866,-0.486731,1.201937,0.010528,0.328176,-0.904657,-0.270785,0.304814,-0.820328,-0.374653,-0.509073,0.116407,0.398787,-0.202630,-0.331209,-0.040863,1.104553,-0.499840,-0.598721,-0.913195,-0.209185,0.507114,-0.336090,-0.048912,0.766525,0.249000,0.499624,0.058885,-1.617043,0.312294,1.017353,-0.539157,-0.029361,-0.412450,0.696973,0.554825,-0.646124,0.868118,-0.632589,0.866115,-0.111045,0.338291,-0.562797,0.141001,0.697679,0.034915,0.147304,0.474427,-0.126022,0.362759,-0.344009,0.236666,-0.010284,0.245227,-0.152883,0.467223,-0.034924,-0.014907,-0.272456,0.604601,-0.232936,-0.170980,-0.231124,0.566290,0.007983,0.050540,-1.971998,-0.027709,0.109156,0.221638,0.273467,1.136923,-0.006861,0.061627,0.139258,0.645691,-0.644527,-0.275856,-0.125843,0.553161,0.437659,0.677859,-0.690533,-0.253077,-0.092712,0.280080,-0.195513,-0.359613,0.632956,0.277463,-0.137308,-0.359892,-0.053429,-0.342656,-0.404723,0.251890,0.564693,-0.011854,-0.765144,-0.041301,-0.167407,1.162975,-0.145803,0.019580,-0.093162,-0.236358,-0.102932,0.795054,0.753565,0.391282,-0.357966,0.001591,0.706621,0.831264,0.511748,0.205816,0.159432,0.101282,-0.211340,-0.495714,-0.742042,-0.354667,-0.589965,-0.630359,0.073692,0.248573,0.000580,0.987407,-0.118965,-0.451605,0.617547,0.078599,0.084253,-0.408506,0.721268,0.321917,-0.312968,0.288279,-0.408052,-0.341439,0.273829,0.344054,0.365540,0.028307,0.108510,0.348646,-0.128580,0.472865,-0.036168,0.386364,-0.311703,0.094024,-0.449032,-0.376016,-0.422389,-0.340022,0.712420,0.263693,0.171605,0.708064,0.255824,0.310631,0.640310,1.487101,0.106982,0.329863,0.864113,-0.412985,0.469950,-0.008337,-0.365590,0.249577,0.021600,-0.152429,0.515120,0.041145,-0.563382,-0.192236,0.302721,-0.128251,0.008545,0.891534,-0.161069,1.025341,0.035784,-0.321833,-0.250020,-0.733854,-0.392207,-0.111832,0.515669,0.831427,-0.902325,-0.532296,0.371401,-0.332830,0.109448,-0.269004,0.047887,-0.348799,-0.106020,0.806104,0.167362,-0.015296,0.074222,0.325748,0.625391,-0.023324,1.208166,-0.207466,0.825942,-0.141592,-0.689488,-0.014021,-0.680143,-0.557037,0.430645,0.117258,0.095708,-0.045419,-0.357681,2.005304,1.171572,-0.081049,-0.240953,-0.014899,-0.908610,-0.007948,-0.425267,0.428648,0.190146,1.044181,-0.019243,1.590707,-0.094176,-0.349941,-0.187343,-1.053466,-0.435109,0.485662,-0.066171,0.549367,-0.855793,-0.158695,-0.070119,-0.067382,-0.023622,-0.097091,-0.096318,-0.092441}
    }
  }
};
