#pragma once

#include "C:\Users\Baron\Desktop\EE_297_Repo\EE_297\hardware_imp\vitis_hls\lane_seg_hls\lane_seg_top.h"

// Auto-generated with BN folded

data_t enc16_ir15_dw_w[3][3][1][960] = {
  {
    {
      {1.026919,0.562802,1.675527,-0.405651,0.053550,0.228062,-1.637195,-0.340841,-0.232620,0.352139,0.003619,-0.296731,-0.568891,-0.014743,-0.614660,-0.398121,0.044107,-0.380105,-0.928986,-0.415040,-0.646861,0.783794,0.003627,-0.958115,0.019365,-1.189676,-0.172782,-0.139821,-0.022731,-0.206436,0.625824,0.043096,0.860732,-0.201699,0.409855,0.278968,0.385802,0.143652,0.498991,0.359539,0.102838,-0.522512,-0.182861,-0.569113,-0.047755,0.116830,0.027313,-0.534869,-0.054343,-0.027708,-0.351303,-0.560449,-0.036963,0.679777,0.134797,-0.893874,-0.644507,-0.046214,-0.358020,0.587649,-0.155740,0.329899,0.266658,0.197979,0.050412,1.051057,0.212908,-0.419440,-0.335721,-0.318955,-0.657293,-0.672124,-0.246354,0.187257,0.503878,-0.497067,0.189111,-0.062327,0.358566,-0.487282,0.003776,0.186871,0.690233,-0.062309,-0.447814,0.135798,-0.193267,0.161265,-0.205555,-0.440398,-0.372650,-0.302759,0.443362,-0.090002,-0.242548,0.085582,-0.126766,1.413559,-0.207458,0.357804,-0.723355,0.339561,-0.589143,-0.572253,-0.538209,-0.233516,-0.122813,-0.662748,0.691996,0.648408,0.068175,-0.382651,-0.120649,0.823310,-0.230554,0.141532,-0.312541,0.903942,0.456573,-0.104429,-0.232449,0.854811,-0.266234,-0.627426,-0.216126,0.374324,-0.567300,0.334597,-0.079160,0.070973,-0.253498,0.675238,-0.196182,-0.093179,0.634858,-0.763203,-0.567671,0.063270,-0.705305,0.092177,0.065586,0.114365,-0.390393,-0.400522,-0.545380,-0.805891,-0.417847,-0.488030,-0.502802,-0.886600,0.521227,1.151726,1.947810,0.535464,-0.403434,-0.470750,-0.161670,-0.492034,-0.098502,-1.022027,-0.508603,1.550738,-0.413299,-0.214615,-0.421423,-0.361571,-0.109112,-0.105725,0.013599,0.925208,-1.061564,-0.100965,-0.221803,-0.165127,0.440966,0.037827,0.633707,-0.072175,-0.233398,-0.720266,0.339514,0.693990,-0.129867,-0.238194,-0.476337,-0.464656,-0.377282,0.167984,0.215083,-0.667941,-3.124458,-0.020501,-0.292829,-0.639988,-0.467106,-1.026778,-0.630824,0.680866,1.161259,-0.447099,-0.286862,0.485788,-0.312200,-0.109642,-0.876936,-0.009375,0.400133,-0.990440,-0.038740,-0.748837,-0.020883,0.322122,-0.163695,-0.371892,-0.000859,0.018418,-0.477533,-0.787571,-0.063229,0.061546,0.568210,-0.238177,-0.030902,-0.420001,1.048029,-0.305471,-0.627322,0.039174,-0.300152,0.216695,1.229815,0.205313,0.696331,-0.098415,-0.625992,-0.357691,-0.405228,0.457685,-0.494504,0.092683,0.776479,-0.581599,-0.247620,-0.531577,-0.583004,-0.000863,1.729418,-0.659670,-0.463849,0.133205,-0.512884,0.606654,0.166662,-0.409604,-0.377914,-0.084396,0.315459,0.668875,-0.203913,-0.311929,0.954098,0.346604,0.497050,-0.897449,-0.205880,0.418256,-0.306915,-0.465027,-0.203916,-0.413272,-0.204493,-0.462031,-0.802678,0.212886,-0.317824,-0.400168,0.798931,-0.177481,-1.071179,0.180652,-0.461718,0.003608,0.083627,-0.275525,-0.667994,0.824005,-0.444904,-0.259633,-0.002216,0.090158,0.117747,-0.062884,0.125222,0.416161,0.580289,-0.629091,-0.231126,0.604438,-0.151314,-0.022981,1.435230,-0.135607,0.787930,-0.535289,-0.169998,0.126156,-1.460846,-0.192019,0.520343,0.018997,-0.116649,-0.418415,0.010394,0.078146,-1.084641,0.120984,0.763975,-0.326333,-0.320518,-1.034803,-0.296975,-0.376103,-0.369045,-0.498190,-0.724205,0.008899,-0.632351,-0.096679,0.012492,0.005758,-0.231488,-0.387408,0.626545,-0.250921,-0.151465,0.441544,-0.413014,-0.278151,-0.719805,-0.000487,-0.203532,2.448612,0.238770,-0.931627,0.000836,-0.041011,1.130491,0.340447,-0.014725,-0.347266,0.727746,0.370583,0.058725,-0.113609,-1.280743,-0.483447,-0.497998,0.035401,-0.842805,0.009284,-0.708588,0.180225,-0.373002,-1.217914,-0.141761,-0.509980,-0.107151,0.565844,0.144491,0.105880,0.694549,0.712617,-0.578945,-0.141826,0.126986,0.717216,-0.961747,0.044277,-0.427036,0.315574,0.633557,0.096894,0.331913,-0.371036,0.142925,-0.816107,-0.549816,-0.342489,0.516429,0.832935,0.060955,-0.549442,-0.098796,0.285508,-0.923844,0.173561,0.354244,-0.571140,-0.188107,-0.425177,-0.394969,-0.558955,-0.654994,0.065417,0.019766,-0.323029,0.005639,0.053847,0.015616,-1.310510,-0.050248,0.058421,-0.091223,-0.292787,0.414584,0.063493,-0.515620,-0.352298,0.012185,0.723779,-0.545651,0.720476,0.076451,-0.287279,-0.178457,-0.868539,1.164733,-0.030022,-0.234064,-0.173423,0.069465,-0.437371,-0.586697,0.919235,-1.197378,-0.362430,-0.160805,-0.562968,0.433521,-0.627817,0.429192,-0.313897,-0.114783,-0.309542,-0.154959,-0.153372,1.686090,-0.001519,1.314152,0.076499,-0.627599,-0.966794,0.629245,-1.274167,0.012022,0.544662,-0.241413,-0.482968,-0.231440,-0.021103,-0.319279,-0.313907,-0.046761,0.379386,1.273458,0.100656,0.675935,0.776123,0.169280,-0.500796,0.079530,-0.305782,0.527756,0.583317,-0.724767,-0.070486,-0.087102,-0.481205,0.858085,1.273062,-0.712650,-0.641630,-0.606247,-0.122438,-0.319747,-0.566553,-0.230730,0.167998,-0.223460,0.338809,-0.080137,-0.390465,-0.146526,0.199502,-0.424305,0.227545,-0.679352,0.097973,0.326565,-0.156721,0.182253,-0.040974,-0.538480,1.912901,0.008769,-0.269318,-0.367770,-0.314578,-0.362505,0.120411,-0.365177,-0.024422,-0.422868,0.349884,-0.220616,0.713361,0.033111,-0.408419,-0.222238,0.052267,-0.367418,0.397799,-0.469235,-0.351420,0.234551,0.390417,-0.305677,0.363301,-0.035729,-0.532454,-0.579306,0.040760,-0.354269,-0.589790,-1.245422,0.507115,-0.234654,-0.054370,0.105285,0.748672,-0.686314,0.212693,-0.647614,0.323471,0.146411,-0.389628,-0.300098,-0.346286,-0.531014,0.197244,0.694357,-0.033453,0.468490,-0.050579,0.262808,-0.187578,0.314741,-0.480307,-0.218406,-0.188132,-0.290227,0.415329,-0.757932,0.324495,-0.447692,-0.536745,0.108339,0.738964,-0.602093,-0.125877,-0.508196,0.901459,0.283976,-0.876844,0.156649,-0.100449,0.007125,0.798074,-0.696855,0.330729,-0.423716,-0.077862,0.327717,0.674609,0.021376,-0.136252,0.320478,-0.289799,-0.290134,1.051312,0.402587,0.647552,0.877881,0.245155,-0.233632,0.788470,-0.530774,-0.471718,1.379261,-0.428728,0.321726,-0.067857,-0.461625,-2.726898,-0.272571,0.060283,0.325431,0.337738,-0.175983,-0.140057,-0.410424,-0.588764,1.010380,0.035225,-0.121343,-0.083164,-0.348985,-0.394309,-0.529927,0.196006,0.883886,-0.059461,0.104800,0.042827,0.262308,-1.415158,1.205130,-0.498553,-0.182606,0.011563,0.313716,-3.128556,0.222856,0.147949,-0.365682,0.353003,0.281005,0.011174,-0.756553,-0.405727,-0.326180,0.120205,0.869702,0.706321,0.309897,-0.143622,1.119475,0.208234,1.021783,-0.439766,0.035517,0.071170,-0.106611,0.175779,-0.724214,0.588931,-0.751525,-0.075067,0.075015,0.191523,0.533895,-0.266864,0.028133,1.117515,0.306357,-0.108785,-0.058778,0.280056,0.202632,-0.738654,-0.484927,-0.091519,-0.408968,-0.638942,-0.044387,-0.108500,-0.133564,-0.309711,-0.044449,-0.088126,0.732243,-0.227218,-0.626175,0.652153,-0.067623,-0.442642,0.596836,-0.164333,-0.499786,1.014659,-0.022429,-0.079597,-0.227462,-0.458479,-0.575429,-0.348593,1.673925,-0.789661,0.017945,-0.188861,-0.321637,0.167529,-0.413599,-0.266416,-0.701407,0.800772,0.316490,-0.500638,-0.171598,-0.572960,0.690493,-0.349994,0.500444,-0.200237,-0.819102,-0.479448,-0.274993,0.615924,0.029082,0.057024,0.500602,1.431665,-0.355559,-0.425976,-0.868424,-0.969978,0.207590,0.522322,0.043133,-0.040112,0.125058,0.907238,-0.511592,-0.056280,0.103671,-0.424620,-0.449725,-0.402418,-0.058405,-0.294149,0.183601,-0.343391,0.307805,2.271179,-0.193633,0.353065,-0.380260,-0.547603,-1.129427,0.356231,0.520699,0.087558,0.270502,-0.326014,-0.283977,1.258801,0.043433,-0.551415,-0.592600,-0.254831,-0.481108,0.539409,-0.448678,-0.335697,-0.494567,-0.114827,1.368771,-0.578559,-0.339606,0.461492,0.500236,-0.542025,-0.055324,0.483076,-0.134115,1.205613,0.147883,-0.041732,-0.262537,-0.364834,0.009098,-0.561162,1.012124,-0.296446,-1.324093,0.155048,-0.367010,-0.550968,-0.686294,0.123511,-0.367958,-0.183862,0.677518,-0.951351,-0.647291,-0.187468,0.095432,0.241603,0.112147,1.564857,-0.654445,-0.337213,-0.633886,0.175926,0.461293,-0.149443,-0.214589,-0.161241,-0.663748,-0.689620,-0.197140,0.629570,1.807039,-0.374206,0.037818,-0.343677,1.037914,0.058065,-0.335017,-0.472871,-0.537588,-0.591916,-0.582836,0.700324,-0.352187,-0.325188,-0.916320,-0.792515,0.103442,-0.256271,-0.206404,-0.228005,-1.619948,0.111738,0.599581,-0.340888,-0.264188,-0.366034,-0.769083,0.599435,0.049394,0.280220,-0.010468,-0.706451,0.737231,-0.014696,0.212334,-0.402670,-0.311021,0.118470,-0.251813,-0.309681,0.016234,-0.158953,-0.141109,-0.406626,0.429783,-1.038945,0.026346,0.929869,0.383748,-0.425809,-0.518473,-0.346146,-0.684526,-0.550413,-0.276092,0.885334,2.217968,0.051427,1.151416,0.246476,-0.037764,0.212289,2.015928,-0.276886,-0.269865,-0.510032,-0.377077,-1.122110,-0.101282,-0.461173,-0.075526,0.032536,-0.608509,-0.194573,-0.401111,-0.408989,-0.276815,-0.060702,-0.249365,0.017513,0.531517,-0.023516,1.097284,0.065410,0.264127,-0.085087,-0.026568,-0.163025,-0.515473,-0.919424,0.288309,0.123766,-0.754396,-0.125833,1.301609,-0.407012,0.178539,-0.474576,-0.220202,0.493420,-0.618904,0.071458,-0.502546,-0.238644,-0.027998,0.248859,-0.053690,3.297437,0.555187,0.274907,0.503767,-0.123847,-0.743196,-0.116810,-1.129011,0.066094,-0.153557,-0.363186,-0.303505,0.065337,-0.292673,-0.246048,-0.407738,0.905357,-0.426089,-0.518315,-0.719347,0.361744,-0.074939,-0.498003,-0.366715,0.158404,0.172218,1.243234,0.617052,-0.392354,0.236145,-0.228496,0.347486,-0.034473,-0.345290,0.266857,0.285402,0.205206,1.241364,-0.877326,0.525431,-0.056386}
    },
    {
      {2.283059,0.274600,-0.922771,-0.348615,0.234410,0.303678,-0.466088,-0.465651,-0.306467,0.837746,0.629276,-0.201937,-0.305244,-0.106006,-0.345178,-0.244261,-0.279185,-0.274947,-0.397665,-0.519615,-0.212184,-0.005208,-0.109706,-1.049767,0.757020,-0.928826,-0.469383,-1.255933,0.254243,0.137780,-0.851687,0.025786,-0.029933,0.676862,-0.116504,1.379985,1.979144,1.006314,0.332000,1.216343,0.781398,-0.550273,-0.225698,-0.226319,0.584551,0.759101,0.241835,-0.521758,-0.578148,0.454506,-0.261762,-0.715385,0.777539,1.500697,0.406877,0.319530,-0.381542,-0.486219,-0.659499,1.977070,0.527851,0.301317,0.120836,0.259793,0.527339,-0.410840,0.165361,-0.014314,-0.582540,-0.299487,-0.391227,-0.124285,-0.656078,1.005127,0.046259,-0.666945,0.565762,-1.398850,0.684564,0.610735,0.018788,0.092647,0.706728,0.505853,-0.325422,0.605721,0.926265,-0.750598,-0.491821,-0.154356,-0.707572,-0.471502,0.404976,-0.139775,-0.572251,0.508615,0.541383,1.881926,0.086321,0.935750,-0.500473,1.586374,-0.426844,-0.287542,-0.796866,-0.329158,-0.267192,-0.447374,1.506565,1.551058,1.005374,-0.574908,0.410587,0.885814,-0.202815,0.213417,-0.380577,0.661300,0.538903,1.036758,-0.558352,1.083830,-0.723214,0.150353,0.060277,0.052923,-0.457132,-0.112950,0.941599,-0.264939,-0.363890,0.404545,-0.347804,-0.494204,1.570322,0.248732,-0.621542,1.402821,-0.547464,0.364214,0.751947,-0.110537,-0.208985,-0.927343,-0.529121,-0.397934,-0.296972,-0.353118,-0.502922,-1.137289,0.767415,1.188840,2.609977,0.041649,0.273346,-0.257048,-0.380150,-0.343188,0.617123,-1.918692,-0.197099,0.375934,-0.252639,-0.430304,-1.218454,-0.481821,-1.550392,1.185683,-1.050082,-1.091580,-0.561500,-0.222566,0.573186,-0.363907,0.389689,0.861884,0.626615,-0.554761,-0.592063,-1.143466,0.978248,1.770772,-0.300919,-0.636523,-0.226599,-0.545739,-1.023500,-1.369678,0.282849,-0.814351,2.027174,-0.193009,-0.262692,-0.214084,-0.389131,-0.526899,-0.547553,1.355870,1.032417,-0.579894,-1.478808,0.158027,-1.649044,0.016472,-0.279868,0.383832,0.212858,0.001988,0.418054,0.513538,0.484668,0.189891,-0.408567,-0.329696,0.659625,-0.801403,-0.469486,0.291022,-0.527838,0.926919,0.448219,-0.031034,-0.242404,-0.542511,0.063669,-0.549121,-0.640611,-0.087389,-0.284270,-0.046865,0.286923,1.012202,-0.212782,-0.823993,-0.698227,-0.436231,-0.565017,0.354664,1.163769,-1.020508,1.421454,-0.464646,-0.352868,-0.658615,-0.618297,0.992270,3.562711,-0.504536,-0.390048,-0.748887,-0.093975,1.521117,-1.623095,-0.437031,-0.158860,-0.270515,0.001539,-0.166254,-0.503145,-0.349900,-0.511728,-0.332767,-0.147150,-0.604127,-0.291774,-0.072209,-0.520871,-0.420987,-0.200480,-0.446388,-0.424659,-0.544229,-0.172154,-0.143007,1.503419,-0.706194,1.617128,-0.528069,0.281309,-1.062823,-0.312352,-0.781005,0.963016,0.121054,-0.165055,-0.150310,0.028311,-0.914045,1.113496,-0.424544,0.122018,-0.313303,0.874914,1.506396,-0.179916,-0.341423,-0.264353,-0.200510,-0.516086,-0.367521,1.074722,-0.542394,-0.207510,-0.218350,-0.699074,1.808378,0.073881,-0.295057,-0.197742,0.836610,-0.118841,0.079283,0.422186,0.371648,0.705097,0.912021,1.205553,-0.264419,-0.480768,-0.949757,-0.846457,-0.641624,0.161089,-0.399354,-0.043342,0.243225,-0.436171,-0.827664,0.381543,1.472421,-0.330942,1.017342,0.801000,-0.266559,0.374569,0.829963,-0.321747,-0.127015,-0.697562,-0.159452,-0.471272,-2.045665,0.278441,-1.821332,-0.499845,-1.154465,0.322918,2.004715,-0.008945,-0.391361,1.666890,0.606088,0.710007,-0.446202,-0.382646,-0.703736,0.023595,0.265221,-0.196144,0.606175,-0.416373,0.080615,-0.644159,-2.603588,-0.322981,-0.607208,-1.010357,1.875870,0.243024,-0.497159,0.044697,2.623042,-0.311447,-0.739484,-0.298787,1.646961,-0.859512,0.177272,-0.741459,1.285408,0.567396,1.006141,-0.841066,-0.363540,0.496252,-1.087766,-0.248710,-0.222841,0.807168,-0.749566,0.731989,-0.225215,0.415960,0.616255,-2.065044,-1.078158,1.723510,-0.136645,-0.180947,-0.192898,-0.508002,-0.469689,-0.215340,0.402325,0.055673,-0.453711,-0.111545,0.745868,1.062253,-1.432383,-0.391056,0.788710,-0.411022,-0.329138,0.898944,0.487391,-0.478832,-0.713483,-0.190258,0.052736,0.256208,-0.616023,0.232292,0.308924,-0.386423,-0.977862,1.949481,-1.378304,0.223827,1.320392,0.171101,-0.604408,-0.770746,-0.189637,-1.063417,-0.412097,-0.393443,-0.454605,1.606707,-0.416142,-0.161349,-0.830184,-0.562237,-0.546490,-0.394559,0.730104,1.602638,0.507865,1.955379,0.401288,-0.585690,-0.739861,0.552173,-1.256458,-0.431736,-0.407339,1.569719,-1.065162,0.482507,0.705617,-0.262208,-0.377799,-0.611840,0.361110,2.564474,0.561620,1.672388,1.063905,0.406542,-0.256951,-1.039275,-0.383403,0.065652,0.825849,-0.484525,0.331645,-0.345842,-0.270301,1.471304,0.107998,-2.003368,-0.297265,-0.327549,-0.078395,-0.831858,-0.451492,-0.495104,0.411551,-0.338317,0.389457,1.185734,-0.370354,0.363471,0.904930,-0.486536,1.375175,-0.539495,-0.571166,1.414355,-0.758785,0.504963,-0.518794,-0.308071,0.663696,0.232353,-0.629469,-0.413626,-0.464432,0.747038,0.370915,-0.472629,-0.240355,-1.029902,-0.018451,-0.689638,1.338071,1.304312,-0.560099,0.462053,0.316670,-0.863303,0.254756,-0.219611,-0.402935,0.135247,-0.158780,-0.186043,0.927302,-0.434082,-0.303498,-0.382930,0.206280,-0.374413,1.601444,-0.275724,4.663729,-0.584723,-0.204650,0.003728,0.665779,-0.613612,0.143037,-0.326972,0.962282,0.531175,-0.382506,-0.490169,-0.705834,-0.324469,-0.271521,1.121885,-0.196255,0.614691,0.392632,0.863603,-0.517062,1.207123,-0.572964,1.087074,-0.747978,0.437206,0.896122,-0.036162,1.087615,-0.092839,-0.162940,-1.069948,-0.336077,-0.652320,-0.200545,0.063913,1.313426,0.711706,0.287121,0.390807,0.202578,0.244872,-0.972857,-0.690193,0.202775,-0.718564,-0.149682,1.007958,1.115809,0.373850,-1.401699,-0.181716,-0.559795,-0.479983,-0.469291,0.114744,0.653147,-0.248347,0.345495,-0.736017,2.417061,-0.148597,-0.325940,1.227286,-0.333254,0.540594,-0.175287,-0.380777,3.336814,-0.433699,-0.316369,1.275151,0.143187,0.168997,-0.678283,-0.452423,-0.490392,-0.364289,0.161074,-0.152640,-0.609478,-0.501701,-0.229550,-0.904765,0.179951,-0.373121,-0.678318,0.789917,0.229996,0.028844,-0.851939,-0.065649,-0.324275,-0.387978,-0.462852,0.641451,1.104068,0.800963,0.264961,0.076326,0.106917,-0.999012,0.716548,-0.758246,-0.725338,-0.491935,-0.157563,1.172398,-0.257062,0.117469,-0.225814,0.063744,0.773392,1.407697,-0.629617,0.440581,1.124148,-0.715490,0.201144,-0.459959,0.825269,-0.471398,-0.302475,0.056965,0.375277,1.131042,-0.358218,1.573197,-0.149777,0.069984,-0.600794,0.857573,0.345550,0.574065,-0.622650,-0.406982,-0.747790,-0.577157,-0.064760,0.117651,-0.473760,0.925173,0.785011,-0.743462,1.142266,0.975976,-0.361670,0.227886,1.374452,-0.480616,-0.617980,0.026519,-0.774943,-1.178342,2.725103,-0.239889,-0.970547,-0.931894,-0.215334,0.140823,-0.538614,-2.804483,-0.400621,0.747643,-0.816392,-0.743904,1.631641,-0.635034,-0.660574,-0.136307,2.464875,-2.642615,-2.154144,-0.386243,-0.311444,-0.219328,-0.565588,-0.201348,-0.655137,-0.681173,-0.811865,-0.342536,-0.526386,-0.051565,0.574437,-0.012002,2.197934,-0.685957,-0.080648,-0.678862,0.212527,0.243783,-0.563323,0.341581,0.436049,0.233010,1.359688,-0.767933,0.281614,0.681669,-0.927036,0.622292,1.057632,0.483647,-0.394960,0.725942,-0.528562,1.524533,1.930827,-1.523930,-1.232703,-0.327366,-0.563911,0.091853,1.018076,1.292668,-0.343015,-0.121302,-0.067303,0.446886,2.793554,-0.363802,-0.001122,-0.205130,-0.768009,-0.364771,0.418740,-0.360169,-0.705273,-0.257987,0.072294,1.768495,-0.659335,-0.801855,0.687230,0.621950,-0.384241,0.563610,0.158712,-0.112242,3.046781,0.873630,1.181691,-0.420485,-1.253736,-0.604424,-0.113374,0.624271,0.251479,0.492262,0.363749,-0.546047,0.126254,-0.528386,0.379178,-0.431056,-0.339453,-0.519203,-1.313908,-0.229273,-0.639852,0.714467,0.029785,0.014211,-0.070059,-0.955406,-0.214719,-0.701810,0.346343,1.148020,-0.872557,-0.420871,-0.510026,-0.251095,-0.094171,-0.829076,0.871655,0.772908,-0.050502,0.045308,-1.405528,1.682843,0.226668,-0.546027,-0.346619,-0.566063,0.116263,-0.146435,-0.049573,-0.236871,-0.246029,0.079659,-0.204155,0.120001,0.004086,-1.343422,-0.216730,2.049779,0.460886,0.126399,-0.458171,-0.921080,-0.738548,-0.016955,-0.069994,0.437654,2.286283,-0.662664,-0.220636,0.243852,0.104000,0.261492,0.737390,-0.501468,0.405221,-0.111337,-0.663274,1.271247,-0.263291,1.746326,-0.576773,1.065779,-0.165918,-1.402726,0.570620,1.181656,-0.079071,-0.375071,-0.641139,-0.143882,-0.354133,-0.103434,1.808463,-1.575351,0.215026,0.845580,0.361342,0.389005,0.068304,1.020904,0.210160,0.459457,0.734655,-0.142277,-0.020067,-0.661180,-0.183186,-0.653354,0.243949,-0.599348,0.078660,-0.428718,-0.224265,-0.066022,-0.038772,-0.120766,-0.647848,0.367412,0.585220,1.275444,0.091593,0.785432,-0.012507,0.155377,-0.418620,0.023681,-0.301023,0.261435,-0.120582,-0.083407,-0.386539,-0.260191,-0.581569,1.089711,-0.853830,-0.514402,-0.854313,-0.448992,0.181824,-0.007460,1.214932,0.273170,0.548229,0.799763,0.872091,1.131640,0.366627,0.935343,1.015350,-0.063193,0.177984,0.193619,0.104536,-0.562358,-0.386446,0.181103,0.415944,-0.000673,0.485788,-0.221248,-0.346534,-0.817882,-0.146278,-0.317400,1.618891,-0.373910,-0.061435,-0.281720,0.533915,1.342095,-0.432300,1.715019,-0.526156,0.253248,-0.319315,0.437705,0.373807,-0.554548,0.029091,0.652219,0.580548,1.703429,-1.292159,-0.461628,0.207341}
    },
    {
      {1.632945,0.426704,-0.724187,-0.464658,0.192376,-0.069035,-2.442697,-0.512978,-0.244483,0.506517,0.067288,-0.432972,0.310867,0.168714,-0.627934,-0.657864,0.158343,-0.594509,1.288430,-0.464945,-0.440735,-0.587352,-0.311280,-1.229545,-0.035063,-1.435503,-0.319763,-0.134890,0.045202,-0.197244,0.216712,-0.199876,-0.657242,0.172059,-0.155255,0.430684,0.234323,0.049562,-0.632922,0.722476,-0.114322,-0.460517,-0.073442,-0.603759,-0.272858,0.113669,-0.046105,-0.707427,0.002681,0.036456,-0.221273,-0.149993,-0.141791,0.896852,-0.057604,0.469216,0.544259,-0.441470,-0.179728,0.573852,0.166168,0.483768,0.575918,0.060917,0.060828,-0.757269,-0.262264,-0.200129,-0.411339,-0.273285,-0.295733,1.005507,-0.020453,0.260194,-0.105523,-0.389660,0.142949,-0.022230,0.318885,-0.081603,-0.003063,-0.419903,0.655514,0.089046,-0.224751,0.144429,0.033547,0.804535,-0.202019,0.748448,-0.658461,-0.464342,0.368942,0.038843,-0.312170,0.481678,-0.297292,0.923012,0.063617,0.451938,-0.363789,0.213774,-0.473427,-0.202642,-0.402543,-0.324555,-0.398371,-0.728427,0.648299,1.502581,0.592736,-0.503220,0.253405,0.906966,-0.519517,0.106354,-0.283340,0.757502,0.161663,-0.289890,-0.676728,0.795381,-0.314925,0.450874,0.510243,0.070075,-0.513106,-0.445588,0.273904,0.055548,-0.437031,0.356389,-0.193460,-0.108959,0.756143,-0.515580,-0.523243,-0.054455,-0.755394,0.707087,0.191898,0.756036,-0.160226,-0.784139,-0.338090,0.832793,-0.185264,-0.538609,-0.231839,-0.861656,0.884039,1.428460,2.312846,0.180833,-0.049869,-0.452763,-0.145215,-0.693280,-0.393598,-0.928690,-0.436747,1.420716,-0.616694,-0.126143,-0.088469,-0.441118,0.032366,0.469374,-0.122253,0.175696,-0.814873,-0.816656,0.335450,-0.413851,0.481504,-0.384844,0.940397,-0.177550,-0.290412,2.381680,0.477753,1.068389,-0.044381,-0.439424,-0.471426,-0.230496,-0.226004,0.149671,0.303936,-0.153137,1.191336,-0.408096,-0.432186,-0.771899,-0.444630,-1.054909,-0.378400,0.871075,1.172096,-0.483581,-0.325867,0.336155,0.028325,0.120403,0.768613,0.093323,-0.178455,-0.706301,1.403991,-0.105592,0.168090,0.182414,-0.357473,-0.286953,0.316772,-0.251801,-0.296618,-1.277679,0.008704,0.946521,0.678731,0.777277,-0.248952,-0.149919,1.112563,-0.496141,-0.755947,0.400261,-0.110592,0.122543,-0.550608,0.433517,-0.829027,-0.114072,-0.119836,-0.290664,-0.190631,0.675930,-0.351709,-0.664697,0.859889,-0.207434,-0.246797,-0.532868,-0.512457,-0.413344,2.421180,-0.832095,-0.612639,-0.177078,0.171968,0.400953,0.318838,-0.143282,-0.316382,-0.123370,0.035343,0.170876,-0.254019,-0.137739,-1.649952,-0.073110,0.736463,-0.560406,-0.287390,0.215876,-0.298270,-0.245838,-0.163376,-0.561027,-0.341907,-0.557495,-0.886764,0.152051,0.264021,-0.751405,0.830353,-0.595371,-0.717024,0.143804,-0.479493,-0.158617,0.600562,-0.178745,-0.689970,-0.977848,-0.548536,-0.581696,0.782037,0.027442,-0.055300,-0.157042,0.372507,0.715977,0.058331,-0.446277,-0.209668,-0.585352,-0.186899,0.045313,1.008128,-0.201629,-0.522377,-0.344191,-0.282111,0.675967,1.013862,-0.638645,-0.584712,0.663509,-0.322176,-0.481466,-0.158635,-0.115156,-1.170983,-0.533969,0.806676,-0.002643,-0.358394,-0.870917,-0.018254,-0.185162,0.805777,-0.898390,-0.744361,0.102101,-0.274992,-2.270743,0.090801,0.247726,-0.398473,-0.029576,0.683080,-0.472128,-0.147270,0.138736,-0.609926,-0.102711,-0.046555,0.201360,-0.481073,2.333945,0.240989,-0.767307,-0.451887,-0.085339,1.225417,0.309577,-0.002393,-1.079619,0.978298,0.368628,0.105952,-0.362838,1.199731,-0.743939,0.203677,0.353989,-0.804895,-0.054568,-0.423456,0.321144,-0.552292,-1.246075,0.013368,-0.347583,-0.661090,1.085401,0.050128,0.170931,-0.904948,1.334726,-0.522465,-0.070199,0.352142,0.606272,-1.051822,0.314804,-0.588141,-0.028667,0.885461,-0.312052,0.362665,-0.196045,0.034315,-0.807998,-0.596720,-0.451717,0.616532,0.737136,0.505484,0.468627,-0.029658,0.649536,-0.846861,-1.031606,0.729548,0.361016,-0.236063,-0.385177,-0.482965,-0.039728,-0.555972,0.000377,0.019704,-0.472142,0.035419,0.098117,0.127813,1.507633,-0.331153,0.168780,-0.416898,0.881181,0.376490,0.078690,-0.646903,-0.056808,0.641886,-0.150349,0.472987,-0.483259,0.295079,0.487157,-0.333950,-0.850572,0.497726,-0.514544,-0.430606,0.054181,0.176003,-0.288250,-0.473352,-0.272574,-0.990976,-0.305514,-0.425359,-0.696261,0.512284,-0.442710,0.104686,-0.654362,-0.453744,0.787020,-0.282515,-0.372511,1.403463,-0.700594,1.648258,0.275450,-0.419195,1.107124,0.442604,-0.050632,-0.235311,-0.662834,0.223247,-0.267898,-0.083822,-0.006012,-0.648407,-0.097851,0.167511,0.574371,2.000374,0.336246,0.869252,0.741443,0.543779,-0.324131,-0.511423,-0.624976,-0.215346,0.762846,-0.720548,-0.573263,-0.258322,-0.802473,1.031770,-1.127262,-0.921582,-0.769932,-0.524086,-0.030811,-0.173377,-0.421915,-0.817116,0.375832,-0.231196,0.610170,-0.419038,-0.267667,-0.214601,0.422833,-0.910346,0.469225,-0.592641,-0.292827,0.446966,-0.148984,0.135939,-0.330779,-0.604054,2.141722,0.125818,-0.643260,-0.289564,-0.653088,-0.138015,-0.577420,-0.491840,-0.352147,-0.157273,0.246397,-0.542135,1.322121,-0.459425,-0.491436,-0.053373,-0.347996,0.059783,0.105569,-0.376659,-0.480302,0.257505,0.477659,-0.454745,-0.137811,-0.163878,-0.347374,-0.419813,-0.039955,-0.233809,-0.091033,0.821636,2.619204,-0.270053,0.106706,0.003362,0.783143,-0.516866,0.222552,-0.360865,0.326401,0.350999,0.697472,-0.360145,-0.515838,0.449242,-0.107345,1.204883,-0.449616,0.383859,-0.670868,0.366026,-0.697034,1.179388,-0.283477,0.245301,0.038711,0.028824,0.366688,-0.584393,0.685804,0.498756,-0.591241,0.294313,-0.737338,-0.901533,-0.362085,0.517897,0.769090,0.214283,1.351661,0.235366,-0.025637,0.043309,-0.569910,-0.850521,0.322907,-0.296697,0.009261,0.451914,0.657139,0.030097,-0.399499,-0.084015,-0.168726,-0.652535,-0.519533,0.251539,-0.626952,-1.178841,0.214168,-0.362189,0.987493,0.661520,0.578950,0.276721,-0.302155,0.817384,-0.274981,-0.487461,-1.204289,-0.559127,-0.285961,-1.305285,0.432922,-0.318849,-0.241055,-0.174763,-0.612370,-0.619320,-0.008364,0.119107,0.098839,-0.165890,-0.569710,-0.607158,0.206231,-0.799945,-0.311486,0.059114,0.150264,-0.880570,1.177254,-0.542085,-0.391210,0.963162,-0.143511,0.093386,2.264278,0.306061,0.055739,-0.207561,0.325825,0.069037,0.106606,-1.039327,-0.298297,-0.428507,0.254761,1.040081,-0.515719,-0.301953,-0.471382,-0.892562,0.126916,2.056794,-0.638304,0.043674,0.032958,1.851818,0.110114,1.245500,0.732809,-0.758178,-0.149325,0.310120,0.036385,0.687206,-0.167550,0.642699,0.937262,-0.865194,-0.531112,0.467090,0.467260,0.234637,-1.001099,-0.539881,-0.384206,-0.493456,0.971166,-0.010919,-0.296335,-0.118241,-0.086161,0.029573,-0.264614,0.677036,-0.253649,-0.171071,0.735401,-0.234751,-0.653826,-2.039330,-0.119497,-0.804166,1.483038,-0.189114,-0.478732,0.112522,-0.653755,-0.446550,-0.671454,1.894739,-0.245592,0.348024,-0.490406,-0.306553,1.136286,-0.627907,-0.294090,-0.666474,2.448763,0.647871,-0.383966,-0.230554,-0.486918,0.400696,-0.365846,-0.396170,-0.340489,-1.006312,-0.655879,-0.262670,-0.792026,0.232184,0.057569,-0.536878,0.143979,-0.378651,-0.595277,-0.454854,0.956492,0.086301,1.535209,0.075288,0.422323,0.168833,0.765365,-1.229779,0.327804,-0.031188,-0.353404,-0.065108,0.086988,0.053471,-0.317687,0.203721,-0.506501,0.501008,2.504238,-0.420210,0.215727,-0.123110,0.066434,-1.201368,0.482785,0.473156,0.154962,0.438349,-0.689597,-0.018706,2.387058,-0.050753,0.515515,-0.814281,-0.851730,-0.558398,1.578008,-0.338196,-0.105810,0.608658,0.036478,1.322796,-0.502974,-0.320603,0.395110,0.615278,-0.165157,-0.036509,0.587135,0.221158,0.762837,0.021506,0.370480,-0.231410,0.095313,-0.051837,-0.737566,0.815952,-0.595544,1.221644,-0.084592,-0.181156,-0.497249,-0.334064,-0.135138,-0.437362,-0.593194,-0.763495,-1.246866,0.802967,-0.499633,-0.229682,0.337902,1.034692,-1.954362,-0.810803,-0.581696,-0.522135,0.527146,0.512730,-0.149268,-0.235031,-0.242721,-0.279070,0.702792,-0.280136,1.633437,0.655290,-0.337461,0.027311,-0.866200,0.910684,0.082096,-0.654457,-0.053459,-0.614475,-0.486441,-0.184635,0.344314,-0.249486,-0.617878,0.908203,0.747525,0.065680,0.416659,-0.191196,-0.605379,-0.853646,-0.032148,0.595522,-0.287943,-0.215033,-0.701584,-1.065222,0.518399,-0.187187,0.916266,-0.188222,-0.672442,0.889560,0.253401,0.156778,-0.280329,-0.190723,0.024822,-0.240597,-0.276914,0.394411,-0.282136,0.484518,-0.335857,-0.425038,-0.635727,-0.061945,1.049613,0.340999,-0.536987,-0.365310,-0.435892,0.208232,-0.864532,-0.465564,0.856599,1.897458,0.235870,1.362936,0.334412,0.056412,0.483920,2.097688,1.963912,0.163006,-0.217651,-0.801510,0.991350,-0.287921,-0.695664,-0.403833,0.075305,-0.323832,-0.184410,-0.612736,1.065601,0.342176,-0.242445,-0.258003,-1.245170,0.011732,0.280460,1.285328,0.012181,0.195780,-0.223849,-0.306242,-0.425062,0.620959,-0.532640,-0.218697,-0.660348,0.941559,-0.185522,0.252119,-0.381175,0.574950,-0.238545,-0.336534,0.351376,-1.116430,0.108306,0.260737,-0.275304,-0.112084,0.414761,0.049461,2.922323,0.616122,0.203818,0.297019,-0.163150,-0.758548,-0.128948,0.579399,-0.117632,-0.444528,-0.167936,-0.237180,-0.275401,-0.229829,-0.151984,-0.826879,-0.310484,-0.509409,-0.282290,-0.810945,0.390676,-0.209587,0.669182,-0.470379,-0.223635,0.392716,-1.186042,1.383198,-0.289524,0.212681,-0.446443,0.562954,-0.110439,-0.548363,0.476313,0.191250,0.440369,1.770018,-0.563066,0.703357,0.219356}
    }
  },
  {
    {
      {0.914896,0.318973,1.765329,-0.917391,0.237987,0.495275,0.906404,0.247070,-0.174031,-1.243840,-0.248243,-0.180900,-0.795224,0.659681,-0.339702,-0.085542,-0.621113,-0.414436,-0.416908,-0.424288,-0.418901,1.422565,0.219114,0.087398,0.401793,0.862204,-0.127586,-0.541028,0.289651,0.165498,1.194882,0.108631,1.121197,0.228359,1.198017,2.532652,1.267847,0.466286,0.941093,0.783778,0.623535,-0.290035,0.625026,0.287209,0.497348,1.097510,0.202741,-0.314911,-0.387504,0.245429,-0.327938,-0.346374,0.761753,0.642779,0.296669,-0.637722,-1.291460,-0.345212,-0.409180,0.728639,0.718085,0.388972,-0.020243,0.253028,1.224704,1.068448,0.654250,0.719944,-0.485954,-0.093531,-0.335019,-0.543844,-0.318642,1.162001,0.033416,-0.910411,0.707372,0.623877,0.839527,1.390220,-0.003337,0.274607,0.193876,0.482788,-0.692490,0.317931,0.670845,1.277939,-0.254551,-0.663424,-0.353791,-0.431796,0.195509,-0.256388,-0.452838,0.221091,0.785005,0.478742,0.095967,0.562351,-0.346964,0.785130,-0.475216,-0.846101,-0.330938,-0.637622,-0.329686,-0.472088,-0.250980,0.227757,0.833190,-0.714134,0.639191,0.212525,-0.937202,-1.036021,0.302136,0.335019,0.573673,2.270547,-0.284262,-0.213064,0.081286,1.712446,-0.720707,0.125017,-0.445998,0.604823,0.735069,-0.427320,-0.458849,0.120813,-0.523280,0.334155,0.150482,-0.362968,0.148753,-0.164961,-0.114852,0.644936,1.323092,0.465268,-0.268048,-0.585432,-0.483960,-0.624127,-0.309819,-0.411961,-0.653012,0.034354,0.318928,0.014188,0.539220,0.242641,0.732218,-0.602874,-0.405652,-0.281103,0.288668,-0.229492,-0.391067,-0.205167,-0.508434,-0.194047,0.184130,-0.596811,1.152597,0.437242,-0.271989,0.421322,-1.043137,-0.495487,0.184750,-0.285981,0.580936,0.427481,0.240437,-0.355951,-0.346822,-0.801090,0.399963,0.626331,-0.266334,-0.309884,-0.460999,-0.084139,-0.771803,-0.466531,0.246493,-0.443801,-3.971536,-0.189974,-0.231622,-0.426687,-0.326652,0.131762,-0.524633,-0.224399,-0.034573,-0.356661,0.750181,0.413693,-0.137409,0.220480,-0.813170,0.425457,0.183307,0.020280,-1.850742,-0.652971,0.217293,0.304020,-0.197668,-0.169835,1.294452,-0.632599,-0.550184,1.131966,0.541598,1.099328,0.468574,-0.910903,-0.251958,-0.236903,0.524906,-0.459731,-0.400886,0.147121,-0.265325,0.196669,-0.313976,0.357095,1.839065,-0.337138,-0.956193,-0.362003,-0.574008,0.993582,1.058789,0.278366,0.700542,-0.326284,-0.170450,-0.580438,-0.535157,1.027886,0.132784,-0.384470,-0.540801,0.064704,-0.149849,-0.685401,1.328188,-0.243622,-0.073504,-0.215345,0.375148,0.589972,-0.393213,-0.246854,3.563311,0.367306,0.476806,-0.324410,-0.374091,-0.034968,-0.457034,-0.321514,-0.538165,-0.312022,-0.155509,-0.295185,-0.244560,0.217352,0.770600,-0.474542,-0.192479,0.476773,0.773161,0.991962,-0.665463,0.303974,1.161509,0.146057,-0.333306,0.608908,0.096714,-0.677804,0.928290,-0.208407,0.400711,-0.160411,1.270839,0.867195,0.710661,-0.438026,-0.250268,0.661908,-0.338610,-0.241750,-0.043979,-0.203050,1.362837,-0.150827,-0.293197,0.289743,-0.657880,-0.352493,0.925286,0.622818,0.785876,-0.121565,0.094675,0.548505,0.119765,1.059275,0.624590,-0.516631,-0.539764,0.835009,-0.027405,-0.143932,-0.859735,-0.422559,-0.457662,0.041788,-0.067238,0.626124,0.366813,0.661702,0.427175,0.652335,0.725325,-0.188466,0.985313,0.336600,-0.199489,-0.433636,-0.627713,0.825564,0.323458,0.475316,0.564028,0.597021,-0.019648,-1.151181,-0.163679,0.850176,0.015388,-0.023981,0.242299,0.701175,0.466984,-0.450765,-0.157983,-0.436838,-0.863530,0.487371,-0.132305,0.410054,-0.409943,0.558845,-0.401407,-0.298325,-0.733343,-0.405988,-0.702093,0.751654,0.308519,1.219710,1.609560,0.879512,-0.340033,0.435005,0.284344,-0.071674,-0.771256,0.563221,-0.709873,0.249609,0.266178,0.314353,0.132855,-0.482880,-0.044492,-0.917087,-0.115033,-0.239127,0.142201,0.050235,0.583737,0.658696,0.657069,0.638347,0.800630,-0.565207,0.685333,-0.530468,-0.211182,-0.305835,-0.316283,-0.529493,-0.320525,0.647678,0.009384,-0.282675,-0.200380,-0.172086,1.135322,0.969360,-0.265860,0.847081,-0.351572,-0.993095,0.942466,0.121016,-0.272007,-0.721071,-0.978361,1.721123,1.559014,0.840945,0.185364,1.475263,-0.319066,0.295264,0.623776,0.657641,0.055599,1.015319,0.290676,-0.436022,0.123891,0.995328,0.178917,-0.584007,-0.333693,-0.307102,1.334214,-0.462659,0.639080,-0.356967,1.271149,-0.547364,-0.361497,1.181157,-0.077210,0.764435,0.832304,0.355484,-0.397769,-0.925676,0.216270,-1.914058,-0.333516,1.753206,1.578925,0.253897,0.730255,0.575982,-0.322950,-0.685807,-0.389758,0.613946,1.125939,0.221828,-0.014512,-0.164640,0.275561,0.058728,-0.506261,-0.175752,0.706872,0.112494,-0.275017,0.241435,-0.284829,-0.184124,0.104139,1.885179,0.347496,-0.245206,-0.468518,0.719683,-0.305124,-0.329687,-0.316503,0.147075,-0.393770,0.217027,0.476974,-0.284730,0.206841,0.824746,-0.458279,1.644212,-0.281779,-0.523993,0.818010,-0.351580,-0.739000,-0.816508,-0.368549,0.053923,0.361162,-0.514776,-0.288007,-0.580270,1.025669,0.387213,-0.211008,-0.769332,-0.672478,0.214724,-0.544273,0.729437,0.057430,-0.526062,1.230861,0.759212,-0.599747,0.653091,-0.413084,-0.380009,0.035504,0.586046,-0.511405,1.189039,-0.334083,-0.185277,-0.461868,1.795860,-0.092221,0.661277,-0.227368,0.782941,-0.422377,0.690165,-0.145120,0.737092,-0.724441,0.138508,-0.122196,-0.263113,0.292511,-1.256429,-0.516035,1.478370,-0.803345,-0.580752,0.958823,-0.302568,0.029424,1.169178,0.259976,-0.419560,1.621297,-0.656188,0.975017,-0.746154,0.313127,0.597554,-0.297611,0.487222,-0.411200,-0.004407,0.468942,1.895400,-0.550685,-0.633964,-1.106905,0.258099,0.645902,-0.567712,0.327063,0.564658,0.670012,1.109547,-0.159299,0.426713,-0.022143,-0.010437,0.068535,0.341485,0.765568,0.172726,0.316184,-0.467504,-0.485438,1.423097,0.192077,1.032378,1.337846,0.251720,-0.627568,-0.139259,-0.983368,-0.788522,1.467630,-0.178131,0.726447,-0.395472,-0.198750,2.091725,-0.350558,0.195130,0.878850,0.102240,0.535342,-0.512523,-0.464428,-0.124500,1.185718,0.214743,-0.073409,1.355666,-0.711305,-0.041238,-0.347747,0.626627,1.604849,0.816881,0.969397,0.208462,0.633751,-1.120907,1.047878,-0.466648,-0.856997,-0.351753,0.136495,-2.048377,0.752775,0.646615,-0.095453,0.507686,2.047127,0.105163,0.453869,0.620561,-0.417538,0.530226,0.412899,1.597851,0.962000,1.134838,1.602729,0.444271,1.095195,-0.524154,0.268506,0.560144,-0.930881,0.365192,-0.649379,0.466995,-0.990969,-0.507539,-0.059712,0.230007,0.095613,-0.284815,0.302665,0.310276,0.042400,-0.624370,-0.434336,0.679812,0.448309,0.122278,-0.638373,0.053206,-0.551379,-1.236796,0.155510,-0.188597,0.607130,0.531744,-0.542383,0.784960,0.486122,-0.419939,-1.034911,-0.683419,-0.074129,-0.044343,1.212406,-0.551899,-0.293396,0.256022,0.388430,-0.516780,-0.842360,-0.183831,-0.032359,-0.610097,2.889258,-0.358216,0.916886,-0.812539,-0.567785,0.681990,-0.282379,0.062784,0.356795,0.888251,1.782310,0.759080,-0.132121,-0.385729,0.166177,-0.321203,0.719485,-0.167734,0.012887,-0.640073,-0.153051,1.387073,0.425968,0.578820,1.907333,0.561849,-0.450304,-0.162826,-0.926434,-0.985584,0.273777,2.234506,0.086916,0.237966,0.557552,0.536087,-0.101662,0.649253,0.390098,0.132519,0.284708,0.859850,0.241591,-0.283700,0.686313,-0.565642,0.701306,1.281231,0.220539,1.245862,-0.312363,0.984333,-0.185451,1.179336,0.493668,0.143819,-0.241550,-0.083846,0.990439,-0.714697,-0.766911,-0.781226,0.673815,1.037178,-0.850447,1.432806,-0.380298,-0.265518,-0.507362,0.221918,0.291543,-0.448701,-0.319470,0.028868,0.433588,-0.366586,0.534168,-0.102659,0.588360,1.095676,0.287723,0.738257,-0.448205,0.585019,-0.485171,-0.445078,0.504140,-0.020320,-1.110291,0.430384,0.390342,0.024734,-0.721704,0.884299,-0.628946,-0.639632,1.260788,-0.485196,-0.933564,-0.128466,0.815180,0.331709,0.288855,0.387319,0.312234,-0.161199,-0.818140,0.113444,0.598794,-0.295053,0.035629,-0.434727,0.351971,-0.475099,0.481136,0.118195,1.083224,-0.314327,-0.000145,0.630452,-0.152918,0.067505,-0.262981,-0.280292,-0.664055,-0.081705,-0.508672,0.342592,0.889710,-0.158504,-0.866187,-0.807434,0.133854,0.787184,-0.199259,-0.439513,-0.035423,0.959850,0.220186,-0.586183,-0.067456,-0.510581,-0.238010,0.342914,-0.003977,-0.217406,-0.699397,-0.312922,1.126609,0.153735,0.312955,0.502616,-0.448990,0.229982,-0.387188,-0.175092,1.135732,-0.300098,0.151037,-0.199006,0.614374,-0.357709,1.354270,0.400791,0.635976,-0.058253,-0.317865,-0.235785,-0.467150,-0.311093,-0.497602,0.274161,1.445332,0.628460,-0.234889,1.530918,0.310930,0.795954,1.271749,-0.903848,1.353055,-1.218710,-0.558670,-0.252619,1.292195,-0.174647,-0.991673,-0.003802,-0.456778,-0.402797,-0.066336,-0.645366,-0.950661,-0.479710,-0.391966,1.675202,0.721116,0.676206,-0.432156,0.143135,0.675871,0.175774,0.868216,-0.578958,-0.876364,-0.353587,0.232599,0.594239,-0.661789,0.577218,1.403254,-0.439472,0.832150,-0.927646,-0.116007,0.660292,-0.456513,0.110975,-0.956781,0.751986,0.206407,0.869855,0.074591,-0.031278,0.225866,0.344701,0.382784,1.139018,-0.304790,0.275573,-1.003872,0.181506,-0.273077,-0.426801,1.039517,0.460987,-0.947910,0.756768,-0.907959,1.623500,0.103551,-0.379500,-0.160817,0.978829,-0.405926,-0.595587,-0.264075,0.503906,0.568959,1.747494,0.959428,-0.404985,0.598886,-0.316980,0.330894,0.757455,-0.421043,0.451735,0.615373,0.471661,1.060711,0.440125,-0.001585,0.288052}
    },
    {
      {0.301019,2.008603,-0.857985,-0.093779,1.687678,1.448587,2.159182,0.140542,-0.858069,0.953949,0.470949,-0.417659,-1.379639,5.615510,-0.568750,-1.922068,-1.855970,-0.413757,-0.655517,-0.292759,-0.488862,-0.297103,1.232504,-0.364695,0.595693,-1.138299,0.152805,-1.112125,0.854687,0.592898,0.344078,1.371687,-0.226334,1.304120,-0.119858,4.335758,0.319070,0.884658,-0.398821,-1.509152,1.828129,-0.422549,0.180977,2.096340,0.963501,2.697798,1.702250,0.348562,-0.206692,1.761350,-0.192292,-0.508503,1.113617,-0.237237,1.289766,-0.413497,-1.228734,-0.150032,-1.694354,-1.159041,0.229974,-1.703148,2.159582,1.245739,0.758580,-0.978756,1.439488,-0.421539,-0.749015,-0.640057,-0.226006,-0.290178,-0.156372,-0.164978,2.386135,0.060335,0.616867,0.096462,0.748539,0.443352,0.022212,1.752559,-1.124850,0.918694,-0.420595,1.572262,2.760113,0.799963,-0.632047,-0.657450,-0.421757,-0.713512,1.662245,-0.695390,-0.508030,2.310540,2.050189,1.106644,2.276962,-0.010861,-0.262876,1.492627,-0.091466,-0.502165,-0.030062,-0.094044,-0.466147,0.327155,-0.976029,2.402908,-0.241213,-0.314388,1.187606,1.866092,-2.304984,0.602593,-0.836020,-2.453099,2.565094,1.137288,-0.056993,-0.821113,1.045988,3.629570,-1.133804,1.461172,0.352626,-0.007130,0.873375,-2.103623,-0.148200,3.618162,-1.598283,-0.571188,-1.080087,-0.201793,-0.392176,2.652151,-0.245008,1.836889,1.436389,1.883051,-0.503846,-0.474424,-0.055660,0.239966,-2.030003,-0.367825,-0.656847,0.933663,-0.506728,0.737055,-1.252695,3.393109,1.139914,-0.148015,-0.135510,0.263113,1.304272,1.995478,-0.209638,1.712746,-0.277568,-0.488339,-2.843547,-0.545815,-0.466586,2.029706,0.169685,0.687579,-0.312833,-0.203245,1.345475,-0.418714,1.166921,1.118256,-1.701243,-0.203305,0.179164,-0.827413,0.483138,-0.683486,1.927918,-0.079180,-0.254552,-0.269186,-0.470853,-1.302228,0.792222,-0.350092,1.810986,-0.059899,-0.244018,-0.049575,-0.181560,1.043039,-0.579544,-1.141994,-0.486450,0.027169,-2.321600,1.686653,2.568640,1.591338,-0.108950,1.578895,3.103228,2.117510,-1.006727,0.530173,2.009721,1.305097,-0.040211,-0.526900,-0.155401,-0.995571,0.103892,-0.083691,2.532798,-0.235733,1.321249,-0.270107,-1.114702,-0.626436,-2.290409,-0.334796,0.087139,1.192084,-0.916084,1.731395,-0.835600,0.778074,-0.676703,-2.219903,-0.555118,-0.297539,0.214927,-1.315983,0.876854,2.380876,0.228166,-0.251665,-0.736313,-0.087006,-2.094053,0.378639,3.369623,1.162669,-0.000274,-1.683061,0.242778,0.019075,-1.523792,-0.082249,-0.724481,-0.181456,2.553125,1.261220,-1.805497,-0.648199,-0.685233,2.179080,1.787607,0.597494,-0.386793,3.504925,-0.263458,-0.302759,-0.665586,-0.220523,-0.403689,-0.083812,1.058451,1.621576,0.638784,0.159172,-1.617043,0.560170,-0.252024,-2.177194,-0.116072,-0.087753,-0.347582,1.608023,0.018972,-0.376386,1.180448,-0.449452,1.193284,-0.634954,1.259864,-2.779804,1.599668,2.078356,2.331494,0.093113,-0.442519,0.213489,0.099133,-1.270699,1.612358,-0.144768,-0.196072,-0.316663,-0.447718,0.442048,-0.980120,-0.703286,-0.072079,1.416102,-0.350933,-2.194744,1.746509,1.388329,1.735521,2.966571,-0.768337,-0.393713,-0.209730,2.655551,-0.811392,-0.445323,-1.421018,-0.266606,0.483242,1.478680,-1.200788,3.386444,1.223112,-0.059899,0.135037,1.523168,2.875595,-0.553788,-0.200174,1.569190,-0.257092,-0.153209,-0.188231,1.326643,-1.164575,-4.376430,2.220602,0.115878,1.539567,-0.606403,-1.663960,0.094449,0.055178,-0.160302,0.274482,2.096899,1.006010,-0.236326,-0.717080,-0.193449,-0.396352,1.399153,-0.337333,1.191110,0.069122,1.418433,-0.117492,2.475900,-1.797913,-0.009537,-0.413332,0.091844,2.181116,-1.720114,-0.465372,1.143806,-0.163296,1.162114,3.420400,-0.646037,-0.551440,1.344308,0.247162,1.161156,3.054832,1.110584,1.131249,-0.355483,0.663599,1.282127,1.612339,-0.259169,0.271542,2.067476,1.208655,3.285750,1.059540,2.120039,0.525783,1.374175,-0.147768,-1.085042,-0.318448,-0.674834,-0.107969,0.126939,0.688694,1.302515,0.012056,-0.218374,-2.299682,1.809077,0.386309,-0.542977,-0.554799,0.817619,-0.646826,0.145374,-0.495682,1.351035,-0.013454,-0.207308,1.063885,-1.188635,3.449912,-0.005162,1.736865,1.328079,-0.225407,0.675954,0.700236,-0.552503,1.400813,1.902035,1.082336,-2.508448,-0.261523,-0.199889,-0.936558,-0.199590,-0.948559,0.392780,2.125140,-0.578874,3.339978,-0.071759,1.517448,-1.169419,-0.207843,-0.543847,-1.194531,1.956669,-0.215629,1.803819,-0.033267,-0.238636,2.929672,-0.144395,0.001499,-0.825764,1.129009,-1.920212,1.341461,0.989855,-0.168256,-0.362479,-0.866549,-2.328454,-1.344340,2.201349,0.035815,-0.207048,1.789325,-0.658757,-0.258260,-0.270015,0.041984,-0.873891,-0.382240,2.896031,-0.526285,-0.113509,-0.113335,-0.992079,-0.687934,-0.415964,-0.357612,1.938367,-1.016637,-0.565001,-0.317542,1.836748,-0.825184,1.411555,1.634300,-0.050309,1.211802,-0.451965,-0.238524,0.072084,0.077366,-0.426875,2.722314,-0.419795,1.715679,-0.594855,-0.387052,4.106479,1.117145,-0.016883,-0.248859,-0.218337,2.064922,1.128433,0.057164,-0.315783,-1.113360,-1.618796,-0.308989,0.974489,2.730505,-1.078346,1.276182,2.945997,-0.445811,1.575159,0.068958,-0.847224,1.438776,1.511683,-0.074877,1.746069,-0.098724,-0.069360,-0.393144,0.650074,-0.791252,2.463718,-1.045146,1.315659,-0.125156,2.631102,0.854966,-1.308327,0.880587,1.711888,-1.306513,0.552479,2.880337,-0.443413,-0.298988,-0.202217,-0.285710,-0.431745,0.592141,-0.339844,2.435945,1.210009,1.372784,-0.341317,2.252911,-0.329893,1.017310,-0.376903,1.895888,1.297144,-0.330960,1.362412,-1.071829,-0.592824,-1.136459,-0.726911,0.713899,-0.550918,-0.430847,-0.942139,1.624987,-1.077642,0.936708,1.103795,1.400716,2.298288,-0.282473,2.421508,0.960207,1.088120,0.294268,0.039651,1.359264,2.509186,2.717833,-0.030840,-0.273104,0.017172,1.552413,2.986393,-0.993136,1.803944,-0.389321,-0.744128,-0.346302,-0.132875,2.933244,-1.946880,1.401506,-0.171679,0.163564,3.176419,-0.301031,1.327787,3.093245,-1.450908,2.440214,-1.303687,-0.546489,0.522052,-0.198657,1.747798,2.195356,-0.109174,-0.063035,0.067853,-0.155461,2.325740,-0.801708,2.880709,1.288361,1.346329,0.644798,-1.625116,-1.079090,-0.041135,-0.851690,-0.298989,1.026575,4.405136,1.828541,1.436089,1.441484,2.168528,-0.286419,3.170279,-0.294547,0.209816,-0.414419,-1.874094,0.003434,-0.442423,-0.120694,-0.241886,-1.021265,3.529041,0.117024,-0.259315,1.033031,1.215365,-1.356063,1.619534,-1.291152,1.441028,-0.046289,-1.838059,1.411899,1.719016,0.854458,-1.612272,0.146444,4.874449,-0.023803,-0.274949,3.122662,1.344099,2.101375,1.344767,-1.038586,0.049377,-0.166938,-1.629401,1.748434,-0.803335,-0.383450,2.217670,-0.537115,-0.152045,-0.693982,-0.480201,0.692973,-0.210091,-0.211958,-0.281659,1.145758,-0.041269,0.257553,-0.334408,1.352821,-0.505266,-1.396826,-0.551395,3.083484,0.071425,0.063854,-0.824672,0.977175,-0.279136,-0.816188,1.546198,-0.299587,-0.335627,-0.512398,-1.106969,0.091849,1.026967,0.031921,-0.060022,-1.756497,0.151977,-0.119980,-0.693850,0.771807,-0.594298,-0.110264,0.125354,1.111999,1.190462,-0.361545,1.224285,-0.536800,1.959535,-0.072637,-0.598100,2.391110,3.339156,1.501978,2.120705,1.893138,-1.201655,-0.385930,1.970263,1.278270,-1.122163,1.397225,4.761519,1.066190,-0.361679,0.874028,-0.488269,-0.174424,-1.728547,0.096497,-0.996475,-0.357649,2.509955,0.869593,-0.341431,1.321131,0.087952,0.438973,-0.462018,0.452394,1.765831,-1.050419,-0.066927,2.406200,-0.603666,-0.529401,-0.252924,0.161630,-1.016766,-0.769063,3.589970,-1.262908,-0.937734,-0.330417,-0.751326,-0.896511,-0.273602,2.534159,1.472179,-1.295440,1.918099,0.808428,1.459515,-0.538367,0.665805,-1.993762,-0.101418,-2.128070,-3.599040,-2.051527,2.025112,0.570857,1.188465,-0.364381,2.155467,0.090319,0.273023,-0.327967,-0.398998,-0.766478,-1.003652,1.167764,1.289314,1.642301,-0.466085,0.340968,-0.341886,0.038142,1.587237,0.924485,-2.474385,1.082862,-0.370265,4.612517,-0.026255,1.812623,4.232118,4.812590,-0.127418,0.037920,-0.037877,0.575273,1.395062,-0.076029,-0.272719,-1.155072,2.274033,-0.766928,1.053218,-0.218978,-0.160101,-0.439722,-0.230527,1.602621,0.823084,0.817466,-0.499024,2.103931,1.611273,-1.153495,-0.665630,-1.204624,0.468364,0.798316,1.487232,2.266190,-0.984282,-0.208711,2.450770,-4.223336,1.709760,1.536946,1.426781,-0.062630,2.014511,-1.831347,-0.937998,-0.010867,-0.913194,0.074830,-0.095705,2.776736,-0.239300,-0.613975,-0.315420,1.881255,-0.009517,0.084890,-0.203727,-1.051270,-0.074732,-0.481606,1.157089,6.198247,1.828492,0.072415,1.654055,1.143060,1.195772,-4.431718,-0.394818,-0.613725,0.635931,-0.664091,-1.146779,-0.375830,-0.606351,-0.047328,1.809065,0.356324,-0.165425,-0.369694,-1.308482,-0.073773,-0.291308,-0.183858,-3.816991,2.579385,1.718956,-1.577210,2.390044,2.318115,-0.728346,1.633433,-0.117216,-0.123587,-0.133556,1.331529,0.339807,-0.766580,-1.826552,1.829940,0.473251,0.647272,0.065135,-0.254084,1.466646,0.441730,1.444195,0.075389,1.188828,1.813871,1.105165,2.775548,0.766151,1.405852,1.831273,2.846304,1.239962,-0.134836,1.418301,-1.620068,2.194261,-0.220930,0.077278,1.882131,1.027870,2.537115,1.204649,-0.128863,-0.901941,-0.043210,-0.438746,-0.245224,3.171910,-0.192942,-0.140288,-0.336793,1.553952,-0.101861,-1.369958,0.751324,-0.485346,1.325515,-0.200717,1.607732,0.197543,-0.233682,1.682602,1.042407,0.404943,-0.502188,-0.473562,-1.506128,1.668840}
    },
    {
      {1.043479,0.277172,-0.918974,-1.008446,0.224820,0.366418,1.176711,0.309471,-0.412694,-1.240156,-0.434684,-0.197572,2.240426,0.812388,0.008320,-0.080622,-0.716317,-0.193878,1.044221,-0.262380,-0.251748,-1.129987,-0.069555,-0.032207,0.441836,0.885754,-0.134693,-1.194090,0.253764,0.306137,1.858175,0.222828,-0.695862,0.107606,-1.765337,1.322998,1.175026,0.662813,-0.681731,0.636577,1.054632,-0.586139,0.703565,0.635287,0.397708,0.689313,0.244031,-0.222638,-0.456997,0.479483,-0.343284,-0.665304,0.698207,1.000668,0.381561,1.465045,1.775708,-0.456419,-0.339287,0.344733,1.207251,0.330728,0.348121,0.426273,1.713257,-0.232328,0.838417,0.431951,-0.345828,-0.292883,-0.238296,0.812996,-0.669303,1.463472,0.157745,-0.867407,1.166970,0.907803,0.753608,1.630906,0.003897,-0.066604,0.258282,0.441847,-0.671557,0.480679,0.711869,1.849825,-0.441774,1.581527,-0.177119,-0.269193,0.344617,-0.526303,-0.371499,0.441168,0.647277,0.981188,0.242961,0.874124,-0.616743,0.850214,-0.311255,-0.970140,-0.088544,-0.328852,-0.270460,-0.371939,-0.532171,0.342379,0.799539,-0.608850,0.960081,0.324126,-0.539520,-1.215631,-0.067635,0.501216,0.727023,1.071696,-0.554844,0.168328,-0.496693,0.897354,-0.244675,0.289504,-0.653144,-0.804290,1.366359,-0.260788,-0.650618,0.306076,-0.608576,0.285403,0.081514,-0.702121,0.183522,0.753285,-0.352192,0.630517,1.876737,0.524452,-0.304826,-0.508608,-0.718839,2.002949,-0.343375,-0.369041,-0.520698,0.162588,0.230783,0.646155,0.456628,0.727160,0.509570,-0.577271,-0.271019,-0.311927,0.796030,0.040325,-0.302170,0.535154,-0.470914,-0.325232,1.255437,-0.830124,0.903152,1.050932,-0.960811,1.248996,-0.782414,-0.406020,0.606655,-0.482865,0.851596,0.785742,0.429266,-0.266477,-0.580133,1.813724,0.233397,0.900775,-0.392493,-0.500736,-0.323527,-0.334367,-0.792057,-0.458388,0.227443,-0.369318,2.205709,-0.405634,-0.275688,-0.356885,-0.163545,0.313760,-1.022678,-0.183317,0.055915,-0.314722,1.662619,0.754837,1.245689,0.329196,0.686067,0.656963,0.554549,0.189224,4.172683,0.580369,0.282052,0.746636,-0.258122,-0.354813,0.933440,-0.690569,-0.805829,1.077346,-0.298449,1.405916,0.360575,1.021111,-0.305111,-0.696869,0.266665,-0.224676,-0.070239,0.651403,-0.105838,0.303779,-0.558375,0.468264,-0.474044,-0.100206,-0.672221,-0.235861,-0.784983,0.927916,1.148763,0.399002,0.350736,-0.398055,-0.194601,-0.362969,-0.667147,1.149698,1.943795,-0.474526,-0.422556,-0.192995,0.138326,-0.838238,1.900495,-0.313666,-0.219688,-0.220314,0.794999,0.262016,-0.283864,-0.234209,-1.995530,0.877710,0.249992,-0.182458,-0.226138,0.167880,-0.413273,-0.193570,-0.430526,-0.509907,-0.387302,-0.413402,-0.435538,0.314378,2.070186,-0.405584,-0.053531,0.230299,1.113140,0.927457,-0.583554,0.316972,1.507472,0.482058,-0.498013,-0.845462,0.099162,-0.479458,0.917648,-0.471973,0.464906,-0.310849,0.827596,1.014741,0.411594,-0.434639,-0.278154,-0.776614,-0.544462,-0.223035,0.464642,-0.369926,-0.898490,-0.246670,-0.315468,0.271935,2.074368,-0.463015,-0.677169,0.456459,1.134524,-0.284320,0.720992,0.469323,0.307448,0.711340,0.686774,-0.416153,-0.752010,0.585659,-0.431455,-0.171606,1.588588,-1.434045,-0.665756,0.177633,-0.249527,1.900605,0.591766,1.005455,0.712581,0.487628,0.520842,-0.487940,1.195196,0.787168,-0.619450,-0.800513,-0.756478,0.972677,0.212266,2.215091,0.644622,1.155627,0.328789,-1.151619,-0.081748,1.174698,0.022214,-0.019782,0.420654,0.547595,0.597896,-0.352423,0.645303,-0.525866,1.250668,0.631973,-0.004168,0.426402,-0.589620,0.651545,-0.546536,0.040144,-0.673478,-0.132638,-0.554752,0.641373,0.306557,1.675955,-0.912556,1.059140,-0.898991,0.602567,0.318887,0.008585,-0.698985,0.674873,-0.838558,0.388525,0.797933,0.272005,0.291352,-0.369058,-0.056161,-1.009674,-0.115924,-0.483935,0.120407,0.240404,0.508089,-0.210503,0.687090,0.871589,0.928922,1.369454,0.578376,1.856252,-0.323177,-0.112408,-0.205921,-0.275713,-0.394325,0.395752,0.009083,-0.394822,-0.105765,0.087051,0.961729,2.890877,-0.352421,0.743792,-0.340333,1.103473,2.280163,0.491893,-0.363476,-0.334234,1.347246,-1.172734,1.051379,-1.268410,-0.270325,-0.125191,-0.546825,0.500469,0.990511,1.268786,-0.052645,1.261813,0.293430,-0.417933,0.231542,-0.491148,0.704047,-0.449557,-0.227338,-0.321534,1.704615,-0.333759,0.452300,-0.424429,0.607133,1.418184,-0.313469,1.895270,-0.415768,0.150838,0.579051,0.222020,-0.282160,1.299370,0.245678,1.065354,-0.506784,-0.829433,1.411302,0.367658,0.595910,0.244639,-0.274665,-0.458970,-0.846705,0.502854,0.940605,0.712116,0.319408,-0.198387,0.247642,-0.263589,-0.878701,-0.417713,-1.007251,0.081641,-0.264536,0.546238,-0.342531,-0.490380,0.011396,-1.240239,0.161471,-0.519617,-0.374145,0.345905,-0.524804,-0.588317,-1.071796,0.298174,-0.511073,1.013424,-0.501417,-0.223054,0.335720,0.985587,-0.445449,2.232021,-0.549349,-0.643488,0.621474,-0.265033,-0.703030,-0.462319,-0.295429,0.691920,0.400113,-1.105275,-0.131380,-0.467742,1.188611,-0.726713,-0.154669,-0.381894,-0.881533,0.098235,-0.518986,1.581741,0.358043,-0.653530,1.342508,0.569023,-1.037500,0.576662,-0.695284,-0.499748,0.183587,0.534146,-0.341541,0.897938,-0.407804,-0.333506,-0.807839,1.004058,-0.281999,1.059096,0.927958,0.900210,-0.613107,0.980508,-0.172553,0.686392,-0.760531,0.501124,0.040577,-0.174864,0.541160,1.500295,-0.386545,1.946139,0.436421,-1.091201,0.820433,-0.305792,0.986549,1.283840,0.515584,-0.865186,1.512089,-0.491433,0.533426,2.506236,0.724276,0.764985,-0.538980,0.634665,1.531900,-0.038216,0.216605,-0.201530,-0.477539,-0.564687,1.107138,0.545838,0.802945,1.711793,0.394085,0.472682,0.674453,0.674960,-0.338197,0.440107,0.153256,-0.011011,0.003794,0.523742,0.599921,0.554381,0.285602,-0.622390,-0.341492,-0.755712,0.207398,1.294165,-0.622566,0.722009,-0.452440,0.393029,0.723739,0.833564,3.074084,-0.598592,1.285931,-0.482783,-0.369435,1.822526,-0.689519,0.516539,1.273496,0.196509,0.732207,-0.417268,-0.510460,-0.320942,-0.661695,0.239971,0.303534,1.155909,-0.718349,-0.416537,-0.334895,0.498931,-0.909766,1.252781,1.154795,0.554829,-1.244390,1.550163,-0.652005,-0.393895,1.488192,-0.557336,0.110522,3.122789,1.265355,0.773613,0.019345,1.386149,-0.959876,0.302262,0.535791,0.942734,-0.323962,0.583243,0.492318,-0.709953,-1.064190,1.042966,-0.659383,0.964652,0.767065,-0.333140,0.261703,2.775306,1.280928,0.599403,2.052895,0.708402,-0.567054,-0.405603,0.078205,0.922864,0.310429,-0.383821,0.637538,0.022073,-0.374209,-0.433307,0.810345,0.761381,1.021821,-0.030151,-0.518819,-0.114320,-0.692035,2.426329,0.451861,-0.411174,0.744816,0.829359,-0.684327,0.994237,0.472266,-0.311911,0.583185,-0.465157,-0.089823,0.046374,-1.586594,-0.445260,-0.169042,0.689325,0.543836,-0.552741,-0.873645,-0.348585,0.224928,-0.381304,3.310708,-0.590183,0.857004,-0.295181,-0.716298,0.624731,-0.222784,0.047962,0.598341,1.021667,1.580348,1.766720,-0.093241,-0.350811,-0.049592,-0.410590,-0.863604,-0.329905,-0.070386,-0.446625,-0.562352,-0.729463,0.540811,0.667495,-0.786641,1.568573,-0.538873,-0.206874,-1.031082,1.513141,0.606150,1.625205,0.091115,0.556002,1.181061,0.684277,-0.651560,0.758231,0.544060,0.018441,1.031289,1.852919,0.480996,-0.365977,1.093386,-0.541590,0.712049,2.010293,0.067281,1.260341,-0.370882,1.196332,-0.273779,1.586565,0.602790,0.467234,-0.190731,-0.103858,0.886334,0.505506,-0.606357,0.863358,1.090805,0.918018,-0.828686,1.540221,-0.260999,-0.435845,1.760918,0.568583,0.092986,-0.683153,-0.593639,-0.070157,0.378247,-0.281594,0.515038,0.366005,0.569135,0.429519,0.602654,0.395648,-0.436317,1.003052,-0.703303,-0.166058,0.402597,-0.520469,2.121250,0.533148,0.113866,0.036298,-0.898767,0.833892,-0.412966,-0.759668,-0.922940,-0.818308,1.417002,-0.126247,0.897661,-0.036911,0.180928,0.258952,0.191864,-0.483241,-0.799439,0.260029,0.537092,-0.772451,0.212303,-0.427656,0.971299,0.851840,0.508753,0.938301,0.730603,-0.114714,0.009156,0.618771,0.034429,0.136253,-0.433884,-0.336287,-0.652173,0.514797,-0.538903,0.354376,0.895318,-0.266307,1.123701,0.868227,0.084507,0.744740,0.387239,-0.447550,-0.188815,1.283211,0.009324,-0.500272,-0.052579,-0.552677,-0.311093,0.747930,0.149703,-0.239262,-0.807886,-0.109250,0.417489,0.142789,0.470381,0.804034,-0.237268,0.331074,-0.532967,-0.178810,1.024268,-0.053266,0.304269,-0.313581,0.550678,-1.018813,1.367250,0.454151,0.709868,0.092480,-0.296524,-0.440562,1.651019,-0.343913,-0.465698,0.344200,3.613904,0.713783,-0.252588,1.908754,0.603988,0.710708,1.036170,-0.714214,0.737266,-1.421731,-0.528113,1.133508,1.246786,-0.362201,-0.754531,0.284936,-0.532718,-0.071802,-0.279761,1.826671,0.527254,-0.172237,-0.201027,0.985948,0.852292,0.839980,-0.452392,0.413400,0.840251,0.400279,1.100493,-0.628599,0.904891,-0.161377,0.547135,0.019649,1.405025,0.720054,-1.040151,-0.411386,1.006919,-0.950553,-0.150252,0.731762,-0.332537,0.285894,1.180029,0.597528,0.667105,1.106839,0.700915,-0.306579,0.411139,0.374404,0.561144,1.050063,-0.383583,0.507344,1.203071,0.395724,-0.471769,-0.538239,0.592336,0.446427,-0.985306,0.741507,-0.965650,-1.059376,0.043789,-0.542102,-0.733745,-0.025022,-0.419475,1.142827,-0.130308,0.741110,0.679052,-0.724847,1.517936,-0.438307,0.382567,-0.548426,0.630359,0.776204,-0.350043,0.044500,1.008491,0.321793,0.716758,0.581491,0.026466,0.263775}
    }
  },
  {
    {
      {0.225465,0.921425,1.568951,-0.457431,0.567132,0.187654,-0.063719,0.515407,-0.405230,-0.140644,-0.940837,-0.502573,-0.276299,0.432449,-0.908642,1.489830,0.069494,0.055851,-0.703592,-0.489650,-0.634865,0.392437,0.270262,0.696539,-0.984357,0.645680,-0.387800,-0.020264,0.228522,-0.519859,1.101414,0.006979,0.231034,0.184305,0.516083,1.899242,0.037830,0.139719,0.405620,0.288782,-0.102343,-0.370965,0.429296,0.276129,-0.036610,-0.412480,0.068563,-0.708916,0.105052,0.000990,-0.225105,-0.267010,0.473685,-0.794528,0.073875,-0.922399,-0.551356,-0.395842,0.051466,-0.517524,0.102372,0.346734,0.013396,0.050726,1.346821,1.512399,0.259566,1.616786,-0.263878,-0.410035,-0.466670,-0.601340,-0.703963,0.922151,0.357638,-0.745730,0.220626,0.444470,0.172716,0.746466,0.013036,0.897704,0.861799,-0.097711,-0.294680,0.472191,0.349333,1.093441,-0.348400,-0.336467,-0.616216,-0.151354,0.298646,-0.372077,-0.011811,0.164303,0.105075,0.040507,-0.005440,-0.383746,-0.437303,0.099645,-0.639544,-0.744327,-0.227778,-0.448767,-0.203262,0.177144,-0.662714,0.244306,-0.011957,-0.145738,0.181479,-0.414543,0.152638,-0.027138,0.672868,-0.016126,0.452263,0.369949,-0.017056,-0.495111,1.008818,0.292188,-0.178947,0.592086,-0.396716,0.725564,0.119851,-0.005390,-0.281546,0.445463,-0.284098,0.587977,-0.064770,-1.129707,0.529546,0.081266,-0.549664,0.250529,-0.038550,0.623748,-0.311263,-0.542706,-0.845268,-0.803435,-0.025228,-0.474113,-0.197708,-0.095532,0.080381,-0.284941,-0.149034,0.003816,0.030372,-0.559135,-0.286414,-0.508529,-0.011162,-0.494688,-0.117682,2.275819,-0.547845,-0.266265,1.137390,-0.200995,0.793038,0.341320,0.215295,0.564837,-1.041577,-0.361002,0.264043,-0.155122,0.363924,-0.251312,0.059331,-0.307570,-0.462473,-0.943560,-1.305284,-0.963529,-0.348326,-0.409731,-0.199530,-0.401001,-0.814739,0.071282,0.370303,-0.112959,-0.531583,-0.816421,-0.461212,-0.666598,-0.543122,-0.029875,-0.670562,-0.123043,-0.494250,-0.587904,2.525918,0.626680,1.368435,0.728465,-0.440501,0.362619,1.356865,-0.557748,-0.913757,-0.728062,0.224972,0.272561,-0.522765,-0.356544,0.772171,-0.219176,-0.262655,2.832607,0.191660,0.142435,-0.294269,-0.211727,-0.399755,-0.413014,0.132950,-0.389757,-0.426953,0.373663,-0.424738,0.001094,1.041988,0.586956,0.888828,-0.106145,-0.206517,-0.243656,-0.285827,1.020353,-0.061666,1.690862,0.125530,-0.310216,-0.200517,-0.524439,-0.427692,0.258657,-2.431283,-0.582357,-0.570152,1.369541,-0.424211,-0.347096,1.114750,-0.456598,-0.310857,-0.347472,0.052753,0.736863,-0.517668,-0.123861,1.399582,0.013746,0.342645,-0.565601,-0.234448,0.422269,-0.679507,-0.464072,0.001918,-0.202839,-0.441166,-0.365989,-0.475593,1.410752,0.069526,-0.388376,-0.265006,0.513738,2.146933,1.247009,-0.165179,0.617611,0.472896,0.378521,-0.494338,0.714323,-0.457075,-0.498470,0.128268,-0.204088,0.320363,0.024830,0.357625,0.212705,0.837246,-0.231828,-0.196120,0.876053,-0.119712,-0.081661,-0.826405,-0.310394,0.885826,-0.255899,0.025973,-0.366810,-0.729668,-0.220068,0.568244,0.157530,0.541086,-0.164311,0.516450,0.332159,-1.237481,-0.063847,0.052863,-0.191139,-0.204614,0.728739,-0.451415,-0.150387,-0.931132,-0.583903,-0.913757,0.000385,0.962200,-0.900992,0.134602,-0.057183,1.362926,0.723572,0.059196,-0.481212,0.700983,0.460203,-0.173955,-0.777536,-0.206977,0.632561,0.639967,1.478075,0.391837,1.363027,0.227935,-0.584251,0.275203,0.073605,0.042182,0.413298,-0.080552,0.534030,0.299581,-0.131536,1.143493,-0.410434,-0.446773,0.148145,-0.482382,0.249420,-0.256994,0.144786,-0.592374,0.764230,-0.357911,-0.361348,-0.494439,-1.315604,0.189040,1.607136,0.773821,-0.506362,-0.533324,0.612639,0.564868,-0.129595,-0.167902,0.537743,-0.910163,-0.462712,0.293475,0.181705,0.718057,-0.153881,-0.854886,-0.801263,-0.349694,-0.651984,-0.685171,0.202304,0.120110,1.104934,0.110857,0.434030,1.499010,1.089044,-0.654732,-0.776805,-0.144290,-0.754085,-0.266127,-0.420271,-0.658460,0.341439,-0.027016,-0.123022,-0.010644,0.621864,0.098764,1.533052,-0.164649,0.083971,-0.192994,-0.526460,0.189829,0.013109,-0.242985,-0.247568,-0.146261,0.893061,0.402752,0.749490,0.516984,0.706073,-0.083950,-0.327575,0.516560,1.825636,-0.552675,0.395526,0.112024,0.408173,0.770120,0.554532,0.543427,-0.304100,-0.411523,-0.769336,0.305248,-0.216309,0.350854,-0.610353,0.755635,-0.705961,-0.811513,0.614841,-0.219515,0.892480,-1.404244,0.048275,-0.926016,-0.551225,0.124974,-1.378432,-0.199185,1.199142,-0.116709,1.630225,0.068225,0.373593,-0.388179,-0.588832,-0.201522,0.503639,-0.428942,0.166862,-0.905002,-0.604764,-0.010284,-0.500660,0.069713,-0.352602,0.307926,-0.039136,-0.344226,0.633194,-0.250970,-0.523692,-0.873077,0.810305,0.572591,-0.619712,-0.218578,0.639958,-0.268015,-0.377827,-0.535282,0.449307,0.016701,0.497942,-0.370996,-0.217208,-0.050762,0.438074,-0.630475,0.201902,-0.427480,-0.170834,0.768558,-0.248469,-0.119475,-0.812329,-0.375022,1.295602,0.268070,-1.083664,-0.402214,-0.443183,-1.004533,-0.410150,-0.513138,-0.310462,-0.037056,0.651707,-0.342915,-0.090443,-0.592685,-0.779988,0.237306,-0.209898,-0.235129,0.596808,-0.595315,-0.543838,0.261548,0.267948,-0.408491,0.523148,0.137516,-0.387189,-0.685107,1.272677,-0.273198,-0.256323,-1.084211,-0.758687,-0.212012,0.499365,-0.749548,-0.126031,-0.538513,0.093106,0.610160,-0.751742,0.084573,-0.301523,-0.238151,1.198003,-0.665978,-0.436175,-0.218620,-0.632615,0.332341,0.583851,0.038330,-1.322727,1.133537,-0.470472,0.268124,-0.082560,-0.079707,0.261876,-0.072605,-0.544246,-0.394857,-0.604090,1.225119,0.778609,-0.753324,-0.627745,-0.441541,0.138983,0.460396,-0.986275,-0.002599,0.370837,0.127954,1.922584,-0.006336,0.391663,-0.249467,0.335176,-0.550076,-0.054177,0.292794,2.116156,0.413485,-0.461783,-0.660752,0.632852,0.152204,-0.642892,0.543073,0.063931,-0.313985,-0.813222,-0.379102,-0.566019,0.155084,0.082694,0.565075,-0.130021,-0.554189,-1.531150,-0.042086,0.152606,1.323945,0.421649,0.216900,-0.316036,0.032134,-0.487406,0.510675,0.108406,0.581669,1.348909,-0.134317,-0.357272,-0.430464,0.608361,0.634281,0.547270,-0.232256,0.006324,-0.004091,-1.982430,1.012568,-0.684254,-0.205905,0.010523,0.672726,-2.365410,0.175514,0.166134,-1.343087,-0.136618,0.933350,0.105916,1.104583,0.781498,-0.611566,0.976685,-0.758140,0.575047,0.796524,0.936249,0.969247,0.321275,0.239103,-0.412708,0.349183,0.361489,-0.677326,0.484308,-0.797186,0.545332,-0.675951,0.002107,0.087476,-0.039088,-0.751341,-0.116793,-0.069389,0.435365,0.045555,-0.043904,0.639655,0.348081,0.491677,-0.044348,-0.349129,0.585886,-0.328815,-1.177139,0.221471,-0.107215,0.125642,0.349565,0.033504,0.554586,0.092248,-0.059321,-0.962388,-0.580033,-0.131838,0.619172,0.361646,-0.272910,0.509758,-0.910218,1.338385,-0.361038,-0.133628,-0.474944,-0.671773,-0.235969,2.854796,-0.287253,0.314800,-1.606554,-0.358071,0.043548,0.497921,0.006709,0.860861,-1.246295,2.092716,0.673726,0.057652,-0.003167,1.260975,-0.408664,0.635101,-0.198960,0.283110,-0.176969,-0.352079,1.284021,0.431775,0.116540,0.835670,1.627162,-0.526518,-0.656658,-0.677483,-0.752101,0.096342,1.194619,0.237612,0.511150,-0.093882,0.534461,-0.604688,0.296125,0.433255,0.700863,1.792945,0.711035,0.073674,-0.306093,0.581359,-0.202161,-0.468204,-0.822470,0.512484,0.046870,-0.261798,1.127004,-0.198238,0.704337,0.921990,0.567206,-0.499951,-0.335566,0.537680,0.392114,-0.009958,-0.758844,0.769658,2.072249,-0.718686,0.872475,-0.449824,-0.051691,-1.300804,0.398809,-1.129432,-0.026466,-0.224981,0.036990,0.233029,-0.317622,-0.673966,0.581629,0.837371,1.958942,0.364613,0.643343,-0.276826,1.543760,-0.512156,-0.567933,0.069267,-0.082491,-1.120729,0.235342,0.919926,-0.590757,-0.613938,0.094820,-0.833728,-0.919545,0.668833,-0.559782,-0.738851,0.962013,0.109313,0.146255,0.209271,-1.788950,1.678704,-0.226550,-0.473921,0.025537,0.257311,-0.195881,0.363876,-0.056273,0.780931,-0.631195,0.473364,0.893877,1.467716,-0.512481,-0.029935,0.753899,-0.721937,0.031681,-0.396176,-0.320313,-0.081643,-0.866545,-0.141650,0.507276,1.075424,-0.261957,-0.547909,-0.673078,0.269230,0.531607,1.466765,-0.299850,-0.664145,0.408359,0.296652,-0.225555,0.623358,-0.773904,-0.561551,0.517815,0.795144,0.107655,0.007969,-0.653371,0.691549,0.279956,0.027664,0.535745,-0.382305,0.316760,-0.300342,-0.355013,0.036044,-0.321757,-0.290771,-0.250958,0.301796,-1.300655,1.141161,-0.188746,-0.664611,0.635118,-0.200393,0.031789,-1.064830,-0.706038,-0.465620,-0.292508,1.504152,0.197755,-0.812611,1.184322,-0.058714,0.171624,1.350195,-0.233633,0.694319,-0.272004,-0.321091,-0.634838,0.448738,-0.572184,-0.354859,-0.134963,-0.382674,-0.720775,-0.450110,-0.824091,-0.509657,-0.172180,-0.719815,1.232760,0.498961,0.337234,0.018872,0.574471,0.614967,0.783821,0.646355,-0.467175,-0.380953,-0.453568,0.356573,0.134992,-0.448937,0.742381,1.154260,-0.751215,0.270915,-0.132394,-0.267177,1.865810,0.598287,0.108949,-0.394316,-0.335094,0.251982,0.320545,0.223653,-1.252786,-0.034234,0.195229,0.757288,0.137288,-0.479948,-0.193629,-1.419773,0.636738,-0.374937,-0.469538,0.310880,0.281930,-0.203903,0.135019,-1.020852,0.551607,0.491902,-0.185958,-0.470599,1.969329,-0.171627,-0.681689,-0.443371,0.129727,0.496483,1.385688,-0.173251,0.035720,0.269576,-0.438758,0.557513,1.920869,-0.232726,0.124264,0.251085,-0.596665,-0.236915,0.732531,1.620680,0.508208}
    },
    {
      {-0.253344,0.773903,-1.067130,-0.786491,0.403264,0.632916,0.926821,1.835345,-0.358100,0.736959,-0.400769,-0.351021,-0.612315,0.994590,-0.067789,1.429988,-0.848210,-0.473429,-0.005407,-0.108207,-0.554754,-0.162295,0.821168,1.266276,-1.018223,1.523019,-0.587669,-1.380669,0.332376,-1.468882,1.941941,0.407250,-0.123251,0.663630,-0.588402,2.782616,0.655132,0.294345,-0.009661,-0.998171,0.161433,-0.053747,1.574046,1.980845,0.728156,0.450583,0.277035,-0.351202,-0.673168,0.264318,-0.469289,-0.592059,1.017754,-0.842730,0.547625,0.353254,-0.089786,-0.458540,-0.241055,-0.067164,1.501215,0.230158,0.120917,0.406225,1.486814,-0.499776,0.129388,1.309384,-0.775473,-0.641022,-0.231693,-0.459156,-0.695978,1.737360,3.087795,-0.692646,0.955826,2.089962,0.661135,2.004953,0.021790,1.421956,-0.359991,0.295077,-0.650690,0.038885,0.925875,1.290975,-0.498121,-0.184610,-0.060932,-0.290542,0.299431,-0.550367,-0.385680,0.584723,0.549428,-1.398203,0.448341,0.073541,-0.344633,-0.097355,-0.265944,-0.804233,-0.178979,-0.174618,-0.313486,0.395888,-0.453601,-1.099894,0.498955,-0.461327,0.890531,-0.422346,-0.927317,0.274532,0.954173,0.008049,0.327101,2.077473,-0.758609,-0.780700,1.773050,0.864892,0.258514,0.793980,-0.461522,-0.138606,1.338098,-0.212160,-0.558079,0.409531,-0.501913,0.937651,-0.614897,-1.054983,2.078313,-0.276055,-0.309669,0.839284,2.622407,0.305482,0.063123,-0.362089,-0.218514,-1.313596,-0.539097,-0.539870,-0.489889,0.305084,-0.632546,-0.458554,-1.511643,0.596829,0.574598,-0.508888,-0.329432,-0.652283,1.016672,1.196792,-0.053506,0.636525,-0.573442,-0.394614,2.408695,-0.467675,2.149709,0.165522,-0.652869,1.126662,-0.268997,-0.483243,0.399661,-0.043215,1.771677,0.713293,-0.488205,-0.302470,-0.433510,-0.170744,-0.935053,-0.580419,-0.426747,-0.599245,-0.143713,-0.602760,-0.730906,-1.574986,0.381824,-0.311093,1.517228,-0.525033,-0.410961,-0.481370,-0.130629,0.751623,-0.643975,-1.354006,-0.715293,-0.801037,1.425998,0.226581,1.741289,0.644124,0.063295,0.768918,0.341331,0.386091,0.048164,0.723276,0.673058,0.193380,-0.316664,-0.524868,0.839678,-0.689771,-0.463287,2.273044,1.095313,1.211776,0.454367,-0.210432,-0.358257,-0.584165,-1.028600,-0.330249,-0.518779,0.533646,-0.121895,0.146377,0.322493,0.461007,-0.738665,-0.473702,-0.815093,-0.290740,-0.436818,0.919838,1.224799,1.931103,0.195818,-0.227717,-0.242519,-0.404783,-0.780971,1.346352,0.306087,-0.692165,-0.415828,1.361974,-0.106591,-0.701496,4.320145,-0.525814,-0.179662,-0.190655,0.419412,0.704944,-0.375441,-0.528742,0.292049,1.783892,-0.068621,-0.089442,-0.514305,0.340543,-0.559850,-0.287700,-0.275448,-0.471573,-0.387913,-0.249906,-0.053912,0.492557,0.988795,-0.276481,-0.121479,1.823942,2.557917,1.167005,-0.349154,1.452671,1.134097,0.226859,-0.129035,-0.106506,0.145347,-0.895833,-0.273961,-0.243310,0.515053,-0.322057,0.557829,1.140822,0.809822,-0.728031,-0.238430,-0.145399,-0.449689,-0.244502,-1.002784,-0.800855,-0.379697,-0.580559,-0.205898,-0.670728,-0.120719,-0.492546,-0.036141,0.640176,2.904196,-0.459288,0.821223,0.473008,0.513450,0.999450,-1.025380,-0.434360,-0.378387,1.413497,-0.213996,-0.288884,-0.113298,-0.854860,-0.415952,0.165292,1.165525,1.496960,0.255090,1.060039,2.220458,1.168324,0.756303,-0.509160,1.509995,1.522256,-0.412972,-0.496131,-1.010227,0.805310,1.763829,-1.091769,0.540942,1.745182,1.161777,-0.343770,-0.355502,0.218716,0.126558,1.526123,-1.424881,0.695156,1.246143,-0.445200,0.370089,-0.500844,-0.313120,0.364831,-0.397544,0.477469,-0.475654,0.408729,-0.640241,1.205906,-0.777136,-0.184544,-0.628781,-1.062411,0.453258,1.380445,-0.265026,-1.637432,-0.695215,1.013992,1.075240,-0.141377,-0.462992,0.570817,-1.221711,-0.750398,0.359055,0.133535,0.199291,-0.296863,-0.770064,-1.098724,0.155981,-0.459154,-1.076468,3.077233,0.582805,2.354947,0.274201,0.130283,0.817910,4.031937,-1.511362,-0.478446,-0.267368,-0.335206,-0.472857,-0.461581,-0.017146,0.395461,0.000516,0.022118,-0.102550,0.509475,0.568659,2.242836,-0.143496,0.492707,-0.430474,-0.350876,1.837456,0.588742,-0.594733,-0.733435,0.068912,-0.514293,2.912278,-0.357326,0.618152,0.745823,-0.463062,0.770776,-1.702647,2.288969,-0.470559,0.450838,0.323368,-1.027892,0.846208,-0.021399,0.806376,-0.295953,-0.788787,-0.367075,0.324667,-0.305722,0.101578,-0.339427,1.598544,-0.611219,-0.440165,3.339766,-1.201024,0.688178,-1.674569,0.468946,-0.463414,-0.181154,-0.249764,1.162557,-0.248719,-0.076828,1.054452,2.074928,0.764361,0.802435,-0.377195,-0.731016,-0.897641,0.425159,-1.882398,0.107604,-1.202100,-0.460110,0.411425,-0.537964,-0.472699,-0.378148,-0.204250,-0.215753,-0.170303,0.396996,-0.458780,-0.393088,-0.782330,-0.089281,3.151707,-0.162354,-0.424477,0.560552,-0.773566,-0.369319,-0.571796,0.126891,-0.465486,1.092470,1.045178,-0.463598,0.456764,1.333589,-0.404826,1.420864,-0.616382,-0.466410,0.254099,-0.578326,-0.463585,-0.846363,-0.310789,0.991094,0.327129,-0.748606,-0.458227,-0.430388,1.449024,-0.364839,-0.146747,-0.296571,-1.078740,0.337219,-0.476308,-0.892116,0.684237,-0.184675,1.103833,1.114394,-0.328388,0.766429,-0.251583,-0.135079,0.351070,0.507495,-0.339354,0.663994,-0.276739,-0.163105,-0.394124,1.754588,-0.289933,0.319252,0.271206,-2.475163,-0.459246,0.366264,-0.575732,-0.905041,-0.039974,0.678467,1.387446,-0.545779,0.401986,0.117096,-0.475751,1.804915,-0.112287,-0.520783,-0.296529,-0.356235,0.485544,1.615554,0.415522,-0.511046,1.498274,-0.535125,0.631527,-0.401872,0.783902,0.372680,-0.405350,0.428662,-0.335645,-0.329597,0.806761,-0.262219,-0.250410,-1.055998,-0.197365,-0.606003,0.586192,0.136912,0.268398,0.839773,0.829249,1.301140,-0.174251,0.139703,-0.907905,0.383885,-0.941979,-0.656912,1.256763,1.274010,0.948256,-0.753935,-0.531668,-0.359393,0.291554,2.218558,0.387168,-0.092925,-0.291738,-0.450500,-0.206124,-0.305789,2.305298,-0.372043,0.872289,-0.329561,-0.203118,3.195327,-0.702057,1.500120,2.079574,0.218484,0.919336,-0.146890,-0.462969,-0.320048,-0.464900,0.229482,1.351399,1.833505,-0.266694,-0.530127,-0.756799,0.497480,-0.593517,0.953259,0.621570,0.413179,0.129268,1.104792,-0.332794,-0.062095,-0.192622,-0.499594,0.354946,1.008355,1.122528,0.089705,-0.438099,0.645739,0.702742,0.938364,0.922548,2.046015,-0.560328,0.701483,-0.349192,-0.258021,-0.061938,0.974230,0.007599,0.846940,-0.937199,-0.299084,0.372342,1.166040,-0.242076,0.786718,-0.384673,-0.895391,-0.610971,-0.399291,0.334118,-0.059032,-0.640358,-0.182328,-0.431273,0.629511,0.092411,-0.907130,0.187126,0.093261,-0.347874,0.729042,-0.409775,0.966888,-0.762548,-0.188645,0.821406,-0.611364,0.557389,0.257880,-0.385387,0.649208,-0.948213,-0.388117,0.103363,-0.087675,-0.301864,0.672903,0.981653,-0.420621,1.111447,-0.763228,1.716598,-0.981180,-0.409766,-0.021813,0.101608,-0.650201,-3.396562,-1.466711,0.840556,-0.809042,-0.402680,0.099310,1.532155,0.611318,1.061936,-1.483130,2.430744,3.151613,1.102053,-0.097152,0.417035,-0.234052,-0.231639,-0.477695,0.357484,-0.538081,-0.401945,-0.726564,1.168250,0.378015,-0.193013,2.434396,-0.170316,-0.316036,-0.325954,-0.250187,0.113357,2.412127,0.385922,-0.282625,1.183486,0.019917,-0.711984,0.005569,0.567236,1.409768,1.244720,0.851319,0.289527,-0.363134,0.740561,-0.220160,-0.657484,-1.321068,1.795641,-1.166432,-0.281625,0.963207,0.336954,1.631873,1.255428,1.771581,-1.627279,-0.216993,1.619965,-2.393894,-0.282584,-0.181591,1.686164,2.244843,-0.205691,1.889405,-0.629049,-0.318361,-0.037701,0.149108,-0.475435,-0.397787,-0.439834,-0.073003,-0.333837,-0.650617,0.713409,1.146790,1.051882,1.866016,1.074993,0.141156,-0.262428,2.011252,-0.429496,-0.211620,-0.471815,-0.236444,0.726219,-0.039294,1.331819,-0.033533,-0.863102,-0.066231,-0.840335,-0.761825,0.233041,-0.637654,-0.329230,0.822336,0.774598,0.264090,0.386530,0.636408,1.211805,-0.352770,-0.638054,0.135002,-0.974720,-0.993706,1.166785,-0.354593,0.922564,-0.232157,0.980266,0.536804,-0.429469,-0.144458,-0.040095,2.229736,-1.465631,0.434012,-0.786660,-0.482911,-0.427798,-0.474062,-0.207726,1.538931,2.499768,-0.278037,-0.303067,-0.347416,0.454009,1.562430,1.155529,-0.092533,1.961798,1.888309,-0.525608,-0.348810,2.078299,-0.727954,-0.197798,1.264421,0.917104,-0.741932,-0.406198,-0.140728,0.012743,0.415834,0.284205,1.012692,-0.595900,0.509044,-0.080684,-0.500789,0.668394,-0.131257,-1.000558,-0.155108,0.845003,-0.243992,2.305323,-0.447985,-0.293444,1.509358,-0.231661,-0.422647,0.134089,-0.631922,-0.258204,0.195397,1.843675,0.426102,-0.427647,1.508779,0.398628,1.477780,-0.197404,0.203511,2.691207,0.324941,-0.395786,-0.332807,1.284785,-0.450066,-0.691941,0.018528,-0.578507,-0.335863,-0.407060,-0.403055,-0.135946,-0.431945,-0.468280,4.393365,2.279547,0.990978,-0.716853,0.373843,0.364939,0.977164,0.640018,-0.333062,-0.233827,-0.814796,0.502737,-0.346201,0.118113,0.848335,0.195143,-0.461055,1.159935,-0.956246,-0.323499,1.000842,1.513295,0.268606,-0.003425,0.839391,0.653307,0.949893,-0.042272,-2.756362,0.092487,0.643868,0.921646,0.864371,-0.602497,0.278654,2.087179,0.075305,-0.358606,-0.199935,1.375336,0.645671,-0.385423,0.818014,-0.575589,-0.034763,1.116569,-0.299552,-0.203154,-0.908350,-0.262654,-0.133370,-0.189006,0.083702,0.504273,0.129008,0.677063,-0.504638,0.384442,-0.777958,0.336747,2.033592,-0.270507,0.497532,1.225626,-1.157119,-0.800249,2.061785,-0.848080,0.258820}
    },
    {
      {0.021965,0.263939,-0.671754,-0.656182,0.813743,0.051807,-0.286590,0.574879,-0.246178,0.023837,-1.059647,-0.491715,0.744774,0.563102,-0.913362,1.199902,-0.187970,-0.198283,0.679087,-0.249779,-0.400880,0.054035,0.491206,0.880112,-1.407583,0.353643,-0.244651,-0.087270,0.298229,-0.312624,1.306251,0.064583,-0.610133,0.404115,-0.127180,0.955790,-0.556137,0.360972,-0.305065,0.297434,-0.302282,-0.482947,0.768665,0.885774,0.274516,0.591180,0.469612,-0.457837,-0.074547,-0.002662,-0.417429,0.023477,0.235718,-0.859658,0.098693,0.895974,0.617337,-0.446239,-0.216137,-0.893629,0.811678,0.376294,0.230544,0.206027,0.626191,-0.433507,0.299442,1.584898,-0.108766,-0.176208,-0.609731,0.787028,-0.398874,0.908275,0.911334,-1.194288,0.237563,0.601677,0.366352,0.609931,0.026008,1.156458,0.898030,0.066108,-0.387782,0.001122,0.647944,1.418892,-0.223095,0.655899,-0.221678,-0.181548,0.367388,-0.307763,-0.353395,0.267815,0.578089,0.040545,0.191730,0.217437,-0.192650,0.589337,-0.493818,-0.429992,-0.486869,-0.379956,-0.463685,0.215727,-0.459153,-0.304380,-0.040973,-0.381759,0.274766,-0.329117,0.019793,-0.058079,0.567578,0.200653,0.819767,0.158858,-0.195579,-0.363919,1.237843,0.381603,2.539324,0.352183,-0.297510,-0.464155,0.009534,-0.160159,-0.549454,0.075283,-0.482307,0.204406,0.040906,-1.280104,0.981089,0.336013,-0.554783,0.179580,1.038336,0.340072,-0.488069,-0.386402,-0.412986,1.596800,0.073772,-0.276092,-0.188820,-0.015332,-0.124134,-0.348005,-0.377465,-0.634196,0.233912,-0.813985,-0.237289,-1.055499,-0.067198,-0.311491,-0.344148,2.217334,-0.337981,-0.357023,0.337185,-0.348946,1.076143,0.170601,-0.877808,0.745267,-1.137887,-0.261774,-0.279695,-0.431543,0.740659,-0.350597,0.055009,-0.388191,-0.656808,1.637235,-1.165566,-0.854267,-0.295557,-0.652709,-0.391008,-0.584228,-0.939079,0.239604,0.498014,-0.133775,2.423485,-0.611215,-0.350594,-0.461952,-0.632217,-0.187179,-0.589728,-0.300662,-0.753572,-0.627743,1.781728,0.623875,2.245399,0.725659,0.826086,0.662956,1.499433,-0.742258,2.430469,-0.197240,0.332547,0.128963,-0.479284,-0.118505,0.586962,-0.304061,-0.486308,2.698778,0.650747,0.677718,0.136737,0.493694,-0.219077,-0.566192,0.021889,-0.560936,-0.672578,0.381030,-0.160027,0.436922,-0.340160,0.453302,-1.416162,-0.185518,-0.273361,-0.318904,-0.317413,1.444707,0.006051,1.461093,-0.010763,-0.542705,-0.179667,-0.634267,-0.080995,0.118690,-2.276663,-0.648186,-0.672209,1.760374,0.104746,-0.525163,2.031861,-0.385490,-0.280760,-0.215022,-0.310162,0.450354,-0.522482,-0.098505,-1.825330,0.652063,0.422515,-0.793115,-0.319584,0.132777,-0.729485,-0.264959,-0.348756,-0.011340,-0.176604,-0.415184,-0.674654,1.481297,-0.092977,-0.652287,-0.251220,1.711677,0.933436,1.127934,-0.429084,0.622208,0.265582,0.264278,-0.947427,-0.674450,-0.520968,-1.380920,0.375885,-0.154796,0.305427,-0.106916,-0.668786,-0.053523,1.005543,-0.585862,-0.184871,-0.537980,-0.165121,-0.106235,-0.887293,-0.512366,-0.210040,-0.155593,-0.223406,-0.461937,1.020462,-0.481734,-0.431261,0.242841,0.586853,-0.527346,0.188912,0.165405,-1.177108,0.121002,0.005988,-0.309981,-0.329966,1.127626,-0.428741,-0.209414,1.256890,-1.132442,-0.842591,0.057632,1.175026,0.553738,0.130984,0.401619,1.028494,0.472383,0.492514,-0.289777,0.347529,0.391393,-0.391461,-0.896168,-0.477086,0.534400,0.528295,2.477678,0.519488,1.706255,0.739045,-0.350458,0.262468,0.079748,0.051862,0.842742,-0.171483,0.010238,0.790003,-0.091428,-1.702905,-0.350709,0.437456,0.320551,-0.651603,0.274074,-0.351601,0.039891,-0.371656,0.546807,-0.247692,-0.796139,-0.103652,-1.618646,0.264013,1.273473,-0.164283,-1.302727,-0.844025,0.225556,0.927131,0.011095,-0.268043,0.700477,-0.868505,-0.199703,0.046416,0.527698,0.979420,-0.208843,-0.772672,-0.758426,-0.400659,-0.555134,-0.799132,0.308731,0.133384,0.804378,0.024884,0.686978,1.267151,0.394194,-0.915500,1.006601,-0.263010,-0.710626,-0.546064,-0.237903,-0.700072,0.164152,-0.016154,-0.245179,0.009682,0.197814,0.376825,1.197618,0.330662,0.112837,0.027601,0.873112,0.404345,0.039366,-0.160858,-0.352873,1.066173,-0.430744,1.298814,-0.876033,0.158537,1.931309,-0.796128,-0.046630,0.405143,1.456555,-0.676100,0.227424,0.039043,0.013181,0.860684,-0.496142,0.255894,-0.175500,-0.220311,-0.452261,-0.089027,-0.227776,0.023383,-0.597230,1.113861,1.302372,-0.676052,0.635249,-0.295609,0.907833,-0.522304,0.175407,-0.524555,0.957922,0.349903,0.427003,-0.123959,-0.362685,0.609821,1.281386,0.182994,-0.046483,-0.253314,-0.706594,-0.142354,0.520744,-0.801199,0.246277,-1.098881,-0.930922,-0.179978,-0.273720,-0.352182,-0.465367,-0.482615,-0.043490,-0.736123,0.676343,-0.163308,-0.606469,-1.376910,-1.296994,0.577228,-0.550455,-0.350551,0.652673,-0.285089,-0.818839,-0.494776,0.646788,-0.195486,0.099517,-1.324543,-0.478216,-0.007894,0.771475,-0.793997,-0.420991,-0.305854,-0.143570,0.255170,-0.472337,-0.180814,-0.140641,-0.292006,1.021350,0.191024,-0.818736,-0.910302,-0.791401,0.546882,-1.090455,-0.305414,-0.302754,0.095781,0.787334,-0.609237,0.082770,-0.463842,-0.495601,1.042949,0.277593,0.074110,0.246052,-0.399826,-0.223970,0.311343,0.670202,-0.289165,0.338337,-0.194475,-0.465950,-0.578365,0.682818,-0.155926,-0.084859,0.897657,-1.360619,-0.220729,0.762990,-0.840279,-0.099660,-0.490898,0.049665,1.034692,-0.897017,0.315542,0.744118,-0.092422,1.351968,0.585735,-0.437645,0.051422,-0.560241,0.723981,0.565094,0.342481,-0.824379,1.968332,-0.564392,0.605789,0.888228,0.141820,-0.016518,-0.429365,-0.848979,0.378209,-0.313403,1.291732,-0.785592,-0.606374,-0.422269,0.529248,0.065178,0.398839,0.983623,0.365963,0.515198,-0.025812,2.684865,-0.321392,0.388703,-0.259080,0.530349,-0.523165,-0.176256,0.302573,1.975826,-0.184248,0.137231,-0.443680,-0.586146,0.327446,-0.463187,-1.060322,0.389762,-0.206004,-1.018490,0.649029,0.669212,1.683641,-0.057749,0.477479,-0.235524,-0.533574,-0.118399,-0.527370,0.749889,2.023649,0.431080,-0.143173,-0.208940,-0.158050,-0.845901,-0.439139,0.358053,0.426668,1.390840,-0.145810,-0.769206,-0.388891,0.461994,-0.467794,1.067387,0.136790,0.146955,-0.959403,0.693660,-0.836534,-0.842996,0.744762,-0.170060,0.672213,4.602149,0.160395,0.251260,-1.278499,-0.097263,-1.281547,0.400480,0.953876,0.932275,-0.851909,1.134093,-0.698559,-0.361899,-0.425789,0.832984,-0.845822,0.486022,-0.996983,-0.858959,0.263836,1.574363,1.532823,0.632996,0.834424,0.529738,-0.930997,-0.125218,0.110259,0.307288,-0.450946,-0.073633,0.292251,1.000690,-0.438471,-0.409971,0.217194,0.823204,0.100301,-0.227339,-0.423889,0.323251,-0.289248,1.110967,0.257403,-0.349722,0.480875,0.272320,-0.334308,0.719519,0.392261,-0.128578,0.005198,-0.600904,-0.304964,0.481717,-1.681598,-0.398526,0.709087,-0.652583,0.536933,-0.361287,0.037208,-0.203338,-0.972017,-0.391336,2.476629,-0.358332,0.467795,-0.559839,-0.612938,0.197252,0.548496,0.040928,0.728484,-1.940773,3.130908,0.051244,0.070779,-0.170530,0.770164,-0.147282,-0.504220,-0.235624,0.155793,-0.219677,-0.373343,-0.555888,0.217367,0.456744,-0.448545,0.051207,-0.785048,-0.777545,-1.118174,0.813767,-0.271774,2.072231,-0.153832,0.575691,-0.151869,0.673241,-0.657517,-0.071119,0.302850,0.944920,1.004299,1.507017,0.136205,-0.314617,0.928288,-0.435879,-0.297421,-0.211260,0.601771,0.245966,-0.302443,0.883043,-0.203138,0.460898,1.118056,0.767226,-0.295144,-0.706669,0.978966,0.565753,-0.033279,0.969232,0.266950,1.442426,-0.989660,2.041678,-0.508730,-0.349246,0.696071,0.691228,-1.059198,-0.031255,-0.186564,-0.014546,0.178889,-0.185747,-0.291526,1.274143,0.945604,1.142178,0.739719,0.034165,-0.119034,0.956177,-0.137208,-0.600213,0.192266,-0.682489,1.027100,0.032579,0.885450,-0.652554,-0.413514,0.321504,-0.684654,-0.661362,-1.330974,-1.077696,0.929635,0.953910,0.146789,0.125513,0.152954,1.549513,1.677016,-0.370918,-0.597738,0.186047,0.290941,-0.334523,0.844812,-0.114665,0.315960,0.788986,1.038270,1.464916,1.376473,-0.231267,-0.027458,0.640349,-0.731965,0.003665,-0.674937,-0.298539,-0.457532,-1.311889,-0.411823,1.179803,0.482898,-0.653848,0.795554,1.245613,0.384276,0.617206,1.285776,-0.231276,-0.694851,0.290612,0.327172,-0.167754,0.452322,-1.053253,-0.790333,0.272622,0.860852,-0.209151,-0.160342,-0.668494,1.186408,0.264063,-0.232623,0.632773,-0.242746,0.170258,-0.063946,-0.296562,-0.031924,-0.296433,-0.085451,-0.351458,0.730989,-0.724988,1.150710,-0.390897,-0.279870,0.460397,-0.496817,-0.237446,0.654409,-0.372686,-0.468936,-0.021693,1.453750,0.373753,-0.564347,0.843790,-0.226127,-0.023000,1.538601,0.535708,0.960784,-0.520351,-0.260593,0.937424,0.242105,-0.706020,-0.437898,0.038543,-0.484773,-0.668135,-0.521930,0.501139,0.752016,-0.474239,-0.609496,1.077395,1.170694,0.957019,0.004673,0.996705,0.058733,0.852443,0.589153,-0.677195,0.337041,-0.669293,0.122760,-0.556658,0.620089,0.512312,0.532013,-0.951078,0.270625,-0.290353,-0.477442,1.151413,0.650453,0.362528,0.456856,0.115390,0.268318,0.382104,-0.104889,-1.904063,0.252717,0.469285,0.099820,0.029854,-0.661634,-0.069655,1.498456,0.450003,-0.060594,-0.413796,0.025826,0.356870,0.041735,-0.138090,-0.939977,-0.575713,0.701797,-0.622975,-0.678382,0.777559,-0.109205,0.951219,-0.369594,0.288973,0.541111,-0.923801,0.058078,-0.291535,0.427641,-0.671235,0.742580,1.188298,-0.257191,0.214261,0.395337,-0.653647,-0.332608,0.738633,1.561729,0.318895}
    }
  }
};
