#pragma once

#include "C:\Users\Baron\Desktop\EE_297_Repo\EE_297\hardware_imp\vitis_hls\lane_seg_hls\lane_seg_top.h"

// Auto-generated with BN folded

data_t enc11_ir10_dw_w[3][3][1][384] = {
  {
    {
      {0.019161,0.287349,-0.201065,-0.068139,0.331972,-0.048726,-0.012149,-0.244887,0.039699,0.225527,-0.088509,0.152570,-0.229610,-0.568539,0.510600,0.135901,-0.071943,0.140198,0.038551,-0.440883,-0.034711,-0.171230,0.488645,-0.361695,0.377707,0.044681,-0.007961,0.269808,-0.237766,-0.030529,0.122881,-0.457860,-0.257837,-0.075328,-0.044743,0.153439,-0.094141,-0.690670,-0.038644,0.448647,0.113106,-0.573532,0.038866,-0.182673,-0.073795,-0.316881,-0.038157,-0.325493,-0.538277,-0.083426,0.075765,-0.037412,0.035545,0.103891,0.045832,-0.148176,-0.190208,-0.246348,0.594542,0.318947,0.313065,-0.162120,-0.039930,-0.128621,-0.131017,0.121803,0.202283,-0.092079,0.075997,0.236268,-0.159940,-0.205035,0.184393,-0.156648,-0.414002,-0.454298,0.528250,0.124732,-0.137748,0.260600,0.139321,-0.068232,0.351675,0.196474,0.019369,-0.062271,-0.666486,-0.466987,0.000334,0.058667,-0.107212,0.196957,-0.054515,0.039904,-0.128092,-0.188395,0.271977,0.237147,0.105822,-0.161988,0.203177,0.302588,0.295565,-0.161462,0.037907,-0.194521,-0.222451,-0.000402,-0.088657,-0.189673,-0.172911,0.239374,0.529738,0.046843,0.119827,-0.395303,0.108329,-0.074103,0.208688,0.017835,-1.180714,0.001090,-0.077284,0.273171,-0.056271,0.273213,0.091546,0.730984,0.501444,0.009616,0.457231,-0.085768,0.163436,-0.310862,-0.337185,0.026916,0.144051,0.004346,-0.100284,-0.122049,-0.504068,-0.148087,-0.041821,0.273841,-0.433387,-0.065394,0.079753,0.107237,0.197559,-0.279574,-0.191654,-0.133065,-0.184678,0.445280,0.317950,0.213243,-0.026110,0.161159,-0.156131,-0.014314,0.224230,0.067526,0.201225,-0.011801,-0.456055,0.067640,0.012981,0.010301,0.008893,-0.153279,0.175290,0.079274,0.052595,-0.096425,-0.364556,0.574702,0.063944,0.218506,0.047911,0.065333,-0.012760,0.018514,-0.436491,0.043794,-0.133467,0.039431,0.175550,0.044685,-0.161007,-0.050579,-0.070723,-0.143973,-0.529546,0.095461,-0.176984,-0.018126,-0.045077,-0.342047,0.041930,0.032343,-0.111784,-0.391991,-0.336154,-0.011045,0.172139,0.458750,0.132017,0.393305,0.199540,0.217804,-0.210047,-0.174660,0.035718,-0.371965,-0.292159,-0.246167,-0.255041,0.029166,-0.581646,0.126341,-0.103216,-0.146839,0.231457,-0.131153,-0.244423,-0.218911,0.029953,-0.611955,-0.113653,-0.146714,0.287239,0.278361,-0.178471,0.106141,-0.112626,-0.161214,-0.117159,0.157211,0.119288,0.123366,-0.340944,0.069626,-0.000773,0.393362,-0.491875,-0.112872,-0.076939,-0.032552,-0.219113,-0.308379,-0.053425,0.014519,-0.177156,-0.218099,-0.235527,-0.048302,-0.220451,-0.080476,-1.369713,1.992579,0.076687,-0.018981,0.052396,0.018455,0.415550,0.145181,-0.062373,0.263692,0.438090,-0.327617,0.155968,-0.228781,0.137505,0.005871,-0.434083,-0.004798,0.206698,-0.519272,-0.301010,-0.239808,0.114482,-0.071848,0.366403,0.193225,0.188646,0.042176,-0.109135,-0.391087,-0.182297,0.135001,0.045834,-0.089250,0.008430,0.456152,-0.149221,-0.485948,-0.025694,-0.106882,0.533504,-0.207659,-0.120813,-0.586030,0.017254,0.263860,-0.243692,0.295444,0.000481,0.288303,0.646530,-0.137324,0.185715,-0.316290,-0.058671,0.325976,-0.009504,-0.041460,0.141829,-0.284910,0.003440,0.044490,0.114646,-0.149406,-0.448629,0.155461,-0.041069,0.354760,0.076772,-0.557838,-0.103252,0.088594,0.397010,-0.011922,0.131150,-0.079261,-0.406785,-0.035754,0.862332,-0.100316,-0.270092,-0.111403,-0.107074,0.098669,0.025913,0.441203,-0.267687,-0.213087,-0.061629,-0.042399,-0.076990,0.077985,-0.323386,0.467909,-0.169572,-0.438103,-0.775266,-0.046295,0.167637,-0.084791,-0.083920,-0.345491,-0.109809,-0.116397,-0.424976,0.027920,0.358649,0.060920,0.647834,0.185035,-0.002174,0.252075,-0.036251,0.033339,0.066817,0.199727,-0.028131,-0.602519,-0.327172,-0.155771,-0.282463,-0.172010,0.050092,0.230502,-0.505801,-0.103067}
    },
    {
      {0.034810,1.747543,-0.148849,0.113807,0.223887,-0.220780,-1.143072,-0.256919,0.235891,0.787560,0.309509,-0.360705,-0.541480,-0.052926,1.461826,-0.360266,0.142466,-0.418942,-0.129737,-0.282034,-0.155976,-0.066901,0.680656,-0.550291,-0.451542,0.564653,2.282558,-0.416710,-0.715292,-0.460872,-1.128544,-0.344513,-0.031014,0.699712,-0.289805,-0.195131,-0.241002,0.083366,-0.139057,-0.301434,-0.242567,-0.169020,-0.332494,-0.453613,-0.464299,-1.197855,0.279525,-1.204136,-0.221001,-0.036734,-0.387951,1.024565,-0.450079,0.315995,0.680024,-0.069753,-1.015428,-0.313218,-0.236089,-0.246381,-0.220401,-0.263063,0.254989,0.460736,0.172826,-0.081360,1.544288,-0.590199,0.050510,-0.565769,0.368531,-0.101212,0.234365,-0.258287,-0.034267,0.182872,1.071029,-0.195565,-0.440439,-0.860991,-0.122472,0.064965,-0.424874,0.614970,-0.787164,-0.320874,-0.220131,-0.267135,-0.041193,-0.049139,0.545427,-0.201483,-0.283612,0.383562,0.082170,-0.405539,-0.311565,-0.464874,-0.467729,-0.220947,-0.183770,2.783669,-0.130899,-0.279030,0.169081,-0.357812,-0.626934,0.290371,-0.011469,-0.443612,0.410703,-0.347560,-0.453050,0.515098,0.329402,-0.664043,-0.146549,0.052630,-0.294411,-0.197146,-0.274327,-0.370498,-0.518370,-0.144826,-0.968107,0.348874,1.021749,-0.065676,-0.158864,0.143269,0.252007,-0.277237,-0.374227,-0.270454,0.103354,-0.060999,0.532200,0.098582,-0.097015,-0.206658,-0.604662,-0.139094,-0.327361,-0.226157,-0.233176,1.415074,-0.292549,-0.145374,0.214208,-0.302225,-0.187653,-0.991692,-0.558683,-0.242653,0.064965,-0.031491,-0.778440,-0.477941,-0.273073,-0.375073,-0.129179,-0.055464,0.247056,0.160568,-0.692715,-0.698879,-0.392643,0.060529,0.216529,-0.523965,-0.319982,-0.526095,-0.251288,-0.293253,-0.547392,-0.620391,0.685677,0.215009,-0.177422,1.760574,-0.054672,-0.208821,-0.884532,-0.274743,0.210729,-0.371362,2.409460,-0.252936,-0.442870,-0.203240,-0.218461,-0.314839,-0.098674,0.078844,-0.096498,-0.259036,0.132607,-0.058902,-0.146800,0.198118,-0.156831,-0.855768,0.039707,-1.840444,-0.134074,0.851669,-0.293409,0.841077,-0.732826,-0.669053,-0.419268,0.380110,0.255458,-0.419582,-0.046329,-0.389271,0.014421,0.976237,0.508581,0.079559,-0.938746,-0.241336,-0.272185,-0.472324,-0.928224,0.017157,-0.112582,-0.224711,0.024946,0.057293,-0.231183,-0.784629,-0.217021,0.443719,0.416538,-0.557738,1.272012,0.483801,0.314160,0.117832,-0.307056,0.100822,0.162951,0.716499,-0.571248,-0.911383,0.429045,-0.189476,0.052443,-0.010586,0.042693,-0.178728,-0.953913,-0.365739,0.009623,-0.355144,-0.468057,-0.508256,0.952249,-0.596905,-0.384700,0.061045,-0.443532,0.007462,-0.062578,0.843795,-0.177539,1.052030,-0.485760,-0.166356,0.034230,-0.313022,-0.181978,-0.696439,0.047699,-0.529732,-0.261572,-1.269410,-0.850011,-0.374872,0.264778,-0.076538,0.231327,0.416756,0.296397,-0.103623,-0.519135,-0.595717,-0.194139,0.234570,-0.263663,-1.380137,-0.368092,-0.115990,-0.618371,0.240450,0.340156,0.115490,0.558959,-0.254777,-0.526850,-1.359074,-0.092524,0.765531,-0.383880,-0.316815,-0.283947,-0.576415,1.261626,0.224453,0.090370,-1.064987,-0.870186,-1.414351,-0.486735,-0.192783,1.972983,0.313800,-0.226578,-0.066957,-0.074004,-0.408087,-0.238677,-0.253547,-0.605745,0.419277,-0.171955,0.829087,-0.272122,-0.207252,0.412957,0.356036,0.348786,-0.012988,-0.632882,-0.157191,2.726707,-0.311840,-1.029308,-0.540005,-0.098162,-0.134040,1.461500,-1.467915,-0.182895,-0.401871,-0.199183,-0.116260,-0.446578,-0.114457,-0.184790,0.269150,-0.057718,2.119476,-0.050985,0.058922,0.561974,-0.606687,-0.716666,-0.374431,-0.136226,-0.094048,0.315235,-0.475447,0.689943,0.092976,-0.933343,-1.226006,-0.545309,-0.395652,-0.469378,-0.265049,-0.097385,-0.283614,-0.327317,-1.005572,-1.285682,0.024567,-0.257166,-0.373134,-0.025025,0.200897,-0.180327,-0.165847}
    },
    {
      {-0.213533,0.640741,-0.079593,-0.019144,0.141964,-0.184641,-0.263136,-0.401365,0.029072,0.362326,-0.177391,-0.498379,-0.342282,0.973006,0.418256,-0.286818,0.205657,-0.066878,-0.343129,0.180227,0.050139,-0.056803,-1.632282,-0.561261,0.187934,-0.212420,-0.054813,0.388067,-0.210638,0.241847,0.172834,0.438092,-0.273837,0.035492,0.144162,0.045688,-0.353669,0.694980,-0.246656,0.338128,-0.061775,0.167532,-0.214727,-0.398439,-0.054054,-0.464452,-0.342821,-0.425979,-0.660233,0.517431,-0.008113,0.409794,-0.339087,0.003206,-0.104372,-0.224005,-0.495111,0.281109,-0.272868,-0.027491,0.252808,-0.247528,-0.145976,0.405457,0.030499,-0.197708,0.550466,-0.159462,0.067976,0.131477,0.427987,0.186694,0.028170,-0.323101,-0.417486,-0.149664,0.019219,0.071581,-0.179843,-0.255678,0.074110,0.134348,0.023170,0.133189,-0.165240,0.082409,-0.778531,-0.270298,0.152002,-0.005354,-0.130452,0.043852,-0.294228,0.280486,0.297426,-0.345736,-0.021324,0.165014,0.084561,-0.082765,0.192066,0.547368,-0.057994,0.004524,0.348268,-0.157492,-0.267598,0.271803,0.037033,-0.051184,0.012902,0.066844,0.551513,0.139881,0.145921,-0.650984,0.099721,-0.243580,0.053491,-0.322202,0.901383,-0.117822,-0.291579,-0.130279,-0.338989,-0.152363,0.270030,-0.180093,-0.165669,0.122649,0.247978,0.011421,-0.170489,0.054786,-0.190872,-0.174079,0.346894,0.148508,0.034673,0.271483,-0.426526,-0.468513,-0.129208,0.358046,0.209636,0.185725,-0.031497,0.370669,0.275091,-0.213452,-0.438666,-0.459085,-0.162081,0.112170,0.052478,-0.143215,0.290447,-0.062488,-0.049618,0.161913,-0.053060,0.067191,0.076658,0.137654,0.341685,-0.066746,0.075572,-0.107102,-0.010825,-0.228495,0.167794,0.014936,-0.322692,-0.240989,-0.435428,0.369283,0.204397,0.088705,0.056809,1.127642,-0.060896,0.103378,-0.085275,0.048480,0.006326,-0.020388,1.191736,-0.156922,-0.292617,-0.184284,-0.046124,0.061151,-0.302328,-0.124576,-0.250857,-0.101401,0.063535,-0.347342,-0.109584,-0.170125,-0.183803,-0.541637,-0.320540,-0.318233,0.242466,0.522898,-0.302830,0.600869,-0.146086,0.111102,0.222343,-0.072059,0.081523,-0.027462,-0.130649,-0.237796,0.136603,0.063275,0.076884,0.028857,-0.277250,-0.231700,-0.008211,-0.118925,-0.185595,-0.333817,0.046997,-0.221401,0.010847,-0.254208,-0.006442,0.004272,0.046370,0.017365,0.122795,-0.165384,0.157124,0.098038,0.335612,0.283286,-0.080899,-0.032989,0.158481,0.439033,-0.672805,-0.173995,-0.050525,0.094468,-0.051083,-0.706561,-0.307195,0.420328,-0.230131,-0.290134,-0.486522,0.056156,-0.179216,-0.486039,0.299607,-1.076497,0.017394,0.051567,0.086505,0.066095,-0.285923,0.282978,-0.051959,0.436758,0.201643,-0.552228,0.135117,-0.149710,-0.168159,0.169641,-0.682520,-0.275729,0.029513,-0.228229,-0.916553,-0.256838,0.196625,-0.207095,0.485667,-0.009486,-0.070171,-0.083509,-0.413655,-0.502284,0.194064,0.259274,-0.249124,-0.706197,-0.218402,-0.280827,0.263838,0.337108,-0.187089,-0.135946,0.724657,-0.098944,-0.123059,-0.724757,-0.125674,0.057048,-0.423515,-0.423529,0.032986,-0.220973,0.722269,0.009578,-0.011008,-0.612350,1.370426,0.141959,0.013535,-0.002143,0.414095,-0.122396,0.129684,-0.246715,0.232357,-0.012180,-0.226075,-0.107938,-0.604128,0.175354,0.090870,-0.463252,-0.324058,0.035600,0.394032,-0.061380,-0.014487,-0.102745,-0.247658,-0.003209,1.026202,-0.094844,0.004259,-0.132711,-0.133138,0.094381,0.191701,0.077170,0.180115,0.634440,-0.076778,0.080076,-0.162443,0.364407,0.265900,-0.024024,-0.133647,-0.185781,-0.633630,0.546958,0.207886,-0.130749,0.014922,-0.430097,-0.062778,0.190938,0.215203,-0.396475,0.384001,-0.105174,-0.671490,0.050645,-0.078147,0.093210,-0.040647,0.016544,-0.019017,-0.011534,-0.196995,-0.177831,-0.240578,-0.066685,-0.492900,-0.239063,-0.149417,-0.305534,-0.376202,0.963303}
    }
  },
  {
    {
      {0.582587,0.077678,0.279289,-0.332613,0.244539,-0.221547,-0.409793,-0.059393,0.384310,-0.043259,0.140101,-0.301282,-0.391599,-0.231006,0.669864,1.504465,-0.245950,-0.449054,0.544096,-1.375849,0.037949,-0.046451,-0.608380,-0.233916,0.087161,0.569958,0.081385,-0.790187,-0.837843,-0.515028,0.858076,-0.189506,-0.044686,0.970714,0.163933,-0.480064,-0.021559,-0.902667,-0.456323,0.289696,-0.200190,-1.131141,-0.283693,0.187973,-0.620454,-0.150494,-0.013379,-0.330946,0.137014,0.296367,-0.962205,-0.379095,-0.013112,-0.086334,-0.517665,0.570760,-0.136736,-0.437142,2.328279,0.743001,-0.075219,-0.021362,0.152946,-0.667683,-0.005195,1.114610,-0.426185,-0.160456,-0.139842,-0.036385,2.080333,-0.186690,-0.172128,0.001614,0.093370,-0.283915,-0.170299,-0.209001,-0.083701,-0.411713,-0.383927,0.064489,0.652260,0.714353,-0.178489,-0.352284,-0.208397,-0.407370,0.084260,-0.184669,1.066337,-0.111112,-0.237923,-0.285074,-0.089058,-0.386686,1.292498,0.201187,-0.197686,-0.230096,0.113981,-0.099007,-0.599268,-0.168371,-0.249357,-0.285920,-0.201547,-0.149857,-0.127694,-0.174163,-0.188384,-0.461925,-0.300417,0.346242,0.298443,-0.085782,-0.236948,-0.255061,-1.040048,1.062632,1.374770,-0.250433,-0.187855,-0.095489,-0.487224,1.245791,0.055420,1.343379,1.102156,0.059378,0.861920,-0.047611,-0.197483,-1.022652,-0.281810,1.281619,0.116909,-0.089574,-0.226697,-0.446266,-0.551311,-0.409881,-0.239503,0.077077,-0.177133,0.258661,-0.341357,-0.146032,0.028756,-0.145627,-0.076037,-0.004863,-0.171828,-0.322272,0.260183,0.267080,0.942672,-0.077673,-0.523305,0.059163,1.799103,-0.001982,0.500627,0.022043,-0.818735,-0.353659,-0.380566,0.870570,-0.131620,-0.320481,0.071531,-0.478005,-0.420771,-0.533786,-0.249357,-0.517026,0.459377,-0.370576,-0.234777,1.374752,-0.077023,-0.800238,-0.576405,-0.391242,0.322155,-0.503127,0.008751,0.125080,-0.070084,-0.251420,-0.344922,-0.837013,-0.214747,0.141533,0.087436,-0.162449,-0.201959,-0.160130,-0.021317,-0.010315,-0.072267,-0.274708,-0.492483,-0.089439,-0.023829,0.322760,0.854748,0.445035,-0.789150,-0.027432,-0.411364,0.228710,0.990659,-0.391296,0.097870,-0.311895,-0.724404,-0.361373,-1.577480,-0.113527,-0.714828,-0.357019,-0.231185,-0.281900,-0.044864,-0.162281,-0.176336,-0.722442,-0.289528,0.047715,-0.225287,-0.399284,-0.129548,-0.069560,-0.291980,-1.179604,0.223895,0.280448,-0.847543,-0.228050,0.356618,-0.480482,-0.079081,0.271209,-0.147784,-0.633129,-0.131535,-0.172845,-0.203835,-0.114025,-0.326044,0.031250,-0.332910,-0.358654,0.063306,-0.286506,-0.291740,-0.263607,0.262447,-0.247829,-0.486402,-0.283009,-0.874557,0.091910,1.095988,-0.118792,-0.227547,0.138244,-0.465044,0.061222,-0.483823,-0.289922,0.000039,-0.931944,-0.066413,-0.366455,-0.073462,-0.178880,-0.573062,0.216408,-0.245824,0.304848,-0.527031,0.127250,-0.083773,-0.112916,-0.299991,-0.014046,-0.171201,0.046162,-0.218538,0.029007,-0.327441,2.101540,0.640606,-1.345720,0.070552,0.057690,1.193858,-0.640072,-0.389926,-0.229445,-0.105119,-0.028858,-0.441269,0.523029,0.025599,-0.310255,-0.358858,0.038590,-0.090678,-0.104528,-0.514198,0.129650,-0.467765,-0.249358,0.560031,-0.129921,-0.853963,0.187551,0.166054,-0.171861,-0.295708,-0.268744,-0.280194,-0.652377,-0.552337,0.321758,-0.231649,-0.141011,-0.169155,-0.298127,0.095014,-0.230136,-0.517327,-0.199732,-0.401208,-0.378540,-0.763407,-0.495084,-0.223362,-0.184368,0.233712,-1.427054,-0.157029,-0.228412,-0.191124,0.935968,-0.195944,-0.695187,-1.110820,0.226798,0.286084,-1.188314,-0.355765,-0.054232,-0.417990,-0.217638,-0.488203,-0.712521,-0.041219,-0.155702,-0.837754,0.465227,0.752903,0.002832,1.313122,-0.293200,-0.578139,0.029591,-0.199909,-0.184982,-0.223862,-0.098478,-0.275600,0.456862,-0.362245,-0.078166,-0.473497,0.144225,0.255165,0.102909,-0.021704,-1.050026}
    },
    {
      {0.544938,-1.331088,1.381391,-0.769417,2.036702,-0.754268,1.531630,-1.172549,-1.366022,-0.871991,-3.776824,-0.411485,-0.342104,-1.154559,-0.916064,3.189702,1.821371,2.010677,0.538101,0.454694,2.078839,1.909349,1.599998,-0.706608,1.910637,2.691690,-0.647151,2.588087,-0.438645,0.845210,-2.090850,-0.634223,2.665458,-2.842953,1.859692,-1.638078,1.574176,-0.108236,2.751487,2.311155,1.856280,0.604956,-1.818088,-0.988337,1.782505,0.432641,2.565824,0.865087,-0.365737,1.054059,3.237170,1.664305,0.143424,2.138422,3.118289,-1.674937,2.532637,2.408483,-0.413246,-2.637941,2.498689,-0.673474,-1.885936,1.164145,2.147161,0.509874,-0.034157,-0.671460,2.271590,-2.092089,0.434974,2.144687,-3.501786,-0.603079,-0.976387,0.336796,1.055947,1.330272,-1.007241,3.576988,1.967041,1.907613,1.574615,0.709370,1.491976,2.278095,-0.318595,-0.694625,1.401268,2.207766,2.833422,1.791361,2.062531,2.243278,1.837296,0.146554,0.190192,-0.261199,1.759942,2.050748,2.192857,-1.848733,-0.478051,-0.819706,1.387752,-1.044759,-0.699997,2.146420,1.588299,-1.069244,-1.363881,1.691061,-5.735488,-0.925807,3.210798,-1.276481,1.811391,-0.629710,-1.256910,-0.262167,1.917838,-0.832316,-1.090402,2.336393,1.547428,-1.607520,-1.151742,0.222371,-1.055813,-1.366304,-1.432385,1.318604,2.029820,0.803002,-0.547244,0.542530,-0.992831,-1.566930,1.740944,2.522788,-0.569248,-0.267528,1.784495,2.579669,-0.524378,-0.396014,2.523771,0.819232,1.875957,1.897190,-0.497977,1.012730,-0.811794,2.086294,0.442806,1.950088,-2.226592,-1.279239,-0.273063,-2.688017,-0.414232,-1.759505,1.102711,-1.918556,-0.672120,4.890237,1.866055,0.567453,2.454408,-0.483937,2.353715,3.286227,2.746248,0.599462,-0.481077,2.220297,-1.583173,-0.843176,1.972378,0.668942,1.539734,0.227129,-0.706580,-1.794871,2.198118,2.322976,-0.962393,1.538054,1.563897,2.098153,1.917673,2.562204,-0.655470,1.186295,-0.692063,1.870392,-1.320745,-0.559594,2.290817,-2.108472,-0.513670,-0.667801,-0.329710,1.357664,1.507520,1.076501,0.410283,-2.191814,3.790975,2.158882,2.520844,1.818534,0.380207,2.900405,-1.045211,-0.389142,1.490936,1.537789,1.689434,1.816042,2.480928,1.805057,2.057843,1.204278,4.094988,-0.788363,1.415755,-0.424560,2.483219,2.382587,2.718020,2.409612,-2.020597,1.253726,0.950046,3.410765,1.222731,2.540839,-1.651741,2.158895,1.651340,2.425134,1.518908,-0.864755,-0.740483,2.192901,-0.980079,2.316101,-0.645017,-0.428162,3.289560,2.577606,1.345791,-1.062609,-0.796545,1.996191,1.788170,-0.516314,2.123320,4.579395,1.776560,1.964927,2.954451,1.117405,-0.983870,1.163014,-0.521191,-0.544975,-2.477874,-0.653571,-0.770315,-0.476667,1.776509,3.629162,-0.501300,0.820998,2.134259,-0.556448,-0.412737,2.018548,1.730963,1.823666,2.601959,2.721444,2.386667,1.988991,3.018615,-0.668769,1.822149,2.618377,-0.837026,0.604549,2.040000,-1.112236,0.893802,0.977990,2.565932,-2.129218,-1.782045,2.317260,2.299275,1.790536,2.227635,2.101901,0.044963,0.928755,1.068258,2.279667,0.849663,1.662230,1.488322,-0.748571,2.507596,-3.118424,2.318396,2.083924,0.999225,-1.184562,-3.012850,1.707762,2.386923,2.116507,-0.106846,2.687401,0.022910,2.180092,2.084168,2.775925,-1.566834,1.622329,2.025712,-1.064501,1.528287,-0.385634,-0.545701,-1.806510,-1.577092,1.526056,3.808978,1.660175,-1.101445,-0.800879,-6.645029,4.084571,2.322993,2.922452,-0.887799,-2.513410,-0.783346,2.035714,-0.497319,1.813499,-1.134156,3.760071,-1.775313,1.632711,1.648257,-0.650416,2.031250,-0.616494,-0.980300,1.299492,-0.397756,-0.082383,-2.302365,1.458181,-0.569085,4.920569,2.361258,2.255055,1.440586,2.389474,2.237861,1.897309,-0.723294,-0.394931,4.287641,-0.970903,-0.469370,-1.581111,2.078089,1.699820,-0.366331,0.227428}
    },
    {
      {-1.092350,-0.044663,0.473950,-0.723042,0.767949,-0.453098,0.065778,-0.326001,-0.181163,-0.238641,0.045370,-0.294897,-0.503090,2.789205,0.664469,-0.486991,0.558065,-0.021285,-1.254144,1.573142,0.405777,0.203928,1.053091,-0.600769,0.700744,0.414141,-0.359664,0.726089,-0.832583,1.920857,0.758948,2.309329,0.137396,0.412837,0.380514,-0.815886,0.241375,0.801730,0.471698,0.647585,0.201020,0.851002,-0.953271,-0.675690,-0.017965,-0.022616,0.139526,-0.201682,-0.650111,0.405551,-0.255367,-0.077325,1.918775,0.301482,1.320524,-0.260687,0.426824,0.309906,-0.090256,0.143132,0.221766,-0.100626,-0.337494,0.194533,0.335542,-1.168984,-0.277344,-0.298402,0.199711,-0.663845,-0.128310,0.371194,-0.458326,-0.116041,-0.122263,-0.137688,1.013175,0.261381,-0.424662,0.926775,0.348327,0.401508,-0.733081,-0.902056,0.335116,0.610280,-0.085736,-0.348708,0.569952,0.132346,0.070957,0.328672,0.387365,0.136144,0.563633,-0.274823,-1.029380,0.193801,0.258827,0.140131,0.304463,-0.600396,-0.897772,-0.234823,0.197066,-0.465454,-0.459045,0.247332,0.319023,-0.797899,-0.259546,-0.146346,-1.696359,-0.393068,0.716025,-0.409292,0.065953,-0.281862,-1.195076,-1.011312,-0.444919,-0.248917,-0.249674,0.298939,-0.133865,-0.175595,-0.305844,-1.054318,-0.091001,-0.215767,0.555358,0.415346,0.477605,0.849723,-0.404593,-1.486007,-0.149348,-0.507199,0.247561,0.398506,-0.359633,-0.504228,0.314564,0.653539,-0.289324,0.008936,0.045096,0.789319,0.864878,0.260026,-0.519476,0.034729,-0.580256,0.376269,1.301124,-0.287049,1.093064,-0.423809,-0.569992,-0.285487,-0.306119,-0.091892,-0.399617,-0.237774,1.176460,0.163465,0.111216,-1.513437,0.251098,-0.367376,0.682088,0.117905,0.311920,-0.663212,-0.281331,0.005491,-0.053822,-0.560397,0.169948,-1.344715,0.312569,0.984531,-0.443952,-0.571838,1.135422,-0.040161,-0.315076,0.337661,0.372594,0.150500,0.075224,0.523029,-0.070948,0.772585,-0.415540,0.191262,-0.558904,-0.436755,0.475652,-0.508540,-0.364263,-0.540049,-0.663767,0.412835,0.017258,0.717248,-1.248609,-0.041042,0.045222,0.570350,-0.028304,0.517715,-0.538780,0.537086,-0.050598,-0.515695,0.222521,0.228958,0.323966,0.237298,-0.018449,0.263884,0.405449,0.179044,0.854174,-0.422669,0.313263,-0.183740,0.334300,0.740520,0.247331,0.226025,-0.220802,0.418525,-0.164403,-1.053896,0.365926,0.483848,-1.172067,0.688474,0.573898,0.064834,0.120218,-0.237276,-0.364922,0.082834,-0.329851,0.215449,-0.226128,-0.413451,-1.074463,0.727207,0.032751,-0.248307,-0.265676,0.085269,0.293100,-0.093419,-0.664944,-0.799059,0.305484,0.222720,-0.184775,0.326921,-0.881069,0.326945,-0.381159,-0.059233,-0.852630,-0.801698,-0.728110,-0.239421,0.334774,0.149572,-0.246732,0.155349,0.654253,-0.308291,-0.701848,0.450068,0.076906,0.879289,-0.054175,0.708387,-0.190666,0.326916,0.347083,-0.079861,0.391849,0.429247,-0.551758,0.295887,0.216611,-0.588702,-0.538591,0.713108,0.554022,-0.396942,0.721372,0.419279,0.049846,0.539713,0.096137,-0.026821,-0.395581,-0.855046,0.394029,0.241569,0.215248,0.473424,0.168853,-0.213007,0.261774,-0.080148,0.109797,0.075360,0.953177,-0.435412,-0.890158,0.590834,0.209309,0.465323,-0.541708,0.636421,-0.878526,0.261574,0.017563,1.051912,-0.722944,0.085337,0.171273,1.088611,0.316734,-0.379743,-0.526748,-0.486816,-0.720878,0.165888,0.003534,-0.004230,-0.369197,-0.362909,-0.375353,-0.842426,0.360183,0.690096,-0.353036,1.642410,-0.513244,0.281852,1.956262,0.096898,-0.247867,-1.056930,-0.642211,0.700617,0.087219,-0.307288,0.376781,-1.062270,-0.294544,0.213818,1.619980,0.317469,0.283711,0.308412,-0.996740,1.961005,-0.024361,0.433496,0.106811,0.211787,0.098823,0.244193,-0.299076,1.288797,-0.094520,-0.243871,-0.572625,1.491998,0.208363,-0.038007,-0.204173,1.667261}
    }
  },
  {
    {
      {-0.003049,-0.168253,-0.142352,-0.342856,0.082911,-0.129657,-0.075698,-0.410906,0.091271,-0.197443,0.242444,-0.294764,-0.067665,0.086134,-0.059879,0.078708,-0.074918,-0.054912,0.162366,-0.538431,-0.072223,-0.216887,0.256247,-0.452808,0.253788,-0.269371,-0.188832,0.125191,-0.102817,0.099817,0.543082,-0.329257,-0.200463,-0.105920,0.025923,-0.128662,0.033857,-0.012787,0.189234,0.214146,-0.053742,-0.570025,0.156275,-0.200288,-0.137846,0.085562,-0.167148,-0.146913,-0.177665,0.144307,-0.057060,0.013286,-0.118819,0.122051,0.133729,-0.109350,0.073646,0.019275,0.618577,0.504233,-0.199751,-0.046348,-0.266710,-0.358486,0.251267,0.726805,0.021451,0.121163,0.012838,0.242386,0.818596,0.224104,-0.116741,-0.411802,-0.357801,0.033472,0.308288,0.042402,0.022715,-0.579130,0.069396,0.391749,-1.597934,0.295097,-0.236274,-0.147041,-0.460148,-0.615889,-0.038694,0.092100,0.581399,-0.034460,-0.243226,-0.113100,0.010144,-0.155815,-0.064253,0.387885,-0.074419,0.043347,0.170475,-0.014311,-0.592937,-0.092585,-0.221841,-0.177298,0.078991,0.076703,0.085936,-0.276151,0.134790,0.101095,0.296835,0.121998,-0.135674,0.364335,-0.000916,-0.329645,-0.099505,0.356665,0.047620,-0.090161,-0.111276,-0.381809,-0.191052,0.465548,-0.229874,-0.096436,1.111981,-0.001403,0.134105,-0.057048,-0.022994,-0.229140,-0.205566,0.235211,-0.054518,-0.184636,-0.196108,0.087709,-0.358086,-0.223392,-0.093429,0.318873,0.183630,-0.128182,0.062260,0.054102,-0.154262,-0.094866,-0.271321,0.138806,-0.336775,-0.097722,0.150788,-0.069036,0.101894,0.005543,-0.124666,0.160832,0.457251,-0.065618,0.000512,0.076466,-0.600810,0.351865,-0.079621,0.319553,0.173876,-0.029055,-0.070726,-0.109900,0.082790,-0.446836,-0.289238,-0.018423,0.076445,0.338112,0.201004,2.219039,0.033714,-0.339491,-0.147820,0.020302,0.045159,-0.050920,-0.240155,0.070534,0.015448,-0.018178,0.187688,-0.181504,-0.604569,-0.111223,-0.286601,-0.129384,-0.250907,-0.348275,0.021074,-0.095793,-0.378659,0.382238,-0.400035,-0.178175,0.015015,-0.088996,0.500069,0.210890,-0.317177,0.506619,-0.085011,-0.134498,0.396918,-0.248168,-0.623272,-0.191366,-0.374016,-0.174866,-1.137010,-0.144572,0.013232,0.172214,0.100052,-0.155247,0.085585,-0.415314,0.006095,-0.606696,-0.016464,-0.350960,0.417569,-0.005490,0.018604,0.009402,-0.687345,0.149963,0.254838,-0.066922,0.246910,-0.158330,-0.256911,-0.456701,0.139229,0.080240,-0.041100,-0.091683,0.011811,-0.155711,-0.304141,-0.244922,0.177289,0.497739,-0.113318,-0.325652,-0.129898,0.062887,-0.034656,-0.547970,0.436761,-1.303534,-0.148243,-0.037133,-0.095354,-0.015864,0.241490,-0.097860,-0.220473,0.057215,0.215547,0.210203,-0.307787,-0.313128,0.075071,0.010824,-0.309452,-0.055120,0.119037,0.621889,-0.204540,0.033996,-0.185861,0.134271,-0.044964,-0.024618,-0.152398,-0.084113,0.037029,0.037951,0.141698,0.177025,-0.024195,-0.082379,-0.255080,0.413532,0.788363,-0.664022,-0.060181,0.311755,0.637192,-0.000259,-0.177664,0.101142,0.099808,0.020029,-0.354781,0.462398,0.105222,0.215457,0.664407,0.175682,-0.027696,0.663515,1.409748,0.379865,-0.039026,0.057985,-0.334547,-0.509387,-0.073460,-0.091648,0.249199,0.016770,-0.314317,0.140805,-0.311614,0.098677,-0.029541,-0.407126,-0.298291,0.068154,0.059657,-0.337217,0.201524,-0.240724,-0.481417,0.048166,-0.208974,-0.065673,-0.313398,0.011335,-0.232034,-0.071730,-0.120771,0.085356,-0.050220,0.090664,-0.111235,-0.071840,-0.432217,0.109942,-0.314656,-0.233440,0.137911,0.166216,0.589549,0.498519,-0.091027,-0.168570,-0.041059,-0.227625,-0.028416,-0.030172,-0.222868,-0.093412,0.265875,-0.078473,0.787737,0.408691,-0.093581,-0.014678,0.212142,0.209354,-0.046149,-0.133231,0.110382,0.396886,-0.196586,-0.110259,-0.379644,-0.260742,0.008803,0.103988,-0.483934,0.016008}
    },
    {
      {-0.051254,-0.216229,0.581576,0.029871,0.428382,-0.438791,0.581063,-0.339580,-0.533507,-1.151413,-0.307437,-0.416143,-0.538349,1.546665,-0.618085,-0.922005,-0.067296,0.249428,0.066389,0.029855,0.416208,0.184308,-0.557275,-0.252346,-0.775403,0.540261,-0.220986,-0.021345,-0.662155,-0.169699,-1.502593,-0.714107,0.304713,0.935544,0.369984,-0.118744,0.420463,-0.102811,0.711556,0.579813,0.111012,0.038673,2.956902,-0.350803,-0.210265,0.123634,-0.475680,-0.390108,-0.506677,0.652478,-0.729866,-0.718824,-0.425098,0.136762,0.022847,-0.395922,-0.600243,0.318800,-0.583546,-1.105356,0.534162,-0.428248,-0.483774,-0.707821,0.343052,-0.626921,-0.115742,2.152284,0.303524,-0.791089,0.146087,0.123268,-0.165779,-0.406288,-0.118273,1.823078,0.098411,0.431920,0.314825,1.639539,0.302765,0.191447,0.995969,0.638228,0.460216,0.077558,0.046548,-0.426466,0.515174,0.377374,0.293297,-0.015937,0.259639,-0.611924,-0.104393,-0.411663,0.142345,1.834906,0.239287,-0.037385,-0.039841,-0.820952,-0.385524,-0.235528,-0.028194,-0.373963,-0.460985,-0.274420,0.204479,-1.166341,-0.340634,0.194348,-1.308507,-0.263347,0.564362,2.041638,0.091407,-0.483886,0.989621,0.469600,-0.631215,-0.300069,-0.407825,0.469827,0.473264,-0.299136,-0.341940,-0.686517,0.356031,-0.382928,0.579621,0.425900,0.517340,0.080417,-0.528827,-0.125761,-0.373123,-0.396821,-0.025576,0.090289,-1.092312,-0.331926,0.202769,0.247789,-0.356836,-0.740352,-0.097828,0.553215,-0.378176,0.245239,-0.520505,1.049364,-0.341803,-0.088876,0.037267,0.161380,-0.367114,-0.697017,-0.429174,-0.637831,-0.639460,-0.170759,-0.474178,-0.788417,-0.257512,-0.400636,0.400144,0.116903,-0.097922,-0.494037,-0.569472,-0.070762,-0.190071,-0.797979,-0.354825,0.898957,-0.284221,1.745163,0.148987,-0.559574,0.064380,-0.400185,-0.286838,-0.533035,0.702538,0.353566,-0.130378,0.198460,0.952487,0.270629,0.194390,-0.012001,-0.172755,0.631299,-0.410642,0.184480,-0.537063,-0.294724,0.588594,-0.488384,-0.226374,1.493042,-0.545538,0.589480,0.384503,-1.375451,0.150213,-0.159764,0.266107,1.301208,0.013305,0.543196,-0.052501,0.003794,-0.058527,0.041288,-0.427517,-0.764922,1.150340,-0.154523,0.059243,0.383969,0.180120,0.230533,-1.287598,-0.107842,0.140882,-0.273847,0.167224,0.783526,-0.005411,-0.059473,-0.682000,0.444802,-0.719973,-0.747648,-0.516220,0.376908,-0.860472,0.206941,0.023052,0.657932,-0.312663,-0.251443,0.101117,0.239848,-0.255608,-0.603410,-0.136411,-0.354118,0.721193,0.012657,0.528105,-0.244239,-0.309428,0.136404,0.092232,-0.442709,-0.135529,-0.867579,0.091266,-0.343976,-0.830358,0.345996,0.520484,-0.401241,-0.402039,-0.448040,-0.799131,-0.328384,0.007768,-0.409256,0.020157,-0.396619,-0.460631,0.949446,0.437908,1.905081,-0.582806,0.505813,-0.131831,0.686862,-0.765210,0.428095,-0.251863,0.165842,0.449674,0.350354,0.297509,-0.251389,-0.797815,-0.052410,0.046598,0.033342,0.331461,0.237011,0.103043,1.890227,0.055835,0.266859,0.215435,0.369428,0.192942,0.126309,-0.351679,-0.145046,0.645710,0.317614,0.431344,0.112372,0.233447,1.672334,0.227702,-1.069435,0.372188,-0.030977,-0.539272,4.076376,-0.785868,0.267073,-0.300385,0.257746,-0.323709,-0.184420,-0.447763,0.031313,-0.560292,0.139661,-0.750583,0.008643,-0.657942,-0.442451,0.483164,-0.485749,-0.178560,-0.585061,0.474573,0.123554,0.109504,0.155707,-0.363199,-0.660459,1.826267,-0.403083,0.558540,0.563593,-0.433328,-0.343946,-0.363816,-0.130307,-0.105508,0.397478,-0.127794,-1.312484,0.985558,0.584502,-0.327114,-0.523976,0.161549,-0.609870,-0.147380,0.341217,-1.063236,1.811724,-0.091211,0.251144,-0.794686,1.225417,0.005628,0.214886,0.457568,0.592737,0.045778,0.309306,1.698556,0.616095,-0.219885,-0.211241,-0.128311,0.385031,-0.101409,0.118953,-0.076936,-0.639947}
    },
    {
      {-0.407984,-0.210956,-0.044205,-0.246085,0.125248,-0.289088,0.064894,-0.382266,-0.107643,-0.340196,0.351433,0.138409,-0.365262,1.770575,-0.252368,-0.132048,-0.217124,0.122680,-0.334266,0.845603,0.194160,0.008049,0.429033,-0.416817,-0.095685,0.152372,-0.056316,0.275109,-0.264994,-0.034854,0.265221,0.369040,0.025987,0.110052,-0.008180,-0.302912,0.010495,-0.208103,0.707411,0.061918,0.119509,0.140992,0.543728,-0.344285,-0.079211,-0.009391,0.096830,-0.131414,-0.548960,0.333668,0.033738,-0.201789,0.538100,0.142989,0.357601,-0.219798,-0.234583,0.256800,-0.153462,0.112585,0.153534,-0.193668,-0.363433,-0.400272,0.132808,-0.452257,-0.029994,0.459643,0.231740,-0.019552,-0.042241,0.099045,-0.165906,-0.538861,-0.292332,0.397053,0.556840,0.285687,0.057576,-0.193195,0.372096,-0.121308,0.381412,0.240116,0.039619,0.006396,-0.372118,-0.365864,0.229623,0.140987,0.205641,0.268012,-0.021844,-0.275168,-0.024083,-0.369238,-0.074471,0.563696,0.101542,0.006159,0.069068,-0.516024,-0.486988,-0.231954,-0.336233,-0.140614,-0.294043,0.135903,0.171546,-0.470045,0.060921,0.415719,0.824915,-0.275545,-0.150702,0.994199,-0.023547,-0.311633,0.216533,0.025306,0.087840,-0.132534,-0.116651,-0.276858,-0.113923,0.075605,-0.433222,-0.116765,-0.318943,-0.084290,0.369470,0.080410,0.096250,0.147006,-0.396339,-0.066126,-0.130051,-0.423203,-0.042525,-0.094968,-0.734659,-0.504650,0.025309,-0.131636,-0.524223,-0.264959,0.049406,0.462935,-0.338016,0.055923,-0.239466,0.407167,-0.257622,-0.056783,0.224505,0.053279,0.234618,-0.087046,-0.148926,-0.076100,-0.010366,-0.040449,-0.135123,-0.235324,0.213721,-0.815392,0.128538,-0.518192,0.129247,-0.294870,-0.128237,-0.005608,0.077970,-0.596093,-0.581631,0.184992,-0.125747,0.697721,0.120935,-0.049308,0.162719,1.035667,-0.101600,0.021485,-0.198127,-0.227877,-0.247340,0.008299,0.227046,0.050751,0.227214,0.070094,-0.899488,0.172347,-0.281617,-0.072639,-0.312178,-0.466540,0.383665,-0.151748,-0.281941,0.598917,-0.468562,0.191175,-0.116958,0.064735,-0.412172,0.356118,-0.042915,0.611364,-0.142295,-0.033783,0.051305,0.093921,-0.564322,-0.080077,-0.168824,-0.460117,0.035890,-0.002481,0.079500,0.111715,0.148766,0.094947,-0.390224,-0.235524,0.069269,0.015096,-0.158499,-0.449038,0.455522,0.127714,-0.141926,-0.003833,-0.603338,-0.175717,0.049825,0.059713,0.403512,0.495433,0.059836,0.001433,-0.060270,-0.088718,0.016141,0.188652,-0.180353,-0.001801,-0.201477,-0.071047,-0.443426,0.547605,0.165128,-0.298691,-0.365519,0.035060,0.093289,-0.581608,0.155819,2.466120,0.124391,-0.290202,-0.173311,0.001603,-0.534035,-0.206078,-0.118101,-0.079019,0.038938,-0.838934,-0.401916,-0.357834,0.171844,0.011464,-0.326173,0.314167,0.039593,0.464830,-0.449246,0.143884,-0.186870,-0.005818,-0.169824,0.180142,0.076009,-0.058072,0.312341,0.111952,0.395961,0.013870,-0.306352,-0.034659,0.040976,-0.436865,-0.313278,0.632084,0.004282,0.613337,0.486672,0.308035,-0.025603,0.228580,0.062728,0.259487,-0.360834,-0.283050,-0.014339,0.259659,0.767986,0.013088,0.124043,0.543883,-0.957894,0.445547,0.108515,-0.012880,-0.326040,0.119114,-0.049616,0.148986,-0.082861,0.119286,-0.394495,-0.110324,-0.185124,-0.352902,-0.099539,-0.216366,-0.290265,0.123561,-0.406705,0.095929,0.283676,-0.253400,-0.994329,-0.079648,-0.430008,0.076084,0.002767,0.040679,0.021858,-0.215937,0.289816,0.009129,0.029253,0.083670,-0.140510,0.189776,-0.109592,0.067210,0.328331,0.720432,-0.148395,0.521769,1.219326,-0.374056,-0.066289,-0.380645,0.118654,-0.380729,-0.004578,0.048220,0.395990,0.384509,0.336264,0.006999,-0.753799,1.402651,-0.052502,-0.019616,0.131384,-0.065636,0.102083,0.283094,0.352507,-0.135680,-0.170257,-0.173757,-0.243824,1.338942,0.216448,0.245472,-0.456731,0.076769}
    }
  }
};
