#pragma once

#include "C:\Users\Baron\Desktop\EE_297_Repo\EE_297\hardware_imp\vitis_hls\lane_seg_hls\lane_seg_top.h"

// Auto-generated with BN folded

data_t enc2_ir1_pw_w[1][1][96][24] = {
  {
    {
      {0.259049,0.026279,0.211605,-0.010277,0.000834,-0.000389,-0.077284,-0.483969,-0.129402,0.255372,0.093061,0.255539,0.055432,-0.025024,0.092211,-0.031887,-0.060636,0.093285,-0.336830,-0.003980,0.030299,0.070104,0.193755,-0.067727},
      {0.259007,0.233547,0.001695,0.267745,-0.097408,-0.146897,-0.180136,0.117879,-0.216944,0.002911,-0.042715,-0.269878,0.020193,0.266689,-0.025403,-0.015037,0.120078,-0.095967,0.159832,-0.092201,-0.012765,-0.109255,-0.102580,-0.171391},
      {-0.005742,0.216573,-0.212820,0.115057,-0.010696,0.233170,0.108329,-0.216800,0.180024,-0.301577,0.064507,0.023439,-0.106692,0.038089,0.139776,-0.085715,0.053806,-0.358131,0.086445,-0.144133,-0.373211,-0.133115,0.079818,0.206952},
      {-0.020321,-0.476698,-0.147652,0.365088,0.128256,0.018319,-0.213473,-0.249808,-0.618369,-0.172864,0.363072,0.044677,-0.239373,-0.295047,0.146995,0.106229,0.595728,-0.288036,-0.033069,-0.027059,0.293614,0.501571,-0.215948,0.135240},
      {0.504996,0.035440,0.354457,-0.328407,0.025252,0.139888,0.108109,0.073334,0.259802,-0.083566,0.026888,0.084104,-0.112652,0.145010,0.232081,0.037754,0.014479,-0.044155,0.172061,0.393948,-0.152779,-0.197399,0.012434,0.172064},
      {-0.032440,0.147795,-0.531187,0.087621,-0.000055,0.199460,-0.380337,0.280608,-0.289794,0.155762,-0.288717,-0.122132,0.211924,-0.020533,-0.252742,-0.208246,0.030689,0.079458,0.038562,0.078459,-0.032515,-0.078912,0.024615,0.256294},
      {0.255109,0.102420,-0.207369,-0.139202,-0.284044,0.229716,0.408149,0.148168,0.340643,-0.158644,-0.026842,-0.218905,-0.175037,-0.513335,-0.145362,0.042352,0.089785,0.160147,-0.090952,-0.338645,0.011488,0.195342,-0.129481,0.273521},
      {-0.354048,-0.169567,0.068799,-0.094149,-0.038041,-0.260543,-0.009042,0.270139,0.266027,-0.005843,0.088469,0.108609,-0.203424,0.701669,-0.166892,-0.041160,0.087442,0.671767,0.013273,0.450510,-0.036653,0.229826,0.038851,0.092188},
      {-0.274550,0.143566,0.004882,-0.217056,-0.078946,-0.463850,0.126824,0.475252,-0.150283,-0.489733,-0.126007,-0.248328,0.029507,-0.327350,0.031094,0.132486,-0.033946,-0.161385,0.135388,0.135349,0.043906,0.036185,-0.248666,-0.148078},
      {0.105005,-0.104600,0.166601,0.055851,0.015540,0.142444,0.120981,0.078594,-0.154795,0.131630,-0.099046,0.341712,-0.038642,0.026301,0.080666,-0.135515,-0.075613,0.395810,-0.036797,-0.188258,0.018534,0.054057,0.017134,0.065819},
      {0.137441,0.048143,-0.031567,0.222851,0.114925,0.024219,-0.129727,0.016648,0.087866,0.036665,0.338252,0.017791,0.009190,-0.189904,0.172376,0.166551,-0.120719,-0.169170,0.058736,0.108816,0.149421,0.046330,-0.140942,0.192957},
      {0.313687,-0.073536,-0.364694,-0.274386,0.230902,-0.310595,-0.173197,0.306214,-0.090863,0.391603,0.051368,-0.179834,0.158182,-0.216573,0.072934,-0.269918,-0.168882,0.317038,0.116783,-0.062746,0.112398,0.068398,-0.056867,-0.007989},
      {-0.090882,-0.163049,0.383046,-0.149303,0.105860,0.301505,-0.026988,0.324359,-0.287883,-0.066142,0.172605,0.061097,-0.038634,-0.219230,-0.110346,-0.097284,-0.123709,0.572042,-0.019098,-0.166493,0.001735,-0.126713,0.017807,0.054790},
      {-0.048493,-0.099722,-0.216755,0.026671,-0.177601,0.060919,0.054934,-0.291836,-0.034336,0.027248,0.191891,0.051344,0.121149,-0.060674,0.153687,-0.046343,-0.116755,0.067131,-0.098113,0.077017,-0.275506,-0.197254,-0.066200,-0.055461},
      {0.021863,-0.116933,-0.087016,0.185683,-0.138767,-0.159933,0.104060,0.264908,0.002377,-0.131794,-0.050143,-0.011771,-0.020668,-0.029879,-0.098977,0.137728,0.078956,0.217813,-0.092740,0.174896,-0.351585,-0.134290,-0.074119,0.036606},
      {0.443259,0.213454,-0.095717,0.110609,-0.381938,-0.089737,0.184475,-0.325910,0.046040,-0.014067,0.184852,-0.155282,-0.100157,0.098142,0.278437,0.034850,0.026926,0.175793,0.071944,-0.370503,-0.094692,-0.054799,-0.014216,0.009907},
      {-0.240651,-0.111363,0.046699,0.037930,-0.056146,-0.188719,0.173994,0.073071,0.325574,0.014409,0.174166,-0.019385,-0.029343,0.158814,-0.009931,-0.028903,-0.056197,-0.075720,-0.318454,0.091091,0.237516,-0.200448,-0.107454,0.181066},
      {-0.118180,0.124360,0.033746,0.088110,-0.101742,0.066579,0.150947,-0.011886,-0.141475,0.211428,0.275692,0.002169,-0.371357,-0.359510,0.034197,-0.153505,-0.187818,-0.176226,-0.055249,0.203709,-0.187594,0.238086,0.007302,0.040164},
      {-0.072763,-0.175297,0.121876,0.163140,0.096391,-0.074213,0.074949,-0.128027,-0.139737,0.226703,-0.009426,-0.054826,0.115016,0.102952,0.142822,0.104795,-0.022426,0.214436,0.453547,0.354836,0.010703,0.104037,0.192934,0.018565},
      {0.478720,0.065560,0.008130,-0.364629,-0.298912,0.292226,-0.034225,0.013986,-0.239694,0.327135,-0.369644,-0.080530,0.087910,-0.187476,0.182159,0.193371,-0.060793,-0.201398,0.488575,0.190718,0.046962,-0.162222,-0.075335,0.120958},
      {0.067684,-0.014859,0.174137,-0.088173,-0.230773,0.003665,0.061473,0.294660,0.168929,0.480342,0.248559,-0.112297,-0.384865,-0.046580,0.234712,-0.856669,-0.171706,-0.277876,-0.164347,0.339987,-0.224741,-0.167747,0.000529,0.114040},
      {0.067845,0.071762,0.071408,0.259237,0.262259,-0.110426,0.135335,-0.017633,-0.147157,0.109134,-0.110426,0.185959,0.198197,0.075770,0.087039,-0.116621,-0.086147,-0.233346,0.108191,0.060585,-0.085700,0.013642,-0.153445,-0.228293},
      {-0.026950,0.049758,0.385419,0.173891,0.031156,0.422398,-0.184322,0.022618,-0.118567,0.251584,0.156933,0.054048,-0.174160,-0.032819,0.119642,-0.057494,-0.049706,0.521401,0.202680,-0.470500,-0.139584,0.086832,-0.106875,0.042529},
      {0.029297,0.001574,0.364394,0.170328,0.110952,0.479488,-0.182531,-0.042097,-0.122766,0.198646,0.171478,0.074405,-0.145639,0.100106,0.124814,-0.141397,-0.058598,0.581070,0.178779,-0.513835,-0.147361,-0.015759,-0.126437,0.093485},
      {0.052794,-0.157207,-0.135651,0.136245,0.434130,0.359157,-0.059409,0.166756,0.219636,0.000978,-0.168865,0.106093,-0.070641,-0.108098,-0.259605,-0.072323,0.104282,-0.066695,0.239435,0.000945,-0.099780,0.125859,-0.012104,-0.035677},
      {0.107257,0.114245,-0.212576,-0.134401,-0.162891,-0.259371,-0.240346,0.174782,-0.043494,0.114586,-0.372216,0.594386,0.022120,0.247806,0.464473,-0.010369,-0.032085,0.097688,-0.313534,0.101469,0.222713,0.186564,0.208452,0.347650},
      {0.295374,0.070775,-0.332199,0.109657,0.197602,-0.277005,0.304867,0.117087,0.147111,-0.491655,0.010749,0.066865,-0.093252,-0.098191,0.045596,-0.098698,0.117777,-0.083008,0.368390,-0.104440,-0.258840,-0.070119,0.050807,0.146046},
      {-0.116676,-0.034559,0.045631,0.125616,-0.043788,0.139100,0.132551,0.036866,0.119855,0.038271,0.141107,0.037717,0.056261,0.225371,0.168730,0.054382,-0.004738,-0.352555,-0.043413,0.040994,0.185230,-0.077324,-0.099504,0.074016},
      {-0.150370,0.182705,0.174301,-0.133524,-0.073900,-0.027113,0.268062,0.060172,-0.206657,0.138430,-0.217890,0.005460,-0.042867,0.174922,-0.031507,-0.040811,0.499815,-0.082741,-0.139022,-0.018768,-0.247031,0.106160,-0.132657,0.077611},
      {-0.018897,-0.094267,0.293859,-0.104412,-0.126024,0.153437,0.053822,0.378673,-0.307360,-0.173016,0.118039,-0.058257,0.112902,-0.222565,-0.085048,-0.004755,-0.038615,0.326790,-0.113298,0.084718,0.243276,-0.098891,0.026428,-0.170860},
      {-0.230120,0.088731,0.139423,0.255854,-0.367974,-0.248409,0.165504,0.321052,0.085174,0.073180,-0.230753,-0.097632,0.030367,-0.149388,-0.243310,-0.036616,0.138695,0.034094,-0.019703,0.233018,0.535786,-0.043061,0.167749,-0.180526},
      {-0.052736,-0.164611,0.066533,0.157126,-0.051583,0.034605,0.128444,0.246636,-0.048191,0.142625,-0.062224,0.227899,0.015297,-0.110380,-0.248211,0.088676,0.046076,0.078083,-0.033626,0.172593,-0.202160,0.007921,-0.112461,-0.199677},
      {-0.028165,-0.167284,-0.240710,-0.228609,0.141366,-0.352989,0.127397,0.050187,0.020261,-0.053191,-0.086965,0.510894,0.030887,-0.242379,-0.030721,-0.028732,-0.189814,-0.136054,0.173554,-0.112983,-0.187194,0.104676,0.139656,0.196282},
      {0.447376,0.017051,0.213224,-0.189808,-0.067049,-0.180280,-0.119533,0.670035,-0.320251,-0.261375,0.018178,-0.192045,0.020031,0.014844,-0.217228,0.245961,0.019396,0.030839,-0.041689,0.078713,0.035471,0.230199,-0.045080,-0.118016},
      {0.242454,-0.275399,0.113377,0.294128,0.162111,0.534081,-0.287817,-0.602338,0.176009,0.630277,-0.064801,0.475147,-0.050295,0.385691,-0.345708,-0.213774,-0.018611,0.150166,-0.301458,-0.175836,-0.041383,-0.170120,0.239011,0.222622},
      {-0.012725,0.043637,-0.172054,-0.098131,0.188444,-0.443720,0.120840,-0.177311,-0.096402,0.022386,-0.355107,0.601069,0.049411,-0.148863,0.253221,-0.168412,-0.124763,0.044730,0.045898,0.038269,-0.110273,-0.082099,0.132319,0.055904},
      {0.002381,0.320005,-0.168892,0.089112,0.100167,0.211360,-0.032594,0.004661,0.081697,-0.128227,-0.063372,0.089227,0.064277,0.139689,-0.106231,0.264791,-0.528929,0.016446,0.096724,0.047552,0.352157,-0.043269,-0.060767,-0.146859},
      {0.154999,-0.374875,0.231507,0.155773,0.104457,-0.108622,-0.234932,0.029730,0.025770,-0.052419,-0.433456,-0.280439,0.018461,-0.200823,0.231349,-0.130480,0.043153,-0.009643,-0.110760,-0.203356,0.013040,-0.127193,0.316932,0.157873},
      {0.160192,0.039027,0.391388,0.111174,-0.019174,0.439149,-0.093316,0.179156,-0.242982,0.091678,0.196894,0.048813,-0.083725,-0.016435,0.085156,-0.112427,-0.044746,0.639169,0.120397,-0.400795,-0.108780,-0.058391,-0.024349,0.028719},
      {0.118199,-0.207439,-0.239472,-0.091627,-0.027561,0.243215,0.155717,-0.504367,0.027796,-0.090342,0.324634,0.044804,0.339903,-0.406816,0.145206,-0.104234,0.107781,-0.262824,-0.055621,-0.324131,0.439133,-0.225950,-0.091990,-0.216604},
      {0.428145,-0.095900,0.193575,-0.132392,-0.093234,0.067487,-0.025552,-0.218172,-0.128471,0.256204,0.109759,0.235148,0.057760,-0.097386,-0.042536,0.097143,0.014760,0.128228,-0.390909,0.275219,0.169203,0.024370,0.275858,-0.022806},
      {-0.012058,0.108039,-0.200666,0.362536,-0.096239,0.075424,-0.205992,-0.044150,0.050873,-0.051962,0.273451,0.035348,-0.185243,-0.086874,-0.008891,0.189929,-0.544330,0.110319,0.030671,0.290299,0.076266,-0.043559,-0.125408,-0.026274},
      {0.107615,0.002256,0.292837,0.343493,-0.087419,-0.031328,0.119945,0.121225,0.329083,0.013739,-0.122199,0.232698,-0.046176,-0.043140,-0.197100,0.000992,0.095618,-0.461182,0.193174,-0.082025,0.066964,0.073133,-0.034397,-0.127001},
      {0.124141,-0.113182,-0.208475,-0.026358,0.134059,-0.240812,0.418639,-0.200528,-0.062958,-0.118858,-0.509731,0.312555,0.063179,0.018012,0.091726,-0.143762,-0.177337,-0.043330,-0.009907,-0.099264,-0.086445,0.085490,-0.257766,-0.011776},
      {-0.112570,-0.006066,-0.231707,-0.190201,0.121023,-0.263059,0.072363,-0.042506,0.229544,0.011100,-0.163992,0.534224,-0.061558,-0.306607,0.148187,-0.057075,-0.027619,0.065341,0.054097,0.030971,-0.070377,0.009886,0.214615,0.210115},
      {-0.184898,-0.314688,0.258074,0.034545,0.386312,0.164188,0.021934,0.293504,0.132718,0.310148,-0.476318,0.128156,-0.049128,-0.033066,-0.211752,0.251809,-0.049096,-0.303081,0.035958,0.217481,0.184810,0.326060,-0.336434,-0.245220},
      {0.255042,-0.008715,-0.092945,-0.298482,-0.520493,0.173997,-0.376766,0.162780,0.163152,0.195335,0.061397,0.055207,0.083611,-0.335060,-0.000614,-0.014453,-0.037002,-0.409662,0.019929,-0.252901,0.103538,-0.191361,-0.139947,-0.294581},
      {-0.077362,-0.268282,0.101980,0.172972,-0.165155,0.102133,-0.009141,0.193139,-0.136544,0.100610,0.020052,0.081099,0.023931,-0.172050,-0.149381,0.109986,0.028393,0.361817,-0.163286,0.167305,-0.314266,-0.198914,-0.122946,-0.105306},
      {-0.072186,-0.142161,-0.180804,0.139350,-0.209023,0.050183,0.010166,-0.172408,-0.024483,-0.045301,0.195005,0.047586,-0.013276,0.021106,0.054325,0.130198,-0.029761,0.146224,-0.074969,0.133927,-0.372693,-0.297607,-0.124524,0.081178},
      {0.077746,0.037168,0.195385,0.006381,-0.365474,0.085134,0.074826,0.258928,-0.245455,-0.248122,0.278545,-0.112563,0.148935,-0.071048,0.143192,-0.040917,0.026497,0.398907,-0.161751,-0.070904,0.203798,-0.130955,0.083379,-0.098236},
      {-0.005657,-0.026274,0.020536,0.229969,0.230021,0.040337,0.001038,-0.047826,-0.143697,-0.002210,0.174120,0.033179,0.131332,-0.026987,0.204112,0.120999,0.158357,-0.170772,-0.017570,0.113183,0.252485,0.051150,-0.204909,0.183125},
      {0.143670,0.078727,-0.123759,0.020269,-0.051525,-0.263075,0.374906,0.469820,0.003845,-0.077236,-0.330345,0.240335,0.087856,-0.611597,-0.485894,0.001894,0.023979,-0.182522,0.003903,0.362128,0.097008,0.208550,0.306969,-0.120216},
      {0.238735,0.132174,-0.054413,-0.350978,-0.058785,0.071317,-0.475943,-0.091003,0.050704,-0.009651,-0.216368,0.062095,-0.184072,-0.601824,0.017817,0.090105,0.147967,-0.002505,-0.166602,-0.228071,0.058714,-0.408220,-0.192083,-0.277840},
      {0.184522,-0.081690,0.020260,0.400276,-0.075437,0.054709,-0.242638,-0.025265,-0.047557,0.260067,-0.176766,0.096722,0.125195,-0.311004,0.063180,0.128163,-0.127734,-0.126125,-0.069898,0.139933,-0.213752,-0.007742,-0.223154,-0.329712},
      {0.048410,-0.194386,-0.106387,0.182088,-0.153398,-0.012997,-0.464711,-0.111672,0.020716,-0.313890,-0.216361,-0.004460,-0.199789,0.054142,-0.149610,-0.399691,-0.362712,0.062866,0.103937,0.084209,0.114490,-0.053789,-0.004596,-0.144333},
      {0.276377,0.182148,0.177360,0.167004,-0.534835,0.330852,-0.077259,0.489207,-0.323161,-0.304334,0.225052,0.011415,0.093847,-0.055898,0.105077,-0.060350,0.136558,0.453194,-0.176059,-0.052118,0.246209,-0.173592,0.286092,-0.016447},
      {-0.135797,-0.182725,-0.051955,-0.149935,0.265318,0.258052,-0.219233,-0.675627,0.007291,0.133402,0.256843,-0.138880,0.009001,0.392150,0.375252,-0.099038,-0.109966,0.105344,0.053622,-0.272187,-0.166127,-0.178154,-0.352364,0.121861},
      {-0.120369,0.147682,-0.010238,0.024059,0.284631,-0.082732,0.016599,0.135092,0.203525,0.228638,0.204396,-0.017150,0.724996,0.194124,0.105836,0.659307,0.151162,0.151810,-0.239824,-0.185087,-0.109012,-0.071650,0.147014,-0.044505},
      {0.296048,-0.161562,-0.291295,-0.076011,-0.143626,-0.340538,0.429628,0.091560,-0.128204,-0.052284,-0.296243,0.386761,0.132142,0.027014,0.019577,-0.063762,-0.261402,-0.109267,-0.054388,-0.142789,-0.125511,0.319510,-0.087643,0.225779},
      {-0.297572,0.251052,0.148579,0.060969,-0.159391,-0.250794,0.165358,-0.077957,-0.183345,0.137978,0.136743,-0.005649,0.103746,-0.376311,-0.060746,0.060335,-0.136512,-0.090293,-0.308494,-0.033419,0.073610,0.090725,-0.027451,0.206696},
      {0.139119,0.504458,0.541456,0.017488,-0.212705,-0.211079,-0.375055,-0.155368,0.066897,-0.198602,-0.210941,0.098389,0.168869,-0.031832,-0.407957,-0.008072,0.186005,0.064168,-0.043856,0.119311,0.161066,-0.212899,-0.350433,0.542121},
      {0.040440,0.030580,0.022954,0.041595,-0.312999,0.248204,-0.093418,-0.338069,-0.054738,-0.188011,-0.182691,-0.023638,-0.094621,0.208600,-0.372405,0.120343,0.184850,0.007962,0.219008,-0.049469,0.045541,-0.633403,0.113436,0.613489},
      {-0.204467,-0.305131,0.368095,-0.175815,0.369301,0.360575,-0.025098,0.320656,-0.187276,0.089882,-0.019981,0.066602,-0.030885,-0.295880,-0.274244,-0.010400,-0.138030,0.343634,0.025111,-0.028681,0.060127,-0.040223,-0.151876,-0.018129},
      {0.203711,-0.052767,-0.171412,-0.020750,-0.117089,-0.180601,-0.186683,-0.118710,-0.012269,-0.014989,-0.219788,0.081324,0.122563,-0.159810,-0.017029,-0.071467,0.086859,0.081865,-0.090889,0.030184,0.255922,-0.204795,-0.290394,-0.452795},
      {0.223738,-0.048437,-0.001776,-0.303418,0.104880,-0.064462,0.196265,0.396145,-0.242278,-0.281962,0.004987,-0.057956,0.181448,-0.243679,-0.262556,0.002871,-0.092607,-0.266838,-0.278728,0.363751,0.094126,0.048793,0.063987,-0.108795},
      {0.263197,0.164423,0.084566,0.144622,-0.538033,0.238838,-0.029176,0.515187,-0.314090,-0.261282,0.199586,0.082461,0.091147,-0.046904,0.068802,-0.082096,0.117893,0.415422,-0.151450,-0.086037,0.158700,-0.131400,0.291596,-0.002369},
      {-0.272296,0.106835,-0.150668,0.147333,-0.267852,-0.114468,-0.096735,0.160786,0.035463,-0.172583,-0.028345,-0.157935,-0.119555,0.043752,0.062398,0.222891,-0.060673,0.153804,-0.111464,0.263952,-0.117367,-0.077748,-0.124898,0.143468},
      {-0.118756,0.314309,-0.020127,-0.540030,0.042753,0.287948,0.306184,-0.092824,-0.015057,0.081358,0.099999,0.015804,-0.196363,-0.020875,-0.073466,0.092962,-0.045631,0.005278,0.139161,-0.098705,0.214570,0.051605,-0.007613,-0.028326},
      {-0.084847,-0.052816,0.013555,-0.129522,0.395977,-0.069644,0.133585,-0.167788,0.287302,0.092021,0.215276,0.049542,-0.017728,-0.477107,-0.045147,-0.024298,-0.034072,0.057956,0.173299,-0.023234,-0.191674,0.081159,0.006504,0.059815},
      {0.015070,0.054607,-0.311285,-0.173618,-0.079327,-0.360368,0.046309,0.130032,0.007784,-0.087813,0.075484,0.412507,0.007176,-0.270909,0.059841,0.000336,-0.016734,-0.031203,0.036244,-0.018763,-0.073332,-0.013935,0.361968,0.214886},
      {-0.124530,0.134689,-0.071046,0.044813,0.028076,0.152428,0.109628,-0.015909,0.272202,0.110572,0.224173,-0.037595,0.094485,-0.247484,-0.051335,0.274486,-0.375846,0.162156,-0.078260,0.090050,-0.293249,-0.048672,0.065440,-0.019523},
      {-0.036701,0.304866,0.236995,-0.114396,0.114107,-0.166939,-0.603959,-0.232468,-0.284044,-0.206258,-0.172298,-0.030575,0.145343,-0.062821,-0.019004,-0.035978,0.083197,0.477390,0.341026,0.377758,-0.296764,0.479773,0.061866,0.119598},
      {0.285319,0.099872,-0.329909,0.185283,0.226041,-0.171998,0.359571,0.254117,0.198904,-0.458508,-0.159463,0.182444,-0.108852,-0.092790,-0.049911,-0.110339,0.106547,-0.187440,0.330672,-0.029193,-0.367063,-0.000528,0.130525,0.070001},
      {0.031572,-0.279551,0.180181,-0.144184,-0.010075,0.038915,-0.189681,-0.073813,0.052924,-0.209447,-0.324366,-0.237318,-0.126226,-0.057821,0.140097,-0.149552,-0.053145,-0.000891,-0.103893,-0.276929,0.115857,-0.074482,0.345074,0.101117},
      {-0.265454,0.022647,-0.235457,0.352618,0.002667,0.160600,0.016250,-0.253103,0.230555,-0.026192,-0.152146,-0.008618,-0.169330,0.085644,0.053959,-0.060894,0.132194,-0.038119,0.321071,-0.328284,-0.130311,-0.072158,0.004026,0.050644},
      {0.185749,-0.120580,0.134730,0.007008,-0.193527,-0.294956,0.062433,-0.051581,-0.200512,0.191823,-0.188353,-0.060828,0.109633,0.118965,0.017881,0.062463,0.073359,0.505865,0.498464,0.253253,0.178496,-0.062727,-0.013762,-0.118057},
      {0.647490,-0.118731,-0.048184,-0.053157,0.315524,-0.263462,0.098240,-0.064443,0.191481,0.079827,0.105470,0.035035,-0.034813,0.025717,-0.043310,-0.083992,0.086795,0.206407,0.202400,-0.047563,0.001047,-0.040425,-0.061234,0.127674},
      {-0.037802,0.288459,0.086770,-0.303922,0.166909,0.058526,0.255001,0.005930,0.247193,-0.012513,-0.202597,-0.016845,0.201374,0.044933,-0.093076,-0.025476,-0.166021,0.119339,0.063433,-0.272373,-0.006389,-0.009684,0.245317,-0.140448},
      {0.266905,0.120270,-0.361229,0.162676,0.135551,-0.089427,0.306857,0.182305,0.148554,-0.456846,-0.266871,0.157058,-0.166561,-0.122340,0.015615,0.008010,0.145046,-0.206760,0.486389,-0.067442,-0.377728,0.106005,0.153557,0.009752},
      {-0.112239,0.108934,-0.032915,-0.003136,0.171014,0.247317,0.197009,-0.343012,0.402055,-0.126271,-0.049328,-0.094466,-0.009321,-0.501562,0.324418,-0.144464,0.242580,0.307534,-0.101635,0.302995,0.248892,-0.054703,0.048287,-0.137099},
      {0.048656,-0.089651,-0.085035,-0.058248,-0.116478,-0.155531,-0.076950,-0.099226,-0.019347,0.583941,0.111829,0.122043,0.170323,0.070974,0.002247,-0.182218,-0.152995,0.144369,-0.347181,-0.013509,0.271636,0.059250,0.074682,0.018100},
      {-0.006277,-0.182554,0.205746,-0.316138,0.082403,0.048077,0.301033,0.079888,0.071540,0.155967,-0.061804,-0.166930,0.271214,-0.201231,0.173552,-0.034752,0.284276,-0.193716,-0.155832,-0.143192,-0.302099,0.044826,0.314473,0.120928},
      {0.083255,0.273789,0.086512,0.244630,-0.032569,-0.126406,0.247253,-0.235237,-0.123227,-0.013104,-0.402727,-0.127398,0.014230,0.235995,0.202337,-0.115530,0.063780,0.145142,-0.048343,0.129952,0.016570,-0.154413,-0.210962,-0.161846},
      {-0.333928,-0.147437,0.304742,0.275038,0.385140,0.280346,0.011133,0.314243,0.142826,0.148511,-0.399469,0.155958,-0.005367,-0.125441,-0.512640,0.201603,0.031075,-0.329149,-0.005632,0.298352,0.206708,0.129983,-0.182647,-0.105310},
      {-0.080995,0.196688,0.247157,-0.253757,0.188204,-0.245601,-0.247934,-0.000973,0.128133,-0.411323,0.205724,0.081512,0.055277,-0.176631,-0.128600,-0.380970,-0.185091,0.001463,-0.553376,-0.183963,-0.272324,0.188293,-0.206111,-0.226900},
      {0.031401,-0.113974,0.043291,-0.188987,-0.497297,0.197901,-0.207428,-0.320586,0.061944,-0.300991,0.261264,-0.120275,0.728101,-0.312641,-0.055062,-0.461754,-0.022206,-0.209187,0.283794,0.030219,0.128027,0.391516,0.014441,-0.369516},
      {-0.167033,-0.165563,-0.191241,0.029619,-0.182420,0.111804,0.001959,-0.203822,-0.006823,-0.029465,0.236084,0.049689,0.025125,0.013802,0.063586,0.085586,0.052370,0.281638,-0.089545,0.053188,-0.333854,-0.152963,-0.022491,0.046894},
      {-0.295423,0.108735,-0.050995,-0.365052,-0.305059,-0.383651,0.050286,0.026415,-0.148405,-0.420850,0.352115,-0.452709,0.005334,0.035250,0.708283,0.063637,-0.058624,0.057485,0.236367,-0.164629,0.068174,-0.107526,-0.270020,-0.096751},
      {0.054757,0.072186,-0.075125,-0.116199,-0.024956,0.070987,0.051037,-0.058380,-0.231037,-0.071244,0.132420,0.087134,-0.307675,-0.058928,-0.106357,-0.350973,0.065751,-0.139466,0.144334,0.054419,0.199318,0.208358,-0.098216,-0.063559},
      {-0.080897,-0.070088,-0.115327,0.301604,0.321039,0.347793,-0.051286,0.174829,0.212089,-0.047654,-0.278421,0.215875,-0.010117,-0.003471,-0.286190,-0.094632,0.120349,-0.290774,0.199962,0.074871,-0.069901,0.129303,0.084586,-0.144179},
      {-0.127948,-0.243325,0.461690,-0.090542,0.226959,0.412679,0.012836,0.413962,-0.259291,0.022020,-0.016378,0.121215,0.027410,-0.251995,-0.243319,-0.018508,-0.088388,0.410948,-0.027224,-0.031096,0.108948,-0.103187,-0.061309,-0.012399},
      {0.285886,0.453698,-0.354081,-0.065415,-0.134409,-0.164328,-0.140442,-0.170948,-0.181648,-0.169567,0.225924,-0.183767,0.089804,0.053752,0.269655,-0.236182,0.039728,-0.001063,-0.069241,0.084311,-0.138980,-0.157847,0.180099,0.064211},
      {-0.174076,-0.191715,0.321762,0.125328,0.406481,0.233613,0.422984,-0.341981,0.162451,-0.118822,0.410363,-0.659228,-0.161642,-0.418188,-0.696022,-0.036805,-0.036961,-0.152972,0.484036,-0.223848,-0.596142,-0.248947,-0.276383,-0.379947},
      {-0.144767,-0.028320,0.091281,0.106967,-0.094756,-0.063203,-0.033537,0.286666,0.517438,0.335473,0.489598,0.044468,0.098453,0.167753,0.222185,-0.171788,0.228765,-0.139453,0.032587,0.298953,0.073638,0.016142,-0.319130,0.269936},
      {0.027593,0.080708,0.117070,0.374452,0.102371,-0.036347,-0.242657,-0.002968,0.166069,-0.200403,0.014473,-0.098869,0.028835,-0.157944,0.107084,0.063518,-0.394319,-0.061259,0.050895,0.036641,0.247898,-0.048729,0.059163,0.333880},
      {-0.124745,0.247719,-0.400434,0.239652,-0.103229,0.136216,0.139259,0.141717,0.103702,-0.234111,-0.190581,0.015483,-0.081360,0.018517,0.134654,0.004199,0.109786,-0.309893,0.247902,-0.013980,-0.273284,0.016199,0.200844,0.072995}
    }
  }
};
