#pragma once

#include "C:\Users\Baron\Desktop\EE_297_Repo\EE_297\hardware_imp\vitis_hls\lane_seg_hls\lane_seg_top.h"

// Auto-generated with BN folded

data_t enc2_ir1_exp_w[1][1][16][96] = {
  {
    {
      {0.130369,0.039258,-0.025724,-0.010776,0.029230,-0.034949,0.026620,-0.003595,-0.248715,0.004646,0.078595,-0.069306,0.047272,0.033077,-0.086912,0.022135,0.172182,0.011768,-0.187955,-0.044648,-0.001299,0.055474,0.026923,0.077755,-0.027080,-0.054689,0.013529,-0.316547,0.109886,0.005198,-0.119807,0.046627,-0.016745,0.098242,0.018860,-0.000696,0.192670,0.264414,-0.061308,0.045190,0.035291,-0.202988,0.034939,-0.029551,-0.040953,0.019565,0.069484,-0.083161,0.035967,0.015372,-0.412862,-0.257720,0.058342,-0.175630,-0.094793,-0.015335,-0.068640,-0.056225,-0.019468,0.078310,-0.160703,0.096206,-0.010810,-0.062515,-0.091740,-0.016320,0.052894,-0.282656,0.114756,-0.072931,0.017402,-0.070193,0.004377,0.242955,-0.041163,-0.102546,0.092046,-0.017816,-0.032233,-0.012662,-0.168516,0.108096,0.052727,0.073989,0.037354,0.052428,0.043132,0.112233,-0.134909,-0.015552,-0.002086,-0.307694,0.023580,0.212706,0.170252,-0.079850},
      {0.025179,0.058073,-0.015561,0.125572,-0.023507,0.005102,0.078092,0.126444,-0.044962,0.145203,-0.125304,-0.024893,0.030298,-0.061072,-0.034604,0.105771,0.054582,-0.021613,-0.001737,0.019768,0.071100,-0.023414,0.017327,0.027809,0.003603,-0.432873,0.043324,0.045722,0.029310,0.023602,-0.127255,-0.016693,0.063111,0.035035,0.217218,0.176209,0.115113,-0.062050,0.027405,-0.052778,-0.050912,0.211064,-0.023070,0.072159,0.135732,-0.003939,-0.087196,-0.024130,-0.001509,-0.008824,-0.109583,0.032105,-0.086006,-0.007523,0.032854,-0.073487,-0.102588,-0.101396,0.073642,-0.005372,0.041965,0.074548,-0.014108,0.005237,0.084244,-0.105186,0.019025,-0.001853,-0.085073,-0.078333,-0.017115,0.040547,-0.010705,-0.121806,0.018768,-0.063976,0.012593,-0.207223,-0.005911,-0.046593,0.037623,-0.119000,-0.221954,-0.119913,-0.063972,-0.042034,-0.033812,-0.129407,-0.107197,0.012631,-0.080462,-0.049763,0.195734,0.050115,0.093470,-0.015243},
      {0.102715,0.105208,-0.056531,0.057138,0.046947,0.013510,0.070469,0.050999,0.255951,-0.012456,-0.041382,-0.078140,-0.035571,-0.018626,0.041705,0.167226,0.156271,0.118634,-0.106925,-0.088744,0.084065,0.030300,0.003788,0.024112,0.072162,0.185015,0.089272,-0.086784,-0.037022,0.064008,-0.337535,-0.005982,-0.057436,0.223392,0.180912,-0.023520,0.061792,-0.097873,0.029282,-0.017179,0.067886,0.044082,0.021362,-0.029442,-0.076895,-0.322821,-0.035649,0.040772,-0.046792,-0.067840,-0.213256,0.201222,-0.054042,0.109189,-0.038451,0.031476,0.041803,0.083298,-0.014295,0.138700,-0.252470,0.071217,-0.030100,0.006433,0.233388,0.032640,-0.003334,-0.053372,0.103937,-0.025168,0.006933,0.053933,0.002428,-0.036169,-0.035760,-0.038097,-0.002626,0.088300,-0.002654,-0.012583,-0.266550,-0.046828,0.008002,0.046846,0.249974,-0.003593,-0.015988,-0.439991,-0.170196,0.000646,-0.067157,-0.203836,-0.143476,0.225458,-0.067721,-0.063594},
      {-0.100478,0.109980,0.025101,-0.331716,-0.159370,-0.067944,0.057049,-0.010241,0.001583,0.090176,-0.448750,0.199443,-0.003096,-0.036816,0.093531,0.124297,0.154613,-0.141764,0.093423,0.104465,0.122158,-0.183453,0.038738,0.026172,0.069279,-0.052952,0.025217,0.209069,-0.046564,0.075920,-0.068949,-0.051373,-0.004219,0.050767,-0.116235,0.060261,-0.044062,-0.091939,0.015379,-0.070597,0.176696,-0.136808,-0.017711,0.007307,0.029542,-0.216622,0.025872,0.092873,0.098880,0.009373,-0.421511,-0.009608,-0.005577,0.114651,0.027003,0.005140,-0.161639,-0.063913,0.047457,-0.117944,0.169432,-0.154056,-0.089579,0.069172,0.071010,0.028098,-0.089474,0.269820,-0.025928,-0.025981,0.014339,-0.004107,-0.005988,-0.083552,-0.006764,0.008724,0.069550,-0.380654,-0.021548,0.032491,-0.108755,0.179102,-0.103669,0.039159,-0.268919,0.011920,0.071583,0.131721,0.141187,0.068786,-0.128269,-0.027640,-0.132242,0.701636,-0.139194,0.002600},
      {-0.098055,-0.169905,-0.001174,0.004534,-0.057433,0.001043,-0.068588,0.003024,-0.038707,-0.093618,0.043224,-0.021393,0.037425,-0.083499,0.071671,-0.304874,0.140600,-0.065996,-0.134336,0.065949,-0.020980,0.074475,-0.023863,0.031374,0.012353,0.204929,-0.051717,-0.150578,-0.009733,0.011867,0.030868,-0.063241,-0.021187,0.104097,0.011534,-0.113961,0.256371,-0.283945,-0.073880,0.121289,-0.068449,0.083182,-0.004928,-0.022635,-0.129064,0.237620,0.116997,0.079974,0.027216,0.001279,-0.148391,-0.256260,0.161587,0.190464,-0.166397,0.011671,0.105231,-0.001144,-0.086276,-0.111580,0.019461,0.003901,-0.010305,0.060775,-0.190025,-0.008356,-0.063692,0.239263,0.110022,0.020414,0.065613,-0.144495,-0.011259,-0.157058,0.060490,0.036174,-0.076797,-0.150342,-0.017897,0.008910,0.199891,0.173678,0.194173,-0.189867,-0.140446,0.226222,0.043234,-0.066654,0.368558,0.009327,0.010462,0.066952,0.114643,0.071401,-0.002272,0.025915},
      {0.004887,-0.256236,0.029398,-0.079053,0.079043,0.087890,-0.187086,0.083111,-0.023173,-0.019387,-0.024685,-0.109230,0.052780,0.052417,0.053590,-0.097837,0.081218,0.053299,-0.039234,-0.112468,0.016102,-0.053502,-0.034522,-0.004033,-0.164425,-0.105050,0.000925,0.055925,-0.121050,0.049451,0.330490,-0.005898,0.089471,-0.213913,0.131619,-0.043936,-0.212998,-0.063080,-0.066269,0.181198,-0.086713,-0.020697,0.114381,0.074099,0.013214,0.273820,-0.210616,0.035508,-0.075638,-0.006447,-0.309784,-0.226336,-0.283207,0.101864,-0.098846,-0.029742,0.217887,0.014475,-0.112951,-0.025685,-0.315034,0.176490,-0.048171,-0.076555,-0.271751,-0.025512,-0.016410,-0.136519,-0.089961,0.126234,0.122994,0.320093,0.002535,-0.025300,-0.003942,-0.040745,-0.045147,0.100073,-0.058709,-0.094083,-0.004930,-0.059699,0.052710,-0.101468,0.350918,-0.382580,-0.039458,-0.034372,0.034770,-0.089396,-0.037426,0.060140,0.133781,0.146346,-0.153852,0.005234},
      {0.251093,-0.085393,-0.101378,-0.129635,0.031509,0.119322,-0.110069,-0.065969,-0.098241,0.037668,-0.064342,-0.200578,-0.000401,0.023461,-0.005887,-0.003939,0.088211,0.037707,-0.302195,-0.103375,0.062012,-0.191954,-0.005270,-0.008881,0.002773,-0.044164,0.078593,0.244866,0.006996,0.000483,0.076613,0.015135,0.068186,-0.077958,0.174793,0.018829,0.057135,0.003697,0.015286,-0.308536,-0.145103,-0.028829,-0.006243,0.059455,0.042638,0.200854,0.270323,-0.001744,0.001352,0.013037,-0.089385,0.213842,0.473748,-0.049657,-0.072736,-0.030407,0.109380,0.153527,-0.015187,0.195765,-0.145072,0.220970,-0.048596,0.078196,0.133564,-0.030307,-0.001769,0.192829,-0.166371,0.088870,-0.097512,-0.446412,-0.050977,0.047667,-0.063195,-0.030381,-0.004318,-0.064659,-0.045276,0.276879,-0.141750,0.051391,-0.008372,0.033869,0.338980,0.512577,0.047847,-0.060113,-0.005839,0.021422,-0.063454,0.094938,0.199543,0.332201,0.035145,-0.061625},
      {0.031444,-0.129279,0.043788,-0.231551,-0.092322,-0.084067,-0.001518,0.101571,-0.034910,-0.051462,0.162579,0.170717,0.043582,0.058532,-0.107025,-0.182158,-0.017647,-0.033096,0.242708,0.151739,0.051560,-0.102048,-0.020675,0.028457,-0.036072,0.210518,0.090720,0.040566,0.038619,-0.005459,0.008675,0.070041,-0.024838,0.008234,0.381220,-0.082352,-0.161478,0.181031,-0.030981,0.160095,-0.044842,0.079016,-0.014656,0.000517,-0.049972,0.166604,0.003243,-0.110472,-0.146316,-0.028697,-0.164621,0.059648,-0.081792,-0.195102,-0.456694,0.031178,-0.009787,0.142835,-0.025075,-0.121089,0.288644,-0.221093,-0.008446,-0.055620,0.077285,0.018410,0.120562,-0.151746,0.035137,0.076886,0.092525,0.129348,-0.025567,0.079863,0.062777,0.065488,-0.009955,-0.135921,-0.016992,-0.045249,-0.003043,-0.103230,0.060061,-0.213021,-0.312667,-0.106247,-0.076449,-0.285906,0.193600,0.013530,-0.002126,0.194553,-0.133695,0.252841,0.097227,0.010986},
      {0.004946,-0.197749,-0.023826,0.156356,-0.030145,-0.036351,-0.110420,-0.019288,0.018111,-0.067203,-0.304424,0.040226,0.043289,0.008481,-0.062980,-0.123980,0.103368,0.030241,-0.054891,-0.007307,-0.004785,0.020799,-0.011181,-0.045686,0.057053,0.233832,0.043338,0.175425,0.022357,0.027155,0.000880,0.019808,0.019739,-0.062698,-0.158350,-0.139059,-0.105287,0.169093,0.033016,-0.000395,0.212945,0.052022,-0.030223,0.010274,-0.103970,0.124851,0.080235,-0.072198,0.022142,0.000609,-0.040321,-0.063379,0.064837,-0.141473,0.371624,0.011726,0.052322,-0.168046,-0.089889,0.014629,0.019958,-0.070319,-0.020105,-0.037114,-0.058992,0.031182,0.046650,-0.059036,-0.024331,0.141533,0.006121,-0.067936,0.037001,0.034980,-0.014791,0.011514,0.015804,-0.122374,0.046448,0.022139,-0.180990,-0.154756,0.172868,-0.058842,-0.090896,0.098100,-0.059202,0.019911,-0.387797,0.015372,-0.048097,0.171486,0.031002,0.165232,0.016509,-0.014197},
      {-0.270415,-0.184830,0.015931,0.085664,0.008132,-0.042683,-0.076920,0.132020,0.313091,-0.013439,0.142916,0.153159,-0.011432,-0.074217,-0.007625,0.106644,-0.027183,-0.020266,0.099072,-0.006110,0.086366,-0.075555,-0.042393,-0.003958,0.014794,-0.025035,-0.087604,0.154732,0.152134,0.103956,0.201064,-0.003896,0.058685,-0.183342,-0.325135,-0.038260,0.393088,-0.038879,-0.031717,0.134084,0.419466,-0.052849,0.023334,0.044239,0.019601,-0.179776,-0.039549,0.000439,0.096905,-0.040959,-0.102677,-0.074893,-0.092059,0.013753,-0.122483,-0.020009,0.003121,0.135522,-0.043548,-0.064317,-0.017373,-0.144914,-0.043138,0.018752,-0.087107,-0.038608,-0.012139,0.045917,-0.094475,0.088360,-0.241364,0.123881,0.033428,0.078341,-0.009721,0.005386,-0.066635,-0.031220,-0.011281,-0.040974,-0.085164,0.153500,-0.020295,-0.109349,0.102603,-0.121397,0.073447,-0.021316,-0.059778,-0.001142,-0.081912,0.225220,0.118753,0.034740,0.210215,0.071832},
      {-0.018735,-0.074682,-0.011136,-0.108150,0.075740,-0.082985,-0.042165,-0.008281,0.149681,-0.003226,0.305882,0.073100,-0.014196,-0.010032,0.018792,0.106063,-0.068105,-0.309657,-0.070328,-0.018806,-0.339733,0.019068,-0.008200,-0.028168,0.065327,-0.122399,0.033725,-0.105385,-0.002632,0.008391,-0.042825,-0.018106,0.035604,-0.028036,0.103245,0.037605,-0.168333,0.019607,0.008400,-0.082015,0.084394,-0.080732,-0.079862,0.013025,0.025900,-0.087944,0.063549,0.019339,0.074803,-0.043657,0.281366,0.136340,0.131126,-0.014730,0.059890,-0.030629,0.026649,-0.377677,0.007094,0.085242,-0.009754,-0.024578,0.022654,0.037515,0.114579,-0.030160,-0.022894,0.055219,-0.046376,0.016968,0.188171,-0.126109,0.036863,-0.003978,-0.044624,-0.081984,0.065040,-0.226607,0.057686,0.096543,-0.156436,0.191116,-0.038070,-0.084094,0.072004,0.163348,0.040113,-0.248321,0.747029,0.054947,0.026174,0.066303,0.155532,-0.183789,-0.052035,-0.028102},
      {-0.006572,0.047936,-0.033991,0.201472,0.090628,-0.001979,0.174090,0.126941,-0.002289,0.051695,-0.025713,-0.056721,0.034476,-0.040741,0.060974,-0.246192,-0.108615,-0.020730,0.063243,-0.031113,0.004723,-0.069591,0.031734,0.077217,-0.048149,0.339127,0.045910,0.047075,0.022401,-0.045074,-0.022973,-0.037131,-0.095960,0.138259,0.316080,0.004622,0.157823,-0.109758,-0.018508,-0.083575,-0.159142,-0.087704,-0.023924,-0.021041,-0.009411,0.224228,-0.101525,0.063549,0.133091,-0.009550,0.038128,-0.021519,-0.080795,0.080498,0.247758,0.077114,-0.139782,-0.087103,0.070051,0.059215,0.002895,0.243336,0.011578,0.049570,0.129466,0.079458,-0.056559,0.085692,0.092358,-0.011343,-0.194760,0.069059,-0.006569,-0.046272,-0.082464,-0.195205,-0.035245,0.124539,-0.015504,0.036860,0.130299,0.077949,-0.067081,-0.259848,0.132260,-0.056922,0.074252,-0.081833,-0.263732,-0.008326,0.018516,0.298957,-0.408119,-0.157082,0.019821,-0.029981},
      {0.397374,-0.150312,0.011793,0.051723,0.009744,-0.072920,-0.142970,0.008618,-0.371646,-0.019363,0.068119,-0.075351,0.003939,-0.032684,0.068889,-0.018514,-0.119012,0.009994,0.107054,0.021925,-0.000883,0.069127,0.042076,0.001743,-0.100168,-0.125186,0.142938,-0.122833,-0.018508,-0.057616,-0.316359,-0.035736,0.048676,0.055509,0.008388,-0.028845,0.101407,-0.149794,0.075884,0.207644,0.292784,-0.007031,0.022298,0.013308,0.005931,0.235494,-0.079111,0.071008,0.023876,0.061097,0.094205,0.192031,-0.144557,0.128049,0.002574,-0.038503,-0.302732,0.036926,-0.057363,0.140998,0.068059,-0.075401,0.042330,0.041649,0.374819,-0.045208,-0.043738,0.112193,-0.055939,0.022011,-0.002833,0.158623,0.025813,-0.106215,-0.031843,0.000927,0.218586,0.182916,0.128519,-0.084810,-0.551869,0.089721,0.067667,0.097219,-0.153387,-0.163763,0.016941,0.256130,0.110138,-0.041024,0.086956,0.015189,0.207221,-0.171167,-0.038629,-0.092296},
      {-0.116052,0.079684,-0.039944,0.104041,0.038952,-0.116854,0.138326,0.028843,-0.048586,0.062892,0.255640,0.169204,-0.000879,0.087499,0.000741,0.094711,-0.027663,0.181578,-0.073330,0.045198,-0.043749,0.013739,0.041188,0.109222,0.089188,0.051115,-0.055621,-0.054921,-0.134103,0.034462,0.031986,0.028001,-0.030716,0.009951,-0.273370,0.066404,-0.216122,-0.017545,-0.076041,-0.129844,0.419188,0.111105,-0.083629,0.013655,0.031368,-0.142957,0.163308,-0.014636,-0.156396,0.029474,0.013874,-0.302857,0.241888,-0.062938,-0.257376,0.019293,-0.208074,0.140736,0.053196,-0.009720,0.026762,-0.003255,-0.002507,0.049018,-0.045721,0.015904,0.062900,0.098165,0.114677,-0.034692,0.123105,-0.292092,0.041220,-0.101720,-0.073787,-0.194744,0.109880,0.346776,0.045979,0.136465,-0.229029,-0.221171,-0.071172,-0.017128,-0.049303,0.283726,-0.083655,0.324264,-0.091904,0.076668,-0.037703,0.018614,-0.101132,-0.175063,-0.105404,-0.015412},
      {-0.168321,0.004502,-0.054298,-0.175403,0.022655,0.139803,-0.001948,-0.076501,0.158045,-0.005209,0.053237,-0.225176,0.035262,0.036525,-0.040521,-0.350269,0.076212,-0.053294,-0.051979,-0.121364,-0.031258,0.002175,0.082553,0.038919,-0.065696,-0.090301,-0.075691,0.001995,-0.019713,0.052789,-0.367829,0.026566,-0.007552,0.170455,-0.318402,-0.005077,-0.121638,0.054140,0.026712,-0.000759,0.070038,0.032594,0.101729,-0.016516,0.002305,0.173516,0.014654,-0.040841,-0.045664,-0.007896,0.013750,0.158840,-0.055149,-0.008445,-0.143085,-0.011469,-0.426909,0.001206,-0.011851,0.141826,-0.215785,0.258665,-0.045812,-0.058894,0.312039,-0.022800,0.026048,-0.174097,-0.052568,-0.041071,0.121181,0.105227,-0.009323,0.080820,-0.024233,-0.086406,-0.246178,-0.203749,-0.081850,-0.029983,0.156219,-0.020634,-0.028818,-0.289887,0.346187,-0.021592,-0.029395,0.103127,0.197482,-0.104407,-0.014580,0.441133,0.064106,0.144677,-0.010166,-0.028535},
      {-0.190255,-0.079185,0.036320,0.120327,-0.022330,-0.063506,-0.084345,-0.078466,0.147474,0.045643,-0.008334,0.079214,0.056625,0.057938,0.043238,-0.235845,0.078157,0.164511,-0.032966,0.092743,0.018188,0.072920,-0.034819,-0.067798,0.065438,-0.261194,-0.004319,-0.091505,-0.052976,0.010715,-0.066602,0.005029,0.058498,0.056458,0.141881,0.089605,-0.033437,0.072653,0.042662,-0.033680,-0.184186,-0.159176,-0.040476,0.008885,0.060668,0.160020,0.104710,0.028339,0.009671,-0.051004,-0.039660,0.149517,0.101914,-0.016750,0.118472,-0.067823,-0.036096,0.079438,-0.008097,-0.117886,0.135715,-0.073312,-0.016681,0.012217,0.095777,-0.071965,-0.015971,0.023150,-0.092249,-0.009661,-0.067670,-0.119830,0.006768,0.022524,0.005186,0.049440,-0.077209,0.384438,-0.020482,0.054557,0.275050,-0.038390,0.022236,-0.327897,-0.224432,0.153026,0.003385,-0.298962,-0.415202,0.031146,0.017249,0.280678,0.293443,-0.181112,-0.088280,0.010709}
    }
  }
};
