#pragma once

#include "C:\Users\Baron\Desktop\EE_297_Repo\EE_297\hardware_imp\vitis_hls\lane_seg_hls\lane_seg_top.h"

// Auto-generated with BN folded

data_t enc3_ir2_exp_w[1][1][24][144] = {
  {
    {
      {-0.017406,-0.020782,0.003634,0.160444,-0.013517,0.072813,0.030591,-0.110854,0.045590,-0.032973,-0.065283,-0.040765,0.018253,0.055343,-0.002782,0.011021,-0.023498,0.123196,-0.013677,0.047946,-0.066190,-0.066175,-0.005092,-0.120522,0.001048,0.028416,-0.134460,-0.034990,-0.019234,-0.002656,0.010652,-0.030027,0.147084,0.038794,0.010912,-0.037859,-0.047880,-0.021484,0.180329,-0.058907,-0.126620,-0.007376,0.033398,0.018237,0.049193,-0.004393,-0.008072,-0.123616,-0.017882,-0.068792,0.087174,-0.007670,0.089330,0.062773,-0.035277,0.049876,0.037939,-0.002566,-0.105893,-0.037203,-0.131314,-0.085865,0.211710,-0.030886,-0.138921,0.194501,0.030641,-0.015642,-0.047468,0.016406,-0.027581,0.079906,-0.005098,-0.027115,-0.010261,0.007027,-0.003753,0.099622,0.079136,-0.017275,0.096353,0.037421,0.060974,0.060363,-0.016007,-0.003697,0.194454,0.001815,0.041462,0.007948,-0.063208,-0.042829,-0.064576,-0.002884,0.085665,0.023609,-0.054917,-0.030327,0.305014,0.047617,-0.063949,-0.072101,-0.126215,-0.028902,0.065682,-0.090690,-0.069362,-0.056852,0.024790,0.137846,-0.001807,-0.082747,-0.027274,-0.025796,0.025034,0.032923,-0.059046,0.079070,-0.022451,0.020485,0.003907,-0.147861,0.044431,0.007706,-0.086569,0.085189,-0.061230,-0.066875,-0.015201,0.040747,0.009410,-0.071680,0.257570,-0.170567,0.239618,0.014293,-0.052832,0.023144,0.012143,-0.027790,0.050989,0.035412,-0.076208,0.064581},
      {0.004252,0.092085,-0.060246,-0.093046,0.098924,-0.073398,-0.062956,0.048873,0.011288,-0.012103,-0.031628,-0.092018,0.005359,0.071711,0.002186,-0.002567,0.168501,-0.081958,0.039844,-0.113085,0.049602,0.008486,-0.121575,-0.013392,-0.075381,0.018888,0.057756,-0.094123,-0.088938,-0.006477,0.024172,-0.091344,-0.031275,-0.039161,-0.284022,0.014713,-0.072687,0.067069,-0.050705,0.195023,-0.042210,0.016085,0.020436,-0.206100,-0.061067,-0.019091,-0.007755,0.204549,-0.008512,-0.129377,-0.032748,0.005091,-0.017005,0.046091,-0.048848,0.065215,-0.040281,-0.051535,0.043432,-0.025683,-0.006093,-0.014927,-0.060991,0.021202,0.040711,-0.070133,-0.092080,0.030528,-0.042352,0.017481,-0.025944,-0.016630,-0.064354,0.053297,0.057623,-0.012268,-0.027028,-0.031823,-0.017840,-0.060589,-0.050959,0.029178,-0.089496,0.017011,0.016789,0.044806,-0.038456,0.034586,0.040700,-0.037442,-0.009214,-0.027602,0.060066,-0.036064,-0.037517,-0.102934,0.004612,-0.017474,-0.175949,-0.225688,-0.079110,0.033771,0.004291,0.000539,-0.046123,0.052112,0.011585,-0.058329,0.010721,-0.006953,-0.001098,0.354443,-0.057866,0.057300,0.025286,0.032066,-0.015236,-0.146523,-0.043603,-0.034849,-0.043465,0.075337,-0.001184,-0.084779,-0.046759,-0.131165,0.100407,-0.108870,0.029968,0.127941,-0.035478,-0.021045,-0.070053,0.068730,-0.089072,0.004086,0.028632,-0.015609,0.015354,-0.136191,0.032192,0.037435,-0.020933,-0.017069},
      {-0.246451,-0.033567,0.096454,0.000186,0.046606,-0.115962,-0.013321,-0.139225,0.062023,-0.013863,0.016839,-0.010036,-0.023379,-0.024980,-0.028529,0.064781,-0.044049,-0.066422,0.049626,0.006615,0.014969,-0.002224,0.153969,0.094770,0.029806,0.006567,0.061896,-0.007013,0.020553,-0.042467,-0.005591,-0.073638,0.109565,-0.054967,-0.050113,0.062897,-0.171641,0.175624,0.090973,0.093469,0.033692,0.007075,-0.022615,0.145997,-0.044847,-0.061597,-0.008877,-0.116720,-0.019451,-0.029977,-0.148091,-0.022583,-0.048316,0.077104,-0.011514,-0.031769,-0.093220,0.092285,-0.063258,0.021804,0.034921,0.089002,0.134330,-0.012133,-0.014145,-0.059289,0.073080,-0.044559,0.000696,-0.062109,0.051896,0.066723,-0.018955,-0.001183,-0.040796,-0.086514,-0.112310,-0.011836,-0.043641,0.065759,-0.018209,-0.077331,0.101170,-0.026407,-0.005382,0.029853,0.142147,0.017246,-0.019140,-0.111907,0.012241,0.046801,0.048996,-0.032392,-0.147310,-0.040159,0.019802,0.062712,-0.066352,0.127889,0.073711,-0.021227,0.144366,0.046044,0.116728,0.164496,0.041517,-0.009149,-0.079681,-0.093289,-0.003029,-0.092257,-0.102670,-0.060348,0.040153,0.085183,-0.038963,-0.011057,0.016900,0.102357,0.017471,-0.118308,0.099541,-0.026552,-0.019012,-0.068342,-0.068779,0.014480,0.013673,-0.081313,0.040311,-0.021839,0.192769,-0.103025,-0.014030,-0.075482,0.042698,0.074008,-0.020667,0.093049,0.029877,0.037558,0.000145,0.008881},
      {-0.111863,-0.030970,0.022721,-0.067306,0.018074,-0.027509,0.029824,-0.018624,0.043412,-0.037306,0.002858,-0.033806,0.009138,-0.038969,-0.024926,0.132216,-0.029790,-0.009232,-0.002367,-0.010774,-0.014302,-0.053985,0.161279,0.009062,-0.076582,-0.029840,0.078418,-0.021963,0.079845,-0.008930,0.005127,0.013749,0.013131,-0.038694,0.031995,0.014346,0.035167,0.178278,-0.072987,0.008330,-0.038091,-0.021313,-0.022447,0.161070,0.004628,0.101710,0.005110,-0.126294,-0.030321,0.093468,0.050145,-0.074854,0.106977,0.014473,0.083773,0.023063,0.105322,0.020595,0.049011,0.030958,-0.030106,0.052435,-0.039271,0.021567,0.017922,-0.058847,0.037741,-0.030148,-0.042038,0.031906,-0.118917,0.022488,-0.029810,0.015958,0.094849,0.056687,-0.084823,0.020399,-0.037702,-0.020938,-0.014707,-0.038117,0.069815,0.060150,-0.017290,-0.036151,-0.063257,0.007605,0.092239,-0.059619,-0.040696,0.062232,0.065033,0.003054,-0.016827,0.013496,-0.026906,0.021023,-0.201135,0.267228,-0.096730,-0.032711,-0.006987,0.040513,-0.016947,0.081107,0.036326,-0.040402,-0.074958,-0.074984,-0.011212,-0.101370,-0.039753,0.114211,0.025342,0.024333,0.094600,0.100385,-0.020874,0.004145,-0.004447,0.052503,-0.093942,0.023641,-0.176482,0.011663,-0.067678,-0.078465,-0.096236,0.012874,0.040902,-0.041802,-0.085920,0.045891,-0.030801,0.111923,-0.103604,0.008357,0.006697,0.098321,0.060833,0.138835,0.032311,-0.063971},
      {0.038279,-0.014628,0.002997,-0.034729,0.020617,-0.189074,-0.036924,0.024330,0.015277,0.010640,-0.006171,-0.026226,0.044517,0.000988,-0.005197,0.080233,0.063279,-0.068466,0.059224,-0.117752,-0.009094,0.002680,0.171438,0.077637,-0.007418,0.065140,0.013509,0.007074,0.092949,0.001198,-0.009709,0.017875,-0.125724,-0.125230,-0.052707,-0.022978,0.026430,0.065481,0.060617,0.165793,0.026420,0.044340,0.026979,0.007774,0.019156,-0.046866,-0.006669,-0.035620,-0.033933,-0.146627,0.037071,-0.022056,0.190543,0.073739,-0.036286,0.009678,0.184826,0.031245,-0.011203,0.027867,-0.035690,-0.022657,0.041485,-0.065333,-0.012638,-0.020343,0.014980,-0.019871,-0.007538,-0.014178,-0.024866,-0.133242,-0.044173,0.098591,0.093294,0.113557,-0.048753,-0.053208,-0.068321,-0.013717,-0.067954,-0.008018,0.022873,0.114879,0.001936,0.106988,-0.026553,-0.002858,0.093099,0.017871,-0.025936,0.048728,-0.004531,0.078974,0.023968,-0.017718,0.002671,-0.027240,0.256132,0.207164,-0.049932,0.037010,-0.093077,0.025991,0.025065,-0.149883,0.001722,-0.016577,-0.096242,-0.141225,0.006504,0.157979,0.035169,0.100970,0.023772,-0.001066,0.033791,-0.018844,0.031392,-0.084651,-0.030588,-0.127933,0.012185,-0.042880,-0.019151,-0.151550,-0.012431,-0.049335,-0.005468,-0.173262,0.008363,0.014831,-0.024787,-0.061321,0.173029,-0.028257,0.016140,0.062470,0.013862,-0.008437,-0.014001,0.100669,-0.001901,-0.103297},
      {-0.237640,0.055446,-0.036847,-0.043082,-0.002821,0.073214,0.122427,-0.016769,-0.039194,-0.012673,0.019859,0.063087,0.006412,-0.061051,-0.054194,-0.044508,-0.000944,0.034813,-0.009770,-0.111660,0.007736,0.002133,-0.120637,-0.174473,0.065641,0.057302,-0.060762,0.033232,-0.040620,0.018194,0.007258,-0.000309,-0.140796,-0.006007,-0.096158,-0.147250,-0.058363,-0.097123,0.058277,-0.154651,-0.103057,-0.065969,-0.017093,-0.107162,-0.061996,-0.004463,0.020796,0.059731,0.062840,-0.079536,0.040387,-0.042544,-0.096258,-0.059439,-0.034081,0.017486,0.023876,-0.001353,0.080769,-0.041194,-0.138231,-0.115612,-0.010020,0.021709,-0.010297,0.020918,0.064619,-0.014300,-0.023666,0.034292,0.008863,-0.142639,0.052816,-0.003621,0.001175,0.000817,0.004402,-0.040523,0.056152,-0.015254,0.057734,0.070883,-0.081106,-0.024457,-0.025503,-0.037246,0.020929,0.005692,0.014559,0.058501,0.029255,-0.027102,-0.029613,-0.022292,0.035065,-0.035412,0.011107,-0.068255,0.133677,-0.006065,-0.020229,0.050474,-0.037986,-0.035456,0.001070,-0.026548,-0.061411,0.003860,-0.040764,0.103879,-0.012082,0.117508,0.006833,-0.077322,0.030321,0.020138,0.077988,-0.059621,-0.017004,-0.026245,-0.018549,0.138919,-0.019757,-0.011675,0.005691,0.073711,0.036986,-0.018083,-0.012221,-0.106019,-0.006420,0.007122,-0.056524,-0.052562,0.017161,-0.026673,-0.006312,0.067496,-0.020016,-0.072756,-0.042017,-0.078855,-0.015434,0.025673},
      {-0.085701,0.038989,-0.006970,0.085903,0.020809,0.188447,-0.048885,-0.031021,-0.046911,0.006372,-0.075640,-0.055024,0.080369,0.057888,0.041959,0.220235,0.088968,0.087712,0.020352,-0.108708,-0.009217,0.044140,0.120983,-0.166824,-0.071561,0.035531,-0.043548,-0.060888,-0.042492,-0.017266,0.023352,0.037590,0.081380,0.015556,0.036640,-0.041134,-0.099442,-0.026930,-0.106488,-0.215470,-0.013269,-0.030256,0.044100,-0.033526,-0.017431,-0.069257,-0.049986,0.162219,-0.021116,-0.057104,0.109951,0.032573,-0.115369,0.011218,-0.028286,-0.067232,0.172078,-0.039331,-0.000138,-0.002051,-0.169457,-0.015338,0.078194,-0.035986,-0.023475,-0.006251,0.043576,-0.012972,-0.008655,-0.050616,0.006366,-0.059367,-0.024333,0.016002,-0.055344,0.129348,0.013432,0.039115,-0.019927,-0.021476,0.117257,0.049576,0.070054,-0.058043,0.030897,0.083128,0.007480,0.027752,0.074030,0.061355,-0.020081,0.003250,0.033631,0.077087,0.049947,0.000014,-0.031988,-0.040677,-0.116334,0.064522,0.039971,0.035531,-0.031021,-0.005970,-0.004477,0.005553,-0.045089,-0.052019,-0.011830,0.144902,-0.007561,0.387568,-0.016250,-0.034470,0.023689,0.014639,0.079156,-0.140040,0.089288,0.010813,-0.003607,0.038046,-0.029822,-0.037899,0.105530,0.170115,0.070572,0.057846,-0.003579,-0.026938,0.029037,0.044172,0.041364,-0.054645,-0.043150,-0.015514,0.017296,-0.005022,0.024246,-0.081497,0.028611,0.002055,0.009687,-0.004628},
      {-0.351422,-0.015256,-0.085991,-0.024020,0.032310,-0.037934,0.039268,0.053751,-0.035963,0.024250,0.040370,-0.019368,0.014048,-0.052818,0.028309,0.146247,-0.014969,0.055066,0.021120,0.100757,0.041647,0.020065,0.094138,0.062349,-0.008648,0.005427,-0.092853,0.058951,0.002691,-0.076245,-0.062442,-0.034955,-0.140156,-0.204129,-0.052257,0.004287,0.056935,-0.024897,0.185464,-0.077156,0.205923,0.057438,-0.026012,0.041076,0.008102,-0.010218,0.002483,-0.026249,-0.170309,0.064868,0.080728,0.053209,0.038838,0.097176,0.024813,-0.134804,0.006367,0.110445,-0.129550,-0.046485,0.121431,-0.113327,0.026883,-0.039945,-0.024106,0.000553,0.084941,-0.095561,0.065858,-0.020778,0.023976,0.122154,-0.021602,0.053106,0.019120,0.122288,-0.039421,-0.055880,0.014054,0.018706,0.042602,0.006286,0.088160,-0.013229,0.010675,0.034747,-0.191945,-0.064710,-0.036933,0.002713,0.011207,-0.008978,0.074485,0.042544,-0.028429,-0.050388,0.049142,0.011870,0.133020,0.030100,0.051900,0.108142,-0.182352,0.101080,0.086957,-0.103457,-0.021116,0.005830,-0.163183,0.055028,-0.007803,-0.046561,-0.032928,-0.001831,0.084328,-0.046501,-0.002654,-0.011912,0.046558,0.050690,0.000233,0.004915,0.018177,0.023945,0.045272,0.037414,-0.042811,0.024610,-0.007922,0.004310,0.027009,0.085617,-0.085764,0.073212,0.074758,0.013295,0.059229,-0.021979,-0.013035,-0.005320,-0.025038,0.129491,0.013098,0.107787},
      {0.236079,-0.031239,0.065862,0.055348,-0.025506,0.180318,-0.013346,0.220294,-0.025570,-0.034578,0.005434,0.038230,-0.045342,-0.025311,-0.061414,-0.002614,-0.058435,0.044507,-0.012785,-0.082524,0.013240,-0.008356,-0.085287,-0.080596,0.067093,-0.045334,-0.031810,0.042613,0.089740,-0.007588,-0.012156,-0.102733,0.075158,-0.008862,-0.344477,0.029179,0.005512,-0.247458,-0.048918,-0.000072,-0.058288,0.036583,-0.010585,-0.028598,0.029778,0.011861,0.018979,-0.110067,-0.012713,-0.001234,0.106813,-0.048328,0.036369,0.006934,-0.025843,-0.034602,-0.137238,0.025343,0.127212,-0.002342,-0.049813,0.042473,0.057333,-0.022894,-0.041629,0.011106,0.013581,-0.017719,0.112211,0.023334,-0.010654,-0.102703,0.029234,0.106892,0.061590,0.094665,0.168282,-0.020005,0.016054,-0.018620,-0.013807,0.009568,-0.060864,-0.026235,-0.015694,0.161689,0.016303,-0.024410,-0.046415,-0.005312,0.054769,0.009599,0.055516,-0.031067,-0.038061,0.036133,0.015115,-0.022471,-0.034327,-0.071389,-0.107614,-0.006530,-0.035417,-0.007721,0.031680,-0.087265,0.005917,0.005167,-0.005837,0.140563,0.006783,-0.180828,0.062862,-0.028124,-0.070276,-0.033891,0.079775,0.114388,-0.017485,-0.028355,-0.003103,-0.076616,0.116109,-0.076444,-0.019823,0.011823,-0.022445,-0.100143,-0.012126,0.050028,-0.103741,-0.011335,0.085198,-0.078333,-0.095312,-0.030912,0.099330,0.102946,-0.007006,0.035056,-0.075961,0.170182,0.061532,-0.069359},
      {0.113404,-0.006140,-0.079663,0.086588,-0.078834,-0.009287,-0.048636,0.013964,0.074372,-0.023914,-0.049020,-0.008260,0.046785,0.029134,0.036848,0.041386,-0.046753,-0.046079,-0.039418,-0.019083,-0.101004,0.034156,0.060007,0.035869,0.103169,0.002948,-0.042857,-0.003984,-0.025144,-0.026336,-0.016405,0.106246,0.063440,0.077137,-0.013860,0.044940,0.126674,0.003128,0.035339,-0.000956,0.023254,-0.027795,0.005021,0.028793,0.000052,-0.078037,-0.017139,-0.004123,-0.024084,0.096903,-0.025551,-0.016134,-0.070029,0.088468,0.000908,0.086363,0.037495,0.064823,-0.004729,-0.091334,0.024895,-0.077002,-0.055099,-0.098913,-0.029459,0.186702,0.077168,-0.006361,-0.045700,-0.057137,0.049654,0.087335,0.061053,-0.003962,-0.046754,0.121769,-0.050116,0.185558,0.017762,0.049700,0.083888,0.079390,0.071087,-0.074256,0.038416,-0.059457,0.064165,-0.023732,-0.013074,0.084523,0.016971,-0.050238,0.018628,0.136080,0.130498,0.029774,-0.113821,-0.011094,-0.173937,-0.043769,0.073002,-0.160149,-0.022726,-0.069319,0.049525,0.053019,-0.075407,-0.037928,-0.008371,-0.018670,0.006540,-0.019124,-0.019849,0.009342,-0.024645,-0.052955,0.055516,-0.083549,0.096918,0.157317,0.015021,0.161367,-0.079053,-0.034645,0.063296,-0.006685,-0.024929,0.065143,0.016931,-0.057827,0.021431,-0.019375,0.002764,0.089297,-0.036986,-0.014016,0.026449,0.034818,0.011366,-0.055368,-0.013473,0.028156,0.052644,0.015558},
      {-0.168148,0.058375,0.078631,0.051155,0.002616,-0.101019,0.078964,-0.046436,0.083885,-0.055617,0.000717,-0.006367,-0.056824,-0.075608,-0.092342,0.126158,0.046932,0.001079,0.023186,0.119831,-0.040731,-0.029779,-0.204004,0.224177,0.157254,0.043797,0.142378,-0.020141,0.143907,0.047794,0.045527,-0.031342,0.105441,0.099385,0.062295,0.090467,0.052361,-0.046816,0.023177,0.092380,0.087464,0.039808,-0.025521,-0.176931,0.015737,0.002818,0.042222,0.155358,0.133719,0.072624,-0.005145,-0.021322,0.134909,-0.052861,0.057003,0.129293,0.040281,-0.051409,-0.034048,-0.005188,0.239213,0.169729,0.073189,-0.042800,-0.017568,0.072443,-0.039052,0.078271,-0.021569,0.039510,-0.086485,0.174505,-0.013602,-0.018097,0.089468,0.076196,0.163450,-0.042019,0.150909,-0.064998,0.002380,-0.064846,0.006450,-0.009466,-0.011034,-0.047646,0.032086,-0.047402,-0.082200,0.047905,0.068712,0.029321,0.006684,0.092019,0.138145,0.019465,-0.030209,0.081061,0.151308,-0.170988,-0.104637,-0.077481,0.020132,-0.108893,-0.019526,-0.095272,0.042575,0.011009,0.094976,-0.022140,-0.011407,0.113225,0.106773,-0.004125,0.024548,0.013311,0.103384,-0.069258,0.037103,0.011932,0.014093,-0.077232,0.008686,0.001085,0.038673,-0.028802,0.092982,-0.011759,-0.009964,0.091849,0.030130,-0.043402,0.149457,-0.025956,0.065303,0.077511,-0.143182,-0.031060,-0.011674,-0.079544,-0.110591,0.079210,0.072209,-0.000125},
      {-0.227680,0.056961,0.157197,-0.039658,-0.079623,-0.138996,0.178089,-0.123907,0.042089,0.165222,0.076883,0.173368,0.010685,-0.084597,0.196273,-0.107652,0.059594,-0.050656,-0.012900,-0.016438,-0.092444,-0.087332,-0.188007,0.131989,0.063832,-0.047372,-0.066378,0.148272,0.032944,0.007808,-0.091680,-0.018865,-0.044113,0.131738,-0.013802,0.042442,-0.029769,0.004966,-0.119074,-0.126944,-0.096288,-0.110787,-0.049279,-0.161545,-0.020369,0.026095,0.059053,0.209652,-0.078120,0.058670,-0.201432,0.181072,0.073669,-0.005238,0.052186,-0.086118,-0.038168,-0.005355,-0.029541,-0.108652,-0.023305,-0.019967,0.086135,-0.064438,-0.034538,-0.011687,-0.020066,-0.064813,-0.006558,0.025582,-0.035351,-0.125976,0.109534,-0.015534,0.117451,-0.054272,-0.010369,-0.040813,0.060017,-0.074963,0.037027,-0.090423,-0.064741,0.038903,-0.053075,0.023360,0.115939,-0.027473,0.085776,0.011872,0.020731,-0.014939,-0.053159,-0.036745,-0.153020,0.083987,-0.038317,-0.033014,-0.022412,-0.217039,-0.024478,-0.012057,0.019391,-0.013104,-0.088907,-0.008843,0.009252,0.050165,-0.102709,-0.313277,-0.021838,0.156012,0.074168,-0.032104,0.022603,0.052204,-0.048037,-0.059168,0.003456,-0.077209,-0.015946,-0.073812,0.031742,0.023793,0.082516,-0.102241,0.094209,-0.008214,-0.014413,-0.327686,-0.023836,0.014422,0.108430,-0.067333,-0.038929,0.041014,-0.050409,0.059203,-0.052470,-0.099842,-0.054681,0.095698,0.005165,-0.039845},
      {-0.104129,-0.081498,-0.039953,-0.082189,-0.042984,-0.038162,0.078411,0.182877,0.036019,-0.007031,0.035190,0.080494,-0.090011,-0.081874,-0.045708,-0.031564,-0.120946,0.017632,0.024074,0.086819,-0.058226,-0.119390,-0.117946,0.016471,0.010020,-0.075809,0.059794,0.046784,0.089711,0.014254,-0.033392,0.017529,-0.092587,0.217877,-0.398080,-0.051541,0.125898,0.115460,-0.006314,-0.147258,-0.048959,-0.106690,-0.053789,0.011979,0.027065,-0.134110,0.029205,-0.067719,-0.017441,-0.086245,-0.178891,-0.006253,0.139650,-0.027408,-0.048418,0.022476,-0.084624,0.011887,0.043302,0.057383,-0.032400,-0.004831,-0.005358,-0.059132,0.018290,0.025160,0.019822,-0.033267,0.137891,-0.141683,0.023727,0.065872,0.110862,0.100355,-0.012521,-0.172727,-0.056852,0.011230,-0.196647,0.012452,-0.082669,-0.071328,0.065268,0.028745,-0.078396,0.075699,-0.004306,0.013550,-0.034177,-0.077608,0.030936,0.085496,-0.081869,-0.012447,-0.065896,0.034151,-0.031506,0.020479,0.020011,-0.081103,-0.097987,-0.115131,-0.001759,-0.005983,0.004388,-0.056167,0.051069,-0.026576,0.005332,-0.113656,-0.017424,-0.225051,0.037111,0.118059,-0.029066,-0.015703,0.040668,-0.042346,0.047422,0.036292,0.036494,0.073943,-0.056288,-0.278162,0.030691,0.078135,-0.001622,-0.074345,0.012758,-0.056960,-0.208694,0.006339,-0.018285,0.046819,0.083377,-0.146261,0.183886,-0.076340,-0.039324,0.068132,-0.005995,0.000953,0.000438,-0.016505},
      {0.105052,0.043496,0.092189,-0.025809,-0.041599,-0.057204,-0.061101,0.112058,0.018515,0.005623,0.008534,-0.003218,0.048199,-0.027500,0.024763,0.130026,0.086991,0.049827,-0.070545,0.159877,-0.035077,0.044969,-0.011938,-0.014165,-0.101637,0.038576,0.114573,0.001929,0.066607,0.039354,0.008529,-0.017636,0.040849,-0.131663,-0.076574,0.043254,0.026840,0.270242,0.059109,-0.046072,0.039936,0.056302,0.035087,-0.111765,0.009126,0.009562,-0.049044,0.126542,0.101558,-0.085274,0.027448,-0.058853,-0.025119,-0.029246,-0.054159,0.085700,-0.074721,-0.009979,-0.205982,-0.006130,0.044854,0.126639,0.046032,0.114257,0.005355,0.005383,-0.040336,0.056418,0.057476,0.009005,0.002075,0.171984,-0.032860,0.042065,-0.081234,0.191362,-0.128411,0.054032,-0.085685,-0.032968,-0.104893,-0.055677,0.070449,0.016601,0.038020,0.194303,0.038328,0.010740,0.043698,-0.000608,-0.105618,0.093538,-0.077477,-0.029068,0.012698,0.032636,0.020312,0.020858,0.173386,-0.098622,0.025801,-0.013253,-0.039465,-0.022375,-0.020220,0.104984,0.060398,0.024270,0.082098,-0.046306,0.014792,0.228965,0.085092,-0.007010,-0.000408,-0.018725,-0.047835,-0.050178,0.025679,0.058706,0.056657,-0.019962,0.049612,0.022953,0.106587,0.069203,0.102226,0.030456,0.034279,0.032540,-0.022868,-0.047200,-0.000383,0.021615,0.147539,-0.048081,0.057942,0.130768,0.019082,-0.023526,0.085928,0.007502,-0.085832,0.047231},
      {-0.158187,-0.061659,-0.095153,0.026823,-0.031992,-0.035010,0.059712,0.022696,0.076537,0.084303,0.073378,0.044961,0.048100,-0.110436,0.141948,-0.000818,-0.085428,-0.110444,-0.010670,-0.107365,-0.036912,0.010644,0.152614,-0.083590,0.004454,0.007918,-0.004961,0.042120,-0.040992,0.063475,0.006962,0.001136,-0.071405,0.031128,0.008761,-0.083871,-0.077602,0.006985,-0.132838,0.010986,0.180474,-0.042411,-0.026319,0.136895,-0.030378,-0.015904,0.043795,-0.149692,0.082804,0.058684,-0.034053,0.056855,-0.037951,-0.069319,0.059561,0.035101,0.049787,-0.124159,0.089337,-0.029290,-0.168324,0.006100,0.037290,0.044386,-0.043809,0.059553,-0.223348,0.083923,0.008367,-0.024296,0.003287,-0.179423,0.072800,0.030938,0.006325,0.036177,0.028332,0.002893,0.026049,0.082685,-0.035311,0.037178,-0.094128,-0.007726,0.003171,-0.007465,-0.091095,-0.002311,0.057902,0.039483,0.007620,-0.002018,-0.094051,0.154957,0.099259,0.025973,-0.009479,-0.056551,-0.123279,0.157965,0.028282,0.123989,-0.023703,-0.064501,-0.176458,0.005672,-0.020422,0.084323,0.031388,-0.089156,-0.010205,-0.250574,0.141131,0.026527,0.038319,0.024125,0.022366,0.025634,0.063330,-0.001269,0.015998,0.051759,0.024529,0.007429,-0.038431,-0.110631,-0.116689,-0.004160,-0.064413,-0.066228,0.045313,0.056267,0.116037,-0.023989,0.063394,0.048326,0.010184,0.001028,-0.026984,0.055845,-0.026404,-0.022308,-0.002027,-0.033442},
      {0.138362,0.011152,-0.018887,0.098187,0.051542,0.082339,0.074613,-0.031375,0.016590,-0.012990,0.024348,-0.029891,0.045666,0.061665,0.048824,-0.035642,0.064952,0.033572,-0.005206,-0.002961,0.017524,0.051180,0.039637,-0.013611,0.046742,0.009482,-0.050359,-0.024541,-0.176532,-0.040679,0.024681,0.039225,0.111833,-0.000967,-0.452923,-0.009202,-0.139494,-0.057700,0.111818,0.035496,0.049834,0.076855,-0.030973,-0.037390,-0.049709,0.020804,0.006746,0.085855,-0.013288,0.106389,0.105014,-0.013089,-0.088376,0.067381,0.070008,-0.059741,0.161391,0.058227,-0.045612,-0.031637,0.060756,-0.014843,0.037848,0.084849,-0.038369,0.024466,0.038281,-0.012490,0.196343,0.002474,-0.071787,0.051674,-0.096955,0.213147,-0.010498,-0.017513,0.003404,0.050773,0.136408,-0.030680,0.093304,0.057647,0.080747,0.031290,0.017990,0.291148,0.061388,-0.020508,0.005807,0.119033,-0.003312,-0.055631,0.050433,-0.017610,0.067129,-0.013323,0.025733,0.024141,0.015444,-0.057355,-0.130132,0.013811,0.031586,0.090666,0.052385,0.101995,-0.065662,-0.006602,0.003763,0.133862,0.008469,0.119020,-0.082578,-0.151157,-0.022164,0.058395,-0.041765,-0.007273,-0.020267,0.093632,-0.003100,0.028311,-0.070489,-0.160435,-0.070778,0.002248,-0.001968,-0.104894,-0.017414,0.103723,-0.150520,0.014970,0.131431,-0.050859,-0.008367,0.009115,0.116197,-0.032422,-0.005244,-0.064467,0.007997,-0.088160,0.028128,0.067635},
      {0.043951,-0.066254,-0.023573,0.025685,-0.031049,0.029418,0.045556,-0.163585,0.032893,-0.037866,0.035796,-0.017656,0.016506,0.005218,-0.094686,-0.118074,-0.067988,-0.047313,-0.008217,-0.102901,0.032907,-0.053545,0.127120,0.004646,-0.010832,-0.031357,-0.018688,-0.013880,-0.009214,-0.011597,0.006830,0.016286,-0.040944,0.018497,0.195582,0.037489,0.041250,-0.038321,-0.021326,0.222289,-0.040942,0.042851,-0.028922,0.054701,0.024957,-0.172341,0.042110,0.003413,0.008406,0.052159,0.076871,-0.055580,0.106972,0.032836,-0.016970,0.019672,0.081138,0.039084,0.117238,0.075055,-0.008490,-0.009408,-0.088544,0.039882,-0.019128,0.028256,0.000668,-0.009124,-0.030400,-0.216689,0.160283,-0.083651,-0.060882,-0.104490,0.068755,-0.055424,0.017855,0.036430,-0.046978,0.091880,0.001338,0.032132,0.035599,0.026830,-0.068723,-0.097880,-0.002731,0.009508,0.018669,0.042276,-0.021406,0.018570,0.006831,-0.082917,0.013229,-0.019819,0.048577,0.008174,-0.020242,-0.157197,0.280196,-0.021865,-0.079639,0.026859,0.011309,-0.050509,-0.005945,-0.041693,0.003645,0.046025,-0.001164,-0.062248,-0.018810,0.097520,-0.019821,-0.032515,-0.028861,-0.233252,0.179513,-0.004025,-0.013617,-0.052301,0.022558,-0.063168,0.270383,-0.123221,0.018908,0.246862,0.035806,0.133321,0.064764,-0.007951,-0.016225,-0.043468,-0.012084,-0.134283,0.012475,0.004217,-0.002882,-0.012707,0.000237,0.066866,-0.010272,-0.084845},
      {-0.345404,0.014841,-0.030555,0.037592,-0.051004,0.054616,-0.071556,0.254152,0.011261,0.025304,0.011135,0.009607,-0.034978,-0.009380,0.071364,0.002071,0.071888,-0.027685,-0.054540,-0.130596,0.014580,0.045199,-0.051733,-0.105830,-0.018797,-0.029576,0.084708,-0.010551,-0.014523,-0.003589,-0.009181,0.032383,0.037773,-0.127583,-0.091647,0.028216,0.076243,-0.089716,-0.089471,0.049045,0.132538,0.057653,0.006814,-0.022530,0.056236,0.065895,-0.022693,0.111311,0.013893,0.103841,0.003729,0.043027,0.082886,-0.018521,0.013990,0.090712,-0.043247,-0.023225,0.008516,0.109873,-0.117074,0.040381,-0.180606,-0.014640,-0.043214,0.010594,-0.037223,0.022731,0.101267,0.017148,-0.040235,-0.165723,0.014309,0.068822,-0.083370,-0.044630,0.067372,0.034019,-0.116888,-0.041565,-0.021534,-0.007322,0.066866,0.007132,0.042958,0.089888,0.019304,0.038162,0.046285,-0.022442,-0.024395,0.059898,-0.028958,-0.037549,0.086462,-0.003125,-0.006009,-0.045357,-0.175059,-0.062144,-0.016676,-0.006326,-0.050981,-0.022309,-0.027765,-0.142251,0.006411,0.072467,0.031408,0.058311,0.024146,0.102307,0.046676,0.077667,0.067191,-0.032412,0.080262,0.051446,-0.015309,0.042546,0.018544,-0.051331,0.042374,-0.012005,0.032860,-0.038475,0.062541,-0.015488,-0.014955,-0.078183,-0.081645,0.015760,-0.027185,0.007408,-0.067308,0.018461,0.065245,-0.171722,0.009358,0.000399,0.012781,-0.093275,0.065316,-0.116576},
      {-0.067537,0.051258,-0.139280,0.073570,0.047220,-0.137589,0.002272,0.030626,0.214220,0.006317,0.051776,0.003934,0.060860,-0.006038,-0.122252,0.032589,0.049976,-0.043856,0.126062,0.092013,0.085924,-0.052344,-0.166944,0.185133,-0.046543,-0.049639,-0.087022,-0.002472,-0.107947,0.028156,0.019647,0.087158,0.032939,-0.120049,-0.001961,0.142668,-0.087894,0.114395,-0.159372,0.098674,-0.063211,-0.012702,-0.014526,-0.191841,0.029371,0.027993,0.020067,0.048601,-0.014285,-0.084310,-0.155678,-0.022830,-0.005481,-0.027382,-0.033594,-0.082064,0.039658,-0.035426,-0.045008,0.108250,0.139469,-0.056853,0.125808,0.067045,-0.105733,0.072101,-0.110490,-0.002036,-0.028362,0.044564,-0.040287,0.122259,-0.011227,-0.063319,-0.069657,-0.052781,-0.043227,0.078720,0.045929,-0.041574,0.123654,-0.066195,0.048049,-0.051528,-0.057039,-0.028073,-0.091707,0.000121,-0.091345,0.009119,0.049658,0.090687,-0.297922,-0.067583,-0.014929,-0.049225,0.067715,0.108707,-0.206976,-0.128650,-0.053514,0.196817,-0.176891,0.059942,-0.093095,0.011457,-0.023770,0.036229,-0.038351,-0.183838,-0.019010,0.049065,-0.019665,0.053173,-0.000946,-0.037320,0.131885,-0.008102,-0.046963,0.164853,0.092341,0.060795,-0.111449,-0.007189,0.006289,-0.066557,0.047243,-0.072265,-0.068017,-0.098280,-0.010283,-0.000879,-0.095594,-0.125901,0.092483,-0.056768,-0.072564,0.051466,-0.020690,-0.033440,-0.029406,-0.122012,0.020069,-0.023414},
      {0.208790,0.054085,-0.084304,-0.024861,-0.002105,-0.095855,0.051505,0.102499,0.047552,-0.011390,0.017722,-0.008464,-0.036336,0.022651,-0.040548,0.033427,0.074357,-0.098817,-0.046881,-0.078273,0.014093,-0.000233,-0.023752,0.002227,-0.029260,-0.006696,0.030499,-0.013319,-0.061817,-0.075243,-0.035727,0.037203,-0.112438,0.146628,0.184355,-0.012225,-0.052595,0.132198,0.149442,0.197462,0.067557,0.034477,-0.046466,-0.022103,-0.019088,0.110507,-0.015816,0.122097,-0.083275,0.121199,-0.026140,-0.045376,-0.021996,0.071745,0.059477,-0.049935,-0.015028,0.117252,0.010231,0.097228,-0.011969,-0.023849,-0.002812,-0.050513,-0.043163,0.121860,0.137499,-0.056773,-0.080777,0.083763,-0.060160,-0.119485,-0.057890,-0.076703,-0.132049,-0.057006,-0.105183,0.132538,-0.023181,-0.021646,-0.069027,-0.028308,0.213252,-0.060746,-0.023057,-0.146585,0.124221,0.056525,-0.014269,-0.018424,-0.014751,0.074782,-0.091186,-0.002608,-0.047430,0.008013,-0.017315,0.010379,0.248930,-0.121890,-0.017135,-0.085896,-0.082756,0.055047,0.123269,-0.013793,0.006837,-0.053003,-0.042129,-0.039872,0.009515,0.020575,-0.103182,0.043524,-0.055633,0.017260,0.153033,-0.032871,-0.025352,0.168155,0.057689,0.012365,0.033676,0.075341,-0.061310,-0.164596,0.046391,0.015500,-0.031119,0.137498,0.047024,-0.007492,0.108322,-0.078554,0.187388,0.136668,-0.110756,-0.021303,-0.005560,-0.016525,0.036510,-0.113688,0.029049,-0.125258},
      {-0.053585,0.032098,-0.024529,0.108720,-0.070393,0.114491,-0.075140,-0.010622,0.021006,0.026965,0.014722,0.088593,0.035032,-0.069447,0.005746,-0.028117,0.091521,-0.000481,0.028483,-0.083319,-0.054684,-0.031553,-0.057766,-0.031597,0.012358,0.077255,-0.022207,0.070902,0.042381,-0.012449,-0.028558,0.089704,0.011579,0.038847,0.079093,-0.018687,0.090529,-0.015551,-0.019636,0.004344,0.056043,0.027224,0.014862,-0.181950,0.047207,0.027123,0.020166,-0.036257,0.004354,-0.282779,0.068115,0.004532,0.068021,0.051299,-0.056731,0.047055,0.180456,0.103151,0.079636,0.055903,-0.111339,-0.044299,-0.037276,0.005327,-0.003795,0.121842,0.097441,-0.015730,-0.075093,0.100343,-0.084863,-0.098703,-0.009246,-0.043349,0.065292,0.038233,-0.023136,0.073640,0.076348,-0.076734,0.029822,0.028775,0.087978,0.073353,-0.054456,0.061301,0.033394,0.000526,0.133491,0.064208,-0.010985,-0.006468,0.096526,0.008140,0.089212,0.014132,0.005262,-0.034231,-0.159499,0.006991,-0.135685,-0.114004,0.042600,0.049281,0.121003,-0.026791,-0.035831,0.008569,-0.036424,0.061074,-0.007869,0.154964,0.050188,0.038490,0.011197,-0.012367,0.019052,0.033028,-0.105642,0.053210,-0.013796,0.011979,-0.070102,0.012471,-0.042960,-0.012118,0.033173,-0.142025,-0.051703,0.086801,0.047982,0.034286,-0.013831,-0.027686,-0.033990,-0.020670,-0.126486,0.013655,-0.026660,-0.013253,-0.006143,0.112349,-0.049905,-0.010238},
      {0.165456,0.034146,0.039975,-0.075873,-0.042649,0.183637,0.001260,-0.092743,-0.097343,-0.017943,-0.015981,-0.001414,-0.125132,0.068571,0.065832,0.193982,0.009595,0.182992,-0.027745,0.042102,-0.024968,0.046266,-0.101168,-0.193515,0.095713,0.063639,0.053834,0.058830,0.039893,-0.026760,-0.033551,-0.010456,0.061717,-0.043378,0.063321,-0.055787,0.007193,-0.066275,0.074199,-0.290209,-0.012511,-0.001371,0.005581,-0.097805,-0.038690,-0.008271,0.043336,0.029357,-0.060179,-0.023433,-0.073402,0.009583,0.078912,0.101774,-0.008251,-0.025500,-0.117250,0.044180,-0.043276,0.146220,-0.074117,0.088954,-0.034612,-0.083839,-0.001112,0.068147,0.064855,-0.017039,-0.081147,0.015867,0.011717,-0.015144,0.051692,0.000636,0.015027,-0.048096,0.077391,-0.051116,-0.045864,-0.001224,-0.089778,-0.004484,0.026135,-0.039611,0.044847,-0.077556,-0.028894,-0.001919,-0.099077,-0.152573,0.026695,0.079452,0.027189,0.107822,-0.131851,0.039063,-0.034699,-0.061550,0.008887,-0.092766,0.003308,0.061590,0.048730,0.009410,0.073531,-0.033980,0.088096,0.020975,-0.062980,0.164587,0.001727,0.018515,0.000326,-0.070769,0.001544,0.041727,0.105924,-0.033155,0.063177,0.102160,0.024205,0.023106,0.024320,0.015199,0.041653,0.193595,0.068629,-0.036454,0.020014,-0.004437,0.078250,0.002117,0.085656,0.070040,-0.020537,0.002723,-0.104541,-0.003911,0.027690,0.027547,-0.033579,-0.135321,0.103669,-0.038198},
      {0.066228,-0.050029,0.043682,-0.001442,-0.041332,-0.183035,-0.001726,0.116570,0.038268,0.006099,-0.126524,-0.025067,-0.004719,0.079865,0.074141,0.144020,-0.046202,-0.091060,-0.078592,0.009392,-0.061640,0.116934,0.098731,0.211405,0.105487,0.154540,-0.005096,-0.003450,0.005357,-0.032166,0.002707,0.087799,-0.018719,0.045013,-0.053856,0.120276,-0.032587,-0.015497,-0.071486,0.169177,-0.104114,0.019826,0.078903,0.078400,-0.020896,-0.071202,-0.019129,-0.191693,0.052192,-0.163585,-0.109656,0.063849,-0.075918,0.019230,-0.122078,0.068092,0.001341,0.006296,-0.010274,0.071649,0.212846,0.061306,0.008195,-0.047571,0.011258,0.059366,0.067826,0.053594,0.045253,-0.021296,0.038994,-0.003793,-0.003772,0.098119,-0.077620,0.034540,0.070222,0.022766,0.051992,0.073175,0.028841,0.007009,0.034036,-0.082783,0.116601,0.062392,0.085362,-0.017923,-0.113483,0.068463,0.051143,0.012919,-0.095475,0.136641,-0.008107,0.009432,-0.072260,0.062074,0.070357,0.309240,-0.010245,0.014955,0.076559,-0.088787,-0.004287,0.085351,0.024733,-0.007243,0.028170,-0.149327,0.000013,-0.053600,0.071041,-0.011637,0.030366,0.010649,0.052397,0.115013,-0.011954,0.118319,0.054253,0.041644,-0.017027,-0.041666,-0.027212,-0.156780,-0.087819,-0.025263,-0.004762,0.111134,0.016718,-0.030779,0.103916,-0.065296,0.032230,-0.075215,0.067177,0.011269,0.061259,0.091759,-0.078194,-0.096274,0.114203,-0.077144},
      {-0.030900,-0.034517,-0.007386,0.065843,0.083582,0.073279,-0.008355,-0.052399,0.030318,0.063905,0.041499,-0.032373,-0.029450,0.021677,-0.036634,0.237911,0.024333,0.078781,0.079614,0.010476,0.099077,-0.051842,0.225947,-0.031967,-0.021808,-0.027559,0.061430,-0.068428,-0.053237,0.057671,0.050606,-0.008744,0.017052,0.001001,0.021486,-0.029917,-0.032835,-0.106818,-0.047214,-0.080261,-0.012637,0.058503,-0.038150,0.131518,0.009443,-0.011389,0.019708,-0.063542,0.048413,-0.004533,-0.014134,0.089139,0.002911,-0.089159,0.029863,0.073318,0.008988,-0.103678,-0.071530,0.090184,0.045947,0.082653,0.083322,0.103900,0.035295,-0.058597,-0.045361,0.048817,-0.022389,-0.041166,0.009627,0.062618,-0.052873,-0.032431,0.009335,-0.060531,0.127356,0.031718,0.029449,0.022909,0.022271,-0.048033,0.000023,-0.050721,-0.037259,-0.056127,0.070026,-0.043689,-0.073006,-0.002173,0.029775,0.000989,-0.015327,-0.159397,0.090151,-0.086017,0.053860,0.008178,-0.027353,0.107356,0.044811,-0.061088,0.013759,-0.028042,-0.042683,-0.092539,0.019607,0.010145,0.067718,0.222292,-0.002277,0.013251,-0.045934,-0.081404,0.002445,-0.035471,0.121707,-0.056375,-0.029503,0.029680,0.021123,0.044184,-0.055979,-0.021965,-0.106617,0.162212,-0.055018,-0.006015,-0.078450,0.009751,0.023712,0.026909,-0.184901,0.037752,-0.025708,0.002055,-0.074409,-0.016428,-0.031026,0.079976,-0.036413,-0.078488,0.070923,0.028631}
    }
  }
};
