#pragma once

#include "C:\Users\Baron\Desktop\EE_297_Repo\EE_297\hardware_imp\vitis_hls\lane_seg_hls\lane_seg_top.h"

// Auto-generated with BN folded

data_t enc4_ir3_pw_w[1][1][144][32] = {
  {
    {
      {-0.207592,0.174791,0.262299,-0.345712,0.096764,-0.159350,0.339606,0.346649,0.185163,0.148873,0.080049,0.068400,0.065622,-0.265736,-0.131044,-0.312702,-0.115260,0.237702,-0.036511,-0.318981,0.092777,-0.081403,0.012317,0.584675,0.578397,0.081074,0.188724,0.095965,0.138593,-0.080520,-0.094724,0.131405},
      {0.212153,0.033509,0.009802,-0.099905,-0.159610,0.033284,0.000014,-0.119602,-0.197046,0.065127,0.029477,0.113104,-0.208158,-0.221173,-0.097464,0.017391,0.222216,0.050834,-0.124194,0.171284,-0.047483,0.036489,-0.011031,-0.070841,-0.036626,-0.036905,0.109358,-0.116141,-0.269062,-0.105337,-0.024883,0.181643},
      {-0.068272,-0.237374,0.101919,-0.131891,-0.176287,0.228276,-0.040749,-0.380914,0.071993,-0.234751,-0.004595,-0.058564,-0.002082,-0.257070,-0.167664,-0.265506,-0.112764,0.040402,0.093713,0.107887,0.025563,0.272530,-0.148046,-0.064599,0.258345,0.036152,-0.148658,-0.024027,0.076224,0.285583,0.051682,0.005610},
      {0.303477,0.178269,0.171057,0.049432,-0.157698,0.101753,-0.095549,-0.312589,-0.133745,0.077787,0.172012,-0.167534,0.005467,-0.027152,0.245456,-0.174497,-0.126333,-0.117189,-0.002753,0.161186,0.095014,-0.083123,-0.108220,0.124360,0.372750,-0.040344,-0.178029,0.291386,0.036504,0.112963,-0.130358,0.019078},
      {0.190344,-0.298104,0.051199,-0.040558,-0.184219,0.195607,0.107756,0.014343,0.032360,0.046273,0.036973,0.058087,-0.301845,0.081328,0.020863,-0.068009,-0.105069,0.105589,0.233268,0.059406,0.106354,-0.075354,0.196647,0.029003,0.090144,-0.125960,-0.220091,-0.140007,0.070447,-0.173173,-0.053167,-0.064625},
      {-0.100562,-0.127770,-0.150787,0.000422,0.183707,0.102632,-0.196930,0.007222,0.178600,0.031796,0.252207,0.014041,-0.039152,-0.078017,-0.041129,-0.086473,0.057971,0.209099,0.004788,-0.187327,-0.097667,-0.069029,0.199403,0.201509,0.096290,-0.000313,-0.044672,-0.077073,-0.151698,-0.021882,0.024556,0.066087},
      {-0.397341,0.046879,0.023760,0.381290,-0.188284,0.484667,0.250312,-0.026330,-0.062168,0.415136,0.037484,0.111007,-0.025793,-0.040046,-0.000630,0.311525,-0.017221,0.092980,0.219204,0.092433,-0.002074,-0.111303,-0.018794,0.017751,0.205353,0.246169,0.330998,0.144239,-0.002681,-0.052971,0.019302,-0.011098},
      {-0.011470,-0.143060,0.165644,-0.094679,0.002043,-0.209809,-0.311655,-0.283710,0.023898,0.104514,-0.011813,-0.258107,0.237647,-0.145703,0.161792,-0.240169,0.370448,-0.177709,-0.343291,0.083427,0.150424,0.138682,-0.047788,-0.045680,-0.083356,-0.077060,0.221171,0.446021,0.299165,-0.064609,-0.151170,0.140460},
      {-0.258155,-0.013132,-0.007100,-0.095865,-0.065233,0.304078,-0.071946,-0.167429,0.086827,-0.011796,-0.263994,0.078267,-0.035941,0.015554,0.257167,0.047832,-0.136131,-0.080636,-0.225622,0.280953,-0.055186,-0.014797,0.321826,-0.219630,-0.095112,-0.295832,0.143339,-0.127838,0.200206,0.326508,-0.013265,0.152878},
      {0.254389,0.147390,-0.129052,-0.212550,-0.068964,-0.057223,0.107959,0.058252,-0.197778,0.158015,0.127010,0.102700,-0.207981,-0.005969,-0.120352,0.001088,-0.027304,0.062588,-0.208691,0.059327,0.055685,0.027003,-0.036752,0.276268,0.079416,0.150290,0.217532,0.153034,-0.024761,0.294158,-0.064155,0.056208},
      {-0.193742,-0.053470,0.073234,-0.052579,0.058271,0.088235,-0.182783,-0.208215,-0.071514,-0.165844,-0.056378,0.086414,-0.021799,-0.197039,0.074017,-0.078809,0.003127,0.204879,0.200119,-0.021825,0.026406,0.158563,0.347619,-0.077268,0.183604,-0.160228,0.271322,-0.205580,0.036546,0.264525,-0.094373,0.049232},
      {0.270998,-0.171140,-0.040528,-0.002548,-0.177988,0.052954,-0.086123,-0.020776,-0.369786,0.028884,-0.054857,0.081574,-0.239201,-0.138559,0.056804,-0.351654,0.239479,0.132604,0.047039,0.379416,-0.113631,-0.000309,-0.279432,-0.136691,-0.249989,0.050054,0.122724,-0.144237,-0.526195,0.112709,-0.260457,0.301837},
      {-0.264111,0.028542,-0.229230,-0.040778,-0.029352,0.080261,0.171994,-0.218414,0.389366,0.056402,-0.140954,-0.040575,0.260503,-0.020811,0.224622,-0.210878,-0.315816,-0.150812,0.039447,-0.076108,-0.139640,0.108142,0.087921,-0.090023,0.097260,0.024838,-0.178455,0.053113,0.181429,0.009580,-0.050359,-0.184220},
      {-0.059089,0.026522,-0.037374,0.096879,0.255067,0.086373,-0.095432,-0.109711,-0.232774,0.062205,0.003282,-0.077667,0.017416,-0.105770,0.015605,-0.141907,0.070607,0.331954,0.075943,0.192594,0.036795,0.071938,0.300090,0.133035,0.233432,-0.302119,0.048673,-0.218335,0.103416,0.011843,0.106485,0.126350},
      {0.067793,-0.090348,0.334213,-0.126508,0.443306,0.039539,0.074623,-0.010697,0.032410,0.222192,0.197160,0.073163,-0.046647,0.093441,0.203484,0.091911,-0.177488,-0.033498,-0.234828,0.061898,-0.108695,-0.095890,0.107047,0.074434,-0.130939,0.129525,0.235388,0.009306,-0.016995,0.227324,0.048860,-0.017420},
      {0.041046,-0.235258,-0.315013,0.082944,0.018036,0.349902,-0.116712,-0.038762,0.099843,-0.251422,0.206648,0.005962,0.130838,0.445777,0.047243,-0.171180,0.059258,-0.079015,-0.088836,-0.000396,-0.087967,0.399988,-0.189959,-0.650027,-0.133409,0.202298,0.112371,-0.012719,-0.309341,0.169375,0.179093,-0.075290},
      {-0.149337,-0.158052,0.173060,0.083047,0.094770,0.255169,-0.030245,0.726788,-0.028810,0.250728,0.123986,-0.174444,-0.168144,0.134770,-0.018932,-0.034004,0.069773,0.134840,-0.154200,-0.001679,0.236650,0.089785,0.022134,-0.557606,-0.137588,-0.280627,-0.085949,0.392817,0.082677,-0.108677,-0.194380,-0.095518},
      {-0.290589,0.275446,-0.097679,-0.101456,0.191082,0.177425,0.155078,-0.081851,0.324556,0.124047,-0.016181,-0.047465,-0.384313,0.165466,0.073323,0.155422,0.090523,0.051478,0.571785,0.594592,-0.182787,0.127275,-0.337036,-0.097607,0.006729,-0.125284,0.264823,0.425407,0.203456,-0.051080,-0.221547,0.178701},
      {-0.183017,-0.367306,-0.183552,0.067340,-0.176094,0.230556,-0.013253,0.016802,-0.174260,0.128653,0.002808,-0.120782,-0.135943,-0.060680,0.089668,0.136502,0.187921,-0.223717,0.320361,-0.113510,0.004167,0.104402,-0.063334,0.162940,0.234556,0.086330,0.006884,0.017683,0.084752,-0.054873,0.041934,0.113048},
      {0.053037,0.004295,0.136327,0.056945,0.053042,0.017157,-0.134380,-0.254135,-0.332452,-0.119311,-0.235161,0.144463,-0.112465,0.284196,-0.391781,0.060622,0.092479,-0.072714,-0.211764,-0.062291,-0.168392,0.111400,0.098710,-0.023078,0.365412,-0.026353,-0.073697,-0.032543,0.056900,0.169023,-0.078142,0.169367},
      {-0.155687,-0.098804,0.159112,0.097697,0.354196,0.139300,-0.009150,-0.318068,0.030153,-0.009444,-0.069443,0.110511,-0.215291,-0.027381,0.084635,-0.076845,0.105344,0.136746,-0.139403,-0.093656,0.313434,-0.117509,0.140967,0.264964,-0.005545,0.098046,-0.100813,-0.035244,0.069381,-0.010752,-0.008230,0.063365},
      {-0.286480,0.066665,0.000983,0.192255,0.086922,0.075170,0.013416,0.122009,0.067083,0.124633,-0.069403,-0.058095,0.023556,-0.161517,0.008744,0.161096,-0.072392,0.306328,0.106231,0.166964,0.110675,-0.071955,-0.092625,-0.180371,-0.034712,0.196933,-0.116536,0.105464,-0.034946,0.137870,-0.225252,0.203390},
      {0.094286,0.147569,-0.135005,0.155425,-0.011652,0.141680,0.104840,-0.059621,0.038573,0.302550,0.023876,0.072121,-0.513857,-0.117472,-0.213402,-0.049390,0.233310,-0.636006,-0.336707,0.139583,0.078116,-0.014045,0.024663,0.511643,-0.069269,-0.201155,0.095727,0.274479,-0.283094,0.143045,0.278889,0.203500},
      {-0.068369,0.078790,-0.311690,-0.119533,-0.202595,0.002187,0.070112,0.065376,-0.515343,-0.188355,-0.192959,0.008306,0.056323,-0.060816,0.135490,-0.410436,0.037898,0.285600,0.120718,0.104804,0.104473,-0.057999,-0.436954,0.126912,-0.343297,-0.092966,0.085926,-0.215382,-0.049694,0.101452,-0.009422,-0.037220},
      {-0.027808,-0.421416,-0.192611,-0.179982,-0.027419,-0.051618,0.059333,-0.197023,0.082322,-0.087395,0.014596,-0.101187,-0.415361,0.178625,0.158369,0.099283,0.186709,-0.196200,0.192164,0.154446,-0.146967,-0.208291,-0.375098,0.421757,0.309229,-0.077040,0.102738,0.282307,0.273723,-0.115789,0.167412,-0.154080},
      {-0.057540,0.201344,-0.208945,-0.163316,0.073209,-0.116481,0.062715,-0.040049,-0.216152,0.051359,-0.047725,0.067524,0.136602,0.008869,-0.167512,-0.008574,-0.075513,-0.109417,0.002481,-0.182896,-0.321502,-0.107049,0.049797,0.026856,0.081382,-0.141632,0.144982,-0.017244,0.017543,0.030879,0.249710,0.069356},
      {0.263639,0.000516,0.009249,-0.119421,-0.229498,-0.038482,-0.052843,-0.065642,-0.119799,0.141522,0.024575,0.111278,-0.228977,-0.262620,-0.081740,-0.024255,0.228655,-0.003687,-0.138571,0.270928,-0.159547,0.058057,-0.050976,-0.020500,-0.032022,0.028282,0.055942,-0.101306,-0.295826,-0.100709,-0.053187,0.124785},
      {0.101185,0.061019,-0.036980,-0.049112,0.242094,-0.366348,-0.227726,0.068223,-0.137902,0.120141,0.052886,-0.031553,0.244455,-0.143061,0.105450,-0.010144,-0.084156,0.051053,-0.075193,-0.208581,-0.044990,0.295296,0.011961,-0.040347,-0.056952,0.057404,-0.268534,0.053021,-0.012872,0.124452,-0.070557,0.288321},
      {0.176629,0.045776,0.094134,0.310560,-0.068175,-0.183628,0.038191,0.399335,0.142108,0.118220,0.060564,0.171128,-0.240972,-0.039282,0.242852,0.047466,0.028810,0.099819,0.050550,-0.175453,0.178224,-0.174487,0.097858,0.062367,-0.259832,0.195764,0.167973,0.115265,0.167904,-0.216507,-0.158315,0.024446},
      {0.113291,-0.096599,-0.173086,0.003901,-0.196739,0.066178,-0.266981,0.201182,0.078641,-0.229047,0.339040,-0.099293,0.075717,-0.076353,0.121324,-0.117006,-0.253382,0.082439,0.111576,0.009508,-0.249026,0.081555,0.166186,-0.421685,0.039591,0.195867,0.435593,-0.145441,-0.027177,0.211347,0.033892,0.004126},
      {0.118957,-0.138125,0.219915,0.177393,-0.081889,0.104678,-0.081124,0.487073,-0.223594,-0.274342,-0.209765,-0.075002,-0.052180,0.113326,-0.051013,-0.036648,0.137494,0.011873,0.033868,0.053755,-0.105333,0.001079,0.225997,-0.288278,0.116451,-0.037055,-0.009586,0.190286,-0.077897,0.107872,0.239457,-0.093413},
      {-0.134792,0.111252,0.126119,-0.235257,0.186258,0.045615,0.066064,-0.109801,-0.178942,0.076379,-0.201459,0.143327,-0.116274,0.148011,0.118108,-0.004451,-0.278684,0.177415,-0.166287,-0.242166,0.263665,-0.058617,0.024866,-0.136541,-0.068371,0.197448,0.275566,0.035732,0.316058,0.082833,0.333625,-0.170652},
      {0.019912,-0.054314,-0.002693,-0.162120,0.446022,0.094319,-0.144587,0.010997,-0.328980,-0.059178,0.038285,0.049139,0.000862,0.298792,-0.189892,0.048251,0.002351,0.089200,-0.162476,0.060344,-0.035282,-0.088802,0.081436,-0.168413,0.171575,0.045578,0.041441,-0.096769,0.061502,0.239857,-0.020466,0.195061},
      {0.169842,0.045859,-0.045221,-0.098582,-0.000757,-0.081068,0.089596,-0.134044,0.106282,-0.157317,0.259877,0.014838,0.084990,-0.017802,-0.027243,-0.157114,-0.255151,0.045545,-0.072071,-0.030869,0.156967,-0.012710,-0.078310,-0.193612,-0.059416,-0.015819,-0.365846,-0.133298,-0.240810,0.130001,-0.047630,0.018316},
      {-0.216451,-0.240471,0.263342,0.325297,0.025620,0.006140,0.064318,-0.216400,-0.000932,-0.230809,0.042298,-0.093339,0.392549,0.243668,0.173273,-0.038164,-0.032895,-0.049158,0.250100,-0.089316,-0.226085,-0.110296,-0.010973,-0.199524,-0.182517,-0.233392,-0.159308,-0.174895,0.163545,-0.053644,-0.182743,-0.047242},
      {0.149571,-0.045081,-0.229882,0.184876,-0.368108,0.024434,-0.283887,-0.044036,0.122059,0.046973,0.035107,0.147454,0.136294,0.544532,0.074184,0.035007,0.119263,-0.113655,-0.068147,0.192222,0.143543,0.129839,0.006690,-0.224099,0.220018,-0.024843,-0.040048,-0.077894,-0.121975,0.098119,-0.234341,0.219393},
      {-0.481876,-0.374755,0.073923,0.201520,0.122091,0.029495,0.361707,0.470723,0.167605,0.011472,-0.099696,0.213496,-0.092917,-0.314441,-0.112362,-0.057883,-0.064351,0.188426,-0.011447,-0.201410,0.013620,0.517595,0.181571,-0.241877,-0.205989,-0.262140,-0.003471,-0.246104,-0.072828,0.138136,0.146305,-0.185950},
      {-0.024559,0.335355,-0.412884,0.094733,-0.227683,0.073656,0.105691,0.038234,-0.132894,-0.262008,-0.199616,-0.175956,-0.142837,-0.170883,0.311723,0.006228,-0.205482,0.058647,-0.110404,-0.034654,-0.075695,-0.212913,0.365345,0.058975,-0.150388,-0.259073,0.307379,-0.215925,0.163682,-0.143046,-0.200907,0.273523},
      {0.205532,-0.149925,0.298368,-0.487074,-0.408067,0.275149,0.237043,0.009381,0.166500,0.127584,0.027778,-0.081623,-0.002417,-0.094835,0.235631,0.089561,-0.203122,0.324953,-0.254809,-0.006226,-0.170237,0.238392,-0.321378,-0.022452,-0.269518,-0.038408,-0.092018,-0.047142,0.248037,-0.116360,0.102620,-0.192756},
      {0.082018,0.187933,-0.445559,-0.040438,-0.149329,0.040084,-0.224855,0.004866,0.185560,0.195750,-0.008848,-0.059106,-0.333615,-0.386307,-0.061050,0.057235,0.059511,-0.053308,-0.210557,0.242860,-0.013800,-0.006586,-0.029546,0.340993,-0.040415,0.093268,-0.352438,0.180796,-0.037931,0.160769,0.187676,-0.094370},
      {-0.147176,0.059117,0.059416,-0.367941,0.297831,0.045214,0.021018,0.099222,0.069808,0.151838,-0.145361,0.220521,0.069802,0.121736,0.249867,-0.002780,-0.290528,0.137735,-0.189488,-0.039300,0.070789,-0.003331,0.027617,-0.106764,0.073787,0.159650,0.115753,-0.073630,0.196863,0.192887,0.272664,-0.165117},
      {-0.206813,0.109445,0.062149,0.137011,-0.148632,-0.358773,-0.002497,-0.295361,-0.137305,-0.025000,0.011992,-0.148281,0.038723,0.089585,-0.139745,-0.005280,-0.055389,-0.106301,0.065340,-0.094288,0.081168,0.036778,-0.178110,0.371981,0.140960,0.009759,-0.247498,-0.047709,-0.249220,0.285769,0.046821,-0.149180},
      {0.071555,0.172105,-0.145427,0.180972,-0.300113,-0.099235,0.038085,0.034681,-0.270912,0.114639,0.035651,0.155353,0.114372,-0.089292,-0.006138,0.174911,-0.005784,-0.344409,0.022297,0.087840,0.010682,-0.012041,0.195437,-0.233866,0.107923,-0.414649,0.168808,0.015276,0.015463,0.075249,0.283915,-0.305039},
      {0.155990,-0.194886,-0.220659,-0.117202,0.118923,0.037717,0.234902,0.210417,0.088987,0.038557,-0.162019,0.060074,0.144257,-0.144186,0.089818,0.142062,0.267870,-0.022951,-0.108461,-0.423473,-0.097502,-0.418630,0.101862,-0.243515,0.204382,-0.083095,0.064430,0.115899,-0.086561,0.354922,-0.275741,-0.306373},
      {0.217095,0.025194,-0.252918,-0.047021,-0.068849,-0.157854,0.558655,-0.249345,0.133016,0.075180,-0.217507,-0.163604,0.157658,-0.025578,-0.093530,-0.078835,0.318044,0.124346,-0.128250,-0.072445,0.017888,0.041734,-0.267648,-0.079447,0.064986,-0.169834,-0.438764,-0.002433,0.080403,0.152165,0.081998,0.129493},
      {-0.107441,0.031540,-0.218737,-0.006863,0.102355,0.079288,-0.197846,0.287894,0.232265,0.114179,-0.124355,0.030955,-0.238308,-0.081654,-0.103509,0.193736,-0.031087,0.051230,-0.102987,-0.010475,0.085163,-0.183225,0.117281,-0.006004,0.152599,0.143591,-0.268165,0.561629,0.056893,-0.075271,0.233553,0.158513},
      {0.101469,0.023982,0.400303,-0.142252,0.320367,0.152434,-0.396178,0.347695,0.435236,0.110492,-0.219859,-0.025225,0.035862,-0.142210,0.110233,-0.204743,0.063227,-0.083337,0.122894,-0.158963,0.013811,-0.168981,-0.143955,-0.085151,0.448540,-0.193533,0.263870,-0.632521,-0.348118,-0.208192,0.042785,0.152303},
      {-0.065762,-0.089083,0.147070,-0.182041,-0.015916,0.308107,-0.011712,-0.021697,-0.060874,-0.218061,-0.187930,-0.419583,-0.126853,0.010530,-0.089981,-0.125535,-0.064426,0.170997,-0.107044,0.085815,-0.105417,0.336286,0.084010,-0.131265,0.218111,0.004403,0.200421,0.009467,0.071789,0.237213,-0.252588,-0.142878},
      {0.084074,-0.009186,-0.060962,0.025062,0.061816,0.365374,-0.023641,-0.062858,-0.003045,-0.045053,-0.027698,0.042108,0.130804,-0.015726,-0.077838,-0.092732,0.162371,0.086408,0.047830,-0.039511,-0.025094,0.030149,0.039140,0.372041,0.031898,-0.039815,0.107550,0.035391,-0.102285,0.022096,0.015087,-0.135182},
      {-0.142400,0.137549,-0.004600,0.009824,0.092007,-0.115184,-0.286506,0.025432,-0.079053,0.239139,0.030707,-0.361589,0.161641,-0.383076,0.303664,0.140774,0.202336,-0.102733,0.134338,-0.236156,0.068206,0.430890,-0.196120,0.252482,-0.059804,0.117094,0.186017,0.232179,0.202822,0.219839,-0.012496,0.184763},
      {-0.258993,-0.109729,0.053118,0.072034,-0.050967,0.151900,0.024778,0.353047,-0.084333,-0.292969,0.368118,0.156269,0.076174,-0.212586,0.060252,-0.041102,-0.324637,-0.339339,-0.076117,0.239329,0.177006,0.135064,0.078873,0.506133,-0.116777,-0.110939,0.017573,0.048545,-0.177072,-0.096891,0.090672,0.105928},
      {-0.167708,0.051773,-0.031131,0.070187,0.196268,0.027525,0.205640,-0.091934,0.058679,0.092220,-0.218739,0.075057,-0.142927,0.168389,0.131553,-0.364413,-0.157023,-0.254988,-0.086165,-0.042453,-0.000149,-0.045759,-0.004116,0.454444,-0.097494,-0.265534,-0.042312,0.077415,0.057018,0.386458,0.115125,0.148730},
      {-0.158629,0.230700,0.154288,0.257066,-0.036517,0.018709,0.178309,0.155554,0.089665,0.170730,-0.116305,0.066052,0.102284,-0.144022,0.042104,0.228195,-0.140185,0.242084,0.219034,0.291783,0.090099,0.092860,-0.136195,-0.330413,-0.022619,-0.108494,0.218050,0.283633,0.027777,-0.083147,-0.272223,0.132305},
      {0.032401,-0.081711,-0.005595,0.225796,-0.071387,-0.090222,-0.054160,0.200020,0.178204,0.084965,0.263658,0.049822,0.003603,0.554219,-0.001713,0.022322,0.120256,-0.045090,-0.208953,-0.216204,0.000477,0.199755,-0.338419,-0.158365,-0.192381,0.224147,0.023380,0.278546,-0.278362,-0.068774,0.151375,-0.211296},
      {0.133010,-0.049394,0.466668,-0.141829,0.160315,-0.108002,0.159930,-0.085921,-0.275742,-0.015370,0.038633,-0.028978,0.334171,-0.075295,0.114805,-0.159006,0.108692,0.255850,0.399575,0.167165,-0.046837,-0.020464,-0.020042,-0.096301,0.440993,0.105713,-0.307271,0.495100,-0.420320,-0.220074,0.309398,-0.013775},
      {0.179991,0.132002,0.159573,0.049963,0.084404,-0.199030,-0.041699,-0.167789,0.164460,-0.193191,-0.135596,0.060498,-0.022689,0.024323,-0.203198,-0.141649,-0.165967,0.075669,-0.040315,0.175549,0.007389,-0.171024,0.149122,-0.120665,-0.004576,-0.112425,0.091110,0.054374,0.025824,-0.058170,0.030729,-0.080956},
      {0.071781,0.102753,0.087516,0.061851,-0.429833,-0.131825,0.094372,0.594391,0.020647,0.179364,0.066898,-0.320273,0.076480,0.056561,0.051586,0.143725,0.153189,-0.009323,0.146031,-0.149610,0.085274,-0.358106,0.113799,-0.033504,-0.081087,-0.471231,0.290110,0.054930,-0.004002,-0.262927,-0.219858,0.148714},
      {0.098477,-0.249530,0.127916,-0.402817,0.093229,0.217624,-0.124177,-0.343757,0.150637,0.110047,0.001016,-0.069927,0.261050,-0.118351,0.005375,0.437050,0.049738,-0.067746,0.346887,0.205917,0.443381,-0.035966,-0.078453,-0.256423,-0.129305,-0.261638,-0.130773,-0.179270,-0.193000,-0.000657,0.699161,0.150043},
      {-0.058033,0.547319,0.121052,0.077926,0.010014,-0.211895,0.022364,0.059342,0.270642,0.004602,0.141707,-0.162895,-0.351842,-0.006158,-0.027152,0.086422,-0.503931,0.403790,0.178000,0.110426,0.028380,-0.106747,-0.055069,0.082611,-0.219900,-0.179806,0.001031,-0.240367,-0.351777,0.231375,-0.059970,-0.416772},
      {0.053775,-0.017955,-0.011900,-0.135177,-0.096308,0.211990,-0.025872,-0.067691,-0.135168,-0.076492,-0.254326,-0.001344,0.110679,-0.009128,-0.169007,0.035394,-0.034889,-0.065082,0.103983,0.004190,-0.215129,-0.091497,0.056738,0.088273,0.099659,0.148315,0.112650,0.047543,0.062672,-0.049121,0.126738,0.066209},
      {-0.158898,-0.060736,0.234515,0.160991,0.220169,0.006333,-0.083494,-0.117401,-0.077661,-0.062653,-0.192569,-0.035437,-0.069344,0.034308,-0.177109,-0.203810,-0.107000,-0.296241,0.059251,0.004073,-0.049400,-0.191106,0.259817,-0.132769,0.301018,-0.129415,0.004779,-0.001444,0.226271,0.148818,-0.196609,0.452271},
      {-0.204430,0.309797,-0.108747,-0.204313,-0.025905,0.115433,0.098776,-0.243289,0.071608,0.159663,-0.142865,0.069640,-0.172195,-0.041261,0.310722,-0.098067,0.181109,-0.135789,-0.190132,0.105429,0.067716,0.160931,0.265934,-0.062467,0.246202,0.170628,-0.321477,0.220509,-0.473091,-0.325432,0.194121,-0.135182},
      {-0.160194,0.002285,-0.162566,-0.043989,0.284161,0.129824,-0.028245,-0.005282,0.173376,0.108192,0.212898,0.187233,-0.054177,-0.159678,0.123517,-0.235966,-0.026026,0.197300,-0.015017,-0.200098,-0.154226,0.072196,0.125738,-0.210055,-0.111446,0.001787,0.065741,-0.061306,0.009341,-0.253585,0.050012,-0.028016},
      {-0.168263,-0.008348,-0.154751,-0.010418,0.205898,0.112560,-0.035574,0.119770,0.256130,0.129553,0.251482,0.194772,-0.024897,-0.212130,0.137767,-0.165068,0.049575,0.165860,-0.004725,-0.127256,-0.102938,0.112103,0.059777,-0.196965,-0.129587,0.003347,-0.053106,-0.061486,-0.026305,-0.300860,0.074028,-0.159108},
      {0.260072,0.181373,0.207002,-0.008931,0.101083,-0.346963,-0.004261,-0.186681,0.405185,-0.237191,-0.101641,0.028895,0.035699,-0.048517,-0.197641,-0.251962,-0.155334,0.025606,-0.141711,0.317102,0.152595,-0.172656,0.143681,-0.226761,-0.072634,-0.253923,0.129864,0.275058,0.006935,-0.045403,-0.035924,-0.034547},
      {0.330490,0.122768,0.084995,-0.022045,-0.353832,-0.027513,0.229572,0.263625,-0.077567,0.041968,-0.116708,-0.051114,0.197187,0.062658,0.010304,0.194303,-0.007053,-0.313145,0.092354,0.146576,0.033436,0.186747,-0.162229,0.123641,0.002513,-0.272425,-0.029462,-0.003884,-0.060886,-0.037718,0.250793,-0.400116},
      {0.065816,-0.015719,-0.113910,-0.170289,0.258215,0.150592,-0.203828,-0.223823,-0.132304,-0.023800,-0.183123,0.004603,-0.034104,0.343079,-0.003128,0.257545,-0.099154,-0.154858,-0.312607,0.298850,0.066164,-0.044640,0.084482,-0.223086,-0.023411,-0.120081,-0.244692,-0.247856,0.057935,0.255627,0.025619,0.299171},
      {-0.146219,-0.032652,0.023890,0.274521,0.228890,0.155109,0.140139,0.220139,-0.033703,-0.161492,0.184493,-0.060471,-0.294010,-0.055321,-0.083129,-0.296572,-0.065887,0.073771,-0.223676,-0.283807,0.061841,0.131656,0.210158,-0.374298,0.191534,0.126350,0.149758,0.127767,0.212802,0.139319,-0.156260,0.051831},
      {0.036194,0.008791,-0.130782,0.120222,-0.176492,0.048171,-0.093128,0.146951,-0.106423,-0.095899,-0.128289,-0.299491,-0.024709,-0.063896,-0.019899,-0.154077,-0.016499,0.386105,-0.046190,0.011222,-0.321800,0.055643,0.162257,-0.390367,0.046699,0.027670,0.074955,0.027919,0.255843,0.182867,0.420233,-0.124389},
      {-0.110319,0.212686,0.106029,-0.147867,0.099074,-0.032400,-0.176407,-0.016954,0.380331,0.016624,-0.011793,-0.070106,0.157888,-0.105708,-0.059838,0.364400,-0.245067,-0.016865,-0.122644,-0.122984,-0.142357,0.030866,0.336313,-0.142376,0.328827,0.208228,-0.261696,0.106757,0.347045,-0.164996,0.254365,-0.294926},
      {0.013718,-0.131419,-0.030979,0.092437,-0.499020,0.003672,0.078523,0.011089,0.029222,-0.156421,-0.083792,0.204487,-0.012347,-0.273057,0.268207,0.182859,-0.115809,0.093888,0.091754,0.150648,-0.115686,0.103279,0.394702,0.102415,-0.054686,-0.044920,0.060376,0.062475,0.103317,0.005923,0.054198,-0.068152},
      {0.075735,-0.414183,-0.136704,0.240833,-0.127207,-0.086242,-0.424543,-0.002693,0.117381,0.174748,0.173928,0.253954,0.018838,0.024172,-0.472043,-0.051089,-0.156351,-0.090703,0.126203,-0.157269,0.089042,-0.079256,-0.312322,-0.184858,-0.127892,-0.076195,-0.024319,-0.182001,0.546132,0.238259,0.089386,-0.042831},
      {-0.146659,0.443353,0.101585,-0.395154,-0.326982,-0.050825,0.010551,0.015147,-0.230421,0.649680,0.269226,-0.083090,-0.070195,0.112073,-0.109460,-0.131784,-0.016286,-0.129423,0.229175,-0.171379,-0.139060,0.187176,0.256284,-0.045040,-0.146946,-0.191767,0.023669,-0.022547,0.021660,-0.020221,-0.023404,-0.154193},
      {-0.041441,0.082871,0.201389,0.033049,-0.137334,0.025783,-0.260191,-0.164378,0.459730,-0.007811,-0.019920,-0.078494,-0.382678,-0.123908,-0.133086,0.319698,0.092499,-0.149169,-0.359616,-0.148401,0.024839,0.165159,0.184189,0.306039,0.178108,0.138702,-0.155152,0.213698,-0.119759,0.089199,0.266369,-0.024556},
      {-0.038046,0.116323,-0.045681,0.139651,-0.227060,-0.042580,0.122757,0.038955,-0.150710,-0.118425,-0.023838,-0.023787,-0.118442,0.026235,-0.229576,-0.074004,-0.025391,0.062732,-0.123884,-0.344997,-0.222269,0.164857,0.094937,0.014141,0.041732,-0.136137,0.316195,0.098798,0.065415,-0.286480,-0.203146,0.061009},
      {0.211679,0.006312,-0.039861,0.154267,0.084512,0.188689,-0.213376,-0.291078,-0.309665,-0.176744,0.021205,-0.145481,-0.029699,0.471149,0.245856,-0.016610,-0.121912,-0.085737,-0.057565,0.118967,0.094166,-0.255408,0.062406,-0.310784,0.180215,0.065824,-0.103248,0.065692,-0.042996,0.261893,-0.068236,0.469327},
      {0.061117,-0.156181,0.080598,-0.131476,-0.130338,0.007558,-0.137301,-0.292536,-0.099310,0.141249,0.008122,0.076753,0.038597,-0.044657,-0.015913,0.104142,-0.264313,0.129154,-0.028442,0.228507,0.010555,-0.069576,0.036830,-0.067970,-0.101084,0.018169,0.235468,-0.107484,0.403496,0.469356,0.046080,-0.004822},
      {0.096711,-0.083725,-0.088402,-0.291257,-0.238066,0.286348,0.030758,-0.472181,0.185168,-0.149354,0.096818,-0.223903,0.097342,-0.214396,0.256106,-0.163026,-0.295189,-0.003969,0.065468,0.136195,-0.053515,0.169460,-0.071029,-0.108070,-0.043309,0.027463,-0.008913,-0.012032,-0.029433,0.256199,0.073259,-0.012118},
      {0.166693,0.249277,0.132189,0.041950,0.040467,-0.407640,-0.019277,-0.007582,0.126457,-0.056849,-0.014581,-0.006525,0.269150,-0.030347,-0.057652,0.024798,-0.068989,-0.049085,-0.204448,0.247350,0.093316,0.021329,-0.102672,-0.159694,-0.129253,-0.105232,-0.106557,0.166168,-0.107331,0.103245,-0.050346,0.053396},
      {0.207341,-0.156489,0.046674,0.032535,0.112773,0.100072,0.064272,-0.132699,0.033942,0.274322,-0.169305,0.031066,0.061881,-0.089474,0.184264,0.127939,-0.297850,0.128506,-0.032612,0.040987,-0.121270,0.321497,0.069448,-0.332069,-0.031201,-0.186374,-0.037512,0.095902,-0.122596,-0.146990,-0.073859,-0.100409},
      {0.301743,-0.213675,0.162556,-0.143107,-0.168856,-0.199578,-0.133206,0.219520,-0.044597,0.278108,0.216669,-0.076192,-0.115295,-0.024312,0.171640,-0.140322,-0.106902,0.055990,0.078105,-0.151285,0.211472,0.015195,0.367481,-0.033517,-0.065994,-0.214502,-0.332732,-0.051984,0.031042,-0.140782,-0.072296,-0.137920},
      {-0.207990,0.008444,0.147394,-0.121016,-0.006149,0.054555,-0.001657,-0.258912,0.063201,-0.164770,-0.042228,0.028775,0.309846,0.086709,-0.031091,0.196493,-0.139151,0.052292,0.073479,-0.118948,-0.067719,0.049755,0.113864,-0.292409,0.198888,-0.038885,-0.301658,-0.132253,0.396322,-0.210830,-0.018691,-0.082845},
      {-0.148869,-0.062135,0.173302,0.012611,0.140904,0.084039,0.053210,-0.213917,0.110723,-0.126886,0.252744,-0.056057,0.301087,0.123233,0.097588,0.141634,0.020855,-0.058241,0.071242,-0.050786,-0.169586,0.118091,0.129378,-0.132211,-0.007976,-0.005227,-0.027127,-0.176844,0.167696,-0.225874,-0.061189,-0.214443},
      {0.245923,-0.095315,-0.326046,-0.096509,-0.140861,0.018188,-0.039696,0.064650,0.120307,-0.120191,0.138800,-0.171563,0.059693,-0.074384,0.116309,-0.111861,-0.099499,0.121103,0.090238,-0.161120,-0.294484,-0.005684,0.134503,-0.515126,0.072090,0.108080,0.205982,-0.054847,-0.015838,0.361562,-0.045402,-0.012647},
      {-0.164633,-0.128669,0.359282,-0.012216,-0.216443,0.097548,0.012601,0.202960,0.209664,-0.079461,-0.125685,-0.272186,-0.191755,0.075657,0.127281,-0.235967,0.095505,0.284234,-0.022099,0.052286,-0.039973,0.007109,-0.157743,0.149682,-0.132345,0.198867,-0.091042,0.007373,0.048120,0.063122,-0.544919,0.074180},
      {0.076935,0.002120,0.095784,0.164871,-0.103925,-0.044810,-0.042841,0.088498,0.244206,0.235189,0.213874,-0.090118,0.117702,0.071893,-0.005730,0.006284,-0.033935,-0.121642,-0.286208,0.341650,-0.094608,0.033324,-0.045033,0.149919,0.033140,0.028727,-0.086828,-0.141820,0.011481,-0.226514,0.299397,-0.009602},
      {-0.050448,-0.395669,-0.156580,-0.486620,0.243430,0.021578,0.192101,-0.004489,0.191816,0.104537,-0.411922,-0.242540,0.060229,0.250889,-0.395647,0.014784,0.041383,0.101417,-0.134105,0.285891,0.034565,-0.044769,0.354578,0.307374,-0.319767,0.055818,0.457622,0.191253,0.025812,-0.238977,-0.261830,-0.041315},
      {-0.013995,-0.044457,-0.021432,-0.271528,0.286105,0.080828,-0.044486,-0.022247,-0.200388,-0.213336,0.020316,0.326721,0.106407,-0.250280,0.055146,0.214440,0.033105,-0.162632,0.069360,-0.028732,0.091691,-0.084628,0.112576,-0.012020,0.072876,-0.397723,-0.089719,0.050929,-0.206962,0.178172,-0.234634,-0.006273},
      {-0.303595,-0.193046,-0.103318,0.283234,-0.289786,-0.198715,-0.010204,-0.039225,0.060189,-0.202836,-0.173441,0.130744,0.199136,-0.079803,-0.200284,-0.180588,0.319715,-0.092827,0.339039,0.189177,-0.001184,0.150566,0.229781,0.352671,0.034020,-0.165779,-0.086603,0.195681,-0.157841,0.311913,0.168646,-0.114856},
      {-0.083421,0.119934,0.331133,0.258329,0.178450,-0.138988,0.056337,0.132124,-0.161846,-0.051978,-0.173067,0.163714,0.000091,0.442933,0.023585,-0.004095,0.206950,0.068471,-0.142689,-0.108749,0.039131,-0.055686,0.037429,0.261859,0.183413,0.034532,-0.056159,0.179600,-0.049463,-0.015744,-0.007468,0.088181},
      {-0.155928,0.003003,0.083954,-0.109318,0.128256,0.196837,-0.276678,0.067029,-0.339531,-0.345551,-0.115997,-0.004049,-0.151706,-0.137670,0.018166,0.019554,-0.164126,0.211612,0.194241,-0.118568,-0.118378,0.090300,0.280917,-0.232422,0.019526,-0.070529,0.111327,0.092828,0.080903,0.147316,0.077738,-0.129697},
      {-0.190632,-0.202503,-0.152513,0.082780,-0.121971,0.052934,0.076390,0.269915,-0.185697,0.243831,-0.021783,0.070874,0.009932,-0.034576,0.267307,0.315032,0.096360,-0.157018,0.103593,-0.017490,-0.155321,0.166187,-0.103188,0.085078,0.061033,0.035419,0.041541,0.087670,0.145754,-0.125321,-0.235493,0.102825},
      {-0.105418,-0.025423,-0.007337,0.007880,-0.147017,0.125840,0.055913,-0.216970,0.118390,-0.044511,0.176765,0.028691,-0.122864,0.234858,0.113000,0.043010,-0.172761,0.063585,-0.257242,-0.067156,-0.057778,-0.000334,0.139386,0.104444,-0.105720,-0.030870,0.265941,-0.028097,0.293477,0.460496,-0.005281,0.158138},
      {0.316849,0.116392,-0.119658,-0.103023,-0.188408,0.045556,-0.170445,-0.106787,0.031542,0.255710,-0.023284,0.110321,-0.499604,-0.405427,-0.071410,0.061880,0.217574,-0.176054,-0.255142,0.420313,-0.157627,0.118040,0.071968,0.074930,0.005000,0.240096,0.038390,0.088389,-0.480661,0.147524,0.064660,0.083555},
      {-0.130540,0.127793,0.202082,-0.368888,-0.167940,-0.156179,0.168537,-0.388968,-0.021343,0.391447,-0.211204,0.141628,0.014277,0.008132,0.084396,0.233783,0.052139,0.073744,-0.267454,0.139103,-0.003587,-0.183709,-0.163408,0.319324,-0.314987,-0.010616,-0.090087,-0.098167,0.065832,-0.275848,0.152872,-0.080446},
      {0.012174,0.046710,-0.115319,-0.261926,0.049391,-0.069894,-0.044756,-0.106379,-0.152264,0.106831,-0.064998,0.190005,0.027732,-0.257747,-0.074624,-0.077020,-0.156913,0.068025,0.081512,-0.135769,-0.255985,-0.134631,0.143927,-0.285280,-0.019539,0.120636,0.004585,-0.073604,0.137100,-0.184352,0.094488,0.291020},
      {-0.124094,-0.126654,0.011092,-0.000264,-0.154082,-0.199667,0.114944,-0.204433,0.099886,-0.051095,0.196678,0.036159,-0.205508,0.054366,-0.049069,0.039951,-0.306886,0.144417,-0.063684,0.121946,0.032562,-0.101412,-0.088491,-0.136203,0.161441,-0.142715,-0.042017,0.029753,-0.060238,0.034074,0.012664,-0.196896},
      {-0.203856,-0.109224,-0.110428,-0.047409,-0.008607,0.041327,-0.178977,0.032716,0.094428,-0.064812,0.037537,-0.042475,-0.022877,-0.067049,-0.017675,0.032627,0.023342,0.074292,-0.178970,-0.138717,-0.129190,-0.218276,0.086900,0.166648,-0.011427,-0.032866,-0.022621,0.116353,-0.124656,0.015600,0.123781,-0.065380},
      {-0.215138,0.051905,0.051968,-0.064931,0.196041,0.148088,-0.118543,-0.020232,-0.044534,-0.077406,0.004794,0.049586,-0.016353,0.226552,0.056266,-0.155965,0.239537,-0.069981,-0.070913,-0.030663,0.023807,0.042935,-0.047061,-0.230530,-0.008412,0.246652,0.066055,-0.112249,-0.108698,0.121084,0.302550,-0.191758},
      {0.205516,-0.107409,-0.008604,0.234019,0.089334,-0.008221,0.236681,-0.209372,0.196356,0.295036,0.205056,-0.272350,-0.040804,0.154747,-0.013047,-0.237041,0.292337,0.155151,-0.141451,0.084928,0.057696,-0.048838,0.051163,0.090034,0.127463,0.099567,0.180937,-0.239525,0.137595,0.079440,-0.033712,0.158024},
      {0.195529,0.123339,0.026929,0.075568,0.065006,-0.128828,0.019907,0.013658,0.270826,-0.264623,-0.006175,-0.024554,0.059577,-0.000287,-0.148497,-0.141773,-0.002488,0.037408,0.013282,0.124020,0.036902,-0.001603,-0.044213,0.041711,-0.086668,-0.109874,0.087269,0.152728,-0.161196,0.030110,0.066710,-0.197354},
      {-0.141471,-0.000353,0.153518,-0.076238,0.121647,-0.043571,-0.077520,-0.218119,0.043670,-0.060298,-0.193184,-0.005640,0.318871,0.073485,-0.109141,0.190985,-0.141983,0.053688,0.102267,-0.050382,-0.058947,0.054760,0.148895,-0.176560,0.159439,0.001403,-0.230290,-0.105901,0.270487,-0.197841,-0.015848,-0.153962},
      {-0.092244,0.086692,-0.038041,0.215278,0.092626,-0.262877,0.089944,0.006603,0.127020,0.049948,0.080376,0.061842,0.007796,-0.154870,0.054343,0.306154,-0.258434,0.243967,-0.054310,0.306787,0.005093,0.024980,-0.147035,-0.362366,0.131723,0.010014,-0.026232,0.185072,-0.047918,-0.027080,-0.082759,0.142207},
      {0.115613,-0.437250,0.076474,-0.263732,-0.402935,0.267017,-0.126353,-0.148735,-0.126476,0.069960,0.009046,-0.226812,-0.266664,0.093951,0.162632,-0.206608,0.032089,0.004053,0.107454,-0.227200,0.129159,-0.060555,0.146540,0.033355,-0.053227,0.094258,-0.217748,-0.154920,0.171926,-0.135116,-0.109921,-0.266820},
      {-0.113185,0.214371,-0.277703,-0.068905,0.326610,0.095605,0.060926,0.006383,-0.391343,0.070540,0.139134,-0.033173,0.127887,0.099387,-0.166477,-0.235286,-0.158629,-0.361983,-0.104899,-0.066259,-0.149333,0.021728,0.059638,-0.386166,0.190734,-0.317685,0.289549,-0.040492,0.098221,0.182712,0.135930,-0.010503},
      {0.030790,0.084200,0.110057,-0.055157,0.241868,0.005013,0.022453,-0.251470,0.091305,-0.222876,0.006241,-0.053964,-0.179240,0.212567,-0.175823,0.089571,0.023661,-0.240961,0.299733,-0.234195,0.216463,0.107458,-0.222486,0.125052,0.000786,-0.021444,0.037621,0.085000,-0.097738,0.070788,-0.215783,0.130126},
      {0.308854,-0.095649,-0.212712,-0.241141,0.059352,0.146664,-0.070136,-0.066942,-0.171019,0.108863,-0.075011,0.081144,-0.139282,-0.036452,0.013480,-0.042791,-0.154776,0.177498,-0.135088,0.100428,0.052024,0.217572,-0.141405,-0.198795,-0.046672,0.029608,0.108876,0.052438,-0.296215,-0.024551,0.089460,0.072641},
      {-0.024561,0.030481,-0.177476,-0.013136,0.198659,-0.009264,-0.083161,-0.169605,0.043381,0.183724,0.187050,0.157103,-0.061283,-0.185845,0.044450,-0.168435,-0.027930,0.024279,-0.041545,0.032792,-0.245173,-0.034871,0.158873,0.079802,-0.086049,0.066838,0.079232,-0.073764,0.064042,-0.102928,-0.163952,0.069212},
      {0.040463,0.050445,-0.036267,-0.029253,0.078790,-0.118620,-0.125229,-0.026899,-0.026040,-0.222864,-0.139471,-0.119042,0.169004,-0.092020,0.021554,-0.058600,0.220480,0.001800,-0.007075,-0.045369,0.030373,0.138969,0.013746,0.170726,-0.040542,-0.036648,0.061357,0.177974,0.070250,0.030462,0.076807,-0.016946},
      {0.315098,-0.059357,0.230742,-0.267312,-0.283535,-0.288317,0.302827,0.254216,-0.374274,0.081716,0.159889,-0.189118,0.043797,-0.221828,-0.057984,0.342940,-0.278196,-0.024643,0.093262,0.273738,0.076442,-0.095338,0.263265,-0.219287,0.096272,0.460879,0.061632,-0.049006,0.188848,0.072430,-0.033171,0.125987},
      {0.052628,0.061437,0.043418,-0.010138,-0.265690,-0.069841,0.048148,0.099594,-0.040231,-0.068792,-0.169622,0.067389,-0.025187,0.146565,-0.053827,-0.010834,-0.089145,0.120458,-0.290861,-0.116427,-0.414675,0.098851,-0.010287,-0.055871,0.060858,0.029547,-0.070771,0.026924,0.076271,-0.006170,-0.190770,0.107508},
      {-0.130329,0.247100,0.140158,-0.000257,-0.081065,0.040693,0.139444,-0.086976,-0.207375,0.178020,-0.074600,-0.067986,-0.044273,0.045468,-0.106220,0.096140,-0.006802,-0.240505,-0.333337,-0.116566,-0.001622,0.112765,-0.045184,-0.077367,0.131884,-0.192647,0.339420,0.014632,0.038655,-0.078359,0.253316,-0.329611},
      {-0.033606,-0.009017,-0.211895,0.095673,0.236173,0.564730,0.039327,0.109108,0.099565,-0.052229,-0.065096,-0.006334,-0.036262,-0.038990,-0.124154,0.188147,0.154222,-0.130005,0.230057,0.082312,-0.022112,0.033814,-0.084673,0.088569,0.013370,0.215658,-0.018813,-0.078866,0.034679,-0.047172,0.177206,0.148624},
      {-0.016688,-0.225252,-0.160037,0.025733,-0.177566,0.510714,0.145572,0.081914,-0.140071,0.224416,0.099510,0.064955,-0.103601,0.074283,-0.164436,0.084143,-0.202593,-0.024984,0.331296,-0.041652,-0.091571,-0.161947,0.046526,0.164532,0.261768,0.018364,-0.260597,-0.188524,-0.177702,-0.010558,-0.001218,-0.078006},
      {-0.013473,0.031758,0.258766,-0.287525,-0.101246,-0.060044,0.001644,-0.045795,-0.053180,0.037211,-0.294445,0.185170,0.123894,0.006547,0.066900,0.209486,0.102340,0.141993,-0.013793,0.183958,-0.131287,-0.130541,-0.087625,0.030807,-0.062898,-0.031711,-0.134827,-0.097941,0.015370,-0.090905,0.040303,0.093879},
      {0.010145,0.099503,-0.091780,-0.305745,-0.025415,-0.087675,0.023235,-0.095237,-0.137505,0.000050,0.030506,0.157397,0.044820,-0.207092,-0.017307,-0.034060,-0.105611,0.133441,0.019257,0.012692,-0.220280,-0.143039,0.099184,-0.282229,-0.005519,0.114335,-0.031853,-0.074714,0.147395,-0.210527,0.036419,0.145310},
      {-0.788589,-0.009011,-0.041093,-0.255519,0.103502,-0.304310,0.124025,-0.032170,-0.241235,0.234690,-0.083542,-0.532116,-0.031715,0.237520,-0.162100,0.218570,-0.016773,-0.197599,-0.265844,-0.103027,0.026601,-0.082361,-0.059851,0.376343,0.097994,0.156791,-0.005066,-0.462448,-0.477876,0.205448,0.018148,0.102041},
      {-0.093368,-0.040751,-0.052486,0.309530,0.118373,0.042074,-0.059563,0.155324,-0.249893,-0.115614,0.030080,-0.245326,0.002616,0.252414,-0.085180,-0.155620,-0.225424,0.052717,-0.080181,0.105387,0.249402,-0.128422,-0.018938,0.157202,-0.131238,0.228612,-0.081619,0.035768,0.331766,-0.152795,0.504559,0.048531},
      {0.110914,-0.033494,0.102824,0.114273,0.240737,-0.082262,-0.155039,-0.246861,-0.045541,0.242477,-0.415928,0.082739,-0.010098,-0.076248,-0.025017,-0.051294,-0.210264,-0.236900,0.143305,0.029522,-0.004601,-0.092672,0.101869,-0.227009,0.046193,0.100520,0.066474,-0.120099,0.033904,-0.174836,0.144307,0.053103},
      {-0.235264,0.029024,0.254990,-0.067018,0.340386,0.135239,0.107842,0.101308,-0.284226,-0.069485,-0.128464,-0.327375,-0.185914,-0.212745,-0.025669,0.221443,-0.120651,-0.014662,-0.040493,-0.058637,-0.242131,-0.319139,0.024831,-0.134657,-0.433012,-0.050884,-0.401049,0.168214,0.201318,-0.206840,0.108698,-0.131379},
      {-0.019987,0.109812,0.011081,0.107020,-0.179844,-0.177723,-0.044137,0.054459,-0.036560,0.056079,-0.318133,-0.021241,-0.040516,0.037140,-0.083893,-0.112885,-0.213150,-0.099885,-0.100521,-0.094566,-0.301141,-0.040223,0.176507,-0.074720,0.118583,0.068851,0.037870,0.048523,0.040211,-0.182522,-0.310580,0.076949},
      {-0.204516,-0.004357,0.377391,-0.058061,0.339310,-0.058685,0.289920,0.082847,-0.171999,0.022839,0.189542,-0.120243,-0.143967,-0.429198,-0.163163,-0.342669,-0.029457,0.084684,0.007379,-0.211428,-0.420646,-0.231783,0.087626,0.328659,-0.055972,0.082633,-0.011677,0.334147,0.087229,0.054900,0.082423,-0.066399},
      {-0.020425,0.044679,-0.287610,-0.120815,0.235084,0.074823,-0.015151,0.013450,-0.139679,0.088412,0.109563,0.062197,-0.001540,-0.162666,0.042615,-0.081285,-0.045940,0.381234,0.069948,-0.052812,-0.021381,-0.064094,0.070853,0.122342,-0.063725,0.020580,-0.091053,0.117199,0.005567,-0.055950,0.069282,-0.060883},
      {0.072142,-0.538351,-0.263740,0.089384,0.035169,0.122504,0.076957,0.115758,-0.048522,-0.280486,0.083163,-0.093441,0.215960,-0.156647,0.156766,-0.021483,-0.077151,-0.089014,-0.361572,-0.141605,0.044557,-0.468501,-0.150645,0.247786,0.243059,-0.230281,0.151932,0.052441,-0.195028,-0.142616,-0.137560,-0.188703},
      {-0.272556,-0.071741,0.248093,0.087845,-0.057937,0.294873,-0.163186,-0.139765,0.221033,0.239812,0.083926,0.286656,-0.180461,-0.156961,-0.014251,-0.231500,0.027959,-0.068177,-0.181669,-0.185054,-0.029323,0.088808,-0.627104,0.003695,-0.059421,-0.546938,-0.114699,-0.022992,0.252747,0.189580,0.033039,-0.042628},
      {-0.157492,0.012198,0.211655,0.206381,0.024582,0.058731,-0.141405,-0.279841,0.529064,0.018917,0.270449,-0.120538,0.067194,0.040805,0.002579,0.499897,0.007703,-0.357441,-0.124765,-0.017089,-0.242665,0.115799,0.432658,-0.153513,0.136822,-0.063794,-0.383072,0.021060,0.209851,-0.059344,-0.086443,-0.226572},
      {-0.014305,0.077740,0.200820,0.059916,-0.213588,-0.169839,-0.110575,-0.013824,0.115262,0.301229,0.078824,0.018340,0.114735,-0.027126,0.068043,0.126977,-0.134049,0.138255,-0.132867,-0.030790,0.141367,0.025407,0.095749,-0.182774,-0.098632,0.021699,-0.314014,0.075691,-0.146421,0.091819,-0.059830,0.093758},
      {0.364567,-0.192551,-0.007108,0.213199,0.261859,0.062764,-0.099083,-0.218369,-0.276410,0.184416,-0.411426,-0.159487,-0.157492,0.029956,-0.032047,0.116019,-0.369803,0.048830,-0.048074,-0.015291,0.111435,0.290413,0.052112,-0.015830,0.119950,-0.191633,0.110456,0.103990,-0.203423,-0.047799,-0.152110,0.072955},
      {0.009455,-0.207786,0.333008,-0.167853,-0.005294,-0.033111,0.037292,0.119229,-0.051231,0.014918,0.061617,0.061151,0.039062,0.048112,0.006435,-0.051788,0.019913,0.152494,0.099043,0.036280,-0.042463,0.074136,0.110350,-0.024873,0.280693,0.077086,0.057769,0.481809,-0.129418,0.263028,0.349716,-0.020386},
      {0.033874,-0.105353,0.414017,-0.062617,0.342407,-0.013033,0.188696,-0.234711,0.018076,0.121982,0.169119,0.090499,-0.039518,0.051535,0.193678,0.096227,-0.049431,0.009525,-0.139387,-0.032116,-0.016873,-0.081731,0.076920,-0.156028,-0.138457,0.226568,0.400989,-0.140639,0.030762,0.098148,0.098228,-0.064520},
      {-0.626866,-0.223372,0.183879,-0.036713,-0.342460,0.119937,-0.217189,-0.306417,0.089351,0.438577,0.032867,-0.368432,0.074725,0.103527,-0.140660,0.000060,-0.160691,0.454006,-0.176277,0.004442,0.025684,-0.501278,0.028671,0.121304,-0.135577,0.046006,0.162127,0.248163,-0.307825,0.090891,-0.231266,-0.087992},
      {0.099831,0.028465,-0.010703,0.224631,0.082352,0.007347,-0.039673,0.186501,0.044821,0.016706,-0.024409,-0.048561,-0.158173,0.274581,-0.077618,0.010444,-0.001443,0.074407,-0.304510,-0.152807,-0.104428,0.227922,0.007702,0.341859,-0.001387,-0.088532,0.111734,0.117548,-0.105666,0.029342,-0.328875,-0.276706},
      {0.167545,0.285134,-0.095867,0.188544,-0.017533,0.743617,-0.031433,-0.002230,-0.123715,0.179756,0.008220,0.144588,0.518471,-0.037527,-0.275745,-0.042497,0.016831,0.064681,0.017822,-0.197666,0.158259,0.052367,-0.025151,0.362349,-0.236790,0.230457,-0.113917,0.060804,-0.141443,0.069509,-0.038335,-0.056121},
      {-0.001938,0.227911,-0.190086,-0.063310,0.233764,-0.017388,0.039589,-0.016201,-0.251384,0.181104,0.113946,0.039529,0.063722,0.022479,-0.081636,-0.021158,-0.067800,0.032289,-0.029012,-0.132308,-0.161769,0.019953,-0.110373,0.122023,0.014413,-0.233471,0.082687,0.025615,-0.019713,-0.012418,0.289688,-0.135751},
      {0.158503,-0.092179,0.362582,0.071049,-0.151779,0.042158,0.282377,0.031203,0.181936,-0.043552,0.119914,0.001220,-0.092442,-0.136939,0.110283,-0.027735,0.031236,-0.218093,0.037067,0.107681,0.186900,0.051586,-0.101236,-0.303720,0.059903,0.102755,-0.013393,0.126310,0.047784,0.070553,-0.112236,0.164591},
      {0.031723,-0.012897,-0.094069,-0.159054,-0.072313,-0.107166,-0.188896,-0.268490,-0.065108,0.041615,-0.005676,0.045623,-0.065371,-0.191933,-0.133585,0.008505,-0.086922,0.019686,-0.022681,-0.147264,-0.204747,-0.136270,0.227190,0.013443,0.124057,0.106909,-0.032376,-0.038213,0.012134,-0.088381,-0.009016,0.081109},
      {-0.047619,0.143993,-0.014617,-0.198461,0.213383,-0.011469,0.110624,-0.021773,-0.221935,-0.088134,-0.273745,0.076461,-0.175577,0.011562,0.051533,0.214301,-0.104153,-0.174987,0.094255,-0.278124,0.318845,-0.193742,-0.035839,-0.162819,-0.142608,-0.029470,-0.162532,0.302204,0.148644,0.232547,-0.197977,-0.012317},
      {-0.049868,-0.101720,0.014594,0.232237,0.131345,0.110884,0.008545,0.141651,-0.143466,-0.005049,0.030224,-0.079833,0.136887,-0.124241,-0.002042,-0.187553,0.189926,0.276571,-0.138126,0.202073,-0.037438,-0.119110,0.309746,0.155490,0.355027,-0.376642,0.059806,-0.266663,0.176170,0.146888,0.185465,0.068335},
      {0.334082,0.044448,0.173865,-0.149719,-0.101921,0.952975,0.001216,-0.024708,-0.007933,0.227619,-0.171018,-0.106045,0.233650,0.272554,-0.328853,-0.186037,0.066807,-0.277150,0.085205,-0.031248,0.006397,-0.261359,0.156259,0.256416,-0.168950,0.086651,0.057145,0.025105,0.069382,0.066713,-0.145374,0.030591},
      {0.066078,0.005366,-0.462853,0.016854,0.358173,-0.052920,-0.082394,-0.075316,-0.087384,0.139572,0.448869,0.122848,0.063586,-0.404241,-0.010727,-0.182540,-0.098471,-0.064193,0.428460,-0.025396,0.138387,-0.230461,0.078295,0.035763,0.058522,0.107518,-0.131899,0.063623,0.036908,-0.075714,0.017816,0.062643},
      {-0.129885,0.014006,-0.173672,-0.044045,0.232872,0.133977,0.049029,0.040469,-0.029233,0.024960,0.070985,0.070741,-0.036524,-0.000852,-0.005740,0.066451,0.161521,0.003814,0.115000,-0.007989,-0.090146,0.103047,-0.013948,0.087524,0.156055,-0.179127,0.314298,0.059769,-0.056815,0.016168,0.070684,-0.021814},
      {-0.099578,-0.151535,0.083245,0.154318,-0.332776,-0.121501,-0.099767,-0.262057,-0.199883,-0.196017,-0.275549,0.045344,0.221821,0.223728,0.083409,-0.008347,0.189459,0.390130,0.286728,-0.042900,0.135798,-0.159875,-0.182381,0.029206,-0.262178,-0.155043,-0.072906,-0.154311,-0.146332,0.053577,0.057105,0.347122},
      {-0.166822,0.058300,-0.155679,-0.278051,-0.416940,0.193025,-0.218059,0.184254,-0.043317,0.058177,-0.206602,0.124113,-0.116819,0.253446,-0.011930,0.060393,0.090560,0.148555,-0.219551,0.112805,0.288096,0.155133,0.094913,-0.742997,0.281466,0.021430,-0.336752,0.169697,0.024897,0.025379,0.163219,0.111406},
      {-0.411945,0.192159,-0.024920,0.308199,-0.133929,0.048259,0.217161,-0.049807,-0.133049,0.038369,-0.136876,-0.023757,0.492473,-0.358625,0.012593,0.392956,-0.138591,0.174879,-0.176796,0.253220,0.068373,-0.269191,-0.519340,-0.317577,0.049692,0.127905,0.166504,0.023696,0.021693,0.022603,-0.070036,-0.095480}
    }
  }
};
