#pragma once

#include "C:\Users\Baron\Desktop\EE_297_Repo\EE_297\hardware_imp\vitis_hls\lane_seg_hls\lane_seg_top.h"

// Auto-generated with BN folded

data_t enc4_ir3_exp_w[1][1][24][144] = {
  {
    {
      {-0.042862,-0.025493,0.069519,-0.023624,-0.036788,-0.029559,-0.034437,-0.024411,-0.005380,0.011524,0.142444,0.083820,0.013266,-0.065193,-0.117668,-0.014163,-0.121710,0.011249,0.045906,0.109008,-0.025577,-0.043793,0.003397,-0.115740,0.088701,-0.016738,-0.032700,-0.059150,0.087430,-0.012352,-0.023061,0.117774,0.005448,0.038372,0.069266,0.077344,0.046071,0.030464,0.002588,-0.055504,-0.010338,0.038553,-0.071462,-0.104355,-0.115410,0.009409,-0.081853,0.040645,-0.006172,0.041887,-0.031019,0.023577,-0.079788,0.008158,0.036855,0.017446,0.002866,0.058972,0.055313,-0.019316,0.066015,0.040547,-0.002916,-0.002633,0.017510,-0.081218,0.007382,0.133766,-0.017710,-0.031597,-0.014188,0.040828,-0.018032,-0.106325,-0.066079,-0.004942,0.024871,0.022953,-0.020254,-0.006052,-0.023254,0.012603,0.038914,0.055941,-0.033538,0.080289,-0.020192,0.047100,0.130528,0.024975,0.086632,-0.012090,0.017609,0.015105,0.080523,0.011656,0.031640,-0.004495,0.006067,0.033934,-0.004567,-0.020543,0.068989,-0.087739,-0.079172,0.025666,0.019961,-0.029933,-0.011748,-0.052851,0.005012,0.078408,0.008436,0.020615,-0.054821,-0.014799,-0.036978,0.087848,0.008214,0.021324,-0.022746,0.020570,-0.035879,0.059892,-0.049410,0.035331,0.007999,0.043062,-0.014582,0.103161,-0.065121,0.016506,-0.019670,-0.002525,0.015303,-0.012520,-0.029362,-0.070597,0.005325,0.038727,0.005428,0.070111,0.068436,-0.045943},
      {-0.063742,0.014444,0.054969,0.000085,-0.017225,-0.029185,0.062210,0.039884,-0.031506,0.056500,-0.006660,-0.045793,-0.025535,0.046197,0.058969,-0.013206,-0.091310,0.054938,-0.100390,-0.013492,-0.056889,0.087347,-0.007391,-0.028997,-0.032782,0.012744,0.015106,-0.050237,-0.011911,-0.012971,-0.053456,0.043277,0.009755,-0.102334,-0.034461,0.070050,0.042368,0.003884,0.013087,-0.051605,-0.010744,-0.256599,0.004282,-0.013894,0.008820,0.031299,-0.047404,0.003997,-0.025585,-0.004020,-0.039776,0.012573,0.160601,-0.074792,0.053847,-0.081251,-0.010053,-0.025444,-0.039485,0.001774,0.064772,0.055073,0.005096,0.009592,-0.112405,-0.018519,-0.085029,0.035312,0.067009,-0.093078,-0.024481,-0.090806,-0.027121,0.042182,0.011398,-0.010965,0.048196,-0.041167,0.008687,-0.038752,-0.103972,-0.008611,0.010249,0.033046,0.005834,-0.012847,-0.025713,-0.114341,0.101806,0.039806,-0.084994,-0.101666,0.032319,-0.059026,0.037276,0.004620,-0.034840,-0.030366,-0.008747,-0.074404,-0.107314,0.019734,-0.137279,0.028986,-0.052656,-0.072250,0.012305,-0.010832,0.019304,-0.083279,-0.009171,-0.035393,-0.116667,0.075810,0.017884,-0.001953,-0.032058,0.010973,0.041935,0.044240,-0.002212,0.095319,-0.005903,-0.092303,-0.025943,0.024464,0.102225,-0.034499,0.035481,-0.035824,-0.064098,0.008451,0.117499,0.004910,0.001231,-0.007378,0.063132,0.038853,-0.128693,0.037985,0.007126,0.002061,-0.008098,-0.077926},
      {0.081111,0.000409,-0.026757,0.013840,-0.004540,-0.056863,-0.091840,-0.046866,-0.062751,-0.124381,-0.011849,0.041778,0.010402,0.067563,-0.023569,0.013542,-0.015000,-0.011355,0.059051,-0.046968,-0.036202,-0.035735,0.081724,-0.067574,-0.062617,0.007226,0.001969,-0.061070,0.046251,0.086772,0.045874,0.146134,0.004476,0.022103,-0.051584,-0.018681,0.025091,-0.078718,-0.003604,-0.018690,-0.104092,-0.003191,-0.049001,0.003139,-0.068007,-0.020202,0.049615,0.020884,0.006101,0.010026,0.006236,0.023804,-0.081878,0.027859,-0.122765,-0.014470,-0.069288,-0.000234,0.045222,0.009830,0.063698,0.017712,0.011252,0.013473,-0.016999,-0.076694,0.125071,0.011310,0.046372,-0.133349,-0.021342,-0.018208,0.020334,-0.096367,-0.060360,0.061694,-0.038923,-0.050881,-0.008671,-0.002348,-0.034553,-0.025711,0.014646,-0.073254,-0.058696,0.015107,0.016987,-0.102754,-0.051851,0.050899,0.025032,-0.030064,-0.079355,0.002356,0.076665,-0.004211,0.002798,-0.062333,0.003975,-0.011844,-0.019314,0.020547,0.083113,-0.086164,0.013005,-0.137031,-0.022076,-0.024615,-0.011380,-0.013847,0.007228,0.055181,0.001762,-0.007337,0.032272,0.006614,0.021317,-0.045746,0.011213,-0.004651,-0.004727,-0.068153,0.007812,-0.071779,0.027021,0.163905,-0.049669,-0.062170,-0.091006,-0.030920,-0.056075,0.016808,0.071930,0.009839,0.046784,0.008611,0.124995,0.057673,0.040440,-0.032461,-0.024705,0.038160,-0.114322,-0.046445},
      {-0.013463,-0.014153,0.089127,-0.038834,0.010595,0.042897,0.048163,0.024674,-0.025695,0.071286,-0.067194,-0.061285,-0.010199,0.007810,0.093689,0.036639,0.013354,0.006454,-0.062538,0.024019,0.000660,-0.013014,-0.072402,0.021266,0.035207,-0.000710,-0.025858,0.064706,-0.089108,0.036836,0.000862,0.044138,-0.011166,-0.077012,0.014116,0.015530,-0.079490,-0.019730,0.042019,-0.176679,-0.010857,0.101218,-0.029485,0.033597,0.019808,0.027402,-0.062326,-0.012096,-0.015322,-0.069647,0.019211,-0.004678,0.010107,-0.130929,-0.031228,0.029926,0.044649,-0.035766,-0.074340,-0.023366,-0.022614,0.015540,-0.018192,-0.027316,0.042753,0.107454,0.062097,-0.018541,-0.000399,-0.084788,0.008350,-0.035665,0.016988,0.010203,0.053231,-0.007439,0.085865,0.044499,-0.031501,-0.008559,0.059610,-0.022805,0.025959,-0.065130,-0.041754,0.046956,0.004027,-0.100288,0.023739,-0.000749,-0.048017,-0.016066,-0.031674,0.064088,-0.049696,0.026470,-0.087834,-0.006562,-0.010919,-0.052392,0.008195,-0.007926,-0.024962,0.063402,0.060786,-0.008023,0.033644,-0.001339,-0.036509,-0.112455,-0.026812,-0.102094,-0.024564,-0.045927,-0.015214,-0.025295,-0.014064,-0.070803,-0.015176,0.015407,-0.007332,-0.032836,-0.038278,0.047560,-0.078029,0.066317,-0.005523,-0.022139,-0.061102,-0.127140,0.066763,0.000265,-0.185460,-0.008085,-0.022286,-0.035851,0.050968,0.021065,-0.067468,0.064652,0.039806,-0.102282,-0.040607,0.023520},
      {-0.000995,-0.005107,-0.004413,-0.023842,0.056799,0.017589,0.030996,0.030672,0.019495,0.069369,-0.124442,0.064073,0.034009,-0.021932,-0.085487,0.103373,0.036817,-0.087022,-0.074384,-0.034259,-0.108659,0.023038,-0.013348,-0.068667,-0.016348,-0.030741,-0.008908,-0.032462,-0.058681,-0.045934,0.029900,-0.115452,-0.003279,-0.039178,0.034328,-0.116402,-0.039446,0.039126,0.001017,0.045340,0.122585,-0.033011,-0.017584,-0.037517,0.005227,0.110998,-0.013555,0.001168,-0.020810,-0.000593,-0.030769,0.034273,0.062546,-0.075240,-0.047946,-0.050534,-0.143405,0.067615,-0.041401,-0.003271,0.051297,-0.034700,-0.004425,-0.004689,-0.060676,0.073555,0.019299,-0.013017,0.009659,-0.005857,0.040504,-0.074774,-0.063099,-0.032140,-0.104531,-0.075409,0.023684,0.008851,0.044255,-0.022785,0.107020,-0.009366,0.022229,0.013128,0.005316,-0.015824,-0.027340,-0.026420,-0.242210,-0.076629,-0.051735,0.002953,0.031652,-0.099056,-0.028606,0.012285,0.037535,-0.014082,-0.037012,-0.050941,-0.053322,0.006365,-0.028275,0.039022,-0.040014,-0.039936,0.017193,0.008178,-0.012312,-0.036289,-0.013258,-0.122854,-0.021709,0.007479,-0.003040,-0.009872,0.068292,-0.004549,0.010937,-0.044005,0.006673,-0.082697,-0.002065,-0.023653,0.002049,-0.066101,-0.067262,0.005666,-0.061789,0.035442,0.029409,-0.011303,0.041706,-0.027143,0.056629,-0.016951,-0.025428,-0.015784,-0.025284,0.031769,-0.033759,-0.091337,0.015794,0.067987},
      {-0.032522,-0.006493,0.025565,-0.024620,-0.035932,0.025282,0.020774,0.001569,-0.012057,0.033306,0.072506,0.035350,0.012201,-0.064155,-0.091785,-0.073209,0.040346,0.036171,-0.035492,-0.034387,0.054001,0.020148,-0.056429,-0.108567,0.044280,0.034262,-0.000749,-0.000668,-0.061422,-0.098517,0.109728,-0.080463,0.005880,0.003667,-0.022369,0.028009,-0.046424,-0.131362,0.022237,0.102484,0.124584,-0.088280,-0.020150,-0.044820,-0.015052,-0.001792,-0.003839,-0.049084,-0.010489,0.009239,-0.017899,0.042278,0.066683,-0.006461,-0.152812,-0.026459,0.086885,-0.096418,0.014085,-0.020121,-0.029919,-0.030398,-0.007523,-0.010631,-0.040814,-0.009258,0.136311,-0.015343,-0.020065,0.013978,-0.027211,0.030692,0.014567,0.053665,0.114684,0.083504,0.029558,0.028305,-0.004748,0.042719,-0.085620,0.003093,-0.019827,-0.015659,-0.052341,0.013202,-0.072063,0.040263,0.035318,0.002425,0.025403,-0.057031,-0.103474,-0.101237,-0.113075,0.008853,-0.073633,0.021487,0.019706,0.061817,-0.015487,-0.004513,-0.040937,0.001742,0.081650,-0.013818,-0.041573,-0.002714,0.016697,-0.049565,0.015938,0.000143,-0.067883,0.024447,-0.007727,-0.002375,-0.004352,0.076635,-0.045928,-0.024698,-0.009140,0.037880,-0.011851,-0.027284,-0.056302,-0.108359,0.012622,-0.060529,-0.140756,0.142283,0.016653,-0.000330,0.002708,0.046086,-0.027449,-0.016583,-0.070294,-0.078659,-0.047711,0.032696,0.050026,0.003131,-0.057514,-0.021996},
      {0.055441,0.005491,0.043270,-0.046898,-0.017715,-0.022944,-0.077145,-0.029297,0.093734,-0.058457,-0.006304,0.003315,0.041339,-0.027818,0.031970,0.032175,0.131870,-0.006769,0.055901,-0.048922,0.037661,-0.063808,0.059518,-0.002379,-0.115878,0.030905,-0.000409,-0.030724,-0.057588,0.025839,0.017940,0.099754,0.005869,0.036276,-0.055435,0.013310,-0.138422,0.061760,0.082225,-0.032272,-0.096046,0.050632,-0.065136,0.020627,0.042314,-0.089365,0.061647,0.004101,0.009112,-0.009579,0.013142,0.029289,-0.080589,0.000416,0.042689,-0.013197,0.046954,-0.073714,-0.022372,0.021455,-0.036091,-0.060756,0.000168,-0.007629,-0.054026,0.066807,-0.001638,-0.022558,-0.009294,-0.023280,0.001854,-0.113581,0.056838,-0.011494,0.150308,0.009813,0.022130,0.111604,-0.014756,0.002870,-0.044476,0.003221,-0.009421,0.030744,-0.071163,-0.001509,-0.045253,0.031672,-0.048019,-0.016628,0.021539,-0.006715,0.032957,0.028090,0.008608,0.003330,0.059535,-0.005432,-0.014552,0.020145,-0.023845,-0.009200,0.090836,-0.054345,0.130813,0.010177,-0.012092,0.015704,-0.003869,-0.004404,-0.022976,-0.018250,-0.012583,0.050970,0.010776,-0.003332,-0.028471,0.014525,-0.004568,-0.026841,0.003179,-0.021266,0.013536,-0.053888,0.009268,0.037547,-0.005800,-0.032509,-0.006080,-0.006250,-0.055597,0.017964,0.037996,0.021017,-0.011673,0.005143,-0.034482,-0.022178,0.002577,0.082902,-0.014520,0.025854,-0.044602,-0.050207},
      {0.211233,-0.011919,0.074690,0.054641,-0.026414,-0.048785,-0.070310,0.010406,-0.078367,0.132026,-0.021101,0.028562,0.021804,-0.005815,-0.034589,0.110880,-0.031869,0.074316,-0.010715,-0.025217,0.031990,0.001593,-0.145830,-0.012088,-0.094459,0.001168,-0.010568,-0.025525,-0.030704,-0.087522,-0.007637,0.008295,-0.011096,-0.031953,0.188234,-0.153512,0.092449,-0.045336,0.142579,-0.035308,0.121879,0.024149,-0.049510,-0.007772,0.035471,0.054909,0.046142,0.046471,0.007699,-0.012300,-0.049723,-0.086461,-0.031073,-0.155378,0.024870,-0.010885,0.016671,-0.040821,-0.040067,0.012198,-0.024955,0.080631,0.004825,-0.001448,-0.007912,0.075580,-0.013061,0.016029,0.064088,0.037671,-0.017862,-0.054603,0.088528,-0.039446,-0.008175,0.021734,0.040690,-0.038983,-0.013099,-0.020910,0.020545,-0.045384,0.039740,0.090366,-0.055318,0.030491,0.121038,-0.005251,0.236995,0.027742,0.017646,-0.086824,0.007841,0.079988,0.170951,-0.011676,0.027210,-0.038773,-0.026223,0.004427,-0.000308,0.040777,0.031949,-0.040109,-0.015196,-0.022512,-0.001593,-0.010899,0.006495,0.014950,-0.020379,0.052144,-0.019543,0.041132,0.022447,0.011682,0.008577,0.022871,-0.007114,-0.077538,0.035636,-0.205608,0.033630,-0.097745,0.108777,0.097206,-0.010333,-0.024048,-0.018958,0.019980,-0.064866,-0.023770,0.022988,0.012179,-0.009377,0.039829,-0.048215,-0.027222,0.022475,0.025043,-0.006895,0.005830,-0.037916,-0.077126},
      {0.002636,-0.006550,-0.021800,-0.029442,0.018026,-0.008876,0.035753,0.137635,0.031679,-0.019222,0.015719,0.039051,-0.027068,0.028079,0.002806,-0.058202,0.063710,0.138286,-0.086092,-0.042455,-0.065194,-0.070287,0.058669,0.008095,0.096227,0.076147,-0.013015,-0.117497,-0.016250,-0.086534,-0.015160,-0.019826,0.002077,-0.036848,-0.027201,-0.037205,-0.026159,0.000849,-0.029427,-0.034393,-0.026253,0.029457,-0.029228,0.081982,0.123100,-0.057252,-0.026476,0.042039,0.003564,0.146299,-0.028126,0.073632,-0.001515,-0.035082,0.046136,-0.048421,0.062946,0.014021,0.036029,-0.013860,-0.120758,0.059212,-0.002474,-0.013796,-0.019691,0.018853,-0.071478,-0.086534,0.100862,-0.126116,0.031362,0.041193,0.200454,0.050884,0.011048,-0.012369,0.045459,-0.056215,0.038300,0.009157,0.014031,0.005834,0.001079,0.053338,-0.019424,-0.023843,-0.040832,-0.038750,-0.083108,0.021075,-0.025643,-0.120961,0.008806,-0.043392,-0.051969,0.000878,0.042509,-0.026385,0.003438,-0.051022,-0.068385,-0.000424,0.069988,-0.003873,-0.048263,0.164884,0.001383,0.016330,0.075562,0.011082,-0.006934,-0.026201,0.058353,0.178066,-0.010882,-0.014565,0.055166,0.008839,-0.026164,-0.000841,0.001429,-0.031023,-0.003209,-0.122378,-0.024252,0.063084,-0.084056,-0.009740,0.007560,-0.094213,-0.076057,0.001202,-0.019198,0.079017,-0.013877,0.010634,-0.019237,0.044802,0.064263,-0.048934,0.045845,0.060592,-0.003159,-0.077669},
      {-0.021786,-0.036924,-0.108695,-0.000939,-0.049061,-0.053113,-0.064916,-0.041503,0.030666,-0.031920,0.091314,-0.063605,0.010865,-0.073133,0.101204,-0.114956,-0.070230,0.035618,-0.017694,0.135856,-0.004382,0.028793,-0.005170,0.030720,-0.178440,0.000054,-0.033746,-0.001268,0.053092,-0.097302,0.067686,0.051427,-0.015849,-0.089349,-0.055352,0.012220,-0.050719,0.063190,-0.072217,-0.199712,-0.020240,-0.018419,0.104922,-0.011077,0.000946,0.035234,0.025978,0.061153,0.032254,-0.022493,-0.060157,-0.048938,0.017675,0.179442,-0.057623,-0.012591,-0.110909,0.057343,-0.038448,0.041583,-0.044987,-0.134237,-0.004478,-0.004845,-0.024454,-0.026303,0.086664,-0.053721,0.003102,0.060041,0.019620,0.075060,0.047972,-0.022991,-0.051332,-0.055918,-0.083805,-0.035042,-0.053776,0.029757,0.000512,0.014115,-0.012042,0.011521,0.043031,0.031053,0.039680,0.106145,-0.101012,-0.077663,0.035484,0.048012,-0.054324,0.154426,0.045930,-0.001938,-0.036567,-0.050990,0.063068,0.043790,-0.003437,-0.024058,-0.062412,-0.038512,-0.089856,0.188956,-0.027755,-0.014474,-0.006066,-0.071957,0.030591,0.054013,-0.021094,-0.065475,-0.003248,0.007067,-0.045548,0.106669,-0.054865,0.040493,-0.035218,-0.015952,-0.006401,-0.069493,-0.110597,-0.055369,-0.037473,0.057897,-0.026955,-0.154671,-0.053156,0.002788,0.084951,0.004009,0.012205,0.043468,-0.021707,-0.045134,0.017584,-0.046094,-0.024261,-0.021783,-0.109293,-0.024960},
      {-0.094585,0.004241,0.002392,-0.048476,-0.026595,0.017777,-0.003273,0.033686,-0.005925,-0.034310,-0.016347,-0.030863,-0.007244,0.025726,0.052464,0.081235,-0.020033,0.074974,-0.033405,0.041639,-0.011296,0.029968,0.043130,0.118792,0.016835,-0.009441,0.003740,0.020859,0.023023,0.053487,0.079786,0.034389,-0.014038,-0.090085,-0.003381,0.077102,-0.127226,-0.036564,0.046427,0.103957,-0.074415,-0.066789,-0.037438,0.013988,-0.041628,-0.062692,0.025900,0.066497,-0.002654,-0.057399,-0.053550,0.023322,0.004332,0.003019,-0.006651,0.008138,-0.053195,0.063081,-0.024950,0.002415,-0.001217,0.033319,-0.018289,-0.023028,0.038832,0.020330,0.079851,0.050095,0.010094,0.058679,-0.001578,0.025972,0.036209,-0.084995,-0.072600,0.038752,-0.024532,0.010764,-0.066602,0.045169,-0.059461,0.046828,-0.012641,0.021164,-0.013811,-0.093483,0.050412,-0.028089,0.027419,0.053118,-0.051764,-0.017959,-0.018581,-0.026725,0.091204,0.013059,-0.081958,-0.010460,0.003254,-0.046891,-0.019020,-0.040550,-0.065201,0.029853,-0.014349,-0.016318,0.033413,0.031206,-0.024052,-0.013520,0.015619,0.060239,-0.088905,-0.069230,-0.080779,-0.017430,-0.001036,-0.084364,-0.026220,-0.002352,-0.006178,0.113862,-0.037312,0.013150,0.033897,-0.046589,0.026958,0.026608,-0.074265,0.091587,0.040449,0.033290,0.005783,-0.012668,0.046110,0.000177,-0.018766,0.041474,-0.006905,0.028556,0.023963,0.027065,0.097268,-0.028113},
      {0.029042,-0.020448,0.020908,0.079814,-0.040258,0.036870,0.018386,0.068333,0.042387,-0.033270,-0.109999,0.062193,0.071515,0.004031,-0.030426,-0.076967,0.119835,0.055511,0.001254,0.103072,0.054963,-0.004701,0.040974,-0.031461,0.068289,0.011635,-0.019629,0.024712,-0.054876,-0.120281,-0.072759,0.075508,-0.091970,-0.026446,-0.044790,-0.201485,0.096179,0.079550,0.071859,-0.062682,-0.046693,-0.031958,-0.176560,-0.034922,0.049182,-0.051949,-0.046692,-0.060383,0.016632,0.004849,0.023684,0.016546,-0.020596,0.007786,-0.087859,0.027112,0.069087,-0.079535,0.023940,0.003755,0.002191,-0.135268,-0.016289,-0.027967,0.042361,-0.020963,0.037851,-0.007406,0.025010,-0.019684,0.059416,0.157250,0.023892,-0.064475,-0.072726,-0.254433,-0.034541,0.085986,-0.030753,0.026453,-0.114989,0.010460,-0.002269,-0.108037,-0.080036,-0.032516,0.057465,-0.038418,0.041071,-0.287624,-0.083589,-0.026854,0.037714,0.068201,-0.157167,0.011508,-0.040298,-0.001538,0.045795,-0.031643,0.015552,-0.014085,-0.053782,0.006490,0.035938,-0.021524,-0.025322,0.018884,-0.006567,-0.034809,-0.002382,-0.017314,-0.066705,-0.020464,-0.017627,-0.005268,0.009329,-0.054012,-0.061181,-0.066121,0.015085,-0.104951,-0.038097,0.029432,-0.087206,-0.008623,0.023216,0.070422,-0.021822,0.007922,0.106808,-0.103329,0.051215,0.012534,-0.014974,-0.012532,0.011799,0.014811,0.028469,0.015040,0.044345,-0.063758,0.040621,-0.029182},
      {0.035278,-0.046796,0.019818,-0.027277,0.139897,0.025798,0.036281,0.184332,0.048125,0.049292,-0.021079,0.003771,0.081827,-0.020763,0.003011,-0.058431,-0.047838,-0.072284,-0.151984,0.039667,0.066814,-0.012069,-0.050909,-0.046237,-0.099572,0.021481,-0.037403,-0.146342,-0.006841,0.135449,-0.052457,-0.024433,-0.019051,-0.121724,0.023757,-0.029103,-0.066085,-0.004495,-0.012483,-0.028241,0.088253,0.039285,-0.012519,0.007646,-0.192469,-0.008875,-0.002570,-0.020030,0.028465,0.097065,-0.045775,0.035878,0.027098,0.031044,-0.006010,-0.124462,0.060586,-0.042030,-0.079929,0.046674,0.008836,-0.101990,-0.019024,-0.021955,-0.198839,0.003678,0.021170,0.131031,-0.102887,0.081607,-0.020037,0.044497,0.033327,0.061641,0.018132,-0.021628,-0.050841,0.070639,0.049830,0.035853,0.035834,0.018113,-0.008296,-0.170852,-0.016924,-0.018006,0.008059,-0.042322,0.072585,-0.067479,0.104549,-0.114397,-0.002734,0.030199,-0.084833,0.014781,0.114295,0.023739,0.033043,0.047282,-0.115798,-0.029468,0.032812,-0.062674,-0.016199,-0.041025,-0.012081,0.017827,0.102192,-0.005947,0.008093,0.009156,-0.009527,0.241708,-0.084311,-0.010169,-0.004920,-0.128015,-0.051633,-0.015363,-0.007496,-0.021445,-0.038357,-0.040732,-0.021621,-0.097197,-0.120395,0.030949,-0.005062,0.045762,0.011053,-0.003383,0.115539,0.014324,0.057369,0.003003,0.027252,0.000398,0.065854,0.056170,-0.047477,0.029730,-0.062032,0.014775},
      {-0.083200,0.017389,0.029435,0.043316,0.009104,-0.025694,-0.014907,0.036965,-0.062411,0.033558,0.034653,-0.034913,-0.095236,-0.001350,-0.074236,0.090882,0.065047,0.060719,0.037008,0.084976,0.105252,-0.041876,-0.060448,0.095897,0.018216,0.033982,0.021568,-0.014035,0.019598,0.096253,0.057260,0.003306,-0.008168,0.056510,0.060495,0.139296,0.080511,0.066788,0.077944,0.081518,-0.066314,-0.094910,-0.014783,0.090605,0.084666,0.058099,0.014862,-0.006072,0.001447,0.079380,0.186119,-0.141329,-0.066178,0.001345,-0.005305,-0.014466,-0.026918,0.065636,0.013995,0.007568,0.048158,0.073983,0.009843,0.012105,-0.014020,0.030672,0.121216,-0.054902,-0.113611,0.115172,0.010851,-0.001378,0.076147,-0.084969,0.048669,0.010834,0.040635,-0.004832,0.048397,-0.055738,-0.059666,0.000809,0.015631,-0.055227,-0.076136,0.035724,-0.021279,0.032343,0.046635,0.035142,0.044515,-0.030923,-0.043348,0.073189,0.070554,-0.009797,0.052802,-0.007298,-0.017160,0.037102,-0.038306,-0.006204,0.075186,-0.027057,0.108644,0.019898,0.040447,-0.022418,0.037255,-0.009680,-0.011702,0.047872,0.038373,0.122746,0.120093,0.008688,0.040527,-0.007222,0.053539,0.078312,-0.010739,0.099760,0.042371,-0.002727,-0.034468,0.004089,0.018930,-0.011101,0.009449,0.025186,-0.056751,-0.004574,0.077398,-0.011133,-0.053974,0.003007,0.012574,0.022055,0.082052,-0.019551,0.005765,-0.030267,0.088388,-0.019649},
      {-0.126278,-0.015604,0.010672,0.024038,-0.003225,0.019742,-0.066942,-0.021690,0.036398,-0.084716,0.068576,0.007054,0.049099,-0.060397,-0.011063,0.028083,-0.031535,0.007954,0.020937,-0.041402,0.030056,-0.007432,0.059654,-0.059825,-0.027460,0.022140,-0.021004,-0.002402,-0.069905,-0.034017,-0.020694,-0.041860,-0.048218,-0.049130,-0.087538,0.094331,-0.014182,0.029239,0.135312,-0.017914,0.020461,-0.021959,-0.067552,-0.076410,-0.076385,0.022345,0.001869,-0.016052,0.009423,-0.039633,-0.076661,0.071936,0.013485,-0.062712,0.014044,-0.008222,0.047352,-0.069099,-0.037333,-0.003469,-0.086579,-0.034640,-0.010070,-0.022121,0.022996,0.065309,-0.005043,0.043256,-0.046331,-0.027799,-0.005167,-0.014197,0.052806,0.026235,0.013060,-0.106082,-0.051024,0.084497,-0.026961,0.028156,-0.008150,0.030028,-0.024087,-0.004681,-0.096171,0.059288,0.092507,0.036227,0.079191,-0.166816,-0.027294,-0.006870,0.037601,-0.054690,-0.004110,0.003033,-0.032958,-0.025080,-0.004158,-0.001296,0.012785,-0.025649,0.032291,-0.033160,0.095788,-0.062574,0.017458,0.015575,-0.001405,0.089998,-0.008999,-0.070585,-0.065352,-0.065865,-0.068577,-0.003851,0.047478,0.055596,-0.059094,0.118008,0.034557,0.148522,-0.016443,-0.080584,0.087508,-0.043248,-0.045177,0.082437,0.083185,-0.015678,0.061126,-0.047159,0.003250,0.032702,0.013841,0.016539,-0.052443,-0.061527,-0.003246,0.047116,0.027683,-0.064072,0.072825,-0.032775},
      {0.065498,0.024089,-0.011516,0.010644,0.131580,0.045096,0.125202,0.240745,-0.053424,-0.080811,0.071085,0.008213,-0.025483,-0.020558,-0.056049,0.017196,-0.005366,-0.037745,-0.168844,-0.032619,0.013413,0.019227,0.005539,-0.001923,0.035815,-0.056739,0.027602,0.011075,0.023162,-0.040511,-0.006617,0.064470,0.001743,-0.093558,0.006156,-0.018719,0.011832,-0.013228,-0.031058,0.005611,-0.121897,-0.041847,0.026262,-0.099482,0.072166,-0.038563,0.040836,0.013472,-0.008454,0.009090,0.061900,-0.068964,-0.039342,0.007138,0.011165,-0.099336,-0.014010,0.028025,-0.172578,0.006414,-0.018895,0.060987,-0.001938,0.000259,-0.143869,-0.028500,-0.006615,-0.070244,0.016671,-0.086608,0.006323,-0.001787,-0.093676,-0.051562,0.044105,0.029971,-0.033191,-0.071579,0.057746,-0.035886,-0.096154,-0.025629,0.015746,0.148860,0.012056,0.059203,0.057182,0.088559,-0.063953,0.072280,0.000728,-0.139423,-0.011336,0.010069,0.066763,-0.005346,0.003247,0.041476,-0.019959,0.016401,-0.091566,0.041463,0.007673,-0.015604,0.084664,-0.066637,0.005949,0.002516,0.080318,-0.033300,-0.003626,0.058734,-0.079469,0.188973,0.044374,-0.010914,0.019782,0.096102,0.021928,0.002164,0.013005,-0.089505,-0.022217,0.132456,0.003778,0.108372,-0.024536,0.004832,0.063148,-0.009878,0.154937,0.003254,-0.025548,-0.051800,0.010508,-0.044601,-0.048235,-0.046096,-0.022846,-0.044162,-0.035632,0.065053,-0.035703,0.059907},
      {-0.018733,0.001956,0.064262,-0.014195,0.047576,0.044394,-0.109733,-0.020716,-0.059837,0.045027,0.005719,0.012437,-0.022868,-0.035708,0.071237,0.061028,0.022163,-0.150445,0.086463,-0.004201,-0.054480,0.053819,0.006913,0.016874,-0.205772,-0.030725,0.011399,0.062177,-0.037018,-0.045095,-0.071561,-0.006407,0.003689,-0.016522,0.013300,0.016002,0.012549,-0.050578,0.002483,-0.025649,0.028766,0.069195,0.002998,-0.044723,0.019565,-0.011931,-0.051244,-0.044793,0.090647,-0.009816,0.009061,0.083216,-0.015111,-0.120919,0.012497,0.086585,0.063344,0.005818,0.044585,0.089442,0.029653,0.098856,-0.013029,-0.016634,0.106261,0.057290,0.006710,0.014904,0.008326,-0.148063,-0.007957,0.009789,0.028795,0.070905,-0.020806,0.022146,0.062129,-0.027125,-0.053734,-0.014255,0.064558,-0.010433,0.028640,0.049229,-0.003337,0.061714,-0.033350,-0.024657,0.070798,0.037916,-0.048183,0.217068,-0.004767,-0.064409,-0.063978,0.021614,0.071147,0.035968,-0.027505,-0.044442,0.083276,0.012649,-0.042915,0.006458,-0.014686,0.013758,0.036300,0.009818,0.010287,-0.051122,-0.009975,-0.111237,0.052396,-0.243378,-0.005353,-0.020617,-0.006837,0.009933,0.014618,-0.016190,0.003901,-0.004705,-0.046139,0.006634,-0.039398,0.076725,-0.127266,-0.039410,0.000790,-0.049935,0.173353,0.007048,0.308832,0.000352,-0.005330,-0.011718,-0.056227,-0.041410,0.269766,0.035332,-0.072883,-0.064468,0.015418,0.162722},
      {-0.031557,0.022028,0.024467,0.055291,0.035590,-0.042537,0.102453,0.062844,0.002371,-0.048398,0.066140,0.073624,-0.027412,-0.008348,0.122837,-0.008626,0.064534,-0.007270,-0.086777,0.038499,-0.182263,0.022595,0.155098,0.037274,-0.000212,-0.046782,0.025277,0.021209,0.044326,0.077779,0.118030,-0.041757,-0.008642,-0.008999,-0.047554,0.041520,0.081373,0.002957,0.042034,0.032821,0.051820,0.050209,0.074732,0.099837,0.046610,0.069428,0.026222,-0.008581,0.003853,0.049123,0.057191,0.155623,0.047080,0.076644,-0.089289,-0.009657,0.030201,-0.013236,-0.032647,0.000951,0.081051,0.043981,0.015585,0.021587,-0.038201,0.074849,0.097651,0.006674,-0.035480,-0.057944,0.008795,0.012637,-0.035458,0.050074,-0.002510,-0.004127,-0.020160,0.035253,0.043006,-0.011622,0.091702,0.012935,-0.000902,0.006718,0.077132,-0.003478,0.091171,0.066173,0.119790,-0.016570,0.054087,-0.051717,-0.053894,-0.033476,0.121631,-0.014187,0.046658,0.032521,0.014833,0.042958,-0.013695,-0.008700,-0.045641,0.096596,-0.132315,0.083594,0.009085,-0.032247,0.052643,0.033183,0.001178,-0.061774,0.082207,0.123022,0.069149,0.010929,-0.046299,0.046010,0.013817,0.011330,0.008631,0.077175,0.041281,0.061326,0.063591,0.046330,0.038735,0.005817,-0.074372,-0.074628,-0.085148,0.002162,-0.029843,-0.042566,-0.028884,0.001161,0.005421,-0.009046,-0.009824,-0.021053,-0.011006,-0.143046,0.044357,0.067165},
      {-0.063764,0.014059,0.013893,-0.007657,-0.015659,0.025399,0.043554,0.007452,-0.054893,0.018634,-0.069224,-0.163296,-0.024605,-0.166098,0.083520,0.042307,-0.005957,0.008068,-0.035289,-0.182201,-0.048998,0.004165,-0.037659,0.051188,0.113210,0.029934,0.028488,-0.036379,-0.080226,0.022151,-0.033771,0.077042,0.013559,0.022524,-0.035563,-0.116518,0.025541,-0.124953,-0.032032,-0.108738,-0.096315,-0.115322,-0.094918,0.007151,-0.088335,-0.039604,-0.067704,-0.027992,-0.019224,0.031263,0.061558,-0.006821,0.065681,-0.245590,-0.006167,0.000045,0.027838,-0.021391,0.063042,-0.022157,-0.000356,0.038327,-0.002667,0.004055,0.020343,-0.044554,-0.105935,-0.042385,-0.252716,-0.138462,0.022656,-0.086556,-0.025701,-0.027440,-0.044821,0.057129,0.099609,-0.070319,-0.000230,-0.010423,-0.072734,-0.027529,0.018757,-0.152950,0.002434,0.036734,-0.029615,0.044191,-0.142673,-0.000809,0.091358,0.003522,0.055662,-0.005160,-0.102492,0.001380,-0.017550,0.021555,-0.073269,0.131841,0.005879,0.025433,-0.059801,0.033103,-0.048756,0.018860,0.020373,0.004132,-0.006753,0.020390,-0.019559,-0.050385,-0.053555,-0.016249,-0.003712,-0.007184,0.095424,0.023850,0.031319,-0.022523,0.047106,0.000329,-0.015430,-0.023471,0.099669,0.075543,0.004017,-0.064098,-0.053372,-0.114446,0.042055,-0.008528,0.005373,0.028632,-0.002013,0.003749,-0.037982,-0.189558,-0.013323,-0.014592,0.010310,-0.009909,0.022897,-0.015845},
      {0.168998,-0.019987,0.024341,-0.012197,-0.094737,-0.030709,-0.015031,-0.022928,-0.000722,0.004991,0.056299,0.153605,0.055628,-0.041156,-0.073100,0.043632,0.039249,0.122877,0.021862,0.064149,-0.016294,0.024316,0.018036,-0.090904,0.029524,0.047327,-0.025345,0.046384,0.006415,0.143018,-0.083385,-0.086159,-0.014569,-0.076656,0.066837,-0.062868,-0.042306,0.056259,-0.007625,0.095716,0.104699,-0.035168,0.038307,0.070420,-0.079077,0.046093,0.046735,-0.031767,-0.009220,-0.051018,0.022745,0.037923,0.044415,0.033682,0.061193,0.035776,-0.023853,0.051437,0.007330,-0.003090,0.008802,0.048929,0.000826,-0.001159,0.051306,0.012450,0.037169,0.004085,-0.061869,-0.083246,-0.000153,-0.011810,0.090355,-0.024460,-0.000818,-0.019698,-0.039015,-0.020216,-0.072979,-0.021193,-0.055568,-0.011504,0.013463,-0.068627,-0.042884,0.068827,0.026738,0.041337,-0.005345,0.037265,0.203893,-0.020436,0.011532,-0.049010,-0.031143,0.010466,-0.108211,-0.003457,0.006077,0.086024,0.018042,0.006292,-0.071803,0.059367,0.061763,0.027831,0.019591,0.006969,-0.026488,-0.039587,-0.017378,-0.054515,-0.073209,-0.054853,0.016060,-0.018083,-0.046508,-0.020370,0.019247,-0.037675,-0.016108,-0.194757,0.001958,-0.038450,-0.054139,0.098951,0.099316,0.027437,0.086097,0.021565,-0.019830,0.018458,-0.054471,0.018641,-0.000357,-0.021598,-0.012329,-0.027333,-0.047383,-0.000138,0.084210,-0.020147,-0.061847,-0.061851},
      {0.133468,-0.039209,0.051866,0.028945,0.083254,0.043604,0.077210,-0.012317,-0.004151,0.014286,0.100545,0.038102,0.017363,-0.012773,0.111810,0.044708,-0.031331,-0.036776,-0.007500,0.115257,0.029962,-0.031507,0.054214,0.119491,0.214632,0.017695,-0.024066,0.029479,-0.008631,-0.053494,-0.016605,0.044473,-0.013566,0.067145,0.014420,0.035081,0.067060,0.040163,0.119882,-0.003738,0.011153,-0.232132,0.073469,-0.082837,-0.063847,0.010586,0.050645,0.004312,-0.087274,0.012494,-0.072115,0.044956,0.146568,0.064555,0.023230,-0.003694,-0.011875,0.004809,0.038702,-0.062598,0.069631,-0.027127,0.000355,-0.007066,0.054697,0.081753,0.117055,0.093999,0.060261,0.004021,-0.018467,0.058222,-0.029689,0.099301,0.049758,-0.027384,-0.047527,0.067567,0.084095,0.006159,0.019550,0.018275,0.002539,0.023587,0.004402,0.077424,-0.069952,0.013364,0.138635,-0.036976,0.006195,0.014082,-0.011829,0.091263,0.022061,0.001448,-0.005323,0.043560,0.026999,-0.050227,-0.006031,-0.017239,0.019622,0.108532,0.006802,-0.091426,-0.037068,0.009273,-0.065886,0.031047,0.021540,-0.065701,-0.026799,-0.043014,0.004089,-0.007376,0.057563,0.001619,-0.015519,-0.010089,-0.017708,-0.027604,-0.019359,-0.020915,-0.039116,0.056802,0.006779,0.045374,-0.014658,-0.085588,0.045056,-0.019378,-0.017326,0.018527,0.060259,-0.017746,-0.088394,-0.002519,-0.123009,0.069543,0.008628,0.012637,-0.051545,0.035498},
      {0.086712,-0.001389,-0.102894,0.000301,0.015960,0.056764,0.013589,-0.013277,0.081983,0.007634,-0.024072,0.111389,0.000739,0.059842,-0.085809,-0.106007,-0.031122,-0.029704,-0.002862,0.003591,-0.109871,0.094753,0.018493,-0.069082,0.021701,-0.024673,0.011933,0.067415,0.021953,0.155514,0.061668,-0.021190,0.002405,0.053067,0.039842,-0.005416,0.012770,0.046421,0.012628,-0.066117,0.024128,-0.156353,0.048280,0.096873,0.091552,0.059931,0.010658,0.148221,-0.022605,-0.088396,0.149683,0.014323,0.049171,0.100577,0.034599,0.027843,-0.018175,-0.035573,-0.044768,-0.004979,-0.155746,-0.009051,0.002477,0.002094,0.087486,0.084781,-0.086695,-0.116885,-0.011633,0.002339,0.028008,0.058673,-0.068491,0.071193,0.099386,-0.006039,-0.037466,0.001314,0.005144,0.005613,-0.009396,-0.024591,0.002104,-0.038412,0.053626,-0.063100,0.000730,0.052649,0.000873,-0.015783,0.079312,0.048510,0.004682,0.064341,0.173845,-0.016710,-0.041538,0.058160,0.007354,0.084909,0.018765,0.032536,-0.064929,0.041852,-0.027409,0.060834,-0.036527,-0.007573,-0.044302,0.064102,-0.010630,0.011477,-0.030530,-0.126378,0.004305,0.017452,0.029990,-0.011320,-0.029428,0.025448,-0.001362,-0.080989,0.011870,0.048381,0.010626,-0.002247,-0.009487,-0.000538,-0.003611,-0.046534,0.099073,-0.015947,0.062379,-0.043645,-0.031767,-0.009897,0.108098,0.079573,-0.022291,-0.037786,-0.029698,0.086495,-0.055112,0.044889},
      {0.000477,0.003572,-0.056764,0.020138,0.028302,-0.016325,0.048877,-0.003932,-0.015185,0.009160,-0.000945,0.038380,-0.017720,-0.001484,0.027561,0.036104,-0.072692,-0.071574,-0.054267,0.100876,-0.070741,-0.011377,0.024804,0.036681,-0.070755,-0.040483,-0.013242,-0.008018,0.032122,0.018669,0.016823,-0.018212,0.004694,0.033353,-0.032453,0.006581,0.011544,-0.002291,0.016084,0.094893,0.003193,-0.008503,0.008736,0.050913,0.041423,-0.010730,-0.022799,0.064641,-0.018508,-0.038556,0.056448,0.047575,0.002604,0.046739,0.009636,-0.056647,-0.116650,0.053153,-0.103834,-0.012966,-0.094233,0.001019,0.009603,0.012461,-0.071596,0.007118,0.037155,-0.091034,-0.053580,-0.022767,-0.020706,0.048098,-0.047488,-0.085875,-0.072706,-0.041032,0.032833,-0.040232,0.053206,0.032309,0.044807,0.004768,-0.025691,-0.055634,0.025890,-0.004801,-0.066106,0.059347,0.114739,0.014004,0.017403,-0.058090,0.032634,-0.030586,0.071211,-0.028908,0.071099,-0.038140,0.024877,0.127228,-0.018067,-0.008335,0.030117,-0.005401,0.021286,-0.021456,-0.024349,-0.004301,-0.002012,0.026078,0.031125,-0.000764,0.057457,0.066702,0.015498,0.034067,-0.044382,0.069688,-0.002618,-0.034794,-0.048736,0.030808,0.019701,-0.047721,-0.077762,-0.012361,-0.059267,0.037832,0.011984,0.018843,-0.000163,0.011354,-0.047034,-0.028914,-0.110012,0.008122,-0.001561,-0.017271,-0.051489,-0.021588,-0.043268,-0.042398,0.100685,0.074139},
      {-0.065454,0.051459,0.039732,0.032521,0.005279,0.012539,-0.073396,-0.020323,-0.064222,0.030716,0.021071,-0.065706,-0.057944,-0.013733,0.024444,-0.058689,0.050873,-0.037820,0.020652,0.009665,-0.009473,-0.017355,-0.014348,0.033149,-0.023654,0.023944,0.053737,-0.057772,-0.048484,0.037650,-0.016983,-0.067918,-0.017789,-0.002560,-0.038434,0.011420,0.099171,0.032243,-0.016476,0.087588,0.001996,0.079505,-0.016134,0.064818,-0.029501,-0.059129,0.043631,0.033317,-0.009523,-0.066098,0.007204,-0.047198,-0.037856,-0.085178,-0.001311,0.022406,-0.038426,-0.043008,-0.015074,-0.002966,0.133763,0.050250,-0.004244,-0.004259,0.042887,0.033151,-0.071310,-0.077129,-0.034156,-0.067799,0.010325,-0.039426,0.038051,0.048311,0.040954,-0.060978,0.044331,-0.046540,-0.009624,-0.046261,0.058039,-0.017525,0.003009,-0.011812,-0.010624,-0.051385,0.027902,-0.015016,0.018755,-0.023712,0.027698,0.038080,0.021999,-0.125524,0.093725,0.015087,0.001957,0.019021,-0.028956,0.004170,-0.015103,0.023388,0.056228,-0.021610,0.004013,0.014903,0.023600,0.022281,-0.066949,-0.178426,-0.015507,0.009818,-0.032490,-0.041620,0.084723,-0.014402,-0.004783,-0.000857,0.054226,0.008852,0.003840,0.054153,-0.020050,-0.049361,-0.098227,-0.101313,-0.071137,-0.033078,0.034043,0.063768,0.034345,-0.049459,-0.003083,-0.008353,0.071517,-0.028831,-0.023890,-0.000024,-0.036668,0.023013,-0.016715,0.141723,0.010782,-0.013669}
    }
  }
};
