#pragma once

#include "C:\Users\Baron\Desktop\EE_297_Repo\EE_297\hardware_imp\vitis_hls\lane_seg_hls\lane_seg_top.h"

// Auto-generated with BN folded

data_t enc4_ir3_dw_w[3][3][1][144] = {
  {
    {
      {-0.093038,0.018456,-0.348741,-0.017189,-0.048099,0.590223,-0.154547,0.066381,-0.164741,-0.030800,0.209282,0.326571,-0.124569,-0.522862,-0.641929,0.239546,0.100692,0.090739,-0.381934,0.296093,-0.148753,-0.529622,-0.171797,0.024402,0.095147,0.807640,-0.766504,-0.126367,-0.088480,0.180076,-0.208067,-0.182155,-0.899705,0.353136,0.029213,0.087538,0.165507,-0.086456,-0.143615,-0.005878,-0.186312,-0.179866,0.183186,-0.188271,0.162876,-0.152133,-0.096063,-0.149416,0.591495,0.116770,0.114597,-0.312319,-0.543122,0.173800,0.165040,0.418428,0.114489,-0.228312,0.190127,0.751663,-0.132846,0.159862,0.582950,1.330003,-0.032515,-0.316957,0.146058,-0.026920,0.036526,0.183853,-0.110868,0.037126,0.127346,-0.009132,0.559825,0.093344,-0.107167,-0.342350,-0.427744,0.398267,-0.238996,1.107244,1.198515,0.513596,-0.244959,0.557358,0.076481,0.071925,0.160534,0.395464,0.140135,-0.117366,-0.280441,0.268801,0.355398,-0.444760,-0.266732,-1.212358,-0.630341,-0.168733,-0.528686,0.707608,-0.148987,0.053252,0.375772,0.233620,-0.256316,-1.621981,-0.873387,0.108215,1.054389,-0.283904,0.202478,-0.108837,-0.678664,1.804100,0.130904,-0.138442,0.587358,-0.274659,0.747824,-0.207765,-0.356584,0.102538,-0.132198,0.006243,-0.206521,0.244956,0.264347,-0.334397,0.079457,-0.917389,0.150164,-0.505017,-0.293285,-0.524814,-0.136485,0.381062,-0.026025,0.363100,0.333833,0.153781,0.170257,0.154684}
    },
    {
      {-0.282162,1.572541,-0.524767,-0.343622,-0.447620,0.958466,-0.352793,0.164830,-0.390473,-0.654583,0.654539,0.638164,-0.665567,-0.579434,-0.243122,0.310898,0.244632,0.148019,-0.534989,0.674645,-0.262816,-0.541593,-0.413699,0.435950,0.128043,0.468012,-0.256036,-0.289857,0.730072,0.321255,-0.384507,-0.696453,-0.145778,0.552876,0.292306,0.293259,0.255381,-0.202883,-0.266781,0.327877,-0.535577,-0.528401,0.505905,-0.125024,0.222786,-0.466536,-0.262894,-0.411404,0.672223,0.323143,0.221696,-0.331928,-0.640571,0.673109,0.203954,0.408348,0.241107,-0.366626,0.285849,0.301196,-0.401283,0.260110,0.008584,3.126795,0.140527,-0.636998,0.244117,-0.093021,0.271779,0.387288,-0.423757,0.284429,0.293265,0.380776,1.016681,0.247595,-0.341247,-0.438469,1.615300,0.637132,-0.356399,0.572436,1.228644,0.447326,-0.570656,0.337041,0.212344,0.384657,0.472082,0.677080,0.389059,-0.325448,-0.562114,0.549698,0.582853,-1.452101,-0.473639,-0.845763,-0.790956,-0.322266,-1.106052,-1.014525,-0.585796,0.479184,0.648376,0.417547,-0.920437,-0.404426,-1.099568,0.299120,0.701162,-0.541751,0.378563,-0.345116,0.594238,-0.399655,0.250057,-0.270033,-0.110812,-0.315441,0.041809,-0.267252,-1.151332,0.215211,-0.378811,0.243102,-0.649898,0.852370,0.399858,-0.498057,0.158750,-1.344242,0.233811,-1.064887,-0.517258,-0.167562,-0.245719,0.852205,0.090686,0.490906,0.537201,0.307356,0.279661,0.406281}
    },
    {
      {-0.156118,-0.514927,-0.480692,-0.279161,-0.291680,0.744082,-0.231369,0.154376,-0.215936,-0.748215,0.327692,0.109235,-0.156320,0.046245,-0.219244,0.365596,0.168253,0.091791,-0.511454,0.482422,-0.046906,-0.223944,-0.475837,0.455384,0.142797,-1.502304,1.635831,-0.079168,0.616843,0.467731,-0.146659,-0.585809,0.669335,0.261038,0.332548,0.261033,0.149900,-0.209107,-0.264471,0.226301,-0.716750,-0.268132,0.199326,0.009685,0.160270,-0.121192,-0.161758,-0.267779,0.616369,0.186778,0.259733,-0.151098,-0.420262,0.393862,0.168145,-0.986561,0.134248,-0.212013,0.163976,-0.908549,-0.232279,0.196065,-0.423054,1.895171,0.341583,-0.525140,0.256104,-0.140245,0.290968,0.301867,-0.111279,0.248040,0.270958,0.402970,0.755582,0.102965,-0.171784,-0.372254,1.499904,0.409935,-0.397650,-1.202800,0.548818,0.327525,-0.198703,0.058461,0.244117,0.308677,0.247527,0.463959,0.400277,-0.333358,-0.197133,0.278373,0.393390,1.166211,-0.605211,0.641229,-0.820106,-0.238995,-0.676780,-0.078565,-0.442871,0.319941,0.582167,0.404552,-0.972324,2.296106,-0.402033,0.201750,-1.513225,-0.398162,0.430033,-0.253073,1.000795,-0.484561,0.193240,-0.237770,-1.006897,-0.135013,-1.302767,-0.172170,-0.664097,0.074496,-0.214003,0.303552,-0.366450,0.604853,0.373280,-0.214891,0.103054,-0.735449,0.102063,-0.873862,-0.284862,0.803774,-0.226867,0.641418,0.127111,0.281236,0.598378,0.138263,0.168177,0.197931}
    }
  },
  {
    {
      {-0.285471,-1.579363,-0.498627,-0.485645,-0.473522,0.134818,-0.295044,0.242844,-0.442124,-0.285744,0.217329,0.523972,-0.593123,0.197676,-0.594702,0.218775,0.210958,0.176740,-0.603115,0.556240,-0.541885,-0.435492,-0.349814,0.288856,0.162384,1.057858,0.031990,-0.253830,0.827902,0.518485,-0.182017,-0.459649,-1.149642,0.619109,0.390868,0.240386,0.282318,-0.299451,-0.260840,0.336227,-0.593464,-0.483740,0.462044,-0.372619,0.414287,-0.315420,-0.216699,-0.431795,0.169371,0.297183,0.158692,-0.909918,-0.952843,0.625781,0.235995,0.879474,0.270531,-0.394743,0.272294,1.134453,-0.160995,0.279248,1.792272,-0.831703,0.005030,-0.510307,0.294720,-0.223744,0.414461,0.521490,-0.262304,0.170948,0.252856,0.512132,1.007201,0.292009,-0.312555,-0.524634,1.333307,-0.537223,-0.643652,1.914031,-1.183860,0.627352,-0.546751,0.437341,0.193335,0.252966,0.404061,0.546317,0.539371,-0.368657,-0.520534,0.517764,0.510374,-0.497071,-0.411863,-1.571684,-0.245493,-0.287999,-0.567125,0.504826,-0.442527,0.487525,0.562389,0.340903,-0.709535,-1.057172,-0.859354,0.217433,1.941271,-0.559527,0.325808,-0.304751,-1.948635,3.310692,0.334897,-0.237707,1.119192,-0.447684,1.348252,-0.283749,-1.274257,0.246620,-0.227229,0.259848,-0.361602,-0.309364,0.429504,-0.509308,0.191590,-0.000434,0.224670,-0.486035,-0.260873,-1.168572,-0.305393,0.493219,0.121358,0.671683,0.294456,0.339821,0.210828,0.348292}
    },
    {
      {-0.537904,1.283274,-0.513394,-0.989828,-0.750865,0.643555,-0.561455,0.426043,-0.744619,-0.919881,0.780951,0.946865,-0.422251,0.644565,-0.854138,0.805379,0.494073,0.383776,-0.926974,1.016214,-0.744140,-1.065524,-0.766426,0.759285,0.392525,0.546744,-1.667032,-0.685023,1.589497,1.080011,-0.549890,-0.905701,-0.196172,0.910266,0.986693,0.712181,0.522161,-0.574700,-0.640771,0.723932,-1.193143,-1.154166,1.255558,-0.464842,0.704269,-0.812519,-0.730415,-0.847132,0.412919,0.633945,0.473374,-0.909802,-1.285707,1.386320,0.475149,0.519477,0.537024,-0.749525,0.590897,0.556701,-0.529827,0.642061,4.747539,-2.586790,0.503212,-1.317906,0.568343,-0.395243,0.590174,0.918072,-1.271660,0.604903,0.535323,1.004085,1.254524,0.729462,-0.706683,-0.690457,3.174906,-0.361465,-0.972847,-0.476178,0.029122,1.130653,-0.990407,0.713046,0.486677,0.851701,0.659269,1.112082,0.990712,-0.599535,-0.847731,0.934215,1.186775,-3.321772,-0.899071,-0.334082,-0.148738,-0.655470,-0.427336,-2.079471,-0.727446,0.844504,0.971698,0.609661,-0.038530,-2.218758,-0.548015,0.469857,0.495097,-1.083506,0.841715,-0.493305,0.644914,-2.095429,0.708691,-0.450187,0.362338,-0.816589,0.303056,-0.330447,-0.935502,0.488314,-0.550562,0.655474,-0.430642,0.086229,1.050096,-0.994444,0.310603,-0.282248,0.401545,-0.468169,-0.475008,-0.562164,-0.594553,1.084364,0.426556,0.843881,0.392229,0.736984,0.546646,0.632001}
    },
    {
      {-0.390786,0.492856,-0.555579,-0.687437,-0.450823,0.556298,-0.434266,0.284762,-0.566772,-0.602505,0.828449,0.677247,0.020300,0.729521,-0.747064,0.519791,0.342251,0.249155,-0.597140,0.610725,-0.524398,-0.805148,-0.641458,0.608224,0.238562,-1.686661,1.948809,-0.329539,1.098500,1.000158,-0.445941,-0.640133,1.165784,0.845342,0.520182,0.549966,0.347326,-0.397912,-0.400393,0.695871,-0.918098,-0.638027,1.056940,-0.102475,0.518553,-0.452609,-0.473680,-0.599055,0.607703,0.347291,0.478840,-0.870746,-0.870980,0.833054,0.358691,-1.494409,0.371172,-0.588659,0.383197,-1.912396,-0.370690,0.377120,3.659619,-1.762234,0.682149,-0.765166,0.524932,-0.529748,0.388659,0.780047,-1.115131,0.530152,0.420561,0.691837,0.898947,0.456417,-0.631111,-0.574126,1.888091,0.218862,-0.873101,-0.734521,1.512383,0.473266,-0.604851,0.628568,0.388176,0.641611,0.507276,0.821133,0.479235,-0.456066,-0.670957,0.589839,0.890462,2.780918,-0.630627,1.563228,0.093043,-0.381491,-0.193613,1.527879,-0.522375,0.643690,0.765861,0.460529,0.519663,0.421652,0.483849,0.447296,-2.212675,-0.723739,0.577659,-0.548732,1.961200,-0.660182,0.539896,-0.374250,-1.460510,-0.426275,-2.013593,-0.323792,0.738890,0.349829,-0.345898,0.473624,-0.405225,0.537567,0.731230,-0.521865,0.233948,-0.207578,0.252226,0.278593,-0.493678,1.610715,-0.416297,0.741564,0.301745,0.579107,0.521392,0.598588,0.422388,0.473374}
    }
  },
  {
    {
      {-0.196664,-1.744048,-0.467038,-0.298048,-0.638580,-1.233418,-0.121735,0.145671,-0.185419,-0.719908,0.214494,0.417041,-0.434019,0.657957,-0.296461,0.141048,0.165137,0.089980,-0.453906,0.533457,-0.187728,-0.245104,-0.255667,0.288796,0.152744,0.686657,0.754155,-0.178042,0.595900,0.553870,-0.186248,-0.531367,-0.653086,0.135360,0.239592,0.136340,0.178896,-0.139432,-0.204175,0.260501,-0.675367,-0.011186,0.311437,-0.267891,0.263797,-0.340329,-0.172818,-0.231561,-0.898406,0.129135,0.159928,-0.313444,-0.542491,0.350576,0.135334,0.728859,0.155433,-0.227858,0.097321,1.058035,0.019011,0.152618,-2.411121,-0.034915,-0.064561,-0.484010,0.199495,-0.319210,0.179906,0.421902,-0.048154,0.072231,0.094274,0.279984,0.770276,0.206933,-0.192848,-0.282611,1.328335,-1.045852,-0.383439,0.755717,-0.727758,0.561306,-0.231420,0.270029,0.152660,0.499222,0.270483,0.274290,0.348383,-0.349774,-0.476277,0.334449,0.394176,-0.831927,-0.361923,0.613258,0.481360,-0.182587,0.581226,-0.820912,-0.321321,0.132786,0.272916,0.095150,0.850746,1.745401,0.298697,0.126559,1.173183,-0.229108,0.294541,-0.205044,-1.824580,1.464427,0.230112,-0.214191,0.975086,-0.280892,1.047433,-0.165915,0.348986,0.135505,-0.191367,0.220224,-0.379064,-0.751514,0.282303,-0.179796,0.146300,1.024543,0.139595,0.388175,-0.235300,-1.158123,-0.249760,-0.171857,0.099885,0.248029,-0.715357,0.264535,0.041318,0.199811}
    },
    {
      {-0.419896,-0.307639,-0.552918,-0.925231,-0.522577,-1.585968,-0.419778,0.251349,-0.538469,-0.611533,0.557925,0.535193,0.059477,1.631204,-0.575938,0.420343,0.338011,0.329247,-0.567232,0.666411,-0.564939,-1.050725,-0.431564,0.388838,0.279550,0.520877,-1.663626,-0.268126,1.237614,0.660882,-0.442190,-0.736368,0.067276,0.778631,0.647167,0.510382,0.418833,-0.400805,-0.353637,0.402007,-0.658023,-0.284131,1.050475,-0.370789,0.490905,-0.576750,-0.617057,-0.477703,-1.310343,0.313140,0.371909,-0.499245,-0.695185,0.738621,0.294315,0.201831,0.349541,-0.505161,0.312323,0.433843,-0.376457,0.382499,-4.267260,-0.191930,0.173268,-0.799300,0.434384,-0.453462,0.423210,0.603624,-0.790624,0.314210,0.346132,0.643830,1.060136,0.532834,-0.504404,-0.594331,2.881632,-1.770610,-0.855753,-1.667735,-1.547810,0.656643,-0.578709,0.864516,0.304026,0.804156,0.469629,1.118582,0.434610,-0.481232,-0.836643,0.457139,0.961314,-1.887764,-0.559629,1.290474,1.290181,-0.436579,1.273193,-1.084326,-0.650976,0.549888,0.694927,0.220423,0.972839,-0.571191,1.003829,0.381353,-0.760024,-0.632512,0.706520,-0.338214,0.098234,-1.976996,0.477344,-0.382861,0.499386,-0.527534,0.613163,-0.350385,1.447552,0.396326,-0.267263,0.460909,-0.497366,-0.962028,0.697712,-0.586712,0.243070,1.579360,0.283953,1.046132,-0.435927,-0.742149,-0.438284,-0.067276,0.368357,0.515274,-1.010332,0.537737,0.249389,0.442512}
    },
    {
      {-0.249758,1.295153,-0.328079,-0.489557,-0.466351,-0.987669,-0.309042,0.179549,-0.386883,-0.164385,0.377670,0.398780,0.196637,1.236425,-0.764132,0.351032,0.177643,0.234322,-0.384571,0.548513,-0.617714,-0.392728,-0.336243,0.262824,0.162542,-1.465984,0.401698,-0.145435,1.085000,0.617423,-0.347039,-0.478116,0.951880,0.291452,0.310364,0.291247,0.209560,-0.272499,-0.327037,0.338418,-0.380482,-0.236032,0.726163,-0.116471,0.297565,-0.267380,-0.434175,-0.282715,-0.459796,0.170769,0.379475,-0.617718,-0.737958,0.565377,0.295289,-0.825004,0.240233,-0.220520,0.265175,-1.411128,-0.536635,0.213907,-2.455120,-0.277950,0.285500,-0.769725,0.363155,-0.286263,0.275272,0.474618,-0.887693,0.277745,0.259063,0.441923,0.673270,0.386226,-0.378671,-0.383696,2.782885,-0.794409,-0.512410,-0.084848,-1.458585,0.497137,-0.398993,0.920770,0.361920,0.422659,0.329199,0.877368,0.295363,-0.305669,-0.659387,0.348616,0.784793,2.475742,-0.256104,1.748610,1.290495,-0.287614,1.061220,1.950269,-0.599861,0.396539,0.686454,0.202299,0.405822,-2.777841,1.019904,0.261004,-1.645962,-0.237642,0.489716,-0.353218,1.911369,-0.034133,0.322788,-0.182621,-0.731414,-0.218083,-1.251278,-0.338222,1.694318,0.243089,-0.167448,0.307867,-0.274555,-0.262869,0.445541,-0.588980,0.164400,0.874615,0.182893,1.141310,-0.474974,1.139934,-0.400672,-0.078497,0.262926,0.313808,-0.521259,0.413496,0.379191,0.330921}
    }
  }
};
