#pragma once

#include "C:\Users\Baron\Desktop\EE_297_Repo\EE_297\hardware_imp\vitis_hls\lane_seg_hls\lane_seg_top.h"

// Auto-generated with BN folded

data_t enc5_ir4_dw_w[3][3][1][192] = {
  {
    {
      {0.654797,-0.037484,1.416818,-0.180061,-0.708393,0.158410,-0.679133,0.052140,-0.199337,-0.282105,-0.151202,-0.406000,-1.281797,0.309833,0.352874,0.103788,-0.463799,-0.125518,0.804100,-0.400808,-0.022599,-0.300616,-0.185164,-0.379952,-0.435038,-0.343684,-0.082452,0.904512,-0.421815,-0.125166,-0.138535,0.090407,0.190315,0.072199,-0.393026,0.129224,0.137756,-0.316309,0.892571,-0.136696,0.451703,0.233160,0.328739,-0.856608,-0.310564,0.578725,0.219314,0.171516,0.108717,-0.391693,-0.056585,0.110527,-0.449887,-0.251627,0.146121,0.242239,-0.307289,0.202101,-0.034386,-0.248316,0.192627,-0.138143,-0.274853,-0.088288,-0.484765,0.202133,0.393382,-0.835944,-0.235991,0.015059,-0.258614,0.043493,-0.149955,-0.186586,-0.080335,-0.376894,-0.057469,0.263495,0.136920,-0.416427,-0.296639,0.224010,0.140470,-0.827068,0.201679,0.011673,-0.775895,0.128628,0.127358,-0.199310,-0.022022,-3.081676,0.229199,-0.252946,-0.043127,-0.072442,-0.070157,-1.939071,-0.154479,0.256326,-0.081638,0.277718,0.122966,0.021410,-0.237321,0.104234,-0.262223,0.309979,-0.452525,0.139170,0.317482,0.156547,0.128541,-0.160384,0.144133,-0.301721,-0.160880,-0.169481,0.017602,-0.015848,0.095686,-0.473781,-0.111924,0.031131,-1.015149,0.449525,0.019025,-0.399262,0.128598,0.030341,-0.058221,0.200729,0.233512,0.053756,-0.107190,0.279996,0.293517,-0.137778,0.058050,-0.260343,-0.308665,-0.353957,1.118667,0.386269,-0.205697,-0.359465,-0.583671,-0.131736,0.272065,0.130940,0.019567,-0.215340,0.242432,0.051212,-0.596740,-0.060987,0.457558,-0.071762,-0.340171,0.168574,0.517168,0.109236,-0.300737,-0.414882,0.001387,-0.282402,0.505231,0.114042,0.492540,0.114765,-1.053521,0.398428,-0.477179,0.142949,-0.145823,-0.158741,-0.109888,0.147421,0.100175,-0.286702,1.188514,-0.126437,-0.203962,-0.159942,-0.280660,-0.170028,0.432438,-0.131669,-0.108648,-0.063886,0.364721,-0.545430}
    },
    {
      {-0.078324,1.160031,0.862578,0.136680,-0.793299,0.087060,-0.896276,1.399330,-0.479886,-0.232281,-0.043427,-0.801635,-0.479770,0.343300,0.571841,-0.069660,-1.011849,-0.170483,0.856533,-1.130273,0.236107,-0.710122,-0.371461,-0.666526,-1.525624,-0.274466,0.232024,0.662921,0.678820,0.175094,-0.235656,0.665716,0.813596,0.745800,1.393290,0.206218,1.142982,-0.912888,-1.015584,0.153654,-0.281967,0.383559,-0.243960,-0.452114,-0.060609,0.071857,-0.543554,1.622219,0.024332,-1.038696,-0.651451,0.679672,-0.158105,-0.129298,-0.739083,-0.769599,-0.578933,-0.840173,-0.437048,-1.212101,-0.090685,-0.236265,-0.684433,0.097151,0.205101,-0.469531,1.400172,-0.895940,-0.531161,-0.611114,-0.273769,0.074893,-0.084289,-0.425646,-0.263698,-0.206136,2.894389,0.004398,-1.122675,-1.148693,-0.564588,-0.362870,0.559421,-0.889324,-0.025860,-0.888599,0.963124,1.246402,-0.370477,-0.159993,0.903540,1.136311,0.688231,-1.045720,-0.000828,-1.121799,0.697607,-0.670617,0.070897,1.580624,0.563246,0.066703,-0.336906,-0.891792,0.030200,0.623006,-0.705341,0.024509,-0.016238,-0.022593,-0.827739,-0.087493,0.405116,-0.167125,-1.166610,-0.812061,-0.396587,1.293376,-1.863622,-0.824250,0.193945,-0.016255,0.746025,-0.564358,0.241339,-0.272505,0.578524,-0.070048,1.056232,-0.454114,-0.195070,-0.677893,1.815075,-1.061637,0.730234,1.625795,-0.842751,-0.928843,1.023771,-1.174717,-0.139806,-0.786035,-0.262884,-1.288230,-1.032370,0.185797,-0.257678,-0.286036,-0.023075,1.811583,-0.135025,-0.393687,1.217057,0.520612,-0.201437,-0.094677,1.754744,-1.117632,0.064904,-0.028030,-1.082923,-1.042604,-1.074228,-0.436181,-1.456653,-0.341249,-0.053098,0.184737,-0.716113,-1.407782,-0.135250,1.781348,-1.054769,-0.860998,0.009643,-0.801395,-0.769931,0.527033,0.333158,-1.321707,0.964557,-1.354741,0.425397,-0.020184,-1.257318,-0.787718,-1.229856,-0.795712,0.509446,-0.593128,-0.122027,0.333479}
    },
    {
      {-0.152646,0.256565,0.371189,0.458780,-0.349281,-0.264311,-0.067311,0.352509,-0.694181,-0.107147,0.039681,-0.286239,0.413326,0.028611,0.439364,0.773642,-0.581385,0.309100,0.072322,-0.209646,-0.232645,-0.557077,-0.236383,-0.135215,-0.241188,-0.352302,-0.279541,0.211922,0.550312,0.085656,-0.290330,0.010895,0.417942,0.238159,-0.400530,0.110230,0.825066,-0.348012,-0.099535,0.470574,0.311584,0.269093,-0.150914,-0.686709,-0.631893,-0.193286,-0.198457,0.189730,0.218932,-0.094554,0.090126,0.764970,0.587280,-0.233957,-0.101488,0.015939,-0.421357,-1.082275,0.276556,-0.624627,-0.078105,-0.472319,-0.215438,0.371991,0.024203,0.089386,0.397640,0.387324,-0.191762,0.029331,0.509903,-0.168541,-0.291761,-0.138454,-0.007755,-0.369129,1.472052,-0.450990,-0.159117,-0.233458,-0.266076,0.233320,-0.803275,-0.576407,-0.186328,0.369662,0.094790,0.370980,0.092280,0.321939,0.173456,-3.101267,0.273030,-0.558403,-0.158552,-0.198113,0.087003,0.960785,0.210644,0.217872,-0.083668,-1.102529,0.250323,-0.223400,-0.002744,-0.547193,-0.110120,-0.174495,-0.619550,0.179794,0.697605,-0.360610,-0.380011,-0.093258,0.256485,-0.118132,-0.194318,0.175246,-0.386257,-0.071938,-0.724654,1.073740,-0.031932,0.047161,-0.571907,-0.432754,0.361783,0.401412,0.398376,1.047149,-0.011011,-0.086324,0.409101,0.711073,0.403445,0.032134,0.707763,0.080590,0.396923,0.151612,0.774692,-0.471656,0.473680,0.228812,-0.306174,0.023509,0.507749,0.041423,-0.160542,-0.018189,-0.015768,-0.338858,0.401508,0.294872,-0.611172,0.043504,0.415706,-0.154755,0.345936,-0.369097,-0.058567,0.290124,-0.551997,-0.296972,-0.236519,-0.015234,-0.754230,0.005504,0.558271,-0.334063,0.196496,0.148360,-0.310255,-0.189202,0.061819,-0.169467,0.000351,0.181370,-1.709294,-0.247482,0.766994,-0.311577,-0.391953,0.560986,-0.421725,-0.382865,0.941182,-0.097275,-0.196238,-0.106745,0.000825,0.124982}
    }
  },
  {
    {
      {0.318826,0.272909,0.567720,0.015840,0.348616,-0.816022,-0.677297,0.168674,-0.295284,-0.229121,-0.160462,-0.914119,-0.337118,1.394401,0.334009,-0.056079,-0.897644,-1.186551,0.596387,-0.019014,3.501660,-0.874667,-0.346785,-0.572826,-0.051046,3.474641,0.109311,0.243006,0.276088,-1.267963,-0.115341,0.552053,0.750995,2.587745,0.630851,-0.734226,-1.267793,-0.840844,2.616793,-0.525791,-0.275716,0.263020,3.825892,0.228266,0.483075,1.413012,-1.450675,-1.330483,-0.333860,0.575711,0.643156,0.486847,-1.279555,0.068432,-0.012370,-0.371130,-0.322620,-1.075163,-1.065803,0.479222,-0.550084,-0.215602,0.219769,-0.612402,0.548587,-0.503401,-0.198215,1.464139,-0.516888,-0.548003,-0.184317,0.086469,-0.182974,-0.379941,-0.203926,0.027477,-0.360714,1.957011,-0.249801,-0.291783,-0.696910,-0.470416,1.080350,-0.680311,-0.004069,-0.633738,0.856025,-0.545019,0.946528,-1.391292,-0.295407,3.476786,-0.130302,-1.327081,-0.092883,0.091612,-0.684151,-0.243802,-1.089454,-0.198603,-1.491996,-0.155412,-0.091467,-0.766841,-0.028075,0.351171,-0.614173,1.153437,-0.551185,-0.162296,0.102828,1.814252,0.874661,0.048704,0.678308,-0.587973,-0.282367,-1.129746,-0.571543,0.650412,-1.204284,0.135961,0.446999,-0.586803,0.259949,1.325107,0.433665,-0.231598,-0.803188,1.458666,-0.582163,1.560542,-0.523506,0.051776,-0.662040,0.096042,-0.291934,0.476775,-0.542781,0.989748,-0.327563,-0.531858,-0.850864,0.347606,-0.059394,-0.096879,-0.296119,-0.765344,1.815266,-0.053165,-0.953055,-0.539707,-0.120686,-0.395940,-0.018555,-0.020198,0.875011,-0.899317,-1.479765,1.391848,-1.467229,1.650026,-0.777803,-0.559410,0.193874,0.060868,1.126829,0.169986,0.770604,-0.376306,0.033876,-0.253946,-0.943625,-1.388102,-0.140732,0.995007,-0.860602,-0.071445,0.762370,-0.028525,0.736897,-0.438326,-0.790895,-0.058027,-0.169072,-0.663270,-1.414301,-0.072822,-0.589716,-0.461105,-0.107629,-1.106753}
    },
    {
      {-2.671268,0.927107,-0.733392,0.798539,0.745292,-2.580449,0.196232,-0.939578,-0.110102,1.899236,-2.425176,2.909019,3.154199,0.092257,-2.163533,-0.358102,2.990196,-0.217193,-1.787960,-0.127602,-3.078749,2.535492,1.702850,2.024071,-0.511736,-3.119222,1.726081,-0.925321,1.952046,1.318524,-0.126014,1.273538,-3.241127,-5.136001,-0.247880,-0.800643,-1.315917,3.204814,-1.624846,-0.251184,-0.819223,-1.660691,-2.749798,1.262202,1.368211,-0.440893,2.600017,0.239703,-3.265518,-0.964418,-1.248288,0.836984,-0.153296,1.896953,-4.496487,-2.319991,1.963202,3.454414,2.043140,1.002220,-3.871091,2.773607,-0.443048,-1.916194,-0.449275,-2.035115,-0.866111,-1.503496,2.150324,2.249593,-2.565065,3.497423,-0.414554,0.143504,-0.049017,-1.702886,-2.465472,-0.232551,0.549235,1.836453,-0.453122,-0.589402,1.126688,2.317620,1.722250,-0.166941,0.921513,-1.330777,0.200266,-0.071233,1.027424,7.677044,0.200312,3.124019,-0.601307,1.745145,-1.887295,3.591856,-0.120386,-0.312962,2.220595,-0.805893,-0.699656,-0.931121,1.926501,0.953241,1.390543,-0.105882,1.282960,-3.136874,0.621990,-0.181578,0.568659,-2.836260,-0.811249,1.740539,1.477965,0.204393,3.915533,-0.609650,1.506438,-1.844282,1.219540,0.653220,2.737293,-0.110755,-0.747619,1.741473,0.028252,-2.714472,-1.231379,-1.179855,-1.741663,-2.139932,-1.720058,-3.534415,-4.520617,1.206002,-1.643728,-0.550546,-0.237423,0.033944,-1.151339,-0.571381,-0.123520,2.016284,1.311317,-2.740808,-0.029686,-0.294110,-1.670856,2.038836,-0.256490,-1.643324,1.409355,-2.469093,-1.697984,2.047565,0.200242,0.103579,3.159828,-3.641965,2.435834,3.062651,-0.388920,2.519436,0.069737,1.549883,-1.853627,2.768073,0.762361,-0.969688,3.388634,2.785121,-0.392266,0.551951,2.419010,1.765721,1.427507,1.706813,-3.427938,-0.593925,1.993218,-1.478142,0.843389,3.015913,-5.409360,-2.604603,-2.157482,1.431272,0.583753,0.296758}
    },
    {
      {1.285065,0.222865,-1.152597,0.993413,1.026922,-0.438622,0.531563,-0.350369,0.030954,-0.150057,-1.678918,-0.405026,-0.275100,-1.127063,0.085445,0.124788,-0.013740,1.336291,-0.174933,-0.039086,-0.177310,-0.282060,-0.273629,-0.742257,-0.094137,-0.074428,0.258472,-0.291846,-1.518462,-1.159765,-0.268071,-1.170116,0.542308,2.032345,0.590724,-0.540786,1.897664,-1.001559,-0.872467,1.461682,-0.710046,0.257489,-1.077633,0.427357,-1.898779,-1.080808,-0.895237,0.984424,-0.592897,-0.687633,-0.642927,-2.351802,1.430222,0.255003,4.276397,2.007271,-0.331069,-0.747777,-1.149008,0.014464,4.065371,-0.238130,-0.440407,2.412475,-0.692808,-0.400213,-0.602775,0.785071,-0.262188,-0.310133,2.477197,0.071057,-0.412084,-0.379174,-0.520508,-0.633416,-1.445838,-1.701792,0.120976,-0.122231,0.639283,-0.485784,-0.629817,-0.494838,0.479422,-0.496538,0.795140,-0.948491,-0.817713,1.481147,0.813037,2.548576,0.116689,-0.522443,-0.350274,0.187491,-0.867734,0.655477,1.182382,-0.169187,-1.284763,2.979066,-0.218958,0.765596,0.282044,0.609654,-0.462980,-1.072255,-0.885459,1.227365,0.588332,-1.500828,-1.044067,-0.346537,0.828917,-0.234551,-0.070613,0.878832,-0.453225,-1.003642,-0.063688,0.293458,0.133528,-1.210598,0.483937,-1.302523,0.236030,-1.214669,0.804883,1.541430,1.804493,-0.099771,-0.334644,2.446483,-1.478985,-0.048404,-1.337155,2.099617,-0.238405,-0.926452,-0.039513,0.560088,-0.937822,0.047237,0.057793,0.279593,0.805661,-0.697975,-1.493982,0.090331,2.422572,-0.396005,-0.315311,-0.453295,0.193999,0.050776,-0.344582,-0.897533,1.330989,-1.637555,-2.015365,1.100432,-0.639294,-0.328474,-0.120895,0.170261,-0.645517,0.528866,0.902942,0.056795,0.065607,-0.410824,-0.104502,-1.160094,-0.239824,-0.976435,-0.779692,-0.073841,0.236183,0.158469,0.426827,0.086338,-0.823082,1.441588,1.514638,-0.420865,-0.677105,-0.372804,-0.713230,-0.431587,-0.480344,1.147965}
    }
  },
  {
    {
      {-0.178134,-0.685365,0.750168,-0.014680,0.112137,-0.355318,0.082679,-0.011990,-0.539981,-0.111191,-0.061603,-0.097654,0.118753,0.266473,0.221155,0.697480,-0.501598,-0.452887,0.487404,0.201959,0.412617,-0.564901,-0.058976,-0.193405,0.917669,0.556117,-0.287605,0.100013,0.593795,-0.210509,-0.064456,0.089885,0.689792,0.644488,-0.332794,0.320825,0.280825,-0.276867,0.537672,-0.298176,0.194199,0.244852,0.439851,0.013595,0.553431,0.273957,-0.714620,-0.202879,0.064717,0.644488,0.468272,-0.578245,-0.526925,-0.074980,1.007684,-0.385527,-0.369918,-0.833302,-0.159170,-0.041067,-0.025823,-0.487268,0.483596,0.067303,0.285374,-0.252814,-0.171644,1.298837,-0.321966,-0.071144,-0.329981,0.032023,-0.010179,-0.332297,-0.049838,0.498425,0.295653,0.434757,-0.106970,-0.437774,-0.071282,-0.006881,0.196256,-0.451679,-0.248321,0.115977,0.139117,-0.007736,-0.728094,-0.363343,-0.876715,-1.845449,-0.204019,-0.240141,-0.202561,-0.189260,0.036657,1.243193,-0.499464,-0.132908,-0.287727,-0.100849,0.024337,0.042622,0.129152,-0.281864,-0.267007,0.324739,-0.124020,0.211189,-0.007112,0.428035,0.441083,-0.029461,0.029395,-0.217960,-0.187813,-0.006928,-0.200520,0.665184,-0.156499,1.301768,-0.398515,-0.355061,-0.637224,0.583605,0.359338,0.414654,-0.335349,0.600660,-0.279715,0.989508,-0.163862,-0.254626,0.187579,0.301771,0.708776,0.067274,0.667040,0.573907,0.432899,-0.437293,0.375375,0.407597,0.200548,0.068705,-0.494919,0.555566,0.614878,-0.163394,-0.098933,-0.325347,-0.153478,0.504545,-0.880357,0.003215,-0.125582,-0.154155,-0.561036,0.302168,-0.452725,0.477365,-0.450532,-0.330322,-0.183285,-0.161793,0.754294,0.172798,0.733551,-0.381682,-0.119655,-0.246426,-0.217271,-0.104313,0.241780,-0.312973,-0.290177,0.327954,-0.726042,0.014584,0.973161,-0.066142,-0.313075,0.176030,0.033114,-0.693881,0.849298,0.255276,0.548813,-0.197078,-0.027592,-0.265795}
    },
    {
      {0.729304,-1.484079,-1.549915,0.485644,1.951398,2.624774,0.991546,-0.818525,-0.182582,0.048808,3.422153,-0.933267,-0.215819,-0.512024,0.138413,0.059150,0.035075,0.012896,-0.384297,1.234093,-0.219070,-0.646813,-0.325724,-0.360032,1.743127,-1.198579,0.439606,-0.477681,-1.117621,0.138917,-0.475945,-0.454529,0.149287,-0.532475,1.257596,3.302064,-1.577072,-1.006742,-0.158609,-0.666572,-0.430232,0.229251,-0.819774,-0.206794,-0.433455,-0.539764,-0.272929,-1.265818,3.312086,1.337654,1.629846,-1.018265,-0.047930,0.183824,-1.082335,0.255039,-0.168525,-1.148721,-0.281544,0.516719,-0.167321,-0.230598,1.253528,-0.688804,-0.847565,-0.413394,-0.636821,-1.090655,-0.083721,-0.444813,-0.586052,0.373734,-0.315438,-0.106884,-0.315101,2.528025,-0.629355,-0.147526,-0.259974,-0.265735,0.768889,-0.019303,0.340276,-0.572508,0.366867,-0.872694,0.616604,1.082429,0.170106,0.233772,-0.457501,1.061474,-0.895015,-0.336793,-0.232755,-1.013509,1.449897,0.167118,0.007312,-1.282773,0.370631,-1.479108,-0.544626,1.242419,0.334556,0.612453,-0.445853,-0.045102,-0.262301,1.416362,0.645877,-0.281185,-0.239551,-0.371532,-0.453404,0.146203,-0.288998,-1.214066,-1.234639,1.284846,-1.144793,0.170935,-0.255044,1.817628,0.424724,0.332742,0.415630,-0.848768,-1.074906,-0.498038,-0.085706,0.523729,0.528083,-0.188668,0.889253,1.713241,-1.396275,-0.152270,0.560636,0.773812,0.733195,1.068314,-1.043164,-1.484982,1.316909,0.188967,0.576824,3.110780,-0.461818,-1.660128,-0.030093,-0.416437,-0.756299,1.267053,0.119148,-0.113942,-0.608612,-1.039039,0.139377,0.096795,-0.322715,-0.439463,-0.646949,-0.165764,1.794241,0.267864,-0.232343,0.271713,-0.678946,-0.955853,0.260634,-0.968986,-0.385906,-0.714336,-0.324268,0.833580,-0.884032,0.268019,0.917770,-0.271634,-1.044813,1.477409,0.672153,-0.767684,0.655478,-0.075572,-0.921253,3.216770,2.433675,-0.480824,-1.398726,-0.134315}
    },
    {
      {1.272206,-0.930229,0.072863,0.002862,0.330882,-0.044128,0.252370,-0.423612,-0.160772,-0.271062,0.541711,-0.451041,-1.674652,-0.600881,0.471345,-0.015433,-0.581684,0.295541,-0.172023,0.231693,-0.371772,-0.306560,-0.286050,-0.700532,0.163014,0.111200,-0.596662,-0.210911,-0.565559,-0.414145,-0.227162,-0.730118,0.576701,1.039399,-0.234007,-1.097537,0.047303,-0.248685,-0.450327,0.153321,0.339448,0.268337,0.190980,-0.371864,0.288384,-0.230088,-0.111450,-0.191729,0.160384,0.002338,0.141508,1.091027,0.491715,-0.236232,-0.285138,1.426027,-0.416015,0.262497,-0.281541,0.249430,0.302952,-0.478384,0.288054,0.607518,-0.777390,0.020379,-0.143010,-0.138031,-0.388148,-0.103640,0.782697,0.240280,-0.203707,-0.229614,-0.165816,0.584746,0.098061,-0.260605,-0.196675,-0.392340,0.603883,0.088607,-0.835492,-0.821577,0.144727,-0.270279,-0.259629,0.014165,1.722335,0.224901,-0.166559,-2.362063,-0.426640,-0.392809,0.148044,-0.081212,0.303033,-2.307282,0.594370,-0.219199,-0.395371,0.335177,0.155305,0.626259,-0.098798,0.191068,-0.202290,-0.441142,-0.567556,0.832300,0.437188,-0.217438,-0.550316,-0.058916,-0.387199,-0.047533,-0.214714,-0.025817,-0.204332,0.176258,0.750900,-0.367644,-0.946161,-0.708721,-0.612852,-0.481608,0.454595,-0.398241,-0.168258,0.316543,0.435455,-0.388396,-0.205318,0.391223,-0.156574,-0.052894,0.522990,-0.605181,0.025216,-0.453241,-0.971898,0.943484,0.491872,0.460793,0.231336,-0.193608,0.085455,0.319793,-0.008008,-0.021962,0.372394,-0.397664,-0.179743,0.354422,-1.890278,-0.063978,-0.588983,-0.428100,0.528574,-0.331425,0.107942,-0.243426,-0.166445,-0.503384,0.246746,-0.070790,-0.861228,-0.010571,0.217129,-0.250899,-1.225186,-0.096180,-0.169082,0.157811,-0.096894,0.200741,-0.240627,0.415056,0.067504,-0.169432,0.579574,0.820550,-0.669678,0.004088,-1.274638,-0.801364,0.012600,0.563042,1.164492,-0.347233,-0.200165,0.306236}
    }
  }
};
