#pragma once

#include "C:\Users\Baron\Desktop\EE_297_Repo\EE_297\hardware_imp\vitis_hls\lane_seg_hls\lane_seg_top.h"

// Auto-generated with BN folded

data_t enc5_ir4_pw_w[1][1][192][32] = {
  {
    {
      {-0.151098,0.035971,0.054997,0.039947,-0.045882,-0.058609,-0.221366,-0.038599,-0.214440,-0.109638,-0.445805,0.068799,-0.018953,-0.016635,-0.008834,0.198568,-0.132294,0.132584,-0.020977,0.033013,0.050127,-0.033067,0.067242,-0.009615,-0.064757,0.090203,0.016274,-0.147061,0.227122,-0.266708,0.034888,-0.284757},
      {0.191089,-0.023607,0.050838,-0.046467,0.167644,0.083494,-0.018626,0.189108,-0.194889,0.145640,-0.143557,0.033033,-0.095703,-0.176075,0.062977,0.159798,0.056439,0.216518,0.054909,-0.041353,0.022688,0.027642,0.376179,0.041243,0.200796,-0.254028,0.017706,-0.034638,0.044702,0.226702,0.093374,-0.084281},
      {-0.102169,0.027407,0.041479,-0.101221,0.183462,-0.085892,-0.133624,0.177037,-0.113072,-0.041722,-0.240674,-0.014763,0.155677,0.171972,-0.024132,-0.137211,0.055031,0.018675,0.131072,0.103047,0.236438,0.012161,0.042640,0.278741,0.391411,0.187593,0.148691,0.012894,-0.086477,0.015736,-0.106537,-0.311923},
      {-0.061158,-0.109425,-0.063977,0.211999,-0.102132,-0.021777,0.000091,0.243407,0.157432,-0.113409,0.163915,-0.105048,-0.158373,0.117080,0.195223,-0.047764,-0.302887,-0.114220,0.297741,-0.378606,0.261985,0.061049,0.193869,-0.103320,-0.182268,0.165111,0.251262,0.127385,-0.015212,0.073641,0.003904,-0.261866},
      {0.090412,-0.042065,0.018228,-0.327637,0.082457,-0.019704,0.030109,0.120806,-0.004085,-0.183152,-0.087252,0.132391,-0.030350,-0.091463,-0.034468,0.098652,-0.118276,-0.220769,0.152460,-0.207390,0.021054,0.036635,0.212655,0.110283,-0.032258,-0.184751,-0.017818,-0.001898,-0.096051,0.273407,-0.330394,0.035947},
      {0.338176,-0.062846,-0.208017,-0.062295,0.164361,0.022119,0.057740,-0.105083,0.041467,0.370317,-0.323703,0.000635,-0.134320,-0.049637,0.180716,0.311780,0.093926,0.352394,-0.101564,-0.087965,0.137834,0.143218,-0.288561,-0.129175,-0.150105,-0.081522,-0.151378,0.099631,-0.126730,0.013425,-0.023159,-0.322002},
      {-0.162587,0.240410,-0.198109,-0.050317,0.132677,-0.012583,-0.024237,-0.009420,-0.277710,-0.158385,-0.219145,-0.130170,-0.227438,0.133255,-0.143001,0.176873,-0.127310,0.276991,-0.006752,0.151832,0.010640,-0.078136,-0.146741,0.088235,0.165915,0.029719,-0.075308,0.220519,0.161638,0.051370,0.162866,-0.354244},
      {0.147355,-0.006003,-0.273215,-0.000826,0.043123,0.072378,-0.018817,-0.032458,0.010707,-0.060712,0.278039,-0.122826,0.029470,-0.187543,0.045085,0.066665,-0.026596,0.245534,0.122863,-0.091998,-0.125420,0.100859,0.114080,0.316738,0.189288,0.041066,0.006635,0.034126,0.046870,0.231261,0.153816,-0.268099},
      {-0.043037,0.112835,0.090781,-0.023232,-0.085163,-0.105282,0.203075,-0.069891,0.199576,0.146413,-0.061455,0.093614,0.160914,0.163924,0.005767,-0.013716,0.347710,-0.151846,-0.061238,-0.037843,-0.133709,-0.112602,-0.163162,0.049507,-0.001719,-0.079904,-0.143550,-0.157567,-0.084341,-0.050927,-0.091737,0.150676},
      {0.164183,-0.130248,0.191202,-0.180917,-0.229920,-0.008292,-0.193335,-0.178850,-0.007247,0.303977,0.284576,0.193501,0.192108,0.066898,0.128544,0.063238,-0.268651,0.061681,0.255170,0.156367,0.044049,0.016620,-0.076682,-0.026338,-0.006355,-0.007787,-0.042580,0.333369,0.148726,0.297512,-0.103626,-0.155854},
      {0.107041,0.013215,0.118918,-0.235273,0.182932,0.066417,0.049053,-0.063784,0.143381,-0.131149,0.416445,-0.007132,0.156964,0.138857,0.131079,0.416757,0.097792,0.102732,-0.148029,0.068550,-0.284155,0.237598,-0.039232,0.210778,-0.138331,-0.047547,-0.193482,-0.166006,-0.147484,-0.196679,-0.123097,-0.117384},
      {0.321471,-0.040391,-0.059967,-0.065279,-0.165767,0.248074,0.057601,-0.069336,0.225534,-0.270798,-0.291764,0.068103,0.085463,0.257445,-0.089309,-0.060865,0.489269,0.035152,0.104596,-0.159564,-0.061032,-0.174679,-0.063846,0.178963,-0.103610,-0.127806,0.045399,0.193821,-0.004266,-0.004114,0.084705,-0.093718},
      {-0.063090,0.081925,-0.078443,-0.035678,-0.062230,0.117778,-0.162860,0.036152,-0.167100,-0.253122,-0.070033,-0.012162,-0.125022,-0.255872,0.098587,-0.013888,-0.130839,0.268212,0.046686,-0.016019,-0.122640,-0.037290,0.120581,-0.218012,-0.055948,-0.081505,-0.064056,0.149826,0.278336,0.059542,0.277444,0.042121},
      {-0.054143,-0.029616,-0.133578,-0.071005,-0.004444,-0.046940,-0.157059,0.101733,-0.115467,0.154503,-0.461113,0.103815,0.017084,0.013871,-0.069771,-0.151525,-0.246856,-0.026938,0.062599,-0.024022,0.076176,-0.089471,-0.380462,0.055071,-0.159521,0.143577,0.045008,-0.191711,0.209554,-0.009808,0.128838,-0.198690},
      {-0.020165,0.088463,0.100365,0.258460,0.038112,-0.035697,0.042495,0.402961,-0.073905,-0.017030,-0.129369,0.023473,-0.224962,0.064054,-0.023055,0.010711,0.144359,0.065311,-0.058166,-0.235985,-0.018033,-0.106527,0.050301,-0.054238,-0.025414,0.057453,0.094665,-0.115266,-0.035623,-0.512583,-0.057019,0.016270},
      {-0.028554,-0.094903,0.310070,0.050483,0.439513,0.043760,-0.030006,-0.030518,-0.187345,0.124184,0.008889,0.046933,-0.081666,-0.211899,-0.024654,-0.441485,-0.017230,-0.193021,0.107849,0.240989,-0.255121,0.098212,0.083149,0.108294,0.141744,0.264950,0.197904,-0.164397,-0.350292,-0.025245,-0.169511,-0.187391},
      {-0.080730,0.144924,-0.236211,0.118927,0.402247,0.073742,0.108738,-0.072623,0.228622,-0.233311,-0.167103,0.150495,0.169620,-0.051031,-0.053303,0.199874,0.211476,0.050722,-0.008997,0.249498,-0.200564,-0.133402,-0.262617,-0.128855,0.057081,0.166647,0.177052,0.173307,-0.089712,0.018355,0.010412,0.159924},
      {0.138507,-0.172691,0.042544,-0.058946,-0.288315,-0.081033,-0.120399,0.102993,0.082337,-0.283171,-0.127436,0.067561,0.154583,0.145245,-0.085552,-0.109747,-0.679554,-0.166746,0.042873,-0.176976,-0.139833,0.202033,0.026505,0.668527,-0.322983,0.013266,-0.207233,-0.109694,-0.028591,-0.127396,0.220686,0.004711},
      {0.103664,-0.220654,-0.105461,-0.030780,0.045172,-0.104239,0.084048,0.009933,-0.037899,-0.126253,-0.021248,0.112708,-0.016816,-0.129550,0.096075,0.301140,-0.018249,0.025919,-0.148693,-0.094331,-0.088899,-0.088511,-0.138731,-0.108754,0.038446,-0.062381,-0.242938,0.155318,0.057937,-0.178633,0.012993,-0.168451},
      {0.196340,-0.026796,-0.065837,0.104502,0.531095,0.043406,0.043421,0.049473,-0.195485,0.050088,0.031003,-0.043573,0.021648,-0.042006,0.001688,0.513426,0.046771,0.452653,0.039080,0.065798,-0.017968,0.067993,-0.035045,0.659281,0.191083,-0.222787,0.073724,-0.002235,0.090230,0.297384,-0.016862,-0.083503},
      {-0.266720,0.158123,0.171390,-0.042269,-0.258223,-0.000778,-0.061566,0.159025,-0.155897,-0.188049,-0.400173,0.007148,-0.098982,0.094086,0.046425,-0.252911,-0.365958,-0.200720,-0.318561,0.155087,-0.393334,0.123278,0.044063,0.207264,0.045993,-0.099523,-0.139777,-0.046616,-0.111365,-0.458502,0.046709,0.280834},
      {0.162141,0.325611,0.101559,0.044356,0.158133,-0.249752,0.067927,-0.224944,0.403148,-0.566493,-0.026823,0.103674,0.073996,0.033710,-0.196254,-0.219937,0.034461,0.080165,-0.119590,0.024507,0.097588,-0.214861,0.092689,-0.012977,-0.166806,-0.116834,0.323127,0.109510,-0.159545,-0.023442,0.211509,-0.074546},
      {0.382958,0.205081,-0.195025,-0.025866,0.160706,-0.006608,0.153380,-0.216584,0.383395,-0.256326,-0.239263,0.057705,-0.004290,0.160912,-0.172096,-0.307102,0.560697,-0.361974,0.100270,-0.247686,0.124037,-0.218098,-0.031513,0.127957,-0.120891,0.048124,0.048236,0.236327,-0.033777,0.119890,-0.004527,-0.125880},
      {0.167401,-0.027107,0.190014,0.354897,0.007060,0.042963,0.037271,-0.056148,-0.321843,-0.137924,0.318714,-0.179952,-0.042936,-0.162493,-0.120776,0.349642,0.329451,-0.083899,0.136032,-0.027619,-0.170789,-0.087860,0.010871,-0.298398,-0.315322,-0.080863,-0.098350,-0.085840,0.008727,-0.456108,-0.010297,-0.039963},
      {0.202737,-0.009848,-0.325942,0.047466,0.389537,-0.005121,-0.015603,0.147684,-0.014803,0.166522,0.088368,-0.058112,-0.059533,-0.020251,0.015776,0.067742,-0.247977,0.168757,-0.136101,0.172430,-0.156102,-0.051293,0.067476,0.365954,0.070952,-0.210326,-0.165457,-0.074595,0.016643,0.314324,-0.034188,0.175392},
      {-0.224461,0.003139,0.259086,-0.233124,-0.266109,0.145674,-0.212064,0.279906,-0.160769,-0.538902,0.361907,0.220425,0.060860,0.285645,-0.155583,0.191453,0.045903,0.190086,-0.248937,0.198070,-0.188729,0.101154,-0.033355,0.179208,-0.115940,-0.120656,-0.192682,0.053716,0.073891,-0.123875,0.145535,0.351789},
      {-0.032756,-0.127558,0.178102,-0.128310,-0.216291,0.149954,0.004745,-0.122964,0.310142,0.021843,0.014769,-0.064010,0.024671,0.170641,0.104314,0.161001,-0.173003,0.035185,0.033585,-0.055924,0.123894,0.056379,-0.172754,0.211430,0.220646,-0.085424,0.278357,-0.135991,0.088988,0.204291,-0.163240,0.179346},
      {-0.016865,0.196996,-0.059077,0.121015,0.089580,0.257673,0.132864,0.115436,0.022776,-0.130105,0.003528,0.024384,-0.042048,0.066946,-0.223716,-0.111228,-0.260340,0.292065,-0.082796,0.045844,0.026831,-0.211931,0.135355,-0.006009,-0.031228,0.044412,-0.164822,0.012772,-0.040445,0.056024,0.016973,-0.371816},
      {-0.150387,0.007918,-0.168603,0.146458,-0.053814,0.089804,-0.091408,-0.388290,-0.180727,-0.169942,-0.339096,-0.187801,0.074748,0.026898,-0.153494,0.155713,-0.196322,0.297891,0.063894,-0.074498,0.137390,-0.013685,-0.063865,-0.245001,-0.026590,0.029258,-0.003100,-0.028902,0.276432,0.056956,0.121466,-0.122931},
      {-0.358391,-0.152774,0.340371,-0.117732,0.401314,0.144537,0.067361,-0.009159,0.232054,-0.045442,-0.054529,-0.069760,0.230612,0.274586,0.116163,0.004543,0.001208,0.146620,-0.006194,-0.135242,0.196665,0.092453,-0.126904,0.185414,0.059637,-0.358497,-0.119550,0.346218,-0.292290,-0.179202,0.307592,-0.001299},
      {0.048314,-0.112527,0.141740,0.106526,-0.147352,0.010610,0.206278,0.147977,0.173697,0.034023,-0.112112,-0.020579,-0.018150,-0.041206,0.142457,0.085133,-0.184769,0.049644,-0.139095,0.223973,0.001646,0.057253,-0.255355,-0.004762,-0.015050,0.025078,-0.126850,0.002464,0.076637,-0.250265,-0.085560,-0.075777},
      {0.229849,0.047602,-0.048643,-0.141017,-0.031576,-0.130478,0.036613,0.015294,0.019243,0.111261,-0.290987,0.068756,0.034812,0.079047,-0.041712,-0.112048,-0.374289,0.151824,0.193642,0.038860,0.001520,-0.141004,-0.151795,-0.019593,-0.049027,-0.016753,-0.181506,0.130443,0.048157,0.010841,0.072591,-0.106037},
      {-0.024379,0.177345,-0.008958,0.095104,-0.009322,0.065137,-0.382135,0.275286,-0.126777,-0.000031,-0.305088,-0.030264,-0.263582,0.003460,0.130785,0.144695,0.210238,0.134709,0.135833,0.041180,-0.174263,-0.031238,0.099142,-0.114121,-0.016498,0.098921,0.316651,-0.309714,-0.062896,0.020779,0.029277,-0.323123},
      {0.048248,0.204764,-0.070020,-0.022956,-0.255354,-0.162251,-0.051985,0.277482,-0.020041,-0.076881,-0.162045,0.123405,-0.115075,0.049418,-0.051349,0.018414,0.159943,-0.000334,-0.019173,-0.109622,-0.304451,-0.189273,0.027899,-0.224058,-0.009670,0.134724,-0.006605,-0.158525,-0.013703,-0.202608,-0.176667,-0.079517},
      {0.093588,0.031090,-0.446967,0.090966,0.055979,0.120907,0.149055,-0.081124,-0.010914,-0.034645,-0.059865,-0.059262,-0.097240,-0.178352,0.283376,-0.067508,-0.002381,-0.026672,-0.117566,0.022020,0.112603,0.091149,0.167658,-0.073626,-0.281628,-0.116060,0.077290,-0.267293,0.026242,-0.136698,-0.191032,0.096757},
      {-0.179525,0.058670,0.076169,-0.110068,0.029525,-0.089056,-0.036979,0.020365,-0.060220,0.029427,0.204560,0.063680,0.334237,0.001712,-0.051734,-0.063157,0.288453,-0.065324,0.079974,0.414905,-0.000761,-0.123164,0.021678,0.119171,0.163180,0.248414,-0.231262,-0.167132,0.385459,-0.010220,-0.282281,-0.411103},
      {-0.062021,0.041225,0.117671,-0.139572,-0.265394,-0.145720,0.112435,-0.063971,0.283221,0.214563,-0.042625,0.198777,0.135394,0.169604,0.058080,-0.045076,0.033557,-0.121592,-0.073064,-0.253994,-0.263334,-0.020230,0.098230,0.263909,0.231703,0.050669,0.303942,-0.298611,-0.206118,-0.148219,-0.345085,0.006861},
      {-0.124646,-0.023886,-0.128862,-0.004620,0.397589,-0.107198,-0.160443,-0.396999,-0.025434,-0.047536,0.123808,0.181913,0.018218,0.065217,0.015515,-0.053739,-0.002107,0.100200,-0.214456,-0.249222,-0.157950,-0.108115,-0.062109,0.290261,0.150095,0.069140,-0.158585,0.129927,-0.324414,-0.030756,0.121630,0.272384},
      {-0.027392,0.089078,0.009782,-0.213516,-0.269786,-0.063757,-0.080516,0.174345,0.106923,-0.003433,0.091491,0.071198,-0.024403,0.100642,0.009814,-0.142088,-0.293881,-0.161661,-0.092334,0.248920,-0.140358,0.144562,-0.043417,0.291046,0.087484,0.238055,0.283317,-0.209281,-0.122624,-0.001128,-0.082931,0.119127},
      {-0.169132,-0.039582,0.272923,-0.191928,0.066077,0.119504,-0.149505,0.195719,-0.095931,-0.072313,0.165898,0.279052,0.031434,0.117014,0.007600,-0.216439,-0.050971,-0.208771,-0.230448,0.534495,-0.348470,0.040468,-0.023029,0.157198,-0.101875,0.243965,0.064603,-0.304691,-0.048008,0.006236,-0.119485,0.004286},
      {-0.138749,-0.046042,0.133290,-0.124157,-0.136702,0.150723,-0.017764,0.328523,-0.124629,-0.090147,-0.069493,-0.079337,-0.046414,0.238017,0.233790,-0.236563,0.282578,-0.160444,0.028611,0.097401,0.045489,-0.084239,0.061815,-0.174563,0.191161,-0.030448,0.022237,0.152749,-0.378801,0.422124,0.123087,0.165508},
      {0.054751,0.008491,-0.045912,-0.250635,0.286051,0.114676,-0.067112,-0.209342,0.052879,0.157197,0.463231,-0.142562,-0.034278,-0.085218,-0.007245,-0.193151,-0.175024,-0.198997,0.083966,-0.234786,0.091381,-0.042854,0.064377,-0.104295,0.246178,0.099620,-0.131079,0.422244,0.051814,0.777694,0.167897,0.291449},
      {-0.137553,-0.088677,-0.304332,-0.183302,0.321176,0.001132,-0.193372,0.130577,-0.106172,0.090279,0.272680,0.085026,0.175695,0.081833,-0.157512,-0.181150,-0.684038,-0.076253,-0.084147,0.033468,-0.361962,-0.023521,0.181375,0.151966,-0.003059,-0.027439,-0.209827,0.270554,0.087150,-0.109095,0.095096,0.349457},
      {0.186452,0.044006,0.109152,-0.270347,0.063812,-0.050031,0.001209,0.089309,0.158981,0.254001,-0.118443,-0.159046,-0.068368,-0.123528,0.008944,0.072789,0.204101,0.030210,-0.082628,0.059511,-0.032982,0.038109,0.150855,-0.132493,0.022019,-0.113972,-0.245723,0.034779,-0.197341,0.073447,-0.124529,-0.208087},
      {0.036764,-0.159165,0.085498,0.248387,0.091995,-0.170603,-0.001214,-0.210635,0.220083,0.312443,-0.380614,-0.062199,0.133439,-0.050651,-0.052660,0.029079,-0.176551,-0.237508,0.228696,-0.136362,-0.070566,-0.139274,0.061657,-0.237731,-0.006314,-0.000183,-0.071951,-0.112476,0.219078,0.049565,-0.123947,-0.054603},
      {-0.167377,0.030444,-0.021207,-0.017683,-0.010547,0.006728,-0.258970,0.102956,-0.255912,-0.298208,-0.258267,0.030746,-0.119986,0.028772,-0.084112,0.179249,-0.493163,0.010342,0.136870,0.160612,0.006189,0.048773,-0.091718,0.427644,-0.086153,0.184436,-0.075719,0.198883,0.144347,-0.098500,0.155029,0.175344},
      {0.158866,0.120075,0.141494,0.128579,-0.007742,-0.076135,-0.325838,0.195591,0.150264,-0.020300,0.066834,0.196363,-0.091589,0.009475,0.045990,0.115964,0.130631,0.050378,-0.037011,-0.057343,-0.165618,0.022878,-0.043746,-0.026007,0.063505,0.004965,0.160323,-0.085262,0.038638,0.026223,-0.172983,0.112317},
      {0.165228,-0.061606,0.180933,0.073404,0.075988,0.011502,0.093624,-0.095104,0.239228,0.096952,0.148120,0.096395,-0.000466,0.206291,0.008011,0.011035,-0.222128,-0.031314,-0.011027,0.263089,-0.195588,-0.010060,0.010655,0.239661,-0.035381,-0.154134,-0.004714,-0.243393,-0.217373,0.041008,-0.276303,-0.143450},
      {0.101926,0.080474,-0.405075,-0.122941,0.586421,0.032643,-0.236527,0.031103,-0.047695,0.427712,0.411337,0.052771,0.057893,-0.007977,-0.133261,0.000421,-0.201766,-0.040608,0.029474,-0.076252,0.005986,0.168896,0.184985,0.005422,-0.087784,-0.152754,0.026148,0.204841,-0.100592,-0.017181,0.111322,-0.032159},
      {0.219654,0.170907,0.159082,0.098845,0.300532,-0.114315,0.037191,-0.177820,0.305196,-0.180861,0.058916,0.061754,0.106894,-0.052357,-0.157868,-0.107810,-0.035680,0.213834,-0.036049,0.202953,0.071785,-0.118679,-0.019844,0.177111,-0.135371,-0.056563,0.185146,-0.125206,-0.340492,0.131349,-0.059415,-0.193496},
      {0.105926,-0.004977,0.019561,0.184120,0.295948,0.051749,-0.107993,-0.162067,0.213282,0.247381,0.240663,-0.107972,0.035444,0.006116,0.008321,0.005613,0.074664,-0.077750,-0.062785,0.195600,-0.193314,0.006588,0.084969,0.269973,0.016949,-0.223079,0.041938,-0.221724,-0.072137,0.332349,-0.105102,0.164661},
      {0.149270,0.007407,-0.195385,-0.097617,-0.034261,0.070389,-0.136218,0.072667,-0.231684,-0.057052,-0.082303,0.084344,-0.195558,-0.039290,0.042273,-0.149932,-0.068112,-0.023185,-0.145261,0.320711,0.156929,0.242510,-0.176186,0.001267,0.005410,0.107583,-0.015968,-0.019001,-0.383778,0.025174,0.049612,0.180153},
      {0.002331,-0.067877,0.173198,-0.049571,-0.217824,-0.017148,-0.137541,0.052440,0.092497,-0.050680,-0.356478,0.107618,0.094683,0.148547,-0.035444,-0.003146,-0.541519,-0.046438,-0.080853,0.123923,-0.516579,0.240158,-0.240340,0.581608,-0.082146,0.078896,-0.170177,0.093571,0.088279,-0.051192,-0.107926,0.037158},
      {0.001258,-0.048712,0.274624,-0.180290,-0.019584,0.108509,0.214872,0.006622,-0.034847,-0.090252,-0.160676,-0.378089,-0.063109,0.214072,0.187600,0.110055,-0.097169,-0.018248,-0.075532,-0.021731,-0.056997,-0.169758,0.206565,0.044996,0.175862,0.165404,0.197500,0.084507,-0.065194,0.297432,0.035802,-0.016085},
      {0.331904,-0.232677,-0.068106,0.281326,0.028052,-0.156780,-0.039294,-0.248207,0.128563,0.386400,-0.484970,0.031241,0.051944,-0.072944,-0.013406,-0.052943,-0.489128,-0.103906,0.182028,-0.260335,0.037608,0.080100,-0.083396,-0.290145,0.047954,-0.083607,0.018130,0.061914,-0.082050,-0.161629,-0.009996,0.241811},
      {-0.192488,0.160414,-0.160274,-0.066103,-0.185343,-0.031677,-0.184707,-0.006879,-0.194323,-0.023159,-0.681441,0.030100,-0.039621,-0.070607,0.003549,-0.128060,-0.221431,0.074676,-0.043600,-0.043716,-0.388925,-0.127070,0.129771,-0.203832,-0.178404,0.084493,-0.207849,0.209720,0.047744,-0.357287,0.059947,-0.032669},
      {-0.198183,0.152545,-0.281106,0.187663,-0.228760,-0.001542,0.170883,-0.418994,-0.164436,-0.144743,-0.005139,-0.028092,-0.024170,0.051681,-0.017683,0.039300,-0.138522,-0.326773,-0.195358,-0.474079,0.284684,-0.191484,-0.205438,0.121767,-0.019038,0.090323,0.153021,-0.184627,-0.000647,0.111307,0.184602,0.326989},
      {-0.019360,0.181405,-0.445080,0.052968,-0.271880,-0.152926,-0.005771,-0.037746,0.050753,0.058692,-0.107349,-0.001077,0.066784,-0.030326,-0.101016,0.167076,-0.028776,0.093938,0.112854,-0.131730,0.186963,0.068058,-0.042564,-0.004394,-0.103584,-0.339446,0.028930,-0.096183,0.080065,-0.384703,-0.010154,0.206097},
      {-0.352716,0.014923,0.033564,0.095200,0.107305,0.001245,0.352586,0.239890,0.018829,0.126116,-0.086606,0.007897,0.012962,-0.047099,0.015457,-0.174141,0.067349,-0.061545,-0.048516,-0.067842,0.124782,-0.164717,0.219416,-0.270455,0.042055,-0.048743,-0.251873,0.089415,-0.075869,-0.126431,0.029740,0.303424},
      {-0.019029,0.082153,0.102693,0.142077,0.292107,0.144036,0.131582,-0.113474,0.070171,-0.045776,0.172086,-0.036640,0.008556,-0.033582,0.083496,0.091238,0.409553,0.096062,0.148709,0.039509,-0.080713,0.063201,0.004967,0.279177,0.279067,-0.019676,0.193334,-0.163858,-0.053216,0.188103,-0.044775,-0.092974},
      {-0.146158,-0.110309,-0.254613,0.035004,0.509127,-0.028113,-0.224182,0.058489,0.019060,0.161628,0.107768,0.244810,0.141600,0.051199,-0.304634,-0.246874,-0.291873,-0.353048,0.254911,0.052757,-0.149754,-0.035491,0.204588,-0.099240,0.116325,-0.062465,-0.059161,0.095760,0.013804,-0.008428,0.301682,0.349753},
      {0.049092,-0.039282,-0.185449,-0.280238,0.099323,0.140877,-0.134166,0.019030,0.414399,0.160630,-0.211519,0.201325,0.012678,0.328203,0.240604,-0.010305,-0.076741,-0.111588,-0.203820,0.093074,0.197992,-0.045077,0.035975,-0.452811,-0.029080,0.075924,0.110642,-0.245792,-0.014205,0.381729,0.138918,0.269825},
      {0.371934,-0.174777,0.054185,-0.047605,0.305697,0.061806,-0.031522,-0.025678,0.027592,0.038971,0.034929,0.062886,0.127785,-0.017422,0.148940,0.104189,0.207480,0.124251,0.038796,-0.110155,0.001199,0.068315,0.066424,0.667932,-0.006705,-0.162442,0.130765,-0.202812,-0.227725,0.075237,-0.142279,-0.183745},
      {0.147286,-0.324282,0.019933,-0.239871,-0.103509,-0.117649,-0.054454,-0.271719,0.161314,-0.124417,-0.057734,0.111894,-0.129264,0.060950,-0.031531,-0.206886,-0.163419,-0.242968,0.269760,-0.164474,-0.238506,-0.116742,0.002370,0.269601,0.042939,0.043189,0.034047,-0.106550,-0.004290,-0.163081,0.024505,0.071928},
      {-0.014821,-0.168018,-0.156298,-0.257023,0.076428,-0.047425,-0.026295,0.101782,0.032772,0.133274,0.085337,-0.096767,-0.111492,-0.056874,0.020863,0.157682,0.095263,0.037443,-0.075189,-0.027938,0.033014,0.174605,0.105324,-0.119782,-0.082547,-0.183543,-0.079756,-0.098855,0.037741,-0.123048,0.020596,-0.063152},
      {-0.113136,-0.037537,-0.191868,-0.267292,0.058887,-0.035456,0.371983,-0.091470,0.054849,0.054586,-0.130801,-0.105507,-0.043825,0.203361,-0.026486,0.185275,-0.111362,0.076114,-0.346752,-0.095781,-0.022828,0.170552,-0.063476,-0.030780,-0.385809,0.202429,0.160402,-0.141798,0.075019,0.069071,-0.002434,-0.122704},
      {0.126654,-0.134985,-0.110205,0.054216,0.116172,0.111090,-0.025958,0.017104,-0.206062,-0.147729,0.018062,-0.116100,-0.032802,-0.051706,0.092034,-0.009043,0.298710,0.258411,0.044229,-0.080677,0.151955,-0.007415,0.133050,0.467405,0.128825,-0.010785,-0.023993,-0.037628,0.116727,0.068897,0.100484,-0.531240},
      {0.073271,-0.054904,0.270248,0.093258,-0.321711,-0.113957,0.072470,-0.017707,0.024442,-0.079348,-0.083517,0.124163,-0.048186,0.018419,-0.205761,0.286304,-0.067938,-0.060937,-0.012327,-0.222193,-0.155639,0.056363,0.038590,-0.106174,-0.013463,-0.065206,0.079325,-0.098524,-0.072502,-0.244146,-0.012552,0.581609},
      {0.147996,-0.130675,0.071094,-0.380567,-0.104086,-0.107722,0.151748,-0.005013,0.034994,0.059793,0.231679,-0.196509,0.217107,0.074370,-0.158635,0.234653,-0.052097,0.103909,0.067576,-0.238203,-0.024101,-0.097867,-0.076591,-0.305248,0.147331,0.417484,0.087523,0.277932,-0.150559,0.216934,0.084643,-0.168844},
      {-0.386333,-0.320351,0.016702,-0.084479,-0.089911,-0.225193,0.369421,0.155463,0.057148,0.177278,-0.037598,0.021466,0.020655,0.094518,-0.301054,0.142670,-0.013148,0.224311,-0.202325,0.129444,0.086260,0.311222,-0.229216,0.000639,-0.377509,0.121996,0.134467,-0.143489,0.019892,0.224528,-0.032961,-0.319897},
      {-0.016359,0.015364,-0.061092,0.007917,-0.028352,0.267871,0.197580,0.012767,0.115537,0.006399,-0.343656,0.114405,0.291581,-0.147724,-0.095640,0.162610,-0.138318,-0.028905,0.157693,0.045957,-0.337204,-0.080979,-0.308060,-0.150057,0.071812,0.278514,0.277406,0.121552,0.038148,-0.020536,0.037579,0.158240},
      {-0.046269,-0.353692,-0.158783,-0.231894,-0.192837,-0.240475,-0.108183,0.066495,-0.151847,-0.005842,0.110706,-0.242665,-0.293276,0.031338,0.178789,-0.093026,0.059226,-0.178910,0.125955,-0.075114,-0.058413,-0.000502,0.108645,0.005715,0.113008,-0.246708,-0.131919,-0.170930,0.049256,-0.149136,0.111953,-0.120198},
      {-0.013443,0.118930,0.160431,0.083218,-0.138762,-0.027812,0.179704,-0.175683,-0.102634,0.118593,0.101742,-0.094221,-0.031563,0.099097,0.080612,-0.069794,-0.238707,0.087541,-0.015944,0.094187,0.122076,-0.041418,-0.039918,-0.143870,0.060663,-0.131570,0.114709,0.106958,0.136249,0.071706,-0.040509,-0.094146},
      {0.051368,-0.099249,0.108294,-0.189928,-0.102570,0.145666,-0.055710,0.065050,-0.057545,0.214022,-0.020645,0.081239,0.151379,0.097590,0.074839,0.034678,-0.143699,0.202157,-0.091940,0.151316,0.077047,0.026760,0.015366,-0.493519,-0.225930,-0.093295,0.146648,-0.147786,0.056444,-0.021442,-0.007534,-0.083713},
      {0.003952,0.003542,-0.041015,-0.210958,0.117392,0.239384,0.057004,-0.026224,-0.026014,-0.250770,0.068534,-0.107677,-0.053594,-0.094696,-0.152585,-0.212505,-0.147645,-0.119314,-0.131164,-0.058240,-0.189684,0.157791,0.156543,-0.400053,0.149558,-0.059470,0.146385,-0.020979,0.127926,0.099615,-0.347764,-0.014408},
      {0.209612,0.041371,0.009662,-0.031727,0.036462,-0.122759,-0.184886,-0.039284,0.053699,0.233214,0.062742,0.228065,0.050918,-0.004235,-0.044955,0.214478,0.241961,0.284149,-0.145096,-0.166963,-0.171620,0.052104,-0.062054,0.144164,-0.052079,0.065811,0.209974,-0.219665,-0.078485,-0.136801,-0.370781,-0.461522},
      {-0.223027,0.198934,-0.003197,-0.141202,0.062664,0.175445,0.005515,0.028105,-0.086868,-0.325736,0.537356,-0.183744,0.047338,0.123256,0.140241,-0.037968,0.096096,0.128312,-0.068917,0.193120,-0.128047,0.039757,0.299273,0.218227,0.085746,0.133827,-0.089245,0.071367,0.026255,0.136315,-0.112761,-0.149906},
      {-0.064877,-0.041437,0.174773,-0.081692,-0.102862,-0.068331,-0.156254,0.010260,-0.083680,-0.141195,-0.146961,0.163332,0.113560,0.192224,-0.036395,0.075226,-0.465380,-0.121013,-0.080450,0.060702,-0.334186,0.096894,-0.184172,0.729044,0.015895,0.025404,-0.069355,0.133256,0.018686,-0.017635,0.103746,0.233568},
      {-0.091150,0.108343,-0.067428,-0.125422,0.162158,-0.007598,0.036077,0.004379,0.241020,-0.078006,-0.103929,-0.125515,0.181274,-0.093032,-0.084328,0.346805,0.119215,0.048585,-0.016790,-0.158184,-0.236987,0.000482,-0.107103,0.275027,-0.131420,-0.000622,-0.115368,-0.528119,-0.102205,-0.105705,-0.034390,-0.342437},
      {0.187316,-0.128654,-0.035067,-0.121375,0.176100,-0.137092,-0.021295,-0.065667,-0.015651,-0.102296,0.112298,-0.088644,0.158185,0.053804,0.036563,-0.033828,0.179142,0.080894,0.077101,-0.107241,-0.010902,0.181793,-0.091407,-0.133698,0.035310,-0.022917,0.030767,0.042239,0.180033,0.008425,0.106852,0.087743},
      {-0.053267,0.017473,-0.200819,-0.035465,0.048794,0.261349,-0.014714,0.157927,-0.063943,-0.135487,-0.358152,0.010391,0.062627,0.036003,-0.116077,0.219921,0.000968,0.111608,0.084986,0.109225,-0.089881,-0.130406,-0.244972,0.278243,0.034985,0.113311,-0.120128,0.117804,-0.004287,-0.051025,0.280350,-0.037924},
      {-0.145310,0.163986,-0.280575,-0.051624,-0.040795,0.106312,0.062091,0.017391,0.148069,-0.115691,-0.147530,-0.367615,-0.133331,-0.214784,0.048958,-0.094694,0.054102,-0.026684,-0.053261,-0.051292,-0.214804,-0.090203,0.166982,0.032016,0.083216,-0.076962,-0.088815,-0.350445,-0.184351,-0.266160,-0.409269,0.070478},
      {-0.032203,-0.165769,0.086537,-0.093320,-0.112112,-0.004939,-0.082352,-0.085934,-0.139834,-0.285640,-0.141792,0.063053,-0.053796,-0.093354,-0.045733,0.201608,-0.405815,0.099946,-0.125580,-0.083909,-0.028901,-0.082019,-0.047636,0.096386,-0.049674,0.236994,0.203879,-0.013185,-0.024465,-0.051779,0.277915,-0.057320},
      {0.281717,0.212548,0.027630,-0.124588,0.336391,-0.409278,-0.119353,0.027119,0.126743,-0.341792,-0.141496,0.050995,0.244948,-0.129477,-0.021280,-0.100865,0.378174,0.024922,-0.240655,-0.145829,-0.063916,0.035946,-0.046626,-0.073908,-0.162592,-0.096187,0.008824,0.139637,0.047458,0.065978,0.162210,0.234966},
      {-0.155911,-0.079196,0.300040,0.074243,0.054029,0.098782,0.008727,-0.148864,-0.197826,-0.005223,0.012665,-0.072116,-0.160629,-0.022937,0.225689,-0.027857,0.122470,-0.128847,-0.076922,0.304548,-0.122871,-0.198368,0.016600,-0.249139,-0.450766,0.069977,-0.072329,0.087394,0.108348,0.433316,0.258626,-0.216575},
      {0.037765,-0.255598,-0.031661,0.001989,0.265959,-0.034181,0.058447,-0.083812,0.135884,-0.411710,-0.180110,-0.036390,-0.206443,0.067591,-0.072748,-0.134156,0.165035,0.065710,-0.114183,-0.309854,-0.107443,0.033768,0.081089,-0.005423,0.085335,0.007663,0.077599,-0.103745,0.044314,-0.001538,0.081091,0.191219},
      {-0.169469,-0.254878,0.509832,0.112436,0.097066,-0.097634,0.183316,0.191307,0.218907,-0.038509,-0.039755,0.009926,0.266591,-0.038181,-0.089796,0.149958,0.012470,0.031548,0.153935,-0.389166,-0.308323,0.049325,0.322936,-0.321319,0.181686,-0.086143,0.049629,0.163767,0.056560,0.019283,-0.025410,-0.134396},
      {0.046915,0.050033,-0.076968,0.026452,-0.109041,-0.019054,0.198120,0.247654,0.142590,-0.024048,0.070163,-0.029250,-0.018664,0.113830,0.085343,-0.002333,0.218314,0.128061,-0.163211,-0.135955,0.031413,0.214459,0.033286,-0.098963,-0.129642,-0.020048,0.099827,-0.062693,-0.136077,0.089599,-0.143027,-0.331624},
      {0.108394,0.017465,-0.158918,-0.340546,0.211317,0.082906,-0.129458,0.163616,-0.046142,0.299146,-0.110802,0.140133,-0.142491,-0.010059,0.071186,-0.381192,0.064055,-0.150208,-0.165253,0.440088,0.065720,0.038263,0.000904,-0.124506,0.042166,0.074799,0.116589,-0.212171,-0.331743,0.128091,-0.107105,0.079014},
      {0.030006,0.025169,-0.017727,0.092039,-0.279278,-0.200763,-0.069618,0.320497,0.144453,-0.176161,-0.038377,0.086475,0.092579,0.186408,-0.021339,0.223888,-0.632047,-0.177788,0.128639,0.043719,-0.196696,0.217959,-0.063321,0.637084,-0.286990,-0.144997,-0.218761,0.083872,0.010715,-0.113517,0.252146,0.144164},
      {-0.004340,-0.221520,0.285315,-0.018883,0.202539,0.051183,-0.218277,-0.068375,-0.042338,-0.082475,0.272492,0.083034,0.039292,0.095394,-0.013222,0.132626,-0.159804,0.063116,-0.117661,0.094966,-0.009316,0.097913,0.155006,0.241479,0.093529,-0.172105,0.423743,-0.223357,-0.134434,-0.007666,0.087366,0.183508},
      {-0.052057,0.098338,0.113204,0.249062,-0.248847,0.007200,-0.008038,-0.122354,-0.102017,-0.191741,-0.002461,0.166890,0.005524,0.294092,0.132311,-0.227870,0.091375,-0.070025,-0.031550,0.155632,0.020878,0.133529,-0.175242,0.057430,-0.031997,-0.007967,-0.113953,0.135086,-0.075595,0.034798,-0.072913,0.016049},
      {0.192743,0.067339,-0.164842,0.096422,0.407197,-0.144434,-0.025216,0.057759,0.013832,-0.057482,0.052103,-0.095275,0.141711,-0.091363,0.074589,0.141734,0.214817,0.214793,-0.070491,-0.152181,0.148355,0.181978,0.118517,0.369345,-0.097994,0.030024,0.079849,0.103853,-0.068294,0.017756,-0.040772,-0.213915},
      {0.188832,-0.030492,-0.251147,-0.184698,0.342328,-0.077283,0.013473,-0.033321,0.085526,-0.205850,-0.125333,0.107594,-0.068376,0.179590,-0.004029,-0.169659,0.311714,-0.085811,0.181271,0.086364,-0.261288,-0.061224,-0.008276,-0.006685,0.136220,-0.110134,0.166551,0.090592,0.136463,-0.231957,0.145041,0.118010},
      {0.017846,0.036222,0.194170,0.082174,-0.123800,-0.000344,0.247628,0.022401,-0.007603,-0.098449,0.238959,-0.079109,-0.001868,-0.072379,-0.189429,0.057079,0.020776,0.229807,-0.055091,-0.366280,-0.018968,0.267760,-0.083950,-0.093330,0.218730,-0.203931,0.054091,0.277278,-0.077758,-0.617096,0.085900,0.095071},
      {0.179284,0.026683,-0.108636,-0.360147,-0.103997,-0.124171,0.090459,-0.203876,0.095517,0.040487,0.170116,0.029873,0.127422,0.058226,-0.242214,0.452936,-0.055394,0.278162,-0.232739,-0.302591,-0.118998,0.005652,0.069107,-0.233137,-0.164189,0.070828,0.167670,0.062458,0.073659,-0.061246,-0.109459,-0.142348},
      {0.033267,-0.087007,-0.068772,-0.050843,0.284919,-0.061731,-0.031612,0.075520,0.199133,0.048582,0.308906,-0.035962,0.062849,0.091135,0.044949,-0.085044,0.045139,-0.092957,0.026839,0.043084,0.032386,0.155301,-0.122548,-0.025306,0.106687,0.225576,-0.097130,0.135092,-0.308724,0.008231,0.077734,-0.372451},
      {-0.086322,0.157692,-0.244214,-0.072016,-0.214450,-0.013013,0.244272,0.015412,-0.262904,0.041268,-0.011695,0.030003,-0.147662,-0.139648,0.028261,-0.074214,-0.084773,0.158621,-0.078365,-0.211533,-0.016950,-0.056713,0.020467,-0.100577,-0.051350,-0.002250,-0.279604,0.336507,0.235564,0.050599,0.083204,-0.155413},
      {0.032083,0.041621,-0.003954,-0.009804,-0.036895,-0.235857,-0.207276,0.160835,0.154054,-0.279565,-0.232188,-0.043441,0.241977,0.059341,-0.090168,0.032912,-0.311681,-0.217158,0.002082,0.026425,-0.158977,0.073264,-0.204271,0.679294,-0.236773,0.070649,0.058738,0.139098,0.042890,-0.106737,0.167531,0.145996},
      {0.199558,0.050895,-0.092828,0.127613,0.511681,-0.070938,0.093884,0.010512,-0.040077,0.097471,-0.091459,-0.129435,0.035226,0.147865,0.070998,0.238895,0.112977,0.266486,-0.131004,0.104551,0.125929,0.135956,0.042420,0.694798,-0.026637,0.094232,-0.042310,-0.156214,-0.217797,0.052640,-0.019852,-0.440580},
      {-0.202237,0.041353,0.162006,-0.316125,-0.207752,0.075258,-0.132401,0.014771,-0.171340,-0.324808,0.239925,0.193384,-0.045571,0.022930,-0.031187,-0.124362,0.081947,0.052897,-0.102330,0.311637,-0.064062,0.179857,-0.081649,0.071033,-0.086204,0.096140,-0.000583,-0.079203,-0.138363,-0.141647,0.159601,0.272328},
      {-0.008553,-0.103930,0.076061,0.066499,-0.051281,-0.056463,0.018213,-0.384233,0.030558,0.016984,-0.298361,0.120073,0.118562,-0.072103,-0.157621,-0.027105,0.295280,-0.148714,0.065868,0.122835,-0.379078,0.041118,0.027308,-0.345191,-0.033166,0.077497,-0.226076,-0.218535,0.009634,0.147988,0.074887,-0.034431},
      {-0.149772,-0.111901,-0.002233,0.228319,0.155240,-0.019041,0.060278,0.222498,0.025793,-0.121718,0.063957,0.124889,-0.053485,-0.071096,-0.199507,-0.291219,-0.041091,-0.175441,0.085748,-0.491799,0.030471,0.106608,-0.034324,-0.108651,0.098923,-0.093129,0.133937,0.179011,0.093673,0.144936,0.119451,0.084031},
      {0.127124,-0.005757,-0.347870,-0.224350,0.176195,0.068036,-0.026094,0.031351,-0.205476,-0.332193,-0.204111,-0.102903,-0.199076,0.056080,-0.032815,-0.095769,-0.097647,0.217042,0.090912,-0.079072,0.017107,0.003915,-0.131882,-0.145063,-0.047045,-0.110444,-0.212023,0.299921,0.241809,0.010939,0.181274,-0.254365},
      {-0.112475,0.107582,0.108989,0.111250,-0.468990,-0.044802,0.238619,-0.309035,-0.129841,0.078922,0.018274,0.048388,-0.015863,0.031678,0.052228,-0.010649,0.137257,0.036472,-0.015729,-0.184743,0.100684,-0.042878,-0.024171,-0.177445,-0.030430,-0.046728,0.237259,0.011202,0.080348,-0.100580,0.302451,-0.084166},
      {-0.041407,-0.060162,0.265406,-0.382173,-0.073992,-0.026118,0.226142,0.181868,0.162791,-0.009870,-0.247928,-0.013169,0.139921,0.025060,0.073680,-0.061162,0.010680,0.122627,0.080378,-0.286727,0.204036,-0.083016,0.108902,-0.358891,0.402640,0.282908,0.180623,0.142419,0.041724,0.208060,0.166808,0.029460},
      {0.151514,0.047908,-0.005708,0.187811,-0.016838,-0.070749,-0.151771,-0.310787,-0.158448,-0.091035,0.285162,0.354666,0.141909,0.136755,0.112418,-0.276078,0.159640,0.082119,0.156177,-0.359354,-0.279712,-0.061469,0.024846,0.097953,0.394407,0.097599,-0.074715,0.275427,-0.123092,-0.101291,0.169129,-0.007570},
      {-0.150264,-0.097385,-0.033049,-0.047572,-0.171319,-0.106521,-0.071274,0.159555,-0.064855,-0.186225,-0.301064,0.021423,-0.026228,0.060775,-0.004654,0.199925,-0.427538,-0.177797,0.109567,0.035288,-0.337686,0.087109,-0.310204,0.593510,-0.125478,0.155009,-0.008242,0.070409,0.043140,-0.026420,0.290065,0.264518},
      {-0.051950,0.198315,0.002848,0.017144,0.083584,-0.038657,0.039307,0.165122,0.065579,-0.023806,-0.392656,-0.008591,-0.001914,0.154953,-0.121909,-0.110188,0.324884,-0.042949,-0.018448,0.013707,-0.030676,-0.182171,0.083448,0.254057,0.131814,-0.148199,-0.222731,-0.270594,-0.155999,-0.155179,0.010772,0.150771},
      {-0.072643,0.007403,-0.288867,0.126333,-0.053802,-0.019087,0.070661,-0.098439,-0.138348,0.052058,-0.039319,0.266881,-0.037087,0.001997,-0.079522,-0.169905,-0.018253,0.193492,-0.010975,-0.400099,-0.339259,0.050550,0.268919,-0.203190,0.041615,0.041699,0.152058,0.141823,0.104374,-0.098176,-0.074551,0.048242},
      {-0.349855,0.104300,0.052399,-0.005836,0.015494,0.033050,-0.073630,0.054303,0.015633,-0.319659,0.134048,-0.075070,0.331787,0.235615,-0.016894,0.002771,0.006253,0.061059,0.057721,-0.062858,-0.025111,-0.010589,0.161332,0.115717,0.126530,0.097523,-0.134301,0.062042,0.528147,-0.003064,-0.127158,-0.428133},
      {-0.073783,0.054792,0.106213,0.050901,0.065499,-0.095627,-0.069455,0.054746,-0.017366,-0.191503,-0.181151,0.072722,0.153280,0.402146,-0.064337,0.023879,-0.261111,-0.142483,-0.155908,0.041518,-0.136972,0.052241,-0.227160,0.677168,-0.134420,0.009500,-0.135955,-0.034437,0.013268,0.047947,0.147528,0.079477},
      {0.185973,-0.108153,-0.008082,-0.197418,-0.307759,0.044472,0.053817,0.458604,0.090659,-0.146166,0.092207,-0.072092,0.129155,0.143128,0.085231,0.035647,-0.459474,0.115067,0.071155,-0.117157,-0.494924,0.193774,0.022504,0.062294,-0.098897,0.029553,-0.112686,0.199319,0.083478,0.107218,0.099911,0.093387},
      {0.058668,0.083674,0.241827,-0.137867,-0.160349,0.047126,0.285038,-0.236788,-0.110484,-0.034575,-0.034759,-0.048309,0.198089,0.066803,0.451624,0.045588,-0.251203,0.118124,0.106725,0.182370,-0.051050,0.031501,0.118386,0.466390,0.123267,-0.124036,-0.014169,0.234119,-0.132608,0.011075,0.198152,-0.009499},
      {-0.059516,-0.007287,0.150912,-0.197927,0.346961,-0.005223,-0.213023,0.294760,-0.150589,0.098963,0.047500,0.041758,0.080726,0.039434,-0.020655,-0.205478,-0.203278,-0.272035,-0.023806,0.571133,0.043189,-0.100934,-0.063130,0.498071,0.094602,0.060497,-0.153562,-0.042918,-0.094847,-0.011281,-0.042586,0.157685},
      {-0.202546,0.288015,0.151251,-0.150240,-0.369080,-0.059576,-0.259246,-0.005743,-0.083278,0.213806,-0.010082,0.017539,0.341791,0.226423,-0.014777,0.028931,0.168024,-0.001873,0.095064,0.171198,-0.098656,-0.004309,-0.120871,0.114620,-0.240055,-0.037756,-0.084077,0.039022,-0.034944,-0.144422,0.081323,-0.149425},
      {0.175727,0.110658,0.222805,0.127279,-0.271070,0.149726,-0.343933,0.327688,0.287714,-0.041781,-0.010590,0.014169,-0.083864,-0.225308,0.322594,0.131091,0.218438,0.072999,0.211307,0.047526,0.012356,-0.041510,-0.067372,-0.363219,0.104771,-0.344101,0.044091,-0.242647,0.008414,-0.104449,0.016333,0.128498},
      {0.200380,-0.116619,0.174488,0.170221,0.183092,-0.080647,-0.053218,-0.088420,0.044476,0.202441,-0.093946,-0.062213,0.274934,0.086134,0.012684,0.214619,-0.042151,0.007339,-0.090452,0.095368,-0.019099,0.022828,-0.190661,0.326180,-0.033833,-0.165264,0.025053,-0.111292,-0.187867,0.008193,-0.287180,0.044341},
      {-0.171108,0.024303,0.090283,0.230137,-0.015577,0.090753,-0.164813,-0.167007,0.069639,-0.157075,-0.086383,-0.011859,0.064016,0.001260,0.268793,-0.204618,-0.074474,-0.021011,0.014701,0.052889,0.131816,0.141607,-0.000681,0.334734,-0.201061,-0.235028,0.066923,-0.296300,-0.305877,-0.097073,0.111954,0.013628},
      {0.203806,-0.213127,0.209975,-0.116020,0.170495,0.018778,0.041893,-0.170214,0.213431,0.181756,0.259186,0.068052,0.053390,0.108418,0.096699,0.062329,-0.016420,-0.087247,0.076387,0.189759,-0.159525,0.079189,-0.078798,0.306318,0.182595,-0.073357,0.304061,-0.193870,-0.221134,-0.046470,-0.185677,0.047482},
      {-0.048341,0.030977,-0.121079,0.165115,0.035294,-0.012851,0.054576,-0.198032,0.067386,-0.194514,0.044727,0.055316,-0.070937,-0.149462,-0.080992,0.036885,0.163839,0.009497,0.036062,0.204361,-0.197340,0.028039,-0.216648,0.081477,0.037465,0.043962,0.218200,-0.148061,-0.112821,0.072696,-0.164624,0.217787},
      {0.049864,0.005165,0.164213,-0.031851,-0.101693,-0.120623,0.037064,0.069962,0.307955,0.137620,0.001301,0.290814,0.104184,-0.020045,0.157763,0.050205,0.000443,0.068408,-0.076585,-0.032395,-0.089190,0.031525,0.086843,0.240776,0.239950,0.038234,0.207537,-0.379342,-0.221765,-0.040753,-0.275653,0.118094},
      {-0.001452,-0.095722,0.039598,-0.042480,0.306088,0.113854,-0.170941,-0.001842,-0.282526,-0.114556,-0.303477,-0.031895,-0.180300,-0.059241,0.056637,0.273442,-0.011727,0.298633,-0.074819,-0.071167,0.237692,0.037886,0.267276,0.197158,0.085017,-0.116574,0.035593,0.001669,-0.003821,0.081229,-0.102035,-0.052775},
      {0.052208,-0.108511,-0.087872,-0.057299,0.014914,0.073251,-0.110680,-0.040503,-0.074880,0.287083,-0.245868,-0.006384,-0.094067,-0.027189,0.087970,-0.125536,-0.197330,0.031120,0.006315,-0.089730,0.008164,0.155431,0.063675,-0.350127,0.078789,-0.087049,0.149385,0.068383,-0.291504,-0.216346,0.133055,0.096359},
      {-0.056166,-0.126493,0.037810,0.201507,-0.014885,0.179732,-0.037741,0.032352,-0.178007,-0.242495,-0.117850,-0.301188,-0.209276,0.305872,-0.026749,0.164512,-0.112216,0.015689,-0.085820,-0.001520,-0.253853,0.026255,-0.009843,-0.133118,-0.162411,0.039731,-0.263765,0.189318,0.102383,0.304678,0.130608,-0.043410},
      {-0.106542,-0.100993,-0.040740,0.097812,0.290474,0.008838,-0.160270,0.357929,0.043437,-0.109661,-0.004399,0.030289,0.099978,0.073590,-0.090589,0.083217,-0.546658,-0.068486,-0.058168,0.057510,-0.301314,0.094405,0.017544,0.316373,0.046217,-0.067689,-0.199985,-0.079563,0.179034,0.119917,0.186101,0.293624},
      {0.044965,0.005196,0.076995,-0.153124,-0.119401,-0.056190,0.026240,0.099591,0.299194,0.128303,0.011635,0.112715,0.232969,0.041195,-0.007641,-0.214791,-0.019184,0.041640,0.062673,-0.082325,0.186947,0.083089,-0.080711,0.278383,0.502986,-0.091157,0.289815,-0.082828,-0.137088,-0.121074,-0.082538,0.178097},
      {-0.124023,0.107120,-0.189270,0.102286,-0.139852,-0.037399,-0.058887,-0.119827,0.063722,0.007090,-0.339375,-0.063749,-0.073847,-0.082279,-0.037078,0.079951,0.022524,0.256048,-0.019840,-0.311675,-0.059481,-0.004151,-0.001269,-0.038797,0.090552,0.077353,-0.105181,0.031899,0.253768,-0.111958,-0.202279,0.038573},
      {0.153031,-0.074412,0.152478,0.005744,0.160147,-0.163818,-0.006829,-0.103130,0.144305,0.052910,0.057292,-0.012040,0.145080,0.009096,0.144960,0.278334,0.122332,-0.062207,0.007193,0.109408,-0.174886,0.211856,-0.102324,0.508239,0.094481,0.051688,0.237662,-0.167601,-0.050754,0.029307,-0.204604,-0.128209},
      {0.085439,-0.023700,0.130753,-0.210866,-0.137357,-0.083926,-0.034523,-0.066337,-0.059982,-0.076519,-0.014594,0.064656,0.032727,-0.191426,-0.171261,0.169644,0.313926,0.190584,0.178537,-0.041205,-0.118204,0.083021,-0.095566,-0.186082,0.009762,0.220380,0.149896,-0.100243,-0.165683,-0.186201,-0.024335,0.010658},
      {-0.184748,-0.200859,-0.284291,-0.123645,0.154711,-0.060407,-0.215588,-0.032882,0.053311,-0.020619,0.091893,0.029881,0.112984,-0.124119,-0.020182,-0.303892,-0.572512,0.127178,-0.003736,-0.165393,-0.313090,-0.215382,-0.053885,0.246972,-0.203822,0.192112,-0.140536,0.122415,-0.073121,0.084644,-0.020973,0.476491},
      {0.093802,-0.169887,0.277387,0.057525,0.089880,-0.062585,-0.136586,-0.068802,-0.121470,0.199055,-0.092921,-0.034971,-0.066232,0.048697,-0.029560,-0.069329,-0.030768,-0.168448,-0.042293,0.148191,-0.114248,-0.088296,-0.082861,-0.057063,-0.050679,0.189377,0.291000,-0.248970,-0.214529,-0.156177,-0.141264,-0.160201},
      {-0.014590,-0.184417,0.047666,0.162426,0.284726,0.058765,-0.072888,-0.174933,-0.244653,-0.004038,-0.150701,-0.071172,0.260966,0.043542,0.064050,-0.253783,0.109323,0.304358,-0.027274,0.103744,0.077090,0.032868,-0.067564,-0.054150,0.130336,-0.033312,-0.080807,-0.222254,-0.264350,-0.285452,-0.032071,-0.161949},
      {0.176740,-0.191134,0.181105,-0.281029,-0.147653,-0.015582,-0.026640,-0.045353,-0.131345,-0.061872,-0.446809,-0.017324,0.250826,0.050093,-0.015418,0.122471,-0.180719,0.226540,0.074286,-0.138332,-0.187165,0.002879,-0.240466,-0.555037,-0.004300,0.082811,-0.079133,-0.106127,0.019424,-0.197709,-0.079706,-0.005945},
      {-0.002406,-0.004752,0.134164,0.016452,0.013893,0.088499,0.325436,-0.149116,0.233133,0.202702,0.321709,0.020854,-0.049836,-0.020224,0.158090,0.160948,0.584203,0.160762,-0.074900,-0.354501,0.132449,0.078305,0.085936,-0.428208,0.031293,-0.057362,0.329553,-0.144988,-0.062969,0.159039,-0.011944,-0.249980},
      {-0.195458,0.064381,0.060422,0.105853,0.007273,0.056289,-0.000009,-0.051378,-0.107423,-0.030417,-0.168651,0.163931,-0.148599,-0.137551,-0.010908,-0.051799,0.263814,0.026900,0.083700,-0.222615,-0.079648,0.154934,0.005444,-0.148692,-0.046867,-0.023683,0.156607,-0.095694,-0.065338,-0.110948,-0.073777,-0.245487},
      {0.131800,-0.040911,0.247760,-0.026999,-0.515139,-0.068580,0.017817,0.013096,0.030603,0.184470,0.017761,0.017302,0.020008,0.059384,0.106201,0.186413,0.058828,-0.018850,-0.033933,0.091090,0.329703,0.039900,0.119926,0.086609,-0.027971,-0.100622,-0.326084,-0.004822,-0.054925,-0.162583,0.012292,-0.120577},
      {-0.202563,0.124332,0.113874,-0.278597,0.008544,0.099709,-0.075814,0.251636,-0.057721,-0.239188,0.472857,0.168074,-0.029865,0.126566,0.125531,0.028243,0.013703,0.070308,-0.146743,0.339430,-0.064124,-0.030752,0.082412,0.181786,-0.110315,0.054399,-0.069015,-0.126763,-0.028313,0.011730,-0.013841,0.103693},
      {-0.015882,-0.079137,0.068312,-0.151668,0.291021,0.181781,-0.047138,-0.085095,-0.119853,-0.155098,-0.215357,0.086421,0.177845,-0.039740,0.027751,0.075763,0.169798,0.248068,0.007071,0.034936,-0.081448,0.244668,0.086785,-0.094304,0.154366,-0.220448,-0.129526,-0.232439,-0.137389,-0.035074,-0.062464,-0.133666},
      {-0.022584,-0.162931,0.001990,0.028442,0.217231,-0.105242,-0.085956,-0.144783,0.135697,0.059453,0.166044,0.072404,0.087090,-0.030709,0.016863,-0.030551,-0.133064,-0.012709,-0.023663,-0.153391,-0.267550,-0.062611,0.060584,0.458124,0.152650,0.046186,0.103399,-0.191153,-0.237497,0.142025,-0.022446,0.345362},
      {-0.224714,0.124292,-0.101113,-0.040314,0.185372,0.125972,-0.196578,0.068726,0.018330,0.155031,-0.111206,0.000990,-0.114434,-0.012601,0.087853,-0.468266,0.003183,-0.288797,0.077729,0.313669,0.092993,0.004954,0.150343,-0.145294,0.210249,0.133204,0.178802,-0.298245,0.217686,0.047102,-0.191668,-0.332474},
      {0.214047,0.001636,-0.183357,-0.032157,0.153092,-0.016320,0.108861,0.320477,-0.202285,0.049174,0.061310,0.009011,0.058781,0.124975,-0.005264,0.126365,-0.162516,0.217745,-0.050971,0.127906,-0.049230,0.042492,0.074173,0.289432,-0.022708,-0.249751,-0.307714,0.113679,0.225067,0.156732,-0.008649,0.031194},
      {-0.244873,-0.048390,0.216684,-0.086354,0.262907,-0.016041,0.206662,0.180617,0.115606,0.016668,-0.145627,-0.071663,-0.115255,0.166414,0.052590,-0.152876,0.026087,0.089407,-0.060906,-0.017388,0.097675,-0.145880,-0.085119,-0.169137,-0.083469,0.090945,0.045928,0.056683,0.161094,-0.087416,-0.342042,-0.003515},
      {-0.125182,-0.058844,0.333722,-0.266951,0.110625,-0.058292,-0.088886,0.107618,0.032902,0.262360,-0.238382,0.147291,0.012795,0.058176,0.031834,-0.156023,0.065089,-0.203351,-0.051773,-0.062016,-0.072236,-0.313167,0.049737,-0.485589,0.194576,0.106543,-0.033356,0.110320,0.023142,0.200525,0.137842,0.088749},
      {0.386194,0.153136,0.006160,-0.041104,0.181334,0.059499,0.044219,-0.046718,-0.337846,0.133266,0.040103,-0.123745,0.059777,0.104038,-0.126805,0.229300,0.092744,0.199108,0.091665,-0.184249,0.106192,0.109418,0.155009,0.720193,0.035812,-0.074615,-0.048060,-0.192559,-0.043296,0.143585,0.078328,-0.192165},
      {-0.107140,0.045078,-0.008479,-0.242397,-0.084692,0.074316,-0.046942,-0.048318,0.112751,0.246241,-0.286067,0.022968,-0.062067,0.075107,0.340390,-0.054637,-0.139998,0.014910,-0.095020,0.283036,0.374801,-0.123989,0.092362,-0.251713,-0.029218,0.093245,0.143195,-0.142057,0.210716,0.580069,0.008424,-0.074242},
      {-0.270196,-0.197775,0.136717,0.034909,-0.179567,0.093194,-0.212985,0.045060,-0.150882,-0.422850,0.079725,0.059721,0.016817,0.142747,0.073215,0.069665,-0.498442,0.101914,-0.172438,0.055130,-0.033858,0.108449,0.095045,0.156650,-0.095418,0.167042,0.305986,0.060599,0.079283,-0.109728,0.323381,-0.046675},
      {0.001746,-0.217435,-0.340788,-0.019784,0.521466,0.021300,-0.175401,-0.181475,0.045864,0.169054,0.119731,0.076951,-0.076631,-0.025255,0.066970,-0.092487,-0.074518,0.243587,-0.096372,-0.388409,-0.162505,-0.085070,0.094470,0.248312,-0.073650,0.007473,0.027059,-0.022500,-0.214773,-0.021858,-0.039703,-0.182682},
      {-0.206460,-0.140635,-0.002116,0.307468,-0.076379,0.091120,-0.152757,-0.054372,0.001568,-0.241254,-0.304965,0.048024,-0.106202,0.190980,-0.147548,-0.192711,-0.302438,-0.208466,0.040047,-0.094378,-0.264471,0.160011,-0.100179,0.311215,-0.214943,0.108169,-0.086330,0.181575,0.024920,0.151761,0.024286,-0.130817},
      {0.167806,-0.031491,0.046486,0.123210,0.467880,-0.055284,-0.001347,0.030109,-0.079478,0.026998,-0.139563,-0.087473,0.017370,0.332552,0.018093,0.240867,-0.042456,0.023926,0.072056,0.020718,0.020651,-0.137275,-0.003875,0.550984,0.158089,0.053299,-0.240635,0.036472,-0.178667,0.289987,-0.017883,0.155366},
      {-0.055344,-0.050107,0.096860,0.168843,0.018830,-0.029562,0.080768,-0.027127,0.101661,0.048178,-0.501235,0.090529,0.037449,0.241979,-0.141940,-0.153652,-0.332748,-0.196078,-0.218301,-0.071155,-0.270962,0.186088,-0.170867,0.265982,0.202321,-0.150168,-0.202046,0.052706,-0.017694,0.094372,-0.246979,0.003721},
      {-0.041124,-0.015852,-0.053418,-0.052180,-0.117428,-0.023011,0.424847,0.257140,0.191253,-0.115608,-0.087855,-0.021335,-0.156813,-0.168804,-0.187797,-0.001512,0.540279,0.033891,0.028389,-0.501670,-0.024494,-0.208540,0.332002,-0.485745,-0.176575,-0.041648,0.262727,-0.326368,-0.013922,0.055574,0.072728,0.160973},
      {0.110127,-0.054277,-0.007830,0.199158,0.184997,0.109915,-0.098492,-0.097894,-0.038674,0.064102,0.111259,0.016619,0.099948,-0.019829,0.096250,0.187167,0.164089,0.201934,0.004124,-0.015071,0.017285,0.047523,-0.071228,0.438940,0.091021,0.097107,0.207866,-0.012582,-0.123517,0.260638,-0.055286,-0.365197},
      {0.152509,-0.078405,0.059718,0.049772,0.155682,0.063275,0.048471,-0.053898,0.049522,-0.073748,-0.123279,0.205116,0.087353,-0.075466,0.060753,0.077447,0.250706,0.268302,0.043739,0.042271,-0.015621,0.130891,0.056960,0.170574,0.208851,-0.318681,0.014166,-0.176440,-0.219723,-0.022240,0.204868,-0.258602},
      {-0.051713,0.223770,-0.204879,-0.186337,-0.228478,-0.061232,-0.026754,0.373090,-0.016523,-0.053701,-0.109492,0.045598,-0.061833,0.011762,-0.024736,-0.071173,0.173761,0.032644,0.049229,-0.389039,0.542218,-0.077108,-0.256324,-0.364321,0.232557,0.246032,-0.035371,0.129401,-0.021818,-0.128857,0.221528,-0.004278},
      {0.305687,0.256892,0.301586,0.137751,0.039769,-0.122398,-0.040098,-0.157453,0.121113,-0.014891,0.088465,0.038536,0.183439,0.059692,-0.113757,-0.236819,-0.144977,0.218980,-0.135460,0.433023,0.202912,0.061619,0.024974,-0.360646,-0.084789,-0.137037,0.132868,0.570645,0.221450,-0.168275,-0.175617,0.072991},
      {-0.009307,0.194857,-0.158959,0.174565,-0.220175,0.039902,-0.227633,0.067801,-0.128845,-0.144159,-0.158989,-0.191152,-0.054223,0.038820,0.041854,-0.032088,0.227859,-0.007137,0.060619,0.050173,-0.101053,-0.070952,-0.123756,0.081076,0.088973,0.193467,-0.122988,-0.197813,0.056597,0.050974,-0.172620,-0.414702},
      {-0.011767,0.070131,0.098892,0.173638,0.038544,-0.205448,0.247224,0.350934,-0.008790,-0.262215,-0.598944,0.173917,-0.178961,0.069037,-0.112375,0.121024,0.219862,0.065532,0.007452,-0.423894,-0.236865,-0.002957,0.190249,0.217282,-0.188838,0.194729,0.136854,-0.435885,-0.018523,-0.128329,-0.074464,-0.152910},
      {-0.113192,-0.103097,0.049829,-0.002629,-0.182952,-0.067039,-0.085955,0.350174,0.072282,-0.258750,-0.257326,0.051256,0.224226,0.196114,-0.085008,0.208338,-0.629577,-0.199670,-0.064394,0.182458,-0.383761,0.114920,-0.260661,0.778677,-0.118832,0.118577,0.061411,0.148657,0.038474,-0.051581,0.270368,0.175408},
      {-0.039552,-0.062817,-0.040174,-0.117477,0.011180,-0.024205,-0.003937,0.020342,0.030744,-0.037394,-0.162384,0.159105,0.154062,-0.022300,-0.108981,-0.040284,-0.690242,-0.067694,-0.028912,0.068099,-0.400745,0.148795,-0.137706,0.534794,-0.020014,0.014858,-0.126657,0.040031,0.133732,-0.148761,0.052084,0.364636},
      {0.163805,-0.007805,0.072614,-0.045837,-0.322042,-0.107858,-0.126965,-0.055245,0.114793,0.144553,-0.015239,0.035932,0.070640,-0.125952,0.075413,0.225411,-0.362744,-0.136160,0.093283,0.147365,-0.080243,-0.162072,0.033654,0.457744,-0.186552,0.059386,-0.028329,-0.199066,0.055999,-0.043197,-0.090505,0.105308},
      {0.220821,-0.022124,0.221472,-0.330436,-0.025417,-0.022540,-0.107164,-0.026507,-0.108547,0.157870,-0.161637,0.266036,0.058353,0.034775,-0.119953,0.155333,-0.154940,-0.006874,-0.167423,0.305667,-0.287558,0.073403,-0.107711,0.006095,-0.006809,-0.100684,-0.165774,0.011401,-0.143173,-0.118078,0.007676,0.219850},
      {0.201490,0.041514,0.013275,-0.108353,0.182551,0.079207,-0.130151,-0.055605,-0.013135,-0.082889,-0.140374,-0.049710,0.272539,-0.104786,0.107324,-0.085067,0.401972,-0.211181,0.046675,-0.169650,-0.043060,0.252256,-0.020017,0.127086,-0.229598,0.046572,0.333673,0.059862,0.242781,-0.213339,0.176370,0.236262},
      {0.098934,-0.088334,-0.138802,-0.156175,0.099723,0.105333,-0.166993,-0.122016,0.223099,0.205590,-0.152496,0.168013,-0.110072,0.249108,0.340713,0.075809,-0.058877,-0.144084,-0.180131,0.191778,0.103872,-0.130808,0.041406,-0.364553,-0.383046,-0.002498,-0.027314,-0.186886,0.077428,0.465738,0.198775,0.146011},
      {-0.155186,0.083185,-0.088470,0.132333,0.258716,0.040465,-0.054590,0.037772,0.017646,-0.211632,0.266738,0.068646,0.005662,0.418570,-0.001623,-0.213956,0.125615,-0.146082,-0.182693,-0.121836,-0.175864,0.146611,-0.174683,0.195030,-0.095343,0.376635,0.077179,-0.115120,-0.115975,0.048881,-0.214706,-0.452586},
      {0.086478,-0.160616,0.262213,-0.157661,0.057664,-0.024499,0.296494,-0.149891,-0.044203,0.116771,0.177711,-0.155778,-0.148346,0.114837,0.117200,-0.056154,-0.125594,0.023051,-0.121969,-0.127395,0.267403,-0.066232,0.052777,-0.075627,0.060904,0.271028,0.172065,0.197536,0.180862,0.281987,-0.007957,0.006602},
      {0.060802,-0.017187,0.022063,-0.025292,0.009233,-0.028674,-0.148585,0.254434,0.113054,-0.085759,0.076263,-0.040011,0.056694,0.064161,-0.074201,0.120005,-0.395584,-0.041069,-0.074787,0.019333,-0.261760,0.145901,-0.164134,0.154359,-0.117474,0.174114,0.220172,0.027329,-0.074150,-0.060866,0.249064,0.313534},
      {-0.334094,-0.083708,0.185771,0.328093,-0.042433,0.075118,-0.643290,0.351658,-0.257728,-0.403978,0.389160,0.045933,-0.202675,0.050158,0.126809,-0.091403,-0.734968,-0.322261,0.305340,0.251466,0.512963,0.213153,0.210849,0.260060,-0.304041,0.331773,0.483225,0.112878,-0.139186,-0.547224,0.254602,-0.111592},
      {0.270387,-0.032281,0.178367,-0.246457,-0.204528,-0.005662,-0.009776,0.059503,0.024838,0.010486,-0.168016,0.063281,0.107823,-0.141204,-0.018597,0.135830,-0.141778,0.113986,-0.014218,-0.013524,-0.242436,0.096181,-0.033594,-0.331415,0.045851,0.156765,0.087546,-0.050658,-0.081144,-0.127356,0.152733,-0.150876},
      {-0.040601,-0.001414,0.120106,-0.017805,0.103993,-0.122285,-0.062969,0.018074,-0.051055,0.182402,0.210464,0.131911,0.114599,-0.149252,-0.140334,0.010922,0.221756,0.203701,0.001640,-0.152897,-0.119236,-0.014689,-0.155949,-0.298001,0.089165,0.266436,-0.009564,-0.093720,-0.037046,-0.270617,-0.000062,-0.425383},
      {0.096496,-0.000375,0.001879,0.128420,-0.396817,0.035707,0.158084,-0.131855,0.207257,0.011209,0.526314,-0.201066,-0.033462,0.057382,-0.067213,0.465661,0.221363,-0.082706,-0.019931,-0.157617,-0.073497,-0.032170,-0.026867,-0.117473,-0.275639,-0.360717,0.016398,-0.068930,-0.071623,-0.065132,0.147259,0.400073},
      {0.154076,-0.058205,-0.142672,0.089768,0.465218,0.021585,-0.191816,-0.125044,-0.046429,0.038343,0.044891,-0.004290,-0.080791,0.019246,-0.122964,0.228758,0.097246,0.289556,-0.047209,-0.209448,-0.008401,-0.106567,0.193285,0.359658,0.136547,-0.044544,0.056130,0.096446,-0.053009,0.122691,0.086754,-0.190758},
      {0.132812,0.186050,-0.244042,0.151018,-0.035874,-0.102367,-0.216380,-0.054374,0.004742,0.090621,0.070645,0.248557,0.066043,0.255958,-0.094942,0.296943,0.173259,-0.244140,-0.107161,0.109343,-0.015776,0.101350,0.047052,-0.091906,-0.124164,-0.108290,-0.262281,-0.043481,-0.044568,-0.262771,0.184046,-0.096828},
      {0.068278,0.032589,-0.050916,-0.227094,0.042411,-0.117819,-0.218682,-0.174736,0.047800,-0.063709,-0.221932,-0.034176,-0.190846,0.034418,-0.033190,-0.012546,0.363300,-0.142805,-0.054680,-0.127976,0.074375,-0.213485,0.067546,0.139374,-0.163761,-0.005410,-0.052798,-0.389697,0.010296,-0.277097,0.197048,0.008422},
      {0.012860,-0.125083,0.141241,-0.119214,-0.046171,-0.111218,-0.193916,-0.053033,-0.092727,0.033525,0.025952,-0.120771,0.026872,-0.065275,0.176242,0.004789,0.161445,-0.085327,-0.096091,0.036259,0.161181,0.220348,0.019584,0.198597,-0.155949,-0.015109,0.027736,0.143663,0.258174,-0.193883,0.005230,0.139874},
      {0.181779,-0.136938,0.059854,0.015738,-0.107286,-0.047752,0.199958,-0.127764,0.107157,0.060467,0.074710,0.091924,0.154376,-0.042686,0.050221,-0.061024,0.034135,-0.168215,0.066870,0.003549,-0.247353,0.062063,0.099068,0.231507,0.178989,-0.400000,0.033274,-0.276567,-0.017583,0.139499,-0.416243,0.033514},
      {0.109840,0.152257,-0.095220,0.210566,-0.000342,0.148523,0.166907,-0.065378,0.093748,0.050773,0.565031,0.097375,-0.094580,-0.300031,0.057497,-0.116635,0.027606,-0.204803,0.254792,-0.800863,0.119530,0.042481,-0.150027,-0.368951,0.393122,-0.010555,-0.279414,-0.352927,-0.116592,0.200787,0.276568,0.227165},
      {0.000071,0.113411,0.047448,0.115392,0.058494,0.204566,-0.109390,-0.040237,-0.133852,0.059563,0.006123,-0.106829,0.342198,-0.212394,-0.109179,-0.235710,-0.164817,-0.042390,-0.188136,-0.172325,0.031829,0.139569,0.024986,0.105466,-0.074441,0.034251,0.146054,0.018907,0.018234,-0.053566,-0.085829,0.083756},
      {0.019099,-0.166545,0.193566,0.120448,0.015014,-0.021896,-0.026720,-0.032817,0.136649,0.066784,0.137129,-0.013518,0.093518,-0.030273,-0.005067,-0.004556,-0.059011,-0.004796,0.078101,-0.129577,-0.160546,0.141792,0.220143,0.100013,0.234688,-0.003915,0.378905,-0.223739,-0.187711,0.152431,0.035457,0.068405},
      {-0.053054,0.143032,-0.157738,0.082247,0.157608,-0.075134,-0.004712,-0.143051,-0.216428,0.291323,-0.108220,0.010703,-0.052957,-0.099901,0.025362,0.049046,0.177201,0.116977,-0.059695,0.068128,-0.205510,0.036952,-0.040469,0.168589,0.061896,-0.139207,-0.078746,-0.113796,-0.095137,0.156931,-0.024452,-0.214435},
      {0.363529,0.078951,0.037042,-0.154503,0.046117,0.020650,0.193292,0.126130,-0.112485,-0.196238,0.054305,-0.061613,0.013342,0.012346,-0.095320,0.067609,-0.061522,-0.078488,0.038081,-0.168619,0.043359,0.266264,0.101238,-0.122617,0.139708,-0.278218,0.056348,-0.027625,0.100038,0.047256,0.197604,0.046462},
      {0.359513,-0.213606,-0.018703,-0.142995,-0.104902,0.019248,0.039961,0.022128,-0.253166,0.067138,0.066462,-0.061772,0.074350,0.162951,0.029414,-0.038087,-0.034163,0.107430,0.008713,-0.183553,0.091665,-0.017195,0.221925,0.230160,-0.039186,-0.026573,-0.342011,-0.171732,0.007256,0.022904,-0.060949,-0.231796},
      {0.083684,-0.100008,0.209940,-0.251100,-0.117130,-0.101744,-0.072394,0.003357,-0.207818,0.018964,-0.071190,0.110588,0.331636,-0.053562,-0.027333,0.056471,-0.213395,0.157941,0.089738,0.101919,-0.131286,-0.069046,-0.210900,-0.092731,-0.027741,0.127271,0.097297,-0.162452,0.016767,-0.197282,-0.065510,0.083094},
      {0.145785,-0.237651,0.050324,-0.301912,-0.416921,-0.026072,-0.065147,0.371875,0.033910,-0.162617,0.021710,0.022989,0.238180,0.017310,0.040408,-0.122561,-0.364715,0.001850,0.028483,0.029778,-0.448943,0.148735,-0.107527,-0.238577,0.037409,0.099146,0.055713,0.103592,-0.141564,-0.041203,0.000536,0.093798},
      {0.159559,0.108203,-0.365541,-0.133818,-0.135383,0.104157,-0.089264,0.205246,-0.223977,-0.060605,-0.280592,0.032739,-0.074968,-0.141823,-0.000555,-0.106268,-0.016850,0.146217,-0.044813,0.121198,-0.086784,0.106074,0.049488,-0.194616,-0.061863,-0.265076,-0.268902,0.201150,0.037905,0.191626,-0.129494,-0.040184},
      {-0.088415,0.436653,-0.007244,0.031549,0.155393,-0.158314,0.137833,-0.045020,0.200457,0.083164,-0.172501,-0.038637,-0.230622,0.270728,0.099186,0.136673,0.377000,-0.046785,0.267506,-0.102540,-0.175262,-0.001021,-0.314509,0.206000,-0.016540,0.026901,0.243271,0.000980,-0.072091,0.302415,0.316255,0.044005},
      {0.011233,-0.255329,0.441516,-0.104377,0.076744,0.194592,0.055902,0.275374,0.172965,-0.057744,0.039817,0.071645,-0.087680,0.146189,0.187394,-0.063157,0.182242,-0.098497,-0.057011,-0.072261,-0.176011,-0.061664,0.074354,-0.282460,0.008085,0.011233,0.108862,0.062483,-0.185030,0.383510,0.347125,0.063918},
      {0.232657,-0.090444,-0.117899,-0.014212,0.506598,0.170297,-0.033131,0.043450,-0.045681,-0.091447,-0.084501,-0.139153,0.007125,0.482229,0.061365,0.096595,-0.119012,0.072610,-0.289338,-0.157179,-0.128264,0.273964,0.036697,-0.295818,0.151627,0.188077,-0.009279,0.080716,-0.232897,0.158257,-0.035270,-0.191723},
      {-0.113364,-0.114692,-0.006121,0.022368,0.193019,0.151340,-0.027101,0.053717,-0.108183,0.057090,-0.181370,0.007305,0.046080,-0.110043,0.253208,-0.304591,0.072055,0.413114,0.038522,0.048154,0.068985,0.090359,-0.031760,-0.055246,0.002231,0.118776,0.195588,-0.270510,-0.235956,-0.046601,-0.143020,-0.355829},
      {-0.093043,0.043055,-0.064909,-0.190045,-0.138275,-0.077025,0.000374,0.487990,0.206081,0.187688,-0.459540,-0.012497,-0.158943,0.055800,0.000459,0.336988,-0.035901,0.027116,-0.200547,0.178991,-0.028266,-0.075402,0.027070,-0.108867,-0.493044,-0.114339,-0.011099,-0.353794,0.012190,-0.171394,-0.191878,0.032749},
      {0.191964,-0.005122,-0.151943,0.026816,-0.076317,-0.019200,0.195713,0.008591,0.062333,-0.339078,0.057141,0.120395,-0.122930,-0.122478,-0.019507,0.230738,0.246026,0.045063,0.213701,-0.476335,-0.457398,-0.071604,0.080934,0.036521,0.046714,0.080366,-0.061944,-0.031899,-0.051734,0.325533,-0.133038,0.148524},
      {-0.073814,-0.078618,-0.033795,0.197468,0.151012,-0.043603,-0.322393,0.030223,0.057337,-0.041400,-0.190418,-0.046821,-0.058910,0.031850,-0.144853,-0.066461,-0.525542,0.001619,-0.066038,0.134021,-0.082516,0.174398,-0.190134,0.032114,-0.048985,0.075309,0.409722,0.060255,-0.102300,-0.034455,0.369869,0.297087}
    }
  }
};
