#pragma once

#include "C:\Users\Baron\Desktop\EE_297_Repo\EE_297\hardware_imp\vitis_hls\lane_seg_hls\lane_seg_top.h"

// Auto-generated with BN folded

data_t enc7_ir6_dw_w[3][3][1][192] = {
  {
    {
      {0.063387,-0.101065,-0.153293,0.198994,-0.154133,-0.195521,0.072969,-0.250263,-0.128567,-0.220965,-0.115476,-0.126349,-0.090614,-0.023468,-0.067183,0.111617,-0.161796,0.183269,0.145830,0.119425,0.159775,-0.026443,-0.198452,0.059446,-0.600892,-0.410310,-0.151243,-0.022844,0.022206,0.110504,-0.148041,0.043313,0.047850,0.166614,0.111671,0.359965,-0.167602,0.027882,-0.104932,-0.156372,-0.076572,-0.264782,0.229539,0.035201,0.025794,0.440432,0.132415,0.205261,0.250206,-0.133956,0.166197,-0.168735,0.641047,-0.085657,-0.047690,-0.109130,-0.220556,0.145982,-0.149518,-0.217653,0.090809,0.824453,-0.208529,0.341364,-0.036447,0.096584,-0.267126,0.358478,0.087676,-0.112113,0.223123,0.117818,0.078670,-0.037900,0.117832,-0.073916,0.336085,-0.205022,-0.584258,0.256008,0.086880,0.174567,0.151259,0.559240,0.163418,1.134737,-0.138454,0.221764,-0.215115,0.023529,-0.168013,-0.127208,0.109877,0.303234,-0.485240,-0.061620,0.346073,0.113997,0.645758,0.067621,0.108832,0.137852,0.155448,-0.102750,0.125195,0.082898,-0.344688,-0.017518,-0.016054,-0.411173,0.129584,-0.064547,-0.017831,-0.185423,0.033708,-0.288169,-0.074085,0.208329,-0.034657,0.232435,-0.119379,0.127319,-0.061193,-0.171517,-0.203065,-0.198950,-0.164821,-0.287109,-0.169041,0.231552,0.096804,0.140578,0.128929,-0.256603,0.131420,-0.212330,0.096313,-0.172833,0.052882,0.469183,-0.198046,0.382112,0.022789,0.052155,0.140292,-0.202314,0.081307,0.132284,0.354067,-0.351291,0.236589,0.098719,-0.385263,0.315208,-0.027107,-0.229221,0.489901,0.168749,-0.131116,-0.185755,-0.003297,0.253680,-0.062102,0.192047,0.051074,0.096600,0.431469,-0.123770,-0.151691,-0.146919,-0.025639,0.036790,0.146455,-0.112067,-0.025064,0.348540,0.105398,0.067563,0.273935,-0.137334,-0.241134,0.073710,-0.115260,0.273564,-0.160713,-0.189375,0.080551,-0.408069,-0.219307,0.090332,-0.040757,0.294881}
    },
    {
      {0.092844,-0.322005,-0.321697,0.347222,-0.169063,-0.440608,-0.434895,-0.254446,-0.272152,-0.267436,-0.374630,-0.289816,-0.233122,-0.182812,-0.160105,0.302618,-0.074275,0.512535,-0.623277,0.161268,0.337824,-0.241883,-0.334254,0.401842,-0.481552,-0.465709,-0.244928,-0.180748,-0.247163,0.228499,-0.286348,0.222802,0.241177,0.409016,0.287006,0.876527,-0.258515,0.368651,-0.155919,-0.308707,-0.299576,-0.704993,0.487379,0.278041,0.266232,0.324152,0.420489,0.272377,0.504765,-0.187817,0.123999,-0.322545,1.125239,0.161734,-0.201675,-0.350693,-0.283352,0.343956,-0.407785,-0.313038,0.274518,1.732672,-0.458838,0.455545,-0.236460,0.188479,-0.311012,0.412780,0.245168,-0.097963,0.284123,0.191863,0.210054,-0.248537,0.422416,-0.415673,0.448131,-0.611366,-1.308558,0.431574,-0.416156,0.328317,0.295841,1.167360,0.279667,-0.426727,-0.434704,0.384951,-0.396163,0.080830,-0.292108,-0.294928,0.137316,0.274336,-0.500971,-0.638302,0.674810,0.188422,0.779531,0.128512,0.119711,0.291841,0.346774,-0.260975,0.551263,0.139961,-0.604385,-0.231088,0.510890,-0.360267,-0.247319,-0.283115,-0.154686,-0.556237,0.168387,-0.419676,-0.165006,0.344472,-0.509427,0.555126,-0.383369,0.331128,-0.254921,-0.208351,-0.154376,-0.232814,-0.224963,-0.213748,-0.352142,0.335883,0.307123,0.419932,0.432954,-0.273830,0.346721,-0.101621,0.200751,-0.187698,0.157110,1.229849,-0.284650,-0.221257,-0.493063,0.177842,0.541199,-0.303104,0.164132,0.282936,0.577474,-0.692767,0.574619,0.199532,-0.485437,0.645239,-0.381424,-0.538898,0.342559,0.424364,-0.241028,-0.150276,-0.601844,0.442781,0.282714,0.309160,0.341532,0.284525,0.714300,-0.219964,-0.121565,-0.246083,-0.318807,-0.636704,0.915129,-0.192623,-0.139502,0.353868,0.098105,0.208138,0.316083,-0.215636,-0.352460,0.059480,-0.308898,0.502342,-0.168913,-0.371728,0.269943,-0.535541,-0.390131,0.318123,-0.346443,0.891319}
    },
    {
      {0.139834,-0.387016,-0.291107,0.155845,-0.145000,-0.165204,-0.355152,-0.219928,-0.271102,-0.171050,-0.118993,-0.178815,-0.130134,-0.204193,-0.277136,0.390147,-0.099255,0.338464,-0.804115,0.228928,0.267095,-0.100257,-0.991524,0.385004,-0.083544,0.858994,-0.092094,-0.165196,-0.330807,0.249521,-0.205284,0.213848,0.243334,0.357409,0.357852,0.619617,-0.349229,0.254151,-0.154411,-0.268055,-0.244121,-0.473204,0.340281,0.251449,0.137005,-0.659516,0.428370,0.088596,0.258365,-0.085246,0.143238,-0.192472,0.207354,0.483840,-0.201976,-0.397321,-0.370810,0.216774,-0.228640,-0.304752,0.209777,1.410364,-0.340148,0.244802,-0.217456,0.163710,-0.155386,0.322279,0.390348,-0.116528,0.162858,0.143316,0.155386,-0.102674,0.254488,-0.218823,-0.951906,-0.698838,-0.452846,0.257948,-0.145335,0.220782,0.086870,0.585928,0.194237,-1.138388,-0.269885,0.226261,-0.363836,0.100285,-0.056641,-0.195191,0.119371,0.233778,0.022067,-0.657159,0.452401,0.156435,0.293382,0.103958,0.119293,0.202008,0.167979,-0.174636,0.192251,0.111149,-0.271630,-0.225550,0.232914,-0.312398,-0.139727,-0.184309,-0.131155,-0.128925,0.182810,-0.341350,-0.192117,0.113207,-0.569956,0.196675,-0.261166,0.153605,-0.248601,-0.176949,-0.163583,-0.168913,-0.169430,-0.031904,-0.257806,0.294801,0.185528,0.316809,0.230873,-0.107027,0.293976,0.140978,0.195498,-0.168453,0.167134,0.058366,-0.267894,-0.824731,-1.002672,0.177106,0.359882,-0.125558,0.087927,0.256347,0.331862,-0.510665,0.366988,0.357332,-0.313713,0.277708,-0.319494,-0.365365,-0.625951,0.183424,-0.368667,-0.136720,-0.410185,0.383514,0.646439,0.205045,0.260971,0.256393,0.727212,-0.198249,-0.132493,-0.130960,-0.279422,-0.474912,1.129281,-0.115737,-0.172617,0.365351,0.217252,0.212381,0.209745,-0.165420,-0.178659,0.047692,-0.334547,0.449886,-0.105837,-0.471528,0.168276,-0.418410,-0.257687,0.274333,-0.322863,0.590832}
    }
  },
  {
    {
      {0.155722,-0.183401,-0.598506,0.377642,-0.190434,-0.369101,-0.272143,-0.282391,-0.190090,-0.348099,-0.337711,-0.193208,-0.269490,-0.274374,-0.495833,0.232337,-0.470348,0.412572,-0.638928,0.133093,0.225237,-0.253366,0.342262,0.213445,-0.273377,-0.582544,-0.305599,-0.249683,-0.236912,0.249834,-0.195575,0.213428,0.272635,0.456876,0.369465,0.247603,-0.352105,0.503352,-0.313435,-0.257943,-0.132599,0.705480,0.638340,0.199974,0.245429,0.782042,0.479797,0.279619,0.272624,-0.282999,0.257923,-0.287437,0.759767,-0.513865,-0.243549,-0.409864,-0.375247,0.238926,-0.197449,-0.266597,0.298416,-0.181679,-0.240412,0.377522,-0.272919,0.209873,-0.306026,0.269982,0.235556,-0.068948,0.365490,0.209734,0.228076,-0.273342,0.283140,-0.358017,1.503662,0.272165,-0.701190,0.312089,-0.422134,0.429463,0.338627,0.444160,0.276725,2.025900,-0.322021,0.328201,-0.268695,0.138570,-0.194655,-0.339693,0.126799,0.339681,-0.589235,-0.482941,0.444065,0.156297,0.643727,0.313921,0.159181,0.268383,0.410065,-0.227026,0.810219,0.207572,-0.456006,-0.191612,0.536334,-0.347215,-0.251622,-0.199860,-0.175743,-0.513446,0.137893,-0.435295,-0.250084,0.418388,-0.307819,0.395811,-0.233922,0.270404,-0.319888,-0.238535,-0.427403,-0.199235,-0.232569,-0.325491,-0.277492,0.331470,0.318742,0.635586,0.374574,-0.255282,0.490904,-0.355681,0.085632,-0.087530,0.231580,0.927294,-0.290289,0.887420,0.344321,0.200795,0.545273,-0.253981,0.152311,0.195195,0.427053,0.029355,0.499005,0.292106,-0.586789,0.601144,-0.420581,-0.365147,0.915668,0.335878,-0.233462,-0.190096,-0.554895,0.402086,0.233465,0.220134,0.192610,0.211000,0.616501,-0.308492,-0.177332,-0.208124,-0.215448,-0.592090,0.743658,-0.186455,-0.237755,0.558364,0.135147,0.287402,0.349331,-0.229406,-0.355884,0.160128,-0.352277,0.330347,-0.157549,-0.398951,0.335672,-0.644776,-0.197363,0.326952,-0.194848,0.437400}
    },
    {
      {0.297819,-0.411502,-1.266791,0.647814,-0.583493,-0.848948,-0.933834,-0.713269,-0.417026,-0.853871,-0.607542,-0.637737,-0.771894,-0.868335,-0.751613,0.666759,-1.028773,1.109204,-1.045834,0.545860,0.768666,-0.519627,-0.398858,0.802925,-0.494506,-0.900106,-0.575219,-0.511434,-0.756822,0.663812,-0.582916,0.636839,0.676736,0.923040,0.825855,0.407049,-0.714431,0.805531,-0.854829,-0.601240,-0.351729,1.308238,1.337480,0.471359,0.659530,0.655792,0.903640,0.575595,0.713814,-0.810344,0.501670,-0.567681,0.819438,-0.201223,-0.408303,-0.611079,-0.702567,0.606950,-0.658897,-0.327904,0.708473,0.443699,-0.493927,0.852297,-0.548531,0.535161,-0.542952,0.967874,0.611790,-0.281348,0.751720,0.352467,0.484194,-0.580056,0.994110,-0.927374,0.811244,-0.068380,-0.666067,0.662574,-0.908719,0.805057,0.631496,0.642624,0.570404,0.046835,-0.474550,0.823271,-0.842274,0.618741,-0.512099,-0.548698,0.382986,0.719735,-0.141454,-0.964534,1.136906,0.480750,1.210184,0.575416,0.505200,0.757359,0.896248,-0.528314,1.149646,0.492880,-0.633114,-0.645867,1.281012,-0.876125,-0.933958,-0.629334,-0.458492,-0.961818,0.660766,-0.397056,-0.342330,0.521529,-1.166454,0.662257,-0.544141,0.790585,-0.594793,-0.390435,-0.653907,-0.369042,-0.513135,-0.620747,-0.460024,0.651763,0.595326,1.867344,0.646397,-0.625367,0.810650,0.345764,0.427197,-0.397055,0.532336,1.004879,-0.618288,0.545390,-0.022377,0.594371,0.848923,-0.502523,0.339432,0.542997,1.333651,-0.089484,0.907932,0.567488,-0.542279,0.808013,-0.570409,-0.349714,0.349383,0.679716,-0.872422,-0.408218,-1.236885,0.891179,1.132719,0.468925,0.678962,0.681663,1.252761,-0.653925,-0.444705,-0.483106,-0.625653,-1.350074,0.903750,-0.451362,-0.456674,0.976358,0.524857,0.716778,0.667043,-0.467131,-0.557875,0.385353,-0.376610,0.789719,-0.371293,-0.568786,0.790602,-1.318343,-0.563713,0.796478,-0.669670,1.334468}
    },
    {
      {0.266028,-0.461339,-0.416636,0.528609,-0.480018,-0.615106,-0.801347,-0.547583,-0.314060,-0.569681,-0.417267,-0.405708,-0.492178,-0.540683,-0.382636,0.678243,-0.531990,0.987728,-0.769376,0.434985,0.573242,-0.410340,-2.298435,0.595953,-0.385354,1.480417,-0.340299,-0.428794,-0.548322,0.533132,-0.659677,0.474770,0.477799,0.623777,0.599139,0.217335,-0.360359,0.648997,-0.345620,-0.430734,-0.363799,1.285239,0.825775,0.368131,0.469627,-1.327102,0.668187,0.349204,0.274070,-0.378234,0.432680,-0.387297,-0.028235,0.698772,-0.377669,-0.409228,-0.451439,0.652523,-0.510058,-0.389410,0.472319,0.063545,-0.505944,0.667987,-0.332553,0.391489,-0.352301,0.795364,0.485700,-0.367819,0.595263,0.411866,0.403140,-0.459884,0.602071,-0.495851,-2.343688,-0.555347,0.190737,0.449722,-0.510534,0.460184,0.375432,0.135315,0.399502,-1.695524,-0.442107,0.486643,-0.536519,0.450506,-0.211998,-0.612605,0.268928,0.518649,0.528506,-0.867416,1.192422,0.426970,0.764665,0.341673,0.368771,0.543004,0.665028,-0.353012,0.259489,0.381249,-0.599870,-0.678354,0.824082,-0.561933,-0.723105,-0.504225,-0.315191,-0.391643,0.470498,-0.438635,-0.305541,0.491287,-1.216730,0.801182,-0.331622,0.722210,-0.452424,-0.291087,-0.516272,-0.257879,-0.485337,-0.570063,-0.493307,0.615120,0.502126,0.955412,0.557864,-0.322702,0.764735,0.670427,0.477716,-0.302416,0.538404,-0.489131,-0.570783,-1.292671,-1.413626,0.586810,0.698693,-0.134826,0.336059,0.447802,0.836869,-0.145833,0.836533,0.520507,-0.627190,0.589107,-0.501724,-0.574199,-1.222182,0.474244,-0.764190,-0.401934,-0.843157,0.726927,0.656376,0.448710,0.526751,0.545684,0.648149,-0.380483,-0.458769,-0.397576,-0.467389,-0.718652,1.119584,-0.312633,-0.406241,0.927925,0.411453,0.493102,0.451731,-0.287716,-0.562050,0.417627,-0.589341,0.726263,-0.410766,-0.327892,0.653975,-0.547721,-0.579510,0.499330,-0.611212,0.944151}
    }
  },
  {
    {
      {0.147277,-0.231115,-0.400394,0.284590,-0.141968,-0.395650,-0.520834,-0.337363,-0.191735,-0.343241,-0.167028,-0.276381,-0.203705,-0.076193,-0.547514,0.255455,-0.348177,0.293575,-0.778523,0.190682,0.273560,-0.252642,0.268957,0.250978,-0.169217,-0.487274,-0.103506,-0.198034,-0.186543,0.171846,-0.123188,0.104942,0.284923,0.163574,0.309704,-0.516544,-0.336453,0.417309,-0.221012,-0.202233,-0.137301,-0.213003,0.448777,0.122926,0.174718,0.673560,0.309853,0.076797,-0.006569,-0.220305,0.143895,-0.255744,-0.156283,-0.471120,-0.134797,-0.278887,-0.196749,0.242655,-0.265248,-0.228374,0.141797,-0.865899,-0.223993,0.203801,-0.265166,0.252726,-0.122993,0.182845,0.421328,-0.067904,0.406039,0.179850,0.167494,-0.219263,0.338233,-0.172107,1.376506,0.621270,0.239390,0.337347,-0.366622,0.175826,0.200908,-0.254534,0.241830,1.492261,-0.159373,0.178269,-0.220211,0.179461,-0.245740,-0.194196,0.148988,0.221293,-0.073082,0.706671,0.144240,0.023199,0.407986,0.199428,0.120113,0.225329,0.199417,-0.274177,0.644976,0.175153,-0.237485,-0.173119,0.283188,-0.351475,-0.110754,-0.215354,-0.156374,-0.297096,0.128241,-0.214675,-0.054119,0.348045,-0.404014,0.219314,-0.159371,0.266944,-0.229259,-0.142746,-0.417972,-0.165638,-0.152551,-0.078173,-0.216055,0.167021,0.256097,0.795283,0.110936,-0.227530,0.333596,-0.193110,-0.008018,0.002824,0.226006,-0.265998,-0.232345,0.511610,1.163610,0.186939,0.361879,-0.193839,0.127202,0.111589,0.289988,0.566779,0.249103,0.258474,-0.355946,0.471299,-0.305416,-0.224335,0.632863,0.236750,-0.312554,-0.053204,-0.320471,0.265365,0.333666,0.246183,0.100095,0.160474,0.544445,-0.199061,-0.147660,-0.238848,-0.114047,-0.543291,0.711357,-0.278186,-0.164690,0.350924,0.195429,0.178161,0.083494,-0.128915,-0.315281,0.162285,-0.136679,0.083787,-0.083417,-0.354873,0.269374,0.466898,-0.269027,0.290031,-0.180507,0.261545}
    },
    {
      {0.217263,-0.521453,-0.878497,0.456726,-0.496208,-0.677678,-0.661350,-0.314246,-0.324707,-0.632725,-0.371223,-0.379208,-0.368761,-0.690154,-0.767737,0.674802,-0.325947,0.888943,-0.778880,0.361792,0.635230,-0.390151,0.518218,0.543668,-0.451087,-0.699418,-0.392177,-0.406133,-0.490588,0.476478,-0.653633,0.456898,0.389388,0.689230,0.682638,-0.999219,-0.453438,0.808614,-0.494323,-0.441921,-0.277503,-0.325799,1.146574,0.351047,0.517507,0.312491,0.670395,0.378323,-0.184515,-0.370669,0.454368,-0.454637,-0.558655,-0.659214,-0.370374,-0.251313,-0.403834,0.617628,-0.601521,-0.262513,0.328610,-1.621868,-0.628718,0.604682,-0.371121,0.321527,-0.483467,0.890181,0.398162,-0.174663,0.763362,0.322117,0.458510,-0.329666,0.668458,-0.388979,0.748404,1.016901,1.346981,0.327345,-0.572565,0.521544,0.408986,-1.304479,0.431593,0.384525,-0.254191,0.530079,-0.536537,0.506145,-0.360801,-0.474401,0.212801,0.385067,0.530245,1.731543,0.583340,0.083356,1.020672,0.466532,0.309721,0.552133,0.675859,-0.325097,0.724843,0.392711,-0.223491,-0.581875,1.021011,-0.691110,-0.938633,-0.482049,-0.339792,-0.488278,0.464580,-0.382604,-0.331718,0.657562,-0.828483,0.922263,-0.297765,0.598250,-0.535261,-0.339353,-0.794178,-0.199938,-0.442934,-0.572361,-0.219517,0.372332,0.418676,1.150059,0.550885,-0.436480,0.721272,0.431020,0.087606,-0.355190,0.451411,-0.856344,-0.435991,1.072016,1.304498,0.414691,0.932510,-0.321183,0.332748,0.379120,0.909425,1.198978,0.663749,0.296430,-0.542874,0.700133,-0.547544,-0.579487,0.228084,0.435665,-0.600218,-0.275883,-0.726474,0.448752,0.892810,0.405746,0.525083,0.404000,0.764921,-0.401516,-0.337950,-0.338356,-0.395210,-1.109884,1.383112,-0.491074,-0.392357,0.829737,0.477372,0.546084,0.474213,-0.200970,-0.395752,0.337597,-0.347045,0.705480,-0.233911,-0.349492,0.650729,1.345715,-0.572680,0.551688,-0.550763,1.089860}
    },
    {
      {0.206678,-0.240278,-0.205764,0.408411,-0.581402,-0.518078,-0.408827,-0.270903,-0.210152,-0.271003,-0.079925,-0.269507,-0.277387,-0.515731,-0.531722,0.608811,-0.309612,0.685147,-0.017533,0.349924,0.453276,-0.314331,-0.635310,0.414858,-0.526502,1.087829,-0.322319,-0.381610,-0.411165,0.335386,-0.389198,0.408136,0.264860,0.246997,0.597798,-0.758757,-0.310754,0.525821,-0.395977,-0.319665,-0.346194,-0.245759,0.757604,0.184075,0.407555,-0.831882,0.429238,0.382374,-0.283501,-0.174843,0.373523,-0.284644,-0.709262,0.137619,-0.367166,-0.284301,-0.284926,0.451370,-0.335007,-0.234096,0.259169,-1.434170,-0.410907,0.590269,-0.091896,0.301635,-0.237135,0.745030,0.187335,-0.244619,0.494482,0.272156,0.273404,-0.181288,0.381007,-0.091367,-1.895867,0.256354,1.173561,0.367517,-0.323455,0.603406,0.257566,-1.177519,0.311536,-1.767361,-0.266577,0.399553,-0.415876,0.472079,-0.367692,-0.431221,0.266390,0.331080,0.913444,1.262669,0.661696,0.193156,0.536988,0.348438,0.314744,0.408891,0.643360,-0.268849,0.410169,0.353106,-0.322516,-0.431777,0.674416,-0.384302,-0.689603,-0.460800,-0.292878,-0.344152,0.318035,-0.466604,-0.245293,0.392268,-0.826237,0.549350,-0.306783,0.516006,-0.287771,-0.220824,-0.609449,-0.142368,-0.286808,-0.586049,-0.208840,0.333387,0.367547,1.167927,0.377232,-0.316924,0.541426,0.674073,0.188743,-0.327713,0.388420,-1.329561,-0.303905,-1.048896,0.246100,0.341966,0.400049,-0.185841,0.232438,0.328145,0.691217,0.940183,0.395364,0.436624,-0.412225,0.744807,-0.483584,-0.399208,-0.885583,0.297167,-0.553872,-0.174784,-0.393402,0.589870,0.416743,0.344850,0.411102,0.413836,0.321158,-0.252468,-0.329790,-0.328371,-0.254753,-0.367989,0.611784,-0.334606,-0.224149,0.702398,0.300541,0.317007,0.367359,-0.128422,-0.499386,0.326914,-0.386595,0.584114,-0.224528,-0.429042,0.662372,1.310692,-0.380059,0.241277,-0.372701,0.576155}
    }
  }
};
