#pragma once

#include "C:\Users\Baron\Desktop\EE_297_Repo\EE_297\hardware_imp\vitis_hls\lane_seg_hls\lane_seg_top.h"

// Auto-generated with BN folded

data_t enc7_ir6_exp_w[1][1][32][192] = {
  {
    {
      {0.056958,0.008920,-0.003212,0.020233,0.004867,0.019674,-0.054603,-0.015984,-0.145273,0.042899,0.004357,0.097214,0.035395,0.013603,-0.002802,-0.053210,-0.004647,-0.054181,0.044467,-0.019014,-0.041368,-0.093545,0.009617,0.078988,-0.006213,-0.011506,0.006352,0.034735,-0.023166,0.017154,-0.058505,-0.058272,-0.019262,0.001245,-0.012652,0.011566,0.002512,0.003530,0.062104,0.063777,0.010819,0.014471,-0.011030,-0.022448,-0.017331,-0.023027,0.043679,-0.080528,0.012414,-0.006102,-0.084494,-0.004443,0.028004,0.017134,-0.017034,-0.001119,-0.035075,0.062141,0.032199,-0.010563,-0.044307,-0.002002,-0.033781,0.003832,0.063072,0.016328,0.007217,-0.037650,-0.053071,0.061860,0.008100,0.107602,0.044101,-0.093245,0.038078,-0.027130,-0.011730,-0.006036,0.029180,-0.013853,0.057695,0.051750,0.080894,-0.004492,0.009253,0.007068,0.052372,0.020394,0.036752,0.133475,0.072055,-0.090292,-0.038065,0.009485,-0.006245,-0.027725,-0.009417,0.008993,-0.005493,-0.078137,-0.019333,-0.004719,0.021079,-0.008218,0.005842,-0.068933,-0.031450,-0.027200,0.009334,0.068855,0.023518,-0.023862,-0.033547,-0.005279,0.050657,-0.039018,0.062200,0.019654,-0.009252,-0.035377,0.064142,-0.029670,-0.014642,-0.037762,0.020303,0.030552,0.040036,0.001252,-0.022422,-0.078074,0.015280,0.001133,-0.015609,-0.020687,0.043858,0.018491,0.067250,0.014156,-0.040699,0.022744,0.040506,0.035726,0.004022,-0.000153,0.026034,-0.012846,0.046962,-0.001370,-0.035319,-0.000070,0.011842,0.014583,-0.003641,-0.038682,0.023454,-0.006841,-0.015970,0.003522,-0.019471,-0.044172,-0.004285,0.006980,0.061098,-0.050585,-0.066874,-0.005840,-0.126740,0.008054,-0.051625,-0.020453,0.021335,0.011658,-0.003105,0.028896,-0.025350,-0.092110,-0.042442,0.013887,-0.014888,-0.050411,-0.049091,0.013193,-0.034752,0.007196,0.008862,0.055543,0.025588,0.029214,0.083179,0.036477,-0.040404,0.056313},
      {0.187136,0.016859,-0.014138,0.076557,-0.010223,-0.037239,-0.018390,0.007821,-0.001368,0.069860,0.027488,-0.052899,0.004970,-0.013802,-0.008193,-0.023304,-0.038630,0.010002,-0.023097,-0.086984,0.028369,0.026723,-0.012556,0.005978,0.041418,0.018193,0.017728,0.031348,-0.005770,0.044263,-0.032343,-0.068460,0.066450,0.024322,0.088803,-0.027867,-0.040004,-0.031634,0.083236,0.053089,0.034893,0.021963,0.024140,-0.011175,0.005863,0.011692,0.026153,-0.004916,0.003879,-0.019606,-0.078596,0.018706,-0.013838,-0.013490,0.098049,0.003092,-0.041350,-0.045259,-0.026191,0.011026,0.042738,0.008650,-0.076318,0.003245,-0.057115,0.042322,0.023831,0.022959,0.049796,-0.003487,0.030459,-0.032799,0.036576,0.068189,-0.008282,-0.002917,-0.022467,0.043272,0.011550,0.052526,-0.004921,0.024774,0.082275,0.051630,0.031155,-0.010996,-0.000179,0.034720,-0.012766,-0.060393,0.030246,-0.028870,0.027228,0.024003,-0.021313,-0.020662,-0.077056,0.026841,0.068078,-0.055273,-0.107640,0.016667,-0.015230,0.003980,-0.024239,0.017150,0.003742,-0.001395,-0.019541,-0.033860,0.011605,0.078555,0.070703,-0.003826,-0.034637,-0.001231,0.098645,0.045968,0.021700,-0.033445,0.004913,0.004456,0.036049,0.066216,0.004600,-0.072980,-0.055042,0.021364,-0.084023,-0.040882,0.021963,0.033677,-0.047609,-0.034795,-0.018307,-0.007772,0.120177,-0.003163,0.005489,0.059466,0.079662,0.061476,0.015908,0.051972,-0.023210,0.033351,0.152194,-0.061300,0.007548,0.008164,0.018523,-0.000860,0.030693,0.004504,0.001141,0.024961,0.009450,0.041073,-0.006071,-0.055719,-0.009990,0.011348,0.017222,0.048303,0.034326,-0.003166,0.136166,0.032214,0.100420,0.014355,-0.051613,-0.018127,-0.041149,-0.070307,-0.071499,0.006702,-0.095575,-0.002258,-0.046688,-0.019285,0.057570,0.010680,-0.025774,0.074220,0.038050,0.079000,0.026005,0.065273,-0.038707,0.016034,0.044246,-0.010202},
      {0.081184,0.016069,0.041494,-0.032519,-0.026265,-0.016624,0.026860,0.016070,-0.009867,0.038627,-0.056451,-0.004056,0.018805,0.002095,0.030628,0.007865,-0.004238,-0.003925,0.009340,-0.104801,-0.005420,0.019122,0.030411,-0.155409,-0.114424,-0.043048,-0.039012,0.022985,-0.014466,0.008604,0.049552,-0.020151,0.007704,0.102306,0.027144,0.023150,0.069298,0.001604,-0.025954,0.013420,0.007113,-0.039626,-0.030463,0.012113,0.054684,-0.030503,-0.075853,0.052588,-0.070755,0.034085,-0.019727,-0.046646,0.008790,0.013572,-0.033625,-0.014239,0.007457,0.001769,0.063548,-0.013396,-0.040799,-0.002729,0.021005,0.066449,0.042830,-0.066033,0.034906,0.062475,-0.124419,-0.049011,0.054556,-0.026858,-0.045785,-0.072079,0.002334,0.029530,-0.022970,-0.097657,0.007325,-0.018665,-0.009607,-0.056549,0.019498,0.012590,-0.039376,0.021922,-0.018960,-0.070799,-0.031157,0.047762,0.003518,0.063348,-0.019952,-0.076154,0.006652,-0.031030,-0.053219,-0.012789,-0.047066,0.003361,-0.041905,-0.022682,0.047789,-0.020430,-0.072160,-0.039679,-0.032694,-0.004792,0.108520,0.060166,0.011619,0.026482,0.021385,-0.008299,-0.003088,-0.024300,0.008389,0.084193,-0.014642,0.024211,0.029593,0.005699,-0.019547,0.000686,0.008653,-0.039782,-0.016826,-0.000350,-0.025895,-0.049238,0.003702,-0.006980,-0.012103,0.027229,-0.008385,-0.043512,0.014529,-0.011992,-0.005586,0.011559,0.049741,0.003963,-0.005597,-0.002197,-0.059069,-0.097863,0.014610,-0.040090,0.032609,-0.030268,-0.024727,0.024295,-0.034968,-0.062596,-0.070448,-0.080468,-0.001265,-0.140157,-0.010307,-0.011096,0.007091,0.022055,-0.056546,-0.069790,0.042269,-0.074102,-0.069545,-0.105819,0.027658,-0.023500,-0.028925,0.005333,-0.019104,-0.005428,-0.032384,0.045200,-0.078454,-0.020966,0.077748,-0.084672,-0.033807,-0.020090,-0.022381,-0.004772,0.000098,0.025931,-0.014493,0.016984,0.008627,-0.011592,-0.049016,-0.021471},
      {-0.004066,0.025885,-0.019320,-0.031447,0.033541,0.027251,0.019721,0.012700,0.058422,-0.009025,-0.017450,0.088454,-0.004758,0.043687,0.007531,0.012460,-0.021777,-0.053419,-0.010026,0.034216,0.062893,-0.008710,0.007630,0.040755,0.002579,0.000325,-0.047015,-0.004261,-0.033270,0.020154,-0.038243,0.023012,0.040190,-0.010916,-0.038834,-0.037342,0.011172,-0.010712,0.012226,0.018310,0.013050,0.005570,0.069759,0.019491,-0.009104,-0.025912,-0.046253,0.138269,-0.003923,-0.039323,-0.070858,-0.031813,0.021285,0.005307,0.048560,-0.003401,0.016108,-0.026880,-0.034175,0.069090,-0.021360,-0.010078,-0.047370,0.026228,0.011793,0.010359,-0.026248,0.052272,-0.013324,-0.036962,0.026523,-0.020477,-0.032839,-0.007224,0.055908,0.030016,0.002542,-0.021375,0.014045,0.018919,-0.022106,-0.106747,0.112229,-0.009699,0.020752,-0.011376,0.000219,-0.026250,0.048071,0.024918,-0.042701,-0.001965,0.064202,0.117704,0.065000,-0.007337,0.024515,0.000286,0.061199,-0.047979,-0.056124,-0.009437,-0.005612,0.025966,0.068885,-0.038674,0.010187,-0.048344,-0.005989,-0.022792,-0.006842,-0.015445,-0.013608,-0.029112,0.136754,-0.000580,0.040466,0.076682,-0.010154,-0.049282,-0.086714,0.062335,0.052706,0.019718,-0.023922,0.052931,-0.036907,-0.050900,-0.004755,0.065078,-0.005552,0.029113,0.056594,-0.047780,-0.037016,-0.019519,0.041573,0.100033,0.012433,0.041078,-0.011319,0.019253,-0.008508,0.008614,0.028679,-0.031439,0.069068,0.107105,-0.006641,-0.001486,0.045654,0.052889,0.002569,0.073658,0.003226,0.023377,-0.026555,0.051738,0.031698,0.034163,0.041229,0.070274,0.028615,0.091548,0.029841,-0.006686,-0.065659,0.034362,0.025380,0.031088,-0.007027,0.028350,-0.034854,-0.047318,-0.045292,0.014952,-0.065779,0.008838,0.057913,-0.035244,0.043191,0.035894,-0.029234,0.047385,-0.012471,0.010877,0.048093,0.011250,-0.056084,0.045661,-0.009742,-0.009483},
      {-0.031713,0.001531,0.027277,-0.047867,0.006674,-0.020360,-0.045170,0.009203,-0.086975,0.042750,-0.010554,-0.044514,-0.027193,-0.006179,-0.020363,0.000776,-0.009789,0.003353,0.014501,-0.027615,0.033450,-0.022376,0.003807,-0.049405,-0.021437,0.006923,0.005089,0.009713,-0.084844,-0.079353,0.019651,0.050737,-0.013996,-0.078932,-0.000905,0.000546,-0.083587,-0.004392,0.019886,-0.011739,-0.003224,0.036065,-0.083779,-0.005094,0.028613,0.034937,0.033345,0.058399,0.010136,0.032001,0.013362,-0.005351,0.026474,0.047783,0.028070,0.054677,0.014179,-0.021884,0.007081,0.048513,-0.022888,0.033368,-0.030809,-0.024499,0.021983,-0.041762,-0.019846,-0.053944,0.016962,-0.008769,-0.031356,0.048558,0.027434,0.009919,-0.078867,0.042618,0.009800,-0.010705,-0.007213,0.012852,0.023416,-0.025196,0.019017,0.017687,0.006785,-0.002494,0.024148,0.036162,0.025671,0.045006,-0.004913,0.005538,-0.039502,0.010644,0.044268,-0.006071,-0.000675,0.034060,-0.010117,-0.050596,-0.048260,0.021902,0.081140,0.013779,-0.023474,0.011568,0.067190,0.052471,-0.009741,0.014360,0.007898,0.037008,-0.011688,-0.071014,0.068343,0.029232,0.023167,-0.118524,0.008633,0.012084,-0.033464,-0.032341,0.022071,0.013869,-0.027558,0.036151,0.029068,0.038959,-0.002018,0.039304,0.018486,-0.028441,-0.008735,-0.009219,-0.007898,0.023786,0.007601,0.036227,-0.066398,-0.003353,0.039354,0.004429,0.011149,-0.013008,-0.017985,-0.014218,0.062074,-0.056553,0.006290,0.040468,0.029283,-0.005573,-0.016518,-0.026199,0.033489,-0.024773,0.029092,-0.011504,0.001424,-0.001345,-0.025522,0.044270,-0.048659,0.009829,0.092211,0.050836,-0.076457,-0.022511,0.064680,0.040447,0.009638,0.003670,0.015168,-0.041336,0.006139,-0.102412,0.024917,0.047841,0.062747,0.045203,-0.034200,-0.048073,0.020961,-0.076365,0.024048,0.015283,0.015527,-0.004592,-0.038747,-0.079196,-0.015826,-0.058520},
      {0.093135,-0.071782,-0.016536,-0.045129,-0.004108,-0.007667,0.050807,0.041608,0.002847,-0.118101,-0.034177,-0.001806,0.059075,0.007706,-0.036438,0.053050,-0.003334,0.038113,-0.014718,-0.050320,-0.054066,-0.026226,0.006726,-0.011218,0.030559,-0.001309,-0.022776,-0.063143,0.033570,-0.051827,0.011925,0.028019,0.025551,-0.037742,-0.000699,-0.040256,0.009120,-0.049048,-0.019202,0.026078,0.072428,0.013762,-0.010401,-0.057013,0.061575,-0.018959,-0.052585,0.017169,-0.007876,0.017896,-0.108187,-0.023753,-0.012370,-0.030682,0.165987,0.005641,-0.007525,0.035321,-0.000205,0.038608,0.006740,0.009587,-0.011958,0.049813,-0.036787,-0.011799,-0.036279,-0.054722,0.017325,0.129769,-0.015092,0.047791,-0.084071,0.005341,0.025658,0.021585,-0.008713,-0.001017,0.000057,-0.049073,-0.003586,-0.008619,0.041948,-0.014657,-0.075841,-0.006595,-0.032106,0.014267,0.061025,-0.074151,-0.022404,0.006447,-0.000863,-0.060454,-0.002393,-0.010459,0.044379,0.033039,0.005998,0.044081,0.006604,0.010041,-0.039180,0.000886,-0.038542,-0.037922,0.082963,-0.004625,-0.033207,-0.023425,0.017686,-0.012934,-0.040469,-0.019398,-0.006245,-0.033909,0.080869,-0.032253,-0.003614,0.003443,-0.063479,0.007482,-0.033883,-0.019841,-0.041902,-0.054992,-0.029493,0.013112,-0.006144,0.042334,-0.004743,-0.043619,0.054492,-0.000216,-0.034764,-0.045090,0.072041,0.089987,-0.046455,0.075852,0.046752,0.039547,-0.000854,-0.015064,-0.032717,0.031928,-0.022798,-0.030969,0.008999,-0.007060,0.069562,0.017604,-0.040234,0.044466,0.008374,0.042611,0.013446,0.023727,0.019998,0.021443,-0.036170,-0.002396,0.029117,0.020804,0.011159,0.045394,0.017878,0.013974,0.047855,0.062526,0.126040,0.016284,-0.070984,0.134762,-0.084834,0.004546,-0.157391,0.004844,-0.010191,-0.037070,0.006125,0.224423,-0.023342,0.026362,-0.105336,0.025913,-0.027514,0.069268,0.031677,-0.046372,0.013812,-0.014633},
      {0.006728,0.013869,0.012685,0.051854,0.056013,0.013187,0.043156,-0.008873,0.017223,-0.008089,0.050150,-0.039568,-0.008258,-0.050030,-0.026293,-0.031602,-0.005997,-0.062682,-0.002652,-0.002888,0.104136,-0.067209,0.006268,0.025833,-0.063601,-0.041097,-0.018547,-0.031069,0.023800,0.116573,0.004263,-0.028154,0.040762,0.069106,-0.044732,-0.036444,0.096550,-0.009137,0.027239,0.019744,-0.018981,0.016618,0.057319,0.006495,-0.082362,-0.011778,0.106170,0.080254,-0.058357,0.054524,-0.058302,-0.036642,-0.007101,-0.022818,0.028776,-0.061532,0.012396,0.025451,0.071515,-0.022010,0.026434,0.013736,-0.036366,0.015660,0.022871,-0.024745,-0.073256,0.063338,0.032991,0.092983,-0.000216,-0.001287,-0.004393,0.038411,0.035104,0.029610,-0.033699,-0.020922,-0.006039,-0.011185,0.037786,-0.026134,-0.133476,-0.011102,0.102671,-0.015365,0.021400,0.011612,0.096583,-0.002123,0.042566,0.047074,0.131494,-0.093005,0.000258,-0.030228,0.077297,-0.066932,-0.038056,0.057401,-0.035172,-0.003710,0.093235,0.010428,0.018080,-0.016658,-0.016329,-0.008626,0.086879,-0.029946,0.013840,0.022871,0.081287,0.007226,-0.068963,-0.061682,0.053595,-0.097965,-0.003028,0.135310,0.048199,0.101547,0.051694,0.066798,-0.038472,0.014668,0.000557,-0.018122,-0.046346,0.003922,-0.083763,0.005320,-0.064582,0.071614,0.067016,-0.040891,0.045462,-0.103975,0.010766,-0.004770,-0.032998,0.016913,-0.035425,-0.003699,-0.025849,-0.006165,0.072981,0.038991,0.014017,0.010133,0.094917,-0.035681,0.051818,0.055786,-0.062955,-0.023541,0.001694,-0.017424,-0.017837,-0.086459,-0.031529,0.026769,0.015432,-0.084407,0.089433,0.035072,0.012629,-0.035182,-0.053921,0.035684,0.037357,-0.007204,0.002591,0.035581,0.006697,-0.021130,-0.005377,0.099608,0.054761,0.068541,-0.056269,0.039169,-0.002136,0.034075,-0.045992,0.019206,0.047390,0.008390,-0.043503,0.051284,0.071785,0.018928},
      {0.003017,-0.068238,-0.027394,-0.015112,0.023135,0.002337,-0.037362,0.053103,0.050207,-0.050148,-0.065151,-0.029619,0.014497,0.015530,0.040756,0.073186,-0.007170,-0.008048,-0.017418,-0.020915,0.098119,0.041994,-0.012300,-0.045985,0.026186,-0.017100,0.031467,-0.011486,-0.105231,0.040483,0.016476,-0.026125,0.028443,-0.001995,0.007370,0.028577,0.052136,0.058679,-0.036134,-0.001348,0.044982,-0.007504,-0.037715,0.018739,0.004748,0.027469,-0.014744,-0.044577,-0.019460,0.029316,0.036010,0.028082,-0.017411,-0.008582,0.022061,-0.004163,0.054486,0.010702,0.017135,-0.001170,-0.024542,0.010284,-0.052214,-0.013363,-0.001766,-0.029380,0.030895,-0.005229,0.066544,-0.007171,0.008780,-0.012851,0.071127,-0.016122,-0.026840,-0.026568,-0.013235,0.005330,-0.006693,-0.023945,0.023499,0.119981,-0.020653,-0.005740,-0.014812,0.014226,0.011868,0.082764,-0.004090,-0.006709,0.004763,0.044632,-0.022231,0.027491,-0.049031,-0.004414,0.015245,0.028043,-0.008919,-0.006189,-0.031779,-0.019938,-0.055981,0.019421,-0.039086,0.005322,-0.021426,0.001205,0.067273,0.053414,-0.019565,-0.011543,-0.068697,0.012408,0.078660,-0.002911,-0.031876,-0.034608,0.008243,-0.005165,-0.010891,0.036086,0.076501,0.027955,-0.018114,0.022229,-0.009075,0.025278,-0.002543,0.027730,-0.099378,0.023075,-0.066153,0.039368,0.016168,0.010037,0.002433,0.020621,0.036637,0.002036,0.071602,-0.005868,0.006471,-0.002326,0.005059,0.030559,0.043132,-0.026850,0.029929,-0.006627,0.032199,-0.059985,0.066650,-0.010309,-0.017536,-0.006842,0.006563,-0.031557,-0.009175,0.082883,0.026970,0.021668,0.098780,0.052056,-0.053901,0.034102,0.063300,-0.066839,0.001178,0.043274,-0.013367,-0.022808,-0.034703,0.008937,0.019930,0.031177,0.019169,0.103393,-0.005437,0.010533,0.000164,-0.037158,0.029717,-0.005928,-0.005854,0.018816,-0.090512,-0.005153,0.020680,-0.010599,-0.018951,-0.034694},
      {-0.014300,0.062374,-0.017059,0.048855,-0.012150,-0.011745,0.004141,0.017460,-0.109726,0.056596,0.010598,-0.069829,-0.016589,-0.011763,0.015230,0.113422,-0.032947,-0.014477,0.044578,-0.027735,-0.009898,-0.000019,0.004579,0.015956,-0.036221,0.003616,-0.009588,0.029264,0.010276,-0.034496,0.012301,-0.061684,-0.011650,-0.038607,0.035410,-0.003229,0.020333,0.109620,-0.005958,-0.006915,-0.014814,-0.002995,-0.004101,-0.016954,0.016275,0.002284,0.018961,0.046189,-0.002142,-0.018015,-0.065269,0.086127,-0.039635,0.002053,0.000319,0.061874,0.041000,-0.046162,0.000153,0.025885,-0.010513,0.006263,-0.008273,-0.059844,0.027011,0.019449,0.079864,-0.043704,-0.061958,0.091457,0.009670,0.064854,-0.069559,0.083039,-0.018686,-0.012270,-0.007954,0.007762,-0.003441,-0.012555,0.017426,-0.067790,-0.048020,0.012541,-0.061975,-0.008845,-0.058055,0.042434,-0.009576,-0.043888,0.024636,0.055293,0.026105,-0.047720,0.025328,0.011124,0.013203,-0.027631,-0.029755,0.032807,-0.011930,0.003654,0.009426,0.052234,0.059406,-0.022361,0.016831,0.012321,0.004340,0.003822,0.043240,-0.037836,-0.014888,0.016137,0.032697,-0.013608,0.055741,-0.019475,-0.014660,0.012536,-0.097747,0.039072,-0.012085,-0.009667,-0.028994,-0.011465,0.026836,-0.016743,-0.000035,0.031033,-0.042196,0.024422,-0.000353,0.052928,0.044363,-0.003840,0.078559,-0.016351,0.052647,-0.000261,0.012283,0.037384,-0.012841,-0.008810,0.018112,-0.019067,0.013099,-0.020061,-0.024136,0.006025,0.009653,0.020369,-0.054388,0.063360,0.018300,0.020980,0.002527,-0.001465,0.006437,-0.037252,0.023310,-0.137526,0.029231,0.026432,-0.034795,0.061318,-0.032999,0.006650,0.065577,-0.001496,0.021490,-0.024945,0.004402,-0.019605,0.032956,0.071894,0.032448,0.017452,0.129559,-0.011697,0.067974,0.014536,0.015633,-0.005622,-0.020215,0.035582,-0.029097,0.026252,-0.031684,0.010134,0.054148,-0.017841},
      {0.071443,-0.085520,0.000159,-0.013027,-0.012540,-0.000006,-0.045595,-0.040274,0.071622,-0.073780,0.011960,0.020774,0.019924,-0.023181,0.003825,-0.063491,-0.042675,-0.085455,0.067775,-0.039162,0.042331,0.047697,0.001486,0.080552,-0.020185,0.005832,-0.003192,-0.130381,-0.087889,-0.036132,0.015941,-0.077895,-0.043321,-0.046952,0.050435,0.021045,-0.054726,0.064753,-0.031876,-0.047920,0.025774,0.018841,-0.059609,0.010375,0.009969,0.006967,0.015008,-0.059769,-0.004299,0.006058,0.031353,-0.020112,0.019054,0.011662,0.037971,-0.031666,-0.012418,-0.106278,-0.063625,-0.069559,0.000329,0.000041,-0.036069,-0.066797,0.068222,0.030135,0.018488,0.037487,-0.052198,-0.066625,0.002577,-0.070916,-0.033097,-0.038977,-0.059657,-0.027179,0.009453,-0.000214,-0.011255,0.002118,-0.007973,-0.005294,-0.032867,-0.001064,-0.067501,0.010127,0.033289,-0.003116,-0.075795,0.068905,-0.016230,-0.072424,-0.055909,-0.023529,0.008483,-0.009438,-0.049067,0.044529,-0.012435,-0.049849,-0.045145,0.012496,0.035140,0.057982,0.012565,0.076204,-0.019961,0.020245,-0.031879,-0.000372,-0.033260,0.024541,-0.009212,-0.008645,-0.109578,0.044359,-0.070388,-0.038523,0.003956,-0.061039,-0.014335,-0.074333,0.025442,-0.002217,0.019250,-0.098893,-0.053879,-0.066513,-0.040100,-0.009271,0.033238,0.030220,-0.040673,-0.019836,-0.018857,0.009678,-0.053787,-0.151929,-0.059849,0.021640,-0.034154,-0.021906,0.019314,-0.090573,-0.002833,-0.027336,-0.001305,-0.001370,-0.000171,0.006582,-0.026269,-0.037665,0.003880,-0.025207,0.041802,0.009242,-0.003904,-0.035197,0.002502,-0.035155,-0.014545,-0.051229,-0.043734,-0.014732,-0.023029,-0.032605,-0.142521,-0.015332,0.019813,-0.015193,-0.022305,-0.000591,-0.027364,0.005322,-0.066685,-0.049720,-0.089813,-0.042502,0.038969,0.029441,0.014249,0.009365,0.041387,-0.057615,-0.036183,-0.036649,-0.052092,0.001218,0.001255,-0.043719,-0.009703,-0.007148},
      {-0.010951,-0.013257,-0.077452,-0.037496,-0.017849,0.011757,0.033248,-0.072472,0.037613,-0.011020,0.051637,0.020508,-0.012845,-0.000474,-0.012881,-0.066657,-0.033493,0.004598,0.005198,-0.019408,-0.000915,0.006646,0.022249,-0.173976,-0.062251,0.002294,-0.047885,-0.010198,-0.006527,-0.006870,-0.028161,-0.040176,-0.038786,-0.036416,-0.032029,-0.018054,-0.065175,0.056039,0.066815,-0.001281,-0.003816,0.001116,-0.010288,-0.010481,-0.052057,-0.007676,-0.014175,0.029921,-0.005866,0.006242,-0.039998,0.002383,0.016034,-0.011547,-0.027556,-0.051138,-0.026991,-0.020426,0.023324,0.007359,-0.017495,0.007299,-0.017820,0.106004,0.032556,-0.023736,-0.058811,0.022190,-0.064745,-0.006902,-0.010134,-0.053386,-0.054980,0.006696,0.027147,-0.004123,0.005423,-0.026367,0.003638,-0.017451,0.024170,0.021383,0.065716,0.000695,-0.057195,-0.006596,-0.008201,-0.046661,0.029092,0.026387,0.022856,-0.002551,0.027068,0.001097,0.023111,-0.003347,0.032551,-0.056747,0.001879,-0.080570,-0.002414,0.029238,-0.152894,0.041452,-0.052432,-0.012371,-0.041143,0.019108,-0.004299,-0.006136,-0.006509,-0.006045,-0.048565,-0.020673,0.039621,-0.045361,0.009923,-0.061764,0.007750,-0.041216,-0.011921,0.053057,0.005816,-0.020581,-0.052018,-0.013577,-0.010202,-0.004831,-0.008826,-0.012890,-0.033417,0.007244,-0.007485,-0.033884,0.079263,-0.054854,-0.068991,-0.009105,0.020222,-0.001214,-0.037421,-0.017371,-0.016368,0.004254,0.027048,-0.079058,-0.040215,0.000926,-0.076605,0.012683,0.091561,-0.041138,-0.030558,0.010016,-0.013906,-0.065435,-0.002992,-0.026120,-0.000025,-0.046128,-0.024263,-0.035628,0.033455,0.020862,-0.033170,0.008959,0.101941,-0.007086,-0.007017,-0.012284,-0.054969,0.003868,0.003501,-0.025952,-0.013137,-0.057493,-0.018462,0.014901,0.055558,-0.006815,0.000491,-0.069586,-0.052006,0.041734,-0.013876,-0.031242,0.053923,-0.014311,-0.010809,0.009677,0.040806,0.006713},
      {-0.004520,-0.009440,0.024954,0.011067,0.054000,0.014830,0.001879,-0.000165,-0.020057,-0.024426,0.051591,-0.018300,0.003980,0.007630,0.011477,-0.052818,0.036618,0.058084,0.023654,0.079339,0.023077,-0.050473,0.000655,-0.008985,0.001419,-0.000827,-0.006582,-0.057900,0.030781,-0.023089,-0.071069,-0.072041,-0.014531,-0.020460,-0.012848,0.028791,-0.042209,0.126720,0.109915,-0.055773,-0.020135,-0.013632,0.064307,0.039097,-0.012165,-0.023613,0.012942,-0.063874,0.019793,0.006228,-0.071060,0.036232,-0.005670,0.011926,0.027024,-0.021285,-0.021255,0.007227,-0.049620,-0.064958,-0.024043,-0.012519,-0.008305,0.020531,0.007970,0.013002,-0.013568,0.017592,0.014312,0.032958,-0.067393,0.071691,-0.026086,0.011336,0.082692,-0.008985,-0.006715,-0.008146,0.040753,0.015599,-0.002357,0.062502,0.055825,0.001768,-0.081520,0.012247,0.003264,-0.062831,-0.008492,-0.023806,-0.033284,0.011654,0.095672,0.038921,-0.041166,0.005061,0.020863,-0.023729,0.026593,-0.151256,0.005042,-0.047684,0.031819,0.050774,-0.034919,-0.029933,0.060434,-0.026924,0.013902,0.038710,0.014913,0.030731,0.012030,0.007450,0.063965,0.060648,0.063785,0.021214,-0.001529,0.015115,-0.062696,-0.029380,-0.012097,-0.007482,0.042244,0.043618,-0.008957,0.082751,-0.008940,0.089792,0.119198,0.058460,0.002031,-0.004348,0.010515,0.009260,0.051593,0.009645,-0.013627,0.016404,-0.011526,0.029103,-0.023058,-0.046614,0.039813,0.031155,0.002291,-0.055284,-0.053270,-0.024916,-0.068195,0.121061,0.015175,-0.005738,0.013129,0.025724,-0.015337,-0.026603,-0.000854,-0.020177,-0.013449,-0.054073,0.018925,-0.064487,0.072522,0.027211,0.053943,-0.017286,-0.026401,0.033200,0.002427,-0.026962,-0.010339,0.019431,-0.025094,-0.012027,-0.019350,-0.096522,0.040727,-0.020074,0.005771,0.017296,-0.038716,-0.090502,-0.036269,0.015816,0.039856,0.011207,-0.004145,0.029025,-0.013715,0.015668},
      {0.026600,0.002489,0.019019,0.053577,0.005341,0.032245,-0.033468,0.011291,-0.052569,0.027946,0.058755,-0.122568,0.042454,0.000699,0.024765,-0.078395,-0.014396,-0.056937,0.022511,0.029238,-0.054122,-0.015027,-0.003851,-0.050310,-0.004631,-0.007430,0.030438,-0.018622,0.031923,0.051195,-0.058267,0.026942,-0.041239,-0.031786,-0.054416,0.011059,-0.046053,0.033172,-0.013951,-0.019720,0.035260,0.010617,-0.009526,-0.018942,-0.049680,-0.006359,0.044205,0.029333,0.043531,-0.051087,-0.019028,0.080176,-0.044188,0.028650,0.083693,-0.079916,-0.006587,-0.009721,0.020860,0.017646,0.041723,0.003260,-0.106395,-0.076501,0.006706,-0.028757,-0.033916,0.004273,-0.069094,-0.100906,-0.021877,0.025768,0.018027,0.044453,0.013862,0.010063,0.009394,0.000739,0.016158,0.020658,0.022765,-0.075635,-0.008951,-0.043387,0.000019,-0.006570,0.055496,-0.003783,-0.002876,-0.040925,0.045311,0.079929,-0.144942,0.027481,-0.003933,0.021688,-0.033847,0.118853,-0.006739,-0.029971,0.054638,0.001695,0.043208,-0.083232,-0.021090,0.002235,-0.011734,-0.010402,0.004044,0.031907,-0.020244,-0.035845,-0.030760,0.026197,0.016103,0.008000,0.029107,0.000707,0.009282,0.026899,0.036656,-0.042592,-0.045223,-0.032921,0.032918,0.045788,-0.063120,-0.016060,-0.000832,-0.023834,0.022310,-0.013330,0.049137,-0.002311,-0.015196,0.026349,0.059570,-0.048888,-0.018823,0.068214,-0.036837,0.002004,0.039361,0.057928,-0.018706,-0.035582,-0.112667,0.094819,-0.031739,0.006684,-0.036917,-0.050932,0.046154,-0.067572,-0.027881,-0.041453,0.018985,-0.048524,0.031669,0.076927,-0.021539,-0.071816,0.017611,-0.029656,-0.051051,0.037108,0.024841,-0.016160,-0.014526,-0.000961,0.019582,-0.040276,-0.051807,-0.059782,-0.160352,-0.003035,-0.195546,-0.029596,0.014108,0.011420,-0.063759,0.129721,-0.019166,-0.029194,0.091260,0.036545,-0.049219,0.030377,-0.020985,-0.000746,-0.057980,-0.037593},
      {0.027462,0.042533,0.043383,0.036685,-0.019633,-0.000705,-0.011370,0.033630,-0.002070,-0.026177,0.054541,-0.066911,0.005941,0.032275,0.019833,-0.017662,-0.032139,-0.044456,0.006379,0.059558,-0.022952,-0.022133,-0.014276,-0.049768,0.028428,0.021591,0.004607,-0.059752,-0.109153,0.143322,0.087414,0.032342,-0.025695,-0.044902,0.032828,0.004206,0.046021,-0.001382,-0.111439,0.001470,-0.025969,0.015635,0.009466,-0.119503,0.101905,0.022088,0.004683,-0.002940,0.042674,-0.003376,-0.020990,0.054428,-0.033969,0.009834,-0.029015,-0.038527,0.004468,-0.057517,-0.065998,0.016695,-0.052729,0.000904,0.038399,-0.009760,-0.039478,-0.038568,0.009059,0.004667,-0.004648,0.094453,-0.005385,0.019366,0.021634,-0.004211,0.053781,-0.002296,-0.007580,0.040117,-0.006358,-0.129478,0.043830,-0.040041,0.016212,0.037097,-0.097823,-0.004586,0.030283,-0.078976,-0.049116,-0.021310,-0.024463,-0.031036,0.066193,0.034310,0.030674,-0.001341,-0.076866,-0.055634,-0.041406,0.014109,-0.049182,0.031916,-0.021905,0.021817,-0.049561,0.117127,0.001862,-0.014721,-0.026653,-0.000316,0.024982,0.034940,0.011601,-0.001426,0.091452,0.098518,-0.019693,0.097388,-0.002999,0.017227,-0.038627,-0.074690,-0.002701,0.032026,-0.010680,-0.067071,0.041577,-0.035579,-0.028087,-0.061976,0.032103,-0.034686,-0.023272,-0.055884,0.069620,0.031255,0.053262,-0.032372,-0.009095,-0.012997,-0.082103,0.025536,-0.026340,-0.093442,-0.014735,0.005662,0.055130,-0.008670,-0.045416,0.030571,-0.023919,-0.023433,0.022926,0.022315,0.020669,0.048503,0.012370,0.028409,-0.014395,-0.043711,0.002142,-0.036372,-0.026711,-0.061038,0.060858,0.035422,0.013556,0.009889,-0.048234,-0.011101,0.021289,-0.029295,0.033065,0.059470,0.034120,-0.004399,0.033027,-0.036981,0.015967,0.066158,-0.066836,-0.010750,0.089172,-0.041321,-0.031916,0.021876,0.033825,0.008125,0.020668,-0.065480,-0.080828,-0.005966},
      {-0.106374,-0.062979,-0.008904,0.095647,0.016957,0.005174,-0.003558,0.076192,0.005839,-0.032007,-0.009966,-0.060892,-0.013615,-0.064800,-0.004080,-0.019637,-0.050110,-0.033279,0.014525,-0.032238,-0.028701,0.002560,0.011036,0.018091,0.002752,-0.015333,-0.042155,-0.054051,-0.037960,-0.018634,-0.027951,-0.017781,0.077321,-0.083924,0.036959,-0.076577,-0.005371,-0.055334,-0.005325,0.082852,-0.008169,0.027208,-0.062965,-0.159789,0.015709,-0.056710,-0.004234,0.065223,-0.000241,0.017938,0.180151,-0.041678,-0.049745,-0.026770,-0.047587,-0.033066,-0.056681,-0.070220,-0.066155,0.046425,0.075720,0.015777,0.023704,0.013951,-0.005646,0.015947,0.020171,0.006464,-0.009331,-0.059975,0.010888,0.036482,-0.090208,0.042437,0.058489,0.031864,-0.001260,-0.026104,0.036692,-0.019108,-0.000610,-0.061045,0.095459,0.004097,-0.043090,-0.026888,0.029275,-0.057500,-0.021688,-0.106934,0.061764,0.041467,-0.063501,-0.010652,0.021359,0.015039,0.005015,0.022613,0.005607,-0.095617,-0.016651,-0.029405,-0.011836,0.052497,-0.012143,-0.025998,0.096023,0.000920,0.000297,-0.089779,-0.036921,-0.041117,-0.095246,-0.015041,0.001548,0.029302,-0.165769,0.084865,-0.011573,0.038406,-0.057449,-0.002937,-0.050668,0.013103,-0.029612,0.028678,0.022833,0.008513,-0.005818,0.009794,0.095092,0.051080,-0.056131,0.006209,-0.028794,-0.057614,-0.134893,0.050798,-0.120888,-0.041546,0.024036,-0.090023,0.012164,-0.030474,-0.087286,0.030420,-0.011873,-0.056688,-0.017640,0.028348,0.072282,0.048225,-0.003537,0.101092,0.004775,0.068316,0.055328,0.041467,-0.010387,-0.016750,-0.040791,-0.021384,0.061481,-0.081773,0.013817,0.116392,0.028159,-0.002922,-0.013477,0.011138,-0.030350,-0.016107,0.038860,0.036232,0.044575,-0.007590,0.048056,-0.039710,0.039053,-0.043803,-0.013982,-0.077301,-0.054885,0.017342,0.052493,-0.065587,0.001653,-0.066612,-0.004360,-0.014896,0.025719,-0.027436},
      {-0.071875,0.020267,0.007120,-0.033631,0.030531,-0.026101,-0.016426,-0.025545,0.096137,-0.048827,0.065811,0.044661,-0.028867,-0.020238,0.021146,0.002348,0.053306,0.073150,-0.002243,0.039524,-0.032088,0.055809,0.002711,-0.054287,0.014468,-0.017828,0.017115,-0.043394,0.045497,0.009953,-0.009830,-0.079815,-0.069253,-0.005165,-0.018602,0.017683,0.038303,-0.024616,0.005499,0.010143,0.007657,-0.006862,0.011079,-0.049713,-0.045758,-0.010043,0.027095,0.009035,0.002335,0.004991,0.007499,0.037470,-0.014167,0.012172,0.067574,0.035337,0.022822,-0.011179,0.039407,0.063748,-0.016643,-0.012221,-0.049779,0.017821,-0.006918,0.060384,0.076802,-0.080642,-0.050832,-0.003411,0.070184,-0.063234,0.042495,-0.044393,-0.022642,0.017417,-0.000481,0.003382,0.003055,0.006793,0.031835,-0.069170,-0.025135,-0.006964,0.026038,-0.010603,0.036983,-0.006922,-0.011836,0.039228,0.002632,-0.028874,-0.002753,-0.042263,0.044634,-0.001248,-0.005943,0.028633,-0.044987,0.058174,0.022743,-0.006443,0.015868,-0.038739,-0.003207,-0.016498,-0.022221,-0.002972,-0.040513,0.044482,-0.022112,0.046187,0.013411,0.010451,-0.013327,-0.045914,-0.013865,0.022481,0.003352,0.014119,0.085561,0.014117,-0.008358,0.010622,0.015655,0.010734,-0.021037,0.041291,0.008988,-0.072405,-0.027547,0.064090,0.086560,0.027761,0.059385,0.022037,-0.036828,-0.059453,-0.027769,0.008630,0.029400,-0.022806,0.000486,0.006937,0.039806,-0.033083,-0.036060,-0.066724,-0.009402,0.004007,-0.008687,0.002656,-0.021414,-0.002629,0.022101,0.011384,-0.004828,0.009616,0.035515,-0.033330,0.038261,0.039764,-0.003424,0.009535,-0.030041,-0.048907,-0.037386,0.034775,0.012863,0.052505,0.011836,0.012015,-0.017275,0.002412,0.015490,-0.031285,0.020504,0.032739,-0.028105,0.033523,-0.025614,0.011504,0.024174,0.036847,-0.011171,-0.022065,-0.051185,-0.025757,-0.044054,0.072355,-0.098449,0.078633},
      {-0.000363,0.042239,-0.025691,-0.019492,0.008521,0.025688,-0.005881,0.011487,-0.044868,-0.009463,0.035032,0.050493,0.024359,0.048956,-0.041460,0.051307,-0.041809,-0.029572,-0.000805,0.053269,-0.005864,-0.003901,0.007329,-0.045996,-0.011139,0.020731,-0.035623,-0.003408,0.067213,0.093183,0.030226,0.011639,-0.015123,-0.000424,0.070488,-0.000997,-0.001575,0.064188,0.018961,-0.003118,0.029294,0.017728,0.055113,0.040796,0.052463,0.009480,0.024048,0.012227,0.010991,-0.076129,0.150797,0.013159,0.025536,-0.004979,0.026086,0.041255,0.005858,-0.000187,0.023335,0.024061,-0.013658,0.015269,0.046171,0.059926,-0.027060,0.035874,0.028846,0.023530,0.018270,0.026848,0.146555,0.102516,-0.029731,0.018110,0.002226,-0.000563,-0.005105,-0.007072,-0.007346,0.043068,-0.021958,0.040473,-0.013482,0.008820,0.036708,0.001577,-0.007485,-0.008221,-0.024643,0.026443,-0.038960,0.000333,-0.120547,0.074855,0.001130,-0.003174,-0.005842,0.123671,0.007547,0.025064,-0.024609,-0.021157,0.021400,0.009708,-0.053529,0.043396,0.033323,-0.005706,0.039051,0.066147,-0.021348,0.008579,0.089231,-0.024352,0.047007,0.057021,-0.093015,0.071610,-0.004096,-0.028962,-0.055367,-0.021128,0.008292,-0.003714,-0.019589,0.016285,0.032005,-0.005808,-0.014453,0.031131,-0.013254,0.025814,-0.011018,0.019378,-0.012605,-0.029552,-0.034455,-0.055438,-0.031093,-0.012865,-0.034243,-0.018840,0.042090,0.020042,0.003524,-0.016573,0.084311,0.054813,0.039309,0.018995,0.084610,-0.041255,0.024824,0.002131,-0.007040,-0.005227,0.024900,0.000928,-0.006894,-0.015012,0.032681,0.028409,-0.007661,0.073520,0.104906,0.004420,0.063984,-0.012380,-0.013024,0.043217,0.046873,-0.003353,0.041872,0.079252,0.003624,0.009056,0.054192,0.026951,0.054604,0.008752,0.044339,0.084771,0.031216,0.039833,0.042777,-0.026289,0.035318,-0.018823,0.036806,-0.067757,0.120753,-0.016325},
      {0.030594,-0.047120,0.001246,-0.034687,-0.034923,-0.007326,-0.008031,-0.025066,-0.018909,0.010151,0.002878,-0.049640,-0.015685,0.025820,-0.025459,0.045007,-0.026684,-0.101686,-0.005018,0.066550,-0.000796,0.041426,-0.002457,0.011734,0.021178,0.030406,0.042479,0.052926,0.039575,0.096063,-0.012739,0.010980,-0.028008,-0.078621,-0.002286,0.013323,0.020276,0.046013,-0.057113,0.014137,-0.034510,0.022971,0.045978,0.023539,-0.033300,-0.009304,-0.006959,-0.083022,0.015063,-0.004066,-0.061843,0.013113,-0.064033,-0.037736,0.012826,0.016561,0.010849,-0.091289,0.092778,-0.048190,0.002190,0.013978,0.011306,-0.028958,-0.068167,0.017719,0.052965,0.020504,0.033151,-0.009507,0.026643,0.009871,0.018847,0.001812,0.033820,-0.002777,0.021485,0.002553,0.003036,-0.020930,-0.015034,0.047745,-0.038675,0.000612,0.024412,-0.009446,0.013034,-0.086555,-0.036759,-0.024706,-0.055619,0.029785,0.067160,-0.056159,-0.051049,0.024194,0.047205,-0.049753,0.008960,-0.018793,-0.034092,-0.037640,0.018559,0.023778,-0.079395,0.007277,0.000040,0.054669,0.031996,0.042490,0.016619,-0.014715,-0.004946,-0.012924,-0.037350,0.008419,0.030258,0.066472,-0.022871,0.027127,0.017172,0.022851,-0.010505,0.027385,-0.006344,-0.018942,-0.019972,-0.050013,0.003633,0.066425,-0.023323,0.016311,-0.016022,0.004038,0.009259,-0.006111,0.074012,0.026574,-0.120258,0.011088,0.015599,0.033456,-0.010114,-0.063788,0.010016,0.025574,-0.015173,-0.008959,-0.050125,0.018365,0.047855,0.036379,0.003883,-0.040144,-0.064655,-0.018069,0.019593,-0.061845,0.013218,0.011691,0.055903,0.007740,-0.006289,0.010230,0.006619,-0.024929,0.015924,-0.023843,0.077391,-0.003103,-0.030107,-0.017933,-0.009167,-0.044209,-0.016728,-0.074372,-0.036699,0.018130,-0.068590,-0.022552,0.001045,-0.019139,0.000731,0.027530,-0.047631,0.012989,-0.038750,0.021363,-0.038234,0.062565,-0.049595,-0.017846},
      {0.079192,-0.075185,-0.018635,0.002251,-0.052044,-0.037805,-0.017427,0.003476,0.021837,-0.056060,-0.000153,-0.036767,-0.016889,0.000528,0.000021,0.033576,-0.012146,0.094091,-0.007060,0.040502,-0.026149,0.023357,-0.004020,0.023933,0.002274,-0.012969,0.011193,0.001234,0.067989,0.076051,-0.036972,0.089814,-0.020520,0.026072,0.070880,0.018727,-0.055562,0.021684,-0.013226,-0.020256,0.006267,-0.015763,-0.050621,0.039502,-0.062064,0.009351,-0.035075,0.025241,-0.016738,-0.068328,0.022819,0.011616,-0.010466,0.002633,0.056216,0.003716,-0.007922,-0.083334,0.058957,0.007940,0.060748,-0.003181,0.031455,-0.087153,0.008026,0.042221,0.046131,0.026707,-0.050395,0.085072,0.010812,0.033763,0.024877,-0.026682,-0.023250,-0.009809,-0.015722,0.000635,-0.003339,0.073238,0.023017,-0.070091,0.068425,0.049668,0.045282,0.002579,0.016546,-0.044791,-0.029211,0.028694,0.055539,0.050319,0.037054,0.072351,0.011121,-0.021977,0.065432,-0.049748,-0.008832,-0.067592,-0.110027,-0.005971,0.019615,0.015487,0.052711,-0.027781,-0.024438,-0.033183,0.028212,0.033081,0.018683,0.027301,-0.072575,0.018195,0.090084,-0.001771,0.015169,-0.016519,0.003122,-0.042241,0.007044,0.020456,-0.010755,0.030721,0.011011,-0.139096,0.029263,0.061424,-0.065039,-0.004565,0.000197,0.061075,-0.092252,0.012441,-0.042666,0.001033,-0.017751,0.008011,-0.002953,-0.008694,-0.038411,0.006669,-0.008822,-0.039716,-0.033333,-0.047134,0.089016,-0.119072,-0.014783,0.001956,-0.037683,-0.057375,-0.009203,-0.067293,-0.015807,-0.065166,-0.001963,-0.015083,-0.031044,-0.002496,-0.048278,0.001803,0.017514,0.025856,-0.033429,-0.039627,-0.044890,-0.027248,0.090552,0.011991,0.035745,-0.009461,0.002841,0.092077,0.055715,-0.013803,0.033984,-0.013313,-0.003282,-0.017657,-0.019225,-0.037122,-0.038112,0.058344,-0.053201,-0.005400,0.031091,0.011791,-0.005992,-0.022539,0.007769,-0.026595},
      {-0.061937,-0.018019,-0.006289,-0.009777,-0.019972,-0.020613,-0.042300,-0.002475,-0.106062,0.008599,-0.054090,0.085701,-0.040609,-0.034705,0.016518,-0.050256,-0.061643,-0.106551,0.012910,-0.015994,-0.069028,-0.031711,0.001711,-0.088995,-0.002259,-0.034495,-0.025275,-0.067994,-0.022474,-0.047615,0.012967,0.005126,-0.088092,0.017441,0.012427,-0.005595,-0.021368,-0.039054,-0.055066,-0.024065,-0.075171,0.005270,-0.094755,-0.046332,-0.022581,-0.016804,-0.007843,-0.021169,-0.019721,0.007277,-0.051872,-0.014385,0.051242,0.016556,0.014955,-0.010774,0.003209,-0.127990,-0.050836,0.014724,-0.019686,-0.011690,-0.028069,0.034960,0.036817,-0.023263,0.017460,-0.021687,0.000341,-0.007034,0.019816,0.064277,-0.040607,-0.026697,-0.043077,0.011241,-0.014914,0.007559,0.000682,-0.006436,0.002602,0.068306,-0.056641,-0.005107,0.035761,0.002524,0.013008,0.030971,-0.030595,0.010486,-0.016069,-0.045013,0.029876,0.044943,0.007240,-0.041987,-0.071920,-0.057988,-0.046146,0.020263,-0.030382,-0.028430,-0.061173,-0.037081,-0.089456,-0.008287,0.016737,-0.036404,-0.061724,-0.010178,0.033903,-0.006563,-0.032207,0.010326,-0.076981,0.020971,0.007082,-0.061416,-0.006425,-0.020440,0.006227,-0.071972,-0.034745,0.011190,0.021355,-0.037455,0.017598,-0.058762,-0.036976,-0.063336,0.021409,-0.012294,-0.012247,0.015329,-0.093212,-0.016561,0.022329,-0.060261,-0.052623,-0.030822,-0.038844,0.012206,-0.030709,-0.058839,-0.020266,0.017194,-0.015111,0.014337,0.017021,0.000125,-0.050459,-0.001643,-0.022663,0.001744,0.063028,0.018099,-0.000654,0.013617,-0.003801,-0.008259,-0.008768,-0.014022,-0.030439,-0.067994,-0.035123,-0.013151,0.052570,0.025845,0.005564,0.034014,0.000984,0.023096,0.002519,-0.056118,-0.032729,-0.008268,-0.070395,-0.073757,0.000493,0.033295,-0.028907,-0.011688,0.004479,-0.108422,-0.037447,-0.006230,-0.078510,0.004316,-0.061980,-0.065580,-0.023601,0.008315},
      {0.003858,0.050028,-0.009868,0.031707,0.006689,0.008030,0.012584,-0.028664,-0.023235,0.029720,-0.000296,-0.088397,0.002950,-0.034199,-0.013352,-0.029636,-0.015826,0.018855,-0.036532,-0.045650,0.013006,-0.036533,-0.020106,0.115747,0.048176,-0.055553,0.029107,-0.004400,-0.012410,-0.069174,0.056585,0.032607,-0.084140,0.039032,-0.048869,-0.028404,0.035689,0.043133,0.002912,-0.013425,0.008922,-0.009668,-0.086620,-0.057407,-0.017934,-0.021016,-0.054191,-0.103488,-0.050366,0.010472,-0.049965,0.067323,-0.074238,-0.060326,-0.010446,-0.005825,0.022662,0.036043,-0.002353,-0.077608,-0.039668,-0.004315,-0.001408,-0.103611,-0.078344,-0.020327,-0.000597,-0.007526,0.117480,-0.041966,0.120573,-0.026365,0.014962,-0.008343,-0.060428,-0.037817,-0.022284,0.034581,0.000012,0.052963,0.001861,0.036890,-0.026971,-0.027658,-0.005259,-0.016164,0.023134,-0.057070,-0.031693,-0.093651,-0.029644,-0.022199,-0.031269,-0.018205,-0.046724,-0.049400,-0.021434,-0.010901,-0.087486,-0.040334,0.001535,-0.006967,0.010714,-0.019919,-0.042992,-0.047106,0.006067,-0.012423,-0.013036,-0.020585,0.005918,0.000617,-0.050203,-0.059413,0.056888,0.014066,0.053074,-0.067171,-0.021849,-0.032913,-0.080760,0.040627,0.022206,-0.057567,-0.061127,0.008310,-0.023319,0.001033,0.007453,0.001654,-0.046077,-0.004880,0.040436,0.019117,-0.019063,-0.037665,-0.000828,-0.055004,-0.045293,0.012604,-0.042628,-0.010224,-0.012030,0.008424,0.002306,0.064063,-0.060979,-0.000855,0.049270,-0.015060,0.142252,-0.026194,-0.052157,0.079382,0.021618,0.009031,0.005601,0.006689,-0.004589,-0.061451,-0.001647,-0.112356,-0.072472,-0.056815,0.060188,-0.032824,0.035008,-0.014182,0.003939,-0.031289,-0.019638,-0.036882,-0.032612,-0.026418,-0.045386,0.017753,-0.118207,0.025475,0.020248,0.016943,-0.066301,-0.033326,-0.021777,0.016501,0.003132,0.006903,0.033105,0.003198,0.018918,-0.031478,0.024068,0.018567},
      {0.111786,0.030390,0.004022,-0.021560,-0.027988,-0.064426,0.047447,0.009557,0.039372,0.008659,-0.007675,-0.012088,0.000312,0.014948,-0.019850,0.023617,0.005480,0.014292,0.020950,0.036668,-0.032607,-0.034766,-0.000725,0.048892,-0.016898,-0.011360,-0.017929,0.081385,0.018516,0.056741,-0.034471,-0.008323,-0.032435,-0.063955,0.003735,-0.015649,0.079277,0.052249,0.026903,-0.020011,0.043315,0.008015,0.014036,-0.008842,-0.041890,-0.004920,0.042989,-0.007465,-0.030236,0.011108,0.094315,0.016890,-0.025558,-0.012148,0.021504,-0.015989,0.056293,0.005869,0.019744,-0.022110,-0.025016,0.005064,-0.045976,0.035606,0.003933,-0.101126,-0.012121,-0.018093,0.022753,-0.054360,-0.041178,-0.045733,-0.076331,0.018263,0.032844,0.015518,-0.028834,0.016754,0.019615,-0.043924,0.033716,0.034695,-0.054522,0.030195,-0.044769,-0.013349,-0.003495,0.008314,0.062857,-0.050617,-0.085136,0.047125,-0.142099,-0.052656,-0.008036,-0.046647,0.007866,0.099834,0.020051,0.088450,-0.152268,0.018117,-0.019453,-0.035685,0.004252,-0.042711,0.046466,-0.071821,0.026988,0.011344,-0.055561,0.024500,0.021276,-0.004169,0.028104,-0.049328,-0.113854,-0.004642,-0.002579,0.052517,-0.032634,0.021082,-0.019855,0.008466,-0.030462,-0.032721,-0.013942,0.002267,-0.089546,0.071704,-0.036830,-0.023818,-0.054490,0.015299,0.033198,-0.012309,-0.104721,0.024252,-0.030620,0.008025,0.005647,-0.060722,0.041063,0.017235,-0.002982,0.054932,0.155685,-0.088064,-0.032761,0.024401,0.043475,0.057324,-0.021676,0.016239,-0.021174,0.014221,0.005572,-0.058306,-0.024454,-0.000790,0.024932,-0.060506,-0.035550,-0.020252,-0.008429,0.088939,0.018859,-0.005419,0.050863,-0.013985,-0.036452,-0.006087,0.016706,-0.010267,-0.015675,0.010426,0.016325,0.029798,0.029425,0.002179,0.028239,-0.070546,-0.011613,-0.078762,0.063457,-0.045767,0.033051,-0.044205,-0.015021,0.056179,-0.035537,-0.033836},
      {0.116708,0.037165,0.003352,0.070904,-0.027194,0.001974,-0.015165,0.028037,-0.034719,-0.002844,-0.063515,-0.057420,0.023179,-0.064185,-0.008147,0.039231,0.020230,0.043420,0.007750,0.199410,0.034867,0.000739,0.010177,-0.030547,0.001456,0.018501,-0.009722,0.028725,0.013839,-0.065882,0.006535,-0.085493,0.018674,0.012388,-0.000491,-0.026218,-0.012114,-0.050767,0.068695,-0.028494,0.020517,0.011481,0.051106,-0.029709,-0.057176,0.001060,-0.093728,0.051951,-0.022754,0.040409,-0.032846,0.005305,-0.014825,-0.013919,-0.011912,0.001944,0.009803,0.035314,0.006873,0.024298,0.032117,0.001208,0.029096,0.006647,-0.015020,0.020009,0.013695,-0.064757,-0.033168,0.031221,-0.018062,0.060310,-0.008874,0.024066,0.009299,0.022929,0.001227,-0.003443,-0.026806,-0.055531,-0.030590,-0.082819,-0.090133,0.010695,0.126456,-0.008466,-0.058127,0.013606,-0.032247,-0.011397,0.036236,0.028592,0.003606,0.110244,-0.011985,-0.009015,-0.012544,0.029614,-0.007814,-0.009856,-0.033820,0.019179,-0.004428,0.034660,-0.002221,0.007142,0.004500,-0.030713,-0.001909,-0.037877,0.002249,-0.022291,-0.085500,-0.026087,0.023137,-0.040566,0.062241,-0.055495,0.000108,0.044587,0.005127,0.006582,0.013513,-0.057913,0.017476,-0.011730,-0.019280,0.048735,0.000857,-0.083824,-0.044222,-0.017404,0.028741,0.038625,-0.065828,-0.021345,0.041768,0.093782,-0.018658,0.028077,-0.017762,0.022551,0.007647,-0.009197,-0.036186,-0.019430,0.042176,0.012834,0.007964,0.020570,0.007633,0.004143,0.019742,-0.022041,-0.008500,0.001280,0.010319,0.013655,-0.014868,-0.011784,0.031384,0.014063,0.056272,-0.010093,0.058639,-0.033371,0.008212,-0.011355,0.009322,-0.035628,-0.029449,-0.016926,-0.027073,-0.004830,0.006238,-0.056219,0.013176,0.021261,-0.006195,0.080016,0.001045,-0.045583,0.017419,0.011177,-0.023418,0.023299,-0.010987,0.013592,0.067097,0.035485,0.053957,-0.007837},
      {0.026269,-0.004653,-0.013996,0.088325,0.002389,0.031021,-0.057596,-0.002220,0.022228,-0.013751,-0.032576,-0.020224,0.019882,-0.021720,0.043221,0.052294,0.021774,-0.022546,0.007528,-0.022895,0.059001,-0.029016,-0.010082,-0.051485,-0.029466,0.009731,-0.017140,-0.060427,-0.026092,-0.028323,-0.048139,-0.001179,0.028579,-0.017335,0.009916,-0.008270,0.018060,0.039882,0.035316,0.015592,0.025293,0.024370,0.010210,0.076729,-0.065575,0.001296,0.068391,0.039626,0.042464,0.026646,0.057036,-0.016908,0.030266,0.039727,0.008865,0.071142,0.045130,0.017751,0.011303,-0.070032,-0.004390,0.005616,0.011594,0.009860,0.032668,0.011247,0.037873,0.033830,0.055863,0.009933,-0.049103,0.013164,-0.018569,0.033572,-0.050778,0.010228,0.007925,0.026582,0.009759,0.057901,0.036487,0.057299,0.010651,-0.003433,0.098057,-0.005930,0.081370,0.012369,0.027142,-0.024473,-0.027625,0.035177,-0.045172,0.010896,0.039931,0.018644,0.040327,0.059725,-0.005703,0.005561,0.033573,0.012135,0.010238,0.040517,-0.081640,0.001048,-0.031117,0.005567,-0.000855,-0.082713,0.000163,0.010610,0.036498,0.028843,-0.036329,-0.070869,-0.029848,-0.002018,-0.014623,0.014023,-0.062470,0.090916,0.008942,-0.016682,-0.071272,0.021679,0.026002,-0.013389,0.027705,0.024401,0.021100,0.036087,0.047174,0.000279,-0.065218,0.025413,0.015574,-0.004763,-0.065159,0.004547,-0.013720,-0.017570,0.014538,-0.050871,0.025964,0.032981,-0.007088,0.028249,-0.021559,0.019408,-0.053938,0.012047,-0.032160,0.065505,-0.009722,-0.037344,0.010536,0.037823,0.020149,0.001582,-0.002625,-0.022480,-0.023812,-0.028171,0.083464,-0.001929,0.100032,0.019225,-0.022106,-0.066000,0.065619,-0.010592,0.006095,0.037642,0.020937,-0.063803,0.037088,0.001940,0.112094,-0.006944,0.026974,0.067523,0.000706,0.087320,0.016368,0.007640,0.035070,0.004881,-0.004145,0.098847,-0.113444,-0.040373},
      {-0.120508,0.006940,0.026226,0.144837,0.001625,0.017114,0.024639,0.071032,0.063991,-0.044618,-0.008050,-0.144819,-0.030247,0.032544,-0.026393,-0.025374,-0.015907,-0.002865,0.020622,-0.001907,-0.036024,0.016140,-0.007322,0.071403,0.004001,-0.002418,0.036484,-0.065473,-0.026517,-0.019685,-0.021165,-0.029431,0.050808,0.032064,-0.013133,0.009933,-0.035212,0.043703,0.062169,0.039340,-0.034129,0.009024,0.024772,-0.008021,0.041231,-0.010536,-0.037348,-0.065086,-0.022516,-0.022934,0.016767,0.075692,-0.061508,-0.021698,-0.025172,0.007105,-0.031245,0.012888,0.084742,-0.097008,-0.024378,0.008117,0.023525,-0.100725,0.006122,-0.036175,-0.058997,0.082898,-0.018964,-0.002647,-0.009050,-0.047527,0.074348,0.022315,0.046045,-0.028731,0.008746,-0.003357,0.001428,-0.041518,-0.009038,0.012541,0.129211,0.002186,0.001174,0.001968,-0.035038,0.029961,0.083950,-0.024125,0.066253,0.061993,0.069020,0.069520,-0.079084,-0.005187,0.007578,-0.062839,0.034529,0.031354,0.024342,0.002964,0.055349,-0.003057,-0.060114,-0.042155,-0.020108,-0.022181,0.063058,0.054017,-0.011275,0.011359,0.032835,-0.042928,-0.013929,-0.053687,-0.049892,0.010234,0.013880,-0.054095,0.003920,-0.047881,-0.023747,0.049400,0.017663,0.030488,0.026617,-0.007309,0.016686,-0.094580,0.006429,-0.031185,0.060333,-0.042531,-0.056113,-0.010697,-0.063304,0.041587,-0.014981,-0.021180,0.008035,-0.021079,-0.025850,0.000717,-0.079848,0.020663,-0.004885,0.046954,-0.009090,-0.003048,-0.007802,0.009529,-0.003366,-0.109368,-0.060579,-0.061138,0.015624,-0.076588,0.020337,0.014664,0.007053,-0.119597,0.042850,0.043125,0.063950,-0.040081,0.002819,-0.050790,-0.054765,0.028034,0.008321,-0.056954,0.019395,0.006792,0.048966,-0.064762,0.072421,0.003303,0.026380,-0.061451,0.026622,-0.039490,-0.024637,0.010814,-0.046166,-0.055848,0.017553,-0.030150,-0.044036,-0.027945,0.002093,-0.042135},
      {0.087255,0.051301,-0.011795,0.038758,0.031695,-0.003499,0.021083,-0.021173,0.059287,-0.018714,-0.012400,0.000191,0.012887,-0.007235,-0.014973,0.072877,-0.015820,0.011472,-0.005560,0.054592,0.034424,-0.020150,-0.008822,-0.021711,0.000592,-0.012005,0.062187,-0.011214,-0.042939,-0.086165,0.015533,0.085410,0.033915,-0.015036,0.004084,0.025621,0.012714,0.017112,-0.020314,0.025318,0.053931,0.002131,-0.005596,-0.018089,0.021369,-0.013847,0.022100,-0.028996,0.002803,0.056793,0.065531,-0.000976,0.036212,-0.001329,0.065297,0.060706,-0.015970,-0.010278,0.029016,-0.020979,0.016693,0.005747,-0.019596,-0.006576,0.065663,0.023314,0.023878,0.075431,-0.013163,-0.020266,-0.015582,-0.027786,0.132519,-0.054468,0.000278,-0.020089,-0.007041,-0.016154,0.018671,0.014441,-0.011874,0.055401,0.005588,-0.005897,0.043320,0.019416,-0.045541,-0.024932,0.009031,0.070580,0.101243,0.004434,-0.012413,-0.006770,-0.020235,-0.008333,0.104132,0.087327,-0.023420,0.025530,-0.063665,0.000850,-0.065909,0.067805,0.032618,0.000036,-0.047566,-0.009215,0.049957,0.068297,-0.024371,-0.013117,0.014318,0.007033,0.012576,0.071086,0.007666,0.009352,-0.031819,0.054764,0.134534,-0.024434,-0.002543,-0.049881,0.087830,0.051668,-0.021809,-0.027271,-0.010922,-0.067156,0.063558,0.015866,0.022924,0.012735,0.143007,0.008086,0.024711,0.058493,0.065848,0.040852,-0.026412,-0.001851,0.024362,-0.012569,-0.013428,0.000827,0.096747,0.016275,0.024803,0.003304,-0.036969,0.105708,-0.062413,-0.079976,0.021810,-0.050911,-0.007839,-0.037878,0.007869,-0.073745,-0.009084,0.025890,-0.025978,0.011154,-0.062482,0.036001,0.063335,-0.043778,0.093026,-0.004541,0.048219,-0.003115,-0.021979,0.004472,-0.041716,-0.018288,-0.032879,-0.037337,-0.068512,0.059999,0.023456,0.088393,-0.011506,-0.039630,0.014856,0.021258,0.031584,0.005877,-0.031628,-0.062694,0.069274,0.008256},
      {-0.048513,0.004156,-0.036608,0.059376,-0.004919,-0.001807,-0.025064,-0.058386,-0.092472,0.022308,-0.054922,0.017363,-0.002688,-0.009118,0.011462,0.017462,0.013203,0.026720,0.057332,0.029418,0.036313,-0.015382,0.014072,0.057760,-0.059384,0.031321,-0.038368,-0.011924,0.043505,0.000298,0.036132,0.022024,0.011689,-0.011367,-0.004729,0.000631,-0.022204,0.078229,-0.014979,-0.011951,0.006330,-0.010686,0.064534,0.010002,0.026429,0.036187,-0.106033,-0.073196,0.010345,0.035805,0.037417,0.010363,0.006790,-0.010625,0.054689,-0.032958,-0.001356,-0.001107,-0.007828,-0.068346,0.024168,-0.001833,0.049565,0.070287,0.039357,0.061615,-0.037791,0.015369,-0.068207,0.014111,-0.004300,0.144238,-0.053524,0.000870,-0.002662,-0.040414,0.008930,-0.003130,-0.022092,0.013268,-0.083587,0.043503,-0.054740,0.002909,0.019290,0.006451,0.005384,-0.038021,-0.017589,0.029830,0.051349,-0.034777,-0.039759,-0.031311,-0.009478,0.011437,-0.054611,0.024332,0.009576,0.023857,0.015193,-0.002401,-0.093726,-0.074085,0.028342,0.041983,-0.020963,0.009252,0.014760,-0.018248,0.020057,0.051006,-0.108244,-0.004446,0.042109,-0.031940,-0.009295,0.054874,0.022830,0.074185,0.033156,0.074648,0.036044,0.061500,-0.002721,-0.022647,0.014036,0.008749,0.016745,-0.016600,0.018517,-0.020306,0.014907,0.009981,0.013302,-0.006838,-0.001027,0.156342,-0.013228,-0.008488,0.003192,0.008458,0.019245,0.124821,0.019926,-0.025972,-0.007712,0.022475,0.042956,-0.002744,0.018007,-0.027562,0.059962,0.006805,-0.025981,0.007685,-0.013262,0.009833,0.007821,0.063044,-0.000991,-0.101257,0.024875,-0.002340,-0.077511,0.017950,-0.048066,-0.000867,0.032458,0.086414,0.026843,-0.007024,0.002965,0.028971,0.008872,0.006355,0.008858,0.017284,0.054199,0.023172,-0.028178,0.067929,0.037849,0.007908,0.033116,-0.012966,0.001506,0.006492,-0.022817,0.034107,0.016373,0.012674},
      {-0.057618,0.042179,0.003741,-0.072870,-0.005475,-0.012632,-0.014918,0.035068,-0.151616,0.016904,-0.014261,-0.062904,0.012014,-0.016905,0.007468,-0.023904,-0.071745,0.023836,-0.047832,-0.019403,0.012777,-0.089007,-0.000366,0.028937,0.008476,0.013231,0.015752,-0.087428,-0.026919,-0.017624,-0.010369,-0.113331,0.022076,-0.019036,0.029960,0.011436,0.011559,-0.064618,-0.005979,-0.003141,-0.039678,0.008547,0.018155,-0.001716,-0.024683,-0.010229,0.003388,-0.005540,0.006346,-0.040452,0.021126,-0.110780,-0.029401,-0.023667,0.014979,-0.004759,-0.012394,-0.107639,0.032876,-0.008564,0.008891,0.011716,-0.037240,-0.031856,-0.065509,-0.121384,-0.012391,0.077165,0.078850,-0.008591,-0.044043,0.118204,0.037417,-0.050972,0.018047,-0.011050,0.007228,-0.024071,-0.003041,-0.078912,0.015189,-0.008412,0.015792,0.002577,-0.010824,0.006782,0.002088,-0.046466,-0.008420,-0.032016,-0.083657,0.077359,-0.102103,0.029467,-0.043000,0.014829,-0.093520,0.026148,-0.002302,-0.048832,0.047200,0.018599,0.003423,0.061239,0.004145,0.011626,-0.052768,-0.008722,0.081907,0.005188,0.018089,-0.027965,-0.006400,0.005537,0.035615,-0.027125,-0.043514,-0.014522,0.001820,-0.023055,-0.003378,0.035273,0.024646,0.027965,-0.035564,-0.038632,0.015621,0.018882,-0.022780,0.026763,-0.036665,0.005346,0.020773,-0.015095,0.021901,0.003866,-0.023175,-0.031326,-0.016319,0.005105,-0.094659,-0.001680,0.011398,-0.005597,-0.049090,0.021338,-0.096857,-0.047225,-0.080188,0.008869,0.016092,-0.048564,-0.016364,-0.033545,-0.048598,-0.054176,0.006217,-0.081475,0.014203,-0.053311,-0.001962,0.112446,0.001471,-0.091452,-0.027302,0.006215,-0.022537,-0.090374,0.014799,0.001777,0.037176,-0.003231,0.030945,-0.030712,-0.057773,-0.024605,-0.095509,-0.011491,-0.123533,-0.000899,-0.001939,0.072562,0.002078,-0.013082,0.038554,-0.019191,0.072252,0.007484,-0.057731,0.007712,-0.008883,-0.045217},
      {-0.029350,0.008035,0.017048,-0.068558,-0.005344,0.007144,0.028573,-0.126765,-0.103179,-0.008382,-0.013057,-0.034560,0.008545,-0.007907,0.001876,-0.029037,-0.001626,-0.067217,-0.050373,-0.031092,0.021563,-0.056605,-0.020073,-0.084660,0.063649,-0.019414,0.097539,-0.024162,-0.002309,0.003907,-0.003289,-0.035779,-0.065336,0.092243,0.037119,0.002725,0.014249,0.006013,0.026233,0.001964,-0.000705,-0.057011,0.016132,0.074542,0.016372,-0.011698,-0.024042,0.004665,-0.055063,0.079320,0.077309,0.118479,-0.014862,-0.036302,0.007926,-0.023372,-0.016938,-0.021502,0.005243,0.016819,-0.045158,-0.043973,0.009900,-0.103121,-0.072399,0.070846,-0.032675,-0.019673,-0.011352,0.031246,-0.009466,0.117670,0.112958,0.005477,0.041680,0.005399,-0.015136,0.006168,0.013474,-0.029776,0.007161,-0.116663,-0.020872,0.011589,-0.030917,0.000363,-0.041777,-0.007182,0.036698,-0.000933,-0.028287,-0.061759,-0.108008,-0.061705,-0.023435,-0.032867,0.010876,0.025051,0.001307,-0.028551,-0.091865,0.007989,0.031016,0.017702,0.060724,-0.048642,-0.082491,0.002108,-0.076955,0.003550,-0.001526,-0.017682,-0.038242,0.024532,-0.040299,-0.047837,-0.089610,-0.014759,-0.006575,0.032877,0.045517,0.058341,0.008773,0.042139,0.041004,-0.014095,0.037148,-0.016697,-0.037341,0.023793,0.019962,-0.022826,-0.043033,0.024295,0.006784,-0.026832,-0.118423,0.038972,0.040934,-0.019938,0.021370,-0.039875,0.018607,-0.010697,0.119199,-0.041383,0.087609,0.039225,0.000089,-0.054808,-0.018391,0.007625,0.005130,-0.018144,0.021851,-0.043369,-0.065862,0.027128,-0.013933,-0.032917,-0.015313,0.020899,0.021081,-0.077179,-0.005099,-0.169804,0.056288,0.057478,0.023951,0.041500,0.019678,-0.007315,0.028510,0.063446,-0.010531,-0.010546,-0.010658,-0.050293,-0.067800,-0.063043,-0.012680,-0.021677,-0.034565,0.081159,0.010829,-0.066888,0.047590,-0.032134,0.024495,0.035142,0.035727,0.123164},
      {0.058170,-0.002016,-0.018183,-0.041261,-0.011939,0.001068,0.038354,-0.050175,0.077947,0.028710,-0.002531,0.045375,0.012340,0.040268,-0.014643,-0.001105,-0.022463,0.036098,-0.022575,0.041086,-0.090351,0.053886,0.006423,0.022036,0.017424,-0.020265,-0.012363,-0.012461,-0.020277,-0.000135,0.037816,-0.043946,0.013975,0.034055,0.034516,-0.003060,0.002856,0.031840,-0.003635,-0.002721,0.028382,0.006375,-0.031628,0.024166,0.055806,-0.025409,-0.034562,-0.005163,-0.026188,0.031313,0.007711,-0.025800,0.049215,-0.010827,0.016586,-0.076137,0.005953,-0.045639,-0.001608,-0.039567,-0.064607,-0.006705,-0.073770,-0.017975,0.010128,0.071647,-0.033476,-0.016711,0.034516,-0.047217,0.002938,-0.080690,0.054050,0.007941,0.116213,-0.011685,-0.001216,0.000180,0.015023,-0.156465,0.066913,0.016800,0.048672,-0.002316,-0.023911,0.008784,-0.060397,-0.024802,0.043939,0.071938,-0.065044,-0.072307,0.052069,0.002350,0.010245,0.003525,-0.003647,0.037160,-0.109928,0.065103,-0.010248,-0.028852,-0.028514,-0.005237,0.012068,0.000228,-0.027432,0.009140,0.008920,0.005939,-0.018035,0.009224,-0.091868,-0.006179,-0.013725,-0.057605,0.054828,0.018615,0.018948,0.096400,-0.020125,0.012431,-0.107406,0.005051,-0.062018,-0.012073,-0.035750,0.052154,-0.001337,0.016930,0.033602,-0.030708,-0.019074,0.012283,-0.073120,-0.008038,0.022674,0.084041,-0.011050,0.026999,-0.039343,0.001075,0.017608,0.014512,0.056885,-0.023066,0.032847,-0.035058,-0.029387,-0.019495,0.015686,0.011451,-0.030960,0.058553,0.015250,-0.011987,-0.021552,0.065546,0.013162,0.043947,-0.090850,0.001979,0.070593,-0.021163,0.032100,0.000036,-0.016296,0.022037,0.031258,-0.058482,-0.012612,0.013856,-0.014918,-0.033464,0.000439,-0.045496,-0.008681,-0.020874,0.018891,-0.032804,-0.065875,0.046140,0.017009,-0.045762,0.054877,0.037332,0.024391,0.004474,-0.083414,-0.041982,0.073822,0.067496},
      {-0.025261,0.015951,0.006165,-0.052911,-0.034263,0.039928,-0.008163,0.045244,0.032158,0.007041,0.115784,-0.044211,-0.018734,-0.010557,0.020135,-0.057801,0.081112,-0.097876,-0.042159,0.016102,-0.053763,0.032232,-0.002156,0.006391,0.009188,-0.001416,0.005799,-0.042548,0.054504,-0.076104,-0.022744,-0.053866,0.026542,-0.010926,-0.028464,0.009087,-0.099290,-0.032213,0.131938,-0.018835,0.023250,-0.006842,-0.014100,-0.009322,0.005598,-0.002913,-0.013546,-0.000876,0.004235,0.001847,-0.007589,-0.072909,-0.016187,-0.003783,0.011122,0.005952,-0.011228,0.059932,-0.005133,0.010366,0.035085,0.005224,0.022311,0.013948,-0.056669,-0.005384,-0.005650,-0.015628,0.051565,0.030122,-0.044173,-0.023552,-0.009312,-0.021392,-0.001201,-0.008082,-0.003172,0.000337,0.011745,0.044317,0.011816,0.005245,0.053375,0.008639,-0.038447,0.011033,0.008657,-0.037060,0.007119,-0.040582,-0.020935,0.049509,0.023450,-0.024323,-0.012121,0.003315,0.003189,0.007383,-0.065033,-0.026332,-0.024142,0.006326,-0.009999,-0.023768,-0.002657,-0.028466,0.042149,-0.012563,0.044844,0.011136,-0.007423,0.061902,-0.030542,-0.006504,0.048721,-0.009793,0.037639,-0.008973,0.013185,0.068214,0.027056,-0.007918,-0.058591,-0.031901,-0.011870,0.015054,0.020145,-0.097991,0.013496,0.069997,0.022290,-0.008249,0.067469,0.044135,0.068720,0.011657,0.024142,-0.001457,0.008766,-0.012368,0.009468,-0.008289,-0.005835,-0.005044,-0.032620,0.037137,0.056010,0.116331,-0.004046,0.004257,-0.037517,0.011628,-0.036690,0.026125,-0.014520,0.001564,0.019836,-0.018432,0.022550,-0.003725,-0.015156,0.062427,0.003257,0.024253,0.043193,0.084797,0.013124,-0.057029,-0.017639,0.008872,-0.015182,0.004603,0.001950,0.040397,0.043697,0.022288,0.071780,0.021178,-0.066855,-0.020469,-0.045986,-0.020226,-0.032979,-0.025717,0.011650,-0.000246,-0.036161,-0.008489,0.024901,-0.001752,-0.041854,-0.035874},
      {0.019962,-0.008593,0.055558,0.103380,-0.024189,-0.024124,0.041028,0.060593,-0.020581,-0.020858,0.038717,0.029155,0.005559,-0.014473,0.003585,0.017559,-0.001286,0.001943,0.003094,0.013581,-0.000003,-0.035184,0.005913,0.027862,-0.026107,-0.023516,-0.037066,0.054068,0.029431,0.042827,0.000496,-0.007051,0.028166,0.136352,-0.023221,-0.000877,-0.006864,-0.068735,0.013411,0.001997,0.013042,-0.023097,0.023251,-0.048943,-0.017946,-0.003717,-0.023006,-0.051619,-0.026993,-0.019515,0.035518,0.006042,-0.010199,-0.002858,0.049586,0.040775,-0.024112,-0.065750,0.014463,-0.022646,-0.044386,-0.015558,-0.063573,0.019912,0.024850,-0.043512,-0.014054,-0.040748,0.008507,-0.019743,-0.055513,0.009493,-0.044522,0.002142,0.017764,-0.017839,-0.002224,0.003296,0.006452,-0.056574,0.047424,0.029178,0.005684,-0.002149,0.042679,0.008512,-0.080528,-0.007241,0.004126,-0.022535,0.071164,-0.031976,-0.112531,0.012535,-0.016174,-0.007677,0.067227,0.059911,-0.019317,-0.051139,-0.087933,-0.027529,0.066321,0.043196,-0.066948,-0.015836,-0.024187,0.048445,-0.020998,-0.043672,-0.023538,0.000019,0.044708,0.009092,0.044272,0.020381,-0.046208,-0.040946,-0.005003,-0.021432,0.026640,0.024396,-0.001480,-0.005120,-0.009580,-0.027120,0.001610,-0.017029,-0.019182,-0.125829,-0.061607,-0.002482,0.008641,-0.004671,-0.016853,0.010090,-0.050312,-0.012963,0.114383,0.025239,-0.014471,-0.027365,0.021170,-0.049214,-0.021607,0.014315,0.033665,-0.052800,-0.055775,-0.028714,-0.046957,-0.042534,-0.036241,0.058917,0.019966,0.079604,-0.014198,0.072553,0.024193,-0.014299,0.018550,-0.043689,-0.065812,-0.035204,0.028787,-0.069054,-0.052981,0.016748,0.085561,0.030483,0.007466,-0.007659,-0.003231,-0.015980,-0.038510,0.025845,-0.050964,0.029768,0.010720,-0.002500,-0.048342,-0.020747,0.009811,0.023304,-0.001889,-0.027633,0.018899,-0.016011,-0.028314,-0.016395,-0.043937,0.060442}
    }
  }
};
