#pragma once

#include "C:\Users\Baron\Desktop\EE_297_Repo\EE_297\hardware_imp\vitis_hls\lane_seg_hls\lane_seg_top.h"

// Auto-generated with BN folded

data_t enc8_ir7_dw_w[3][3][1][384] = {
  {
    {
      {-0.526656,-0.943467,0.016683,-0.194682,-0.370713,-0.436743,-0.307646,-0.329987,0.390056,-0.603066,-0.261927,-0.039103,0.073301,-0.138783,0.424282,0.256979,-0.375401,-0.070872,-0.380295,0.439592,-0.247908,-0.258383,0.319948,-0.464575,0.220834,-0.100029,0.888496,0.230189,-0.347125,0.288867,0.224804,-0.183122,0.316154,0.233884,-0.194596,0.399649,-0.127363,0.034787,-0.124595,-0.661611,-0.260041,-0.019618,-0.132514,-0.038591,-0.930272,0.231536,-0.364574,-0.675463,-0.053953,-0.220760,-0.525212,0.433817,-0.456164,-0.168710,0.321191,0.304569,0.016378,-0.071862,0.520311,-0.253510,0.007433,-0.690561,0.230484,0.434559,0.366370,-0.156900,-0.288099,0.100738,0.446212,-0.276294,0.413822,-0.523774,-0.198785,0.224298,-0.103703,-0.201119,1.014296,-0.277248,-0.111463,-0.121063,0.541029,0.108562,-0.166771,0.012050,-0.100413,-0.293100,0.010656,0.215346,-0.220072,0.306897,-0.267883,-0.072167,-0.385347,-0.275514,1.799205,-0.139831,-0.445996,-0.053129,-0.308188,0.750416,-0.061330,-0.249102,0.406524,0.144857,0.317297,-0.251950,-0.128227,-0.576233,0.207752,-0.156558,-0.036734,0.209214,-0.621156,-0.224853,0.141396,-0.582406,-0.178243,-0.010788,0.041108,-0.384710,0.316757,0.251759,-0.028988,0.411924,0.623505,-0.553821,-0.370724,-0.274115,0.485014,0.336651,1.274277,-0.178965,0.592842,-0.723377,-0.135691,0.049828,-0.602085,0.175474,-0.093735,-0.180667,0.355713,-0.194994,0.167382,-0.270346,0.152751,-0.282796,-0.716423,0.360719,0.256240,-0.378560,-0.044618,-1.353319,0.348618,-0.339373,0.001976,0.193453,0.230977,-0.330448,-0.148150,0.061285,-0.129500,-0.294232,-0.846848,-0.415737,0.177284,-0.253642,-0.170532,-0.049734,-1.137053,-0.826918,-0.290091,-0.315099,-0.327166,-0.183285,0.596605,0.082294,0.396793,-0.235816,-0.255675,0.617579,0.041029,-0.470262,0.152161,-0.218663,-0.310676,0.381857,0.018193,-0.018740,-0.278795,-0.225494,0.017726,0.082548,-0.369582,0.534178,0.419180,0.371158,-0.096634,-0.022448,-0.203406,-0.290597,-0.123859,0.254809,-0.498748,-0.094827,-0.366998,0.293980,0.255658,-0.033816,0.085060,-0.348555,0.309056,0.142045,-0.050657,-0.233910,-0.211090,-0.178270,0.258436,0.678074,0.178091,1.208574,-0.338715,0.492868,-0.030202,0.273087,0.470444,-0.071644,-0.159548,-0.187699,0.282399,-0.043690,-0.228191,-0.026895,-0.706175,0.400902,-0.090627,0.234479,0.261063,0.506223,-0.238669,-0.338094,-0.558956,0.503734,-1.159781,-0.332185,0.207593,0.128421,-0.824314,0.222106,0.067710,-0.124660,-0.081437,-0.157105,0.106348,0.230090,-0.280806,0.171081,-0.357367,0.021199,0.276564,-0.239192,-0.480427,0.160394,0.415474,0.018024,0.524302,0.098193,-1.262102,0.052888,-0.239677,-0.030587,0.180401,-0.187080,0.183419,0.141434,-0.214920,-0.036723,0.485544,-0.105606,0.338349,0.219463,0.124212,-0.005963,0.437044,0.989898,-0.547055,-0.161223,0.563837,-0.119945,0.145533,-0.020744,-0.369919,-0.455084,-0.044066,-0.559490,-1.641631,-0.516961,-0.122126,0.370830,-0.634187,0.268157,0.267803,-0.036436,-0.468095,0.337174,-0.377764,0.233438,-0.422219,0.328470,-0.010917,0.082360,0.545912,-0.434132,0.773874,-0.071541,-0.105666,0.021100,-0.909685,-0.766055,-0.190429,-0.250552,-0.245020,-0.104194,-0.468418,0.274011,-0.083194,0.169886,-0.033163,-0.300484,-0.242111,-0.689987,0.459960,-0.028954,-0.424396,0.139424,-0.068185,-0.150226,-0.490612,0.217196,-0.335214,-0.148002,0.591717,0.240322,-0.110396,-0.418170,1.655408,-0.162935,0.061886,0.033124,0.124717,-0.437285,-0.419129,-0.160985,-0.090828,0.444721,-0.040756,-0.215956,-0.898107,0.328512,-0.104555,-0.304807,-0.004075,0.146609,-0.424084,-0.283395,0.594331,0.064691,-0.411370,-0.103928,0.349658,-0.372251,1.335468,0.008190,-0.163509,-0.138316,-0.003339,0.667292,0.493470,0.381924,-0.423732,-0.236515,-0.154082,-0.135281,-0.203532,-0.082040}
    },
    {
      {-1.049555,0.474792,0.090858,-0.173441,-0.942459,-0.140494,-0.069845,-0.354290,-0.485478,0.143197,-0.320376,-0.525154,-0.096863,0.487054,0.204121,-0.149427,-0.661550,1.789871,-0.930512,1.279576,-0.500143,-0.121030,1.258129,-0.309327,0.412144,1.173173,-0.255000,0.825765,-0.817290,0.265569,2.190765,-0.035861,0.929673,-0.394438,-1.186621,0.381313,-0.335498,-1.341402,-0.990980,-0.536937,-0.905380,-0.261109,-1.121167,-0.805887,-0.532746,0.211423,-0.155675,-0.253748,-0.178656,-1.251336,-0.557763,0.685645,0.240805,1.100367,0.097370,1.275003,-0.106363,-0.053757,0.033483,-1.059704,-0.849495,-0.118442,1.188293,2.128684,-0.164926,-0.303263,-0.048990,-0.376372,1.311207,-0.212419,1.635819,-0.480978,-0.188970,-0.214739,0.380157,-0.204231,0.020294,-0.113901,-0.732349,0.704667,1.710404,0.245290,0.571860,-0.213741,-0.981462,-0.294343,-0.242773,0.154827,-0.390988,1.968340,-1.065804,-0.848210,-0.000354,-0.362520,0.746129,-0.550903,-0.066233,-0.107045,-0.174193,0.019201,1.631447,-0.372581,1.761760,2.103060,-0.109936,-1.092956,-0.667032,-0.797758,1.537764,0.259789,0.444389,1.259289,-0.009527,-0.299387,0.067221,0.419716,-0.510878,-0.778088,-0.144914,0.104145,0.472757,-0.092578,-0.349790,0.486095,0.478950,-0.114876,-1.142646,-0.335824,0.063415,-0.050224,1.084657,1.130283,0.427127,-0.428985,-0.581166,-0.714279,1.907774,-0.593328,-0.862912,-0.254148,-0.150481,0.219068,-0.111554,-0.763378,-0.222135,-0.179256,-0.121133,0.690127,0.610828,-0.129100,-0.533171,-0.863986,1.092786,-0.139952,-0.870741,0.979446,1.086997,-0.020382,-0.461575,-0.541217,-0.560401,-0.231729,1.647048,-0.131281,1.105866,-0.671078,-0.200282,-0.338809,-0.256791,-0.920236,-0.664120,-0.757239,0.001540,-0.123398,1.024491,-0.775792,0.024815,0.018158,-0.817845,0.864206,1.308781,-0.266998,-0.443972,-1.580621,0.088163,0.769031,0.638966,0.011518,-1.032064,-0.370545,-0.879236,0.372046,-0.102077,-1.967179,1.774851,1.878100,-0.416113,-0.129874,-0.290522,-0.413938,-0.852279,1.493809,-0.794957,1.467423,-0.119960,0.788972,2.781276,0.208965,-1.361963,-1.117880,-0.260247,1.418268,-0.127814,-0.437730,-0.054639,0.598324,0.909537,0.549661,-0.467216,2.359087,-0.313943,1.228952,0.998950,1.001777,1.727633,-0.237463,-0.779185,0.067741,-0.134761,-0.959813,-0.030528,0.347374,-0.323288,0.919473,-1.111364,0.761625,-0.758616,1.746269,-0.577458,-0.468272,-0.469934,1.510376,0.267446,-0.225307,1.334151,0.186721,0.105599,-1.490225,-0.618302,-0.326534,0.608968,-0.136485,-0.385790,0.919499,-1.323710,0.543476,-0.352418,-0.220458,-0.533923,-0.321985,-0.396913,0.812473,-0.143131,-0.652283,1.392579,-1.182301,-0.366728,-1.269465,-0.544417,1.762105,0.336357,-1.015416,1.622585,0.525216,-0.300407,-0.363861,0.896156,-0.058481,-0.831767,0.121784,0.621889,0.156051,-0.259949,0.199096,-0.638933,-0.207040,0.216855,-0.036132,0.180589,0.003341,-0.690249,-0.344686,-0.022071,-0.462883,-0.071158,1.270777,-0.126972,-0.837619,-0.408182,1.213860,-1.053525,-0.583593,-0.733624,-0.065413,-2.314341,-0.747372,-0.366971,2.055224,2.235317,-0.520589,1.055268,-0.824456,-0.374927,0.158357,-0.560493,-0.042642,-0.436279,0.159779,-0.120344,-0.137941,-0.964804,-0.972406,-0.176852,-0.570359,0.387525,0.101885,0.178842,-0.721797,-0.892810,-0.228412,1.276752,-1.182693,0.027252,-0.161212,-0.650879,-0.143863,-0.796838,-0.058083,-0.713293,0.010456,0.441055,0.331323,-0.922435,-0.466035,1.709602,-0.365861,1.150304,0.295644,0.015463,-0.160232,0.019769,0.746109,-0.036355,0.376896,-0.620942,0.032830,-1.238989,-0.427195,0.031769,-0.071704,-0.332433,-0.753958,-0.700767,0.181249,0.825360,0.148014,-0.298732,-0.189064,0.827520,-1.461254,0.602894,-0.324368,-0.250327,-0.789497,0.532268,-0.417741,0.994320,0.165283,-0.700244,-0.129979,-0.889696,-0.714262,-0.383915,-0.330764}
    },
    {
      {-0.891488,0.099719,0.182400,0.067805,-0.194374,0.291567,0.319307,-0.140462,-0.334477,-0.420004,0.252387,0.578212,0.148163,0.365569,-0.119840,-0.253471,-0.784091,-0.611652,-0.284343,0.239223,-0.200522,-0.353361,0.218992,-0.218504,0.187982,-0.647566,0.041313,0.185950,-0.216072,-0.181318,0.109606,0.190827,0.106931,0.280625,-0.120824,0.554672,0.034621,-0.011462,-0.107624,-0.462950,-0.175242,0.567719,-1.115686,0.004760,0.310716,-0.169891,-0.401737,-0.034539,-0.262401,-0.164008,-0.261277,0.551228,-0.514168,2.145711,-0.138047,0.219915,0.002046,-0.085072,-0.652825,-0.447990,-0.100527,-0.364378,0.692044,0.499494,-0.421668,-0.698444,0.194163,0.442562,0.262847,0.520431,0.456434,-0.309279,-0.249160,-0.236557,-0.431860,0.377222,0.376607,0.279357,0.014788,0.706603,-0.092949,-0.005184,0.430775,0.533080,-0.443962,-0.383503,0.224790,0.220183,-0.155439,0.224688,0.068986,-0.360465,-0.583550,-0.376110,0.977939,-0.038668,0.537365,-0.167598,-0.466751,0.660259,-0.178649,-0.306239,0.102108,0.437038,-0.221218,-0.152485,0.003955,-0.562413,0.344466,-0.147801,-0.529658,0.304795,-0.099905,-0.497997,0.067479,-0.082221,-0.194390,0.046053,-0.054736,0.044493,0.166820,-0.185319,0.048903,0.628291,0.352483,-0.451769,-0.358415,-0.526448,-0.093152,0.339962,0.304616,0.264271,-0.044270,-0.394081,-0.170547,0.108208,-0.186414,-0.239911,-0.103561,-0.411987,-0.266599,0.380744,-0.364159,0.309165,-0.431336,-0.632137,0.710860,0.091380,-0.399044,-0.107942,-0.285225,-0.124850,0.400462,-0.392239,-0.392749,0.337492,0.166974,-0.345858,-0.389433,0.095512,-0.038551,0.269818,0.603888,0.103697,0.203540,-0.177761,0.389206,0.270978,0.185583,0.262135,-0.437008,-0.499499,0.223422,0.347709,0.476764,0.017683,-0.294032,-0.326656,-0.396910,-0.235248,1.161805,-0.508453,0.406594,-0.229295,0.183777,-0.362281,-0.548748,-0.030160,-0.262746,-0.182688,-0.545266,1.063279,0.475549,0.378080,0.330094,0.475857,0.247162,-0.466897,-0.131163,-0.284434,-0.088000,0.756841,-0.443283,1.232453,0.032608,-0.076617,0.334721,-0.015829,-1.266412,-0.276920,-0.262787,0.058377,-0.116990,-0.203207,-0.343736,-0.096020,0.216552,0.314096,-0.454791,0.603901,-0.261040,0.466645,-0.232975,0.355426,-1.432618,0.732342,0.009313,-0.091423,0.251566,0.019965,-0.380377,-0.258757,-0.554294,-0.407669,0.064491,0.140910,0.187117,0.371053,-0.281758,-0.525548,-0.373379,0.285253,-0.028638,-0.278141,0.462914,-0.227620,0.213762,-0.441305,0.857095,-0.087878,-0.070600,-0.224226,0.282415,0.150952,-0.288962,0.308892,0.475620,0.135436,-0.425505,-0.054555,-0.368008,0.116278,-0.301715,-0.138190,0.466693,0.531003,-0.059531,-0.188758,-0.224556,-0.073476,-0.393457,-0.258569,-0.832370,0.218062,0.363560,0.072331,0.425154,0.030617,0.207049,-0.206862,0.451966,0.004713,-0.479364,1.138687,-0.063308,-0.184421,-0.285083,0.136473,0.211400,-0.135797,-0.533582,-0.017267,0.633487,-0.823501,-0.025930,0.223801,-0.403041,-0.074186,-0.755018,0.240641,1.095737,0.242820,-0.233725,-0.117395,1.234338,0.021149,-0.565717,0.470499,0.095743,0.080302,0.313714,-0.428521,-0.363739,0.245316,-0.173808,-0.340569,-0.705121,-0.859822,0.263509,0.334838,-0.264679,-0.136734,-0.367291,-0.391431,-0.076993,-0.442328,0.948505,-0.083789,-0.282776,0.491203,0.245126,-0.134567,-0.169707,-0.126162,-0.246711,0.315266,-0.689133,-0.312186,-0.149691,-0.021448,-0.147896,0.467434,-0.163935,-0.352926,-0.076397,-0.504217,0.446357,-0.064479,1.722728,-0.365042,0.173753,-0.667770,0.008657,0.296437,0.106284,0.195082,-1.914566,-0.025373,0.041167,-0.321403,-0.133168,0.238430,-0.344365,-0.469400,0.521074,-0.290223,-0.429477,-0.218354,0.376004,-0.713974,0.312353,0.001663,-1.273776,0.126454,-0.646492,-0.213314,0.755533,0.080099,-0.335399,0.443492,-0.196756,-0.996955,-0.268101,-0.084372}
    }
  },
  {
    {
      {0.429161,-0.752644,1.731570,-0.512106,-0.012898,1.709245,-1.312364,-0.287939,0.502099,-0.135008,-0.931225,0.178227,1.720753,-0.277885,-0.018800,0.568519,-0.072896,-0.479369,-0.037956,1.156004,-0.429767,-0.480097,-0.168555,-0.385258,0.175363,-0.114599,1.758827,-0.192486,-0.165367,0.771597,-0.537772,-1.144369,0.021753,-0.470089,0.027837,-0.226725,-0.418858,-0.232893,-0.017380,-0.434612,-0.026795,2.633832,-0.366952,-0.416816,-0.951660,1.137936,-0.712843,-1.320805,-0.312923,-0.004631,-0.649660,-1.708191,-0.882768,-0.915755,1.220709,0.072564,-0.151018,-0.142489,1.418835,0.005728,-1.291814,-0.854991,-0.310767,-0.315635,1.255901,-0.533243,-1.529212,-0.618971,0.205924,-1.358887,-0.266403,-0.503699,-0.183363,1.242423,0.257151,-0.782849,0.946720,-1.105387,-0.181745,-0.989917,1.300681,1.397103,-0.472433,0.080431,0.714055,-0.331232,-0.237763,0.163518,-0.823136,0.201891,0.328203,-1.071359,-0.131141,-0.257075,0.491198,-0.407026,-1.103184,-0.921401,-0.461062,0.078447,0.137826,-0.353606,-0.101525,0.156012,1.206460,0.004695,-0.277603,-0.024586,0.160721,0.698614,-0.460986,-0.087129,-0.027223,-0.317805,0.370013,-0.961238,3.104556,-0.764701,-1.612860,-0.068701,0.031641,1.375979,-0.381212,0.242588,0.639423,-0.061763,0.065850,-0.372187,1.765543,0.385959,0.241142,0.836673,0.521496,-0.209867,-0.427870,-0.218989,1.880361,-0.523650,-0.088710,-0.361752,1.752851,-0.966302,1.093616,-0.820759,1.081184,-0.017220,0.694270,0.315477,0.180290,-0.183651,-0.360161,-0.652994,-0.044146,-0.125958,0.880058,-0.172974,0.019864,0.667984,-0.831802,-0.463550,-0.279296,-1.012605,-0.548270,-1.247861,0.100593,0.681244,-0.833434,-1.066210,-1.220145,-0.514563,-0.595013,0.193243,-1.234504,-1.388840,-1.082839,-0.505210,1.571732,-0.181792,-0.831275,1.076168,-0.780336,-0.360289,1.644200,-0.659196,-1.301213,1.590275,-0.931655,-0.330785,-0.029860,-0.787998,0.445418,-0.403028,-0.003782,-1.171133,-0.456841,-0.282534,-0.480253,-0.085215,-0.055636,-0.415899,-0.204633,-1.132669,-0.396801,-1.196024,-1.778411,0.395584,-0.506231,0.498463,2.018132,0.042597,1.593234,-0.061796,-0.613078,-0.457313,0.021693,-1.451259,-0.061761,-0.326488,-0.096496,-0.959268,-0.237450,-0.513947,-1.399155,-0.356663,0.470004,-1.031560,-0.638707,-0.020242,0.241055,0.047079,0.025734,0.397403,0.167337,-1.284017,0.514007,-0.190111,-1.522209,-0.298198,-0.460326,-0.148136,-0.358695,-0.027694,1.295262,-0.163549,-0.291967,2.021138,-1.226020,0.695901,-0.540063,0.166743,-0.753947,-0.546145,0.065704,0.434439,-0.083706,0.185756,-0.511445,-0.352572,1.074667,-0.263488,-0.481573,0.042742,1.184020,-0.146334,-0.029818,-0.284026,-0.476189,-0.072372,-0.175746,-0.253180,0.320067,-0.336805,0.715875,0.305105,-0.944847,-0.321482,0.064677,-0.341741,-0.483930,1.077430,0.664825,-0.992422,1.328093,0.078798,-0.523660,-0.224651,0.977875,-1.400454,0.176325,-1.391397,-0.141798,-0.172078,0.387142,0.367957,-0.839615,-0.241326,-0.617591,2.813890,-0.175474,-0.057785,-0.048985,-0.630021,-0.195289,1.704141,0.849705,3.054059,-0.152219,-0.557148,-0.235886,-0.639401,-0.250062,-0.431106,0.948460,-1.211509,-0.422668,-0.339727,-0.269593,-0.395210,-1.041489,-1.363552,-0.016578,0.457380,-0.501849,0.518270,0.471340,-0.106298,-0.072272,-0.323369,-0.193499,-1.049343,-0.064610,-0.275658,-0.562778,0.869541,0.655086,-1.385298,0.191682,1.320623,-0.121354,-0.069333,1.064171,0.721429,-0.142398,-0.380273,0.505616,-0.966884,-0.460065,0.013748,-1.213076,-0.177884,0.400065,0.089552,-1.056874,0.760236,-0.302817,-1.546336,0.886756,-0.498281,0.055650,-0.124890,-0.441150,-0.471220,-0.217185,-1.033454,-0.135765,1.269752,-0.132414,-0.186131,-0.082118,2.406491,0.866758,-0.278188,-0.371038,0.104709,0.857320,2.331788,0.821154,-0.121782,-0.486300,-1.262519,-0.105852,0.322007,-0.379495,-0.129126}
    },
    {
      {2.995697,1.341640,-0.622035,-2.267698,0.143464,-1.778150,-0.361778,-0.447370,-0.977568,2.621060,-0.178259,-2.545566,-0.186776,1.844399,2.015925,-0.592170,0.147756,3.548553,0.057406,-0.991621,-0.994460,0.121714,0.118936,-0.215258,2.023140,1.854914,0.971514,0.078796,-0.092319,0.659876,-0.875854,-0.351179,0.091204,-0.249968,-0.002229,-0.312656,-0.232632,-0.037279,-0.095340,-0.242425,0.103183,-1.258396,4.490229,-0.616223,1.224272,0.316321,2.190970,3.214908,1.444550,0.248956,2.823066,1.370182,2.061250,-0.145870,0.148504,-0.057054,-0.156017,-2.089069,0.133444,-0.238986,-0.083666,2.857046,-1.647894,-1.306516,0.063118,0.323954,-0.140657,-0.705980,-0.317487,-0.267994,-0.569518,2.469253,-0.220376,-0.288225,2.048240,-1.932173,-0.910336,-0.210695,-0.860347,-0.690348,4.580367,-2.843828,-0.551812,-1.657439,1.225825,0.628373,-0.911297,1.645884,1.242587,-2.558915,1.713805,1.690086,-0.234387,-0.019757,0.325275,-0.293435,-0.183427,0.224475,0.022871,-2.306035,-0.720814,1.501389,-0.490325,-1.297218,0.020014,-0.121433,1.627680,0.226547,2.153827,2.330354,1.158835,0.186204,-0.232524,-0.353351,1.896866,0.129876,-3.158102,-1.874884,-0.252769,1.914514,0.699872,-0.127590,-0.234270,-2.475346,0.875753,-0.369275,0.406882,-0.172418,-1.252757,2.242991,-1.497754,0.968066,4.434733,0.212189,2.269863,-1.307754,-2.924795,1.261793,-0.590596,-0.148719,-0.132568,-0.068862,0.063784,-1.510705,0.083216,2.152681,2.552090,1.015798,0.875368,3.798052,-0.953148,-0.031042,-0.233377,-0.136451,-0.755260,0.182894,-0.001472,1.679568,0.534763,-0.715060,-0.365419,-0.166211,-2.632711,0.234937,-0.166379,2.440389,-0.618785,-4.139996,1.912151,3.788280,0.554085,0.886350,-0.081856,0.035175,-1.502426,-0.021421,0.082760,1.360660,-0.008379,-0.683466,-2.042470,1.614122,0.213521,-0.867156,-0.317528,-2.421147,1.715131,-2.292734,-0.173662,1.326864,-0.158390,1.251815,-1.865179,-0.482470,-1.147120,-1.896999,-2.261796,-0.077454,-0.074905,-0.849838,-0.677079,-1.568846,0.079444,-1.786917,1.959475,1.307005,-2.421822,1.478371,0.545757,-0.140536,-0.477101,-0.202205,-0.379014,0.397195,1.623264,1.947185,0.038025,-0.793333,-0.139810,-1.785990,1.875124,-0.346211,0.603237,-0.570079,0.262076,-0.786154,-0.970777,2.019407,1.795793,2.007783,2.233497,2.410524,2.457138,1.242598,2.277650,0.320826,1.745036,-1.034610,2.353438,1.391414,2.086187,-0.631909,1.674976,-0.643645,-0.053493,0.927964,2.195965,0.078838,-1.281741,-1.461878,0.940631,1.440384,1.509344,0.147767,-0.689839,0.312164,0.281326,-0.002377,-0.865153,0.045973,2.851038,0.320873,-0.185514,-0.500495,-0.791466,-1.708605,2.304740,-0.326983,1.895104,-0.024602,2.796890,-0.569480,1.995970,1.830279,-0.498873,-0.947657,-0.200705,-1.675859,-1.716690,-0.015890,-2.764275,-0.526953,-0.326209,-3.318182,0.354076,-0.298236,-0.144150,-0.000632,1.268214,-0.972447,0.586131,-1.511364,3.776071,1.336836,1.823270,-1.891034,-2.447123,-2.152006,0.848920,-0.003484,-1.126417,-0.741315,-0.208427,-0.098370,-0.684489,-2.049346,1.384516,-1.669360,-1.864137,-1.707432,0.272830,0.294742,0.286943,-0.194493,-0.346052,1.694185,0.094795,1.854036,-0.062797,-0.124381,-0.259102,0.425243,-0.161591,-0.146488,2.532133,1.143322,0.133952,-0.846136,-0.554300,-0.080239,-0.011544,2.200258,3.013981,0.185988,-0.044429,-0.492673,0.070954,0.159884,-0.585027,-1.255121,-0.103197,1.359169,-0.098485,-0.313867,0.529491,2.552974,-0.952332,2.120665,3.943896,1.677431,3.149981,2.152274,-0.409820,-3.021967,-1.396257,-0.136611,3.004796,-0.549976,1.952265,1.290956,-0.116343,-2.042542,0.910757,0.033305,-0.004475,0.178112,2.038290,-0.247679,0.268411,-0.282788,-1.515510,-0.249533,2.580569,-0.596628,0.339575,-2.129604,1.479347,1.982560,1.414510,-0.337517,-0.407405,0.024001,1.868775,-0.302740}
    },
    {
      {0.044283,0.514800,-1.299992,2.738574,0.019858,1.337533,1.543002,-0.221179,-0.727996,-0.288086,1.133847,1.717106,-1.518442,-1.307711,0.268619,-0.382410,0.103015,-0.750607,0.047171,-1.039309,-0.409296,-0.267364,-0.051308,-0.272026,0.386551,-0.322887,-0.730881,-0.029110,0.000305,-1.322548,-0.375537,1.416750,0.105424,0.002719,-0.027249,0.315398,-0.333671,-0.238844,0.071984,-0.122076,-0.060397,-0.920360,-0.531264,-0.268868,0.443902,-1.239549,-0.877277,-0.836439,-0.523571,-0.025144,-0.762622,-1.763702,-0.658578,0.157607,-1.290695,0.139022,-0.011224,3.185788,-0.961017,0.045287,-1.181697,-0.937888,0.133286,-0.451742,-1.255593,-0.436429,1.595959,-0.803921,-0.021168,1.896062,-0.495111,-0.468344,-0.122895,-1.170559,0.320176,2.962300,-1.119409,1.215847,-0.008796,0.139753,0.975513,1.586175,1.798029,1.985690,1.027696,-0.557645,-0.093878,0.037940,-0.728562,0.053407,0.298677,-1.143555,-0.114076,-0.262321,0.783414,-0.484867,1.623031,-0.878601,-0.035875,0.152728,-0.171805,-0.584202,0.246309,-1.543437,-1.163528,-0.174615,-0.505481,0.403787,0.125399,0.314162,-0.755980,-0.097070,-0.170716,-0.410810,0.309300,1.202129,0.343100,0.835226,1.875229,0.145355,-0.522420,-1.202139,-0.313128,0.085361,0.459469,0.201050,-0.213461,-0.801794,-0.889383,0.054875,-0.703401,1.224918,0.607045,2.178386,-0.649347,-0.452808,0.078551,-0.711397,-0.090589,-0.399609,-1.288143,1.204515,-1.131216,0.680319,-1.370935,-0.060091,-1.815982,0.085024,-0.656884,0.406216,-0.399568,0.267967,-0.134420,-0.385359,-0.615227,-0.069987,0.019365,0.647808,-0.488451,-0.519699,-0.330225,1.150368,-0.584959,1.340796,-0.001271,0.559959,1.640147,-0.151686,-0.070698,-0.041234,-0.424075,0.379497,1.346252,1.584182,-1.198327,-0.746382,-1.671424,-0.406447,-0.312557,-0.562212,1.182971,-0.691487,-1.484954,-0.643288,1.528700,1.592657,-1.042337,-0.220129,-0.143659,-0.610834,-0.654052,0.585967,2.136241,-1.451549,-0.351025,0.254446,2.216054,0.491967,-0.350558,-0.505228,0.012919,-0.487115,0.097020,0.689352,0.027284,-0.386512,-0.393117,-0.903772,-0.620890,-0.168302,-0.993546,-0.273287,-0.444111,-0.215780,-0.173975,-1.645836,-0.000857,-0.817802,-0.478463,-0.723634,-0.506883,-0.817552,-1.359134,0.409725,-0.428161,1.374382,-0.698876,0.633092,0.074323,0.259683,-0.506608,0.635824,-0.052323,1.478866,0.098112,0.064298,-1.380500,-0.396839,-0.432420,-0.495804,-0.635275,-0.068002,-1.256134,-0.244598,-0.148555,-1.840164,-0.723802,-0.757721,1.956299,0.160612,0.735544,-0.540849,0.049607,0.394812,-0.076666,0.510642,1.069309,-0.287992,-0.782260,-0.379952,-0.974461,0.090598,-1.138840,-0.395140,-0.129732,2.736943,-0.366326,-0.361851,-0.354191,-0.252874,0.345439,-0.135049,0.992176,0.328245,1.635169,0.302216,-0.165513,-0.517236,1.901895,-1.316184,0.924555,1.826615,-1.080366,-0.462798,0.360412,-0.253842,-0.674887,1.413734,0.077478,2.324093,-0.257687,0.096631,0.070499,-0.196120,0.376965,-0.261292,-0.412876,-0.547005,-0.360405,0.072603,0.416675,-0.428540,-0.033932,-1.419327,0.819702,-0.962991,-0.280047,-0.539706,0.200459,0.487905,-0.398508,-0.295498,-1.408535,1.334754,-0.362073,-0.674449,-0.755374,-0.410164,1.259696,1.681420,-0.067131,0.363115,-0.378959,-1.100576,-0.134966,-0.977556,1.356060,-0.410335,-0.228532,1.058036,0.062105,-0.241755,-0.523882,-1.150944,-0.532052,1.904466,-0.298197,-1.117242,-0.102809,2.183276,-1.152039,0.541904,0.003862,-0.288443,-0.986844,-0.833425,0.449413,0.326225,-0.148673,-0.250014,0.164374,-0.715952,1.383351,0.819721,-0.337667,1.950766,-0.433724,-0.444487,0.107995,-0.244448,-0.441728,0.743415,-0.821601,-0.582655,-0.151113,-1.563469,-0.405531,-0.223628,-0.089767,2.087712,-0.807922,-0.285486,-0.042086,-0.127540,-0.673554,-0.404127,0.525153,0.359079,-0.625408,1.643473,0.067385,-0.809624,-0.523042,-0.102850}
    }
  },
  {
    {
      {0.232147,-0.802623,0.420576,-0.075062,0.319009,0.584904,-0.237537,-0.120358,1.289756,-0.587108,-0.463225,0.264795,0.280857,0.418241,0.070429,1.209376,0.397789,1.239766,0.254690,0.279737,0.223236,-0.350092,-0.300382,-0.221484,0.384021,-0.801302,0.114718,-0.189710,0.391533,0.441382,0.041985,-0.233087,-0.223978,-0.310135,0.261340,-0.075544,-0.022707,0.255299,0.191779,-0.466283,0.292691,-0.451103,-0.548267,0.357514,0.207971,0.311883,-0.216255,0.128446,-0.267655,0.133352,-0.289594,0.311876,-0.553064,-0.740247,0.245811,-0.210757,-0.135061,-0.179368,0.715353,0.325545,0.229786,-0.006645,-0.172661,-0.133196,0.375001,-0.370072,-0.283150,0.224457,-0.042539,-0.124195,-0.215931,-0.137140,-0.180970,0.616823,-0.100232,-0.424604,0.296053,-0.246045,0.495274,-0.009234,-1.368255,0.056192,0.349302,0.003606,-0.209243,-0.348007,0.213991,0.211694,-0.450465,-0.748896,-0.048728,-0.220690,-0.530379,-0.089353,0.808514,-0.055799,-0.464311,0.287775,-0.560333,0.586854,-0.326483,-0.202267,-0.253108,-0.177255,0.320129,0.354669,-0.018054,0.200582,-0.993926,-0.481203,-0.125802,-0.135047,-0.198326,0.360680,0.138258,-0.364910,0.460845,0.252348,-0.110071,-0.000523,-0.353721,0.312673,-0.182457,0.519880,0.094003,-0.427896,0.299502,-0.409288,0.733167,-0.051259,0.228812,0.883956,-0.754735,0.218897,-0.553032,0.273622,-0.734110,-0.504457,0.322841,-0.383956,0.374878,-0.512143,0.464223,0.271356,0.638750,-0.663792,-0.771566,0.116253,-0.170534,-0.285528,-0.146140,-0.042020,-0.299286,-0.380272,1.147520,-0.309472,-0.300587,-0.110440,-0.278288,0.054668,-0.121032,-0.300529,0.343828,-0.152325,-0.280566,-0.844460,-0.357422,-0.097106,-0.269804,0.412806,-0.116255,0.115186,-0.203007,-0.260127,0.235343,-0.089126,0.402897,-0.271149,0.050459,0.132045,-0.239179,-0.435908,0.102170,-0.266832,-0.051460,0.078417,-0.301030,0.227272,0.352478,-0.253614,0.815655,-0.562605,-0.421375,0.083177,0.049987,-0.182609,-0.204919,-0.174540,-0.435442,-0.047752,0.286904,0.310176,0.350933,0.534410,-0.297654,-0.036996,-0.403074,-0.191800,1.078666,0.320305,0.565287,-0.132874,-0.299570,-0.226799,-0.753365,-0.370803,-0.228036,0.348988,1.693510,0.184410,-0.172334,-0.082153,-0.165457,-0.228059,-0.468187,-0.214841,0.049601,-0.043391,-0.001967,-0.063509,-0.121105,-0.332676,-0.407492,0.040528,-0.645399,-0.249879,0.215321,-0.157780,-0.426078,-0.611820,-0.556601,-0.501654,-0.651120,-0.199540,-0.144840,-0.148782,-0.793363,0.347593,-0.361884,0.442094,-0.837855,0.004638,-0.658503,-0.510994,0.592303,0.206473,-0.383901,-0.060584,0.747684,-0.222496,-0.370846,-0.682156,0.483811,-0.251485,-0.079828,-0.757811,-0.332769,0.320403,-0.180328,0.019064,-0.040893,0.285356,-1.305499,0.344037,-0.134806,-0.143132,-0.282887,0.707097,-0.207388,0.159133,0.544628,-0.158890,0.513917,1.218325,0.045331,-0.147931,0.434791,-0.153548,0.324238,-0.034217,-0.248119,0.200948,0.433301,-0.424723,0.197312,0.220748,-0.111346,-0.057639,-0.534362,-0.311700,0.093968,-0.141805,0.324404,0.324181,0.095150,0.717434,-0.430238,0.052873,-0.212116,0.101159,-0.465468,-0.248343,-0.016333,-0.331727,-0.075756,-0.277112,-0.262886,-0.807957,-0.341856,-0.399435,0.251529,-0.101119,-0.205797,0.592104,-0.439789,-0.381375,-0.209328,0.116610,0.439405,-0.017245,-0.303410,-0.584937,-0.396335,0.319443,0.555664,-0.079151,0.489151,0.394415,0.229714,-0.255585,0.325385,0.616169,0.167774,-0.075023,0.351425,-0.265889,-0.275183,0.082747,0.242223,-0.459544,-0.002783,0.162373,-0.312204,0.591374,0.320234,-0.357518,0.241113,-0.054357,0.139873,-0.342521,-0.307300,0.232102,-0.408993,0.087635,-0.436738,-0.003099,-0.324454,-0.220693,-0.537529,0.171977,0.295219,-0.070660,-0.877825,-0.223469,0.513649,0.499132,-0.165909,-0.044236,-0.316450,-0.308619,0.297573,0.291495,-0.487735,-0.180632}
    },
    {
      {-0.910911,0.860488,0.165268,-0.226318,0.803047,-0.370291,-0.002087,-0.134278,0.233290,-0.759506,0.016619,-0.488737,-0.267309,1.151932,0.120524,0.298533,0.912774,2.059345,0.978487,-0.832075,0.382100,-0.399760,-1.173219,-0.521700,0.697479,1.162146,-0.787397,-0.902602,1.049496,-0.425802,-0.820935,-0.133585,-1.025712,-0.498505,1.092065,1.567959,-0.464975,1.482558,1.297555,-0.755664,0.869715,0.249415,-1.175616,1.463232,0.786153,-0.012249,-0.904728,0.284124,-0.519078,1.080929,-1.042138,1.805454,-0.503589,-0.825243,0.069293,-1.137192,-0.262715,-0.484912,-0.382297,1.456202,-1.102717,-0.781641,-0.228438,-0.738460,0.032904,-0.189362,-0.204173,-1.058997,-0.910236,-0.064358,-1.170732,-0.239832,-0.270980,-0.087380,0.513746,-0.615238,-0.779876,-0.105660,2.109730,-0.499293,0.279103,-0.016255,-0.029417,-0.387916,-1.359130,-0.465630,-0.169561,0.093283,-0.469003,2.002361,-0.865524,-1.072776,-0.178618,-0.383352,0.132750,-0.537248,-0.086214,-1.234940,-0.204409,-0.005144,-0.885768,-0.598389,-1.010969,-0.300954,-0.067694,1.240009,-0.568115,0.936797,-0.419669,0.456224,-0.333754,-1.454072,-0.459700,1.641343,0.458315,0.249835,-0.386819,0.728432,-0.000294,0.310548,-0.830333,-0.107032,-0.296247,0.351242,0.032364,0.048645,1.339071,-0.118545,-0.888177,0.711024,-0.710420,1.688294,0.228334,-0.578668,-0.885554,1.562181,1.529388,-0.929807,1.364265,-0.330249,-0.231338,-0.231191,-0.065011,0.444091,-0.158560,-0.371882,-1.531227,-1.218157,-0.525305,0.135481,-0.675983,1.943802,-1.089619,-0.140070,0.675714,-0.904228,-1.086045,0.285883,-0.265032,-0.459811,-0.253465,-0.088658,0.235816,0.182531,-0.891626,-1.415439,-0.261253,4.152325,0.861555,-0.939837,-0.285596,0.510216,-0.050198,-0.210912,0.414052,-0.816035,-0.272698,-0.436268,-0.705395,-0.610549,-0.663556,-0.496556,-0.379145,-0.760499,-0.142131,0.929534,0.582711,2.840480,1.007248,-0.315246,0.767123,-0.356991,0.039399,-1.950649,-0.623503,-0.350694,-0.634276,-0.194644,-0.072171,-0.663417,1.730505,0.002266,0.996451,-0.569988,0.222746,-1.278714,-0.340624,-0.355964,-0.512370,1.389297,0.026003,-0.806817,-0.783883,-0.348960,-0.654451,0.854231,-0.763115,-0.739661,1.492409,-0.859991,-0.272625,-0.019046,0.681208,-0.656082,-0.620446,-0.566811,-0.777460,0.457758,0.352817,-0.946232,-0.578676,0.851830,0.326969,-1.630652,-0.968849,-1.010229,-0.833053,-0.720432,-0.518392,-0.795156,-0.375695,-0.867236,0.275214,-0.545183,-0.927001,-0.286335,0.386165,1.349421,-0.966884,1.778277,-0.841853,-1.054034,-1.211149,-1.000056,1.689273,0.567626,-0.487319,-0.551548,0.171281,-0.848741,-1.170588,-1.026732,-0.071609,-0.624807,-0.253584,0.788397,-0.078694,1.474488,-0.300274,-1.251219,0.171236,1.584417,0.588429,0.040748,-0.022088,0.640186,-0.870647,1.715060,-1.125436,-0.028302,0.883184,-0.306550,-0.188686,-0.526022,1.044011,-0.278411,-0.119838,-0.126760,0.035359,-0.019196,-0.403917,1.854728,0.983714,0.017322,0.398283,1.318042,2.792299,-0.466195,-0.521423,-1.199773,-1.156206,-0.616468,0.993578,-0.203395,1.422469,-0.697549,-0.110513,-0.487814,0.465129,0.970531,-0.916339,-0.219723,-1.193542,-0.197315,-0.382057,-0.706842,-0.458541,-0.836904,-0.036862,-0.089001,1.230230,-0.816208,-0.195072,1.186806,0.805226,-1.102133,0.006723,2.394669,1.604288,0.372005,-1.182575,-1.125807,-0.051990,-0.003810,0.880936,-0.195705,0.817459,0.046717,1.382847,0.010828,-0.682880,0.320903,1.018412,-0.409988,-1.179790,-0.542506,-0.362016,0.216737,-0.330185,-0.636804,0.447673,-0.633455,0.055551,0.872672,2.009640,-0.347840,1.304565,-0.003543,0.202561,-0.160030,-0.564112,0.521629,-0.482672,0.112650,-0.670194,0.150194,-0.713927,-0.249753,-1.064543,-1.330211,-0.768809,-0.132089,-0.134504,-0.211494,-0.364680,-0.432000,0.735482,0.342579,-0.897693,-0.275698,1.261859,1.068777,-0.420922,-0.259396}
    },
    {
      {-0.309801,-0.210285,-0.301989,-0.393519,0.331520,-0.223018,0.405363,-0.034146,0.043100,-0.344115,0.527813,0.641173,-0.241552,-1.097665,0.038520,-0.388047,0.585196,1.097785,0.280699,-0.127696,0.179980,-0.174882,-0.119701,-0.525783,0.099302,0.411831,-1.098274,-0.135947,0.413617,-0.857586,0.049133,0.375315,-0.345436,0.076102,0.157313,-0.150995,-0.131822,0.264462,0.016868,-0.206967,0.274152,-0.677068,0.227268,0.346190,0.063079,-0.753291,0.077581,-0.642143,-0.303114,0.040268,-0.272933,-0.570693,-0.821500,0.231829,-0.177389,-0.303480,-0.163389,-0.110666,-0.671047,0.241997,-0.091666,-0.416023,-0.108234,-0.184580,-0.124177,-0.179280,0.516631,0.109082,-0.508472,0.306147,-0.016741,-0.403353,-0.282809,-0.308305,-0.141604,0.595774,-0.017824,0.342417,0.481410,-0.108887,-1.478765,0.100968,0.125055,0.442051,-0.379424,-0.413229,0.381857,0.040697,-0.302768,0.277873,-0.129931,0.162317,-0.680861,0.066612,0.548052,-0.219508,0.174503,0.122697,-0.405106,0.983659,-0.242020,-0.343698,-0.059892,0.397608,-0.180799,0.308186,0.061068,-0.036379,-0.379290,0.107199,-0.321516,-0.063462,-0.604225,-0.045582,0.245842,0.097917,-0.072214,1.388169,0.046122,-0.126433,-0.269001,-0.163747,-0.214086,0.466373,-0.309507,-0.502224,0.154360,-0.275756,-0.228257,-0.208701,0.055500,0.559173,-0.175554,0.399830,-0.264490,0.046748,-0.561638,-0.383364,0.274866,-0.316698,-0.389529,0.219900,-0.298492,1.568367,-0.174629,-0.628045,0.398832,-0.162769,-0.353616,-0.509361,-0.419299,1.196247,-0.391115,-0.326938,0.146077,-0.444942,-0.178999,-0.053540,-0.213024,0.243041,0.377440,0.425873,-0.518633,0.211326,-0.362913,-0.609977,0.503256,-0.408269,-0.142243,-1.352031,-0.123204,0.189419,0.376512,0.165713,0.728460,0.074310,-0.195563,-0.205496,-0.238033,-0.490132,0.069222,-0.250755,0.114968,0.106203,0.346101,0.424614,-0.449469,-0.014257,0.250100,-0.186194,0.213287,-0.146370,0.296603,0.779974,-0.237455,-0.300120,0.632011,1.601166,-0.208150,-0.192162,0.195974,-0.332335,0.445426,-0.467375,-0.004239,-0.539513,0.175683,-1.051163,0.477805,0.247904,-0.517902,-0.010396,-0.445293,-0.343940,-0.564631,0.239899,-0.140194,-0.458326,-0.048107,0.115921,-0.242487,0.041969,-0.377978,0.048484,0.553666,0.275691,-0.047249,-0.808528,0.282947,-0.665580,-0.147706,-0.196160,-0.716203,-0.910306,-0.242382,-0.225086,0.743497,0.043606,-0.385988,-0.343470,-0.272463,-0.380284,0.476098,-0.217526,-0.183282,-0.236979,0.341726,0.067523,0.792601,0.139692,0.106872,-0.218686,-0.918615,-0.366246,0.416333,0.213753,0.723656,-0.001333,-0.088700,-0.401535,-0.529643,-0.275328,-0.284693,-0.305262,-0.282847,0.155038,-1.218383,0.265350,-0.271073,0.009335,0.639980,0.450853,-1.113354,0.408608,0.095090,1.566988,-0.321302,0.328616,1.100207,-0.364443,0.434740,0.146519,-0.268637,0.840409,1.418001,-0.095122,-0.622027,0.197875,0.343593,0.427996,-0.325573,0.348607,0.500666,-0.383119,-0.379625,-0.142445,0.456446,0.043616,-0.550160,-0.343174,1.214878,-0.079461,0.387421,-0.129417,0.500232,0.131177,-0.322674,0.254889,-0.299310,1.018483,-0.358319,-0.680087,0.557958,0.535896,0.043231,-0.097872,-0.080410,-0.505860,0.420669,0.424695,0.091940,-0.184238,-0.309339,0.310413,-0.204007,-0.078285,0.076519,0.243747,0.473521,0.669456,-0.290753,-0.295246,-0.052446,-0.180887,0.238718,0.379295,0.319357,-0.232956,0.241630,0.168991,-0.318039,0.041130,0.208441,-0.404361,-1.760497,-0.247882,0.009515,0.169435,-0.136412,-0.341215,0.056766,-0.416162,0.318418,0.308037,0.193822,0.608950,0.560326,-0.267417,0.224559,-0.297285,-0.298290,1.519499,-0.193443,-0.271593,-0.369017,-0.183579,-0.144346,-0.065803,-0.358245,0.031040,0.052004,-0.055601,-0.120426,-0.476820,-0.842320,-0.164937,0.766141,0.109715,-0.190366,0.172395,0.128195,0.303272,-0.479453,-0.115061}
    }
  }
};
