#pragma once

#include "C:\Users\Baron\Desktop\EE_297_Repo\EE_297\hardware_imp\vitis_hls\lane_seg_hls\lane_seg_top.h"

// Auto-generated with BN folded

data_t enc9_ir8_dw_w[3][3][1][384] = {
  {
    {
      {-0.038209,-0.215616,1.464690,-0.537006,0.174754,-0.644658,0.457143,0.700494,0.098322,0.314662,-0.380217,-1.285356,0.305337,-0.391319,0.926155,-0.115969,0.190158,-0.610555,0.276923,0.766023,-0.151613,0.503123,-0.045770,-0.010284,-0.261253,-0.442704,0.191953,-0.423155,-0.400215,-0.206141,0.605164,-0.276033,1.985873,-0.089724,-0.356012,1.437044,-0.197362,-0.255640,0.639290,0.380674,-0.702186,-0.045327,-0.235769,-0.528547,1.385400,0.576028,-0.192389,0.215729,-0.454997,0.146520,-0.741765,-1.350865,0.059674,0.039614,0.319828,-0.156189,0.317976,-0.429725,-0.245306,0.784821,-0.045387,-0.541789,-0.315615,0.307051,-1.020503,0.512891,0.005922,0.321191,0.424231,-0.325711,-0.762236,0.018825,0.092510,-0.476383,0.038599,0.355045,0.217090,-0.901570,-0.231842,-0.601675,-1.014483,-0.531414,0.122042,0.099533,-0.224338,-0.445401,-0.157799,-0.092745,-0.054152,-0.123211,0.411927,-0.284505,-0.325950,-0.155518,-0.013898,0.280163,-0.206958,-0.662603,0.510977,-0.384168,-0.302570,-0.381845,0.899075,0.039439,1.506036,-0.778795,-0.088088,0.412345,-0.407113,0.078559,0.402259,0.158213,-0.075330,-0.060973,4.588431,-0.176490,-0.142876,-0.604805,0.171924,-0.349867,-0.298750,0.957615,0.297923,-0.579319,0.055596,-0.204534,-0.441500,-0.254290,0.104192,-0.878198,0.280599,0.383840,-0.262182,-0.838438,0.298605,-0.788871,-0.075152,-0.266696,-0.990976,-0.066214,-0.600335,-0.528822,0.321211,-0.103383,-0.004139,-0.678282,-0.159870,-0.116683,0.471221,0.741666,-0.322112,0.956309,-0.505233,-0.322470,0.130402,-0.464645,-0.504684,0.012749,0.413857,0.133681,-0.254306,-0.559024,0.661820,0.500742,-0.110721,-0.141402,-0.169428,-0.494637,0.213327,-0.167877,0.004772,-0.637299,-0.216153,-0.360339,-0.653964,-0.130727,-0.277454,0.580800,0.750151,-0.344387,-0.097070,0.012064,0.732706,-0.742398,0.224663,-0.041449,-0.198592,0.124884,0.257875,0.169129,0.047187,-0.195314,-0.206008,0.960550,-0.659169,-0.390526,0.032325,0.833063,0.509353,0.107732,0.962409,-0.286880,0.062929,0.211706,-0.446519,0.422054,-0.065286,0.402716,-0.411058,-0.997760,-0.184624,-0.046452,0.218648,0.663085,0.418364,-0.167079,-0.181090,-0.456857,3.206359,0.447230,-0.182146,-0.386905,0.440363,-0.534092,-0.338339,-0.496355,-0.169564,-0.251099,-0.050700,-0.396643,-0.445223,0.063652,-0.401916,0.055676,-0.547342,1.220147,0.304973,-0.568296,-0.327018,-0.779461,-0.225254,0.171999,-0.365855,0.361175,-0.566739,0.292696,-0.220276,-0.233097,0.077067,0.726186,-0.323084,-0.684435,-0.091160,0.137680,0.633500,0.666744,-0.080268,-0.645945,-0.961169,0.288067,0.031259,0.186503,0.005826,-0.349202,-0.311602,-0.054335,0.007975,-0.092571,0.170802,-0.001998,-0.511813,-0.344954,-1.013700,0.216158,-0.560700,-0.022439,-0.041234,1.217067,-0.186125,0.384717,-0.374399,0.107341,0.705935,-0.000237,-0.680272,-0.289182,-0.316442,-0.278313,0.658747,0.324416,-0.250083,0.156872,-0.154692,-0.011946,0.209441,0.298971,0.026590,1.070628,1.370480,-0.179395,-0.360386,-0.693012,-0.200439,1.220273,0.378753,-0.351898,-0.218623,0.060254,-0.325756,0.043503,-0.400961,0.356680,0.078093,-0.619695,-0.139101,0.140853,0.056868,-0.403237,-0.050343,0.349078,-0.273271,-0.238554,0.881196,0.050111,0.588110,0.091041,-0.154958,1.009131,0.167540,-0.773542,-0.232711,-0.402337,0.846532,-0.406337,-0.092030,-0.112335,0.101889,-0.393134,-0.675820,0.646971,-0.292350,0.273008,0.062424,-0.340180,-0.265173,-0.557105,-0.549337,0.108839,-0.208217,-0.079850,-0.145152,-0.254890,-0.571395,-0.560601,0.080043,0.270327,0.540713,0.103187,-0.171424,-0.808809,-0.293298,0.378177,0.191099,0.387148,0.088699,-1.096865,0.088984,0.282796,0.553784,0.191573,0.417124,-0.300636,-0.691612,-0.279978,-0.182434,0.842050,-0.256810,0.114849,-0.556108,-0.636847,-0.364804,-0.079830,0.004600,0.499231}
    },
    {
      {-0.082674,-0.219030,1.000585,-0.461505,0.463408,-0.671166,0.777754,-1.199349,0.301240,1.332766,-0.898975,-0.962221,1.966059,-0.460134,2.024618,-0.497593,-0.631802,-0.396718,-0.172144,0.375130,0.930928,0.625350,1.342219,-0.177948,-0.371320,-1.310063,-1.775704,-0.401709,-0.154012,-0.356024,0.255503,-0.541538,1.446700,0.694956,-1.314388,1.352124,-0.102811,-0.714177,-0.641473,-0.234903,-0.243329,-0.105064,0.643123,-0.121974,0.434388,-0.421407,-0.619803,-0.968715,-0.852388,-0.336246,-0.625046,-1.532475,-0.116048,-0.456215,1.182894,0.370587,0.607078,-0.021131,2.050215,-1.378623,-0.223798,-0.863644,-0.547237,1.064512,-0.123577,1.189661,-0.783851,0.099892,0.196023,0.379777,2.325250,-0.710274,0.356954,-0.248013,-0.238568,-1.613729,-1.060543,-0.762254,-0.341750,-0.937603,-0.237971,0.102184,1.382066,0.463172,-0.104825,0.292221,-0.115387,0.166104,-0.645570,-1.265767,0.933543,-0.121578,-0.562222,-0.177397,-0.068351,0.647365,-0.340585,3.034769,1.515960,-1.680686,-0.676588,-0.711043,0.622260,-0.057424,2.003298,0.028538,-0.166870,-0.104854,-0.387829,1.269576,1.026559,-0.383350,0.687896,0.523091,-9.410433,-0.538413,0.936315,0.033237,2.456343,-0.199804,-0.066586,1.327944,0.308768,-0.413979,0.401392,-0.504640,-0.587021,-0.550895,-0.056355,0.056231,-0.202510,-1.252348,0.697864,-0.149099,-0.042664,-0.143010,-0.146198,-0.102896,-1.004125,-1.206357,-0.423205,-0.393842,-0.427428,-0.134570,0.404548,-0.359579,-0.774379,1.197837,3.087754,0.485866,-0.083197,0.416975,-0.954053,-0.876024,-0.417153,-0.380231,-0.355324,0.359164,-0.257698,0.796688,-0.462277,-0.242743,0.655444,0.038520,0.140172,-0.027299,2.822292,-0.227313,0.175400,1.320245,-0.257815,-0.512889,-0.688156,-0.491225,-0.391912,0.327503,-0.194003,0.257399,0.170528,-0.149518,-0.331026,-0.286944,-1.054000,-0.708616,-0.121286,-0.844251,-0.535949,-0.132415,-0.458814,-1.017653,-0.807368,-0.029671,-0.071977,0.443819,-0.183072,-0.078453,0.042258,1.285142,1.457478,0.662628,0.467684,-1.089039,-0.343655,0.530825,-0.791249,2.163745,0.917390,-0.176758,-0.356553,-0.622391,0.864001,0.735657,-0.231756,0.143686,0.833013,-0.364860,-0.023161,-0.821164,-1.258003,-0.126665,-1.619492,-0.697131,1.126556,-1.115184,0.009136,0.478537,-0.810092,0.091010,0.662422,-1.201546,0.782789,0.273759,-0.242045,-0.597269,-0.559938,-1.434081,1.113563,1.899494,0.204236,1.045981,-0.491279,-0.207845,-0.118335,-0.131491,0.530761,1.231585,-0.014746,-0.347150,0.585867,-0.612417,-0.347889,0.079919,-0.103295,1.211428,0.379239,1.333327,-0.076512,0.012290,-1.459106,-0.464209,1.082655,0.065491,0.177731,-0.297515,-0.171553,-0.052696,0.028847,0.760691,1.115840,-0.610014,0.235639,-0.413296,0.064746,-0.851767,-0.367745,-0.356734,-0.293758,0.519013,1.911322,0.569025,-0.912029,0.214194,-0.221812,-1.060050,-1.742280,0.247852,-0.656328,-0.825091,2.520551,0.319567,-0.270185,-0.274858,-0.209018,0.719964,0.459675,-0.351940,-0.366621,0.023393,1.005277,1.973253,0.655592,-0.839292,-0.113154,-0.787287,-0.491257,-0.564740,-0.126851,-1.405992,-0.041257,0.024036,-0.503371,0.414168,0.796656,-0.713563,0.127689,0.240562,0.033738,0.203957,-0.915079,1.050500,-0.561439,-0.318352,0.751010,0.927782,1.033126,0.018545,0.281360,-0.968011,-0.045674,-0.504007,-0.681450,-1.086993,0.156810,0.909823,-0.558198,-0.074744,-0.360844,-0.737428,0.075391,1.122708,-0.309748,-1.883524,-1.793468,-0.137894,-0.832193,-0.537127,-0.325746,-0.210735,0.277246,-0.487313,0.106434,0.438178,0.012556,-0.183397,-1.441596,0.611160,1.756050,-1.709052,-1.157792,-1.629527,-0.224408,0.172232,-0.042410,1.523785,-0.063346,-0.408846,-1.252067,-0.007711,-0.934225,-2.048213,0.746258,-0.164810,-0.293319,-0.177715,-0.951091,0.717588,-0.474775,1.195649,-0.118870,-0.447171,0.368391,0.628890,-0.120292,1.866737}
    },
    {
      {-0.282406,0.441763,0.136629,-0.177172,0.210818,-0.525178,0.486680,-0.306979,0.086076,0.474990,-0.399778,0.754042,-0.390909,-0.538156,0.865845,-0.479979,-0.595236,-0.411008,-0.041531,-0.099691,-0.764804,0.371234,0.433173,0.180447,-0.442816,-0.049158,-0.337542,-0.341528,-0.380437,-0.151997,-0.267747,0.063442,0.491708,0.342938,-0.263855,-0.338562,-0.441907,-0.211540,-0.531369,-0.116352,0.568432,-0.285744,-0.388130,-0.260749,0.304644,-0.808737,-0.194450,-0.392274,-0.286715,0.196887,0.022589,-0.609742,-0.178683,-0.951181,-0.396245,0.420952,-0.472307,1.094979,0.166048,0.728043,0.346704,-0.649550,-0.371440,0.343257,-0.631651,-0.002552,-0.174940,0.226778,0.370068,-0.300969,-0.132721,-0.235414,0.015403,-0.346733,-0.091309,0.467628,-0.406256,0.306451,-0.213574,-0.549081,2.074819,-0.787322,-0.080574,0.100011,0.325982,0.145254,-0.389426,0.061470,-0.410277,-0.439609,0.208595,-0.317608,0.227782,-0.163460,-0.129365,0.072219,-0.153729,0.437406,0.090529,-0.100976,-0.324282,0.906460,0.000539,-0.243572,0.305018,0.928442,0.043950,0.135164,-0.100537,0.382759,0.609338,-0.225106,0.182984,0.021619,2.415914,-0.288768,-0.635376,-0.111558,0.600720,-0.262700,-0.046022,0.921838,0.127372,-0.754194,0.013308,-0.487746,0.041953,-0.064935,0.745702,-0.332314,-0.821085,0.255867,0.626322,-0.651466,0.376231,-0.421602,-0.177157,-0.401793,-0.240408,0.090565,0.143714,-0.189778,-0.137839,-0.179786,0.352369,-0.271558,-0.263114,0.253242,0.157420,0.144711,-0.384946,0.370288,-0.288955,-0.409635,0.388407,-0.682598,-0.407597,-0.378941,-0.508681,0.698560,-0.113389,-0.206909,-0.210179,0.842535,0.009417,0.378033,-0.877887,-0.564073,0.264364,0.327743,-0.234430,-0.599526,-0.334659,-0.525536,-0.819607,0.164500,-0.075676,0.275125,-0.385479,0.335149,-0.045371,-0.009926,0.436331,-0.351254,-0.379308,-0.145257,-0.102221,-0.075368,-0.616181,-0.739676,-0.704520,-0.290885,-0.390601,0.437973,-0.833785,0.392993,-0.165764,1.213303,0.326668,-0.077467,0.037269,-0.179287,-0.218058,0.081437,-0.222979,0.423457,0.044264,-0.000988,-0.538172,0.176068,0.034497,0.363189,-0.016042,0.580189,-0.854819,-0.518489,-0.129133,-0.066437,-1.277047,-1.321070,0.113745,-0.211104,0.475981,1.358504,-0.252571,-0.256433,-0.426631,-0.310098,0.190819,-0.574151,-0.473799,0.069605,-0.467945,-0.485235,-0.537609,0.561842,0.478725,0.495138,0.109434,-0.790718,-0.342432,-0.508962,-0.413786,-0.040638,-0.341398,0.272609,0.275151,-0.160259,0.198459,-0.159785,-0.377018,0.305314,0.178972,0.376135,0.244464,0.662682,-0.010838,-0.563169,0.611490,0.252373,0.160248,-0.259869,-0.269592,-0.136285,0.074502,0.059150,0.006894,-0.206962,0.324595,-0.427478,0.248606,-0.465557,0.196293,0.128125,-0.400003,-0.230998,-0.297174,0.228653,-0.184319,0.049913,0.192222,-0.741684,-0.414839,-0.498132,0.407703,0.087388,0.450280,-0.063414,1.078109,0.504685,-0.613706,0.268388,0.074132,0.193961,0.566651,0.127721,0.203875,0.865781,0.131974,0.079124,-0.598370,-0.115332,0.883389,-0.231023,0.285995,-0.236119,-0.063293,-0.134688,-0.415430,-0.301502,-0.300693,1.717479,-0.129057,-0.294735,0.174293,-0.368310,0.029887,-0.250472,0.177479,0.273832,0.055096,-0.418087,0.328985,0.209181,-0.131652,0.254652,-0.209072,-0.329031,-0.236953,-0.906601,-0.045312,-0.574335,1.298193,-0.499662,-0.248051,-0.142709,-0.887709,-0.212182,-0.718132,0.373231,-0.443420,0.200510,0.645069,0.606495,0.447768,-0.524588,-0.511815,0.755292,0.577579,0.021121,-0.150964,-0.175411,-0.393615,0.444619,-0.567638,-0.027195,0.532362,-0.193515,-0.512353,-0.082747,0.558215,-0.294643,0.054495,0.577097,0.218276,0.252034,0.813789,-0.014550,-0.674365,0.172359,0.179936,-0.427826,-0.392231,-0.539629,-0.630697,0.444858,0.236764,0.033736,-0.570496,-0.161174,0.987268,0.010804,0.376983,0.772525}
    }
  },
  {
    {
      {-0.170441,-0.746336,0.435444,-0.391311,0.692272,-0.373159,0.027341,0.994965,-0.244462,0.944203,0.113910,0.198574,-0.202814,-0.069989,-1.181569,0.167776,2.139276,-0.592204,0.467593,0.482547,0.466837,1.049184,-0.224498,-0.614229,-0.707905,-0.661984,-1.349573,-0.393981,-0.244166,-0.411617,0.233494,-0.744866,-0.441993,-1.131770,0.229296,1.148926,0.044615,-0.498244,1.202644,-2.568633,-0.777684,-0.188409,-0.967528,-0.008522,1.044841,-0.226826,-0.255900,1.254107,0.055180,-0.565776,-0.918567,-1.256340,-0.173068,1.117175,1.271197,0.572991,-0.364915,-1.217012,-0.126812,0.914165,-0.183109,0.142021,-0.736391,-0.012082,-0.161857,0.623318,-0.184398,-1.401895,0.208997,0.319793,-0.223799,1.628591,-1.153786,-0.686354,0.497227,-0.296911,1.298922,-0.551294,-0.045399,0.310492,-0.277609,-0.913861,0.269574,0.728879,-0.213368,-1.498317,-0.276318,0.005172,0.029366,-0.727686,1.337142,-0.152640,-0.401865,3.067900,0.331819,-0.450648,-0.284288,2.213227,0.051961,0.665315,-0.600928,0.092957,0.924424,-0.280768,-0.385592,-1.094585,-0.487465,-0.963236,-0.559452,0.385305,-0.287586,-0.916701,1.382569,-0.719878,-8.135181,-0.295602,-0.372514,-0.207092,-0.632079,-0.444316,-0.196669,1.425417,2.276387,-0.743820,-0.097058,-0.487856,-0.530508,-0.559184,0.140792,-1.382380,1.572693,-0.055188,-0.183345,-0.552279,0.013590,-0.381220,-0.097672,-0.112628,0.301309,-0.717163,-0.214779,-0.483718,1.222469,-0.171444,-0.931764,-0.476904,0.435247,0.038526,-0.810499,1.341784,-0.316075,1.852920,-0.464522,-0.525636,-0.283991,-0.143532,-0.289616,-2.409194,1.872146,-0.181783,-1.427572,-0.082972,-0.136564,0.258349,0.158202,-1.099268,-1.296763,0.591827,0.983924,-1.391001,-0.442460,-0.533498,-0.887942,-0.490970,-0.657512,0.256648,-0.357705,0.450655,0.711777,-1.455079,1.538841,-0.431044,0.646906,-0.463939,0.483251,-0.311001,-0.035342,0.702141,1.695240,-0.726483,1.259325,-0.845340,-0.099936,1.037060,-0.550403,-0.869418,0.997610,-0.534719,0.178050,0.245742,1.403004,-0.032420,-1.772425,-0.119722,0.003156,-0.899371,0.260846,-2.446007,-0.196055,-0.651940,-0.299322,0.395699,-0.561206,0.214929,-0.316384,-0.487560,-0.329112,-0.308133,-1.008901,-0.400955,1.364629,-0.386139,1.378606,-1.069963,-0.350052,-0.792053,0.954547,-0.421620,-0.879093,0.530949,0.862050,0.223327,-0.521071,1.235762,-0.671803,0.605397,-0.351693,-0.769789,-1.419679,-0.161710,-1.199778,1.622795,-0.169215,-0.931367,-1.398831,-0.038623,-0.117831,-0.044495,0.229415,1.572860,-0.519948,0.271622,-0.407559,-0.661866,0.634977,0.216576,-0.193492,-0.432749,1.338652,-0.405177,-1.022298,-0.605372,-0.181170,-0.664213,-1.057601,0.200526,-0.006406,-0.927071,0.202108,0.536657,-0.600489,-0.429958,0.033294,-0.649555,-0.535954,-0.329232,-0.203788,1.164975,0.163913,0.292396,-1.261985,1.982689,1.681800,0.822071,0.582281,-1.063862,-0.006522,-1.114129,-0.223410,1.081178,0.002970,0.484713,0.134289,0.853895,0.405346,0.169808,-0.742848,-0.684347,0.646456,-1.302627,0.655535,-1.333986,-0.238950,2.029517,3.286421,-0.538450,-0.344457,0.780232,-0.248739,-1.339945,-0.509218,-1.277285,0.201222,1.067403,-1.815056,-1.308443,0.050047,-0.632468,0.173124,-0.300173,-0.850856,-0.549858,0.004087,0.383968,0.016615,0.159309,-0.659173,1.845028,0.393173,-0.251711,-0.303427,-0.128622,1.006868,0.569763,-0.614286,0.587006,-1.001183,-0.656369,0.266350,-0.626205,-0.731371,0.447148,-1.812641,-0.298267,0.184005,-0.532545,-0.903072,-0.039301,-0.481811,-0.277339,0.620865,0.136972,-0.409406,3.756912,-0.941519,0.877872,-0.462146,0.528382,-0.548203,0.249543,-0.250976,-0.034761,1.927476,-0.901516,0.401842,2.375383,0.254526,-0.980494,0.923193,0.004482,0.058949,-0.190836,-0.369083,-0.081868,-0.686395,-0.024389,1.384744,-0.155011,-0.030255,-0.456520,0.795283,0.360093,0.896619,-0.224762}
    },
    {
      {1.196216,-1.664842,-1.562337,-0.123277,-3.083678,2.043602,-0.167439,0.188942,-1.431140,0.410987,1.399266,3.858782,0.114664,0.502903,-1.867483,-0.841684,-1.013388,0.200585,-1.949762,1.130309,2.972273,-0.742123,0.750060,-1.370979,1.646157,-2.112597,4.629970,-0.448051,1.400595,-0.327729,1.878250,1.150281,-2.855227,0.565055,0.504008,-1.770163,1.614225,-0.294527,-2.015310,1.277995,2.583541,-0.620710,1.452439,1.490639,-1.362942,-1.333459,-1.545678,-1.035087,-0.055007,0.348991,1.025475,1.444939,-0.477124,0.439913,1.139850,1.644826,-2.105563,-1.395113,0.469906,-3.300940,-0.189729,0.277379,1.918712,-0.060035,0.124804,-0.022847,-0.018064,-1.173860,-1.727394,2.773049,-0.317184,-1.024415,0.691972,-0.863578,0.779311,3.797871,-0.188554,0.583728,-0.863622,1.098723,4.042517,-0.169563,-0.078043,-3.075510,-1.646910,1.560614,-0.101691,-1.263333,-0.885071,1.400153,-2.249888,-1.655281,-0.685151,0.093486,-0.705821,-2.160886,0.072068,4.009530,0.002680,1.962405,0.182638,-1.709695,-1.034263,0.137381,4.129156,-0.116611,-0.721010,2.219058,0.380076,-1.084151,0.459207,-2.988174,0.086711,1.295101,11.764449,-0.803008,0.308038,2.831367,-1.284475,-1.114080,-0.533937,-1.963628,-1.372541,-0.360941,1.128503,-0.976920,-0.012208,2.047717,0.210955,0.522111,0.893269,-0.110816,1.266893,0.376912,-1.578646,0.736211,-0.426125,-0.756279,0.832409,1.102415,-0.368007,-0.165790,1.177325,-0.446897,0.179455,1.901152,0.606804,0.196606,-2.589227,-1.194760,-0.906752,-1.159231,-1.069760,0.395223,-0.765369,1.714254,0.729046,0.422242,-1.655170,-0.136886,0.938979,1.406884,1.244161,-1.395582,-1.571099,-0.372446,-1.447317,-0.650135,0.868335,-0.286569,-0.543955,1.250882,2.360428,0.010346,0.351369,1.586281,-0.237874,0.036291,3.173379,0.450712,-1.998091,-0.320687,0.024756,-0.435805,0.988161,0.037731,-0.527944,2.224950,-1.026227,1.321992,-0.180527,1.759234,2.356088,-1.158839,2.143445,-0.626389,0.379102,-1.952456,-0.091407,1.483657,-1.229161,-0.578171,2.644982,1.426942,0.810970,-1.275563,-1.022518,0.367311,0.417196,0.938053,-0.597737,1.234200,-0.029511,3.147393,0.740134,-0.296349,-1.853480,0.338317,6.066744,2.581731,0.625131,0.041266,-1.856992,2.264478,1.034127,2.110002,-0.454701,-0.699880,0.488411,0.926297,0.625089,1.856063,-0.195577,-1.013110,0.370832,1.478778,-0.419346,1.077835,1.337062,-1.012899,0.866324,0.111510,-0.533180,3.988223,1.517342,0.441873,-1.164198,0.299982,1.967873,-1.226468,-0.198620,0.866102,-0.607791,-0.956471,2.007113,-1.484641,-0.628593,1.089981,1.662287,-0.078989,0.865588,1.113957,0.989730,-0.607343,0.628045,0.727057,0.059870,2.656124,0.901307,-1.043409,0.192611,0.970521,-1.080488,-2.484233,0.837899,-0.125032,-0.361932,-1.088770,0.303187,1.525774,0.182379,-0.710658,-0.968802,-0.628368,0.111650,0.736434,-1.767890,-0.810722,-3.066808,1.246573,-1.233943,-0.141175,-0.633232,1.153324,2.326003,-1.215233,2.717135,5.313312,-1.019946,-2.033117,1.985057,-0.214991,-0.056978,-1.444150,-3.239248,-0.089085,-0.523320,0.444296,1.829643,3.159889,0.704947,-1.720344,0.790516,0.247492,2.268572,-1.995549,0.248838,1.581306,-3.054000,-0.935365,2.173660,-0.398343,-0.518918,1.627967,0.201303,0.130388,1.132947,-1.689106,0.605565,1.979988,1.062553,-0.195542,-3.487780,3.686680,-1.051459,1.908075,-2.689612,1.620391,2.140808,-0.606156,0.269350,-0.399840,0.274395,2.181910,-3.646097,0.354184,0.291843,1.635908,-1.434841,-0.058648,2.822972,1.880324,4.750442,-1.890269,0.448487,0.381671,-1.827054,-0.894575,-0.084281,1.369632,-1.434708,2.019339,-0.609181,-0.333743,0.565729,-0.659442,2.718852,0.697569,1.281170,2.245630,0.909610,0.235038,1.410965,-0.396120,1.210509,-1.084199,-2.412066,0.642470,2.034756,-0.367921,1.543524,3.093950,-0.281183,-0.787242}
    },
    {
      {-0.126816,2.114846,-0.626034,-0.209798,0.723012,-0.205523,-0.323897,0.449926,-0.326270,-0.410124,0.093024,-1.423333,1.040778,0.112756,-1.162766,-0.148605,-0.029262,-0.519511,-0.202378,-0.595977,1.395126,-0.605340,0.111819,2.370343,-0.578463,-0.578860,-1.456193,0.129341,-0.314792,-0.418054,0.283681,-0.600295,-0.810301,0.523139,0.271804,-1.082612,0.063845,-0.385613,0.040720,1.566687,0.075688,-0.272217,0.182080,-0.124658,-0.737508,0.212467,-0.238404,-0.344393,0.207511,-0.609986,0.869018,0.234846,-0.233369,-0.637930,1.097393,0.420005,2.676051,1.648854,0.038963,0.839924,1.490016,0.255323,-1.030344,-0.066025,-0.672785,-0.695412,-0.719427,-1.180942,0.013246,-0.242269,-0.140402,-0.671645,0.416689,-0.505876,0.723717,1.043515,-0.602651,0.616771,0.257825,0.068079,-0.114857,-0.931412,0.034846,0.783184,1.489790,-0.085650,-0.303928,2.578351,0.963618,-1.023290,0.589995,0.127811,0.530756,-1.278910,2.294639,-0.099441,-0.388300,1.107277,0.097686,0.629370,-0.579496,1.685234,-0.569276,-0.519710,0.934222,1.650186,-0.515151,0.888867,-0.382443,0.620420,0.968953,-1.156738,-0.863536,0.746136,-6.730847,-0.315941,1.860341,0.351566,-0.819395,-0.515161,-0.261723,-0.513638,-1.425787,-0.575110,0.037417,-0.218644,1.239371,-0.556114,1.680394,0.933143,-0.566007,-0.628392,0.165898,-0.304352,1.019120,-0.409909,-0.078605,-0.071535,0.453190,-0.853082,-0.319485,-0.246083,-0.168583,-0.175592,0.801828,-0.336726,0.330097,1.721852,-1.039754,-0.664898,-0.178717,-0.922637,0.651130,-0.609457,1.238381,-0.758046,-0.275156,-1.831780,0.119832,-0.380207,0.550219,-0.192246,0.954157,0.426233,-0.433055,1.665525,-0.341347,-0.122417,0.680582,1.355591,-0.151990,-0.416859,-0.652083,-0.298762,-0.307155,0.288261,-0.151946,0.321842,-0.403249,1.021332,1.382251,-0.365228,-0.239592,-0.829026,-1.338330,-0.290943,-0.907342,0.147636,-0.633081,0.994933,-0.746966,-0.724098,-0.273354,-0.084393,-0.605541,1.588470,-1.364519,-0.339010,0.181671,0.310658,-1.602518,0.166169,-1.277389,0.032331,0.022803,-0.117195,0.207440,2.205898,-0.265822,0.949228,-0.470750,0.791265,-0.476964,0.495213,-0.680608,-0.228573,-0.729884,-0.498823,-0.463335,-0.702215,1.430237,-0.265167,0.747015,1.110652,-0.708021,-0.802981,-0.631909,-0.432054,-1.172142,0.238266,0.974206,0.111501,-0.341055,-0.703738,-0.563082,0.680763,-0.293620,-1.370440,0.550349,-0.683145,-0.726889,-0.442055,-0.166567,-1.122360,0.102245,-0.126589,2.332544,0.177420,0.693693,-1.007229,-0.239037,-0.632888,1.507021,-0.588186,0.453638,0.847604,-0.050210,-0.607919,-1.009783,-0.582215,0.652484,-0.895050,-1.304907,-0.561575,1.159907,0.328831,-0.007406,-0.798618,-0.398658,-0.956284,1.612389,-0.305194,2.127203,2.830989,-0.407144,-0.306339,-0.347909,-1.011658,-0.090307,0.272775,1.002131,-0.843860,-0.329244,-0.788739,1.239511,0.478332,2.421196,0.384303,-1.010842,-0.933987,-0.459342,0.515976,0.357630,0.385652,0.103854,-0.396381,-0.968588,0.523964,-0.266737,-0.094981,0.641748,0.309449,1.005387,-0.593646,2.174973,-0.264708,-0.281872,0.190910,-0.479939,0.156961,-0.648623,0.941708,0.213397,0.942141,-0.692615,3.051525,0.061165,-0.390183,0.348572,-0.179939,-0.659023,-0.346877,-0.540389,-0.860097,-0.012015,0.429100,-0.738268,0.192876,-0.698654,-0.328763,-0.347354,-0.048649,0.811957,1.495677,-0.582483,0.310586,3.073758,-0.694532,0.273232,-0.525689,0.082452,0.455531,1.295361,-0.384857,3.508625,-0.205723,-0.603116,0.264148,1.223800,-0.516597,0.081966,0.442851,0.445075,-1.495366,-0.394620,0.566008,-0.028032,0.184301,-0.545408,0.217270,1.173721,0.303334,-0.007300,-0.426130,-0.349098,-1.660222,1.041270,1.325971,-0.672950,-0.736607,0.132769,-0.643354,-0.708853,-0.050910,-0.781804,0.131097,1.432179,0.135752,-0.260473,-0.593514,0.255446,0.199922,0.976968,-0.249016}
    }
  },
  {
    {
      {-0.221400,-0.379771,0.190607,0.265484,0.309434,-0.498207,0.330769,-0.190052,0.296628,-0.327710,-0.041340,0.022428,0.244956,-0.052379,0.166827,0.619638,0.448035,0.039710,1.410159,-0.204238,-0.575893,0.248512,-0.590153,-0.203371,-0.350466,1.222114,-0.173593,-0.508847,-0.229269,-0.330357,0.182312,0.102189,-0.061743,-0.549942,-0.079481,-0.117142,0.560012,-0.178147,0.946316,0.457820,0.324957,-0.169821,-0.777637,0.216549,-0.024072,-1.148875,-0.014400,0.804897,0.194480,-0.013969,-0.143149,-1.179045,0.074578,0.650701,-0.342452,0.301980,0.162235,-0.293388,0.418421,1.123300,-0.173891,0.529288,-0.195904,-0.210043,-0.316174,-0.462499,-0.676489,0.647612,0.385579,0.160140,1.203806,0.960706,-0.830940,-0.267411,-0.053083,-0.036495,0.471372,-0.020167,0.497949,0.184378,1.906926,-0.382630,-0.548219,-0.041088,-0.417323,-0.684671,0.124426,-0.527319,-0.485923,-0.524457,0.018249,-0.035442,0.157143,-0.598446,-0.042355,0.359254,-0.491673,0.321796,-0.095992,-0.273689,-0.312602,-0.362931,0.174343,-0.371339,-0.066005,0.081164,-0.166538,1.239589,-0.289294,-0.417465,-0.657774,0.811146,0.207863,-0.570392,1.743128,-0.523235,-0.458668,0.345654,0.102926,0.789771,-0.124576,-0.351605,-0.129668,-0.136230,-0.018952,-0.159718,-0.386062,-0.759635,-0.777250,-0.046582,-0.675475,-0.125717,-1.020544,-0.222002,0.115981,-0.373916,-0.185609,-0.179648,0.045744,-0.007353,-0.005839,-0.508752,0.238627,-0.115659,-1.051272,-0.355712,-0.270160,0.429771,-0.082828,0.362643,-0.558572,0.567388,0.615655,-0.465852,0.051885,-0.830308,-0.389025,0.439287,0.849389,0.081706,-0.089987,-0.401057,0.352507,1.145597,0.199508,-0.391295,0.132277,0.614240,-0.350289,-0.354124,-0.158355,-0.624648,-0.577267,-0.075154,-0.299107,-0.270882,-0.290661,0.249624,0.910449,-0.335869,-0.133416,-0.093799,0.607920,-0.325481,0.307177,0.058715,-0.002697,0.055426,0.737581,0.257597,0.575064,-0.171428,-0.210442,0.154162,-0.795663,-0.097170,0.205354,-0.039909,-0.211284,0.214302,0.326360,0.167857,-0.145903,0.233097,-0.382362,-0.059324,0.387703,0.206514,-0.624240,0.470039,-0.108477,1.068920,-0.506782,0.243701,-0.106935,-0.520596,0.828152,-0.601030,-2.025545,-1.165488,-0.205615,-0.321403,0.377882,0.744338,-0.375969,-0.335932,0.657675,-0.413917,-0.170438,0.150096,-0.350253,0.101790,-0.420518,0.806297,-0.458284,-0.391634,-0.182854,0.288482,-0.818524,0.403831,-0.220188,0.124684,-0.424317,-0.124211,-0.410468,-0.160350,0.188872,0.284262,0.217010,0.917257,-0.094202,0.831055,0.055709,-0.216337,0.604236,-0.089881,0.022708,-0.713745,-0.226355,0.134689,-0.558446,0.001546,0.272937,0.067799,-0.158872,0.081797,-0.023137,-0.222657,0.228670,0.853671,-0.684732,-0.485544,0.327270,0.118702,-0.741758,-0.012172,-0.091226,0.141610,-0.033205,0.069353,-0.022874,0.333084,0.546633,0.923877,0.917310,-0.673642,-0.274907,0.748679,-0.408987,-0.138706,-0.219872,0.473303,0.812987,-0.435346,0.005611,0.748037,0.022091,0.770105,-0.003677,0.422401,0.331723,-0.237558,-0.134668,0.555942,0.171467,-0.294970,-0.100836,0.602126,-0.483453,-0.039661,-0.754498,-0.039108,-0.492162,-0.638335,-0.591796,0.146606,0.002560,-0.006659,0.880691,-0.410615,-0.709782,-0.011956,0.023176,0.389463,-0.190420,0.452753,-0.307889,1.107542,-0.378440,-0.525600,-0.110158,0.361489,0.905862,0.523472,0.315373,0.335960,-0.101011,-0.483417,-0.650348,-0.433954,0.384404,0.426802,0.327679,1.017003,0.375635,-0.538506,-0.569205,0.140272,-0.191968,0.017602,0.514408,-0.255087,-0.005839,-0.532218,0.107250,-0.024215,-0.358596,0.279314,-0.259804,0.245156,0.478123,0.210188,-0.024269,-0.358741,-0.068200,-1.173194,0.178751,-0.236986,-0.340854,0.448216,-1.082793,-0.389333,-0.758966,-0.734313,-0.629363,-0.361384,0.426690,-0.152530,-0.482190,-0.445695,-0.515120,0.310710,0.039680,0.308269}
    },
    {
      {-1.434809,-0.111813,-0.518866,1.811652,0.524956,-0.126155,2.493290,1.204405,1.521399,-0.646658,-0.175486,-1.169844,-1.319090,1.474921,-0.254285,1.177883,-0.315580,-0.374834,0.363348,0.090567,1.702717,-0.682421,-1.089163,0.123978,-0.566615,3.023816,-1.827141,-0.309243,-0.212965,-0.226320,-0.105021,-0.506867,-0.574435,-0.755461,1.137821,-0.684244,0.877767,-0.335564,1.284789,0.005816,0.613940,0.009565,-0.523064,-0.697772,-0.674530,0.198674,-0.383488,0.132662,1.147087,-0.614520,0.297229,0.234075,-0.544397,0.583582,0.442487,0.097103,1.754652,0.454758,-1.997590,0.903800,-0.170158,0.829321,-0.289336,-0.915091,-0.468929,-0.549704,-0.674016,0.985473,0.301066,0.564529,-2.417829,0.884918,-0.080741,0.059442,-0.154148,1.266687,0.472728,0.879138,1.090458,0.067818,-0.363413,0.238697,-0.536367,1.038633,0.346173,0.232938,-0.485788,-0.080285,-0.183701,-0.678059,0.025492,-0.016522,0.749560,-0.023803,0.116669,1.128790,-0.458567,1.348889,-0.381856,0.402903,-0.154046,-0.624233,-0.444765,-0.381988,-0.840925,0.183987,-0.289366,2.877076,-0.470419,-0.415223,-0.648937,3.346797,-1.240558,-0.878129,-6.228744,-0.799068,-0.491934,0.187644,-0.504985,1.405114,-0.264966,-1.418933,-0.064642,-0.515699,0.462840,-1.033360,1.156841,-0.497805,-0.304458,0.294379,-0.897473,2.677593,-0.782583,-0.573780,0.435745,-0.730385,-0.095447,-0.244501,1.065812,-0.899964,-0.443456,-0.137707,0.230859,0.092569,-0.730608,-0.601020,-0.459089,1.213064,-0.244439,-0.228845,-0.111489,-0.127617,1.126258,-1.129113,0.043528,-0.457476,-0.123190,0.204781,-0.803335,-0.803588,0.555951,-0.186882,0.099052,0.386244,1.504307,0.263650,-0.619629,1.489263,-0.112116,-1.017532,-0.844708,-0.625866,-0.267502,-0.059231,-0.281068,-0.074360,-0.310897,0.375801,-0.160459,0.150252,-0.540617,-0.365218,1.122885,0.531798,-0.052360,-0.675771,-0.435477,0.474432,0.020484,0.013371,0.704012,-0.041940,-0.357128,-0.285490,-0.520683,0.029416,-0.445470,-0.706593,-0.755752,0.215571,-0.809802,1.818416,-0.266992,0.677962,0.153929,-0.876179,0.904776,0.183025,-0.422723,0.652804,2.991748,0.271919,-0.581651,-0.203813,1.162408,-0.387984,1.921838,-0.142376,-0.024020,0.106476,-1.792605,-0.641864,0.528718,2.871336,-0.060729,-0.670900,1.142634,-0.268548,0.447859,0.568111,0.911098,-0.082478,-0.085418,0.223907,-0.452736,1.376971,-0.858384,-0.685150,-0.187812,-0.761017,-0.340703,-0.053417,-0.027817,0.036223,0.493344,-0.625140,-0.738716,2.114459,-0.081760,-0.164459,-0.436260,2.876110,0.140881,-0.642647,0.383752,-0.642525,0.005217,-0.840252,0.002445,-0.681977,-0.916008,-0.244311,-0.047871,-0.159728,-0.093138,1.795294,-0.030113,0.559851,-1.544135,1.128287,-0.012313,-0.489150,1.256239,-0.551069,-0.514583,-0.403491,-0.170432,-0.584704,0.163074,-1.145877,0.874608,0.062454,-0.581961,1.043599,2.580080,-0.353755,-0.490159,0.681247,0.176483,-1.367442,2.821882,1.021457,1.399896,-0.308460,0.151234,1.083551,-1.334885,1.014557,-0.722034,0.787935,1.128235,1.483150,-0.208460,-0.486074,-0.045203,-0.439717,-0.209692,0.795002,-0.302837,0.107087,-0.340904,-0.758607,-1.327084,-0.931096,0.779765,-0.139910,-0.053944,-0.676624,2.073723,0.027714,-0.817258,-0.443710,-0.451908,-1.073988,-0.212931,2.462354,0.209651,-0.973611,-0.744679,-0.649438,-0.467472,1.531869,1.326244,1.435142,2.156553,-2.171953,-0.722975,-0.582775,0.199249,-0.690120,2.148535,2.435239,0.656931,0.405899,-0.386686,-0.236889,0.005909,0.433396,-0.263303,-0.492388,0.419635,0.252356,-0.308226,-0.016972,-1.115982,0.324091,-0.011926,-1.151119,0.060417,1.668441,1.056522,0.247698,0.151377,-0.875855,0.831889,-0.814758,-0.426202,0.472191,1.390636,-0.045492,-0.756653,-0.369335,-0.446978,-0.345886,-0.122595,-0.111356,-0.393222,-1.250131,-0.080319,-0.451102,0.524455,0.544257,-0.214874,-0.534334}
    },
    {
      {-0.051420,0.129180,0.191117,0.364026,0.143761,-0.564332,0.265703,-0.812534,0.295348,-0.751533,-0.254400,-0.813653,-0.118276,0.530668,0.226248,0.501541,-0.061063,-0.149629,0.114573,-0.872830,-0.779846,-0.938075,0.051801,0.125981,-0.390970,1.078251,0.102435,-0.014250,-0.221796,-0.152327,-0.054190,-0.081371,0.166237,-0.052142,0.176909,-0.205882,-0.238553,-0.256154,0.707557,-0.476864,-0.535889,-0.272318,0.313686,-0.314208,0.038894,1.301620,-0.337504,-0.150064,0.262494,-0.104556,0.138335,0.474945,-0.131860,0.477358,0.189163,-0.029129,-1.102728,0.691311,0.535877,1.330957,0.255396,0.386258,-0.358240,-0.322141,-0.664276,-0.480967,-0.298374,0.400954,0.389073,-0.111697,0.592178,0.180250,-0.068035,0.031907,-0.023065,0.491955,0.297808,0.198192,0.475878,0.059125,-1.717322,-0.271563,-0.383106,0.098504,0.406108,0.378159,-0.080757,0.437462,0.824887,-0.239647,-0.038101,-0.167861,0.081954,-0.180903,0.118244,0.663565,-0.229602,2.126454,-0.333538,0.329703,-0.544912,1.058826,-0.361300,-0.213359,0.185219,0.317641,-0.063069,-0.320222,-0.187352,-0.121438,-0.065073,0.376843,-0.235279,0.105648,3.166664,-0.133596,0.349906,-0.059474,-0.364839,0.678475,-0.298053,-0.224565,-0.506800,-0.387855,0.108388,0.021470,0.128852,-0.636035,0.061599,0.692364,-0.193998,-0.393815,0.342796,-0.111500,0.403520,-0.604885,-0.143198,-0.192337,0.346840,-0.358192,-0.421312,-0.427897,0.236144,0.087046,-0.074324,-0.261229,-0.285825,-0.429256,0.193899,-0.221053,-0.223917,-0.516622,0.604490,-0.363186,0.340513,-0.738971,-0.318183,0.014291,-0.065371,-0.155362,0.163113,-0.594536,0.116783,1.103007,0.067240,0.064238,-0.395638,0.783673,0.232144,-0.276921,0.034075,-0.431501,-0.265668,-0.532005,-0.173564,-0.041969,-0.361371,0.465668,1.582563,0.295641,0.005266,0.010159,0.444865,-0.321910,-0.169050,-0.659814,-0.538220,0.124206,-0.465430,0.337159,-0.000817,-0.180428,-0.000632,-0.049653,-0.217637,0.425570,-0.255392,-0.381697,-0.529261,-0.071996,-0.942315,0.139869,-0.580530,-0.070462,-0.456805,-0.121836,-0.205875,-0.329589,-0.424481,0.295414,0.087536,0.438961,-0.417648,0.172243,-0.764763,-0.168412,0.282536,-0.486811,2.711509,1.022127,-0.333174,-0.222020,0.138968,-0.716099,-0.382971,-0.091335,0.450721,-0.426585,-0.265671,-0.066811,-0.120366,-0.087880,-0.289560,-0.233448,-0.334290,-0.298290,-0.258139,-0.349260,0.174784,0.946057,-0.385025,-0.517455,-0.446194,-0.007506,-0.096464,-0.170803,-0.592662,-0.512137,-0.030505,-0.173033,-0.013247,0.587595,0.453865,-0.175209,-0.367912,0.307569,0.012312,-0.847176,-0.056162,0.282219,0.369208,-0.261541,-0.214334,-0.238520,-0.167914,0.179256,-0.014482,-0.109077,-0.470989,0.024882,0.365965,-0.329678,-0.097062,-0.293674,-0.495852,-0.076322,-0.230392,-0.234336,0.284493,-0.953650,0.234063,-0.342819,-0.601186,0.313880,0.828331,0.027363,0.751227,0.783201,-0.297322,-0.335966,-0.085046,0.244937,0.373508,-0.578169,0.027136,-0.043601,-0.013840,-1.459412,-0.078951,-0.138888,-0.034577,0.633940,-1.077341,0.007882,0.561759,-0.644530,-0.123088,-0.191972,-0.496161,0.139862,-0.661825,0.017143,-0.384763,-0.168942,0.261827,-0.284855,0.004678,-0.032223,0.673844,0.395507,0.018717,-0.234689,-0.092582,-0.523743,-0.223706,0.377864,-0.269439,-0.141108,-0.588718,-0.749607,-0.119861,0.335191,1.480993,0.003189,0.241649,0.259001,-0.070360,-0.251042,-0.646330,-0.182698,0.130719,1.374995,0.078868,0.057426,-0.341488,-0.704728,-0.327919,0.348226,0.339657,-0.149816,0.228331,-0.080492,0.584686,0.476052,0.028082,0.301159,-0.063423,0.105114,-0.183775,0.822473,0.389723,0.093011,0.106138,-0.494234,0.278484,0.488439,0.380831,-0.028886,0.306855,0.221504,-0.838921,-0.478248,-0.360862,-0.689226,-0.583271,-0.715904,0.313213,-0.254911,-0.486662,-0.218652,0.088585,0.126452,0.290550,0.035591}
    }
  }
};
