#pragma once

#include "C:\Users\Baron\Desktop\EE_297_Repo\EE_297\hardware_imp\vitis_hls\lane_seg_hls\lane_seg_top.h"

// Auto-generated from encoder[0] with BN folded

data_t conv0_w[3][3][3][32] = {
  {
    {
      {0.00665283,-0.10760498,-0.09307861,-0.02484131,-0.02879333,0.17749023,-0.01341248,0.01442719,0.02488708,0.00006837,-0.22338867,-0.03967285,-0.22839355,0.56005859,0.00497818,0.00397873,0.00269699,0.00042820,0.02893066,-0.00893402,-0.04650879,-0.11743164,0.23400879,0.00119877,0.11547852,0.00889587,-0.02040100,0.36108398,0.06481934,0.06762695,-0.61230469,-0.01061249},
      {0.00357819,-0.11529541,-0.10278320,-0.06225586,0.00692749,0.01078033,-0.04653931,-0.01368713,-0.01947021,0.00153351,1.20507812,-0.00188065,-0.46215820,0.83984375,-0.00021899,-0.00257111,0.00070238,-0.00172424,0.00904083,0.19677734,-0.31274414,-0.11633301,-1.01464844,0.00224495,0.28637695,0.02561951,0.07312012,0.38330078,-0.03375244,0.22412109,-0.04461670,0.00973511},
      {-0.01600647,-0.01692200,-0.02279663,-0.04791260,0.00073099,-0.14697266,0.00739288,-0.00851440,0.02250671,0.00538635,0.18273926,-0.00760269,-0.08892822,0.45971680,0.00279808,0.00155067,0.00099754,0.00105476,-0.00016892,-0.21569824,0.34399414,-0.09484863,-0.37817383,0.00218964,-0.34252930,0.03083801,-0.06988525,0.20690918,-0.18713379,0.05429077,0.60595703,-0.03558350}
    },
    {
      {-0.00336456,-0.02224731,0.08270264,-0.10827637,0.00077152,0.17614746,-0.02282715,-0.00310135,0.02223206,0.00279236,-0.81835938,0.00739288,-0.46215820,0.03710938,0.00183105,0.00622559,0.00350380,0.00084114,-0.00500870,-0.35791016,-0.58789062,-0.06683350,0.71191406,0.00042224,0.18786621,0.04248047,0.06890869,0.11737061,0.10388184,-0.04672241,0.08666992,-0.00574875},
      {-0.00428391,0.11358643,0.16381836,-0.16394043,0.00910187,-0.16406250,-0.01597595,-0.05197144,0.07836914,0.00208092,1.36425781,0.01834106,-0.96875000,0.14416504,0.00223732,-0.00187588,0.00053358,-0.00097656,-0.01644897,0.21447754,-0.54541016,-0.15686035,-1.64746094,0.00123692,0.05072021,0.06481934,0.03369141,-0.31982422,-0.10687256,0.06958008,-0.35668945,-0.00810242},
      {-0.01281738,-0.00661087,-0.02236938,-0.06707764,0.00704575,-0.06671143,-0.00092411,-0.00733566,-0.00712585,0.00421143,-0.69335938,-0.00451279,-0.19250488,-0.06298828,-0.00076962,-0.00179672,-0.00161552,0.00029111,-0.00113773,0.16906738,-0.21276855,0.00187016,0.96044922,0.00242615,-0.29638672,-0.01879883,0.09185791,0.13476562,-0.17297363,0.07183838,0.20458984,-0.06054688}
    },
    {
      {0.00757217,0.06433105,-0.00462341,0.17602539,0.00944519,-0.26147461,-0.01238251,-0.06082153,-0.05850220,0.00315666,-0.46264648,0.01448822,-0.12066650,0.00555038,0.00410461,0.00694656,0.00432968,0.00077152,-0.02656555,-0.45605469,-0.02368164,0.29150391,0.55664062,0.00007486,0.09332275,-0.00816345,-0.09417725,-0.05145264,0.30102539,0.08544922,0.72460938,-0.02456665},
      {0.00778198,0.02037048,-0.03555298,0.19677734,-0.00543976,0.00311279,0.00603485,-0.09783936,-0.09637451,0.00118351,1.39355469,-0.01107788,-0.32226562,0.05963135,-0.00084782,-0.00298119,0.00345230,-0.00064516,-0.07385254,0.16699219,-0.19824219,0.49389648,-1.29101562,0.00026727,-0.36621094,0.02505493,-0.04510498,-0.31469727,-0.03808594,0.25854492,-0.39599609,-0.01965332},
      {-0.00690079,0.06677246,0.02626038,0.06011963,-0.01157379,0.28173828,-0.01617432,-0.01702881,-0.00181961,0.00413513,-1.08691406,-0.00662994,-0.06027222,-0.05307007,-0.00055265,-0.00110531,-0.00056887,0.00025487,-0.03820801,0.19506836,0.20019531,0.11486816,1.14941406,0.00088453,-0.79345703,-0.00620651,0.10852051,0.02513123,-0.20336914,0.35131836,-0.37280273,-0.12573242}
    }
  },
  {
    {
      {0.01846313,0.22778320,-0.34887695,0.10015869,0.00372505,0.14562988,0.34228516,-0.00498581,-0.08502197,0.00101376,-1.11425781,0.00419235,0.38305664,0.08337402,0.00123978,0.00766754,0.00248146,-0.00051117,-0.01695251,-0.40185547,0.00366211,0.25927734,1.23632812,0.00066948,-0.05328369,-0.11083984,0.07458496,-0.36352539,0.14636230,0.14038086,0.60156250,-0.08483887},
      {0.01093292,0.49682617,-0.70068359,0.06475830,0.03390503,-0.03994751,0.69677734,0.00095701,-0.06222534,0.00152206,0.27343750,-0.00410843,0.75537109,0.02244568,0.00170803,-0.00221062,-0.00034690,-0.00180149,-0.01341248,0.13208008,-0.14086914,0.29956055,-0.50439453,0.00291443,0.13110352,-0.17980957,0.11029053,-1.18066406,0.08215332,0.15246582,-0.41821289,-0.02195740},
      {-0.00753403,0.09100342,-0.17138672,0.07812500,0.00413132,-0.03543091,0.16967773,0.00049162,-0.05615234,0.00301933,-1.13964844,0.00455093,0.16369629,-0.15832520,0.00224495,0.00060701,-0.00112820,0.00030494,-0.01400757,0.12200928,0.09552002,0.15905762,1.57226562,0.00387192,-0.05999756,-0.06427002,0.03784180,-0.24047852,-0.19006348,0.24182129,-0.00270653,-0.05465698}
    },
    {
      {-0.01586914,0.67529297,0.62207031,0.49291992,-0.03616333,0.71484375,-0.10418701,0.05688477,0.32617188,0.00030804,-1.22851562,0.03900146,0.50488281,-0.10882568,0.00784302,0.00514984,0.00727081,-0.00148296,0.00805664,-0.82275391,-0.23095703,-0.29443359,1.33593750,0.00022364,-0.17871094,0.28393555,-0.16748047,-0.20886230,0.15368652,-0.21337891,1.69726562,0.00155926},
      {-0.02035522,1.38867188,1.13964844,1.23730469,-0.07861328,-0.27807617,-0.20361328,0.10009766,0.50927734,0.00134850,0.69775391,0.05459595,0.97851562,-0.06695557,-0.00086832,0.00056744,0.00667953,-0.00297928,0.07189941,0.11395264,-0.10845947,-0.58544922,-1.66699219,0.00167370,-0.29296875,0.48022461,-0.38793945,-1.33398438,-0.09521484,-0.43774414,-0.78515625,0.04586792},
      {-0.01826477,0.31396484,0.31445312,0.21716309,-0.01974487,-0.43334961,-0.05816650,0.01455688,0.18566895,0.00294113,-1.57128906,0.01521301,0.20629883,-0.10131836,0.00016546,0.00081587,0.00124168,-0.00115204,-0.01186371,0.70458984,-0.16711426,-0.17700195,2.47070312,0.00138474,-0.19287109,0.13757324,-0.03096008,0.02299500,-0.36401367,-0.10687256,-0.47949219,0.02209473}
    },
    {
      {0.00306511,0.08819580,-0.26342773,-0.67626953,-0.03750610,0.26904297,-0.15588379,0.12915039,-0.24182129,0.00186729,-0.40747070,-0.00856018,0.14001465,-0.04223633,0.00028753,0.00514221,0.01028442,0.00008684,0.02532959,-0.90625000,0.03128052,-0.04809570,0.70703125,-0.00112915,-0.23754883,0.53027344,-0.13244629,0.27148438,0.26196289,-0.33422852,1.78417969,0.12817383},
      {-0.00219345,0.19592285,-0.45166016,-1.45605469,-0.09924316,-0.17626953,-0.35083008,0.20214844,-0.43261719,0.00228310,1.28613281,-0.02246094,0.24768066,0.03875732,-0.00054932,0.00192165,0.01032257,-0.00009847,0.02278137,0.10571289,-0.07464600,-0.07006836,-2.07617188,0.00074053,-0.53710938,0.90380859,-0.29882812,-0.47631836,0.00587845,-0.56591797,-0.93457031,0.18005371},
      {-0.00989532,-0.00275040,-0.14477539,-0.16186523,-0.02105713,-0.13256836,-0.09558105,0.06939697,-0.15747070,0.00500488,-1.37109375,-0.01299286,0.03775024,-0.04040527,-0.00109577,0.00006640,0.00563812,0.00016809,0.01550293,0.76318359,0.03344727,0.02438354,1.59960938,-0.00004566,-0.52441406,0.26025391,0.01940918,0.21533203,-0.35473633,-0.12854004,-0.63574219,0.06652832}
    }
  },
  {
    {
      {0.00529861,-0.38159180,-0.57861328,0.04650879,0.04528809,-0.17346191,0.09051514,-0.00386047,0.01373291,0.00045133,0.11712646,-0.03677368,-0.08154297,-0.00969696,0.00638962,0.00690079,0.00195694,-0.00084877,-0.03414917,-0.23010254,0.12670898,-0.10736084,-0.53613281,0.00028253,-0.04925537,0.07464600,0.01213837,0.36962891,0.05993652,0.54443359,0.92578125,-0.03082275},
      {0.00588226,-0.65917969,-0.90478516,0.11437988,0.08044434,-0.02462769,0.18286133,0.00316811,0.00574112,0.00120926,1.22460938,-0.04919434,-0.19006348,-0.08312988,0.00484848,0.00076628,-0.00124741,-0.00268555,-0.04150391,0.20104980,-0.19873047,-0.12976074,-1.27343750,0.00043917,0.17810059,0.14172363,0.19262695,0.41455078,0.17419434,0.65380859,-0.48999023,0.03811646},
      {-0.01661682,-0.12268066,-0.24133301,0.02278137,0.01182556,0.18701172,0.04864502,0.01150513,0.00535583,0.00191593,-0.19299316,-0.03720093,-0.05245972,0.02244568,0.00247383,0.00282478,-0.00035501,-0.00092411,-0.01081848,0.00084734,-0.00734711,-0.10748291,0.42968750,0.00001031,-0.19653320,0.04333496,0.02203369,0.24719238,-0.04974365,0.60351562,-0.59716797,-0.00295067}
    },
    {
      {-0.02305603,-0.56347656,0.79394531,0.73535156,-0.05059814,0.69238281,-0.08447266,0.09375000,0.34155273,-0.00065517,-0.01415253,0.11358643,-0.05459595,-0.02146912,0.00406647,0.00122547,-0.00195122,-0.00088453,0.04202271,-0.50585938,0.12194824,0.06536865,-0.04360962,-0.00185680,0.04611206,-0.30078125,-0.07128906,0.39086914,-0.26782227,-0.18310547,1.20605469,0.03353882},
      {-0.02046204,-1.19824219,1.26855469,1.53320312,-0.08618164,-0.21838379,-0.18432617,0.19140625,0.48876953,0.00049543,1.63085938,0.15905762,-0.15161133,-0.01118469,0.00175381,0.00106907,-0.00353050,-0.00205231,0.12152100,0.14465332,0.02345276,-0.00873566,-1.94921875,0.00034714,0.22949219,-0.55957031,-0.21264648,0.27392578,-0.23266602,-0.29125977,-0.81933594,0.08038330},
      {-0.02076721,-0.32592773,0.37207031,0.22570801,-0.02821350,-0.42895508,-0.02595520,0.05065918,0.18493652,0.00251007,-0.28662109,0.07830811,-0.03536987,0.12359619,0.00427628,0.00279427,-0.00551605,-0.00078249,0.00836182,0.45410156,0.00722122,0.13537598,0.64501953,-0.00007290,0.07415771,-0.17492676,0.04937744,0.37451172,-0.44335938,-0.27221680,-0.50585938,0.04757690}
    },
    {
      {-0.00961304,-0.06216431,-0.25610352,-0.80175781,-0.12573242,0.74511719,-0.05303955,0.20812988,-0.32324219,0.00096416,-0.31933594,0.08160400,0.04714966,-0.03854370,0.00532913,0.00339127,0.00011903,0.00011760,0.10418701,-0.55224609,0.18579102,-0.09295654,1.08007812,-0.00304794,0.26513672,-0.49780273,-0.31250000,0.07928467,-0.07543945,-0.61035156,0.40893555,0.18847656},
      {-0.00546646,-0.14367676,-0.40258789,-1.66699219,-0.19506836,-0.16796875,-0.07702637,0.32104492,-0.46411133,0.00266457,0.89746094,0.15466309,-0.02453613,-0.05764771,-0.00055361,0.00108719,-0.00213051,-0.00333214,0.14550781,0.10180664,-0.08062744,-0.15625000,-1.20019531,-0.00048304,0.45629883,-0.89746094,-0.46997070,-0.20080566,0.14160156,-0.76318359,-0.81689453,0.24316406},
      {-0.01521301,-0.00201225,-0.14208984,-0.30712891,-0.04241943,-0.53125000,-0.01698303,0.08441162,-0.18701172,0.00189304,-0.81445312,0.05456543,0.03219604,-0.05712891,-0.00383377,-0.00043535,-0.00503922,-0.00036788,0.09161377,0.42236328,0.04937744,-0.11102295,0.68115234,-0.00228119,0.10559082,-0.21667480,-0.18957520,-0.06317139,-0.12756348,-0.68847656,0.27661133,0.10302734}
    }
  }
};
