#pragma once

#include "C:\Users\Baron\Desktop\EE_297_Repo\EE_297\hardware_imp\vitis_hls\lane_seg_hls\lane_seg_top.h"

// Auto-generated from encoder[0] with BN folded

data_t conv0_w[3][3][3][32] = {
  {
    {
      {0.00665820,-0.10752501,-0.09314820,-0.02483357,-0.02878904,0.17742932,-0.01341117,0.01443941,0.02486859,0.00006838,-0.22359943,-0.03963215,-0.22828230,0.56019211,0.00497867,0.00397938,0.00269736,0.00042797,0.02894312,-0.00893362,-0.04651847,-0.11739261,0.23396778,0.00119877,0.11543390,0.00889599,-0.02039927,0.36117804,0.06477170,0.06765985,-0.61211663,-0.01061082},
      {0.00357845,-0.11524964,-0.10285600,-0.06226017,0.00692985,0.01077251,-0.04653838,-0.01369702,-0.01944899,0.00153388,1.20634305,-0.00187879,-0.46199390,0.84027773,-0.00021904,-0.00257157,0.00070270,-0.00172378,0.00904065,0.19676594,-0.31275183,-0.11631406,-1.01464784,0.00224296,0.28617811,0.02561910,0.07309793,0.38335979,-0.03374276,0.22425434,-0.04461332,0.00973196},
      {-0.01600836,-0.01692516,-0.02280488,-0.04792874,0.00073068,-0.14692114,0.00739210,-0.00851983,0.02249335,0.00538826,0.18285131,-0.00759774,-0.08890229,0.45952460,0.00279854,0.00155062,0.00099747,0.00105488,-0.00016901,-0.21564680,0.34406391,-0.09487234,-0.37830999,0.00218935,-0.34232441,0.03082905,-0.06986921,0.20691015,-0.18705156,0.05431604,0.60587239,-0.03558762}
    },
    {
      {-0.00336606,-0.02223587,0.08274771,-0.10825964,0.00077162,0.17605624,-0.02283448,-0.00310205,0.02220912,0.00279091,-0.81936049,0.00738797,-0.46194270,0.03711531,0.00183115,0.00622602,0.00350444,0.00084078,-0.00501038,-0.35792851,-0.58812743,-0.06682141,0.71203208,0.00042214,0.18775500,0.04248149,0.06889361,0.11739127,0.10375343,-0.04674422,0.08663383,-0.00574923},
      {-0.00428663,0.11358400,0.16384858,-0.16396347,0.00910106,-0.16410099,-0.01596915,-0.05201760,0.07834448,0.00208062,1.36450219,0.01833872,-0.96859968,0.14410907,0.00223807,-0.00187622,0.00053365,-0.00097620,-0.01645546,0.21440090,-0.54543662,-0.15686207,-1.64768958,0.00123640,0.05070028,0.06480127,0.03367642,-0.31991804,-0.10679071,0.06963408,-0.35658354,-0.00809600},
      {-0.01282369,-0.00660845,-0.02237620,-0.06705333,0.00704423,-0.06670371,-0.00092418,-0.00733893,-0.00712032,0.00421136,-0.69430321,-0.00450956,-0.19241312,-0.06301047,-0.00076981,-0.00179730,-0.00161517,0.00029101,-0.00113850,0.16906758,-0.21282628,0.00187009,0.96075839,0.00242456,-0.29623476,-0.01879635,0.09179697,0.13480811,-0.17287472,0.07190676,0.20461406,-0.06055428}
    },
    {
      {0.00757461,0.06432190,-0.00462319,0.17592001,0.00944514,-0.26137751,-0.01237846,-0.06085780,-0.05847151,0.00315549,-0.46296918,0.01448189,-0.12064411,0.00554857,0.00410612,0.00694739,0.00433035,0.00077114,-0.02656587,-0.45586476,-0.02368743,0.29155421,0.55661988,0.00007482,0.09330732,-0.00815815,-0.09418897,-0.05145591,0.30088711,0.08550160,0.72446513,-0.02456508},
      {0.00778544,0.02035248,-0.03556514,0.19689928,-0.00543826,0.00311084,0.00603162,-0.09792027,-0.09630916,0.00118355,1.39551365,-0.01107226,-0.32222852,0.05965023,-0.00084796,-0.00298114,0.00345313,-0.00064490,-0.07389341,0.16694546,-0.19834648,0.49410099,-1.29090869,0.00026722,-0.36613548,0.02505077,-0.04509846,-0.31476748,-0.03805697,0.25886217,-0.39585295,-0.01964195},
      {-0.00690291,0.06673102,0.02627171,0.06012652,-0.01157609,0.28152177,-0.01618408,-0.01703602,-0.00181844,0.00413614,-1.08818650,-0.00662372,-0.06025310,-0.05309895,-0.00055253,-0.00110508,-0.00056871,0.00025487,-0.03821707,0.19502097,0.20033252,0.11489782,1.14956927,0.00088393,-0.79341811,-0.00620369,0.10850812,0.02514505,-0.20330261,0.35139221,-0.37258801,-0.12569198}
    }
  },
  {
    {
      {0.01847415,0.22765711,-0.34896222,0.10018859,0.00372589,0.14556344,0.34216994,-0.00499063,-0.08498988,0.00101346,-1.11549306,0.00419015,0.38321140,0.08335359,0.00123943,0.00766705,0.00248152,-0.00051115,-0.01695497,-0.40160266,0.00366240,0.25933525,1.23615956,0.00066922,-0.05326452,-0.11076935,0.07455102,-0.36357597,0.14626196,0.14045407,0.60142106,-0.08482022},
      {0.01094100,0.49650779,-0.70103002,0.06474759,0.03391957,-0.03992134,0.69694448,0.00095757,-0.06217613,0.00152176,0.27368522,-0.00410346,0.75490665,0.02245266,0.00170879,-0.00221044,-0.00034683,-0.00180082,-0.01341377,0.13206813,-0.14095031,0.29971129,-0.50451344,0.00291233,0.13107654,-0.17979261,0.11028407,-1.18151224,0.08213209,0.15249556,-0.41817480,-0.02194305},
      {-0.00753437,0.09097199,-0.17153746,0.07811747,0.00412871,-0.03540171,0.16964804,0.00049191,-0.05614016,0.00301952,-1.14116251,0.00454792,0.16362339,-0.15827167,0.00224625,0.00060720,-0.00112864,0.00030464,-0.01400604,0.12199218,0.09558865,0.15905435,1.57193446,0.00386962,-0.05998645,-0.06428535,0.03782262,-0.24046446,-0.19002889,0.24197407,-0.00270520,-0.05463461}
    },
    {
      {-0.01587669,0.67508841,0.62238550,0.49310836,-0.03615861,0.71459574,-0.10412216,0.05691063,0.32591671,0.00030802,-1.22982633,0.03899092,0.50478703,-0.10890173,0.00784944,0.00514883,0.00726972,-0.00148302,0.00805873,-0.82270849,-0.23093186,-0.29456058,1.33619630,0.00022352,-0.17867668,0.28384551,-0.16746201,-0.20892300,0.15357690,-0.21354832,1.69650483,0.00155908},
      {-0.02036908,1.38830996,1.14005482,1.23777342,-0.07862359,-0.27777436,-0.20359589,0.10013954,0.50914329,0.00134823,0.69818771,0.05456058,0.97837669,-0.06697191,-0.00086873,0.00056750,0.00667575,-0.00297814,0.07190210,0.11386251,-0.10849162,-0.58567834,-1.66759133,0.00167294,-0.29295689,0.47986448,-0.38771716,-1.33378792,-0.09518322,-0.43791419,-0.78519309,0.04586568},
      {-0.01827333,0.31403774,0.31452167,0.21716134,-0.01973964,-0.43309107,-0.05815208,0.01457040,0.18565321,0.00294177,-1.57164180,0.01519780,0.20630801,-0.10137006,0.00016560,0.00081598,0.00124154,-0.00115160,-0.01186859,0.70432901,-0.16721082,-0.17704071,2.47159648,0.00138413,-0.19284102,0.13756305,-0.03095016,0.02300406,-0.36392486,-0.10695538,-0.47923169,0.02208947}
    },
    {
      {0.00306632,0.08810692,-0.26357287,-0.67644829,-0.03750880,0.26893574,-0.15581027,0.12920442,-0.24164115,0.00186736,-0.40793338,-0.00855545,0.13999657,-0.04221987,0.00028761,0.00514372,0.01028311,0.00008682,0.02532848,-0.90614557,0.03127841,-0.04810520,0.70739818,-0.00112850,-0.23745067,0.52996033,-0.13239506,0.27150953,0.26183227,-0.33437595,1.78389728,0.12817490},
      {-0.00219431,0.19585803,-0.45160234,-1.45582509,-0.09919088,-0.17621201,-0.35075232,0.20231317,-0.43239895,0.00228299,1.28725791,-0.02244752,0.24767064,0.03875664,-0.00054921,0.00192226,0.01032405,-0.00009840,0.02278952,0.10573803,-0.07467064,-0.07006136,-2.07594085,0.00074054,-0.53664601,0.90344530,-0.29886192,-0.47624177,0.00587473,-0.56648564,-0.93451792,0.18005857},
      {-0.00990438,-0.00274907,-0.14481881,-0.16186643,-0.02106312,-0.13253467,-0.09556434,0.06944244,-0.15732129,0.00500365,-1.37135172,-0.01298833,0.03773329,-0.04041824,-0.00109585,0.00006642,0.00563748,0.00016798,0.01550852,0.76301926,0.03343476,0.02437635,1.59971881,-0.00004561,-0.52398181,0.26012942,0.01940341,0.21532556,-0.35452500,-0.12870204,-0.63545072,0.06651819}
    }
  },
  {
    {
      {0.00529988,-0.38153991,-0.57874995,0.04652321,0.04528481,-0.17333898,0.09051761,-0.00386350,0.01372641,0.00045121,0.11718374,-0.03674687,-0.08156034,-0.00969787,0.00639041,0.00690242,0.00195684,-0.00084818,-0.03415579,-0.23010251,0.12669611,-0.10733245,-0.53615654,0.00028240,-0.04925934,0.07464534,0.01212929,0.36981875,0.05988895,0.54468679,0.92577207,-0.03081590},
      {0.00588287,-0.65884906,-0.90546536,0.11440445,0.08044315,-0.02462045,0.18286172,0.00316853,0.00574018,0.00120928,1.22596049,-0.04915677,-0.19008277,-0.08316835,0.00484605,0.00076647,-0.00124735,-0.00268411,-0.04151458,0.20098180,-0.19877630,-0.12981032,-1.27375138,0.00043892,0.17799744,0.14168288,0.19251479,0.41475084,0.17416480,0.65424836,-0.48976105,0.03811556},
      {-0.01661736,-0.12262175,-0.24156038,0.02278785,0.01182220,0.18695557,0.04864580,0.01151310,0.00535177,0.00191535,-0.19314107,-0.03716519,-0.05243576,0.02245436,0.00247353,0.00282419,-0.00035501,-0.00092406,-0.01082237,0.00084753,-0.00735247,-0.10747077,0.42976448,0.00001032,-0.19646670,0.04332718,0.02201467,0.24719620,-0.04969227,0.60407192,-0.59686613,-0.00294974}
    },
    {
      {-0.02306751,-0.56331754,0.79438275,0.73575503,-0.05057243,0.69251388,-0.08447240,0.09383553,0.34124348,-0.00065489,-0.01416425,0.11350203,-0.05459610,-0.02145945,0.00406720,0.00122556,-0.00195150,-0.00088432,0.04201886,-0.50575262,0.12203465,0.06542033,-0.04361252,-0.00185540,0.04609616,-0.30085382,-0.07130472,0.39083904,-0.26775643,-0.18322404,1.20535862,0.03353002},
      {-0.02047775,-1.19709134,1.26844060,1.53315973,-0.08617066,-0.21830288,-0.18433274,0.19150110,0.48820081,0.00049572,1.63213289,0.15885931,-0.15147699,-0.01118437,0.00175501,0.00106902,-0.00353105,-0.00205228,0.12156302,0.14468589,0.02346636,-0.00873355,-1.94891143,0.00034704,0.22935311,-0.55954021,-0.21251136,0.27399608,-0.23265018,-0.29147255,-0.81964779,0.08032029},
      {-0.02077714,-0.32569808,0.37233931,0.22581245,-0.02820686,-0.42879304,-0.02595064,0.05067584,0.18484242,0.00250883,-0.28685623,0.07825948,-0.03537975,0.12359103,0.00427555,0.00279458,-0.00551442,-0.00078215,0.00836483,0.45378220,0.00722554,0.13537027,0.64519554,-0.00007285,0.07410470,-0.17482390,0.04937162,0.37453246,-0.44326323,-0.27240291,-0.50557142,0.04757455}
    },
    {
      {-0.00962269,-0.06215388,-0.25622076,-0.80162519,-0.12568666,0.74475217,-0.05305943,0.20833820,-0.32311597,0.00096453,-0.31948516,0.08154209,0.04714368,-0.03855183,0.00533349,0.00339005,0.00011903,0.00011755,0.10423383,-0.55197018,0.18586256,-0.09295022,1.08027339,-0.00304603,0.26495910,-0.49793184,-0.31245100,0.07933075,-0.07539840,-0.61093193,0.40890688,0.18837801},
      {-0.00546863,-0.14368878,-0.40277803,-1.66667628,-0.19507736,-0.16789493,-0.07697207,0.32118118,-0.46393326,0.00266458,0.89865643,0.15456687,-0.02453112,-0.05767636,-0.00055361,0.00108757,-0.00213008,-0.00333005,0.14547653,0.10179440,-0.08064761,-0.15621135,-1.20040572,-0.00048277,0.45613766,-0.89692420,-0.46991599,-0.20093906,0.14151797,-0.76349074,-0.81689262,0.24322641},
      {-0.01521638,-0.00201191,-0.14219171,-0.30717167,-0.04239688,-0.53114444,-0.01697868,0.08450614,-0.18682499,0.00189212,-0.81485569,0.05450232,0.03218552,-0.05712613,-0.00383378,-0.00043517,-0.00503830,-0.00036780,0.09162169,0.42217797,0.04938857,-0.11103778,0.68118948,-0.00227963,0.10554548,-0.21653786,-0.18961708,-0.06319074,-0.12751400,-0.68851674,0.27666512,0.10300439}
    }
  }
};
