#pragma once

#include "C:\Users\Baron\Desktop\EE_297_Repo\EE_297\hardware_imp\vitis_hls\lane_seg_hls\lane_seg_top.h"

// Auto-generated from encoder[0] with BN folded

data_t conv0_w[3][3][3][32] = {
  {
    {
      {0.00665665,-0.10754395,-0.09313965,-0.02482605,-0.02879333,0.17749023,-0.01341248,0.01444244,0.02487183,0.00006837,-0.22363281,-0.03964233,-0.22827148,0.56005859,0.00497818,0.00397873,0.00269699,0.00042796,0.02894592,-0.00893402,-0.04650879,-0.11737061,0.23400879,0.00119877,0.11541748,0.00889587,-0.02040100,0.36108398,0.06475830,0.06768799,-0.61230469,-0.01061249},
      {0.00357819,-0.11523438,-0.10284424,-0.06225586,0.00693130,0.01077271,-0.04653931,-0.01369476,-0.01945496,0.00153351,1.20605469,-0.00187874,-0.46191406,0.84033203,-0.00021899,-0.00257111,0.00070286,-0.00172424,0.00904083,0.19677734,-0.31274414,-0.11633301,-1.01464844,0.00224304,0.28613281,0.02561951,0.07312012,0.38330078,-0.03375244,0.22424316,-0.04461670,0.00973511},
      {-0.01600647,-0.01692200,-0.02281189,-0.04794312,0.00073051,-0.14697266,0.00739288,-0.00852203,0.02249146,0.00539017,0.18286133,-0.00759888,-0.08892822,0.45947266,0.00279808,0.00155067,0.00099754,0.00105476,-0.00016904,-0.21569824,0.34399414,-0.09484863,-0.37841797,0.00218964,-0.34228516,0.03082275,-0.06988525,0.20690918,-0.18701172,0.05432129,0.60595703,-0.03558350}
    },
    {
      {-0.00336647,-0.02223206,0.08276367,-0.10827637,0.00077152,0.17602539,-0.02282715,-0.00310135,0.02220154,0.00279045,-0.81933594,0.00738907,-0.46191406,0.03710938,0.00183105,0.00622559,0.00350380,0.00084066,-0.00500870,-0.35791016,-0.58789062,-0.06683350,0.71191406,0.00042224,0.18774414,0.04248047,0.06890869,0.11737061,0.10375977,-0.04675293,0.08660889,-0.00574875},
      {-0.00428772,0.11358643,0.16381836,-0.16394043,0.00910187,-0.16406250,-0.01597595,-0.05203247,0.07836914,0.00208092,1.36425781,0.01834106,-0.96875000,0.14416504,0.00223732,-0.00187588,0.00053358,-0.00097609,-0.01644897,0.21435547,-0.54541016,-0.15686035,-1.64746094,0.00123596,0.05068970,0.06481934,0.03369141,-0.31982422,-0.10681152,0.06964111,-0.35668945,-0.00809479},
      {-0.01282501,-0.00660706,-0.02236938,-0.06707764,0.00704575,-0.06671143,-0.00092411,-0.00733948,-0.00712204,0.00421143,-0.69433594,-0.00450897,-0.19238281,-0.06298828,-0.00076962,-0.00179768,-0.00161552,0.00029111,-0.00113869,0.16906738,-0.21276855,0.00187016,0.96093750,0.00242424,-0.29614258,-0.01879883,0.09179688,0.13476562,-0.17285156,0.07189941,0.20458984,-0.06054688}
    },
    {
      {0.00757599,0.06433105,-0.00462341,0.17590332,0.00944519,-0.26147461,-0.01237488,-0.06085205,-0.05847168,0.00315475,-0.46289062,0.01448059,-0.12066650,0.00555038,0.00410461,0.00694656,0.00432968,0.00077105,-0.02656555,-0.45581055,-0.02368164,0.29150391,0.55664062,0.00007480,0.09332275,-0.00815582,-0.09417725,-0.05145264,0.30078125,0.08551025,0.72460938,-0.02456665},
      {0.00778580,0.02035522,-0.03555298,0.19689941,-0.00543976,0.00311089,0.00603104,-0.09790039,-0.09631348,0.00118351,1.39550781,-0.01107025,-0.32226562,0.05966187,-0.00084782,-0.00298119,0.00345230,-0.00064468,-0.07391357,0.16699219,-0.19836426,0.49414062,-1.29101562,0.00026727,-0.36621094,0.02505493,-0.04510498,-0.31469727,-0.03805542,0.25878906,-0.39575195,-0.01963806},
      {-0.00690460,0.06671143,0.02627563,0.06011963,-0.01157379,0.28149414,-0.01618958,-0.01702881,-0.00181866,0.00413513,-1.08789062,-0.00662231,-0.06024170,-0.05310059,-0.00055265,-0.00110531,-0.00056887,0.00025487,-0.03820801,0.19506836,0.20031738,0.11486816,1.14941406,0.00088406,-0.79345703,-0.00620270,0.10852051,0.02514648,-0.20324707,0.35131836,-0.37255859,-0.12573242}
    }
  },
  {
    {
      {0.01847839,0.22766113,-0.34887695,0.10015869,0.00372505,0.14550781,0.34228516,-0.00498962,-0.08496094,0.00101376,-1.11523438,0.00418854,0.38330078,0.08337402,0.00123978,0.00766754,0.00248146,-0.00051117,-0.01695251,-0.40161133,0.00366211,0.25927734,1.23632812,0.00066900,-0.05325317,-0.11077881,0.07452393,-0.36352539,0.14624023,0.14050293,0.60156250,-0.08483887},
      {0.01094055,0.49658203,-0.70117188,0.06475830,0.03390503,-0.03991699,0.69677734,0.00095749,-0.06216431,0.00152206,0.27368164,-0.00410461,0.75488281,0.02244568,0.00170898,-0.00221062,-0.00034690,-0.00180054,-0.01341248,0.13208008,-0.14099121,0.29980469,-0.50439453,0.00291252,0.13110352,-0.17980957,0.11029053,-1.18164062,0.08215332,0.15246582,-0.41821289,-0.02194214},
      {-0.00753403,0.09094238,-0.17150879,0.07812500,0.00412750,-0.03540039,0.16967773,0.00049210,-0.05615234,0.00301933,-1.14160156,0.00454712,0.16357422,-0.15832520,0.00224686,0.00060701,-0.00112820,0.00030470,-0.01400757,0.12200928,0.09558105,0.15905762,1.57226562,0.00387001,-0.05999756,-0.06427002,0.03781128,-0.24047852,-0.19006348,0.24194336,-0.00270462,-0.05462646}
    },
    {
      {-0.01586914,0.67529297,0.62255859,0.49316406,-0.03616333,0.71435547,-0.10412598,0.05691528,0.32592773,0.00030804,-1.22949219,0.03900146,0.50488281,-0.10888672,0.00785065,0.00514984,0.00727081,-0.00148296,0.00805664,-0.82275391,-0.23095703,-0.29467773,1.33593750,0.00022352,-0.17871094,0.28393555,-0.16748047,-0.20886230,0.15356445,-0.21350098,1.69628906,0.00155926},
      {-0.02037048,1.38867188,1.13964844,1.23730469,-0.07861328,-0.27783203,-0.20361328,0.10015869,0.50927734,0.00134850,0.69824219,0.05456543,0.97851562,-0.06695557,-0.00086880,0.00056744,0.00667572,-0.00297737,0.07189941,0.11389160,-0.10852051,-0.58544922,-1.66796875,0.00167274,-0.29296875,0.47998047,-0.38769531,-1.33398438,-0.09515381,-0.43798828,-0.78515625,0.04586792},
      {-0.01828003,0.31396484,0.31445312,0.21716309,-0.01974487,-0.43310547,-0.05816650,0.01457214,0.18566895,0.00294113,-1.57128906,0.01519775,0.20629883,-0.10137939,0.00016558,0.00081587,0.00124168,-0.00115204,-0.01187134,0.70410156,-0.16723633,-0.17700195,2.47070312,0.00138378,-0.19287109,0.13757324,-0.03094482,0.02301025,-0.36401367,-0.10693359,-0.47924805,0.02209473}
    },
    {
      {0.00306702,0.08813477,-0.26367188,-0.67626953,-0.03750610,0.26904297,-0.15576172,0.12915039,-0.24169922,0.00186729,-0.40795898,-0.00855255,0.14001465,-0.04220581,0.00028753,0.00514221,0.01028442,0.00008684,0.02532959,-0.90625000,0.03128052,-0.04809570,0.70751953,-0.00112820,-0.23742676,0.52978516,-0.13244629,0.27148438,0.26171875,-0.33447266,1.78417969,0.12817383},
      {-0.00219345,0.19580078,-0.45166016,-1.45605469,-0.09918213,-0.17626953,-0.35083008,0.20227051,-0.43237305,0.00228310,1.28710938,-0.02244568,0.24768066,0.03875732,-0.00054932,0.00192261,0.01032257,-0.00009841,0.02279663,0.10571289,-0.07464600,-0.07006836,-2.07617188,0.00074053,-0.53662109,0.90332031,-0.29882812,-0.47631836,0.00587463,-0.56640625,-0.93457031,0.18005371},
      {-0.00990295,-0.00274849,-0.14477539,-0.16186523,-0.02105713,-0.13256836,-0.09558105,0.06945801,-0.15734863,0.00500488,-1.37109375,-0.01298523,0.03771973,-0.04040527,-0.00109577,0.00006640,0.00563812,0.00016797,0.01551056,0.76318359,0.03344727,0.02438354,1.59960938,-0.00004560,-0.52392578,0.26000977,0.01940918,0.21533203,-0.35449219,-0.12866211,-0.63525391,0.06652832}
    }
  },
  {
    {
      {0.00529861,-0.38159180,-0.57861328,0.04650879,0.04528809,-0.17333984,0.09051514,-0.00386429,0.01372528,0.00045133,0.11718750,-0.03674316,-0.08154297,-0.00969696,0.00638962,0.00690079,0.00195694,-0.00084829,-0.03414917,-0.23010254,0.12670898,-0.10736084,-0.53613281,0.00028229,-0.04925537,0.07464600,0.01213074,0.36987305,0.05987549,0.54492188,0.92578125,-0.03082275},
      {0.00588226,-0.65869141,-0.90527344,0.11437988,0.08044434,-0.02462769,0.18286133,0.00316811,0.00574112,0.00120926,1.22558594,-0.04916382,-0.19006348,-0.08319092,0.00484467,0.00076628,-0.00124741,-0.00268364,-0.04150391,0.20092773,-0.19873047,-0.12976074,-1.27343750,0.00043893,0.17797852,0.14172363,0.19250488,0.41479492,0.17419434,0.65429688,-0.48974609,0.03811646},
      {-0.01661682,-0.12261963,-0.24157715,0.02278137,0.01182556,0.18701172,0.04864502,0.01151276,0.00535202,0.00191498,-0.19311523,-0.03717041,-0.05242920,0.02246094,0.00247383,0.00282478,-0.00035501,-0.00092411,-0.01082611,0.00084734,-0.00735092,-0.10748291,0.42968750,0.00001031,-0.19641113,0.04333496,0.02201843,0.24719238,-0.04968262,0.60400391,-0.59667969,-0.00295067}
    },
    {
      {-0.02307129,-0.56347656,0.79443359,0.73583984,-0.05056763,0.69238281,-0.08447266,0.09381104,0.34130859,-0.00065470,-0.01416779,0.11352539,-0.05459595,-0.02145386,0.00406647,0.00122547,-0.00195122,-0.00088453,0.04202271,-0.50585938,0.12200928,0.06542969,-0.04360962,-0.00185585,0.04608154,-0.30078125,-0.07128906,0.39086914,-0.26782227,-0.18322754,1.20507812,0.03353882},
      {-0.02047729,-1.19726562,1.26855469,1.53320312,-0.08618164,-0.21826172,-0.18432617,0.19152832,0.48828125,0.00049591,1.63183594,0.15881348,-0.15148926,-0.01118469,0.00175476,0.00106907,-0.00353050,-0.00205231,0.12158203,0.14465332,0.02346802,-0.00873566,-1.94921875,0.00034714,0.22937012,-0.55957031,-0.21252441,0.27392578,-0.23266602,-0.29150391,-0.81982422,0.08032227},
      {-0.02078247,-0.32568359,0.37231445,0.22583008,-0.02821350,-0.42871094,-0.02595520,0.05068970,0.18481445,0.00250816,-0.28686523,0.07824707,-0.03536987,0.12359619,0.00427628,0.00279427,-0.00551605,-0.00078201,0.00836182,0.45385742,0.00722504,0.13537598,0.64501953,-0.00007284,0.07409668,-0.17480469,0.04937744,0.37451172,-0.44335938,-0.27246094,-0.50537109,0.04757690}
    },
    {
      {-0.00962067,-0.06216431,-0.25610352,-0.80175781,-0.12573242,0.74462891,-0.05307007,0.20837402,-0.32299805,0.00096464,-0.31958008,0.08154297,0.04714966,-0.03854370,0.00533295,0.00338936,0.00011903,0.00011754,0.10424805,-0.55175781,0.18591309,-0.09295654,1.08007812,-0.00304604,0.26489258,-0.49804688,-0.31250000,0.07934570,-0.07537842,-0.61083984,0.40893555,0.18835449},
      {-0.00547028,-0.14367676,-0.40283203,-1.66699219,-0.19506836,-0.16784668,-0.07696533,0.32128906,-0.46386719,0.00266457,0.89843750,0.15454102,-0.02453613,-0.05767822,-0.00055361,0.00108719,-0.00213051,-0.00333023,0.14550781,0.10180664,-0.08062744,-0.15625000,-1.20019531,-0.00048280,0.45605469,-0.89697266,-0.46997070,-0.20092773,0.14147949,-0.76367188,-0.81689453,0.24328613},
      {-0.01521301,-0.00201225,-0.14221191,-0.30712891,-0.04238892,-0.53125000,-0.01698303,0.08453369,-0.18676758,0.00189209,-0.81494141,0.05450439,0.03219604,-0.05712891,-0.00383377,-0.00043511,-0.00503922,-0.00036788,0.09161377,0.42211914,0.04937744,-0.11102295,0.68115234,-0.00227928,0.10552979,-0.21655273,-0.18957520,-0.06317139,-0.12756348,-0.68847656,0.27661133,0.10302734}
    }
  }
};
