#pragma once

#include "C:\Users\Baron\Desktop\EE_297_Repo\EE_297\hardware_imp\vitis_hls\lane_seg_hls\lane_seg_top.h"

// Auto-generated from encoder[0] with BN folded

data_t conv0_w[3][3][3][32] = {
  {
    {
      {0.006657,-0.107544,-0.093140,-0.024826,-0.028793,0.177490,-0.013412,0.014442,0.024872,0.000068,-0.223633,-0.039642,-0.228271,0.560059,0.004978,0.003979,0.002697,0.000428,0.028946,-0.008934,-0.046509,-0.117371,0.234009,0.001199,0.115417,0.008896,-0.020401,0.361084,0.064758,0.067688,-0.612305,-0.010612},
      {0.003578,-0.115234,-0.102844,-0.062256,0.006931,0.010773,-0.046539,-0.013695,-0.019455,0.001534,1.206055,-0.001879,-0.461914,0.840332,-0.000219,-0.002571,0.000703,-0.001724,0.009041,0.196777,-0.312744,-0.116333,-1.014648,0.002243,0.286133,0.025620,0.073120,0.383301,-0.033752,0.224243,-0.044617,0.009735},
      {-0.016006,-0.016922,-0.022812,-0.047943,0.000731,-0.146973,0.007393,-0.008522,0.022491,0.005390,0.182861,-0.007599,-0.088928,0.459473,0.002798,0.001551,0.000998,0.001055,-0.000169,-0.215698,0.343994,-0.094849,-0.378418,0.002190,-0.342285,0.030823,-0.069885,0.206909,-0.187012,0.054321,0.605957,-0.035583}
    },
    {
      {-0.003366,-0.022232,0.082764,-0.108276,0.000772,0.176025,-0.022827,-0.003101,0.022202,0.002790,-0.819336,0.007389,-0.461914,0.037109,0.001831,0.006226,0.003504,0.000841,-0.005009,-0.357910,-0.587891,-0.066833,0.711914,0.000422,0.187744,0.042480,0.068909,0.117371,0.103760,-0.046753,0.086609,-0.005749},
      {-0.004288,0.113586,0.163818,-0.163940,0.009102,-0.164062,-0.015976,-0.052032,0.078369,0.002081,1.364258,0.018341,-0.968750,0.144165,0.002237,-0.001876,0.000534,-0.000976,-0.016449,0.214355,-0.545410,-0.156860,-1.647461,0.001236,0.050690,0.064819,0.033691,-0.319824,-0.106812,0.069641,-0.356689,-0.008095},
      {-0.012825,-0.006607,-0.022369,-0.067078,0.007046,-0.066711,-0.000924,-0.007339,-0.007122,0.004211,-0.694336,-0.004509,-0.192383,-0.062988,-0.000770,-0.001798,-0.001616,0.000291,-0.001139,0.169067,-0.212769,0.001870,0.960938,0.002424,-0.296143,-0.018799,0.091797,0.134766,-0.172852,0.071899,0.204590,-0.060547}
    },
    {
      {0.007576,0.064331,-0.004623,0.175903,0.009445,-0.261475,-0.012375,-0.060852,-0.058472,0.003155,-0.462891,0.014481,-0.120667,0.005550,0.004105,0.006947,0.004330,0.000771,-0.026566,-0.455811,-0.023682,0.291504,0.556641,0.000075,0.093323,-0.008156,-0.094177,-0.051453,0.300781,0.085510,0.724609,-0.024567},
      {0.007786,0.020355,-0.035553,0.196899,-0.005440,0.003111,0.006031,-0.097900,-0.096313,0.001184,1.395508,-0.011070,-0.322266,0.059662,-0.000848,-0.002981,0.003452,-0.000645,-0.073914,0.166992,-0.198364,0.494141,-1.291016,0.000267,-0.366211,0.025055,-0.045105,-0.314697,-0.038055,0.258789,-0.395752,-0.019638},
      {-0.006905,0.066711,0.026276,0.060120,-0.011574,0.281494,-0.016190,-0.017029,-0.001819,0.004135,-1.087891,-0.006622,-0.060242,-0.053101,-0.000553,-0.001105,-0.000569,0.000255,-0.038208,0.195068,0.200317,0.114868,1.149414,0.000884,-0.793457,-0.006203,0.108521,0.025146,-0.203247,0.351318,-0.372559,-0.125732}
    }
  },
  {
    {
      {0.018478,0.227661,-0.348877,0.100159,0.003725,0.145508,0.342285,-0.004990,-0.084961,0.001014,-1.115234,0.004189,0.383301,0.083374,0.001240,0.007668,0.002481,-0.000511,-0.016953,-0.401611,0.003662,0.259277,1.236328,0.000669,-0.053253,-0.110779,0.074524,-0.363525,0.146240,0.140503,0.601562,-0.084839},
      {0.010941,0.496582,-0.701172,0.064758,0.033905,-0.039917,0.696777,0.000957,-0.062164,0.001522,0.273682,-0.004105,0.754883,0.022446,0.001709,-0.002211,-0.000347,-0.001801,-0.013412,0.132080,-0.140991,0.299805,-0.504395,0.002913,0.131104,-0.179810,0.110291,-1.181641,0.082153,0.152466,-0.418213,-0.021942},
      {-0.007534,0.090942,-0.171509,0.078125,0.004128,-0.035400,0.169678,0.000492,-0.056152,0.003019,-1.141602,0.004547,0.163574,-0.158325,0.002247,0.000607,-0.001128,0.000305,-0.014008,0.122009,0.095581,0.159058,1.572266,0.003870,-0.059998,-0.064270,0.037811,-0.240479,-0.190063,0.241943,-0.002705,-0.054626}
    },
    {
      {-0.015869,0.675293,0.622559,0.493164,-0.036163,0.714355,-0.104126,0.056915,0.325928,0.000308,-1.229492,0.039001,0.504883,-0.108887,0.007851,0.005150,0.007271,-0.001483,0.008057,-0.822754,-0.230957,-0.294678,1.335938,0.000224,-0.178711,0.283936,-0.167480,-0.208862,0.153564,-0.213501,1.696289,0.001559},
      {-0.020370,1.388672,1.139648,1.237305,-0.078613,-0.277832,-0.203613,0.100159,0.509277,0.001348,0.698242,0.054565,0.978516,-0.066956,-0.000869,0.000567,0.006676,-0.002977,0.071899,0.113892,-0.108521,-0.585449,-1.667969,0.001673,-0.292969,0.479980,-0.387695,-1.333984,-0.095154,-0.437988,-0.785156,0.045868},
      {-0.018280,0.313965,0.314453,0.217163,-0.019745,-0.433105,-0.058167,0.014572,0.185669,0.002941,-1.571289,0.015198,0.206299,-0.101379,0.000166,0.000816,0.001242,-0.001152,-0.011871,0.704102,-0.167236,-0.177002,2.470703,0.001384,-0.192871,0.137573,-0.030945,0.023010,-0.364014,-0.106934,-0.479248,0.022095}
    },
    {
      {0.003067,0.088135,-0.263672,-0.676270,-0.037506,0.269043,-0.155762,0.129150,-0.241699,0.001867,-0.407959,-0.008553,0.140015,-0.042206,0.000288,0.005142,0.010284,0.000087,0.025330,-0.906250,0.031281,-0.048096,0.707520,-0.001128,-0.237427,0.529785,-0.132446,0.271484,0.261719,-0.334473,1.784180,0.128174},
      {-0.002193,0.195801,-0.451660,-1.456055,-0.099182,-0.176270,-0.350830,0.202271,-0.432373,0.002283,1.287109,-0.022446,0.247681,0.038757,-0.000549,0.001923,0.010323,-0.000098,0.022797,0.105713,-0.074646,-0.070068,-2.076172,0.000741,-0.536621,0.903320,-0.298828,-0.476318,0.005875,-0.566406,-0.934570,0.180054},
      {-0.009903,-0.002748,-0.144775,-0.161865,-0.021057,-0.132568,-0.095581,0.069458,-0.157349,0.005005,-1.371094,-0.012985,0.037720,-0.040405,-0.001096,0.000066,0.005638,0.000168,0.015511,0.763184,0.033447,0.024384,1.599609,-0.000046,-0.523926,0.260010,0.019409,0.215332,-0.354492,-0.128662,-0.635254,0.066528}
    }
  },
  {
    {
      {0.005299,-0.381592,-0.578613,0.046509,0.045288,-0.173340,0.090515,-0.003864,0.013725,0.000451,0.117188,-0.036743,-0.081543,-0.009697,0.006390,0.006901,0.001957,-0.000848,-0.034149,-0.230103,0.126709,-0.107361,-0.536133,0.000282,-0.049255,0.074646,0.012131,0.369873,0.059875,0.544922,0.925781,-0.030823},
      {0.005882,-0.658691,-0.905273,0.114380,0.080444,-0.024628,0.182861,0.003168,0.005741,0.001209,1.225586,-0.049164,-0.190063,-0.083191,0.004845,0.000766,-0.001247,-0.002684,-0.041504,0.200928,-0.198730,-0.129761,-1.273438,0.000439,0.177979,0.141724,0.192505,0.414795,0.174194,0.654297,-0.489746,0.038116},
      {-0.016617,-0.122620,-0.241577,0.022781,0.011826,0.187012,0.048645,0.011513,0.005352,0.001915,-0.193115,-0.037170,-0.052429,0.022461,0.002474,0.002825,-0.000355,-0.000924,-0.010826,0.000847,-0.007351,-0.107483,0.429688,0.000010,-0.196411,0.043335,0.022018,0.247192,-0.049683,0.604004,-0.596680,-0.002951}
    },
    {
      {-0.023071,-0.563477,0.794434,0.735840,-0.050568,0.692383,-0.084473,0.093811,0.341309,-0.000655,-0.014168,0.113525,-0.054596,-0.021454,0.004066,0.001225,-0.001951,-0.000885,0.042023,-0.505859,0.122009,0.065430,-0.043610,-0.001856,0.046082,-0.300781,-0.071289,0.390869,-0.267822,-0.183228,1.205078,0.033539},
      {-0.020477,-1.197266,1.268555,1.533203,-0.086182,-0.218262,-0.184326,0.191528,0.488281,0.000496,1.631836,0.158813,-0.151489,-0.011185,0.001755,0.001069,-0.003531,-0.002052,0.121582,0.144653,0.023468,-0.008736,-1.949219,0.000347,0.229370,-0.559570,-0.212524,0.273926,-0.232666,-0.291504,-0.819824,0.080322},
      {-0.020782,-0.325684,0.372314,0.225830,-0.028214,-0.428711,-0.025955,0.050690,0.184814,0.002508,-0.286865,0.078247,-0.035370,0.123596,0.004276,0.002794,-0.005516,-0.000782,0.008362,0.453857,0.007225,0.135376,0.645020,-0.000073,0.074097,-0.174805,0.049377,0.374512,-0.443359,-0.272461,-0.505371,0.047577}
    },
    {
      {-0.009621,-0.062164,-0.256104,-0.801758,-0.125732,0.744629,-0.053070,0.208374,-0.322998,0.000965,-0.319580,0.081543,0.047150,-0.038544,0.005333,0.003389,0.000119,0.000118,0.104248,-0.551758,0.185913,-0.092957,1.080078,-0.003046,0.264893,-0.498047,-0.312500,0.079346,-0.075378,-0.610840,0.408936,0.188354},
      {-0.005470,-0.143677,-0.402832,-1.666992,-0.195068,-0.167847,-0.076965,0.321289,-0.463867,0.002665,0.898438,0.154541,-0.024536,-0.057678,-0.000554,0.001087,-0.002131,-0.003330,0.145508,0.101807,-0.080627,-0.156250,-1.200195,-0.000483,0.456055,-0.896973,-0.469971,-0.200928,0.141479,-0.763672,-0.816895,0.243286},
      {-0.015213,-0.002012,-0.142212,-0.307129,-0.042389,-0.531250,-0.016983,0.084534,-0.186768,0.001892,-0.814941,0.054504,0.032196,-0.057129,-0.003834,-0.000435,-0.005039,-0.000368,0.091614,0.422119,0.049377,-0.111023,0.681152,-0.002279,0.105530,-0.216553,-0.189575,-0.063171,-0.127563,-0.688477,0.276611,0.103027}
    }
  }
};
