#pragma once

#include "C:\Users\Baron\Desktop\EE_297_Repo\EE_297\hardware_imp\vitis_hls\lane_seg_hls\lane_seg_top.h"

// Auto-generated from encoder[0] with BN folded

data_t conv0_w[3][3][3][32] = {
  {
    {
      {0.00441637,-0.07508835,-0.08812330,0.09481488,-0.02692401,0.33181807,-0.00252706,0.00168408,0.04094571,0.00006742,-0.12164736,-0.05381138,-0.24460967,0.77577233,0.00492336,0.00393114,0.00141961,0.00042263,0.01758204,-0.05319969,-0.09801192,-0.15765531,0.46229196,0.00118785,0.10730720,0.05974690,-0.00303109,0.49405992,0.21434516,-0.11653320,-0.59272695,-0.00233449},
      {0.00247082,-0.07110247,-0.09909851,-0.00815118,0.00107371,0.01098611,-0.03607659,-0.00366253,-0.04110810,0.00151250,0.81852943,-0.00986082,-0.37461853,1.06875551,-0.00021661,-0.00254040,0.00197661,-0.00170227,0.02515291,0.14392905,-0.21430312,-0.14959665,-1.30209649,0.00222258,0.16681133,0.08695851,0.04716005,0.39432362,-0.03680759,-0.07645200,-0.03813238,0.00905999},
      {-0.01248489,0.06543075,-0.02685438,-0.06517161,0.00288278,-0.30639574,0.04833217,0.00433822,0.03821335,0.00531318,0.03606399,-0.01936117,-0.07187519,0.61558366,0.00276745,0.00153182,0.00353964,0.00104172,0.02253014,-0.20356892,0.03881555,-0.11950431,-0.38902199,0.00216945,-0.38508701,0.04061737,0.02041237,0.24234994,-0.56623542,-0.10830995,0.59398168,-0.00752359}
    },
    {
      {-0.00267158,-0.03232219,0.11738288,-0.20524587,0.00881546,0.33882165,-0.00239262,-0.02696076,0.03643044,0.00275202,-0.53147149,0.00054081,-0.28396299,0.03293569,0.00181080,0.00615056,-0.00060435,0.00083028,-0.08826278,-0.30557492,-0.31454843,-0.07218887,0.86456686,0.00041827,0.15789755,0.04233585,0.07917167,0.20965289,0.33723202,-0.04068903,0.11890028,-0.00535062},
      {-0.00355100,0.10171109,0.19198444,-0.21999037,0.02004056,-0.25505918,0.01191592,-0.04595933,0.12151193,0.00205163,0.89649755,0.01091342,-0.67325687,0.12531631,0.00221320,-0.00185348,0.00000969,-0.00096401,-0.08864193,0.21292566,-0.41986245,-0.12738775,-2.24040818,0.00122514,0.07499933,0.07112881,0.04373870,-0.35257033,-0.13130175,-0.00199579,-0.39357930,0.00216482},
      {-0.01020314,-0.05405947,0.00989006,-0.17285837,0.02486728,-0.14990042,0.02069861,-0.00748351,-0.01949080,0.00415268,-0.51340449,-0.01487605,-0.17059815,-0.05312223,-0.00076126,-0.00177551,-0.00020843,0.00028738,0.01696772,0.19658470,-0.18460295,0.01737487,1.20258224,0.00240253,-0.26688543,-0.05175767,0.08691050,0.30659020,-0.53907889,0.00796172,0.15942751,-0.00967985}
    },
    {
      {0.00554333,0.05274156,-0.00093410,0.20641394,0.01984549,-0.45494732,-0.00182023,-0.07663915,-0.05376726,0.00311152,-0.36013371,0.02045399,-0.04779258,-0.08208388,0.00406051,0.00686318,-0.00050556,0.00076152,-0.24875526,-0.32566482,-0.08806656,0.23856367,0.78937107,0.00007411,0.06221133,-0.05694419,-0.05110727,-0.05603343,0.86752307,-0.10635738,0.78717381,-0.07090267},
      {0.00557090,-0.01867289,-0.02880307,0.16537610,0.00517533,0.01850174,0.01384420,-0.08988804,-0.13417722,0.00116705,0.87066412,-0.00017054,-0.19234487,-0.02642438,-0.00083854,-0.00294500,0.00171100,-0.00063685,-0.34380767,0.21505396,-0.19099346,0.43556425,-1.71585631,0.00026474,-0.21596687,-0.01369731,-0.03690108,-0.39243123,0.19340351,-0.05092044,-0.35214534,-0.05851611},
      {-0.00573884,-0.06661283,0.02758920,0.07468639,0.00330811,0.44529656,-0.02239822,-0.00943069,0.02350111,0.00407850,-0.89733887,0.00368565,-0.03566022,-0.15084596,-0.00054640,-0.00109169,-0.00007417,0.00025169,-0.23314896,0.27103579,-0.01863092,0.15237823,1.44702637,0.00087583,-0.73348552,-0.07229830,0.04648373,0.12784031,-0.40184727,-0.00419736,-0.47242948,-0.12233347}
    }
  },
  {
    {
      {0.01302495,0.25389129,-0.34192377,0.17347626,-0.02500775,0.26222387,0.36399704,-0.00414512,-0.18219303,0.00099934,-0.76364839,-0.00184565,0.26335451,0.01211678,0.00122567,0.00757412,0.00105690,-0.00050477,-0.18950243,-0.33323503,-0.00079698,0.24252592,1.52213275,0.00066310,0.14032577,-0.15816887,-0.02786454,-0.39643124,0.43157795,0.01055512,0.57838613,-0.03973633},
      {0.00768233,0.41951454,-0.67827600,0.12239096,0.00186280,-0.09173270,0.68417609,0.01866559,-0.14228152,0.00150056,0.16485222,-0.01535075,0.51090342,-0.05664790,0.00168981,-0.00218365,0.00135587,-0.00177835,-0.14792697,0.09050864,-0.05919918,0.29577047,-0.79983640,0.00288586,0.20249188,-0.25601321,0.00298394,-1.45348275,0.23660415,0.01815969,-0.51943326,-0.00633877},
      {-0.00643002,0.09356854,-0.16582765,0.21137051,-0.00735285,-0.08267349,0.17680869,0.00370846,-0.11174232,0.00297745,-0.85325670,-0.01705129,0.18469407,-0.20260699,0.00222130,0.00059984,0.00180930,0.00030084,-0.11606277,0.07489609,0.03736850,0.18448323,1.91488516,0.00383448,-0.05268442,-0.13989869,-0.00516039,-0.27912199,-0.58913004,0.06408243,-0.16298203,-0.02185811}
    },
    {
      {-0.01206649,0.67917490,0.62780088,0.40679580,-0.05559685,1.27590299,-0.09089261,0.05504169,0.54342866,0.00030373,-0.77835488,0.06469033,0.40609208,-0.17748486,0.00776224,0.00508642,0.00192946,-0.00146452,-0.01894267,-0.71766335,-0.02772269,-0.30464572,1.62530160,0.00022143,-0.16615124,0.37982318,-0.03175230,-0.26870123,0.59220207,-0.02552931,1.82277584,-0.00591611},
      {-0.01557617,1.28103340,1.12507248,1.08863473,-0.07457148,-0.47994292,-0.20916262,0.12470437,0.84897137,0.00132944,0.49835640,0.06541090,0.71073365,-0.11610064,-0.00085908,0.00056063,0.00479527,-0.00294098,0.15045597,0.06632897,-0.02628806,-0.54471731,-2.30245590,0.00165770,-0.26565164,0.60175848,-0.17099570,-1.67463517,0.02716347,-0.05808601,-0.83854336,0.03612752},
      {-0.01425823,0.31626302,0.33178693,0.21954127,-0.02548647,-0.79087800,-0.09363934,0.05063956,0.31577489,0.00290078,-1.04311228,0.02538802,0.17308833,-0.09658185,0.00016376,0.00080609,0.00193563,-0.00113723,-0.00876536,0.55513257,-0.02967382,-0.17861955,3.03450537,0.00137152,-0.36559373,0.20725510,-0.00807250,0.09169579,-0.86204708,0.04824548,-0.60275549,0.03498961}
    },
    {
      {0.00209541,0.08635295,-0.26441723,-0.60929734,-0.04250243,0.48277038,-0.18533325,0.10815436,-0.41224065,0.00184134,-0.34870735,-0.00090693,0.11705244,-0.04765840,0.00028441,0.00508137,0.00360068,0.00008574,0.03377514,-0.71341348,-0.01453473,-0.10362272,0.94384015,-0.00111829,-0.12272088,0.77066153,-0.07757178,0.36513814,0.73560703,-0.23967755,1.90284514,0.08095326},
      {-0.00204933,0.15167457,-0.44350731,-1.40068698,-0.09446820,-0.32673085,-0.37670809,0.18008250,-0.74054331,0.00225118,0.79853326,-0.02075402,0.16219039,0.04882919,-0.00054311,0.00189896,0.00762942,-0.00009717,0.04414963,0.14324965,-0.08601815,-0.11217322,-2.74168754,0.00073379,-0.33860046,1.23167872,-0.18686707,-0.60308439,0.23224892,-0.25841218,-0.94850385,0.13144876},
      {-0.00803937,-0.01728760,-0.14783664,-0.17161207,-0.04000491,-0.29871464,-0.16196984,0.10026947,-0.26978609,0.00493393,-1.12449479,-0.00780489,0.01345109,-0.01135288,-0.00108367,0.00006561,0.00510021,0.00016588,0.03953482,0.69673610,-0.00185274,-0.00596989,1.96073091,-0.00004527,-0.56650865,0.39816362,-0.04134353,0.32794628,-0.72828811,-0.07121835,-0.75318944,0.05648002}
    }
  },
  {
    {
      {0.00241944,-0.29317501,-0.55308038,0.13306990,0.02831012,-0.30887243,0.09139179,-0.00818669,-0.00230703,0.00044492,0.12584597,-0.02825735,-0.00634869,0.00318600,0.00631942,0.00681876,-0.00034590,-0.00083759,-0.18591297,-0.17443599,0.07076209,-0.07800008,-0.69281507,0.00027962,0.04975170,0.07759510,-0.05489109,0.51431793,0.23063488,0.08689537,1.02848637,0.00017282},
      {0.00332623,-0.60857505,-0.85888916,0.21926503,0.06477553,-0.10213033,0.19693139,0.01042352,-0.00047486,0.00119243,0.89486152,-0.07458751,-0.11099848,-0.08188463,0.00479221,0.00075718,-0.00087334,-0.00265061,-0.14844093,0.16781977,-0.05641148,-0.08853008,-1.80745959,0.00043472,0.13104922,0.15387575,0.01316114,0.51411736,0.36639929,0.11057328,-0.51456374,0.04357920},
      {-0.01359507,-0.20247030,-0.22377487,0.15730098,0.02288373,0.27887085,0.04047969,0.01637628,0.00036712,0.00188866,-0.09413053,-0.07255737,-0.04030349,0.01206387,0.00244605,0.00278996,0.00082569,-0.00091252,-0.02227146,0.01251454,0.03233329,-0.04495138,0.38409773,0.00001001,-0.22228320,0.04954314,-0.05288422,0.42866346,-0.41478610,0.12519275,-0.71365637,0.02443342}
    },
    {
      {-0.01774150,-0.50211012,0.76653194,0.74434865,-0.05995477,1.29253805,-0.11669084,0.09612349,0.60033226,-0.00064576,-0.02751491,0.21137229,-0.08158451,-0.01848766,0.00402202,0.00121071,-0.00159766,-0.00087329,0.15506662,-0.39260834,0.06479613,-0.00851503,-0.01399822,-0.00183868,0.07157735,-0.35376346,-0.07312072,0.45859820,-0.36171183,-0.09652162,1.31629586,0.08245818},
      {-0.01585466,-1.12966263,1.21271384,1.47867966,-0.07876384,-0.38106155,-0.21517009,0.20193014,0.85228705,0.00048881,1.08258867,0.20495139,-0.11742245,0.01230608,0.00173551,0.00105606,-0.00050028,-0.00202667,0.35779011,0.15371181,0.03851114,-0.05762476,-2.59487343,0.00034379,0.18514763,-0.69480020,-0.18854383,0.26457456,-0.28088078,-0.09260811,-0.88743222,0.12455960},
      {-0.01620908,-0.37261641,0.34699586,0.38664299,-0.03888828,-0.81253165,-0.06904435,0.08471747,0.35421458,0.00247387,-0.22392428,0.12669997,-0.07914371,0.17295037,0.00422805,0.00276070,-0.00140609,-0.00077239,0.12306191,0.41359758,0.03840507,0.08906771,0.69522268,-0.00007231,-0.01045739,-0.15141633,-0.12527473,0.51724994,-0.92933834,-0.03250543,-0.62523955,0.10701169}
    },
    {
      {-0.00797702,-0.01528766,-0.25920004,-0.74330211,-0.09972797,1.33506393,-0.04623637,0.14370944,-0.56299609,0.00095109,-0.17731941,0.08979613,0.04202759,0.04128494,0.00527424,0.00334896,-0.00165001,0.00011609,0.26740646,-0.47722286,0.02452839,-0.04231372,1.45457816,-0.00301840,0.20020676,-0.62282389,-0.15604357,0.19724697,-0.01681604,-0.32345229,0.55239719,0.05709207},
      {-0.00488964,-0.14343905,-0.41033912,-1.64165354,-0.13990727,-0.31087574,-0.06743994,0.25711161,-0.81090468,0.00262745,0.64961880,0.12935616,0.01440484,0.05708646,-0.00054746,0.00107439,-0.00100331,-0.00328850,0.33882213,0.09722778,-0.07709177,-0.09544996,-1.63519907,-0.00047832,0.32806262,-1.12663376,-0.31451672,-0.26808441,0.41383272,-0.34079546,-0.73559213,0.11745122},
      {-0.01217156,0.02183887,-0.15920545,-0.39430788,-0.03069013,-1.02920604,-0.01220392,0.07165290,-0.33212063,0.00186575,-0.62165838,0.04207009,0.05046046,0.08140958,-0.00379119,-0.00042989,-0.00229348,-0.00036321,0.19854927,0.39503428,0.01496773,-0.05839448,0.73703229,-0.00225898,-0.01713238,-0.28590322,-0.21709600,0.01018504,-0.30226305,-0.18648171,0.35163197,0.02122092}
    }
  }
};
