float conv1_weights[6][5][1][6] = {
  {
    {-0.03601133, 0.12469295, 0.04275988, -0.00637345, -0.15024376, -0.21636170},
    {-0.14898521, 0.10711279, -0.16423924, 0.01515744, 0.05335115, -0.18048759},
    {0.05214796, 0.11254044, -0.25073630, -0.22154625, 0.03704884, 0.12969562},
    {-0.04075507, 0.03867570, -0.17470193, -0.34178033, 0.07880637, 0.33387241},
    {-0.07098670, -0.03348135, -0.20912361, -0.27767229, 0.15528777, 0.08643179},
  },
  {
    {-0.07584879, 0.14989795, 0.05890584, 0.15099926, -0.11321463, -0.16214892},
    {0.06452375, 0.30182567, 0.24600096, -0.09906518, -0.00752071, -0.01792161},
    {0.11980925, 0.25115630, 0.13128355, -0.19188745, 0.26526916, 0.01463333},
    {-0.14316644, -0.01563874, 0.20552732, -0.29627398, 0.22523807, 0.36285603},
    {-0.06129204, 0.04753926, -0.04799889, -0.07650030, -0.04201786, 0.36406672},
  },
  {
    {0.07380290, 0.09474617, -0.00617757, 0.03724731, -0.10386994, -0.14798468},
    {-0.09522215, 0.26521397, 0.08185509, 0.18070784, 0.12456265, -0.39728630},
    {0.01115892, 0.17333625, 0.40382105, 0.07313489, 0.11422954, -0.12238634},
    {0.03232419, 0.12297256, 0.23120041, 0.18752442, 0.30323520, 0.22649972},
    {-0.13550873, -0.06729298, 0.33915910, 0.14117908, 0.24287024, 0.27721778},
  },
  {
    {0.19777805, 0.09220901, 0.20869741, -0.13043262, -0.02002100, -0.20154123},
    {0.22750437, 0.25853881, 0.21978091, 0.16985869, 0.02385792, -0.40120694},
    {0.16664425, -0.02559855, 0.25700077, 0.23973539, 0.12081629, -0.19134314},
    {0.10712884, -0.27939156, 0.24511181, 0.11705519, -0.01669852, 0.26709607},
    {-0.14331259, -0.38268855, 0.26897523, 0.05221533, -0.11853249, 0.06195299},
  },
  {
    {0.05755364, 0.20221069, -0.19558102, 0.08870079, 0.17963673, -0.13536598},
    {0.21458538, -0.02627306, -0.28869998, 0.07185132, 0.02681390, -0.18071973},
    {0.23132862, -0.16649614, -0.35293582, 0.08456504, 0.12899797, -0.24243014},
    {0.09467642, -0.09778421, -0.18398105, 0.20210856, -0.20765173, 0.10435624},
    {-0.07968785, -0.34254012, -0.13360159, 0.23079765, 0.10334723, 0.02585033},
  },
  {
    {0.20114890, -0.00092964, -0.21637851, -0.16012426, -0.11008741, -0.19971772},
    {0.21947598, -0.11588606, -0.30226350, -0.02477754, -0.02145274, -0.18257903},
    {0.00017366, -0.23339643, -0.22273126, 0.07310884, -0.21620925, -0.26426563},
    {0.07102744, -0.23380849, -0.30534720, 0.09002343, -0.20008530, 0.15978996},
    {0.07441470, 0.06640362, -0.07668902, 0.02023227, 0.09431791, 0.02869606},
  },
};
