float fc1_biases[120] = {0.03964771, 0.03359343, -0.01151081, 0.07341698, -0.02153649, 0.06887531, -0.01348949, 0.00306728, 0.03502638, 0.08198441, -0.01689104, 0.04097373, 0.01862130, 0.04902393, 0.06513891, -0.00990361, -0.00406755, -0.01648258, 0.04157300, 0.03242362, -0.00967346, 0.04565084, -0.01126465, 0.02777977, -0.00628720, -0.00824847, -0.04145877, 0.04659795, 0.07743336, -0.01718331, -0.01329872, 0.06053121, -0.00933807, 0.06480180, -0.04340436, -0.00055398, 0.02770517, -0.01211465, 0.00289361, 0.00148338, 0.06668781, -0.00245406, 0.00116675, -0.05751269, 0.03523158, -0.01581496, 0.08013575, 0.05747516, -0.01264448, 0.02673372, 0.03058451, 0.03554314, 0.05074666, 0.05699516, 0.03736765, -0.02184537, -0.04627097, 0.02655288, 0.05083448, 0.00391362, -0.01374120, 0.01252489, 0.03437353, -0.03226306, -0.04304367, -0.03434604, -0.02486628, 0.01218050, -0.09768240, -0.01206892, -0.01059518, 0.00260335, 0.05542397, 0.05884905, 0.04251310, 0.00361553, 0.01645913, 0.05696438, -0.03648830, -0.00301360, 0.03817807, 0.02793270, 0.01403739, 0.04547299, -0.00817164, -0.02067016, -0.01105378, 0.04034823, 0.01114762, -0.01051269, 0.01539790, -0.01320653, -0.02529403, 0.01318352, 0.02271399, 0.01282471, 0.01854385, 0.05411527, 0.04115563, 0.06864185, 0.03162409, -0.03804448, 0.04326372, 0.03551986, -0.02491133, 0.04131973, -0.00327605, -0.03942885, -0.00814813, -0.01106419, -0.02122828, 0.04092751, -0.01239103, 0.05779572, -0.02744257, 0.00205241, 0.01946820, 0.03364680, 0.02833349, -0.01640216};
