#include "C:\Users\Baron\Desktop\EE_297_Repo\EE_297\vivado\lenet_proj\lenet_top.h"

float conv2_weights[5][5][6][16] = {
  {
    {
      {-0.04512054, 0.01390678, -0.04866536, -0.16138354, -0.06776991, -0.05884950, -0.28432700, -0.03118055, -0.06359035, -0.05526923, -0.08453511, -0.05965567, 0.06505512, -0.16650330, 0.00114259, -0.00213760},
      {-0.05069956, 0.02342439, 0.08257704, 0.10185416, -0.16521646, 0.02465042, 0.11622307, -0.05808738, 0.04338986, 0.01530122, -0.09548016, 0.03702683, 0.05238902, -0.01806393, 0.00047256, 0.06985576},
      {-0.05269688, -0.01116972, -0.11921570, -0.01199849, -0.14362963, -0.07435215, -0.13310410, -0.07066014, 0.01008101, 0.05886976, -0.22005689, -0.00317509, 0.02373881, 0.06153075, -0.00173526, 0.04132660},
      {-0.12378276, 0.02909679, 0.09667223, 0.02194356, -0.20083834, -0.17670466, -0.08094849, 0.06205998, 0.23889819, 0.11588740, 0.00042807, 0.09615888, 0.03983331, -0.19862328, -0.01846073, -0.12093721},
      {-0.13793123, 0.02425192, 0.03903540, 0.12880257, -0.07403754, -0.09759030, -0.10715770, 0.00821169, 0.04063306, 0.09789202, -0.08787413, 0.07966641, -0.07727201, 0.08523513, 0.03375731, 0.07715292},
      {0.16871797, 0.01955989, -0.12082650, 0.02373744, -0.04933874, 0.05251673, 0.15018339, -0.19378567, -0.21471636, 0.09328434, -0.18881784, 0.07666481, 0.07885330, 0.09635700, 0.01767507, -0.06731496},
    },
    {
      {0.07298034, -0.07759443, -0.16544579, -0.02245275, 0.11565432, 0.04478409, -0.05890560, -0.05999137, -0.17228451, 0.14090031, -0.07084796, -0.12974742, -0.06574173, 0.04792650, -0.00695777, -0.19832851},
      {-0.07276835, -0.05605398, -0.07809473, 0.04781951, 0.01057845, -0.00440077, -0.02357810, 0.10024466, 0.00177538, 0.06859421, 0.13398568, -0.06452474, -0.04368243, 0.06129336, 0.06846668, 0.01719790},
      {0.10543948, 0.13888159, -0.10913350, 0.10270767, 0.02594438, -0.09938002, 0.08695354, 0.07592370, -0.08444271, 0.04837245, 0.00419474, 0.11312813, -0.07126298, -0.08139785, -0.01947560, -0.04126819},
      {0.12482812, -0.24496782, 0.01585380, 0.00611414, -0.22829747, -0.15702957, 0.11295801, 0.14824039, 0.08100654, 0.12838022, 0.16621390, -0.00878043, 0.03876320, -0.08800834, 0.13884534, -0.04771743},
      {0.00129236, 0.10660489, -0.04030618, 0.11193907, -0.09264482, -0.10855720, 0.00009559, 0.08825019, 0.02714089, -0.01740741, 0.01159318, 0.06228897, 0.02160565, -0.00506635, 0.06766995, -0.05481206},
      {0.16274622, 0.14927839, -0.02300235, -0.09600396, -0.07697030, 0.06356603, 0.09531773, 0.01371329, 0.00063787, 0.00013890, 0.03139801, 0.12769973, -0.19656686, 0.01455686, 0.03833272, -0.05356897},
    },
    {
      {-0.06588734, 0.01180764, 0.07878735, 0.09708012, -0.11882639, 0.01000543, -0.01209100, -0.14516219, -0.06283437, 0.17471133, -0.16601734, 0.07105308, 0.08752311, -0.05198773, 0.05781116, 0.03199891},
      {-0.09018459, -0.09299175, -0.06417510, 0.11628512, 0.02487439, -0.02670939, 0.20461266, -0.04521113, -0.07994324, -0.02692287, 0.08668122, -0.11383806, -0.09544126, 0.08077411, 0.07693611, -0.05980473},
      {-0.09487870, -0.10333849, 0.11113402, -0.00787344, -0.09133165, -0.08656611, -0.13488929, 0.02196029, 0.07694109, 0.03602691, 0.06522436, -0.00462401, 0.00283560, -0.11446690, 0.03342981, 0.08188019},
      {0.00252581, -0.14421321, -0.07839323, 0.19688772, -0.28584895, -0.26457641, 0.02403331, -0.02960262, -0.11576253, -0.01250502, 0.01519540, -0.08804774, 0.22821893, -0.30142930, -0.02273095, 0.01995752},
      {-0.15415289, 0.13753897, 0.10437746, 0.12420113, -0.02866230, -0.00786666, -0.08018783, 0.06332993, -0.06750298, 0.10937589, -0.03581437, 0.04522835, -0.17051138, -0.02012757, -0.00490817, 0.00723780},
      {0.04266598, -0.01014938, 0.05662605, -0.11051781, 0.12734619, 0.07485227, -0.12919149, -0.01466582, 0.17116505, 0.17254426, 0.16047774, 0.07965332, -0.03099689, -0.09772085, 0.06785483, -0.09946704},
    },
    {
      {-0.10057879, 0.10594388, 0.01572383, 0.06124239, -0.16160679, -0.02904064, -0.07833438, 0.02081277, -0.01577082, 0.16343252, -0.04072309, 0.06369985, -0.14329252, -0.05037142, -0.02997102, 0.08748660},
      {-0.03480446, -0.07336241, -0.08995061, 0.17141871, 0.13546591, -0.19533606, 0.18810882, 0.01609372, -0.19419704, -0.01024849, -0.08844440, -0.00526259, 0.15104643, 0.07586554, 0.13498004, 0.04772475},
      {0.04217190, 0.09866403, -0.07102471, 0.03516224, -0.04255312, 0.07180308, -0.06222350, 0.13201508, -0.04188756, 0.07263878, -0.02309376, -0.11632022, -0.05145923, -0.06606802, 0.05707360, -0.07236514},
      {-0.00537125, -0.16151799, -0.27701953, 0.32665581, -0.38485840, -0.13919660, 0.04777887, 0.08277132, -0.05568803, -0.05547152, -0.06928798, -0.26029712, 0.09887700, -0.03821487, -0.18521549, -0.26498315},
      {-0.06671797, 0.10461128, 0.04170032, 0.13157935, -0.03794010, -0.06601878, -0.16696751, 0.09949019, -0.06684592, 0.05675784, -0.01979380, 0.17483763, -0.02427720, -0.14565521, -0.02672887, 0.00786769},
      {0.06642577, -0.19122916, 0.14975365, -0.23242517, -0.09105241, 0.25364023, -0.19467124, -0.06960732, 0.03389878, 0.13125019, 0.13825251, -0.14356545, -0.04132504, 0.11219375, 0.12770796, 0.00412244},
    },
    {
      {0.05361994, 0.02958115, 0.16400142, 0.16331725, -0.12856877, -0.00253487, -0.02917912, 0.01398456, 0.08658572, 0.17394666, 0.04016482, 0.00075319, -0.14996666, 0.01814587, 0.09619347, -0.14318153},
      {-0.19864331, 0.05330953, -0.17326115, 0.07535962, 0.14523005, 0.07651749, 0.04522040, -0.00301526, 0.04511041, 0.05392352, -0.01955581, 0.13231476, 0.05841159, -0.01239961, 0.20190641, 0.13581079},
      {0.06458829, 0.09411576, 0.03211577, 0.00524372, -0.03256286, -0.00679217, 0.01048785, 0.04422905, -0.19201705, 0.07598358, -0.10738000, 0.11576390, 0.09724814, -0.02451602, 0.00717963, -0.08145253},
      {0.09451081, 0.05292496, -0.22707291, 0.21458851, -0.06012719, 0.22660303, 0.03487734, 0.05087326, -0.19452485, -0.01128522, -0.01429050, 0.00469302, 0.07184616, -0.00020913, -0.16157278, 0.00481415},
      {-0.02808795, 0.01943013, -0.06527577, -0.08528347, -0.07041426, -0.06921978, -0.09036903, 0.07438651, -0.02545142, 0.02126953, -0.02045329, 0.18864328, 0.07758102, -0.12359680, 0.12038938, 0.07695086},
      {-0.00136346, -0.03451683, -0.05385302, -0.21040557, 0.05402968, 0.01715489, -0.12154333, 0.06000061, -0.02422454, 0.09688014, 0.02542852, 0.05127198, 0.02977603, -0.03917244, 0.05032273, 0.07615522},
    },
  },
  {
    {
      {-0.15837713, -0.09989240, 0.12849735, -0.01505828, 0.03417109, 0.01126243, -0.14962578, 0.10255962, -0.03102934, 0.13392173, -0.16613278, -0.02354374, -0.01249383, -0.13659275, -0.00879310, -0.11511206},
      {0.07286763, 0.12401690, -0.02831346, -0.15885758, 0.06993312, 0.04209544, 0.13414232, -0.05929563, 0.06451923, -0.08577363, 0.03954502, -0.11425392, -0.09571876, -0.14238612, -0.07331750, -0.11737340},
      {-0.02704770, -0.04276151, -0.21117930, -0.03973336, -0.11979102, -0.03743066, 0.07201659, -0.09244030, 0.13387120, 0.02566193, -0.04928914, -0.00093646, -0.07702568, -0.00151650, -0.04105195, 0.12546444},
      {-0.09572417, 0.13149312, 0.04631349, 0.04770225, -0.20365252, -0.08283846, 0.27340215, -0.16016544, 0.14938398, -0.10230369, 0.02383703, 0.01031487, 0.09873883, -0.10553892, 0.19024353, 0.18989411},
      {0.01940107, -0.03767921, -0.06032513, 0.05053175, 0.08713955, 0.06333686, -0.04159569, -0.03858491, -0.06407582, -0.00995577, 0.00228986, -0.03480392, -0.08974386, -0.04043157, 0.10282861, -0.00700926},
      {0.10413654, -0.10004570, -0.01535306, -0.14010808, 0.04558235, -0.06155683, 0.09482247, 0.02375219, 0.04767268, 0.17072885, -0.02543162, 0.01523578, -0.20885696, 0.20647651, -0.10456105, -0.10482685},
    },
    {
      {0.00837689, -0.10965740, -0.16466016, 0.07461406, 0.00474801, 0.04827827, 0.05171911, 0.05037471, -0.05406396, 0.13230367, -0.04683332, -0.14221202, -0.08253738, -0.01549642, 0.07731562, -0.10617999},
      {0.11002367, -0.09402000, -0.10358127, -0.29995215, 0.18174665, 0.06573507, 0.00298218, -0.05610659, 0.10320491, 0.01126249, 0.20711121, -0.19542737, 0.08129704, 0.02682863, -0.03557346, -0.05385536},
      {0.07881979, 0.14908627, 0.00678872, 0.03439374, 0.03847565, -0.08978383, 0.08274061, -0.06920799, -0.06258126, -0.06945659, 0.15336108, 0.03232438, -0.04479523, 0.10397167, 0.13116449, 0.09482946},
      {0.31009766, -0.06446924, -0.08297176, 0.18876511, -0.10762548, -0.28832778, 0.08867320, 0.04225269, 0.03557371, -0.22398356, 0.05410902, 0.06508095, -0.06751207, 0.12421158, 0.15372500, -0.06035591},
      {0.00239021, 0.04196440, -0.13837108, 0.09257803, 0.14196955, 0.02571948, 0.05003607, 0.00703495, 0.01612194, 0.06377298, 0.07700349, 0.04057890, -0.01446713, 0.06513031, 0.14884442, -0.01213006},
      {-0.05238301, 0.04699274, 0.18889552, -0.18398935, 0.07103406, 0.02153130, 0.09472714, -0.12183152, 0.01419075, 0.19089216, 0.04802924, 0.10940892, -0.01052494, -0.13548255, -0.00788340, 0.10359430},
    },
    {
      {-0.02945822, 0.11494001, 0.10630656, 0.11593216, -0.15096150, 0.03293765, -0.06145899, -0.00425372, -0.13216913, 0.05514995, 0.08338030, -0.02265231, -0.12242490, -0.05133057, 0.09989705, 0.16768831},
      {0.02289476, -0.13512361, -0.09095467, -0.20032154, 0.10553302, 0.01466248, 0.01196920, 0.01086622, -0.08553264, -0.24437381, 0.03105954, -0.20665982, 0.12765098, 0.07356021, 0.08362459, -0.03150943},
      {-0.01750645, 0.01950788, 0.01173055, 0.11175261, 0.11954278, 0.06722317, -0.09392443, 0.03803926, 0.09179384, -0.00493275, 0.03100298, 0.04766008, -0.00972149, 0.01431429, 0.17255886, 0.05599113},
      {0.20124643, 0.01447335, -0.19366451, 0.18926348, 0.10547110, 0.09256737, -0.11788364, 0.16819578, -0.30056074, -0.00062712, -0.01444258, 0.05849849, -0.20232973, -0.11699951, 0.12361904, -0.18845385},
      {-0.06135856, 0.03038837, 0.08811767, -0.07612327, 0.16616458, 0.02419912, 0.09542924, 0.11376200, 0.13169186, -0.17865151, 0.09205797, 0.06474783, 0.14941439, -0.02883682, 0.12930907, 0.05445025},
      {-0.01155826, 0.01477142, 0.22692958, -0.02110628, 0.06537591, 0.03284290, 0.00379158, -0.09537652, 0.12150311, 0.03764685, 0.16195148, 0.00558138, 0.14242296, -0.18795557, 0.07135183, 0.13198057},
    },
    {
      {-0.18283926, 0.07274111, 0.12174331, -0.05531452, -0.10711772, -0.15283935, 0.05096174, 0.00030406, 0.03793200, 0.14753743, -0.01874839, 0.09326451, -0.02823840, -0.13984837, 0.03677524, 0.15551609},
      {-0.05488459, 0.09977759, -0.25716648, -0.01128984, 0.11837138, -0.11064470, 0.02197256, -0.00060674, -0.13474523, -0.34097955, 0.04951881, -0.05725645, 0.09074523, 0.20081973, 0.15147701, 0.04063227},
      {0.03489608, 0.09291881, -0.08617153, -0.06637552, 0.21503577, 0.03351043, 0.08639882, 0.18013731, -0.04907152, -0.10751051, 0.05470546, 0.16361889, 0.07256871, -0.04572191, 0.11790706, -0.12260171},
      {-0.15372467, 0.05331407, -0.38037118, 0.05552575, 0.17881794, -0.04082434, 0.18486717, 0.30507916, -0.07682361, -0.05064062, -0.07304858, -0.04974597, -0.10088535, -0.00746362, 0.12433081, -0.24098156},
      {0.00004636, 0.12485761, -0.12460211, 0.00687707, 0.12796837, -0.15839237, 0.02518521, -0.01913720, -0.07495861, -0.22767776, 0.08905027, 0.16273686, 0.04983425, 0.07135894, 0.19031955, 0.07255348},
      {0.15273428, -0.25305045, 0.09773042, -0.04185019, -0.11392748, 0.03758421, -0.28895831, -0.06724652, -0.02609923, -0.06604418, -0.07951831, -0.22337264, 0.04137805, -0.02130137, 0.12528417, 0.00911002},
    },
    {
      {-0.08795594, 0.04688738, 0.13615017, -0.05873275, -0.08471015, -0.01563020, -0.11606918, -0.06658266, 0.02943895, 0.06778623, 0.10405955, -0.06667235, 0.05964246, -0.10839210, 0.17440325, 0.11868154},
      {-0.22151347, -0.01777335, 0.05560353, -0.05220652, 0.03999842, -0.16655035, 0.07537020, -0.08513007, -0.03465451, -0.10165370, -0.03773289, -0.09645514, -0.02265414, 0.10753496, 0.00758823, -0.12598351},
      {-0.06936712, 0.07198501, -0.04030534, -0.08014402, 0.09820221, -0.08143847, 0.02099757, 0.00163503, -0.01969075, -0.10112138, -0.09538595, 0.00293836, 0.06740631, 0.04203251, 0.17359482, -0.18231943},
      {0.15963045, 0.10538708, -0.11248347, -0.01354207, 0.20626332, 0.29448768, 0.27182046, 0.20347363, -0.17824119, -0.10806088, -0.07415064, 0.04472101, -0.01731292, 0.01117099, 0.14166650, 0.07283694},
      {-0.16771734, 0.01186199, 0.01376496, 0.01556783, -0.06826223, -0.05250175, 0.05445956, -0.01966470, -0.06585369, -0.07951858, -0.06992452, 0.01037441, 0.19009650, 0.10513834, 0.08096983, -0.11741078},
      {0.18169148, -0.12684087, -0.08059611, -0.12323841, -0.13309373, -0.00963830, -0.11937202, -0.08245269, 0.04084466, -0.06912465, 0.00248300, 0.06687215, -0.11675610, -0.17924395, -0.03304780, -0.16918100},
    },
  },
  {
    {
      {-0.06961440, -0.02955869, 0.03349559, -0.12313495, 0.06056650, -0.01387839, -0.09226383, -0.02207187, -0.11556920, 0.03825516, -0.05417351, 0.02850313, -0.15257460, 0.08435699, -0.01770274, -0.03698368},
      {0.01646646, 0.01156076, 0.08044017, 0.05925808, -0.05432272, -0.06424793, -0.10024247, -0.03582628, -0.00274540, 0.06409377, 0.17075557, -0.09265500, -0.01057061, -0.21006943, -0.12936468, 0.00917260},
      {0.08765537, 0.15784521, 0.01386174, -0.14019665, -0.04012275, 0.02343282, -0.00390517, 0.05936676, -0.00864696, 0.10524508, 0.19452444, 0.08562874, -0.05920956, -0.07912835, -0.02939563, -0.02853259},
      {-0.10486994, 0.04046914, -0.00683454, -0.28882629, 0.03546277, 0.13098203, 0.10253127, -0.19743454, 0.01619731, -0.15070331, 0.03133802, 0.02909714, -0.17386200, 0.07835957, 0.16440839, 0.17073867},
      {0.07834745, 0.00851723, -0.07062592, -0.17428486, -0.03467967, 0.11725905, -0.04838901, 0.12288053, 0.07760417, 0.08348652, -0.00635466, -0.03645786, -0.03375510, -0.03024755, -0.13534661, -0.05751314},
      {-0.17195815, -0.06696168, 0.00521897, 0.05818146, 0.03569286, 0.05849132, 0.09145899, -0.01575747, 0.13591796, 0.16152601, 0.09077401, -0.16783114, 0.12586245, 0.16498014, -0.15046677, 0.02589934},
    },
    {
      {-0.04554130, 0.10254307, -0.24681307, -0.12317777, 0.12250558, -0.09309073, -0.06913872, 0.05013864, 0.04306773, -0.01663796, -0.05388799, -0.15610836, -0.16676372, 0.02147212, 0.07504705, 0.00742612},
      {-0.03835301, 0.06776350, -0.11579078, 0.05805051, -0.02843017, 0.00701508, -0.21813522, -0.04671691, 0.02028483, -0.05314587, -0.12736247, -0.26775122, 0.18263189, -0.23892678, -0.13180003, -0.03178573},
      {-0.07558656, 0.07075842, 0.01445001, -0.00356351, 0.05024482, 0.15024798, 0.09064399, 0.10497271, -0.07840443, 0.00910729, 0.09282711, -0.01188816, -0.05776842, 0.08033458, 0.01606201, 0.06685588},
      {0.03347199, 0.22529785, -0.12779231, -0.06607419, 0.16148300, 0.18140338, -0.15164334, -0.04716783, -0.15913929, -0.18323202, -0.26053751, 0.03106893, -0.18249916, 0.11050182, 0.22805819, -0.06347042},
      {-0.07298582, 0.05904542, 0.10714417, -0.02094636, 0.00346398, 0.07521968, 0.07872996, -0.04272439, 0.07158431, 0.02400156, 0.12810935, 0.09487626, 0.14694519, 0.14030750, -0.07911327, 0.10749330},
      {-0.04437824, -0.03776236, 0.14906205, 0.01586100, -0.12275841, -0.01609859, 0.08312027, -0.10369401, 0.00872221, -0.06439436, -0.02103958, 0.20003903, 0.13103834, -0.09797562, -0.20459151, 0.15123799},
    },
    {
      {-0.08784879, 0.00322363, 0.05644256, -0.10498575, 0.08043358, -0.11735289, 0.13906109, 0.02529192, 0.07564588, -0.03685999, 0.16111058, -0.11866939, -0.03431603, 0.03988938, -0.05375338, 0.20691295},
      {-0.03713694, 0.03169452, -0.19156085, -0.07554036, -0.19698547, 0.18081914, -0.05490085, -0.08428892, -0.15971634, -0.20874803, -0.07589563, -0.14612558, 0.04513903, -0.05322467, -0.10490046, -0.16473623},
      {0.03985419, 0.05948898, -0.01627216, 0.00565242, 0.07549348, 0.04353653, -0.08634888, 0.12176202, 0.12385489, -0.19680141, -0.13729136, 0.16210066, 0.06603707, 0.13610129, 0.00037728, 0.09376172},
      {0.07011981, 0.16266571, -0.35298431, 0.00557554, 0.30721298, 0.19330524, -0.25160486, 0.05120452, -0.05244818, -0.26999444, -0.00531049, 0.23059645, -0.13549775, 0.29650399, 0.33888382, -0.14419861},
      {0.00304127, -0.02585696, 0.05336533, 0.10526446, 0.01812035, 0.07823562, 0.02941834, 0.05649352, 0.08394708, -0.41252434, 0.00425285, -0.01382954, 0.09522371, 0.19377036, -0.10706557, 0.07041293},
      {-0.04618796, -0.08190136, 0.23458385, 0.03145698, -0.10351954, -0.14243199, -0.04202554, -0.19582433, 0.13241546, -0.19019805, -0.07931916, -0.03347769, -0.11555564, -0.10905996, -0.08549695, 0.16692968},
    },
    {
      {-0.00622884, -0.01247274, 0.07725096, 0.00923752, 0.03308189, -0.21359630, 0.05912405, 0.05115855, 0.04159376, -0.19762494, 0.07246073, 0.06636898, 0.11800105, 0.14532034, 0.05204392, 0.12556291},
      {0.03265856, -0.00610494, -0.18866736, -0.11534003, -0.11503604, 0.19025722, -0.08229800, -0.11308080, -0.19028161, 0.10920985, -0.12187058, 0.08844503, -0.09730115, 0.11274821, -0.36112803, -0.31485745},
      {-0.05938061, 0.21902603, 0.01310264, -0.10298049, 0.13277981, 0.06519143, 0.07470091, 0.12121671, -0.05019243, -0.13813818, -0.06554487, 0.16428742, 0.13272423, 0.08795964, -0.00979944, -0.03964145},
      {-0.02689128, 0.17372318, -0.14007531, -0.11294500, 0.24564897, 0.27622455, 0.08192166, 0.23337340, -0.12612474, -0.47485200, 0.16766796, 0.29137030, 0.05374222, 0.14282937, 0.21912622, -0.21293642},
      {0.08090178, 0.17375822, -0.10374301, -0.04439496, 0.04578618, -0.04859728, 0.07540272, 0.05054823, 0.08766679, -0.17504171, -0.17698976, 0.09240705, 0.15528876, 0.06918550, -0.21956764, -0.12466609},
      {0.04171364, -0.21724543, 0.03955786, -0.07269933, -0.16144291, -0.04462705, -0.24190970, -0.11375172, 0.10832950, 0.01532103, 0.10400591, -0.25709891, -0.07828365, -0.09604878, -0.14854348, -0.10709222},
    },
    {
      {-0.09506951, 0.11587732, 0.12024574, -0.05566846, -0.08951038, -0.15724152, -0.09544411, -0.02191044, 0.06864532, -0.21863282, -0.03089692, 0.12998547, 0.08675563, -0.07689048, 0.18331690, 0.07240026},
      {-0.02329790, 0.12409836, -0.02386464, -0.17379393, -0.06075152, 0.11397026, -0.00409083, -0.04028009, 0.07175866, 0.05942607, -0.12891245, 0.09276818, -0.12197658, 0.11279247, -0.43103650, 0.01588012},
      {-0.00721769, 0.10903341, 0.02013209, 0.06096926, 0.11292715, -0.02156091, 0.05919931, 0.01643518, 0.06459111, -0.12525783, 0.08704767, 0.13648832, 0.11145683, -0.08071604, -0.04612668, -0.12770894},
      {-0.22357509, 0.17797722, 0.09850967, -0.15959002, 0.11651433, -0.04966585, 0.24714170, 0.22551036, -0.05336140, -0.27765670, -0.02507172, 0.09750653, 0.02411897, -0.02672255, -0.02834294, 0.04459437},
      {-0.06099353, -0.09003045, 0.03423884, 0.04401036, -0.08748183, 0.04491159, 0.01091572, 0.06847195, 0.12145439, -0.04636875, -0.15662536, 0.09458781, 0.01977711, 0.16267563, -0.22940797, -0.24321711},
      {0.22986977, -0.14488581, -0.14156212, 0.05957039, -0.14368112, -0.04056928, 0.08923775, -0.22582394, -0.00823790, -0.08168912, 0.11211849, -0.22001135, -0.21909966, -0.11964593, -0.07634028, 0.14282368},
    },
  },
  {
    {
      {-0.08076364, -0.00468291, 0.02355753, -0.24327332, -0.09007689, 0.08591031, -0.23766962, 0.04147079, 0.04708523, 0.14945273, -0.08550093, 0.04067249, -0.13676581, -0.10304920, -0.06990982, 0.13489577},
      {0.10436226, -0.07618882, -0.05439772, 0.07179572, -0.06204921, -0.04961034, -0.37496191, 0.01277935, 0.04482502, -0.15694325, -0.08045946, 0.12089607, 0.03244424, -0.22108230, 0.18975399, 0.10590956},
      {0.03175668, 0.06725235, -0.00547753, -0.03634794, 0.09625168, -0.08927847, 0.12092461, 0.01724259, 0.01248426, -0.11120258, 0.01240875, -0.02440582, -0.00803952, 0.02315524, -0.12751248, 0.05392409},
      {0.14054367, 0.08040651, -0.06172356, -0.06128310, 0.14014140, -0.17283565, -0.21564136, -0.08951764, -0.13849165, -0.08942646, -0.10150594, 0.08548941, -0.03910955, -0.37398425, 0.19004481, -0.07642231},
      {0.05309959, -0.08985566, -0.09460583, 0.03368970, -0.18083374, 0.12000862, 0.00534546, -0.12984435, 0.07901481, -0.07543996, 0.19196981, -0.06788387, 0.07164471, -0.25112200, -0.24261108, 0.11238967},
      {-0.14568934, -0.10467307, 0.11270387, 0.06369786, 0.02922629, -0.03837201, 0.11245578, 0.07594954, -0.02454826, -0.00482950, 0.16771469, -0.11124330, 0.12859789, 0.20542011, -0.23702472, -0.06834125},
    },
    {
      {-0.05192498, 0.01634259, -0.03993461, -0.04570546, -0.12376625, 0.04234454, -0.03171157, 0.07791927, 0.01489501, 0.05881222, 0.17893411, -0.08305721, 0.13203663, -0.02988184, -0.08015665, 0.10557471},
      {0.16258913, -0.07779616, -0.02278088, 0.02425717, 0.13364986, -0.03610120, -0.41415671, -0.11964036, -0.16149415, -0.13271670, -0.20554417, -0.14413738, -0.17393444, -0.25191888, 0.11678600, -0.15499265},
      {0.16230941, -0.08602189, -0.00361762, -0.06678858, 0.11177777, 0.10417555, 0.15404399, 0.02758191, -0.09431190, -0.19296832, -0.16802208, 0.10063010, 0.08454968, 0.02073082, -0.17626815, 0.13362689},
      {-0.11936355, 0.17293274, -0.11804541, 0.05252213, 0.13006981, 0.16752610, -0.13261205, 0.07641289, -0.04614937, -0.17016751, -0.08516839, 0.04454562, -0.01673371, -0.07522567, 0.02592267, -0.22438739},
      {0.00107002, -0.13844346, -0.00619784, 0.16447411, -0.09194477, 0.13324812, 0.00295744, -0.13458338, -0.02853858, -0.27246451, 0.07986208, -0.15393752, -0.03869947, -0.16775493, -0.19974542, 0.09154201},
      {-0.05609716, -0.22978885, 0.20179330, -0.09018138, -0.18367714, -0.04724125, 0.01824819, -0.00010852, -0.02796862, -0.23606084, -0.01342121, 0.13083667, -0.07096573, -0.01525000, -0.29483929, 0.15745361},
    },
    {
      {0.11094792, 0.02591079, -0.00841820, 0.09565400, -0.11487684, 0.10132481, 0.05082998, -0.08955699, -0.00421123, -0.14230755, -0.05058515, -0.06645310, 0.10566720, 0.03034025, -0.06938852, 0.22752003},
      {0.03997951, -0.02588035, -0.06352560, -0.00952057, 0.00940561, -0.08046572, -0.23828967, 0.05156804, -0.22543299, -0.03687411, -0.20030406, -0.17274274, -0.29412267, -0.25206199, 0.11807159, -0.31219971},
      {-0.05919776, 0.06094074, -0.06058476, 0.01176185, 0.04520607, 0.05313990, 0.13545446, 0.00160351, 0.07124732, -0.22280398, -0.07890621, -0.04450618, -0.02547487, 0.07352788, 0.00082312, -0.00356314},
      {-0.14021729, 0.07741844, -0.11813328, 0.08177625, 0.13074671, 0.39986345, -0.05988529, 0.14107369, -0.01048788, -0.44543219, -0.08602793, 0.10175589, 0.04945873, 0.02749061, -0.32095268, 0.00596337},
      {0.09810632, -0.10805977, 0.01786980, 0.08423024, 0.05946930, 0.11639795, 0.08921425, 0.00507476, 0.09915554, -0.15932831, -0.29416567, -0.08611549, -0.03215528, -0.10108481, -0.25387213, -0.20565274},
      {0.04375314, -0.17133410, 0.28006709, -0.05445148, -0.16894567, -0.22147168, 0.01509799, 0.01858972, 0.12568690, 0.07637890, -0.22505334, 0.06085630, -0.20442176, -0.08095023, -0.22770368, 0.10347302},
    },
    {
      {0.05298531, 0.06931911, 0.17585249, 0.11914587, -0.13193476, -0.02057672, 0.00321819, -0.03522015, -0.04190159, -0.33689061, -0.18924226, 0.00891935, 0.08503629, 0.05065631, -0.12350883, 0.10965067},
      {-0.00731442, -0.11402032, -0.03781401, 0.03416696, 0.06030810, 0.07004023, -0.12075756, 0.02278518, -0.12937060, 0.14711060, 0.06525601, 0.04270532, -0.09823472, -0.23693284, 0.18617897, -0.02715218},
      {0.01804084, 0.10886295, -0.06396481, -0.11003111, 0.10953407, 0.17291674, -0.06174345, 0.00104599, 0.12707512, -0.02585251, -0.04074651, 0.05537758, 0.01490621, 0.13349070, -0.11755501, 0.00949849},
      {-0.03908745, 0.25783426, 0.02184078, -0.03475969, 0.14104557, 0.47867730, -0.01194593, 0.05723258, -0.06519541, -0.28920984, 0.01126052, 0.41650757, 0.03942320, 0.20296989, -0.34482941, 0.11270854},
      {0.09116504, 0.06276710, -0.06909573, -0.05397330, -0.03229344, 0.09969093, 0.06525292, 0.03856995, 0.05605110, -0.00900823, -0.11273847, 0.03211968, -0.03918477, 0.05756915, -0.15206933, -0.02251237},
      {0.06883167, -0.12877794, -0.04858770, 0.06633478, 0.03066137, -0.28253406, -0.16170523, -0.01865578, 0.10997345, 0.04664312, 0.12509784, -0.18657883, -0.24783787, 0.06594243, -0.14464219, -0.26666993},
    },
    {
      {0.00783269, -0.04052506, 0.04334679, -0.07032233, 0.06983241, 0.05834208, -0.04767000, 0.10540894, 0.03795348, -0.09548483, 0.01758632, 0.17076467, -0.04910579, 0.02298441, -0.33008409, -0.22491221},
      {-0.03363873, -0.03590951, 0.08405241, 0.00515958, 0.05557181, 0.15120873, -0.06816529, -0.09773614, -0.16455421, 0.19708861, 0.03046894, 0.13872133, 0.04246710, 0.06383637, 0.24518044, 0.10286576},
      {0.03930251, -0.02456850, -0.03929914, 0.07675863, 0.06724606, 0.00956310, -0.06782117, -0.12511702, 0.05274053, 0.13225648, 0.09735753, -0.03701713, 0.08528224, 0.04061606, -0.05918594, -0.10984617},
      {-0.04591954, 0.37220418, 0.04317733, -0.16587794, 0.00838821, 0.22567640, -0.03275808, 0.08927635, 0.02573528, 0.19994786, 0.08131029, 0.22206381, 0.02690601, 0.12115726, -0.41367590, 0.18947515},
      {0.10485250, 0.04994010, 0.06070667, 0.10791790, 0.14150037, 0.02218757, -0.00968321, 0.06452265, 0.01181132, -0.00200683, 0.00176441, 0.13869379, -0.08319677, 0.03118298, -0.04523977, -0.19619271},
      {0.06694628, -0.05828521, -0.02264020, -0.13383886, 0.02056476, -0.16152278, -0.05156267, -0.21352142, 0.12869863, -0.07535008, -0.03424207, -0.30257428, 0.01104905, 0.08457351, 0.03882624, -0.00361208},
    },
  },
  {
    {
      {0.09317207, -0.15703590, -0.13305958, -0.11111300, -0.03596042, -0.13057314, -0.09631000, 0.02807202, -0.01034532, 0.09276395, 0.02664589, 0.07930162, 0.08361344, 0.02547911, -0.10434197, 0.00815004},
      {-0.03280066, 0.10353904, 0.00904341, 0.08793986, -0.09227692, -0.03204009, -0.24622595, -0.04390678, -0.20791185, -0.01659186, -0.24026130, 0.13162422, -0.06380159, -0.06664455, 0.15662931, -0.27050093},
      {0.13950367, 0.01515217, 0.05108567, 0.08562692, -0.13608217, 0.02573290, 0.14510763, 0.03042915, -0.01775214, 0.01159843, -0.03580425, -0.06509262, 0.07660116, -0.16261488, -0.08759383, -0.02776612},
      {0.14852075, 0.18134512, -0.16364010, 0.17780131, 0.09339712, -0.18397233, -0.17873636, 0.03844129, -0.12485883, -0.01350924, -0.09660977, 0.02150194, -0.03120446, -0.32248586, 0.03844437, -0.10392506},
      {0.09581658, -0.05490680, 0.06769434, -0.01273165, 0.00889020, -0.09039532, -0.09216295, -0.00127391, 0.05725048, -0.04602012, 0.02498074, -0.11765563, -0.08592961, -0.13981688, -0.01908464, -0.12211790},
      {-0.15879315, -0.10035735, 0.15150782, 0.05164126, -0.11422765, -0.05462651, 0.21683162, -0.01424567, 0.01609389, -0.01812101, 0.01110655, -0.08385116, -0.06279721, 0.03535303, -0.06949358, 0.02079778},
    },
    {
      {0.16053633, -0.12563953, 0.05710092, -0.05949537, -0.13365896, -0.07831354, 0.05867736, -0.09035394, 0.07389041, -0.10328057, 0.06872568, -0.19006218, 0.06203888, 0.00496050, -0.15166631, 0.00933137},
      {0.06115031, 0.11195112, -0.02856504, -0.07283839, 0.07958607, -0.04887968, -0.31098792, -0.08074765, -0.21489786, -0.00595095, -0.10526301, -0.01818011, 0.08657047, 0.07995339, 0.23387447, -0.09264548},
      {0.01255197, -0.00929391, -0.08649163, 0.08989448, 0.10265110, 0.03570151, 0.05033708, -0.02430121, -0.00857594, -0.19943444, 0.09423156, -0.14867085, 0.01913809, 0.01139081, -0.00509938, -0.01733939},
      {0.20437039, 0.31759208, -0.26757604, -0.03388675, 0.12157241, -0.14314860, -0.03467891, 0.10869162, 0.00285494, -0.23690803, 0.23307548, -0.13290624, 0.01290034, -0.25100869, 0.16517740, 0.09702953},
      {0.13893580, -0.02628110, 0.03162844, -0.03182459, 0.04398701, -0.07810009, 0.06886642, 0.06450106, 0.00888102, -0.10827451, -0.16088389, -0.21351171, -0.08881057, -0.06099797, -0.07240266, -0.17004862},
      {0.04627006, -0.17090070, 0.05732429, 0.05772922, -0.12172595, 0.00505708, 0.13437851, 0.02975951, -0.07447077, -0.16432360, -0.16973846, -0.00482529, -0.16627426, 0.08196104, -0.23336253, 0.20589590},
    },
    {
      {0.13666978, -0.12642750, 0.13676649, 0.00921896, -0.08121370, -0.04800784, 0.16780341, -0.05727829, -0.05695336, -0.18249497, 0.05662446, -0.05614363, -0.04664861, -0.05399068, -0.13865432, -0.10526081},
      {-0.08541126, 0.08617453, 0.01282947, -0.08332098, 0.05848032, -0.13761194, 0.00799547, -0.08338372, -0.23988314, -0.02292344, 0.11476040, -0.00174168, 0.18464804, -0.12242228, 0.19022191, 0.03914946},
      {0.08761089, -0.22184645, 0.01068232, 0.03307849, 0.05667765, 0.07349701, -0.02241939, 0.08548220, 0.03642667, 0.00655908, -0.03885373, -0.07113470, 0.03034539, 0.03384067, -0.10514113, 0.01238542},
      {0.06976475, 0.10618985, -0.18150048, -0.21335754, 0.02625935, 0.11387990, 0.19789794, 0.05850332, 0.08926794, -0.37008995, 0.19151400, -0.05869102, 0.18166091, -0.14873122, -0.03780390, 0.09512939},
      {0.00563907, -0.14724527, -0.01898372, -0.00440494, 0.05104706, 0.04484199, -0.03437945, 0.08614995, 0.03938986, 0.12559985, -0.00540533, -0.18212715, 0.09866121, -0.13823073, 0.06106040, -0.00689006},
      {-0.11018723, -0.21166505, 0.12220909, -0.00648855, -0.19327429, 0.01639142, 0.12509148, 0.02079977, 0.00917378, 0.11962223, -0.09195163, 0.03193495, -0.09811119, 0.07166734, -0.09260731, -0.06998247},
    },
    {
      {0.11671164, -0.09972677, 0.12361616, 0.07402834, 0.00617622, 0.10346562, 0.08416322, 0.05785941, 0.05432936, -0.04795698, 0.01959080, 0.01289773, -0.09705836, 0.05783984, -0.20291238, 0.01280477},
      {-0.22560708, 0.05168997, 0.10490378, -0.06115068, -0.17613749, -0.06570494, 0.08221976, -0.02098918, -0.27189016, 0.01940839, -0.05054805, -0.21070081, -0.04523287, -0.04638534, 0.15214333, 0.18034969},
      {-0.16456400, -0.04687152, 0.14626026, 0.14284502, 0.00527783, 0.11851085, 0.10072009, 0.01685026, 0.03021732, -0.01624249, -0.11852369, 0.10170984, -0.02426858, 0.08740959, -0.03922759, 0.01801485},
      {-0.06258205, -0.07305170, 0.04025476, 0.02915017, -0.04767079, 0.14205557, -0.00242655, -0.02536969, 0.10618970, 0.05416960, -0.09895679, -0.01096806, 0.07034884, -0.14171597, -0.14572330, 0.13941687},
      {-0.03420298, -0.16934131, -0.04776048, -0.04001313, 0.08501665, 0.03409858, -0.03788587, 0.07802148, 0.07082090, 0.06862534, -0.06518946, -0.09137151, 0.02837030, -0.09665496, 0.11103386, -0.08787487},
      {0.05470947, 0.05150326, -0.11129737, -0.08207270, 0.09537026, -0.06805705, -0.09566638, 0.10769130, -0.07503628, 0.05736274, 0.14777572, 0.08777920, -0.03838474, 0.02646164, 0.04857007, -0.18364073},
    },
    {
      {0.07049763, -0.10051201, 0.00629349, 0.08137985, -0.02402200, 0.06197846, -0.09177050, -0.10441165, 0.10017564, 0.00410542, -0.10623749, 0.10858623, 0.07847054, 0.15197715, 0.00189546, -0.06960054},
      {-0.05117281, 0.01414695, 0.09720709, 0.06802782, -0.23152465, 0.08465306, -0.00421580, -0.04633671, -0.22516686, 0.17262791, -0.18890575, -0.11935231, 0.03846417, 0.00887901, 0.18819150, 0.12237298},
      {-0.06047368, -0.04060914, 0.01894772, 0.02319974, -0.02014420, -0.04792715, 0.02307699, 0.01554548, 0.13507791, -0.00085393, -0.04030877, 0.00875379, -0.01212637, -0.02492660, -0.10054855, -0.06628023},
      {-0.13779981, -0.14924824, 0.06517705, 0.19559765, 0.00517208, 0.16172892, -0.04838538, -0.03550677, -0.08996499, 0.20506875, 0.16781324, 0.14460644, -0.00909533, -0.10622271, 0.09461478, 0.08264856},
      {-0.09916971, -0.12874678, 0.01651588, 0.04145515, 0.06073011, -0.03931331, -0.05351911, -0.01928951, 0.08238153, 0.02566137, -0.03175877, -0.08756734, 0.03150297, -0.02643861, 0.07626432, 0.02247413},
      {-0.19953074, 0.01440371, -0.17541288, -0.08206360, 0.01395984, 0.04230389, 0.07367764, -0.02454140, 0.12783000, -0.03574692, 0.07730784, -0.18286185, -0.07780714, -0.01245609, -0.04934222, -0.01056140},
    },
  },
};
