#include "C:\Users\Baron\Desktop\EE_297_Repo\EE_297\vivado\lenet_proj\lenet_top.h"

float conv1_weights[5][5][1][6] = {
  {
    {0.12200646, -0.12962191, 0.00446374, -0.05272564, 0.02541041, -0.11957397},
    {0.12538709, -0.05198326, 0.17534146, -0.11322948, -0.06552928, -0.21040943},
    {0.06022794, -0.30437219, 0.02504834, -0.21327373, -0.09350522, -0.20174439},
    {0.22349612, -0.07532052, -0.12331862, -0.21128267, -0.27094373, 0.17115575},
    {-0.10121885, -0.09208677, 0.11034375, -0.12969805, -0.01886135, 0.22712488},
  },
  {
    {0.20312299, 0.00944286, -0.12521012, 0.22326846, -0.08388168, -0.03828992},
    {0.11558073, -0.23649143, -0.10335547, 0.30390316, 0.15323384, -0.14793807},
    {0.23758826, -0.37154609, -0.18570727, 0.01810176, -0.17070118, -0.12950550},
    {0.19498660, -0.30128145, -0.17844857, 0.06607332, -0.09377374, 0.15459146},
    {-0.10261221, -0.15234934, 0.23814319, -0.04173400, 0.15174174, 0.23890360},
  },
  {
    {0.30719471, 0.00298995, -0.01327125, -0.00674208, -0.20314866, -0.05484628},
    {0.18512043, 0.05589492, 0.04097585, 0.30606109, 0.09911004, -0.28033540},
    {-0.07907174, -0.00577387, 0.25597686, 0.26068911, 0.22652771, -0.10409370},
    {-0.15157497, -0.00097088, -0.08089782, 0.11440235, 0.26325935, -0.00563194},
    {-0.02321465, -0.11712021, -0.03368996, -0.00592728, 0.19319652, 0.25847721},
  },
  {
    {0.06768461, 0.12742479, 0.26171747, -0.19615364, 0.27022576, -0.25594699},
    {0.18295492, 0.08336022, 0.01772774, 0.09157787, 0.11800817, -0.07570107},
    {-0.01649237, 0.24688892, 0.16191253, 0.24335855, -0.00008962, 0.03003176},
    {-0.25371405, 0.15927659, 0.07149471, 0.04949687, 0.17532845, 0.09930151},
    {-0.32149202, 0.26161712, 0.03669089, 0.02774863, 0.13638505, 0.26507068},
  },
  {
    {-0.03517547, 0.24687260, -0.29447052, -0.31123206, 0.21756355, -0.25287277},
    {0.02067065, 0.00229427, -0.01402233, -0.27909011, -0.10971610, -0.05978798},
    {-0.07925104, 0.19801685, -0.13260397, -0.16955079, 0.09824246, 0.10124384},
    {0.02897901, 0.20778713, 0.14090206, 0.08506897, -0.09695294, 0.20983364},
    {-0.18998986, 0.15214144, -0.11521839, 0.00033197, 0.03291373, 0.05296062},
  },
};
