#include "C:\Users\Baron\Desktop\EE_297_Repo\EE_297\vivado\lenet_proj\lenet_top.h"

float fc1_biases[120] = {0.02352625, 0.01285473, -0.00728021, -0.01023100, 0.01287730, 0.01467800, 0.02840758, -0.02090105, -0.00806152, -0.00912173, -0.00087810, 0.01367249, 0.03710873, 0.01175339, -0.00238593, 0.00314057, 0.00368283, 0.01385264, -0.01458868, 0.02410781, -0.00117347, 0.03930040, -0.02846916, 0.04664639, -0.01801556, -0.00682023, -0.01958062, -0.01013348, -0.01606201, -0.01481044, -0.02626074, 0.01859060, -0.00566632, -0.01851976, -0.01339039, 0.00274251, -0.00978956, -0.02162540, 0.00265584, 0.00298691, -0.01303945, 0.01903430, 0.01378591, 0.03581534, 0.03950972, 0.03423347, 0.00902363, -0.01585227, 0.03132607, -0.00245381, 0.00705796, 0.03382731, 0.00011894, 0.04935864, -0.02167026, 0.00919785, -0.02972532, 0.04134713, -0.00736424, 0.04556046, 0.01462409, -0.01155865, 0.00186673, 0.03176828, 0.02055706, 0.03346804, 0.03627883, -0.01845845, 0.01078534, -0.02682890, -0.01684383, 0.02634219, 0.03067884, 0.00749093, -0.00392655, 0.04982638, -0.00384081, -0.01146170, -0.02237911, 0.02716490, 0.04766401, 0.03590594, 0.02335297, 0.02654901, 0.02809612, 0.01494076, -0.02020283, -0.01544391, -0.00549167, 0.03564280, 0.01900794, 0.03787411, 0.03362254, 0.01651750, -0.03585582, -0.01279022, -0.01533834, -0.03351558, -0.00147631, -0.02087953, -0.02603868, -0.01725885, 0.03916347, 0.00905130, -0.00546393, -0.01543460, 0.05235507, -0.02347262, 0.01345653, -0.02285765, 0.01238710, 0.04764673, -0.00832988, -0.00622272, -0.00654006, -0.00260436, 0.02170644, 0.00195296, -0.00486919, 0.02765585};
