#include "C:\Users\Baron\Desktop\EE_297_Repo\EE_297\vivado\lenet_proj\lenet_top.h"

float fc2_biases[84] = {0.01060092, 0.00723130, 0.03904375, 0.02487461, 0.02209386, 0.03217300, -0.01865483, 0.00650184, 0.03691243, -0.00302679, 0.04062876, 0.03815170, -0.01750781, -0.01031033, 0.07022925, 0.03466945, 0.02416221, 0.01563440, -0.01015371, 0.03800901, -0.02752754, 0.03915425, 0.01311538, 0.03348059, 0.00249563, 0.00961574, 0.03479423, 0.01774396, 0.02976553, -0.00124620, -0.05794446, 0.00771522, 0.03055758, 0.01358142, -0.00409628, 0.00763834, -0.04886415, 0.01754335, -0.00633393, 0.03131881, 0.02944464, 0.00970297, 0.02137812, -0.01710732, -0.02869227, -0.00445917, -0.02998608, 0.02859618, -0.00967391, 0.02519134, 0.02431833, 0.03381012, -0.01853413, -0.03356053, 0.05141604, -0.00089672, 0.05280669, 0.01869473, -0.00942094, -0.00536504, 0.00333359, -0.03030432, 0.02837808, 0.01073742, -0.00751735, 0.01368918, -0.00768976, -0.01875030, -0.02614124, 0.05412877, 0.02058670, -0.01850410, 0.03676616, 0.06470057, -0.03283054, 0.03273867, -0.02201647, 0.05898795, -0.04451396, -0.00893197, 0.02081069, 0.00437155, 0.02693078, -0.03751938};
