#include "C:\Users\Baron\Desktop\EE_297_Repo\EE_297\vivado\lenet_proj\lenet_top.h"

float fc2_weights[120][84] = {
  {0.16710466, 0.16998547, -0.12493069, -0.15668744, -0.09903888, -0.00059556, 0.04300193, 0.04731333, 0.06577365, 0.18580803, -0.19120333, 0.21548137, 0.08137359, -0.11469103, -0.04114935, -0.10990667, 0.09808587, 0.24478769, 0.00246039, 0.21867932, 0.10166717, 0.04733013, -0.22515427, -0.10515078, 0.20950292, 0.27851206, -0.10957175, -0.08060150, -0.09965370, -0.23259644, -0.19254419, -0.01788632, -0.17410935, -0.15910070, -0.20773216, -0.09232638, -0.27661863, 0.19531344, 0.03483028, 0.19318645, 0.24316590, -0.11387965, -0.26777521, 0.00350537, 0.05122240, 0.00499594, -0.06166423, -0.19226480, 0.17455237, -0.24106330, -0.20431826, -0.05709929, 0.00996966, 0.11053949, -0.09836909, -0.03865978, -0.11327449, 0.24238753, 0.17215492, 0.02944481, 0.15133992, -0.12361848, -0.09452941, 0.00339015, -0.06159985, -0.10198203, 0.07139647, 0.11602789, 0.12743032, -0.02128299, 0.20918663, -0.11414091, 0.02750603, -0.21035060, 0.24002370, -0.06033460, 0.22966385, 0.05057313, -0.25645959, 0.20724614, 0.07126404, 0.12574683, 0.11622145, 0.09572065},
  {0.05815303, 0.08714862, -0.02259954, 0.11801666, -0.02085472, -0.23679474, -0.01591827, -0.15727219, -0.05295826, -0.18774544, 0.18387286, 0.18477754, -0.28893980, -0.13429646, 0.09571710, -0.13198373, 0.00640629, 0.14929067, 0.18153517, -0.09351149, -0.22926185, 0.10866822, 0.13035984, 0.05314022, 0.08551526, 0.15907273, -0.04072897, 0.04866861, 0.16534558, -0.19527638, -0.06679789, 0.17800732, -0.07165180, -0.00324244, 0.14043933, 0.13690221, -0.03106364, 0.15626822, -0.16447161, 0.08063035, 0.13428310, 0.04928439, -0.02967423, -0.15709339, 0.07201925, 0.09373850, -0.15617666, -0.00123044, 0.07368790, -0.09703342, 0.19331984, -0.24033268, 0.02741237, 0.04093432, -0.03381817, -0.03824876, -0.10616836, -0.00508105, -0.21768169, -0.09073538, 0.25685129, -0.04760204, -0.23139463, 0.07071606, 0.13372612, 0.05732023, -0.13315879, 0.19840401, -0.14150156, -0.01274082, -0.05193536, -0.11086214, 0.05087323, -0.03904348, -0.17022699, 0.03702892, -0.07051446, 0.09642383, -0.02311070, -0.14962730, 0.01361900, 0.14360930, -0.02908359, 0.10373390},
  {0.17278180, 0.10562636, 0.05961509, 0.00739307, 0.06094260, 0.04316432, -0.15238540, -0.07391012, -0.10664799, -0.01528561, 0.00630622, 0.09516677, 0.06543591, 0.01145933, 0.11596303, 0.02578533, -0.19399583, 0.18903054, -0.10011344, -0.14612098, -0.03585267, -0.14226618, -0.00291027, -0.12644073, 0.09212185, -0.03074372, 0.03466620, -0.11501672, 0.13126805, -0.07970119, 0.13032995, 0.14997981, 0.12457360, 0.01940977, -0.13141024, 0.18636556, 0.12122396, 0.03673353, -0.17415465, 0.16374497, 0.08758017, -0.12076999, 0.08088768, 0.01393595, 0.00412874, 0.05205096, -0.09786452, 0.09214111, -0.00161929, -0.03435093, -0.12510107, 0.04028717, 0.08239499, -0.06671465, -0.14226699, 0.04464827, -0.18353152, 0.10746416, -0.07524478, -0.11332810, 0.13186678, 0.06384104, 0.09029988, 0.13172498, -0.05013824, -0.26291835, -0.16045363, 0.07646595, 0.03234684, 0.07199016, -0.12715569, -0.06479768, 0.17600483, -0.10839733, -0.19576837, -0.12086450, -0.15091053, -0.06449395, -0.09742320, 0.07659446, -0.02816649, 0.15097144, 0.13686277, -0.15916590},
  {0.14361268, 0.02563559, 0.03008992, 0.12816483, -0.06574384, -0.13715249, -0.09264174, 0.16683483, 0.11999366, 0.11992373, -0.10432956, 0.02237449, 0.08728547, -0.08100296, 0.11388536, -0.01142666, -0.03146002, 0.00097938, -0.05815068, 0.00962269, 0.12910663, 0.08596666, -0.10207845, 0.05227901, 0.10251448, 0.04719713, -0.00373795, 0.06830893, -0.12793790, -0.12885720, 0.09265532, -0.10162921, 0.05283489, -0.09148154, 0.14218935, -0.08236693, -0.06712942, 0.10523785, 0.15070398, 0.17116243, 0.06259082, -0.02344227, 0.00617937, 0.06497101, 0.14520581, 0.10458404, 0.02586642, 0.01491024, 0.01331536, 0.05539208, 0.07105270, -0.05601010, 0.09905986, -0.03623261, 0.07878889, -0.02335598, -0.16399936, -0.02417646, -0.13319615, 0.03023894, -0.11409273, -0.08022324, 0.07814182, -0.00175332, -0.05793211, -0.13246903, -0.05105332, 0.14731878, -0.09567042, 0.05800726, -0.07292034, -0.12849149, 0.08026199, 0.13677166, -0.10824431, -0.10059349, 0.01511253, 0.14667036, -0.09150094, -0.01497371, -0.07616322, -0.11355186, 0.07070538, -0.15050820},
  {0.09489921, 0.08398898, 0.04701985, 0.05027097, 0.20497636, -0.13539590, -0.11585679, 0.14899690, -0.00568490, -0.07023621, 0.16451402, -0.02232592, -0.13748863, 0.04867640, 0.18790357, -0.11777935, 0.04322201, -0.04017784, 0.05176556, -0.08550888, 0.14582548, 0.06726730, 0.12029915, 0.00378890, 0.16465211, 0.10281004, 0.14353263, -0.22117777, 0.18227689, -0.12047594, -0.01742725, 0.16242872, 0.09271374, 0.03051109, 0.10196546, 0.09687714, 0.13022274, -0.23453018, -0.14649488, -0.03081375, -0.03606047, 0.08337839, 0.19702241, -0.12180553, -0.18611617, 0.01821429, 0.07915214, 0.01406912, -0.07094922, -0.09809167, -0.11607039, 0.19888653, 0.10036799, 0.04144383, 0.21348669, 0.13191319, -0.12029904, 0.05628082, 0.14751112, 0.16712369, -0.01493237, -0.05369674, -0.17626441, -0.03201196, -0.08736711, 0.00245720, 0.07905836, 0.09763470, -0.15114976, 0.02354041, 0.11585019, 0.16358872, 0.16358761, -0.15913485, 0.00821973, -0.07345810, -0.14910100, 0.08048749, -0.19218950, -0.04728287, 0.13119331, 0.02944824, 0.00643306, 0.01299100},
  {0.07024200, -0.07283539, -0.00978769, -0.22390389, 0.17484890, -0.18344525, 0.09629805, 0.04946064, -0.09370241, -0.01973989, 0.15812913, -0.05228824, -0.00703844, -0.14050740, -0.01723916, -0.03060837, 0.09885807, -0.21865013, 0.20330521, 0.03548377, 0.28308856, -0.10219042, -0.00216221, -0.09646983, 0.01904657, 0.10749624, 0.15976237, -0.05000261, -0.01967117, 0.12661377, -0.10659673, 0.21197687, 0.06662671, 0.17981319, -0.22622743, -0.01952082, -0.23031233, 0.10622039, -0.01114082, 0.02306977, 0.13184388, 0.01173291, 0.03208727, -0.08917927, -0.13798608, -0.29980797, -0.07763585, -0.26098874, 0.07170300, 0.10895922, 0.18003805, 0.23276921, 0.17088085, 0.00752509, 0.03809141, -0.13199939, 0.07564377, -0.02255318, 0.02156294, 0.04480211, -0.10832693, 0.05868518, -0.20532320, 0.04140946, 0.01181256, -0.09055979, -0.12201221, 0.06428802, -0.06791679, 0.02474283, 0.04466309, 0.01225122, 0.19196637, -0.18345812, 0.09858329, -0.05669660, 0.24869204, 0.09894113, 0.05389152, -0.12007737, 0.14971881, 0.12071493, -0.15213390, -0.13858686},
  {0.08621264, -0.28652325, 0.11475865, 0.07879068, -0.15983079, 0.04652942, -0.05213656, 0.20742171, 0.05266680, 0.21630324, 0.10833186, 0.13962127, -0.09818873, -0.15123828, 0.11453947, -0.00674920, -0.05577048, -0.04812073, 0.07210436, 0.03024754, 0.06296823, -0.06139624, -0.15711793, -0.18854097, -0.08197971, 0.06031427, -0.07356199, 0.01854167, 0.11543748, -0.07231104, 0.18580937, -0.15782297, 0.11521779, 0.03230797, -0.16018395, -0.24915303, 0.01440594, 0.04985535, -0.03346406, 0.08775169, 0.07909039, -0.01379285, 0.17136657, -0.07999579, 0.06058396, 0.01992480, -0.00180609, 0.03902998, -0.00523319, -0.09731270, -0.11586965, -0.01042068, 0.00813092, -0.09351309, 0.00661512, -0.02211721, -0.09726339, 0.23128220, 0.04397427, -0.11344882, -0.12259931, -0.15227075, 0.23708449, -0.18113910, -0.26060170, -0.33222920, -0.15411611, -0.15008755, -0.05239114, 0.11242209, -0.20778993, -0.13114209, 0.23878159, 0.11575518, 0.12020168, 0.02901020, -0.05102847, 0.05244619, -0.16647232, 0.06720060, -0.12182192, 0.08446375, 0.23601706, 0.04691152},
  {-0.09504981, -0.08879401, -0.09766915, -0.05690339, 0.03311709, 0.14977418, -0.02366632, -0.14411980, 0.02595085, 0.09323522, -0.10477427, -0.07723291, 0.01102424, -0.14107472, 0.13400939, -0.04252319, 0.04164726, -0.02741427, 0.04733659, -0.05648029, -0.10552870, 0.11593545, -0.15426853, -0.07119536, 0.11523537, 0.02279374, -0.10836747, -0.11767009, -0.05292474, 0.08852783, 0.15892760, 0.08520753, 0.16083260, 0.10211577, 0.12482555, 0.15097260, 0.14665577, -0.13104594, 0.13628651, 0.08301694, 0.15993573, 0.05765679, -0.04723381, 0.13666113, 0.15511097, -0.15038013, 0.02758984, -0.13745521, 0.01538420, -0.01829859, 0.06012798, -0.17253672, 0.08940789, 0.11153241, -0.08827070, 0.16288839, 0.14206715, -0.05726903, 0.04510933, -0.04061729, -0.12200046, 0.11877890, -0.15936039, 0.05936859, 0.14637437, 0.11704372, -0.06253202, 0.10350491, -0.14326338, 0.07213761, 0.09755051, -0.13963000, -0.13848446, 0.06587073, -0.05605011, 0.00313068, -0.09996755, -0.07333240, 0.03009966, -0.05136484, 0.13331726, -0.10697288, -0.15214126, -0.11346807},
  {0.19040059, 0.13795970, -0.08171190, -0.04334275, 0.13783924, -0.10667473, 0.09830627, -0.14704770, -0.07574702, -0.06493848, -0.04788272, -0.08790834, -0.12867606, -0.15906836, -0.17431773, 0.08164755, 0.00711508, 0.08152873, -0.09369573, 0.00169147, 0.08988980, 0.11334722, 0.17721485, 0.10779237, 0.14850332, 0.05315939, 0.09103800, -0.06989690, -0.08816308, 0.06838543, -0.13457355, 0.10846812, -0.11249541, 0.09816513, 0.24627598, 0.09005012, 0.12203619, -0.14662810, -0.10897909, -0.04786868, 0.08599778, 0.08657440, -0.04986826, 0.02977645, 0.05485639, 0.15540402, -0.10532126, 0.15355244, -0.00778985, -0.04495195, 0.17199688, -0.13743325, 0.04328969, -0.00693732, -0.14513204, 0.04601937, -0.07501113, -0.22275312, 0.05416514, -0.09534381, 0.00274627, -0.10375389, 0.11865441, 0.11492162, 0.15868530, 0.10016062, -0.05150534, -0.01821844, -0.04530658, -0.01578791, 0.20270148, 0.14001344, 0.12035961, -0.11354440, -0.23238727, -0.06359904, -0.10016176, 0.04446786, 0.14124312, 0.11286034, 0.10265696, 0.06899711, 0.15901750, 0.10641041},
  {-0.08192310, -0.16231495, 0.05735112, 0.12122230, -0.05760841, -0.11588080, -0.10456347, -0.14836980, -0.08896855, -0.02682765, -0.08863723, 0.06439111, 0.04560610, -0.11931350, -0.08010965, -0.02933136, -0.02825869, -0.10497452, -0.14506538, -0.15575507, 0.10611052, 0.04277351, -0.11302945, 0.15836927, 0.09017645, 0.14387700, 0.01273761, 0.08363724, 0.09496933, 0.16427077, 0.02547440, -0.11295967, -0.07557913, 0.11344583, -0.11518084, 0.12133286, 0.00216290, 0.00620117, -0.10972865, -0.10239512, -0.00398564, 0.07148280, 0.08745372, 0.03311999, -0.10395896, -0.04634465, -0.13981207, 0.15108879, -0.00799790, -0.08408415, 0.06650333, -0.09608406, -0.11679170, -0.03547952, -0.06917403, -0.01833820, 0.09390901, -0.09760928, -0.14377694, -0.01287395, 0.13104849, 0.00801712, 0.02871866, 0.14702822, -0.01867244, -0.02436403, 0.08065029, 0.04861420, -0.01586318, -0.12021689, -0.11198874, -0.02373500, 0.15424733, -0.05905920, -0.01256221, 0.05246792, 0.05141399, 0.12129743, 0.08847523, 0.11152331, 0.02405208, -0.03023892, -0.11359215, 0.01706370},
  {-0.20090963, -0.42972365, 0.24344751, -0.11708499, -0.06053079, -0.05463902, -0.04305580, 0.12463683, 0.19844930, 0.22104222, -0.00668157, 0.13318889, 0.50910515, -0.04584220, 0.03856878, 0.03168833, 0.01020071, 0.05921032, -0.15212215, -0.16021536, 0.13238704, -0.03586591, 0.02121877, -0.23110470, -0.00101835, -0.13707773, -0.15661922, 0.09117671, 0.12247566, 0.10552692, -0.14562078, -0.02510081, -0.13478640, 0.03400623, 0.09987324, -0.18377620, -0.03266712, 0.17272282, -0.07133240, 0.00142296, -0.14682364, -0.13248447, -0.01519298, -0.16384627, 0.13196234, 0.10589804, 0.24707751, 0.06872890, 0.03207415, -0.13693590, -0.18735300, 0.01916258, 0.09144836, 0.03876679, -0.14832331, -0.22364074, 0.21337038, -0.05869758, 0.23297507, -0.11550711, -0.31743234, -0.16727373, 0.03422043, 0.00611422, -0.11850094, 0.00948603, 0.04824290, 0.17380787, 0.11345234, 0.04620449, -0.10607142, -0.20023316, 0.26154053, 0.21240556, 0.13277587, -0.13558252, -0.14801213, -0.10274734, -0.04720834, -0.05902281, -0.15658003, 0.22746474, 0.08677244, 0.06270561},
  {0.20542631, -0.03486154, 0.17205836, 0.20901959, 0.20209177, -0.09260574, -0.03435004, -0.12693572, 0.00232320, -0.11019713, 0.09356537, -0.11123089, 0.14671175, -0.10131904, -0.03353659, -0.01430527, -0.06093752, -0.26462135, -0.13227707, -0.13530733, 0.17469330, 0.14218549, -0.07276393, 0.07097212, -0.10496415, -0.01912488, 0.10875832, -0.24208924, 0.13495843, -0.17479102, -0.01175177, 0.17573203, -0.01019730, -0.12486751, -0.10347887, 0.12955587, 0.02664094, -0.00830918, -0.19014452, 0.02838700, 0.07354164, -0.17421876, 0.10628083, -0.02347814, -0.03705794, -0.05569110, -0.06071432, -0.09500358, 0.20073180, 0.08804572, -0.12632218, 0.01707530, 0.01645773, -0.12396912, -0.00517146, -0.14850846, 0.12276663, 0.07216296, -0.13645260, -0.14780898, -0.08313571, -0.09517425, 0.01288746, -0.02524333, 0.09844439, 0.15580031, 0.13663992, 0.17076617, -0.22044212, 0.03347712, -0.09087277, -0.25780669, -0.04057524, 0.20008525, -0.13701718, -0.07039455, 0.12680225, -0.09602897, 0.06443604, -0.05815924, -0.05458641, 0.15822840, 0.05257273, 0.00277537},
  {-0.11725075, 0.02626925, 0.02756417, 0.11594547, -0.16192938, 0.10138457, -0.15235326, 0.15296999, -0.02364424, -0.03643896, -0.14446677, -0.22599372, -0.10656984, 0.07004385, 0.20214777, 0.16039960, 0.15365125, -0.05035274, -0.07818699, -0.04189448, 0.13340798, -0.08113918, -0.09439918, -0.01416200, 0.21096222, 0.06462461, 0.07877982, 0.01821302, -0.05659474, 0.16829740, 0.04789050, -0.12560298, -0.07980634, -0.11527655, -0.17927918, -0.19534102, 0.00111435, -0.11945340, -0.17964837, 0.18999702, 0.17547056, 0.19991669, 0.11249579, 0.06361017, -0.15808807, -0.24287130, -0.06487443, -0.05078668, -0.15231588, -0.07587440, 0.13934685, 0.24991788, -0.14256564, 0.05157762, 0.17479254, 0.08559709, -0.10986144, -0.10903247, -0.08257295, -0.11096023, -0.02283094, 0.10717975, 0.16904430, 0.01009865, -0.18120678, -0.18554059, -0.05713885, 0.11213508, 0.11889581, 0.05549240, 0.00970706, 0.05615631, -0.15578488, 0.11415159, 0.05572763, 0.14365624, 0.18149279, 0.19729209, -0.02311606, 0.04923578, -0.00400791, -0.10259011, 0.14249632, 0.08529717},
  {-0.12279627, -0.09771977, 0.05672501, -0.04697867, -0.09508628, 0.18870713, -0.17094132, 0.00141362, -0.14385033, 0.07449892, 0.02256081, -0.03156217, -0.14400017, 0.00207335, 0.11311610, 0.01444644, -0.08415945, 0.22019845, -0.15510906, 0.13338482, -0.11856874, -0.08858014, 0.12900469, 0.23295416, -0.15561607, -0.03014038, 0.06391146, -0.09408400, -0.16451961, -0.09520917, 0.00720317, 0.08212022, 0.06408369, -0.22561666, 0.03244665, 0.11456800, -0.09224888, -0.17635395, 0.09879582, 0.14258873, -0.03283198, 0.05717018, 0.16413587, -0.14142676, -0.02964843, 0.07149458, -0.13962443, 0.27831650, -0.20233984, 0.04123445, -0.02126957, -0.00097775, 0.14680429, -0.12199669, -0.01010882, 0.16855541, -0.06547519, -0.10005842, -0.05194547, -0.00568746, 0.05246812, -0.14681993, 0.09972943, 0.09123168, 0.18681984, 0.00127463, -0.07306521, 0.09806600, -0.10516560, 0.17954277, -0.01669100, 0.16520080, 0.12202272, 0.04016542, 0.06318895, -0.16237094, 0.13093150, 0.15113914, 0.18905868, -0.09674404, 0.05607316, -0.27176252, 0.11199251, 0.00210575},
  {0.18180656, -0.13978446, -0.14679128, 0.13902058, 0.02043957, -0.10289614, 0.06380688, 0.07810114, -0.03077978, 0.09837507, -0.13923052, 0.03082572, -0.10564037, -0.18965326, 0.18349020, 0.09206659, -0.18430279, -0.00839137, 0.07108274, 0.13045269, 0.06536674, 0.11146622, -0.15965164, -0.03785833, -0.15079705, 0.17661792, 0.15191951, -0.13002284, 0.06317021, 0.08547143, -0.05411033, 0.11813325, 0.05251214, 0.03945626, -0.07038812, -0.06215415, 0.09859865, -0.06438880, 0.15149163, 0.04232318, 0.09142622, -0.07236392, 0.14261048, 0.06802050, -0.17357513, 0.03008788, 0.02471190, 0.20607968, 0.12422463, 0.05499524, -0.07521088, 0.12337403, -0.16727519, -0.07633770, 0.05205071, 0.16174331, 0.09152438, 0.10185278, 0.20947458, -0.04200453, -0.08961068, -0.13757072, 0.01116606, 0.12803769, 0.10437068, 0.11761088, -0.13959110, -0.09897278, -0.06357344, -0.13354443, 0.14142549, -0.01946428, -0.10859206, -0.01073471, -0.04614130, 0.00141068, 0.03424577, 0.07498058, -0.11553019, 0.11739474, -0.02282156, -0.02576040, 0.16002446, 0.10882898},
  {0.06460726, 0.03211863, -0.09166154, 0.19880390, -0.06774390, 0.15927666, 0.05242601, 0.07937481, 0.14997084, 0.19617021, 0.08046197, -0.12188014, -0.04193411, 0.12666772, 0.22944589, 0.08177563, -0.09116372, 0.07972641, 0.17588659, -0.14323804, 0.19954295, 0.06646144, 0.13821527, -0.15263225, -0.13503070, 0.22608888, 0.02589978, -0.03094693, -0.14967717, 0.22859268, 0.11522163, 0.11873892, 0.22001745, 0.07652206, -0.09609853, -0.17548978, 0.13852279, 0.05678982, -0.05741871, -0.03445855, 0.21727373, -0.05482050, 0.04085462, -0.16781281, -0.11390606, 0.01344053, 0.08347478, 0.02220080, -0.02561256, 0.17464909, -0.16872253, -0.06792087, -0.18352358, 0.06668790, 0.01115191, 0.04729899, 0.10617554, -0.03150536, -0.03914170, -0.01574957, -0.06846576, -0.11444514, -0.01689420, 0.08589932, -0.32490930, 0.04623531, -0.07509208, -0.07075990, -0.21150631, -0.12161590, -0.04364958, 0.02561924, -0.05289440, -0.02786880, -0.05677296, -0.02814594, -0.24318546, -0.07381018, -0.04928229, 0.16402303, -0.20444067, -0.07972003, -0.11646741, -0.18912566},
  {-0.08719501, -0.08907082, -0.20058194, 0.08086467, -0.07352512, -0.16366945, 0.01664574, -0.13532522, 0.11562920, 0.17873080, -0.00633584, 0.07086895, -0.02478633, -0.13771465, -0.11071720, -0.22251333, 0.16202840, -0.05393966, -0.22379778, -0.06016203, -0.02298535, -0.01200909, 0.10103273, 0.08130581, 0.12623566, -0.20189551, -0.12134313, 0.08854491, 0.07105774, -0.04607236, -0.07599123, -0.08709972, 0.07995535, 0.18986183, -0.06282048, 0.10903727, -0.07191969, 0.21612038, -0.08101059, 0.18604131, -0.08457247, 0.04562408, -0.00486169, 0.12548205, -0.09186345, -0.19767809, 0.05082334, 0.10763177, -0.18047979, -0.16218853, -0.07584003, -0.18264596, 0.21525739, -0.17589813, -0.12805445, 0.15490749, -0.09715233, 0.12301194, 0.09648752, 0.05825714, -0.13919576, 0.00013631, -0.01015786, 0.24116899, -0.02418667, 0.07845198, -0.03642334, 0.01929368, 0.05159135, -0.07953295, -0.01424587, 0.11706433, 0.21978317, -0.08985811, -0.02149076, -0.20829563, -0.14676394, 0.14216660, -0.13830359, 0.13937430, 0.08087318, 0.11572891, -0.08579932, 0.05721689},
  {-0.06402884, 0.08190056, 0.13552822, -0.21716414, -0.12985101, 0.16429259, -0.05893593, 0.14349906, 0.21421483, 0.09092849, 0.06770971, 0.03293374, 0.22357987, 0.09934421, 0.03962805, -0.06688951, -0.05844449, -0.13697276, 0.14961801, -0.06310557, 0.15346697, 0.02803108, -0.07129014, -0.10405754, 0.20441847, 0.01675737, 0.07688527, -0.09626961, -0.07898667, 0.14991538, -0.04200964, -0.14650998, -0.19498207, 0.14249104, -0.18080275, 0.14018254, -0.29291466, 0.12021326, 0.05076173, -0.01401168, 0.15775646, -0.00998109, -0.01311547, -0.09157875, -0.02415827, -0.21896432, 0.14902680, -0.08953478, 0.04610742, -0.16297705, -0.18057217, 0.00228590, 0.09187876, 0.06753334, 0.12692966, -0.16677234, 0.08801814, -0.10561088, 0.12002555, 0.00756659, -0.17891036, -0.06061252, 0.06165381, 0.14027637, 0.15873149, 0.20685792, -0.15683639, 0.15224852, -0.19520292, -0.02533248, 0.07985122, -0.04463262, 0.21414068, 0.14200442, -0.06255776, 0.01810298, 0.14175513, 0.00823466, -0.06841803, 0.14843118, 0.05347378, 0.13967797, -0.20757008, -0.17337221},
  {0.03309721, -0.13617380, 0.09505807, 0.15207662, -0.04630344, 0.05579542, 0.07756802, -0.17276792, -0.15014698, 0.06067250, -0.06915615, -0.08792176, -0.04258073, -0.12856847, 0.08033163, -0.12110087, 0.08179070, -0.12166056, 0.12635873, -0.03991695, 0.04923443, 0.16250697, -0.11044166, -0.05836689, 0.07048275, -0.15046386, 0.03287288, -0.02028223, 0.03410343, 0.01657945, -0.06900109, -0.10223172, -0.08046447, 0.05767472, -0.04717634, 0.07538085, -0.13193387, -0.05904845, 0.10351699, -0.10482186, 0.11794571, -0.10274540, -0.15714024, 0.16756780, 0.08801939, 0.10734493, -0.05395686, -0.01516447, -0.14359434, -0.10791351, -0.18460013, 0.04380583, 0.05209604, 0.00806423, -0.17456464, 0.13709950, -0.12146059, 0.11996119, -0.10661401, -0.06941752, 0.01619659, -0.10435285, -0.04527608, 0.18002757, -0.08337121, 0.16135885, 0.09557025, -0.10891869, 0.05603797, 0.06061988, 0.02211614, -0.16213544, -0.09953877, -0.03141234, 0.10291424, 0.07728315, 0.06048708, -0.07252020, -0.04024785, -0.06034375, 0.15925729, -0.08243079, 0.16358919, 0.08384489},
  {-0.00750839, 0.12897372, -0.09930300, -0.00457898, 0.11349425, -0.09919906, 0.07687841, -0.02378476, 0.16503139, -0.11489275, 0.11958783, 0.07106317, 0.07959894, -0.06844237, 0.19513400, 0.10891911, 0.10039015, 0.11757433, 0.00642266, 0.01932451, 0.05653213, 0.16858430, 0.19582123, -0.01510990, -0.33685356, -0.01396426, 0.12489630, -0.23663726, 0.00036233, 0.02476181, -0.20494039, -0.03015570, 0.06112895, 0.17898931, -0.06153434, -0.09127972, -0.01960647, -0.13870189, 0.00406070, -0.11184232, 0.21337870, -0.11090140, -0.20932472, 0.15510018, 0.06067947, 0.01263437, 0.02833061, 0.02824262, -0.04142006, 0.12298056, 0.06243768, 0.12894846, 0.11397649, -0.13852157, -0.03814174, 0.03686636, 0.09465613, -0.12032847, -0.24533042, -0.01517701, -0.13192599, -0.06149133, -0.10762195, -0.22730953, 0.07741425, 0.22872436, -0.17535168, -0.17998396, 0.05732807, -0.07101747, 0.04598134, 0.12521106, 0.19068475, 0.14110579, 0.07498018, 0.08552890, 0.07627533, -0.10400563, -0.23861307, -0.06881480, -0.13583489, 0.03020547, -0.19327219, -0.04302090},
  {0.18819201, -0.02885495, 0.13502528, -0.11452362, 0.15675279, -0.09140947, -0.16289559, 0.14177477, 0.15762401, -0.08432055, 0.13164626, 0.02688644, 0.14615738, -0.16131152, -0.17140317, 0.08774898, -0.08037050, -0.14328724, -0.02522382, 0.01471253, -0.01403986, 0.11055771, 0.00794727, 0.10618714, 0.16494854, 0.04244735, -0.13367578, -0.19095851, 0.16802201, 0.15129417, -0.16688299, 0.17767942, 0.03751118, 0.10337273, -0.09768131, 0.14731386, 0.10673979, 0.12329969, -0.07552594, -0.16678764, -0.03653549, 0.08461689, -0.11037961, 0.03033407, 0.03669355, 0.09230488, -0.15618840, 0.15934122, 0.12018775, -0.16888852, -0.00223560, 0.04057429, -0.04409924, -0.06993566, -0.00776215, 0.15086839, 0.05429346, -0.10485026, -0.09489065, 0.03318796, 0.17710620, -0.16208708, 0.12702797, -0.06449364, -0.09712125, 0.06712519, 0.02841707, -0.07006054, 0.08420890, -0.11302035, 0.01253800, 0.09519666, 0.03583101, 0.18618977, -0.17981531, 0.07620402, 0.16750441, 0.12564628, 0.02070531, 0.03059474, 0.19729817, 0.09728070, -0.09371738, -0.11533275},
  {0.02708319, -0.14840463, -0.18347576, 0.18928348, 0.12389856, 0.12554285, -0.16411063, -0.01925064, 0.01914754, -0.13781941, 0.14114559, 0.06528799, 0.14526108, 0.14661761, 0.02524980, -0.01622983, 0.15635465, -0.03256945, -0.15620656, 0.17314219, -0.08497722, -0.00422526, -0.10897399, 0.14226952, 0.13128310, -0.17727789, 0.15582474, 0.07681999, 0.14850451, -0.06083158, -0.06339584, 0.16869006, 0.07455452, 0.14259371, 0.08565029, -0.14088559, -0.21897747, -0.16082290, -0.14548965, 0.11225326, 0.10382156, -0.07139377, 0.15572028, -0.01724685, -0.01937341, 0.02331712, 0.01992411, 0.10302019, 0.13034192, -0.12811251, 0.06891244, 0.14572814, 0.07402375, -0.18062076, -0.09909650, -0.09234543, -0.02170998, 0.03393212, -0.02922803, 0.18375424, 0.14221475, 0.03704303, 0.04545154, -0.07611135, 0.17953523, 0.05812241, -0.06292833, -0.08741481, 0.07286627, 0.02787761, -0.13735749, 0.08150262, -0.00148351, -0.05029085, 0.20371458, 0.18316063, 0.15018807, 0.10100128, -0.10618223, -0.02004540, 0.17910950, 0.13768581, -0.01837518, 0.10496067},
  {-0.21388540, 0.18349272, 0.11534435, -0.17816694, 0.03632947, -0.13850030, -0.00415063, 0.16308972, 0.08701000, 0.25708079, -0.12654369, -0.19586958, 0.03004936, 0.01401706, -0.17150389, 0.21927494, 0.16655709, 0.04046791, -0.00406765, -0.13058494, 0.18923661, -0.18264680, 0.03709342, 0.01991424, -0.11541341, 0.20110801, -0.21372505, 0.09887383, -0.26391095, 0.10058562, -0.07886761, 0.03667955, 0.07751086, 0.19866790, -0.04948199, 0.02063513, -0.23956256, 0.29064104, 0.30424288, 0.26485589, 0.03259644, -0.01117649, -0.15832162, 0.09536553, -0.16101666, -0.29490918, -0.10739738, -0.28253469, -0.00073537, -0.01021801, -0.21830349, 0.11531556, 0.19503552, -0.10808089, -0.04088239, 0.01066253, -0.04347029, 0.10970493, 0.06975970, 0.32972142, -0.01883861, -0.17187630, 0.01064733, 0.10697656, -0.09557732, 0.01544550, -0.11138804, -0.16448519, -0.07391442, -0.01887433, -0.23425297, -0.09391196, -0.19638649, 0.08605072, 0.07511905, -0.02994094, -0.03636222, -0.05414628, -0.09620197, 0.26345176, -0.13987572, 0.16079722, -0.11162836, -0.12409662},
  {0.14243548, -0.03142203, 0.16084978, 0.01294718, 0.20310725, -0.06252585, -0.01175511, -0.05412035, 0.21454665, -0.13392566, 0.24020615, 0.12718377, -0.06858383, 0.10779402, 0.09328524, 0.12423353, -0.17114986, -0.19167003, 0.06169822, -0.05524039, 0.04248212, 0.12852654, -0.08921468, 0.15226588, -0.39981076, -0.14415571, -0.01525996, -0.14747573, 0.13739319, -0.01058573, -0.02295284, -0.00120097, -0.07796628, -0.00108877, 0.16554409, 0.09258413, 0.01390090, 0.17942092, -0.14694797, 0.03365222, -0.19538265, -0.11680956, 0.00826065, -0.17240919, 0.14798567, 0.08337905, 0.13607934, 0.21518289, 0.02949586, 0.06960730, -0.07830511, 0.11300214, 0.01195838, -0.15302667, 0.05585753, -0.23359117, 0.08917852, -0.10930565, -0.10254915, -0.10907352, -0.10926712, 0.16885413, -0.11458319, -0.19056413, 0.05117362, -0.05160989, 0.12380073, -0.00521380, 0.07908516, 0.19489314, 0.01431723, -0.23206900, -0.14987333, 0.22906008, 0.03627813, 0.17874503, -0.08534444, -0.08781728, 0.03240238, 0.18085916, -0.17632657, -0.07516114, 0.05949461, 0.04098898},
  {0.09991024, 0.01277349, -0.08224082, 0.24313205, -0.02613438, -0.26733047, 0.11800580, -0.12266981, 0.08632711, 0.02715567, -0.09161558, -0.14428081, -0.12486292, -0.10681543, -0.11280101, 0.04171754, -0.07486468, -0.19941455, -0.07401901, -0.14913860, -0.07418457, 0.13589720, 0.00408778, 0.10747712, 0.25676307, -0.05421904, -0.06046133, -0.10315982, 0.03944512, -0.00874928, -0.02005683, 0.11436132, 0.04357639, 0.05756768, 0.13965583, 0.24019967, -0.02475784, -0.04024646, 0.04391799, -0.02523282, 0.06087293, 0.00053682, -0.03105909, -0.06921883, -0.06666155, -0.00750159, 0.00780772, -0.12358829, 0.12984902, 0.01434714, -0.04535646, -0.06636460, 0.16399902, 0.08715436, 0.06256513, 0.21316217, -0.18472822, -0.03544054, 0.14251134, 0.01556596, 0.25987706, 0.04932148, -0.06966469, -0.08908994, -0.10687111, 0.03844940, -0.00203439, 0.29083705, 0.04103589, -0.00773542, -0.01197925, -0.07900300, -0.18203489, 0.07365789, 0.06949557, -0.04719304, -0.15829833, -0.22077966, -0.09491657, 0.14547536, 0.11839735, 0.07040438, 0.23529543, 0.01942514},
  {0.00612297, 0.04047041, -0.11364812, -0.07480150, -0.00908546, 0.07304786, 0.01452889, 0.14485289, -0.13277598, 0.03772347, -0.03387735, 0.13511927, -0.02890824, 0.11489211, -0.05928759, 0.01985332, 0.01278805, 0.16380982, 0.09102008, 0.12847821, 0.09017645, -0.01346850, 0.15847257, -0.09327579, 0.09566478, 0.09801524, 0.07048898, -0.10384668, -0.15277870, -0.03047545, 0.03389975, -0.14774881, 0.14544603, 0.12997492, 0.12470649, 0.07183716, 0.09598960, 0.14751291, -0.00710413, -0.09626862, 0.06556172, 0.09725873, 0.14063868, -0.08624396, 0.07076490, 0.04108487, -0.07848758, 0.07194926, 0.06932481, 0.01663478, 0.00798325, 0.10168888, -0.05591778, 0.03066596, 0.16548927, 0.00494771, -0.15080564, -0.00825233, 0.13773912, -0.01999782, 0.11658330, 0.07196306, 0.15079084, 0.12820014, -0.10303354, 0.03390381, -0.03217798, -0.11798035, -0.00735392, 0.08524326, 0.16250823, -0.00086424, -0.03996098, 0.06877206, 0.11308514, 0.13748378, 0.08893748, 0.11863589, 0.01760595, 0.04137079, -0.02967043, -0.14786632, -0.11789233, -0.16437271},
  {0.01266798, 0.22405212, -0.17865996, 0.08866708, -0.03074926, -0.31598252, 0.09774584, 0.03039540, -0.11789018, -0.06915905, 0.19407901, -0.13244843, 0.03173357, -0.13524640, 0.00691368, 0.10172486, -0.16916259, 0.13904914, 0.09641726, 0.15586878, 0.14565240, 0.23950985, -0.05768499, 0.18275397, -0.10981218, 0.18003187, -0.13619928, 0.10550731, -0.12336657, -0.17316243, -0.04234906, 0.06395195, -0.10778499, -0.12952988, 0.09274784, 0.07970671, -0.01549122, 0.06159422, 0.09423504, -0.10027516, 0.10727545, -0.08168302, -0.00957333, 0.02056008, -0.03862032, -0.05031854, -0.05062336, 0.03231198, 0.16393048, -0.04511164, 0.08692101, -0.21483506, -0.16074173, -0.10560453, 0.00327850, 0.04204248, 0.11892114, -0.10444961, -0.12752488, -0.08719596, 0.02904134, 0.03898776, -0.16990303, 0.01554674, -0.03785023, -0.07641479, -0.07910218, 0.14347553, -0.11765183, 0.03970660, 0.06364732, 0.00159910, -0.11928169, 0.04872295, -0.01955696, 0.12954977, 0.03328583, 0.19088338, 0.06136532, -0.04264765, 0.03339073, -0.01434703, 0.04504194, -0.11051427},
  {0.05927196, -0.12150805, -0.13656922, 0.01238619, 0.10428317, 0.03933585, -0.13865624, -0.06879091, -0.15849015, 0.13758291, 0.05606304, -0.00223624, 0.02409529, -0.09443476, 0.12756303, -0.12180967, -0.08548445, 0.03856414, -0.07182838, -0.05232890, -0.11255468, -0.10144323, 0.17322439, 0.05394733, 0.15806755, -0.04703702, 0.00966558, 0.04098577, 0.06571586, 0.01290077, -0.07679696, -0.13385673, -0.11896510, -0.15252070, 0.15335906, -0.10846716, 0.12680107, -0.13024183, 0.07354292, 0.07193538, -0.00943971, -0.07512842, 0.01407859, 0.07360657, -0.07118380, 0.07102034, -0.15581870, 0.03795735, 0.14356183, -0.11717270, 0.04794877, -0.09979584, 0.05919264, 0.16051693, -0.05074419, -0.13722114, -0.15626685, 0.02148713, 0.08342886, -0.14306673, -0.08292963, 0.05489120, 0.01260534, -0.04934876, -0.04606980, -0.13087693, 0.14320433, -0.06838693, -0.15610644, -0.12340845, 0.16776988, 0.13740496, -0.09819145, 0.14252238, -0.09622043, -0.12685132, 0.04269301, -0.02432405, -0.06800240, 0.13918424, 0.15873010, -0.10850342, 0.00039135, -0.04399155},
  {0.02388155, 0.25891262, 0.18583930, -0.08888183, -0.10386673, -0.10700778, 0.06083470, -0.13343054, -0.05961619, -0.09098691, 0.14036547, 0.14879920, -0.05397711, -0.09721396, -0.18432866, 0.13010658, -0.14001435, -0.00779565, 0.12408523, 0.13647741, 0.00743485, 0.08286680, -0.08977724, -0.09425255, -0.04065729, 0.08306812, 0.08571262, -0.02557777, -0.13090733, -0.08602369, 0.07624902, 0.01164006, 0.02474236, 0.00189480, 0.08298683, 0.00999570, -0.16033155, 0.22196147, 0.16494630, 0.02162452, 0.09522577, 0.20002083, 0.02448429, -0.14646173, 0.06049924, 0.06255825, 0.17507401, -0.12136231, 0.15061250, -0.16035864, -0.11529844, -0.09076479, -0.04163483, -0.07324340, 0.01088548, -0.07062502, 0.04749958, 0.02087830, 0.11683044, 0.05615068, 0.12258407, 0.12029485, -0.08820384, 0.02667633, 0.00162068, -0.08965509, 0.01715197, 0.05851452, -0.12848601, -0.14643508, -0.06029001, 0.12281623, -0.15573129, -0.03933427, 0.07640517, 0.11651972, -0.00190073, -0.01532706, -0.01506681, -0.13015001, -0.04183400, 0.15194638, 0.07845257, 0.13420299},
  {-0.14616200, -0.14133134, -0.07973488, 0.13466106, 0.08275505, -0.14363302, 0.02437911, 0.14940505, -0.02895250, -0.14528677, 0.10988317, 0.14907207, 0.05823234, 0.03193647, -0.11262868, 0.10008207, 0.13955605, -0.05770706, 0.09753414, -0.07394869, -0.09088036, -0.12906231, -0.12139737, -0.11582074, 0.03327822, -0.02050502, 0.14622039, 0.11677784, 0.14891367, 0.09094809, 0.02131829, 0.11809310, -0.10516486, -0.11679155, -0.00272261, 0.07602940, -0.16593058, -0.18132812, 0.02624791, 0.15867500, 0.09531003, 0.05418663, 0.14890760, 0.02179132, -0.12335713, -0.11770672, 0.08022150, 0.09073550, 0.02863500, -0.04952703, 0.15378839, 0.16022262, -0.14641720, 0.06430586, 0.16045524, -0.09494710, 0.06537565, 0.16792578, 0.08005442, -0.02200714, 0.04149276, -0.12132683, -0.09912350, -0.12239931, -0.12970896, 0.10682493, -0.09427670, -0.07679524, 0.09037906, 0.10880421, 0.02916289, 0.06026346, -0.15986617, 0.06326129, 0.00267541, 0.15651736, 0.00387164, -0.05741524, -0.07738864, 0.13891526, 0.01533439, 0.11634342, -0.10097580, -0.07398920},
  {0.09521355, -0.12058985, 0.15341112, 0.08240366, -0.08789981, 0.03731194, 0.02894654, -0.08811129, -0.03793436, 0.15076597, 0.07366934, -0.12299010, 0.19822486, 0.15047632, -0.10849155, -0.00105563, 0.00400174, 0.11660790, 0.12730323, 0.04083052, 0.10487045, 0.02137249, 0.13607733, -0.06745371, 0.12007528, 0.15547048, 0.09691855, 0.10520411, -0.10253664, 0.03105295, -0.02441709, -0.05785302, -0.08113988, -0.07813531, 0.15554011, -0.10428339, 0.06560345, 0.10514316, -0.15616637, -0.12580620, 0.17381266, 0.21385777, -0.15791404, 0.05034275, 0.10018794, 0.09785328, -0.12238172, -0.11691906, 0.03021958, -0.06231348, -0.02298543, 0.11136408, 0.13595392, 0.11800341, 0.07209638, -0.11863337, -0.20184025, 0.16955893, -0.12638080, 0.07355854, 0.02739418, -0.12686338, 0.00393907, 0.02265955, 0.16027541, -0.03500048, 0.00386825, -0.01652746, -0.18023494, 0.07830530, -0.06056706, 0.14933087, 0.06652281, 0.07367001, -0.10586645, 0.14929432, 0.08469500, 0.03792297, 0.06157669, -0.01667373, -0.15388240, 0.13486530, -0.11347532, 0.03256544},
  {0.12876080, -0.16502334, 0.15414770, 0.15966976, 0.00299410, 0.01679309, -0.13323639, -0.12792151, -0.09890054, 0.05546795, 0.16736232, -0.11843070, -0.11914783, -0.03382783, 0.09162666, 0.07552376, 0.02763664, -0.09860530, -0.07017022, -0.04784438, -0.15553123, -0.06524467, -0.11883548, -0.00737998, -0.15243198, -0.02132923, -0.17515364, 0.07451966, 0.11262453, 0.17487569, -0.09869250, 0.19702603, 0.10963546, -0.01893103, 0.04052829, 0.19491096, 0.08573645, -0.05021398, 0.17048971, -0.01031873, -0.13441145, -0.02956877, 0.23669973, -0.14058462, -0.04446204, 0.15892991, 0.04475691, 0.03055643, -0.19876978, 0.14272061, 0.16881756, -0.06757063, -0.01978268, 0.07086165, 0.00644952, 0.16495852, 0.13468844, -0.06316221, -0.16048801, -0.09899928, 0.18644878, -0.02686337, -0.12436908, -0.10450310, -0.18061203, -0.08559179, 0.11955479, 0.19441259, -0.01745013, 0.14201809, -0.09407154, 0.06890061, -0.10976243, 0.18440983, -0.08898407, 0.05502242, -0.02943164, 0.01390306, 0.12586713, 0.16665517, -0.11162360, -0.02955986, -0.04127701, -0.24846280},
  {-0.20896278, -0.17960541, -0.04854136, -0.11554445, 0.01937670, -0.19382975, -0.14399627, 0.06889556, -0.14624207, 0.02026589, -0.22996514, 0.24224573, 0.03138240, -0.02367043, -0.07260153, 0.05708543, -0.08244178, 0.04466613, -0.23538789, 0.01062721, -0.19629960, -0.03241517, 0.23382926, -0.09429307, 0.26148981, -0.16820654, 0.30506772, -0.12028284, 0.05991756, -0.02495583, 0.17452230, -0.26002815, -0.03045772, -0.13071066, 0.15321720, 0.24261211, 0.00048495, -0.21643414, 0.05705190, -0.11665079, -0.13065110, -0.03876758, 0.13787018, -0.04187879, 0.01420029, 0.17779189, -0.18125956, 0.09212041, 0.02229200, -0.01164123, -0.06949111, 0.10892446, 0.00943780, -0.05609147, 0.08741908, 0.08534278, 0.26659358, 0.20964089, -0.14667182, -0.21226282, 0.33161491, -0.12814498, -0.03831953, 0.02035419, 0.07304591, -0.18725756, -0.05645050, 0.24923868, 0.08159629, -0.14247422, -0.07903870, 0.25814778, 0.06515732, 0.01626535, 0.16302049, -0.09734694, -0.19279347, 0.19327742, 0.00309772, -0.18583049, -0.00799608, 0.18114738, 0.12828021, 0.11306211},
  {0.18594980, 0.06330062, 0.03510031, 0.02206116, -0.14624824, -0.00533994, -0.09996802, -0.15994212, -0.07580257, 0.13638300, -0.15543379, -0.15961124, -0.21429768, -0.00974022, 0.01229691, 0.00662996, -0.14042114, -0.08300061, -0.00616939, 0.06800336, 0.19982657, 0.20076020, -0.05758229, 0.09323160, -0.07352728, -0.04457360, 0.13485515, -0.11576433, 0.12786746, 0.00478242, -0.03260053, -0.04812124, 0.10825439, 0.06954280, -0.09507135, 0.18649134, 0.16059770, -0.02054246, -0.19060227, 0.12954186, 0.03914759, 0.00133364, 0.10584293, -0.16579138, -0.01032026, 0.03543804, -0.08878697, 0.07054659, -0.08129044, -0.15551199, -0.13482897, -0.16814683, 0.17677273, -0.08688949, -0.12332565, 0.22836682, -0.15567940, 0.14507569, 0.06662507, -0.05282762, 0.07300742, 0.11598378, -0.08127274, -0.12651278, -0.02573734, -0.09649553, -0.06245708, 0.15711233, 0.02353932, 0.08737968, 0.01262928, 0.18503892, 0.01970657, 0.08580136, 0.02021686, -0.00525606, -0.14275193, -0.06884708, -0.02353073, 0.18459119, -0.14758228, 0.16707136, -0.03985485, -0.17123161},
  {-0.06407520, -0.04569742, 0.02255630, -0.12138082, 0.05887613, -0.14133815, -0.08669621, -0.12747420, 0.08705311, -0.10410956, -0.14104292, 0.14199398, 0.05072166, -0.02845906, -0.04612777, 0.14040537, -0.02721364, 0.11093102, -0.14052361, 0.03483772, 0.04804635, 0.15697470, -0.09251030, 0.06793718, 0.07567786, 0.16900878, -0.15466471, 0.06583147, -0.04546332, 0.09121189, 0.03713453, -0.09121016, -0.03394900, -0.04912962, 0.01755441, 0.15096830, 0.19891752, 0.10645861, -0.14959641, -0.00632210, -0.02104769, 0.04185888, -0.17210965, 0.10356536, 0.06305774, 0.14653464, 0.28698641, -0.19712760, -0.20333031, -0.12350280, -0.18427263, 0.07890008, -0.11696235, -0.19284149, -0.10807878, -0.00894991, 0.04145750, 0.25242996, 0.12541330, 0.16409436, 0.25614062, 0.01661140, -0.02499864, -0.13541828, 0.15701723, -0.10189998, -0.04744319, 0.11131498, 0.14896576, -0.05335486, -0.00496428, 0.09061471, -0.05443322, -0.01927574, 0.00221015, -0.00638945, -0.03750987, -0.14659861, -0.03228477, 0.02330925, -0.13677992, 0.29490420, 0.17335390, 0.11277443},
  {-0.09865728, -0.01793766, 0.10182140, 0.11790110, -0.10688696, 0.03072449, -0.06673671, 0.05052168, -0.03999181, 0.15232348, 0.00392427, 0.03752736, 0.09777667, 0.08614015, 0.01807271, 0.15790230, -0.03187614, -0.08957484, 0.11496444, 0.04802480, 0.10575060, -0.11476278, -0.25486368, -0.23154770, 0.07307144, 0.08108454, -0.13772352, -0.02448222, -0.07225508, 0.20701739, -0.00109975, 0.13176934, 0.15909368, 0.06558035, -0.06791660, 0.20863543, 0.12664858, 0.06204157, 0.20208965, -0.07638262, 0.01819620, -0.02728990, -0.10154393, -0.17145728, -0.08231365, 0.14503643, 0.11999582, 0.00159196, 0.08186383, -0.03038572, -0.14450963, -0.06627307, -0.08884341, 0.02732329, 0.04203307, 0.06940530, 0.19584082, 0.23719199, -0.13895722, 0.08476161, 0.11874504, -0.06174187, 0.04402600, 0.12399285, -0.13350971, 0.07076135, 0.03064335, -0.08340649, 0.09700643, -0.05761958, 0.07901448, 0.15412439, -0.01395453, 0.12019949, -0.10706642, -0.01375736, -0.00522589, -0.13435262, -0.12830694, 0.14273851, -0.03292612, 0.14986371, 0.12660111, -0.11908796},
  {-0.09144804, -0.30933753, 0.07020672, 0.15835477, 0.12037007, -0.05043054, -0.19286174, 0.11464446, -0.10108340, 0.00290457, 0.10365088, 0.01133318, 0.14027241, 0.04620950, -0.01656305, 0.01296123, -0.18362413, -0.02484036, -0.09949524, 0.08716707, 0.16205801, -0.09597629, 0.03030887, -0.14693080, 0.10835752, 0.13370159, -0.12874436, 0.14354090, 0.09206684, 0.07229704, 0.05656819, 0.08825707, -0.10305747, -0.07539649, -0.04821617, 0.19340757, 0.14361665, -0.10936020, 0.26299766, 0.13060579, 0.01760516, -0.16560172, 0.05107354, 0.05439384, -0.01302436, -0.09495106, 0.20855792, 0.00726050, -0.05674201, 0.09215675, -0.03686797, 0.02389277, -0.11597792, 0.10060178, 0.04054505, -0.01045145, 0.02124759, 0.14502624, 0.28069308, 0.10619743, -0.12427174, -0.16356225, 0.17561503, 0.12812948, 0.17390040, -0.15652156, 0.04312881, 0.16600621, -0.02833779, -0.22728135, 0.09591315, -0.03472594, 0.16132709, -0.07661656, -0.00655886, -0.19277726, 0.10204600, -0.18985537, 0.06619719, 0.12622555, -0.05579026, -0.12676857, 0.18741329, -0.15655547},
  {0.06548049, 0.06965542, 0.19546235, 0.19793333, 0.22850654, -0.10921530, -0.11662237, 0.09634825, 0.14293307, -0.17035885, -0.06759493, 0.09701261, 0.02965200, -0.07945199, -0.05928437, 0.22672987, -0.29993606, -0.12735300, 0.13669962, 0.14429441, -0.28148070, 0.07249232, -0.10504745, -0.11979932, -0.16688630, -0.11606931, 0.00517285, -0.08078164, -0.07619351, -0.15525091, -0.07458448, 0.23623113, -0.07359252, -0.01551026, 0.04691550, 0.21706983, 0.06561296, -0.12067295, 0.07503831, 0.06539967, 0.06888963, -0.14665103, 0.09300095, -0.19047780, 0.04925469, -0.03239031, -0.20071162, 0.03825994, 0.04331832, -0.05839107, -0.09894803, 0.00361586, -0.06004979, -0.14099969, -0.09292075, 0.01401020, -0.03376837, -0.08239103, 0.18189447, 0.10734592, 0.03952321, 0.09626760, 0.13974537, -0.01362730, -0.09624514, 0.12657090, -0.14517213, -0.05086706, -0.15932930, 0.16822374, -0.03965738, 0.05668054, -0.23115791, 0.05970402, -0.10069676, -0.02645708, -0.11876636, -0.25165352, -0.07428993, -0.10765389, -0.05160439, 0.20139010, -0.05196217, -0.22419669},
  {0.18877743, -0.01871954, -0.11073622, 0.01021818, 0.16015857, -0.05105845, -0.20795114, -0.03522136, 0.17481743, 0.17442220, 0.00264812, 0.18930253, 0.12767190, 0.05821466, 0.07915806, -0.01316651, -0.05329312, 0.14749116, -0.01583825, 0.11266974, -0.03341242, -0.18280631, -0.10282674, -0.00261609, -0.10725224, 0.14758264, 0.03131030, -0.13609408, -0.07754426, -0.00674490, -0.00889353, -0.09594536, -0.01003573, -0.14322366, -0.31191003, -0.16460367, -0.02236240, 0.07056850, 0.19464250, -0.12125211, -0.01444085, -0.01837038, 0.09069963, -0.13569710, -0.09383899, -0.27667442, 0.02259877, -0.08029819, -0.16613610, 0.01108164, 0.00355199, 0.03968909, -0.17790695, -0.13242848, 0.05299382, 0.07237265, 0.06906602, 0.17947160, 0.13953558, 0.14576878, -0.13405834, -0.09308098, -0.05250054, -0.15514986, -0.12523854, -0.16349253, -0.02166399, -0.12525901, 0.14487042, -0.03743248, -0.04603187, -0.16127749, 0.01867671, -0.16888271, -0.03437451, 0.11777277, -0.03649141, 0.10213935, 0.02107130, 0.09511860, 0.14829502, -0.00311656, 0.15491791, 0.02764091},
  {0.15902616, -0.12773098, 0.10468020, 0.08140603, 0.10875028, 0.20245273, 0.06867348, -0.05328506, 0.17958261, -0.01527000, 0.05693727, -0.16561382, -0.00997038, -0.11330935, 0.00587697, 0.08470894, 0.02518464, -0.11633684, 0.21123026, 0.15603802, 0.17251915, 0.13281591, -0.11697988, 0.12440116, 0.09261226, 0.20539625, 0.03884603, -0.01865771, 0.07776070, 0.11468016, 0.00161873, 0.13851391, 0.06557529, 0.03219365, -0.01042609, -0.06208019, 0.08850965, -0.07569513, 0.18013053, 0.06712075, -0.12442838, -0.15003142, 0.10951412, 0.07003980, 0.08520438, -0.20255782, -0.16461316, -0.12598039, 0.08204677, 0.03014225, -0.18717399, -0.10915505, 0.04433711, -0.07045519, 0.01082417, -0.08441008, 0.02077693, 0.01935002, 0.10969844, -0.06449889, 0.07544270, 0.13441230, 0.08007201, 0.01450788, -0.02099331, 0.13632490, 0.06708649, -0.02066291, 0.11535527, 0.14634094, -0.17864013, 0.06198831, 0.05729802, -0.07617179, 0.10496000, -0.08978426, -0.02485254, -0.01074401, -0.24293102, 0.01632944, -0.18974529, 0.07935661, -0.18320176, 0.05455187},
  {-0.10370558, -0.05960894, 0.01527860, -0.08103728, -0.15656504, 0.00902194, -0.10411793, -0.04437194, 0.03517669, 0.11486632, -0.09687526, 0.08819459, 0.03525207, 0.00837854, 0.05217811, 0.13953887, -0.07576337, -0.06765705, -0.04112466, -0.00572213, -0.08823558, 0.10044377, 0.05762533, 0.06957809, -0.01067296, 0.06682528, -0.15701441, -0.06809568, -0.05930840, 0.05893275, -0.15544452, -0.05425341, -0.04923117, -0.03228961, -0.02484929, 0.18899581, 0.16058749, -0.10833289, 0.04069856, 0.11015537, 0.04711008, -0.13735043, -0.13624030, -0.10428897, -0.07958242, 0.02574902, 0.07933693, -0.11799472, -0.08098296, 0.17928031, -0.06530997, 0.04571650, -0.12417862, 0.11632084, -0.13701999, -0.09524982, -0.09312452, -0.07596190, -0.08882555, 0.09161202, 0.18182860, 0.09944661, 0.06996082, -0.03555346, -0.07759233, 0.06634289, 0.15612701, -0.06418435, 0.13904840, -0.00023374, 0.11046930, 0.12686089, 0.13723812, -0.15992843, 0.05383295, -0.00097250, 0.00064858, 0.05294703, -0.10177866, -0.16378435, 0.11275023, 0.17585842, -0.05804145, 0.00320954},
  {0.02400619, -0.04500810, -0.04143853, 0.15205310, 0.19899391, -0.13769254, -0.08005328, -0.09342422, -0.15924905, -0.21408662, 0.06384258, 0.12414089, -0.07071994, -0.05698022, -0.16185921, -0.05621175, 0.00951024, 0.01445906, -0.14194639, 0.14125849, 0.13919452, 0.21123303, -0.01765833, 0.10671741, 0.04588939, -0.12616499, 0.02012366, -0.14062029, 0.05588464, -0.08723933, -0.20211798, -0.02188628, -0.12821083, -0.03680811, 0.12583618, 0.14243521, 0.08376462, 0.12091811, -0.10888643, 0.15905577, -0.17507201, 0.08035459, 0.04715043, -0.03864106, 0.10821503, -0.00827661, -0.23854195, 0.03229807, -0.17435442, 0.13156763, -0.06527772, 0.01854464, -0.03043815, 0.12645641, -0.06084582, 0.15285093, 0.01362569, -0.03270717, -0.12625547, -0.13446389, 0.07017661, -0.17104055, 0.05969184, 0.18526584, 0.03174546, 0.04686292, -0.06681091, -0.11907119, 0.02908208, 0.02367243, -0.06430794, 0.07400574, -0.04047215, 0.08266529, -0.16588578, -0.06660504, -0.09983203, 0.06324383, -0.01031875, -0.12733628, -0.07855066, -0.13183773, -0.00917795, 0.05351690},
  {0.08344296, -0.00794716, -0.06901016, 0.10560037, -0.12054095, 0.15472263, -0.05196599, -0.13110796, 0.05511663, -0.13781808, 0.02614849, 0.05267529, 0.00375592, 0.09388168, 0.20513144, -0.07652381, -0.13977981, 0.06315730, 0.01680285, 0.15564552, -0.20060308, 0.00684629, -0.13394184, 0.14499511, 0.01763109, -0.15220749, 0.17054234, 0.09819309, 0.00748950, 0.05872364, -0.28283471, 0.11630351, -0.02871248, -0.16173893, 0.12051142, 0.15482396, -0.14032459, -0.05433834, 0.05889857, 0.01598953, -0.07517313, -0.01184493, 0.14347246, -0.17946939, -0.03914585, -0.07507431, -0.02278746, 0.10554229, -0.12051053, -0.13496584, 0.00596504, -0.00616443, -0.04996668, 0.06227922, 0.15151025, 0.18234839, -0.08522233, -0.11912822, -0.00019098, 0.11475734, -0.08325427, 0.04234040, 0.02931818, 0.06107355, 0.09137209, 0.01232694, 0.01096505, -0.10568767, -0.18833126, 0.02065042, 0.13880719, 0.05447486, -0.08864252, -0.04748629, -0.05068831, 0.00486310, 0.06738618, 0.08242043, -0.00310902, 0.01395098, 0.05912812, -0.01560369, -0.11839299, -0.16482288},
  {0.14384697, 0.21648513, 0.12598723, 0.13927607, 0.15328626, 0.14076751, 0.08564898, -0.02313890, 0.10263278, -0.04637916, 0.00621952, -0.10943700, 0.08528393, 0.09747417, 0.02960931, 0.01022634, 0.07299002, -0.01295840, -0.10538573, -0.04689305, 0.05325785, 0.18614785, -0.11578461, 0.08179633, -0.14808764, -0.06178946, -0.04580989, -0.07583773, -0.10245796, -0.12309474, -0.06103026, -0.01693433, -0.07411816, -0.05335408, -0.03239839, 0.18050590, 0.02690607, 0.04625413, -0.04998997, 0.06054846, -0.05656435, 0.02458894, 0.12466341, -0.05473720, -0.19470581, 0.10266484, -0.10650173, 0.05375922, 0.18193188, -0.10532285, 0.16875012, 0.09965491, 0.07777524, -0.03545937, 0.05503720, -0.10862920, 0.01191254, -0.00774145, 0.13447365, 0.04883551, 0.03145054, -0.15158182, 0.15100956, -0.06524237, 0.21140440, 0.02061705, -0.08934053, 0.10724622, -0.14760648, 0.07785206, 0.02265030, -0.20955899, -0.10948192, 0.17241602, -0.09829687, -0.04671159, 0.05215245, 0.01846096, 0.03607086, -0.09939121, 0.07626636, 0.20918497, 0.18675724, 0.03291899},
  {-0.02238306, 0.22910371, 0.10492190, 0.02888148, -0.06723156, 0.04843352, 0.05789285, 0.12509181, -0.06418663, 0.07600292, -0.17106172, 0.10424358, 0.17507637, -0.05339381, -0.16928840, 0.04133929, -0.03313122, -0.00021587, 0.06989199, -0.04471545, 0.02977262, -0.08655951, -0.08201481, 0.10771944, 0.24224173, 0.04611023, -0.07004937, 0.00519696, -0.04291750, 0.12239168, -0.05176206, -0.14896481, -0.09512108, -0.10620686, 0.08443733, 0.16560125, 0.01017772, 0.14255327, 0.01972304, 0.17417265, 0.14519762, 0.14036050, 0.02858656, -0.07833777, -0.11045928, 0.14720275, -0.02473095, 0.09418703, -0.07466796, -0.13582282, 0.13656622, -0.11539196, 0.16055952, -0.07141353, 0.14057229, 0.09085506, 0.19980372, 0.17202206, 0.06033367, -0.06007599, 0.04852559, -0.02641366, -0.01445718, -0.09419487, -0.03701999, 0.12877804, 0.12048049, 0.08414002, 0.11944541, -0.02010229, 0.15314056, 0.14093627, 0.02841148, 0.08472539, 0.05503120, -0.08042993, 0.04589529, 0.15981613, -0.08363187, -0.14996959, 0.13648847, 0.16990116, 0.17588787, -0.11058684},
  {-0.24076235, 0.15260293, 0.01080607, -0.13698520, 0.14888421, -0.31155333, -0.07907119, 0.15732554, -0.00546172, 0.11341856, 0.01104646, 0.15796144, 0.14454560, 0.07812493, -0.14207785, -0.14025983, -0.04060873, 0.14052550, -0.00506234, 0.12199600, 0.00389975, -0.06819472, 0.04707953, 0.08134731, 0.05402646, 0.04667841, 0.20262751, -0.01179431, 0.14773573, -0.08453114, 0.02496917, -0.21615767, 0.00695888, 0.18429078, 0.13551185, -0.02156096, -0.00430728, 0.07935423, -0.31308162, -0.16275133, 0.04569368, 0.20917223, -0.07142656, -0.12658355, -0.19880602, -0.05606092, -0.09436186, -0.21449924, 0.06316885, -0.00257234, 0.06475596, -0.04490969, -0.19119856, -0.09702519, 0.24926513, 0.16286050, 0.13942684, 0.10699460, -0.01003809, -0.20445488, 0.07131483, 0.00888135, -0.15341868, -0.11727596, -0.14514387, -0.21649909, -0.01376395, -0.11112052, 0.07101557, 0.16917388, 0.10350452, -0.01782952, -0.00577406, 0.16215450, -0.05599075, -0.05205559, 0.14130855, 0.00131513, 0.15851820, -0.24814732, 0.17359933, 0.18066448, -0.01772345, -0.02302326},
  {0.16518968, -0.10685764, -0.12034718, 0.11263181, 0.00825904, -0.01149841, -0.14253780, -0.04117322, 0.09943319, -0.04167792, -0.09161208, -0.15370338, 0.02520251, 0.01001053, 0.01947124, -0.07268222, -0.13600875, 0.08710759, 0.02378809, 0.09617970, 0.09831981, 0.14888714, 0.15715095, -0.08128747, 0.21199691, -0.07423834, 0.18941903, 0.08711474, -0.10078402, -0.06058309, -0.08440383, 0.10783993, -0.09281883, -0.13725521, 0.05861137, -0.00928633, -0.16353628, -0.01798941, 0.15337461, 0.16523105, 0.17310357, 0.21550685, 0.05732437, -0.01292244, 0.08307406, 0.13349274, -0.04656751, -0.02104217, -0.17325212, -0.00688742, -0.00178992, -0.03439005, -0.16721055, -0.03976488, 0.04628788, 0.16264646, 0.01374692, -0.16859835, -0.13752025, 0.02912866, 0.06919784, 0.08550639, -0.19591250, 0.02927982, -0.16493940, -0.17680171, 0.13086371, -0.04137847, 0.08385588, -0.11759464, -0.05286349, 0.03846159, 0.02792719, -0.16083884, 0.10107467, 0.18784675, -0.10430925, 0.08760478, -0.15250097, -0.05972116, -0.09228431, 0.05016316, -0.02930283, -0.14566860},
  {0.07735565, -0.16721134, -0.11770785, -0.11392472, -0.12457608, -0.14513397, -0.01161005, -0.17524071, 0.10934725, -0.11421198, 0.02518855, 0.10964166, -0.02714753, -0.08867468, 0.01270310, 0.05482942, -0.13295493, -0.01942819, -0.10933503, 0.12175851, -0.04389702, -0.00744897, 0.00840411, -0.08735981, 0.07324042, 0.10890502, 0.04638833, -0.08314118, -0.14168337, 0.07382588, -0.05305087, -0.07368759, -0.05814698, 0.02642158, -0.00724576, -0.12227627, -0.03771554, 0.09527624, -0.01376117, 0.05055285, -0.18057902, -0.14244179, -0.17345373, -0.03500863, -0.14291944, 0.18694292, -0.09808393, -0.11497654, -0.12600450, 0.00236818, 0.16379012, 0.01540093, 0.02301641, 0.03088639, 0.14012787, 0.10474466, -0.06662827, -0.08597872, -0.15905054, 0.08866602, 0.18516952, -0.04271801, -0.08505506, 0.18532924, 0.14164092, 0.14525123, 0.09835573, 0.13296282, -0.06914046, -0.11479607, -0.03420321, -0.10892938, 0.01975420, -0.14634258, -0.16815265, -0.03231131, 0.14783089, -0.15019274, 0.10721968, -0.11843088, 0.15006903, 0.12670487, 0.15645379, -0.13234442},
  {-0.04827392, -0.01222198, 0.12705918, 0.17913914, 0.08149647, -0.05805052, 0.00220982, 0.08599693, -0.09599050, -0.05716691, 0.11249974, 0.14683677, -0.00803329, -0.17389376, 0.10330684, -0.10685994, -0.08507102, 0.03760169, 0.04370195, -0.00457872, 0.02730165, -0.04440568, 0.05645605, 0.20168966, -0.08976127, -0.15588924, 0.09251226, 0.01022384, 0.19233026, -0.20493443, -0.21702611, 0.08346544, 0.02417401, 0.10908749, 0.04547493, 0.12491587, -0.07544424, -0.21164028, -0.18099344, 0.17664677, -0.03262478, -0.14468092, -0.10352041, -0.02791649, -0.13895005, 0.10479181, 0.03950165, -0.03194913, -0.04211739, 0.15279554, 0.17713273, 0.15812616, -0.01020050, -0.03312117, 0.11784319, -0.00480515, -0.10986664, 0.02330920, 0.03152270, 0.16434717, -0.06103720, -0.09112009, 0.01757647, 0.15301339, 0.05950298, 0.00405671, -0.11134514, 0.07860242, 0.01600599, -0.02075368, -0.06756624, -0.08573417, 0.13381396, -0.00260105, 0.14687242, 0.16091195, -0.03110538, 0.11007075, -0.20106521, -0.17241755, 0.09314642, -0.19465804, -0.01657536, -0.00357297},
  {-0.00287034, 0.01824504, 0.30916828, -0.15786101, -0.02812737, -0.12593488, -0.10334516, 0.05545972, 0.05564530, -0.08656547, -0.05981024, 0.12250721, -0.13044991, -0.10304926, -0.07411510, 0.19499069, 0.04272471, -0.06311801, -0.10256373, -0.10847441, -0.03238505, -0.05230062, -0.07053293, 0.21811491, -0.17285486, -0.01495939, 0.08233723, -0.08597305, 0.04813747, -0.03084783, -0.01497702, 0.18190841, -0.19523972, 0.06605289, -0.11190014, 0.02831424, 0.03293005, 0.07117236, 0.16758151, -0.25939500, -0.15141316, -0.18344176, 0.05888474, -0.14574888, 0.00771097, -0.05671905, 0.11790815, 0.09042355, -0.06024361, -0.14427167, -0.06685973, 0.07015546, -0.02367236, -0.03335431, 0.08378711, -0.12314866, 0.06229891, -0.19682784, -0.14001635, -0.11049093, 0.14075261, 0.11144799, -0.06280199, 0.01124024, -0.01836450, 0.13436399, -0.09757635, 0.05825862, 0.04353846, 0.12830132, 0.11154525, -0.02344159, -0.05093083, 0.14766049, 0.24003972, 0.18363659, -0.04031506, 0.03705413, 0.03581914, 0.20326638, 0.00816883, -0.09653807, -0.14479712, -0.07760066},
  {-0.08517622, -0.14539768, 0.08095405, -0.13510199, -0.05474897, 0.14611657, -0.13082378, 0.15881751, 0.16535182, 0.20652886, -0.07376328, -0.13713072, 0.16705070, 0.00388743, 0.18358272, -0.02365002, 0.27576289, 0.10526639, -0.13315985, 0.10975812, -0.05490180, -0.07464525, 0.21037824, 0.14423510, -0.10676286, 0.05092289, 0.04382529, -0.05620180, 0.06849551, -0.02596698, -0.25371403, 0.15986949, 0.21651253, -0.12738238, -0.28320250, -0.15066737, -0.09781988, 0.16379368, 0.18315458, 0.06169214, 0.13991205, -0.08702904, 0.12796795, 0.00735566, -0.19164851, -0.01874058, -0.10008108, 0.07624984, 0.01676919, 0.08493580, 0.05577131, 0.07109738, 0.01283558, -0.17835291, -0.08810343, 0.09844864, 0.16695805, -0.09788958, 0.09588755, 0.21468908, 0.09704516, 0.00362057, -0.22127134, 0.12916982, 0.18315850, 0.18797660, -0.02829447, -0.21658286, -0.02777047, -0.06087206, -0.06822419, 0.03625293, 0.14589295, -0.18313418, -0.10813608, 0.02625255, -0.17513269, 0.10448075, -0.17011443, -0.01822645, -0.14709495, 0.07315481, -0.19932260, -0.08783086},
  {0.03963572, 0.11362118, 0.05094671, 0.06262356, 0.17603604, -0.02830044, -0.14147811, 0.01709746, 0.18218945, -0.11145734, 0.06651388, 0.20128591, 0.23605829, -0.00566308, -0.03872412, -0.11332138, -0.22409381, 0.23432198, -0.13659489, 0.07513311, -0.07287740, 0.23912413, 0.10083260, -0.07850336, -0.06945649, 0.12415927, -0.04864180, -0.03449968, 0.07358866, -0.02960858, -0.12929115, 0.04968409, -0.07574633, 0.12553196, 0.10072846, -0.19265702, -0.18980485, 0.15743491, -0.25943378, -0.06533644, -0.10503576, -0.01059625, -0.21940280, 0.09819982, -0.02093720, 0.00721428, -0.17734854, -0.04719257, -0.04561521, -0.10109787, -0.25349712, 0.03282433, -0.08884507, 0.03835851, -0.07876669, -0.21727909, 0.01075021, 0.11717676, -0.07842685, -0.15752186, -0.12816232, 0.15315622, -0.05887849, -0.04447458, -0.19109611, 0.24789193, -0.09039418, 0.08722477, -0.13572782, -0.02582605, 0.14927299, -0.00858383, 0.10892331, 0.20697261, 0.01519511, -0.00640759, -0.01534093, 0.19392930, -0.17686106, -0.11314156, -0.03708831, -0.02493015, 0.07222686, -0.12421356},
  {0.07713546, 0.19245768, 0.08494982, -0.10521282, -0.07218124, -0.16077842, 0.14538507, 0.12127075, 0.09820316, 0.09798862, -0.09766632, -0.03236680, 0.05786365, -0.03324877, -0.12461484, -0.01369708, -0.12608816, -0.10072272, -0.02466372, 0.02870075, -0.08135599, 0.11891539, 0.13138357, 0.01795775, 0.06702044, 0.18271783, -0.03151735, 0.07232621, 0.15022312, -0.09955390, 0.03758340, -0.15981947, -0.03022937, 0.14891471, -0.12488099, -0.02158962, 0.18959792, 0.15446198, 0.12330892, -0.13084824, -0.07883593, 0.00255060, -0.22709516, -0.09658326, 0.13808466, 0.10280410, 0.16096114, -0.14875419, -0.22045748, -0.17950164, -0.10200342, 0.06395573, -0.26068845, -0.07868209, 0.18868460, 0.00192661, -0.09155569, -0.03408840, -0.04208241, -0.22171563, 0.15596202, -0.08493761, -0.05987586, 0.07834215, 0.15316011, 0.06805719, -0.02157681, -0.03269607, -0.12271663, -0.07521258, 0.15317674, 0.03279021, 0.01318844, -0.05108799, -0.05865120, -0.06494179, 0.16127788, -0.05743138, -0.09982035, -0.20921108, 0.24812341, -0.07450484, 0.00382318, -0.03889618},
  {-0.09426092, -0.07328305, 0.01367385, 0.17165628, 0.14671081, -0.14253481, -0.17256038, -0.01779842, 0.06354403, 0.00233497, 0.08805936, 0.09399008, 0.14011581, 0.04670706, -0.04338751, -0.07532815, -0.10729607, -0.09328810, -0.08079311, 0.00820649, -0.00941818, -0.05839367, 0.12018201, -0.04211818, 0.09714631, 0.16677544, 0.19584246, 0.00119381, 0.06183519, -0.10058322, 0.06600492, 0.10877811, -0.12978159, 0.01659703, -0.02473296, -0.08929785, -0.06762982, -0.00979280, -0.04403483, -0.03707250, 0.11895750, 0.19679645, 0.22004460, -0.09719298, -0.19581537, -0.19877820, 0.07515459, -0.01165217, -0.09824944, 0.01743273, 0.14961953, 0.06143280, -0.15142320, 0.03535334, 0.20084146, 0.12259986, 0.04595486, 0.07422366, 0.01566227, 0.03512128, -0.01234017, -0.04530362, -0.01353832, 0.08026317, -0.05234641, -0.13397847, -0.14803556, -0.15181288, 0.08358054, 0.12752376, 0.12682037, 0.03941465, 0.06070358, -0.02583732, 0.12996882, -0.00103441, 0.12449556, -0.00403446, -0.11371513, -0.11146498, 0.06327093, -0.05201471, -0.11331197, -0.16405186},
  {0.14918664, -0.11445244, -0.04982505, 0.05570085, -0.10251938, 0.09079038, -0.06885997, 0.05917696, -0.01125158, 0.02361644, -0.12569378, -0.11673484, -0.00346555, -0.16812617, 0.15634283, 0.03211946, 0.06818628, 0.03764571, -0.05762923, 0.03269914, -0.09666808, 0.09456173, -0.01474457, 0.02987082, 0.02421161, 0.16114631, 0.05835031, 0.12427859, -0.03524270, -0.12784603, -0.11368027, -0.07374060, -0.01806789, -0.03500532, -0.18908693, -0.17462581, -0.00611284, 0.03972567, -0.07638793, 0.04228298, 0.14003484, 0.09499023, 0.14778000, -0.06249186, 0.03595613, 0.09813295, 0.00451270, 0.10457902, -0.14250332, 0.18041278, 0.12400627, -0.18467313, 0.08418412, -0.11894139, -0.04825594, 0.13426602, -0.06744725, 0.10906012, 0.11263668, 0.08932199, 0.02147644, 0.07342938, 0.07293055, 0.10777788, 0.03170097, -0.04896186, -0.13543417, -0.12041491, 0.19259113, -0.10050950, -0.09091263, -0.04600535, 0.04510662, -0.07730658, -0.15168723, 0.16264188, -0.15100007, -0.07297629, -0.12696840, 0.09688579, -0.10884898, -0.10167345, 0.07254232, -0.15499310},
  {0.11795502, -0.13773064, 0.22568411, -0.01171038, 0.08893377, 0.14873873, 0.05435991, -0.01958404, -0.03209998, -0.19023287, 0.19091779, 0.05939204, 0.18588188, -0.07290972, -0.07627176, 0.11613052, 0.05418829, -0.19863018, -0.01994456, -0.03053942, -0.08169400, -0.03689835, -0.09686510, -0.06076996, -0.16503453, 0.11159296, -0.02219636, 0.12903072, 0.18066266, 0.09711060, 0.02398106, 0.01568604, 0.15561979, 0.07379933, 0.20452052, 0.08821015, -0.00545912, 0.04235817, -0.18545657, -0.13863882, 0.03034198, -0.01597624, -0.07049007, 0.05603836, -0.13738605, -0.17950304, -0.17991039, 0.10199691, -0.00742770, 0.12625588, 0.19064683, -0.05761208, -0.14130290, -0.13386838, 0.05780800, -0.09678364, -0.12537169, 0.04444912, 0.02097942, -0.02567992, 0.20983046, -0.05756846, -0.05573802, -0.08477432, 0.25579560, 0.20746714, 0.00386389, 0.08181043, -0.23327059, 0.15526228, 0.05684354, 0.00690218, 0.27752435, -0.07510588, -0.08643006, 0.12682827, -0.05495443, -0.20224731, 0.22065525, 0.03844536, 0.10286186, 0.23245399, -0.04422048, -0.17392059},
  {-0.19413252, 0.18635306, 0.05850743, -0.03737557, -0.17219466, -0.16622525, 0.17841645, 0.08695377, 0.08326954, -0.12765104, -0.15804520, 0.01673336, -0.05329697, 0.14211643, -0.06992171, 0.13796468, 0.03727320, 0.01071216, 0.02708023, 0.02949605, -0.06632753, -0.10045269, -0.00166516, -0.15564092, 0.04235763, 0.05605689, -0.04949637, -0.03420787, 0.16484548, 0.16663696, -0.16996452, 0.04374294, 0.02490417, -0.01836863, 0.00870510, -0.05395246, 0.05222844, 0.05861742, -0.09074529, 0.04005131, 0.02028180, 0.01187992, -0.12959491, -0.15630910, -0.07670992, 0.00080593, -0.00266484, -0.23394793, -0.08451136, -0.10403433, 0.24290150, -0.05493449, -0.07581348, -0.06660561, -0.15711501, 0.13426897, 0.02387438, 0.00946995, 0.13400452, 0.15985905, -0.08767717, -0.00740822, -0.02812807, 0.03123654, -0.09132103, 0.04861144, -0.11620354, -0.08643053, 0.06757162, 0.06176870, -0.08495479, 0.15710463, 0.05320317, -0.04491573, 0.08359890, 0.04898263, 0.09940463, 0.00310321, 0.12110600, 0.17673261, -0.01548175, 0.10016885, -0.10093929, -0.12442936},
  {-0.01596740, -0.10728120, 0.06016288, -0.10469366, 0.09912110, -0.29854259, -0.16747251, 0.17319427, 0.02008961, 0.01314567, 0.13531898, 0.12525971, 0.12075115, -0.14682737, -0.07215897, 0.11530489, -0.11741145, 0.03429761, 0.07733472, 0.03980272, -0.19900143, -0.07776701, 0.11427442, -0.15545790, -0.09814489, 0.02493236, -0.01234818, -0.11056162, 0.02948227, 0.14603631, 0.03998971, 0.07670253, 0.12713049, 0.08964420, -0.25876942, -0.11981368, -0.12738226, -0.15924290, 0.02272093, -0.05417772, -0.01504019, 0.03221930, -0.16953194, -0.01069004, -0.09252083, 0.01184845, 0.04694884, -0.11702787, -0.03587351, 0.07395681, 0.03890428, 0.21219438, -0.11411017, -0.14323777, 0.12952255, -0.08827525, -0.00082802, 0.12829298, 0.23194920, -0.01672157, -0.06642196, 0.09193185, 0.03656745, 0.10515879, -0.13416341, -0.00857266, 0.09382265, 0.10386720, -0.15837337, 0.16082984, 0.16058688, 0.12021746, 0.00330442, 0.13497061, 0.22351480, -0.06600366, 0.18652548, -0.03090375, 0.03379562, -0.10027205, 0.05689775, -0.04525727, -0.01444609, 0.12895797},
  {-0.02049249, 0.13226274, 0.11884590, -0.12345713, -0.03625618, -0.11888443, -0.12643158, 0.08982963, 0.09980149, 0.01142586, 0.02688352, 0.07896607, 0.19759578, 0.02654193, -0.25751814, -0.04253366, -0.03182751, -0.22772852, -0.01129964, -0.11347251, 0.13626367, -0.03223809, -0.20404376, -0.16214059, 0.07247059, 0.06044545, -0.09390303, 0.06925195, 0.17320637, -0.15918446, 0.10400791, 0.06975023, 0.06668725, 0.20845708, 0.00903434, 0.22451386, -0.11222707, 0.06300076, 0.07630425, 0.03660664, 0.02616236, 0.11905409, -0.15103181, -0.17607658, 0.02647021, 0.07661463, 0.01075203, -0.00490507, 0.21515854, 0.04500401, 0.08915078, 0.09867765, 0.03833048, -0.17840989, -0.04935681, -0.03770966, -0.01659186, 0.17030860, 0.00886512, 0.13750708, 0.12020686, -0.08268178, -0.06129985, 0.03496714, -0.03673924, -0.07137621, -0.13162272, 0.03651467, -0.20229757, -0.18394542, 0.15147136, -0.18372583, 0.17246367, -0.13901564, 0.02427595, 0.00355428, 0.09208011, -0.25103414, -0.03731965, 0.18517414, 0.18399520, 0.14687543, 0.18998793, 0.07350393},
  {0.04564459, -0.17764680, -0.00251392, 0.16565053, 0.08799415, 0.08557754, 0.02586059, 0.00603340, -0.07960914, 0.20244943, -0.08533474, -0.00325613, 0.16840497, -0.11858148, 0.16984715, -0.03358952, 0.09280827, 0.12345324, -0.03317177, -0.15636629, -0.10625640, -0.05917066, -0.18620978, 0.08094348, 0.23538093, 0.11638784, 0.04891650, -0.20861256, 0.10904660, -0.29404652, 0.01728237, -0.05072122, 0.16273671, -0.17706148, 0.06104904, 0.09456015, 0.08345171, -0.01118879, -0.15423743, 0.14448458, -0.02600846, -0.07971184, 0.30766499, 0.14798008, 0.02930256, 0.16770925, -0.01966572, 0.21865247, -0.18102403, -0.07607906, 0.15823901, 0.01069607, -0.02742195, 0.11414608, -0.10508238, -0.03455473, -0.06395552, -0.13814007, 0.22340603, -0.07322199, -0.13768333, -0.16880508, 0.07405545, -0.12265545, -0.10846393, -0.30247965, -0.09773188, -0.03125295, -0.16672170, 0.20367347, -0.10347887, -0.02709017, 0.22274545, 0.16126624, 0.21405229, -0.06658369, 0.12506203, -0.01171937, -0.17264742, 0.02878657, -0.14299981, 0.05533081, 0.23414420, 0.03633503},
  {0.10548286, -0.13292074, -0.16774534, 0.01647607, -0.09099916, 0.06746940, -0.07694587, -0.05767993, -0.05512413, -0.06925524, 0.13433030, 0.07091311, -0.19824252, 0.03182146, 0.05344638, -0.19507687, -0.02355892, -0.07275034, 0.08575155, 0.17595316, 0.04793600, -0.02251777, 0.12249704, -0.12381335, -0.03388214, 0.05356644, 0.05033061, 0.13729487, -0.02443784, -0.06436209, -0.14811622, -0.05580103, -0.19285348, 0.10097663, -0.10944656, -0.13838190, 0.08353119, 0.10284359, -0.05254791, 0.11397040, -0.15087657, 0.09020854, 0.05005836, -0.13606074, -0.14880481, -0.14127138, -0.03960245, 0.00664754, 0.17013364, -0.10911522, -0.01286205, -0.01351680, 0.02457931, 0.05670948, 0.15526991, 0.10050578, -0.25192031, 0.03203482, -0.02446603, -0.01849945, 0.20064557, 0.12444016, -0.03782525, 0.14495732, -0.19228967, -0.19767210, -0.16370027, 0.17496246, -0.09098519, 0.10560323, -0.22726953, 0.11509354, -0.11385848, -0.09317879, 0.13929199, 0.17206053, -0.17332442, 0.18470733, 0.02909083, 0.06949341, -0.12300526, -0.16474377, 0.12706740, -0.09075798},
  {0.02274645, 0.16731486, -0.05178862, -0.04518156, 0.08075645, 0.07255743, 0.06926087, 0.20706676, -0.12777580, 0.02803356, 0.09571347, 0.12150177, 0.07450341, -0.17028612, -0.00032988, 0.13224527, -0.04910702, 0.25263679, 0.02607782, 0.19804965, -0.10284260, -0.12649727, 0.10391531, 0.04850885, 0.14253013, 0.10372713, 0.07543893, -0.14903389, -0.01195366, -0.21226831, 0.13485879, -0.11755882, -0.03030737, 0.06408409, -0.03936826, 0.21100470, -0.09067767, -0.22270539, 0.07631450, -0.10978556, -0.17301051, -0.19343859, 0.05918080, 0.00103600, 0.09010661, 0.11800472, 0.01189706, 0.17452805, -0.09716949, -0.10212710, -0.06312338, -0.11267785, -0.04394463, 0.04828194, -0.14326376, -0.06703781, -0.12648839, -0.19754982, 0.10986487, -0.15771168, -0.06056264, -0.07258154, -0.09285746, 0.20356762, 0.02429852, -0.04213890, -0.08696070, -0.03222669, 0.01453617, 0.11882437, 0.10773167, 0.18473861, -0.16384351, -0.05817806, -0.00250229, -0.10461228, 0.19156736, 0.04083243, -0.24650984, 0.00275720, 0.11347192, 0.05075908, 0.15725340, 0.02579108},
  {0.03200075, -0.02449156, 0.10133801, -0.16078225, 0.05326227, -0.15884395, -0.16112928, 0.17183475, 0.25888941, -0.01224263, -0.05499392, 0.09326802, 0.21830580, 0.07787225, -0.11209497, -0.15942416, 0.07144399, -0.03607688, 0.23470089, 0.02671889, 0.21577266, 0.01489678, -0.08069417, 0.16064139, -0.20807289, 0.19798075, -0.01642583, -0.07872164, 0.06441790, -0.04749415, -0.09033390, 0.22715625, -0.09549753, 0.27089977, -0.07730737, -0.05266051, -0.04996409, 0.26769075, 0.02592147, -0.05411995, 0.03208400, 0.07859847, -0.30725947, -0.09848098, -0.02727002, -0.18994612, 0.05940948, -0.35566443, -0.16711779, -0.20350577, 0.01676010, -0.03271064, -0.31699467, 0.11900476, -0.12473254, -0.11755443, 0.16606784, -0.08146907, 0.09203301, 0.15858664, 0.09145179, 0.04714864, -0.17500815, -0.02901689, 0.11497786, 0.22316924, 0.14697032, 0.00978789, -0.02421712, -0.10575284, 0.29541016, 0.03276245, -0.10886636, -0.05780331, 0.05226845, -0.10902542, -0.05010766, -0.29648522, 0.04300988, 0.02023666, -0.14481775, 0.04439776, -0.18620676, -0.14394304},
  {0.11534370, -0.15323950, 0.10970692, 0.16785906, -0.06428668, -0.02526921, -0.14940999, 0.09817626, 0.09115458, 0.17830729, 0.04768969, -0.03837340, -0.15808977, -0.09256967, 0.08785763, 0.19528896, -0.01729137, 0.02028030, 0.10765163, -0.06691024, -0.12844115, 0.13430630, 0.16185167, 0.17282425, -0.08269984, 0.08969542, 0.16590124, 0.10691173, -0.10448354, 0.17996295, -0.13308236, 0.07238249, 0.05660314, -0.15147489, 0.12045754, 0.07253891, 0.06989805, 0.12216546, -0.00872581, 0.01753948, -0.03593403, 0.15662847, 0.15004840, -0.15053898, 0.11869950, 0.00724354, 0.14963377, 0.08147641, 0.00657881, 0.12757292, 0.16008011, -0.01444192, 0.09124143, -0.07413306, 0.08965486, 0.04391920, 0.07196473, -0.16795152, 0.14518361, 0.08090931, -0.09676427, -0.10455982, 0.05892761, -0.07493080, -0.05300593, 0.03775146, -0.13784701, -0.05428397, -0.10708270, 0.03117165, -0.04481311, 0.16380346, -0.14468184, 0.05616456, -0.14689104, 0.19207919, -0.10009307, -0.04864823, -0.19865763, -0.11942845, 0.02576447, -0.19172269, 0.07473277, -0.08668242},
  {-0.15024568, -0.15449017, 0.07711015, 0.12858269, 0.00822273, -0.06944216, 0.03343144, -0.21320337, 0.16223648, -0.05289689, -0.05660696, 0.00432230, -0.11224303, -0.18209191, -0.09623709, -0.08751067, 0.03485765, 0.13371862, -0.12320464, -0.18534918, 0.00976581, -0.09894612, 0.06647127, 0.00487771, 0.09201081, -0.15955384, 0.14238483, 0.02095843, 0.04472246, -0.13438351, 0.12275159, -0.20941345, -0.11292939, -0.09483062, -0.14899583, -0.26992261, -0.21373233, 0.08911607, 0.12531403, 0.20943551, -0.09675913, -0.03111436, -0.10535012, -0.05604123, 0.07158170, -0.00143533, -0.09905145, 0.04937286, 0.10312065, 0.14111957, 0.05213835, -0.23200729, 0.16521657, -0.15789615, -0.09155785, -0.04760294, -0.00001791, 0.20641443, -0.10605859, 0.16809477, -0.01312891, 0.02211884, 0.12330102, 0.12759247, -0.29420489, 0.01020973, -0.06210799, -0.05168070, -0.18236043, 0.19350813, -0.31505647, -0.00683700, -0.09854045, 0.04336941, 0.00351136, 0.15656687, -0.23995325, -0.00278036, -0.08944684, -0.06125057, -0.02341177, 0.13774915, 0.00142242, 0.09964421},
  {0.02242697, -0.01408429, 0.07643984, -0.02138021, 0.06206886, -0.16661146, -0.15163709, 0.01726911, -0.10366541, 0.06355955, 0.07755388, 0.05316429, -0.07678492, -0.14577743, 0.16807222, 0.18190511, 0.18498874, 0.07707241, -0.06542288, -0.22300422, 0.23069435, 0.12812944, 0.17899552, -0.09101112, -0.06491316, 0.10270946, 0.16991030, -0.11697002, -0.08481474, -0.08339801, -0.03373874, -0.01009183, 0.10176340, 0.10099182, -0.08057885, -0.16633318, 0.01969892, 0.13916419, -0.16578859, 0.01358911, 0.09134123, -0.12289956, 0.14358705, 0.05950269, -0.20211503, -0.02536582, -0.06245642, -0.03678036, 0.08280040, 0.11372279, -0.00486339, -0.08275148, 0.13331258, -0.10310142, 0.16913439, -0.15813135, 0.18804945, 0.03303503, -0.13581629, 0.07148619, -0.16865534, 0.05840938, 0.09534086, 0.02234289, -0.09261800, 0.03222616, 0.01410074, 0.13280965, -0.11070562, -0.00238614, -0.12253497, -0.08284523, -0.00369013, 0.25271112, -0.06908543, 0.02788782, 0.03682089, 0.20344356, -0.14520814, -0.12526542, -0.04715516, 0.13575216, -0.18265483, -0.11462045},
  {-0.01254544, 0.06950255, 0.07333328, -0.01468473, 0.05832352, 0.04023466, -0.01637491, -0.09681845, 0.05499215, 0.00492733, 0.20111355, -0.09806991, -0.15711679, -0.13014999, -0.05103042, 0.08617681, 0.10581093, 0.10004035, -0.09871783, 0.12505715, 0.10521440, 0.16087997, 0.07987286, 0.17753321, -0.09248652, 0.13734040, 0.05667611, -0.14526692, 0.10193095, -0.07155596, -0.10425469, -0.07557664, -0.04654222, 0.18132123, 0.03684068, 0.07581978, -0.14678878, 0.01793795, 0.09623305, 0.12107118, 0.16704564, -0.05867011, -0.08665664, 0.04539925, -0.03597208, -0.08837516, -0.05916989, 0.09357983, -0.00933865, -0.13730824, 0.14136107, 0.23355359, 0.13082425, 0.12388222, 0.15430807, -0.07246696, -0.02600541, 0.18722694, -0.12712295, 0.07095619, -0.09358010, -0.19144051, 0.03235303, -0.01576190, 0.00388438, 0.15836671, -0.07943547, -0.13638936, -0.16842708, -0.02619709, 0.03058508, -0.10264722, 0.21133511, -0.12077726, 0.10745524, 0.18503314, 0.05634762, 0.10481998, -0.01809452, 0.13267085, 0.19919328, 0.09118649, 0.08240537, 0.12432749},
  {0.24141639, -0.07044086, -0.22522227, 0.19932990, 0.13368979, -0.07365099, -0.11036055, -0.08167226, 0.09752552, 0.19362275, -0.01278437, -0.20417856, -0.14345698, -0.00000022, 0.11795449, -0.05753159, 0.17121434, 0.13977681, -0.06392995, 0.08871175, 0.06270243, -0.12986641, -0.13513488, 0.15465441, 0.01407812, 0.01227243, -0.18350726, 0.16864951, -0.08301952, 0.09878466, -0.17548081, 0.18488616, 0.16473590, 0.08460718, 0.00377339, -0.02264327, -0.18824923, 0.18768375, 0.12617792, 0.17814715, -0.05160239, -0.01231876, 0.03941446, -0.12738295, -0.12304176, -0.05242734, -0.10332654, -0.03546954, -0.19791682, 0.14828965, 0.12463266, 0.02813791, -0.03632698, -0.13944574, 0.03890974, 0.10377619, -0.20880939, 0.00974338, 0.05115823, 0.18508448, 0.10009059, -0.17651422, -0.10470418, 0.02837981, 0.03806086, 0.13591667, -0.01906169, 0.04967266, 0.10394602, -0.08828223, -0.12197852, 0.12469476, 0.11088761, -0.13655457, -0.09394967, 0.01523881, -0.06499844, -0.13517331, 0.01677733, -0.04990972, -0.02419457, 0.15066478, -0.07156591, -0.19085704},
  {0.03508959, 0.05058570, -0.03844708, -0.04554516, -0.02109287, -0.00934017, 0.08657446, 0.01717055, 0.03366080, -0.07597516, 0.03327995, -0.12192447, 0.04262803, 0.09966316, -0.12182198, -0.03931003, 0.07011119, -0.31609663, 0.11290370, 0.26025608, 0.02245196, 0.17108643, -0.11018451, 0.28005245, 0.04116739, -0.13821973, 0.12708782, -0.04322089, 0.09121664, -0.09271106, 0.03472985, 0.08580487, 0.01139584, -0.02244896, 0.19098698, 0.20320298, -0.13742949, 0.15551315, -0.16680145, -0.13073500, -0.14669856, -0.01955919, 0.07440455, -0.07921827, -0.14628264, -0.04542228, -0.15619683, -0.09231911, 0.03703836, -0.23348732, 0.23831238, 0.10276619, 0.01725349, -0.01381975, -0.01806887, -0.17409161, 0.04372747, -0.00244720, -0.17379880, -0.02709700, -0.09166694, 0.12493719, 0.12469569, 0.06627962, -0.00960177, -0.05971368, -0.15982449, -0.17046027, -0.07581543, 0.02256284, 0.17318203, -0.04608357, 0.16035111, -0.09329328, 0.16266541, 0.00308896, 0.06546146, -0.04725548, -0.22772172, 0.03310503, 0.10874733, 0.05779508, -0.04084056, 0.16134560},
  {0.06308673, -0.05613044, -0.07371859, 0.04674308, 0.04868730, 0.12133981, 0.06319167, -0.17278664, 0.09687247, -0.01231563, -0.05722786, -0.04939860, 0.01457863, -0.12205864, -0.08462452, 0.05429933, -0.02702961, 0.02808168, 0.08190456, 0.04427271, -0.15989868, 0.13154151, -0.14748491, 0.04000048, -0.16634741, 0.07084995, -0.03775579, 0.15489832, 0.13161995, -0.05803333, 0.16350003, -0.09378561, 0.16610552, -0.13112697, -0.01457289, 0.14084968, -0.15921728, -0.06742296, 0.15676579, -0.05624088, 0.08018159, 0.16479750, 0.01077009, 0.16109945, 0.01684363, -0.01096420, -0.15418850, 0.09393159, -0.10877922, 0.15493400, -0.14039551, -0.02822801, -0.05780428, 0.11032648, -0.13053127, 0.08171558, 0.16932149, 0.01903145, 0.05429548, 0.04708347, 0.04530996, 0.00532715, -0.13676438, -0.04893198, -0.03262586, -0.12402860, 0.12165155, 0.14799912, 0.11340509, 0.03786794, 0.10842647, -0.09922277, -0.03849563, -0.16754206, -0.02058309, -0.12147484, 0.03753910, -0.01740722, -0.02609800, -0.07112508, -0.09512021, -0.03447164, -0.14329576, -0.01788133},
  {0.22897094, -0.06494277, 0.13692398, 0.01240806, 0.04342547, 0.01200916, 0.03200646, -0.12841032, -0.02022769, 0.12870917, 0.10980208, 0.21369706, -0.08654959, -0.05178394, -0.11391865, 0.10613024, -0.09046499, 0.07409582, 0.10395784, 0.06732223, 0.17377567, 0.15795057, -0.23169915, -0.12985840, 0.00176854, 0.17722774, -0.04633363, 0.19443443, -0.07636458, -0.00022048, -0.10208041, 0.17175113, -0.13211846, 0.15291102, -0.15678719, -0.09435260, 0.08950132, 0.00625236, -0.00568760, -0.04873650, -0.13973942, -0.12835295, -0.03192447, -0.15115027, -0.18328005, 0.11117381, 0.16070344, 0.08781344, 0.04154814, 0.04951262, 0.10882006, 0.07203453, 0.10492665, -0.17752855, -0.12004898, -0.15913010, 0.22069161, 0.16927899, 0.01127606, 0.10485239, 0.04615751, -0.12335340, 0.19091661, 0.13902903, 0.12314932, 0.09315608, -0.13419083, -0.04096618, 0.12884390, -0.12357418, -0.06591830, -0.13704026, 0.01789858, -0.04380265, 0.10078423, 0.12909080, 0.06774133, -0.15060398, 0.06880747, 0.09861420, -0.00939766, 0.01772907, 0.10992686, -0.18522318},
  {0.04420306, -0.03981851, 0.06592750, -0.07530835, -0.05523778, 0.10561292, -0.02185464, -0.20201053, 0.22276793, -0.00019777, 0.04423636, 0.18141118, -0.01088314, -0.07351545, 0.06418166, 0.25235227, -0.14131638, 0.10760377, 0.19027179, 0.20398332, -0.09297223, -0.11211932, 0.01309950, -0.09052419, 0.00916868, 0.05197589, -0.23564328, -0.14051248, 0.00054455, -0.08788811, -0.03525985, 0.11816273, 0.01794710, 0.14392135, 0.02090009, -0.01108904, -0.12019962, -0.16330536, 0.11825570, -0.22337444, -0.23152469, -0.25651997, 0.04710354, -0.11140213, -0.05376162, -0.03217890, -0.05256964, 0.07699054, -0.09049308, -0.04724494, -0.01802810, -0.07772437, 0.00097127, -0.09064555, -0.02534885, 0.05487975, 0.15694192, -0.18515298, -0.08298865, -0.21968609, -0.14588651, -0.12252093, 0.10194134, 0.11158654, 0.20271498, 0.10139121, -0.02065770, -0.26157477, -0.15503313, -0.01771882, 0.13558571, -0.23357221, 0.14248508, 0.13152957, -0.15569600, -0.06328043, 0.17074360, -0.10493995, 0.00307318, 0.17461509, 0.08603783, 0.13587455, 0.05042392, 0.08647466},
  {-0.01459392, 0.02944955, -0.18518431, -0.10006057, -0.06210140, -0.03011224, -0.01533322, 0.07938674, -0.17529382, -0.00778503, -0.10594346, 0.10620045, 0.05715852, -0.12928905, 0.19345815, 0.14685199, 0.16648276, 0.25058395, -0.19386713, 0.13955326, 0.06912327, -0.14085576, 0.00170597, 0.03350085, -0.29125825, 0.02396576, 0.09883081, -0.27314976, -0.04349255, -0.01842958, -0.19942737, 0.00685629, -0.00542554, -0.00583383, 0.09266732, -0.10837878, -0.17222768, -0.17498992, -0.14796221, -0.09781836, 0.00395691, 0.05010763, -0.05863674, -0.13550685, 0.09412422, 0.14570180, 0.07681832, 0.21432713, -0.01727450, -0.12721229, 0.04153376, 0.03364859, -0.07732180, -0.18074343, -0.01836582, -0.15399076, 0.20858870, -0.19810523, -0.07330003, -0.09283869, 0.11452653, -0.05594508, -0.03740874, 0.02255445, -0.02023129, -0.03843238, 0.08012001, 0.04622741, -0.05299804, -0.12433320, -0.00069339, -0.03959463, 0.06773062, 0.03181605, 0.01867985, -0.06214949, 0.13850065, 0.17667550, 0.16214851, -0.10045700, 0.17425451, -0.16127031, 0.11099768, 0.01701889},
  {-0.15676379, -0.13093510, 0.00758974, 0.02650036, -0.18261169, -0.24657781, 0.11552252, -0.02538207, 0.04368768, 0.07579186, -0.09715874, -0.04861682, 0.15333259, 0.07835221, -0.11507862, 0.08412023, -0.10208558, -0.16955276, 0.18441162, -0.00800223, -0.17153844, 0.15629797, -0.02728789, 0.13937803, 0.15193909, -0.14541587, 0.02020948, 0.19832152, 0.08841832, -0.23428583, -0.04364599, -0.09754688, 0.13953575, -0.16914114, -0.00337789, 0.18752244, -0.11275177, -0.03015846, 0.03515319, -0.05843644, -0.13521086, 0.10579357, 0.04645809, 0.02724961, -0.07156492, 0.16275115, -0.22280473, 0.25345325, 0.10277095, -0.04344951, 0.19009298, 0.05314958, 0.18955640, -0.04790195, -0.14314608, 0.05122799, -0.15258574, 0.14197603, -0.02379985, 0.12817588, 0.17724310, -0.04780845, 0.17244785, -0.01460780, 0.03553282, -0.12912552, 0.13966371, 0.10233997, -0.11896718, 0.06651714, -0.08537830, 0.11866932, -0.01181252, 0.13904610, -0.22158034, -0.07243470, 0.05947815, 0.05502567, -0.22411750, 0.17052731, 0.05009795, 0.09925073, -0.00828490, 0.12657268},
  {0.18652122, 0.01971174, 0.08559951, -0.10525151, -0.13230251, 0.30029994, -0.03291258, -0.01441188, 0.16903678, 0.21954332, -0.16239262, 0.21214187, -0.23405738, 0.12622514, -0.13774839, 0.02522402, -0.07426298, 0.17935318, 0.04528061, -0.12712222, 0.07749580, -0.00562258, -0.18422265, -0.13832515, 0.12302095, -0.09427662, -0.23553251, 0.03920122, -0.10283960, -0.07824756, 0.07755644, -0.09986913, -0.15510525, 0.05367740, 0.14722587, 0.02648321, -0.09749285, 0.11821866, -0.14642353, 0.01866221, -0.24158256, -0.09039375, 0.12149277, -0.06180038, 0.07646128, 0.17091866, 0.23808010, 0.17753647, -0.07498974, -0.21921395, 0.01509384, -0.10486058, 0.04623772, -0.15162846, -0.10976686, 0.16884767, 0.13003479, 0.14392066, 0.09728714, -0.04235052, 0.19168265, -0.15846881, 0.15899405, 0.21002547, 0.18752113, 0.09832582, -0.11535472, -0.00946318, 0.08506814, -0.11926396, 0.12827048, -0.04123114, -0.02863226, -0.14822313, -0.00945447, -0.10882128, 0.03203875, -0.00099517, -0.00377565, 0.07712328, -0.06233612, 0.01347052, 0.07112963, 0.05682960},
  {0.14481904, -0.15419811, 0.09761284, 0.13940853, 0.00522659, 0.02630559, -0.03108165, -0.10484134, -0.08442654, 0.01170918, -0.12552720, 0.20260672, -0.19242930, 0.11751387, 0.06931265, -0.07567751, 0.14040209, 0.14669116, 0.00250801, -0.08089150, -0.14482094, 0.07475594, 0.09591038, -0.01090098, -0.28240311, -0.09924945, -0.14059564, 0.19094896, -0.12605420, 0.00079845, -0.20351194, -0.00609101, 0.02451731, 0.03188119, -0.00232117, -0.03916043, -0.09916269, 0.00951767, 0.07390473, -0.02157671, 0.14413559, 0.08056456, 0.16221407, -0.02991010, 0.04450592, -0.15510024, -0.09370060, 0.14848991, -0.00644190, 0.14823771, -0.02160446, 0.04249116, -0.02359002, -0.10800732, 0.08002985, -0.04891044, 0.05550392, 0.00701212, -0.16258620, 0.03624192, -0.04210760, 0.08960238, 0.15547056, -0.10554157, 0.07333612, 0.13873391, -0.12980542, -0.23192659, -0.19747472, 0.16480136, -0.02201748, -0.21329661, 0.05291877, 0.04735167, -0.17322715, -0.02251736, -0.21948607, 0.05718851, -0.02664745, 0.04638753, -0.02278748, 0.04403513, 0.11111984, 0.00728344},
  {0.04867651, 0.19793645, -0.13812812, 0.03373276, -0.01156660, -0.33582142, -0.08246062, 0.20867047, -0.02644314, -0.04860472, -0.04437543, 0.07451502, 0.02157262, 0.04949611, 0.03240127, 0.08178388, -0.06784520, 0.03295975, 0.11584166, 0.11015020, 0.05496106, 0.02207674, -0.13648827, 0.08422658, 0.09048488, -0.14390609, 0.13761146, -0.21761371, 0.10262041, -0.01215353, -0.08155756, -0.14347473, -0.06713288, -0.09231871, -0.15475932, 0.24029911, 0.18838570, 0.12483061, -0.11793707, 0.09694470, -0.08994899, -0.00542349, -0.01642666, -0.06667434, -0.01374738, -0.05593336, 0.09834627, 0.06255964, 0.15128393, 0.11160517, -0.06499682, 0.02008444, 0.13176957, -0.17233111, -0.18896420, 0.00222818, -0.06957848, 0.11655006, -0.04961324, 0.06575589, 0.16627404, -0.09182921, 0.04838846, -0.13658395, -0.08029319, 0.06915186, -0.08839807, 0.14753893, 0.01540538, 0.04385364, 0.12059548, 0.18951212, 0.16767772, -0.05367829, -0.11768543, -0.02591281, 0.17798533, -0.00476640, -0.06820975, -0.01482794, 0.21292317, -0.10474183, -0.09042326, 0.14531454},
  {0.15367986, 0.12813848, -0.06165913, 0.09568223, 0.03056393, -0.13929577, 0.14067237, -0.04917733, 0.10891059, 0.11379386, -0.14482097, 0.09600633, -0.09470356, -0.06120672, -0.12844729, -0.16734792, -0.09417450, -0.09913761, 0.15963578, 0.00681761, 0.05430212, -0.15836757, 0.14970158, -0.04548625, 0.07843635, -0.05046141, -0.16407205, -0.09599975, 0.09572203, -0.08632901, -0.11737601, 0.07626887, -0.09083042, 0.13336782, 0.04947764, -0.00833367, 0.00292260, 0.13229068, 0.12436279, -0.14283580, 0.08367641, -0.07537714, -0.00264532, -0.07631012, -0.03533907, -0.12558833, -0.09724553, -0.11906922, -0.09032606, -0.01857706, 0.12424880, -0.01414070, -0.05344424, -0.10219680, 0.07622553, -0.03853360, 0.09304813, -0.15384260, -0.10052986, 0.08264230, -0.08325710, -0.00891059, -0.15916491, -0.09850645, -0.03379794, -0.02157360, -0.15745769, 0.04020816, 0.01618065, -0.12771966, -0.09790278, 0.10061067, 0.07666991, 0.05822178, 0.14817730, 0.17394935, 0.06032730, 0.15338884, -0.10653810, -0.03202647, -0.11543343, -0.07313983, -0.02131523, 0.15801311},
  {-0.28187403, 0.15316403, -0.10437514, 0.06762579, -0.13024254, 0.03458670, -0.17997779, 0.05307546, 0.06955954, -0.07962494, 0.21807350, -0.13782066, -0.09816265, 0.00735543, 0.13780168, 0.03109340, 0.01856877, -0.19291764, -0.10050919, 0.11278954, 0.00482201, -0.22305091, 0.00242116, -0.03446051, 0.08533785, 0.15451238, 0.06563991, 0.14073266, 0.15171625, -0.08036367, 0.20707634, -0.20907845, 0.04648290, 0.01406407, 0.02017422, -0.04896919, 0.15421383, -0.20964019, 0.00983296, 0.11701875, -0.01805062, -0.05033157, -0.02599459, -0.13591731, -0.11956023, -0.16372573, 0.03733463, 0.04489329, -0.17227440, -0.00472427, -0.05710004, 0.37699509, 0.09152716, 0.07654627, 0.01149955, -0.15775366, -0.15377021, 0.06356944, 0.10011195, 0.09813417, -0.31376660, 0.10497527, 0.04442224, -0.16878450, 0.01987160, 0.17126492, 0.08020501, -0.02370235, 0.07160576, 0.09745730, -0.03814140, -0.06463506, 0.11334791, 0.17087056, -0.01626366, 0.05587040, -0.00063058, 0.06817024, 0.12714638, -0.13005568, -0.13372850, 0.02279495, 0.00941084, 0.13226204},
  {-0.18039943, 0.04032123, -0.13373226, -0.22652330, 0.06034817, -0.19227871, -0.00551337, 0.14313824, -0.20389318, -0.06872319, -0.04363398, -0.08393893, -0.03117880, -0.00475794, -0.13116676, -0.07994564, 0.19628029, 0.23264953, -0.00756963, -0.05676270, -0.07587606, -0.02299484, 0.08242773, 0.17395596, -0.32950631, -0.24242570, 0.26317352, -0.04435571, 0.02481160, 0.15592082, -0.17681551, -0.14631118, -0.00594104, 0.09478784, -0.19839370, 0.02503831, 0.18412337, -0.11598484, 0.09270081, 0.15895377, 0.11575174, -0.01481572, -0.24350797, -0.11607986, 0.05985248, 0.07574883, 0.20574193, -0.12949201, -0.12385485, 0.04911595, -0.08715335, 0.17955473, 0.05426487, -0.00538690, -0.07929338, 0.16633154, 0.25436613, -0.01025305, 0.14227638, -0.16033217, -0.13342486, -0.14913768, 0.11027975, 0.21361329, -0.05916454, 0.11085247, -0.13196512, -0.08974006, 0.02057602, -0.19664073, 0.14701653, 0.15656655, 0.00282827, 0.03981853, 0.05490942, 0.12041664, 0.08411666, -0.01065048, -0.15744108, -0.22330512, 0.26811683, 0.07433012, -0.17649998, -0.06797646},
  {-0.02915275, 0.11198015, -0.00874845, -0.02342188, 0.04072322, -0.01693585, -0.15537760, 0.04621220, 0.25383574, -0.07769246, -0.09773891, -0.00999294, 0.18786533, -0.03670958, 0.26370251, 0.27157530, 0.19094203, -0.04088435, 0.16967762, 0.03822011, 0.26299468, 0.04089269, -0.20462848, -0.21888436, -0.02094384, -0.05244876, 0.03095196, 0.00856514, -0.08776604, 0.08760559, -0.05947553, -0.11877991, 0.10403337, -0.01394115, -0.12979461, -0.28921911, -0.19188356, -0.22869045, 0.03271583, 0.02487153, -0.05269860, 0.00976483, -0.04263933, -0.01171567, -0.01847279, -0.24040873, 0.01467802, -0.07423751, 0.15305185, 0.18478671, -0.14030057, 0.11902755, -0.06883970, 0.09152293, 0.30590773, 0.08852978, -0.06262776, 0.14236891, 0.15491256, -0.04284858, -0.23341641, -0.10440312, 0.21008894, -0.19109733, -0.10372641, 0.08051106, -0.11555840, -0.14980404, -0.12029240, -0.02160162, -0.18499890, -0.19864951, 0.01755098, 0.14715862, -0.07527838, 0.15181847, 0.05450007, 0.08820233, -0.26684740, -0.17456022, -0.21542594, 0.13307613, 0.04251511, -0.10923050},
  {-0.06009824, 0.12455396, 0.19801746, -0.10175782, -0.03166092, -0.19393332, 0.00346084, 0.01989728, -0.16782804, -0.13204694, -0.02144248, 0.09247644, -0.07922570, 0.09220742, -0.12424978, -0.10805339, 0.15796897, -0.00894623, 0.05576708, -0.08199625, 0.07438847, 0.33603129, -0.04446692, 0.08612525, -0.01447624, -0.04093304, 0.04853354, 0.14481774, 0.13652126, -0.13523106, -0.00936718, 0.02959712, -0.16132981, 0.20786092, 0.05976724, 0.02130302, -0.11854717, 0.07745697, -0.02615512, 0.15897565, -0.00742653, 0.05642686, -0.03256088, 0.11081339, 0.03508154, 0.00699597, -0.04313988, -0.27380267, 0.04124307, 0.04975504, 0.10617498, -0.24653301, 0.17750691, -0.02027927, -0.10111988, -0.03705416, 0.17592977, 0.08808307, -0.11528015, -0.17166939, 0.23325126, -0.09083818, -0.14104487, -0.01959849, 0.08225305, -0.18454857, 0.00563201, 0.18014383, -0.03504999, -0.14980210, -0.10792706, 0.10724839, -0.08778728, -0.04011261, 0.16804442, 0.07151180, 0.03023424, -0.10660013, 0.11461061, 0.20063929, -0.11133301, 0.24441338, -0.16497800, 0.09739808},
  {0.10896599, -0.08032776, -0.12029117, -0.04229495, -0.01633072, 0.18997212, 0.10434069, -0.09769688, 0.04530669, 0.09054205, 0.14833581, 0.18501554, 0.01546361, 0.13227852, 0.01580369, 0.00603556, 0.09344082, 0.08482019, -0.00751215, -0.05608439, -0.10950579, -0.00165202, -0.20946357, -0.09049083, -0.15116253, 0.07883757, -0.03329288, 0.10485879, -0.05939372, 0.10165113, 0.05985219, 0.14229311, 0.05104808, 0.08418207, 0.18721823, -0.06875391, -0.01976543, -0.11504056, 0.15994649, 0.18221132, -0.01325689, 0.07342475, -0.11293551, 0.05300279, 0.00009379, -0.20106705, -0.19625597, -0.05602343, -0.00500584, -0.10557921, -0.06748069, -0.11595375, 0.07286675, -0.19205348, -0.03955596, -0.07540219, -0.16387430, 0.08234718, -0.07471246, 0.13569281, 0.06433211, -0.06303791, 0.15684484, 0.03614032, -0.20700473, -0.14920573, 0.04869040, -0.12433454, 0.00106570, 0.09189689, -0.00306236, -0.20778632, 0.07741444, 0.16156712, -0.24574657, 0.19421807, -0.08852253, -0.04941180, 0.05835225, -0.08243411, -0.18553275, -0.14750870, 0.20578437, -0.08685780},
  {-0.14024562, 0.07634528, 0.05853263, 0.10546990, 0.12228736, 0.02989499, -0.03573925, -0.10081099, 0.09606952, -0.14925678, 0.13550362, -0.16396838, 0.12764615, 0.02988576, 0.20405315, -0.14139649, 0.02522025, 0.03980346, 0.04915614, 0.16065556, -0.07066455, 0.06205020, 0.14252353, -0.10844807, -0.10678853, 0.16518301, -0.09319674, 0.11690673, -0.21161447, 0.17434093, 0.01146927, -0.03133663, -0.05053924, -0.11519632, -0.19210765, 0.02487224, 0.05389964, 0.08444634, 0.12987979, 0.10082650, 0.02818094, 0.17857422, 0.14680006, 0.11277089, -0.07018173, -0.13706517, 0.01851757, 0.10890178, -0.20915495, 0.09984101, 0.04285052, 0.14846502, -0.03392125, -0.10132859, 0.16155842, -0.08036400, -0.00093923, 0.08348955, 0.15322173, 0.09458409, 0.01546499, 0.12937073, 0.10549446, 0.20009363, -0.25843033, 0.15091243, -0.15115702, -0.06634010, 0.04567616, -0.01881552, -0.09949359, 0.12035859, -0.15323161, -0.14934479, 0.10408492, 0.04008935, -0.04173001, -0.06665169, -0.16618608, 0.11853912, 0.02137265, 0.04121895, 0.04264611, -0.05474488},
  {0.04260484, 0.02645425, 0.13698378, -0.10247463, 0.10508000, -0.02247892, 0.02883492, 0.10207379, 0.18896882, -0.20535758, 0.18761899, -0.10106012, -0.08748947, -0.17284302, -0.00163329, -0.03233696, 0.10964342, -0.22259857, 0.22971949, -0.02274456, -0.20636459, -0.12529407, 0.09252388, -0.04646093, -0.09545081, -0.07461591, -0.19173484, 0.18759075, -0.00738555, 0.04225032, 0.09688585, 0.18646371, 0.19773681, -0.12424161, -0.22376744, -0.07612462, 0.03722460, -0.01142533, -0.01751991, -0.13499820, 0.07149583, 0.06112767, 0.13310997, -0.14953996, -0.04788338, 0.14877483, -0.15525177, -0.13745949, -0.23234896, 0.04802204, -0.09033664, 0.19389221, -0.14310414, -0.04911772, 0.25429738, -0.21196947, 0.10406032, 0.14518942, -0.05867685, 0.14014013, -0.03039722, 0.07214323, -0.06873450, -0.03600134, 0.14308560, 0.07062327, -0.00063430, 0.06554738, 0.18085296, 0.11290380, 0.15574424, 0.04857588, 0.19205710, 0.22468610, 0.15916821, 0.14604989, 0.13302571, -0.01923868, -0.12047868, 0.09957413, 0.08468331, -0.18794659, 0.01755043, -0.02534607},
  {-0.10976112, 0.10002035, 0.05419719, 0.03395120, 0.10013702, -0.02223311, -0.06645229, 0.17263322, -0.08319686, -0.03142427, 0.03051515, -0.12132326, 0.00458217, -0.13755643, -0.14315660, -0.02087400, -0.10226204, -0.09936746, -0.09927964, 0.00708972, 0.12594895, 0.19070567, -0.20263290, 0.00672347, 0.15507148, -0.01601758, -0.14247634, 0.01971101, 0.09574980, 0.12148622, -0.06783467, 0.17568921, -0.00415279, 0.19338757, 0.13979158, -0.06943829, 0.04162448, -0.08826272, 0.06557251, -0.08268360, -0.03495462, 0.11674158, 0.00858793, -0.18308613, 0.12511921, -0.11850522, -0.28451812, -0.07603154, -0.16257432, 0.04791619, -0.00012638, -0.07587686, -0.06917515, -0.18479091, 0.15887083, 0.13480988, 0.00482354, 0.18434139, 0.15780899, -0.04862848, -0.06342448, 0.10538603, 0.09511141, -0.09561206, -0.37319472, -0.18017586, 0.04146215, 0.19828296, -0.16375314, 0.21163878, -0.29319707, 0.04198091, -0.14724943, -0.02029482, -0.08958192, 0.18693432, -0.05215129, -0.08750060, 0.05678632, 0.22058000, 0.01843646, 0.16610888, 0.20285766, -0.14385763},
  {-0.04673108, 0.02006628, 0.19754881, 0.02030404, 0.19473062, 0.17932265, -0.11628376, -0.26128095, 0.05821953, 0.06949412, -0.18206413, 0.14761108, 0.35307792, -0.12724251, 0.24997239, 0.19051173, 0.18977351, 0.02976859, 0.04553616, -0.16445789, 0.28054664, -0.05927155, 0.16236982, 0.01650878, -0.02052425, 0.04048488, -0.06479938, 0.22423837, 0.05752134, 0.22745287, 0.04249230, -0.14836605, -0.05888668, 0.11578530, -0.16183308, -0.10495219, 0.12552713, -0.18429582, 0.19076540, -0.27553788, 0.05655558, -0.05476042, 0.02869828, -0.12778932, 0.06237844, -0.12786730, 0.12826891, 0.02448598, 0.00913684, 0.04834057, -0.22680973, 0.37962747, 0.03315961, -0.00496431, 0.14304304, -0.06003468, 0.19743845, 0.06014613, -0.03913965, -0.17363063, -0.03052620, 0.23880878, 0.17725223, -0.10475042, -0.10178559, -0.05235324, -0.05565315, 0.04626456, -0.05271204, 0.23069425, -0.05508234, 0.09548431, 0.06631916, 0.11837745, -0.08547702, 0.21874647, -0.02713898, 0.08137978, 0.09959497, -0.23950823, 0.09624206, -0.18728632, -0.09405382, 0.02709109},
  {-0.12818040, -0.13342501, 0.05725745, -0.07654461, -0.12530011, 0.00800073, 0.03516722, -0.10373471, 0.06377196, -0.03518491, -0.13698369, 0.03666234, 0.10694031, -0.04144645, -0.11939330, 0.16347836, 0.14502107, -0.03359861, -0.02849520, 0.11057666, -0.05392079, 0.09429695, -0.16462159, -0.00701188, 0.04226422, -0.12236565, 0.12279008, -0.09969760, 0.03686125, -0.09303865, 0.09069647, 0.00367529, -0.03677548, -0.12977698, -0.11801621, -0.00438000, 0.02345439, -0.12425757, -0.11256827, 0.02131527, 0.01707436, 0.13640992, -0.13435975, -0.13215248, -0.11849853, -0.10315935, -0.12471194, 0.07126924, -0.01616177, -0.01680298, -0.08216109, -0.08295521, -0.15827350, -0.00639941, 0.04085018, 0.08850467, 0.02415739, -0.03072537, 0.15812124, -0.10056838, -0.03862025, -0.16347255, -0.17167318, -0.16515820, 0.15503682, 0.06865989, -0.05687268, 0.10382965, -0.04691009, 0.11878973, -0.13735545, -0.04800959, 0.07571806, -0.08590293, 0.14413698, 0.03861124, 0.06487958, 0.07504151, -0.08572643, -0.09759750, 0.11846054, 0.03296589, -0.07278460, -0.02077302},
  {0.08821493, 0.09778655, -0.01185126, -0.07296050, -0.03473694, 0.18610360, -0.09280686, -0.26400229, 0.03086217, -0.04108753, -0.15029483, 0.24920344, 0.07475062, 0.10000445, -0.16400287, 0.01125182, -0.03578935, -0.06195560, 0.07778885, 0.04352300, 0.14957429, 0.24036743, -0.00116066, 0.09090666, -0.11963613, -0.15587948, 0.00028190, 0.05495228, 0.15972993, -0.03878491, 0.01266291, 0.01389292, 0.00292567, 0.17289960, 0.34268925, 0.23487714, -0.07172559, 0.37549239, 0.10345581, -0.13119338, -0.15989609, 0.06216025, -0.15490897, -0.11676006, -0.10225636, 0.01060457, 0.09010351, -0.20001997, -0.08477562, -0.11013358, 0.11361162, -0.06388875, 0.10195908, 0.00331374, -0.17851017, 0.14787090, 0.27328128, 0.24023895, 0.05287206, -0.21140814, 0.08539332, -0.11451482, 0.10290109, -0.01578612, 0.27550921, -0.00813843, 0.06373853, -0.14954136, -0.01353362, -0.21499392, -0.01765800, 0.16679002, 0.05999291, 0.15552320, -0.36353794, -0.31283414, 0.02087883, 0.00638283, -0.05430003, 0.29099596, 0.19870371, 0.24134040, -0.10327142, 0.08920685},
  {0.02023756, 0.11175103, 0.09794535, -0.10346711, 0.16620992, 0.03510454, -0.18534534, -0.07708219, 0.04787506, 0.12517144, -0.10979352, -0.11139765, -0.13727202, -0.17892565, 0.04642737, 0.03770529, 0.15669551, 0.15656157, -0.03886479, -0.10512082, -0.01604252, -0.08430202, 0.10300491, 0.12578012, -0.15257902, -0.00956446, 0.13556623, 0.07445380, -0.14334442, 0.02537182, 0.02025541, 0.13517590, 0.12261091, 0.06956518, -0.06069995, -0.16704573, -0.11059745, 0.13966721, 0.01414502, 0.14970665, 0.12620036, 0.04595331, 0.08678005, 0.07945825, -0.02467496, -0.08227313, -0.09198021, 0.16361193, -0.18291651, 0.13600607, 0.14645529, 0.06153520, 0.13617975, -0.07931046, 0.08299772, 0.03580023, -0.03993761, 0.04564859, 0.12931791, 0.19582598, 0.11005474, 0.02518077, -0.08371004, 0.04925719, 0.08859243, -0.10443026, 0.04369192, -0.08299275, 0.02018485, 0.06420536, -0.21096860, -0.14909098, -0.06483229, 0.06666685, -0.12663643, 0.04476545, 0.03213725, 0.18695596, 0.07695478, 0.18852071, 0.14051038, 0.09965376, 0.18602839, -0.05734658},
  {-0.09233902, -0.03162532, 0.19860180, -0.17580327, 0.04923349, -0.08136716, -0.00494321, -0.01957837, 0.20142929, -0.05891123, 0.00472038, 0.01467633, -0.09134345, -0.07314877, -0.16564766, 0.23737843, 0.05176345, -0.03891850, 0.03111409, -0.13949274, 0.14709248, 0.22558838, 0.14594641, 0.06062524, 0.08573911, 0.14555719, 0.24079958, 0.12275040, 0.28808188, 0.18224388, -0.07048529, -0.07330427, -0.10131481, -0.07665808, 0.08112201, 0.02754930, 0.12505688, 0.05276009, -0.18185176, -0.22388777, 0.02255195, 0.08074182, 0.02727166, 0.05472017, -0.15095817, 0.07212470, 0.17137489, 0.05601083, -0.12006444, -0.00343365, -0.04318086, 0.04423071, -0.10914363, 0.04200337, 0.09214003, -0.14784108, 0.14432125, -0.06666113, -0.20663428, -0.22532706, 0.22495814, -0.16846794, 0.05793567, 0.05613837, 0.10846810, -0.12265472, -0.12789880, 0.02854512, -0.01860471, 0.05477867, 0.08164413, 0.10756513, -0.03323189, 0.00845853, 0.05655475, 0.05808908, 0.09947465, 0.12630717, 0.03723307, 0.14488809, 0.11467268, 0.13392609, 0.10664058, -0.10151522},
  {-0.04717408, 0.00189436, 0.12600523, 0.21100377, 0.14142025, 0.15233552, -0.06607284, -0.02801879, 0.18230253, -0.02404083, 0.06760715, 0.06182477, -0.13148406, -0.14603764, 0.08030333, 0.02377949, 0.17622787, 0.04920832, -0.08559044, 0.16338323, -0.14257249, -0.10101524, -0.07997089, 0.03565372, -0.08790966, -0.19020469, -0.15711540, 0.14240529, -0.06490400, -0.13738512, -0.10153981, -0.05312963, 0.04021934, -0.18459937, 0.10992745, 0.07389104, 0.11135700, -0.12026396, 0.18805377, 0.09962610, -0.08253647, -0.01461965, 0.15942079, -0.18043768, -0.15585390, -0.15196012, -0.10497192, 0.23259066, -0.16042414, 0.14375268, 0.03100033, -0.13566333, -0.03878658, -0.07603243, 0.11175255, -0.17516838, 0.02267119, -0.15112948, -0.09033997, -0.08305579, -0.09055220, -0.05535709, 0.16675705, 0.18740331, -0.14695960, 0.05212995, 0.01312277, -0.06616642, -0.03993432, 0.15115331, 0.15642032, 0.13208631, -0.07446366, -0.06368957, 0.03109279, 0.00918193, -0.09367191, 0.08437221, 0.03264098, 0.06612302, 0.13957319, -0.20878693, -0.11613418, 0.08470102},
  {-0.09465012, 0.22606765, -0.07602943, -0.10789662, -0.27585950, -0.12850401, 0.02637642, 0.17410889, -0.01011080, 0.07318794, -0.20731083, -0.17013821, -0.02974565, -0.15068845, 0.12654503, -0.02168853, 0.02856272, -0.08551298, -0.01810989, -0.25482017, 0.20796306, -0.15547773, 0.08475576, -0.23683673, 0.13010809, 0.11785959, -0.09004741, 0.08721540, 0.09336677, -0.03824526, -0.05556386, -0.17821606, -0.06831284, 0.09909497, 0.01693056, -0.21324115, -0.22339357, -0.04121105, -0.11214053, 0.14467199, 0.00972094, 0.13843235, -0.13831756, -0.03513844, 0.06441006, -0.16946566, -0.04505760, -0.22723860, 0.13625783, -0.20038362, -0.05632344, 0.06513656, -0.03588435, -0.09543157, 0.02373349, 0.12749742, -0.09136566, 0.17421667, 0.21912016, 0.14478685, 0.04533808, 0.09058239, 0.11311387, -0.05997348, 0.00759228, -0.21396205, 0.02640530, -0.12233825, 0.07045865, 0.18853363, 0.05761861, 0.04164351, -0.07770995, -0.03921172, 0.21146475, -0.10713609, 0.08887982, 0.08072364, -0.06719510, 0.07651413, 0.13077790, -0.05168426, -0.04329386, -0.10077377},
  {-0.06094537, -0.03506912, 0.09373826, 0.07231124, -0.09332239, 0.18496202, -0.01604885, 0.00900034, 0.05969086, -0.17803490, -0.12160135, -0.05323279, -0.07778584, 0.12759125, 0.03702482, 0.08586118, 0.17802173, -0.01111788, 0.10349531, -0.05660896, 0.03313543, 0.05750677, 0.08787708, -0.02459338, -0.19283998, -0.14805597, -0.02010833, 0.05730146, 0.15893352, 0.20678291, -0.29498738, -0.15755004, -0.15946235, -0.14101772, 0.19067697, 0.10580417, -0.06064287, 0.14008261, -0.15711831, -0.16614078, -0.07228401, -0.16009441, -0.14284545, 0.10162447, 0.04395102, 0.04434616, 0.15329728, 0.12350299, -0.16043001, -0.03929144, 0.12050766, 0.04495275, -0.04928276, 0.08366355, 0.12712605, -0.14250121, 0.23608541, -0.07360786, -0.11061829, -0.10740028, -0.02429898, -0.21606438, -0.13635369, -0.05555212, 0.00042244, 0.13811269, 0.01839289, 0.01393478, -0.12160625, 0.15747254, -0.05786225, 0.06739661, 0.07145082, 0.24212055, -0.17996307, 0.06209332, -0.01255785, -0.01183755, -0.07574831, -0.02771455, 0.10756791, -0.18940441, 0.04569100, 0.02640690},
