#include "C:\Users\Baron\Desktop\EE_297_Repo\EE_297\vivado\lenet_proj\lenet_top.h"

float fc3_weights[84][10] = {
  {-0.30615529, -0.06538301, -0.11424963, 0.19757006, 0.09822221, -0.20781331, -0.30090755, 0.26065516, 0.07727417, -0.13361862},
  {0.07916936, -0.26968956, -0.11962896, -0.09219329, 0.10279988, -0.13569592, -0.05661177, 0.19279702, 0.21166949, -0.27622411},
  {-0.01399916, 0.07908049, 0.25523371, -0.24210882, 0.02765396, -0.32605270, -0.21269311, -0.11806749, 0.08959735, 0.16736634},
  {-0.15610406, -0.25164238, -0.20519964, 0.13551602, -0.25370058, -0.12459125, -0.26917493, -0.05755079, 0.01917292, 0.02050564},
  {-0.19866396, -0.29035389, 0.14351100, -0.13957395, -0.00567055, -0.28329989, -0.05188229, 0.02696234, 0.25671822, 0.13820480},
  {-0.21088429, 0.17220557, -0.22074264, 0.24553771, -0.00546408, -0.08598164, -0.39644927, -0.31104660, -0.01996144, 0.37421843},
  {-0.03209250, -0.22214323, 0.08010634, 0.03484701, 0.08462285, -0.20280725, 0.20089433, 0.03741387, 0.16069387, 0.09431276},
  {0.26853046, -0.41997108, -0.14775021, 0.04814107, 0.07060583, -0.22718866, 0.28501871, -0.28658554, -0.30205664, -0.02655205},
  {0.17106512, 0.29379684, 0.30097872, -0.03344199, 0.11437949, -0.24301518, 0.03860696, 0.12387589, 0.22203198, -0.04420028},
  {0.11456612, 0.13088924, -0.03416538, 0.12962559, -0.24575010, -0.02727265, 0.14034253, 0.00092663, -0.25944817, -0.20519450},
  {0.10211473, -0.24045314, 0.22229195, -0.10714658, 0.11273274, -0.07910967, -0.01343083, 0.16536534, 0.28270721, 0.14421241},
  {-0.19272628, 0.25078326, -0.27479643, -0.09580924, -0.03063771, -0.21297027, 0.03392232, -0.02744456, 0.04550653, 0.02550310},
  {0.26593402, 0.17512111, 0.08625443, 0.16144937, 0.17483132, -0.19529186, 0.16432869, -0.18353425, -0.40249899, 0.10701861},
  {-0.11931141, -0.05124472, -0.01097808, -0.09938879, 0.24158329, 0.02196306, 0.17617026, -0.19788072, -0.01182002, -0.03055930},
  {-0.09229275, -0.06278419, 0.02974643, 0.03164652, -0.38983795, -0.05858904, -0.02115658, -0.23365472, 0.18379174, -0.23475979},
  {-0.03552260, 0.05908240, 0.10477508, -0.15736581, -0.05297568, -0.32947800, -0.09263563, -0.19031858, -0.01149991, 0.03719703},
  {-0.19720972, 0.08492704, 0.06529345, -0.15809175, -0.10875387, 0.23826618, 0.05449000, -0.28389153, -0.16870962, -0.33475155},
  {-0.11425908, 0.10523783, -0.38536125, 0.15637662, -0.27674124, 0.06260730, 0.21124737, 0.01034493, 0.02055269, -0.14386597},
  {-0.04815087, -0.14658332, 0.20675312, 0.07743585, 0.27077016, 0.10570629, -0.09407952, 0.05197733, 0.09294299, -0.10075175},
  {-0.30014294, -0.29578739, -0.12862484, 0.06136452, 0.20837824, -0.00913696, -0.16122220, 0.03757431, 0.24690321, -0.25175968},
  {0.03771693, 0.19689009, 0.44745144, -0.09475014, -0.05421039, 0.02202072, 0.08014706, 0.05841678, -0.17054147, -0.34892571},
  {-0.25853831, 0.08046194, 0.01716731, -0.24725923, 0.07280230, 0.16850558, -0.14848368, 0.24527454, 0.18931630, 0.15011188},
  {0.04340856, -0.09299618, -0.06312171, -0.21229862, -0.08705704, 0.30999225, 0.30448544, -0.00275847, 0.10046246, 0.27261633},
  {-0.30447412, -0.21554840, 0.07973441, -0.09043158, 0.22150776, 0.29539487, 0.03092750, -0.12795223, 0.15680815, 0.05245054},
  {-0.25767010, 0.15374832, -0.07784180, 0.30482584, -0.23320816, -0.28483680, -0.19535184, 0.29336175, -0.04795053, -0.08485553},
  {0.05458205, -0.13474414, 0.24852681, -0.01042740, -0.10360461, -0.18122236, 0.10736941, 0.28848222, 0.14147730, -0.20477158},
  {0.13179137, -0.08936980, -0.20134149, -0.30362076, -0.08322716, 0.08914592, 0.31386209, 0.05011354, 0.10278995, 0.13754527},
  {-0.18769054, 0.44549185, -0.00625240, -0.12504390, 0.24065287, 0.06902140, -0.02291097, -0.18005116, -0.25260320, 0.01784918},
  {0.22241777, 0.08183692, -0.26982257, -0.08117961, 0.19899723, -0.10675608, 0.03115979, 0.12001237, 0.13685058, 0.16699487},
  {0.01578706, 0.01358400, 0.23039021, -0.12111659, -0.04962992, -0.00251954, 0.11169779, -0.18055387, -0.07593274, 0.21913174},
  {0.11600290, -0.14035556, -0.15132219, 0.09434029, 0.03760456, 0.08638579, -0.00777985, -0.06636124, -0.26207703, -0.05459149},
  {-0.30398804, -0.32816857, 0.28886360, 0.23932897, 0.15622787, -0.16083899, -0.15652689, 0.20190802, 0.19166793, 0.01563467},
  {0.27014029, -0.20793490, 0.06453737, 0.08604106, -0.30737346, 0.12631227, -0.10052439, 0.01776484, -0.02935832, -0.21439460},
  {0.22187503, 0.20304789, 0.03756268, -0.37006107, 0.08910774, -0.11085189, 0.09510426, 0.16322261, -0.09325566, -0.08407892},
  {0.03546209, 0.07391389, -0.25123405, -0.25705129, 0.26382953, -0.00199124, -0.10513357, -0.40644744, -0.31731305, 0.29454404},
  {-0.06326436, -0.33270571, -0.08717761, -0.09953463, 0.33355200, -0.14562197, -0.09957286, -0.02155295, -0.13885209, 0.28186414},
  {0.21423393, 0.00953964, -0.14962280, -0.11964324, -0.13325608, -0.10140056, -0.11920103, -0.17568837, -0.21752854, 0.23052847},
  {-0.09788647, 0.38728365, -0.05950575, -0.29065108, 0.24140033, 0.15351409, -0.12215345, 0.33692807, -0.47688234, 0.09900402},
  {-0.14840890, -0.07226861, 0.27986532, 0.22396216, 0.00269195, -0.22357596, 0.20488977, -0.18169659, -0.32621646, -0.36308900},
  {0.20060864, 0.08534649, 0.00243239, 0.22225419, -0.25963461, 0.30440906, -0.03185911, 0.24624635, -0.03762131, -0.09247413},
  {0.09748912, -0.13267644, 0.09141405, -0.10343656, -0.30811861, 0.12584050, 0.16875963, 0.17710668, -0.03076548, -0.22191373},
  {0.26247832, -0.34633908, -0.10702885, -0.42375636, -0.17654867, 0.02002983, -0.10625337, 0.13778467, -0.33505633, 0.12602620},
  {-0.10118077, -0.29991710, 0.01276974, 0.13851301, -0.19644414, 0.06997915, -0.15193370, -0.26191339, 0.02677359, 0.11664564},
  {-0.15694085, 0.12297703, 0.21906349, -0.05291168, 0.00842789, 0.07421585, 0.22624186, -0.14509670, 0.19699970, -0.22852156},
  {-0.00116806, -0.11867457, 0.12791532, -0.15277876, 0.18819879, -0.22019896, 0.20737967, -0.06417646, -0.23929138, 0.06569116},
  {0.00614794, -0.14950813, 0.01689682, 0.15287642, 0.01019968, -0.28442097, -0.08535823, -0.28864726, -0.08371138, 0.41582155},
  {-0.12090620, 0.08343139, -0.08042458, -0.00353966, -0.13874623, -0.23557106, 0.18671054, -0.47648531, -0.05389088, -0.27371526},
  {-0.29577875, -0.02267179, -0.19232933, 0.29848802, 0.01085548, 0.06684986, -0.06378279, -0.29015821, 0.07340748, 0.01816088},
  {0.08074206, -0.27606076, 0.14880203, -0.17598952, -0.32660145, -0.60477453, -0.24890423, 0.07257646, -0.08348209, -0.06542832},
  {-0.31967369, -0.19316356, 0.11460094, -0.03210386, -0.06133213, -0.16236623, -0.24462363, -0.18775079, 0.11874886, -0.25281730},
  {-0.01272198, -0.31322429, -0.22456235, -0.04384556, 0.26799181, 0.23489261, -0.23742886, -0.17705119, -0.07622951, 0.08226403},
  {0.15190560, -0.12375768, -0.08985434, -0.09683502, -0.04658442, -0.07009216, 0.06039346, -0.40378296, 0.02402849, -0.16286439},
  {-0.32418138, 0.06304511, 0.34574276, -0.05827308, -0.01181545, 0.25922638, -0.10886403, 0.21404326, 0.00456739, 0.12746051},
  {-0.22808771, 0.10750812, -0.19032165, 0.15420884, 0.08002258, -0.07278602, 0.05987899, -0.03912755, -0.14271975, -0.10504564},
  {0.13139902, -0.14824313, 0.26201466, -0.17316759, -0.35532886, -0.07566594, 0.13648362, -0.36468825, 0.29963234, -0.13212949},
  {0.21593417, -0.28004116, -0.00945201, 0.09935973, -0.19834952, 0.20766287, -0.15558659, 0.19855033, -0.25377828, 0.12591080},
  {-0.14486313, 0.30451006, 0.16700308, -0.31792641, -0.00714936, -0.09369326, 0.23357807, -0.20167905, -0.05796339, 0.09204735},
  {0.23906383, 0.25433502, -0.06346061, -0.05673321, -0.28113917, -0.08184946, -0.27635407, 0.28646410, -0.14081539, -0.05075984},
  {0.24467535, -0.05658612, 0.09119680, 0.21885380, 0.07321737, -0.14574453, 0.13941769, 0.03705471, -0.28603283, -0.05972368},
  {0.14016634, -0.20217657, 0.28443307, 0.27602366, 0.16911021, 0.19138315, -0.22329131, 0.08766303, -0.24531887, -0.21837789},
  {-0.31848150, -0.23937546, -0.13354617, -0.23649007, -0.00179346, -0.03131045, -0.21773845, 0.10074717, -0.18948172, 0.17117356},
  {-0.03913943, -0.20845377, 0.05558648, 0.01720848, 0.20764020, -0.17541437, -0.09823347, -0.18628792, -0.00845034, 0.18602635},
  {0.20062907, 0.17692237, -0.19372651, 0.07659274, -0.04963969, -0.07396066, -0.36179104, -0.26903185, -0.22821471, 0.15776877},
  {-0.11579033, 0.25673285, 0.02951208, 0.25907454, 0.12355514, 0.25600004, 0.13263321, 0.01369775, -0.08582129, 0.09697371},
  {0.01670056, -0.02383562, -0.16871054, -0.10639872, 0.46057770, 0.16010484, 0.17810105, -0.38008788, -0.08771846, -0.13515158},
  {-0.22861761, 0.19023895, 0.20678140, -0.25088286, 0.23897465, 0.10762132, 0.07784383, 0.13561752, 0.13142176, -0.32348603},
  {0.10463487, 0.06400441, 0.21242222, -0.10981274, -0.14951766, 0.19888183, 0.07448968, 0.17627099, 0.03418660, 0.23383005},
  {-0.19187538, -0.05545015, 0.01398479, -0.14271155, 0.05539997, -0.06924678, -0.06613003, 0.19479692, 0.33877429, 0.27052912},
  {0.10997435, 0.07255404, -0.27185148, 0.06096926, 0.02047335, -0.07789722, -0.13545850, -0.16865866, -0.31901425, -0.15539375},
  {0.10836916, -0.09231379, 0.03497860, -0.11895867, -0.27437258, 0.03536739, -0.29063833, -0.34217450, 0.32304972, 0.00109289},
  {-0.09148230, -0.32153147, 0.02942253, 0.01187234, 0.32808617, -0.17913249, 0.16696385, 0.05753705, -0.13507344, -0.37824231},
  {-0.04029936, -0.30560610, -0.02722302, -0.18297754, -0.06413730, -0.00640469, 0.10853439, -0.03081458, -0.24488395, 0.03478719},
  {0.11789598, 0.15672480, -0.25282738, -0.08825857, 0.15136732, 0.23836648, 0.12971430, 0.04557505, 0.19972275, -0.16508460},
  {0.16670533, 0.25861993, 0.12219957, -0.29528698, -0.13600919, -0.09014720, -0.06031337, -0.20702381, 0.22557001, 0.18113947},
  {0.14057328, -0.29656249, -0.06050767, -0.07791895, -0.05689811, -0.32428926, -0.02184467, 0.13411836, -0.34042558, 0.33281508},
  {-0.19088691, 0.03838181, 0.10540047, -0.00156618, -0.36496219, 0.05186991, 0.10310571, 0.09024142, 0.26865894, -0.18429749},
  {0.16728480, 0.13851963, -0.05889038, 0.27199557, 0.29378879, -0.34475204, 0.23090637, -0.09373819, 0.04457214, -0.20316678},
  {-0.08380499, 0.01169984, -0.37597689, -0.11000854, -0.21321158, 0.23666769, 0.14386562, -0.06523398, 0.11289179, -0.16701779},
  {-0.26549917, 0.13073580, 0.07553852, -0.19268642, -0.10038073, -0.37821817, 0.21747114, -0.09159897, -0.14900535, 0.03528260},
  {-0.19795860, -0.05920200, 0.10287100, 0.19123656, 0.11670826, 0.03504942, -0.38235691, 0.20229490, -0.32429102, 0.24099953},
  {0.23434772, -0.05528068, -0.24951029, -0.08017619, 0.28546181, 0.24279839, 0.22222558, -0.19130215, 0.08284652, 0.22017188},
  {0.08879028, 0.21372271, -0.03867583, -0.21263736, 0.04763094, -0.18292743, -0.27937683, 0.23329014, -0.09443952, 0.02677773},
  {0.14162537, 0.03230709, -0.27424410, 0.23318002, -0.17364441, -0.11002921, -0.19999102, 0.05178869, -0.02631560, 0.30830437},
  {-0.00714854, -0.06759454, 0.17676553, -0.05551434, -0.14873011, -0.03372090, 0.23203243, -0.23958042, -0.20381404, -0.04779435},
};
