float conv2_weights[5][5][6][16] = {
  {
    {
      {0.09543608, -0.02873941, 0.10992651, -0.11803610, -0.06004240, 0.01769684, -0.01343023, 0.05626072, -0.03766627, -0.04054616, -0.00966876, 0.00663454, -0.09043877, -0.12462020, -0.05831615, -0.01017613},
      {0.00863349, -0.04734747, -0.03237497, 0.03117838, 0.04121236, -0.04105682, -0.09602938, -0.07817073, -0.16165359, -0.18672752, 0.00901452, 0.17219922, -0.19711205, 0.05634576, 0.03479485, -0.10729896},
      {-0.02175617, 0.12351438, -0.28154027, -0.00090202, -0.31882513, -0.20284863, -0.29534063, 0.32271779, -0.03928695, -0.31950763, -0.01261978, -0.11894540, -0.20506805, -0.12982716, -0.22388062, 0.17532441},
      {0.10297591, 0.01288803, 0.14763790, -0.09614211, -0.15697707, 0.16804250, -0.13461030, -0.03290127, 0.14299487, -0.01588907, 0.00252158, 0.00593455, 0.13696288, 0.04914244, -0.07616948, -0.09645892},
      {0.11909094, -0.06618282, 0.14353447, -0.04212080, -0.01724409, -0.04071139, -0.20207758, -0.10997932, -0.01752709, -0.14303184, 0.03624631, -0.08953479, -0.10446312, 0.02217345, -0.01683834, -0.12932357},
      {-0.05581895, -0.10753670, 0.18806140, 0.04666520, -0.12854826, -0.01057937, -0.16665541, -0.16288148, -0.17246893, -0.03448846, 0.03856212, -0.03581860, -0.06274788, -0.01109886, 0.01338917, 0.02849869},
    },
    {
      {0.10428260, -0.04122377, 0.22089522, -0.13055193, -0.07605581, 0.00055146, -0.14777307, 0.04333949, 0.09177271, -0.02746396, -0.03251349, -0.21136522, 0.03174807, -0.05447575, -0.11862151, -0.14544836},
      {-0.01391165, 0.03338997, 0.05235701, 0.13673653, -0.04108717, 0.08615489, -0.10483454, -0.09294329, -0.12294061, -0.02353905, 0.04799987, -0.04333345, -0.16811348, 0.05737609, 0.02583129, -0.05966401},
      {-0.20906465, 0.38507012, -0.34663823, 0.07381557, -0.21701536, 0.01419246, -0.20571168, 0.25666842, -0.17950253, -0.29266497, -0.00923631, -0.01761841, -0.04589550, 0.16823070, -0.30600530, 0.03808473},
      {0.00451429, 0.09626405, -0.09665171, -0.09884230, -0.11059944, 0.01561106, -0.06524298, -0.01131079, 0.15556605, 0.00058527, -0.00232510, -0.11415041, 0.01113548, 0.01299030, -0.07342611, -0.07294672},
      {-0.07478029, 0.06795311, 0.03512244, 0.13023518, -0.09716284, -0.03797290, -0.11172228, -0.09877674, 0.00838570, -0.09272192, -0.05075331, -0.03071301, -0.05712789, 0.10702230, -0.08335306, -0.11334147},
      {-0.12340667, -0.11824128, 0.15887146, 0.14012364, -0.13755739, 0.05852203, -0.18944943, -0.10978390, -0.09102233, -0.23665753, -0.05099469, 0.13871655, 0.03381999, 0.07664206, 0.01942038, -0.00195809},
    },
    {
      {-0.03176924, 0.01031320, -0.13887708, -0.04964247, -0.06945992, 0.03164485, -0.08051979, 0.06859451, 0.12179153, 0.04055106, 0.05792745, -0.12283609, 0.12390599, -0.08539098, 0.05181374, -0.01169228},
      {0.04051037, -0.02678262, 0.05848910, 0.17356299, -0.01399082, 0.12382750, -0.05144522, -0.26380202, -0.13382891, -0.02402695, -0.07080375, 0.01471652, -0.02661133, 0.04784481, 0.00944000, -0.10153338},
      {-0.14699708, 0.36626741, -0.20250803, 0.09531647, -0.21914203, 0.15646882, -0.09773589, 0.36427486, -0.01802779, -0.12341240, -0.11215598, -0.09956920, -0.08057120, 0.21571986, -0.37420276, 0.05127242},
      {0.03386360, 0.07389263, -0.16324545, -0.15932027, 0.04938896, 0.01090550, 0.05640543, -0.04084861, 0.02114120, 0.15344462, -0.05291924, -0.03344478, -0.05449679, -0.02326627, -0.08712433, 0.09300134},
      {-0.13831000, 0.04580862, -0.11242235, 0.12671903, -0.06634303, 0.04107904, -0.03507101, 0.00330337, 0.00235915, 0.08432034, 0.09493800, -0.03542675, 0.05967364, -0.02932510, -0.07908679, 0.11510400},
      {-0.12552808, 0.07581770, -0.01715568, 0.09690930, 0.00257130, -0.03607854, 0.03740170, -0.02822405, -0.12414720, 0.01449014, 0.03587831, 0.21530694, 0.00375079, 0.16994533, 0.06440335, 0.22167216},
    },
    {
      {-0.13670048, 0.03360319, -0.28772718, -0.05040874, 0.03343251, -0.03483405, -0.07254638, 0.05654188, 0.17005201, 0.09887141, 0.03859625, 0.04259108, -0.06309187, -0.06972632, -0.10110264, -0.02205708},
      {-0.03924822, -0.13432084, -0.13376836, 0.16939285, 0.03903154, -0.00588490, -0.03807910, -0.13821661, 0.05408925, 0.19942571, 0.02404159, 0.18645535, 0.14227565, -0.05771073, -0.09381267, 0.03503646},
      {-0.01541855, 0.18433723, 0.16630392, 0.27666596, 0.01348424, 0.02271571, -0.00240056, 0.20573848, -0.03844193, -0.25629002, -0.23099367, -0.23706967, 0.06492455, 0.06626709, -0.18298636, -0.16006210},
      {-0.10555702, 0.13149217, -0.15698695, 0.11678356, -0.10326859, -0.01173368, -0.09659187, -0.06919869, 0.10104759, -0.01131190, -0.09435642, -0.08897569, -0.00352916, -0.02333262, 0.01866725, 0.12498741},
      {0.04990397, 0.03193635, 0.02128188, 0.10677875, -0.10174808, 0.03949016, 0.11178105, -0.11340562, 0.03156887, 0.10777993, -0.06733808, -0.06250419, -0.10565419, 0.01374089, -0.17419766, 0.09870182},
      {-0.12371691, 0.00514959, 0.29496413, -0.07411498, -0.03278274, -0.01132980, 0.10237976, 0.14904553, -0.13319166, -0.01736635, 0.17277117, 0.22364801, -0.14019112, 0.16687298, -0.14608696, 0.16281015},
    },
    {
      {-0.14441900, 0.01704286, -0.07908700, 0.15870197, 0.09021233, 0.02026655, 0.03725931, -0.11395348, 0.09131310, -0.04654000, 0.08114007, -0.09653438, 0.09993634, 0.07117562, 0.08811340, 0.14749350},
      {-0.06613181, -0.10023075, 0.15193200, 0.06222095, -0.18980740, 0.07327987, 0.11902749, -0.19866344, -0.13374549, 0.17861871, 0.00477498, 0.12065791, 0.15249558, -0.08488879, 0.08390531, 0.07762858},
      {0.06095964, -0.06952392, 0.38497111, 0.26548675, 0.06573540, -0.15737686, 0.08879893, -0.22744401, -0.01654312, -0.05677092, -0.35802296, -0.26788539, 0.01392495, -0.09785669, 0.10560117, -0.40143099},
      {-0.03166199, -0.05697096, 0.22357683, 0.24807449, 0.05346239, -0.04522059, 0.07874520, -0.18091938, 0.11076036, -0.03538022, -0.06298746, -0.03161361, 0.15215997, 0.02608513, -0.01169179, 0.11926656},
      {-0.00924679, -0.18923958, 0.11360382, 0.09416823, -0.13374813, 0.01258539, -0.02773674, -0.18025620, -0.06295346, 0.09382056, -0.11201093, -0.07425474, -0.08605427, -0.14929344, 0.02985971, -0.07260170},
      {0.17223634, -0.08754970, 0.20885709, -0.18732837, 0.04110375, 0.06783786, 0.03221689, 0.05738893, -0.14109491, -0.05546301, 0.17204683, 0.06441383, -0.02839285, 0.19338436, -0.06893414, 0.06507678},
    },
  },
  {
    {
      {0.02894247, 0.08013073, 0.06020400, -0.00177393, 0.11968328, 0.14079265, 0.10620926, -0.11361687, 0.10590447, 0.05807901, -0.02890354, -0.10039581, 0.11363885, 0.03366432, -0.01959688, 0.10246760},
      {-0.12830393, -0.04573249, 0.08713326, -0.02137898, -0.01226426, -0.02218161, -0.10213965, -0.08047912, -0.17840640, 0.14699923, 0.02640602, 0.06144809, 0.09290198, -0.12448266, -0.04954362, -0.02859045},
      {0.08983320, -0.02643996, -0.44605523, -0.28826299, -0.02758098, 0.03647861, -0.35842782, 0.41515991, -0.26728201, -0.34658265, 0.14589858, -0.27436411, 0.14657146, -0.04183652, 0.23036459, 0.02569497},
      {0.01638518, 0.04156294, 0.09862064, -0.04627763, -0.05717326, 0.00373614, 0.04883230, 0.14527355, 0.07591369, 0.18372717, -0.16030683, -0.20585541, 0.11522477, -0.08284966, -0.09752862, 0.08961491},
      {0.02188660, -0.07132902, 0.13533944, 0.03584385, 0.04426668, -0.05460878, -0.21380496, -0.01412474, 0.04876615, 0.06746607, 0.07215770, -0.05693746, -0.01479428, -0.01922190, 0.04656271, -0.14225762},
      {0.13930649, -0.23023178, 0.27177590, -0.22014070, 0.10115431, 0.13458933, -0.11416344, -0.09495462, -0.02821293, -0.01860902, 0.00591672, -0.09512103, 0.11045741, -0.04816567, 0.12368786, -0.02305566},
    },
    {
      {0.04073555, -0.09980358, 0.11964791, -0.05948286, 0.10642041, 0.05663290, 0.01768861, -0.04172428, 0.08177958, 0.02152053, -0.12080182, -0.23702931, -0.03335355, -0.00880235, 0.13816725, -0.11574511},
      {-0.02879461, -0.05177465, 0.27393830, -0.07471976, -0.13379958, -0.03546526, -0.07168948, -0.04886034, -0.01863910, 0.20606077, -0.02055568, -0.04326739, 0.04215042, 0.00081061, -0.10105568, 0.05609094},
      {-0.12244407, 0.25285119, -0.50858569, -0.25838050, 0.07184565, -0.29714257, -0.05050242, 0.38428628, -0.06451276, -0.20487247, 0.33979580, -0.29208648, 0.09568300, -0.01042431, 0.20069359, -0.03356125},
      {0.04840290, -0.01966833, 0.06285968, -0.14839122, -0.04235169, -0.11666235, -0.06867354, 0.05803028, 0.11340494, 0.12440275, 0.11315314, -0.16178523, 0.00909446, -0.21919572, -0.08882410, -0.14690568},
      {-0.04267249, 0.13226846, -0.07464544, -0.12241799, 0.00508522, -0.05566237, -0.10249823, -0.07864372, -0.00587302, 0.08669929, 0.16831069, -0.08841946, -0.00073744, 0.01296912, -0.10286961, 0.04175232},
      {0.18595029, -0.00430123, -0.12512039, -0.14273861, 0.01225014, 0.02164884, -0.18919371, -0.08429017, 0.01883330, -0.12974295, 0.05011085, 0.10793316, -0.02303705, -0.11345264, 0.05261855, -0.08820415},
    },
    {
      {0.06449598, -0.12581408, -0.05400531, -0.02567081, 0.04004984, 0.03611951, -0.00731186, -0.01014854, 0.14858189, -0.00359617, 0.07161086, -0.09871190, -0.09789065, -0.14571990, 0.11867969, -0.23557200},
      {-0.13312601, 0.06153338, -0.11927909, -0.02230446, 0.01153013, -0.06273855, -0.03362435, -0.23871955, -0.01734006, 0.08438208, -0.06984419, 0.10155448, 0.15129957, -0.06459159, -0.12541530, -0.05788684},
      {-0.28736547, 0.13112193, -0.34976023, -0.02794855, 0.13787946, -0.03579293, -0.05971709, 0.37841585, -0.15129983, -0.19740131, 0.06577986, -0.43711013, 0.21211913, 0.14680792, 0.04258748, 0.04899815},
      {-0.00487596, -0.02391054, -0.04133376, -0.02961491, 0.06317408, -0.21894927, 0.00770461, 0.04346900, 0.08184267, 0.04354092, 0.04392700, -0.09309202, 0.01184716, -0.05843070, 0.07355495, -0.14542995},
      {-0.20830525, -0.05690489, -0.18806005, 0.03748335, -0.09678939, -0.08485823, 0.04272864, -0.17653857, 0.06314795, 0.05319993, 0.06372752, -0.01178685, 0.01948425, -0.05276933, 0.06724662, 0.10955679},
      {-0.04060946, 0.02581940, -0.10516706, 0.07784645, -0.00539430, -0.08346297, -0.06958401, -0.00484575, -0.01205459, 0.10889414, 0.05570187, 0.14600286, 0.12736647, -0.18036453, -0.04081000, 0.11010360},
    },
    {
      {0.03223206, -0.05539947, -0.16039787, -0.15857421, -0.00013806, -0.23144695, -0.13570771, 0.13570778, 0.04654810, 0.07032248, -0.04634210, 0.11974087, -0.15331033, -0.03955094, 0.04020198, 0.01712333},
      {-0.07621503, -0.10127054, -0.36417758, 0.15103215, -0.06521989, -0.14852113, 0.10399799, -0.24677099, -0.00297020, 0.07367477, -0.21835484, 0.17548575, 0.14536068, -0.14325193, 0.05689619, -0.10693245},
      {-0.09322207, 0.13967322, -0.04185988, 0.29102793, 0.11634031, 0.10367359, 0.06927957, 0.01645134, -0.14389922, -0.12270127, -0.21166264, -0.25282651, 0.15087430, -0.00310996, 0.05834934, -0.23144582},
      {-0.12247076, -0.04776303, -0.27364257, 0.09078828, 0.00385349, -0.12746970, -0.13215207, -0.03392663, -0.00274684, -0.01601762, -0.08565711, -0.04886178, -0.04599768, -0.05570533, 0.03550551, 0.05875052},
      {-0.13413106, -0.02467278, -0.08611653, 0.14945482, -0.16976143, 0.06764910, 0.08736591, -0.22139513, -0.09757504, 0.16137481, -0.06424587, 0.06705195, -0.02910684, -0.20863327, -0.10408344, 0.09458022},
      {-0.02019748, 0.06996438, 0.20553967, -0.03052188, -0.15973139, 0.05606456, -0.11950562, 0.06036334, -0.01380592, -0.02460257, 0.24986160, 0.14158474, 0.06335726, -0.07817741, 0.00856446, 0.23429166},
    },
    {
      {-0.14243649, 0.06707921, -0.24512985, -0.04549363, -0.02249960, -0.12073300, -0.08028834, 0.05398917, 0.05711121, -0.11310223, -0.00501281, -0.07263751, -0.15314914, 0.04286605, -0.02026879, 0.08380994},
      {0.04471218, -0.12622659, -0.04946901, 0.01412589, -0.15259092, -0.05311678, -0.05276556, -0.13824522, -0.08201079, 0.06666104, -0.07562001, 0.03285361, 0.09865184, -0.08665633, 0.02412862, 0.06592660},
      {0.17625466, -0.09190291, 0.33836204, 0.31188086, 0.15749438, 0.18184428, 0.27332059, -0.22356719, -0.02996764, -0.18482226, -0.33503717, -0.21750411, 0.19114056, 0.09638517, 0.21613705, -0.20046659},
      {-0.00878857, 0.07019750, -0.10753010, 0.09400970, 0.11107010, 0.04578404, -0.24886189, 0.01560686, -0.00969112, 0.00439272, 0.02160791, -0.08569464, -0.03063182, 0.03780417, 0.03731117, 0.14664754},
      {-0.09822903, -0.07649683, 0.20179446, 0.22395416, 0.06706439, 0.08812291, -0.08615021, -0.07805499, -0.11808853, -0.05270105, -0.01314544, -0.06480194, 0.06696205, -0.10238199, -0.04836001, 0.02269598},
      {0.11158139, 0.04580140, 0.36222392, 0.00873672, -0.09251536, 0.24487868, 0.03925221, 0.09302018, 0.06249719, 0.09494211, 0.25116432, -0.22192760, 0.05903263, -0.11208168, -0.00405020, 0.15276539},
    },
  },
  {
    {
      {0.01164420, 0.13570796, 0.01875395, 0.09805832, 0.11973177, 0.04972402, 0.00088444, -0.02173512, 0.03818407, 0.15371068, -0.03528472, -0.13148002, -0.06832983, -0.02342166, 0.10311720, 0.24412288},
      {-0.11254647, -0.12164076, 0.32454878, -0.02139220, -0.02006307, -0.03432595, 0.12936641, -0.26951891, 0.06020730, 0.17814538, -0.11277652, 0.10522721, 0.24626061, -0.12519564, -0.00364460, 0.27187130},
      {0.13289991, 0.14800404, -0.10973090, -0.17052017, 0.19182645, 0.23841088, 0.11976331, 0.16901621, -0.12252328, -0.36865541, 0.11073772, -0.16549985, 0.41825539, 0.20356724, 0.36662623, 0.09821500},
      {0.10031553, -0.03313109, -0.08382924, -0.00458157, -0.00764759, 0.01269204, 0.07852709, 0.03711433, -0.09009727, 0.10161649, 0.02868807, -0.11541245, 0.02362576, 0.00479836, 0.19351585, 0.02374743},
      {0.00611327, -0.02596464, 0.11384236, 0.00602801, -0.03285545, 0.16969103, 0.07580598, 0.00980710, 0.03525456, 0.06163476, 0.03457531, -0.16900946, 0.06206536, 0.02554297, 0.04333901, -0.00967857},
      {0.16428438, -0.11268678, 0.18553185, 0.04092511, -0.00850489, 0.23331472, -0.22893670, -0.03257788, -0.09029489, 0.01014131, -0.05836592, -0.28201810, -0.14474784, -0.17987567, 0.07675803, 0.08865707},
    },
    {
      {0.05456532, 0.10521869, 0.10880230, -0.02305545, -0.05067090, 0.11734257, 0.13266549, -0.00026054, 0.10237683, 0.14677478, -0.07645587, -0.22179417, -0.07031821, 0.01439864, 0.08961261, -0.18613684},
      {-0.02414302, -0.13451052, 0.15185869, -0.09511966, -0.08793740, -0.24350014, 0.01013328, -0.00064065, 0.09735328, 0.24400358, -0.05315453, -0.18926355, 0.09353229, -0.17136312, 0.06631166, 0.14588974},
      {0.06696042, 0.01893468, -0.23508754, -0.25322497, 0.31985009, 0.06145084, 0.06280988, 0.16232684, -0.16406849, -0.26970592, 0.38471469, -0.38775289, 0.44928870, 0.14018337, 0.29399672, 0.04881749},
      {0.14779630, -0.02167129, 0.01340053, -0.13345182, 0.04202752, 0.02843079, -0.02214720, 0.14196388, -0.01462637, 0.02434892, -0.09685274, 0.01838047, -0.11130105, 0.09745099, 0.16326961, -0.15955631},
      {0.10618737, 0.01254859, -0.09041181, -0.16767316, -0.02632688, 0.02018880, -0.06531846, 0.04446253, 0.09361117, -0.09653509, 0.19341817, -0.03857840, 0.12499632, -0.06339183, -0.01328758, -0.13990520},
      {0.23027259, -0.20878918, -0.02294433, -0.10693770, -0.00109260, -0.01737772, -0.12280498, 0.08107148, 0.00292738, -0.13880987, -0.03378157, 0.03353674, 0.08395769, -0.15651537, 0.03735042, -0.17620985},
    },
    {
      {0.02546189, -0.02947268, 0.05972416, -0.02991962, 0.01218073, 0.19855860, 0.11485460, 0.00710303, 0.02047662, -0.04851787, 0.10283717, 0.00004481, -0.29528892, 0.07815576, 0.06003992, -0.05883618},
      {-0.16942818, -0.13777971, -0.12934464, 0.00777444, -0.08002055, -0.24670795, 0.06308901, -0.15043482, 0.11568896, 0.00755888, -0.18378077, 0.15240835, 0.15925159, -0.14093766, -0.03883717, -0.27252868},
      {0.02324593, -0.21290454, -0.18757634, 0.06296203, 0.27206132, -0.20462792, 0.14982508, -0.07183219, -0.06504817, -0.03583881, 0.11948834, -0.43315718, 0.24541001, -0.03516829, 0.34659526, -0.20867112},
      {0.07670310, -0.02692775, 0.16961657, -0.05411990, 0.03141666, 0.07777514, 0.09242500, 0.10292915, -0.01210099, -0.10486945, 0.10643596, -0.01424624, -0.19602042, 0.08382617, -0.01003285, -0.11223336},
      {0.03870730, -0.11945456, -0.22847199, -0.05012464, 0.09298884, -0.25865886, 0.01491409, -0.15745890, -0.02634840, -0.00589241, 0.14213683, -0.00448532, -0.02034804, -0.20796755, 0.08594887, -0.06986491},
      {0.02824467, 0.04588033, -0.15435094, 0.05520399, -0.03381725, -0.03117158, -0.17933325, 0.24235646, -0.06390543, 0.12711605, 0.06023291, 0.16088551, 0.17177868, -0.20954688, 0.04238304, 0.18952212},
    },
    {
      {0.08051024, 0.00165677, -0.04459074, -0.21258523, 0.05799967, -0.10994928, 0.09472942, 0.13977063, -0.06873252, -0.05152347, 0.12394361, 0.02679444, -0.36005357, 0.08951858, 0.00238174, 0.14869578},
      {-0.11134004, 0.03111407, -0.39179972, -0.00276806, 0.03607762, -0.28510177, -0.00340193, -0.08925556, -0.02112663, 0.05146278, -0.22801453, 0.23140645, 0.12974326, 0.06433286, 0.00925708, -0.07866973},
      {0.03274212, -0.03323581, -0.08172611, 0.18908788, 0.37261185, -0.13875259, 0.03265240, -0.17598586, -0.00511746, 0.04739643, -0.28746915, -0.22577855, 0.26603925, -0.00651204, 0.21954186, -0.18960956},
      {-0.03068001, -0.16645032, -0.09016823, -0.11377330, 0.15027855, -0.18473330, 0.03107191, 0.05807279, 0.10807408, -0.00484523, 0.02901904, 0.03739483, -0.29324573, 0.13659918, 0.02635116, -0.08615090},
      {-0.14822347, 0.01666849, -0.06303940, 0.05676892, 0.16023886, -0.09296038, -0.16373421, 0.03280208, 0.10133798, -0.06677323, -0.11027630, 0.07995754, 0.01577083, 0.01266103, 0.11172859, 0.07908009},
      {-0.04675099, 0.08404768, -0.09570444, -0.05794514, 0.04436791, 0.22802959, -0.06628036, 0.15826268, 0.04958285, 0.09288929, 0.13226709, -0.13044529, 0.07380938, -0.31763795, -0.02243207, 0.15139551},
    },
    {
      {0.10229460, 0.06880965, -0.03427096, -0.16457433, 0.14247876, -0.25286067, -0.12804423, -0.06233481, -0.11959270, -0.20148611, 0.01062675, 0.01409574, -0.12807670, -0.01703648, 0.10329594, 0.18547051},
      {-0.08915826, 0.12312394, -0.07397058, -0.14266030, -0.07190335, -0.12269951, -0.22382271, 0.04095479, -0.01875988, 0.04682758, 0.03391111, 0.15933847, 0.05652644, 0.24586561, 0.01392405, 0.21464115},
      {0.05943318, 0.03756663, -0.17122535, 0.03156960, 0.17943753, 0.17011400, -0.05963412, -0.18806531, -0.06674317, 0.07920552, -0.36531445, -0.07586097, 0.17049468, 0.35627636, 0.12078870, -0.11067646},
      {-0.01709771, 0.07239770, -0.17472200, -0.23074627, 0.03526837, -0.09969386, -0.05086771, 0.11227434, -0.05973044, -0.09272400, -0.10018734, 0.13173345, -0.13869888, 0.01783884, 0.06510118, -0.00972787},
      {-0.15805905, -0.11222073, -0.22385858, -0.04723879, -0.03312158, 0.13757916, -0.19101472, 0.06428712, -0.04339343, -0.16946705, -0.08718991, -0.10423681, -0.01503727, 0.04557604, -0.04346593, 0.06940791},
      {-0.07638200, -0.01828889, -0.05922528, 0.01405016, -0.06793553, 0.34583363, -0.01875405, 0.02958297, 0.18302616, -0.07853431, 0.13522311, -0.16808891, 0.01271934, -0.23071463, 0.05620199, 0.09463207},
    },
  },
  {
    {
      {0.05635028, -0.05003771, 0.05225458, 0.00328844, -0.08109964, 0.02638922, 0.13818179, -0.05837429, 0.02336896, -0.00227219, -0.14341623, -0.00217121, -0.10674236, 0.10562570, -0.11111714, -0.03039996},
      {-0.10905635, -0.08522662, 0.20878989, -0.00253966, 0.13057034, -0.17605071, 0.13932325, -0.16080594, -0.04036789, 0.08532691, 0.02415377, -0.00857984, 0.14414909, 0.05944553, 0.01545825, 0.39901590},
      {0.03982378, 0.19364786, -0.04634422, -0.01081323, 0.11998090, 0.05355521, 0.01797868, -0.02542715, -0.03014840, -0.22757210, 0.27992082, -0.20940252, 0.10720053, 0.32630911, 0.09557379, 0.19298619},
      {-0.02286202, -0.01520159, -0.20950498, 0.12534031, 0.08938385, 0.03143130, 0.22493693, -0.02724748, -0.04664488, -0.02045294, 0.01115052, 0.02579136, -0.15474561, 0.16514765, 0.02202853, -0.10203420},
      {-0.06084499, -0.07892434, 0.05476149, -0.08216552, -0.01507582, 0.00811270, 0.10521939, -0.00039753, 0.05277671, -0.00050379, 0.09705592, -0.26685882, -0.00419288, -0.02090180, 0.12852319, 0.15027215},
      {0.18477955, -0.03345423, 0.24497212, 0.14792517, 0.21536876, 0.33409116, -0.10721740, -0.03430011, -0.01391449, 0.08815438, -0.00445839, -0.17949386, -0.09162764, -0.03386668, -0.10244070, -0.05142139},
    },
    {
      {0.04701430, 0.13170245, -0.01078266, 0.08632121, -0.19075237, 0.02344417, -0.05711113, 0.06611353, 0.01174733, 0.00550736, -0.13648522, 0.03302936, -0.07007866, 0.03303853, -0.14422438, -0.24225870},
      {-0.11576000, -0.02003670, 0.01571338, 0.01605517, 0.17454828, -0.06276999, 0.09289730, -0.00708597, 0.01879042, 0.13774346, -0.04972997, -0.27771631, 0.05620407, -0.05241013, 0.06122249, -0.09702273},
      {-0.08587627, 0.08405478, 0.03989927, -0.06175379, 0.28884181, 0.10919205, 0.23979963, -0.08676933, -0.08959835, -0.10629375, 0.12624718, -0.37260658, -0.11715718, 0.22404008, 0.06534384, -0.03376431},
      {-0.09239072, 0.04339428, -0.05866151, 0.12737316, 0.11059936, 0.19549470, 0.13060990, 0.15928856, -0.05497132, -0.09399926, 0.00675286, 0.08510702, 0.00236076, 0.20980215, -0.09124096, 0.04843314},
      {-0.03398555, -0.05323948, 0.00674429, -0.15576330, -0.07036334, -0.02152483, -0.07077485, -0.04584109, -0.01431628, -0.03276753, 0.05710090, -0.09290775, -0.25537065, -0.03247634, 0.12432994, -0.10803808},
      {0.26128528, -0.06098164, -0.00506525, 0.05815409, 0.02926176, 0.28670779, -0.14240053, 0.06245873, 0.08414801, -0.06341912, -0.05191929, 0.15721384, -0.12003665, 0.01999484, -0.15911695, -0.22443952},
    },
    {
      {0.08119667, 0.08815139, -0.00388835, 0.07667891, -0.16709793, 0.13652726, -0.00153644, 0.14334160, 0.01467812, -0.04898026, -0.04029303, 0.00078683, -0.23782119, 0.03084999, 0.05361310, -0.10030524},
      {-0.03632979, -0.00219629, -0.03096603, -0.11445714, 0.07780092, -0.05346487, 0.01090967, 0.08722056, 0.06395564, -0.07467434, -0.14682005, 0.03433470, -0.18256338, 0.06428188, 0.02029567, -0.20963196},
      {-0.00027547, 0.15573630, 0.04412377, -0.07299826, 0.31523791, 0.21001527, 0.28399655, -0.09476710, 0.01144175, 0.08225363, -0.15114693, -0.13923442, -0.30038738, 0.12053008, 0.23485789, -0.31760973},
      {-0.01036206, -0.05429736, 0.04659085, 0.01885949, -0.11662253, 0.21125038, -0.04905444, 0.12739430, -0.07027683, -0.10641110, 0.10922853, -0.01916888, -0.05689866, 0.08242412, -0.07628451, 0.12436743},
      {-0.01357794, 0.00412249, -0.01761489, -0.20559810, -0.07210037, -0.09052758, -0.00902753, 0.03372170, 0.10156693, -0.06164269, 0.00552300, 0.15035245, -0.27030265, 0.05899302, 0.06431400, -0.00716960},
      {0.24530321, -0.30963653, -0.12711380, 0.07276555, 0.14877732, -0.04890808, -0.07640676, 0.18673000, -0.01641623, 0.06474710, -0.02813631, 0.16401546, -0.21230590, -0.18130915, 0.01876374, -0.04420117},
    },
    {
      {0.06777260, 0.02963746, 0.05695848, -0.05701390, -0.04224885, 0.08490352, -0.08931512, 0.07105262, -0.06836655, -0.16796687, 0.15274850, 0.17465326, -0.04286825, 0.13795130, 0.03541880, 0.11911676},
      {0.02101161, 0.07315193, -0.07176942, -0.10412276, 0.06905629, -0.28734404, -0.07109983, 0.20038524, 0.11608899, 0.11113597, 0.05978056, 0.18683694, -0.13375469, -0.02199627, -0.16870528, 0.15420792},
      {0.04678851, -0.08277865, 0.15285267, 0.03864292, 0.35072127, -0.15313335, 0.26521716, -0.35861138, 0.11857583, 0.25767297, -0.21264327, -0.03893733, -0.20004402, 0.06434005, -0.07431114, -0.21852916},
      {0.05917715, 0.07417952, 0.07847633, -0.07062811, -0.11593678, 0.01295234, 0.08625435, -0.06340574, 0.02344224, 0.07239304, -0.04439994, 0.10682856, 0.00540374, 0.01631097, -0.10239304, -0.01365480},
      {0.03143257, -0.01417078, -0.08038863, -0.05125848, 0.02564849, -0.17534693, -0.00360147, 0.03983860, -0.10865605, -0.06640070, 0.01116701, 0.00207813, -0.14311460, 0.00305943, 0.10007384, 0.19843538},
      {-0.13806495, -0.15157066, -0.25237888, -0.06323010, 0.00597780, -0.18516898, -0.08790743, 0.18773066, -0.04772269, 0.01385155, 0.05550932, -0.27028173, -0.15173693, -0.13672364, 0.03813839, 0.00626114},
    },
    {
      {0.05940791, -0.08640429, 0.12475743, -0.14071213, -0.08022087, 0.00336941, 0.04778134, -0.05480533, -0.07845734, -0.18633801, 0.09260420, -0.02517001, 0.07740889, 0.05759537, -0.07734018, 0.02994848},
      {0.10177846, -0.02590414, 0.07437973, -0.19486733, 0.02656971, -0.29354385, -0.07272680, 0.17969529, 0.02000827, 0.05884799, 0.08906613, 0.04446362, -0.25052452, 0.04126254, 0.06345698, 0.23043877},
      {0.01883468, 0.10193040, 0.30259371, -0.01122577, 0.27643713, -0.01696782, 0.31787550, -0.32856840, 0.11135237, 0.27058175, -0.22052373, -0.01098607, -0.18360245, 0.11254723, -0.09900045, 0.12242684},
      {0.04231045, -0.10477043, 0.15543377, -0.16454925, 0.06159021, -0.29846859, 0.09629755, -0.07722288, 0.05741029, 0.07589289, -0.09342944, 0.07978673, 0.04147222, -0.07928625, 0.02249386, -0.03173222},
      {-0.14216566, -0.02129432, -0.02345702, -0.15058944, 0.11090640, -0.03354955, -0.04940700, 0.02737324, 0.03309676, 0.02644780, 0.08923274, 0.03165760, -0.19617118, 0.04799713, -0.15722133, 0.14010423},
      {-0.15204938, 0.06521819, -0.24613872, -0.20946866, 0.07019579, 0.05750786, -0.05746936, 0.02555325, 0.12186924, 0.07470781, 0.22463256, 0.00266273, -0.21248958, -0.12934268, -0.04772514, -0.07144734},
    },
  },
  {
    {
      {-0.03786198, -0.03156116, -0.08826029, 0.00623389, -0.20226853, -0.11297736, 0.05784445, -0.13713406, -0.02185461, 0.13177198, -0.12287405, 0.07948606, 0.03714535, -0.12328279, -0.02559712, -0.06641950},
      {0.08690669, 0.07616495, 0.03321032, 0.00968255, 0.01272849, -0.01490476, 0.04250347, -0.06599459, 0.00342811, 0.01516773, -0.05608043, -0.05309049, -0.00888975, -0.05195790, -0.03531481, 0.28879336},
      {-0.00106193, 0.17233320, -0.01176848, -0.02453627, -0.06925979, -0.10825960, 0.04613459, 0.09203672, -0.01969265, -0.10299007, 0.10305900, -0.19249956, 0.00780281, 0.14997678, -0.27891174, -0.01617185},
      {-0.02910401, -0.04197650, -0.06593018, 0.04947434, -0.18489711, -0.11758216, -0.07807592, -0.11209604, 0.00143090, 0.06501083, 0.03964961, 0.05245923, 0.13667277, 0.01558334, -0.03334028, 0.08877734},
      {0.09537866, 0.12947538, -0.09430160, 0.14392920, -0.07057375, 0.04500654, 0.05059165, 0.02159200, -0.01794516, 0.04473604, 0.00566505, -0.14714965, -0.13755356, 0.05493987, 0.02435391, -0.12557057},
      {-0.10456021, -0.06424297, -0.05095866, 0.12019771, 0.23008727, 0.16576061, 0.08469207, -0.18173330, 0.06495637, 0.26211888, -0.24216144, -0.02125540, -0.17334202, 0.13324398, -0.15620464, -0.22647968},
    },
    {
      {0.03745337, 0.04994591, 0.00181886, 0.11177414, -0.10001252, -0.08868646, -0.13010745, 0.06657059, 0.05678285, 0.12515604, -0.10766058, 0.15363626, -0.04423295, -0.15330689, 0.00230166, -0.14751457},
      {-0.01807271, 0.13386403, -0.11441110, -0.01492308, 0.09228795, -0.14705522, 0.04952200, 0.06364597, -0.08028120, 0.06342054, 0.03254959, -0.03658598, 0.05014165, -0.05662239, -0.06362376, -0.32081026},
      {-0.14803118, 0.16987751, -0.16865046, 0.03115819, -0.01694421, 0.01127731, 0.08868995, -0.02922511, 0.17511043, 0.07106394, 0.00901854, -0.10739163, -0.07695801, 0.14100127, -0.22983016, -0.06905906},
      {-0.15386727, 0.10978928, 0.05931114, 0.07670078, -0.24750736, 0.00481874, 0.12510051, -0.01911075, 0.02594601, 0.08528350, 0.13603279, 0.12409268, 0.09964784, -0.07473399, -0.17061792, 0.30123523},
      {0.13797010, 0.07309436, -0.08817579, -0.10498320, -0.16145979, 0.07024001, 0.09872210, 0.21609236, -0.05837597, -0.12365408, -0.00756777, 0.12904705, -0.17719921, -0.04437263, -0.06290203, -0.22482514},
      {0.16471544, 0.03702758, -0.11563759, 0.12385474, 0.11475721, 0.30820388, -0.07793906, -0.01080096, 0.08316223, -0.14891201, -0.23211685, 0.09074737, -0.33074671, 0.18694438, -0.11647895, -0.06256110},
    },
    {
      {-0.02237853, -0.03661579, 0.05986656, 0.15906096, -0.14238951, 0.05855742, -0.05508402, 0.05709202, -0.14536330, -0.02362162, -0.00221542, 0.16032565, 0.09386139, -0.10322242, 0.04682139, 0.06631549},
      {0.05408099, 0.09034512, 0.06624922, 0.00740601, 0.01994737, 0.15600559, -0.15582143, 0.15909508, -0.06674784, -0.12692879, 0.05193091, 0.15987369, -0.32542041, 0.09602246, -0.14127234, 0.03928557},
      {-0.11707702, 0.01944485, 0.05941857, -0.08583765, -0.02153135, 0.20111646, 0.20451449, -0.15070221, 0.22444232, 0.13445844, -0.07782249, -0.00618983, -0.16624822, 0.18664384, -0.08643608, -0.04352451},
      {-0.04630043, 0.00089882, 0.03287185, 0.27016866, -0.18493441, 0.10528776, -0.02965243, -0.09759995, -0.00959449, 0.00318753, -0.04337518, 0.00095051, 0.15319005, 0.00944771, -0.18669303, -0.00626489},
      {0.04915719, 0.07783341, -0.00503065, -0.16861023, -0.18224967, 0.13261880, -0.01283131, 0.12871127, 0.07570583, -0.05525566, 0.06595162, 0.04987528, -0.14839427, 0.07223850, 0.06102413, 0.14096604},
      {0.01095760, -0.12490186, -0.03312764, -0.11198639, -0.11569574, 0.22200081, 0.09655967, 0.15737411, 0.13947332, 0.06583309, -0.00157840, 0.04648646, -0.26786992, 0.14065604, -0.01057647, 0.00397855},
    },
    {
      {-0.03823850, -0.07570755, 0.08285831, 0.13039385, -0.20687459, 0.10992467, 0.06174499, 0.03742735, -0.16748074, 0.05263494, -0.03736196, 0.07564405, 0.09636472, 0.03131163, -0.09189957, 0.13841483},
      {-0.04390275, -0.02716086, 0.05352428, 0.05980350, -0.08416187, 0.02505901, -0.02197472, 0.21616723, 0.01542077, -0.03362584, 0.09436984, 0.10532352, -0.27900591, 0.15505446, 0.03794884, 0.14837284},
      {0.02532267, 0.04242297, 0.22268738, 0.07320426, 0.02258248, 0.15708280, 0.21364298, -0.23813774, 0.17599535, 0.34694749, -0.19064105, 0.03454224, 0.16240746, 0.19468676, -0.01584503, -0.04362160},
      {0.13543582, 0.03374844, 0.20029967, 0.24608569, -0.18314782, 0.13949655, 0.10908514, 0.00836733, -0.08175290, 0.07340733, -0.12260486, 0.00448949, 0.22335473, -0.05257659, -0.05664279, -0.21108912},
      {0.05831163, 0.06865214, -0.02402804, -0.18167844, 0.05202999, -0.04921433, -0.09271564, 0.04471812, -0.07053859, -0.15210868, 0.02648658, -0.05762180, -0.09889678, 0.01136442, 0.03504961, 0.17854092},
      {-0.05113010, -0.05174969, 0.04548299, -0.06837941, -0.02942569, 0.02778624, 0.17872214, 0.06270744, 0.01362909, 0.13924073, 0.11858663, -0.13414480, -0.01514374, 0.01569267, 0.02609638, 0.01202757},
    },
    {
      {0.00992157, -0.11483959, 0.04033797, 0.19816007, -0.09921706, 0.06947208, -0.12049048, -0.02466919, -0.11332770, -0.08877587, -0.03116574, 0.08866877, 0.28450692, 0.03185765, 0.06385269, -0.01331177},
      {0.03696672, 0.08137438, 0.12445471, -0.02745116, 0.03099968, -0.08045435, -0.10405901, -0.00220683, 0.06596760, 0.01522608, 0.07536188, -0.02616607, -0.04709701, -0.06266347, 0.10732179, 0.06464274},
      {0.08919610, 0.01833870, 0.19952236, 0.25499290, -0.05582745, -0.04417108, 0.06611424, -0.16172153, -0.08669960, 0.31701976, -0.06056939, -0.03458894, 0.38654807, 0.15527415, 0.03962914, -0.03515426},
      {0.13073668, -0.11239481, 0.10960792, 0.06454362, -0.10650429, 0.10566392, -0.07384311, -0.10585367, -0.07160947, 0.05125101, -0.09442003, 0.19887447, 0.29619402, -0.00604770, 0.03434968, -0.11080422},
      {-0.03362572, -0.09185484, 0.04610571, -0.12962915, -0.03206582, -0.27084583, 0.05349238, 0.03905474, 0.02972007, -0.18160300, 0.12731147, -0.04371760, 0.01881305, -0.00606792, -0.05938233, 0.09718767},
      {0.08079989, 0.06918442, 0.12316763, -0.14936347, -0.05397855, -0.07393553, -0.04792077, 0.14769520, -0.01719397, -0.11009502, 0.16294695, 0.06474343, 0.06811851, 0.03551461, -0.13331221, -0.03193427},
    },
  },
};
