float fc2_biases[84] = {0.03150871, -0.02972793, -0.01498844, 0.07412451, 0.06330337, 0.02442159, -0.04629166, -0.02594367, -0.01634497, 0.02704047, 0.00448861, 0.01250652, 0.00423267, 0.00694124, 0.05771501, 0.07447536, 0.02545116, 0.06917652, -0.01353322, 0.01187498, 0.02172666, -0.05117308, -0.01992895, 0.03758440, 0.07701303, 0.03202178, 0.05400700, 0.04137069, 0.07883950, 0.02174115, -0.03112965, -0.00382616, -0.04707526, 0.00045640, 0.04599848, 0.02343693, 0.02591956, 0.01956735, -0.00386227, 0.06257281, 0.04385577, -0.01745790, 0.07331152, -0.02599274, -0.00666802, -0.03286151, -0.02244830, 0.01909528, 0.04001304, 0.04447651, -0.00233974, -0.00130457, 0.03436911, -0.01159090, -0.01901311, 0.00051343, 0.03223924, 0.05282499, 0.03618526, 0.01111170, 0.00860838, -0.02953247, 0.08329443, 0.03395296, -0.02081320, -0.03783038, -0.01417203, 0.02046044, -0.00482748, 0.03458033, 0.01032212, -0.00105396, -0.01419400, -0.01656953, -0.01385099, 0.03856932, 0.04650761, 0.02020704, 0.02362687, 0.01439892, 0.04817528, -0.01998886, 0.04462889, -0.00610056};
