0.0044
-0.0751
-0.0881
0.0948
-0.0269
0.3318
-0.0025
0.0017
0.0409
0.0001
-0.1216
-0.0538
-0.2446
0.7758
0.0049
0.0039
0.0014
0.0004
0.0176
-0.0532
-0.0980
-0.1577
0.4623
0.0012
0.1073
0.0597
-0.0030
0.4941
0.2143
-0.1165
-0.5927
-0.0023
0.0025
-0.0711
-0.0991
-0.0082
0.0011
0.0110
-0.0361
-0.0037
-0.0411
0.0015
0.8185
-0.0099
-0.3746
1.0688
-0.0002
-0.0025
0.0020
-0.0017
0.0252
0.1439
-0.2143
-0.1496
-1.3021
0.0022
0.1668
0.0870
0.0472
0.3943
-0.0368
-0.0765
-0.0381
0.0091
-0.0125
0.0654
-0.0269
-0.0652
0.0029
-0.3064
0.0483
0.0043
0.0382
0.0053
0.0361
-0.0194
-0.0719
0.6156
0.0028
0.0015
0.0035
0.0010
0.0225
-0.2036
0.0388
-0.1195
-0.3890
0.0022
-0.3851
0.0406
0.0204
0.2423
-0.5662
-0.1083
0.5940
-0.0075
-0.0027
-0.0323
0.1174
-0.2052
0.0088
0.3388
-0.0024
-0.0270
0.0364
0.0028
-0.5315
0.0005
-0.2840
0.0329
0.0018
0.0062
-0.0006
0.0008
-0.0883
-0.3056
-0.3145
-0.0722
0.8646
0.0004
0.1579
0.0423
0.0792
0.2097
0.3372
-0.0407
0.1189
-0.0054
-0.0036
0.1017
0.1920
-0.2200
0.0200
-0.2551
0.0119
-0.0460
0.1215
0.0021
0.8965
0.0109
-0.6733
0.1253
0.0022
-0.0019
0.0000
-0.0010
-0.0886
0.2129
-0.4199
-0.1274
-2.2404
0.0012
0.0750
0.0711
0.0437
-0.3526
-0.1313
-0.0020
-0.3936
0.0022
-0.0102
-0.0541
0.0099
-0.1729
0.0249
-0.1499
0.0207
-0.0075
-0.0195
0.0042
-0.5134
-0.0149
-0.1706
-0.0531
-0.0008
-0.0018
-0.0002
0.0003
0.0170
0.1966
-0.1846
0.0174
1.2026
0.0024
-0.2669
-0.0518
0.0869
0.3066
-0.5391
0.0080
0.1594
-0.0097
0.0055
0.0527
-0.0009
0.2064
0.0198
-0.4549
-0.0018
-0.0766
-0.0538
0.0031
-0.3601
0.0205
-0.0478
-0.0821
0.0041
0.0069
-0.0005
0.0008
-0.2488
-0.3257
-0.0881
0.2386
0.7894
0.0001
0.0622
-0.0569
-0.0511
-0.0560
0.8675
-0.1064
0.7872
-0.0709
0.0056
-0.0187
-0.0288
0.1654
0.0052
0.0185
0.0138
-0.0899
-0.1342
0.0012
0.8707
-0.0002
-0.1923
-0.0264
-0.0008
-0.0029
0.0017
-0.0006
-0.3438
0.2151
-0.1910
0.4356
-1.7159
0.0003
-0.2160
-0.0137
-0.0369
-0.3924
0.1934
-0.0509
-0.3521
-0.0585
-0.0057
-0.0666
0.0276
0.0747
0.0033
0.4453
-0.0224
-0.0094
0.0235
0.0041
-0.8973
0.0037
-0.0357
-0.1508
-0.0005
-0.0011
-0.0001
0.0003
-0.2331
0.2710
-0.0186
0.1524
1.4470
0.0009
-0.7335
-0.0723
0.0465
0.1278
-0.4018
-0.0042
-0.4724
-0.1223
0.0130
0.2539
-0.3419
0.1735
-0.0250
0.2622
0.3640
-0.0041
-0.1822
0.0010
-0.7636
-0.0018
0.2634
0.0121
0.0012
0.0076
0.0011
-0.0005
-0.1895
-0.3332
-0.0008
0.2425
1.5221
0.0007
0.1403
-0.1582
-0.0279
-0.3964
0.4316
0.0106
0.5784
-0.0397
0.0077
0.4195
-0.6783
0.1224
0.0019
-0.0917
0.6842
0.0187
-0.1423
0.0015
0.1649
-0.0154
0.5109
-0.0566
0.0017
-0.0022
0.0014
-0.0018
-0.1479
0.0905
-0.0592
0.2958
-0.7998
0.0029
0.2025
-0.2560
0.0030
-1.4535
0.2366
0.0182
-0.5194
-0.0063
-0.0064
0.0936
-0.1658
0.2114
-0.0074
-0.0827
0.1768
0.0037
-0.1117
0.0030
-0.8533
-0.0171
0.1847
-0.2026
0.0022
0.0006
0.0018
0.0003
-0.1161
0.0749
0.0374
0.1845
1.9149
0.0038
-0.0527
-0.1399
-0.0052
-0.2791
-0.5891
0.0641
-0.1630
-0.0219
-0.0121
0.6792
0.6278
0.4068
-0.0556
1.2759
-0.0909
0.0550
0.5434
0.0003
-0.7784
0.0647
0.4061
-0.1775
0.0078
0.0051
0.0019
-0.0015
-0.0189
-0.7177
-0.0277
-0.3046
1.6253
0.0002
-0.1662
0.3798
-0.0318
-0.2687
0.5922
-0.0255
1.8228
-0.0059
-0.0156
1.2810
1.1251
1.0886
-0.0746
-0.4799
-0.2092
0.1247
0.8490
0.0013
0.4984
0.0654
0.7107
-0.1161
-0.0009
0.0006
0.0048
-0.0029
0.1505
0.0663
-0.0263
-0.5447
-2.3025
0.0017
-0.2657
0.6018
-0.1710
-1.6746
0.0272
-0.0581
-0.8385
0.0361
-0.0143
0.3163
0.3318
0.2195
-0.0255
-0.7909
-0.0936
0.0506
0.3158
0.0029
-1.0431
0.0254
0.1731
-0.0966
0.0002
0.0008
0.0019
-0.0011
-0.0088
0.5551
-0.0297
-0.1786
3.0345
0.0014
-0.3656
0.2073
-0.0081
0.0917
-0.8620
0.0482
-0.6028
0.0350
0.0021
0.0864
-0.2644
-0.6093
-0.0425
0.4828
-0.1853
0.1082
-0.4122
0.0018
-0.3487
-0.0009
0.1171
-0.0477
0.0003
0.0051
0.0036
0.0001
0.0338
-0.7134
-0.0145
-0.1036
0.9438
-0.0011
-0.1227
0.7707
-0.0776
0.3651
0.7356
-0.2397
1.9028
0.0810
-0.0020
0.1517
-0.4435
-1.4007
-0.0945
-0.3267
-0.3767
0.1801
-0.7405
0.0023
0.7985
-0.0208
0.1622
0.0488
-0.0005
0.0019
0.0076
-0.0001
0.0441
0.1432
-0.0860
-0.1122
-2.7417
0.0007
-0.3386
1.2317
-0.1869
-0.6031
0.2322
-0.2584
-0.9485
0.1314
-0.0080
-0.0173
-0.1478
-0.1716
-0.0400
-0.2987
-0.1620
0.1003
-0.2698
0.0049
-1.1245
-0.0078
0.0135
-0.0114
-0.0011
0.0001
0.0051
0.0002
0.0395
0.6967
-0.0019
-0.0060
1.9607
-0.0000
-0.5665
0.3982
-0.0413
0.3279
-0.7283
-0.0712
-0.7532
0.0565
0.0024
-0.2932
-0.5531
0.1331
0.0283
-0.3089
0.0914
-0.0082
-0.0023
0.0004
0.1258
-0.0283
-0.0063
0.0032
0.0063
0.0068
-0.0003
-0.0008
-0.1859
-0.1744
0.0708
-0.0780
-0.6928
0.0003
0.0498
0.0776
-0.0549
0.5143
0.2306
0.0869
1.0285
0.0002
0.0033
-0.6086
-0.8589
0.2193
0.0648
-0.1021
0.1969
0.0104
-0.0005
0.0012
0.8949
-0.0746
-0.1110
-0.0819
0.0048
0.0008
-0.0009
-0.0027
-0.1484
0.1678
-0.0564
-0.0885
-1.8075
0.0004
0.1310
0.1539
0.0132
0.5141
0.3664
0.1106
-0.5146
0.0436
-0.0136
-0.2025
-0.2238
0.1573
0.0229
0.2789
0.0405
0.0164
0.0004
0.0019
-0.0941
-0.0726
-0.0403
0.0121
0.0024
0.0028
0.0008
-0.0009
-0.0223
0.0125
0.0323
-0.0450
0.3841
0.0000
-0.2223
0.0495
-0.0529
0.4287
-0.4148
0.1252
-0.7137
0.0244
-0.0177
-0.5021
0.7665
0.7443
-0.0600
1.2925
-0.1167
0.0961
0.6003
-0.0006
-0.0275
0.2114
-0.0816
-0.0185
0.0040
0.0012
-0.0016
-0.0009
0.1551
-0.3926
0.0648
-0.0085
-0.0140
-0.0018
0.0716
-0.3538
-0.0731
0.4586
-0.3617
-0.0965
1.3163
0.0825
-0.0159
-1.1297
1.2127
1.4787
-0.0788
-0.3811
-0.2152
0.2019
0.8523
0.0005
1.0826
0.2050
-0.1174
0.0123
0.0017
0.0011
-0.0005
-0.0020
0.3578
0.1537
0.0385
-0.0576
-2.5949
0.0003
0.1851
-0.6948
-0.1885
0.2646
-0.2809
-0.0926
-0.8874
0.1246
-0.0162
-0.3726
0.3470
0.3866
-0.0389
-0.8125
-0.0690
0.0847
0.3542
0.0025
-0.2239
0.1267
-0.0791
0.1730
0.0042
0.0028
-0.0014
-0.0008
0.1231
0.4136
0.0384
0.0891
0.6952
-0.0001
-0.0105
-0.1514
-0.1253
0.5172
-0.9293
-0.0325
-0.6252
0.1070
-0.0080
-0.0153
-0.2592
-0.7433
-0.0997
1.3351
-0.0462
0.1437
-0.5630
0.0010
-0.1773
0.0898
0.0420
0.0413
0.0053
0.0033
-0.0017
0.0001
0.2674
-0.4772
0.0245
-0.0423
1.4546
-0.0030
0.2002
-0.6228
-0.1560
0.1972
-0.0168
-0.3235
0.5524
0.0571
-0.0049
-0.1434
-0.4103
-1.6417
-0.1399
-0.3109
-0.0674
0.2571
-0.8109
0.0026
0.6496
0.1294
0.0144
0.0571
-0.0005
0.0011
-0.0010
-0.0033
0.3388
0.0972
-0.0771
-0.0954
-1.6352
-0.0005
0.3281
-1.1266
-0.3145
-0.2681
0.4138
-0.3408
-0.7356
0.1175
-0.0122
0.0218
-0.1592
-0.3943
-0.0307
-1.0292
-0.0122
0.0717
-0.3321
0.0019
-0.6217
0.0421
0.0505
0.0814
-0.0038
-0.0004
-0.0023
-0.0004
0.1985
0.3950
0.0150
-0.0584
0.7370
-0.0023
-0.0171
-0.2859
-0.2171
0.0102
-0.3023
-0.1865
0.3516
0.0212
