#include "C:\Users\Baron\Desktop\EE_297_Repo\EE_297\hardware_imp\vitis_hls\lenet_proj\lenet_top.h"

data_t conv1_weights[5][5][1][6] = {
  {
    {0.2215, -0.1273, -0.0572, -0.0341, -0.0395, 0.1971},
    {0.2099, 0.1421, -0.0397, 0.2020, 0.1047, 0.2740},
    {0.0249, 0.2876, -0.2916, 0.1392, -0.2170, 0.1175},
    {0.1868, 0.2970, -0.4342, 0.1332, 0.0190, 0.0605},
    {0.0749, 0.0940, -0.1427, 0.0331, -0.3015, -0.0258},
  },
  {
    {-0.0748, 0.0031, -0.0517, 0.3615, -0.1698, 0.0504},
    {0.2277, -0.1265, -0.5506, 0.2499, 0.2079, 0.0337},
    {0.2120, -0.1694, -0.4635, 0.2578, 0.1231, 0.1996},
    {0.0569, -0.0358, -0.0562, 0.1562, -0.0808, 0.2435},
    {-0.0905, 0.2014, -0.0359, 0.0927, -0.1963, 0.2048},
  },
  {
    {0.0680, 0.2134, -0.2396, 0.0939, -0.0204, -0.2062},
    {0.0285, 0.1209, -0.3919, 0.2399, -0.0053, 0.0053},
    {0.2280, -0.2172, -0.1164, -0.0499, 0.0408, -0.0033},
    {-0.0395, 0.0167, -0.0287, -0.2203, -0.0512, 0.1500},
    {0.0290, 0.0324, 0.3646, -0.2783, 0.1239, 0.1521},
  },
  {
    {-0.0340, -0.0453, -0.2997, -0.0654, 0.1732, -0.2591},
    {0.1579, -0.2714, -0.1917, -0.2943, 0.0617, -0.1432},
    {0.2161, -0.2108, 0.1795, -0.4133, 0.2774, -0.3278},
    {0.1515, 0.0528, 0.3128, -0.2234, 0.2273, -0.2685},
    {-0.0310, -0.0829, 0.0834, -0.0631, -0.0619, 0.1876},
  },
  {
    {-0.0409, 0.0121, -0.3210, -0.2642, -0.0470, -0.1308},
    {0.1688, 0.0942, -0.1005, -0.4322, 0.2088, -0.1056},
    {0.0226, -0.2691, 0.0470, -0.1379, 0.0762, -0.0159},
    {0.1462, -0.0889, 0.3439, -0.0183, 0.0744, -0.3087},
    {-0.3253, 0.1398, 0.2819, 0.1101, 0.1551, -0.2304},
  },
};
