#include "C:\Users\Baron\Desktop\EE_297_Repo\EE_297\vivado\lenet_proj\lenet_top.h"

float fc1_biases[120] = {-0.0265, -0.0298, 0.0130, -0.0394, 0.0384, -0.0481, -0.0282, -0.0160, -0.0204, 0.0442, 0.0155, -0.0081, 0.0235, -0.0346, -0.0326, -0.0025, 0.0338, -0.0037, 0.0199, 0.0026, 0.0354, 0.0314, -0.0158, -0.0075, -0.0276, -0.0655, 0.0102, 0.0002, -0.0342, 0.0338, 0.0203, -0.0393, 0.0309, -0.0083, -0.0087, 0.0207, 0.0033, -0.0683, -0.0002, 0.0172, 0.0353, 0.0257, 0.0166, -0.0264, -0.0459, -0.0549, -0.0445, 0.0191, 0.0090, 0.0115, 0.0157, -0.0313, 0.0037, 0.0029, -0.0161, 0.0166, -0.0364, 0.0068, -0.0276, -0.0066, -0.0140, 0.0171, -0.0431, 0.0072, -0.0405, -0.0187, 0.0057, -0.0170, 0.0305, -0.0277, -0.0237, -0.0077, 0.0432, -0.0383, 0.0258, 0.0200, -0.0346, -0.0039, 0.0080, -0.0116, -0.0397, 0.0401, 0.0029, 0.0305, -0.0063, 0.0068, -0.0541, -0.0180, -0.0395, -0.0349, -0.0452, -0.0211, 0.0549, 0.0104, 0.0396, -0.0411, 0.0054, 0.0467, -0.0356, -0.0481, 0.0208, -0.0374, 0.0005, -0.0063, -0.0170, 0.0185, 0.0312, -0.0527, 0.0438, 0.0390, -0.0255, -0.0090, 0.0132, -0.0092, 0.0090, -0.0258, 0.0250, 0.0182, 0.0315, -0.0086};
