#include "C:\Users\Baron\Desktop\EE_297_Repo\EE_297\hardware_imp\vitis_hls\lenet_proj\lenet_top.h"

float fc3_weights[84][10] = {
  {-0.1965, 0.4216, -0.0370, -0.5001, -0.3745, 0.3713, -0.0345, -0.0581, 0.0288, -0.1336},
  {0.2166, -0.1527, -0.0067, 0.2577, 0.1499, 0.1657, 0.0286, 0.2454, 0.2128, 0.0132},
  {-0.0145, -0.2769, 0.0296, -0.2852, 0.0223, 0.0292, -0.2455, 0.0524, -0.1624, 0.1378},
  {-0.3653, -0.2388, -0.3124, 0.2107, 0.1029, 0.2154, -0.3036, -0.0612, -0.1192, 0.2132},
  {0.1067, 0.0997, 0.0043, -0.1752, -0.3525, -0.1846, 0.1824, 0.0385, 0.0475, 0.0877},
  {-0.1335, -0.3468, -0.3025, -0.0745, 0.2097, 0.1188, 0.0917, -0.2267, 0.0489, -0.0478},
  {0.0203, -0.0065, -0.2272, 0.1791, -0.4308, 0.1601, 0.2193, -0.3399, 0.0891, 0.1286},
  {0.1247, -0.1649, 0.2838, 0.1466, -0.1580, -0.0135, -0.1456, -0.0628, -0.0789, 0.3614},
  {0.2168, 0.1073, 0.1355, -0.1237, 0.2981, -0.0131, 0.0284, 0.2102, -0.3304, -0.0941},
  {0.1972, -0.0971, 0.2627, 0.1159, -0.2555, -0.4067, -0.1577, -0.0258, -0.0835, -0.1313},
  {0.1495, -0.2632, -0.1281, 0.0629, -0.1434, 0.0681, 0.1074, -0.3208, 0.1223, 0.0912},
  {-0.0463, 0.2502, 0.0830, -0.2437, 0.2781, -0.2855, 0.0130, -0.0310, 0.0684, 0.1282},
  {0.0318, 0.0122, 0.2105, -0.3141, -0.2541, 0.1926, -0.1538, -0.1472, -0.0161, -0.1405},
  {-0.0289, -0.0267, 0.3422, -0.2517, -0.1783, -0.0336, -0.0477, 0.0787, -0.0262, -0.0324},
  {0.2814, -0.1753, 0.1434, -0.1775, 0.0965, -0.0517, -0.1993, -0.3017, 0.0097, -0.1752},
  {-0.1495, 0.0153, 0.1195, -0.2204, -0.0467, 0.1783, -0.3413, 0.2326, 0.0813, 0.1888},
  {-0.2319, -0.1809, -0.2888, 0.0436, -0.1283, 0.0852, 0.0422, 0.3566, -0.0706, -0.3390},
  {0.0400, -0.0294, -0.2389, 0.0305, 0.2372, -0.0563, -0.0446, -0.0884, 0.1294, 0.0118},
  {0.1341, 0.0845, -0.0490, -0.2003, -0.2358, 0.1199, -0.0825, 0.1258, -0.2404, -0.2196},
  {-0.0666, 0.1417, 0.0186, -0.1115, -0.1558, -0.2969, -0.1483, -0.3267, -0.2139, -0.0017},
  {-0.1890, -0.1472, 0.2648, -0.1767, 0.0557, 0.0351, 0.2190, 0.0430, 0.0690, -0.1040},
  {-0.0755, -0.0161, -0.3273, -0.0104, -0.0147, 0.2649, 0.1773, 0.3051, -0.0840, -0.0453},
  {0.0774, -0.1244, -0.1063, -0.3238, 0.3113, -0.2002, -0.1750, 0.0120, -0.2997, 0.2584},
  {0.1153, 0.1324, 0.0493, 0.1638, 0.3107, 0.0413, -0.1805, -0.1046, -0.3980, 0.1275},
  {0.0126, -0.1433, 0.1625, 0.1361, -0.1904, 0.2331, -0.2432, 0.2113, -0.0654, -0.1600},
  {0.0640, 0.2119, 0.0161, 0.1353, -0.0927, -0.2851, -0.2826, 0.0835, 0.2492, 0.0120},
  {0.1157, 0.0393, 0.2515, -0.1091, -0.2138, -0.0206, -0.0620, 0.0911, -0.0030, -0.4807},
  {0.1838, -0.0942, -0.2257, -0.2706, -0.0136, -0.1698, 0.0812, -0.0953, 0.1319, 0.2335},
  {-0.0310, -0.1105, -0.1971, -0.2213, 0.0117, -0.2071, -0.2894, 0.0114, -0.2651, -0.0566},
  {-0.2447, -0.1076, -0.3863, -0.1005, 0.0513, -0.0727, 0.1204, 0.1710, 0.2046, -0.0319},
  {-0.3139, -0.0271, 0.1215, -0.0581, -0.1066, -0.1258, -0.1848, -0.1721, 0.4267, -0.0357},
  {-0.2517, 0.1529, 0.1245, -0.1827, -0.2343, -0.2767, 0.2696, 0.0483, -0.2634, 0.1792},
  {-0.3006, 0.0824, -0.0130, 0.1547, -0.1880, 0.1570, 0.2698, -0.0973, 0.2880, -0.2548},
  {0.0688, -0.2535, 0.1248, -0.3061, -0.2038, -0.0668, -0.0614, -0.1513, 0.1013, 0.0874},
  {-0.0906, -0.0180, 0.1490, 0.1485, 0.1969, 0.0930, -0.2637, 0.2270, -0.1238, -0.3025},
  {-0.1371, 0.1677, 0.0195, -0.2065, 0.2143, -0.1856, -0.0084, 0.0311, 0.2659, 0.0115},
  {0.0210, 0.3620, 0.1067, 0.1814, -0.3067, 0.1404, -0.0726, 0.1844, -0.1338, -0.0119},
  {0.2473, 0.2110, 0.2306, 0.0730, -0.0204, -0.1789, 0.2952, 0.1568, 0.0346, -0.2883},
  {-0.0452, -0.1482, 0.0151, -0.1284, -0.1325, 0.0327, -0.3509, -0.0267, 0.0630, 0.1053},
  {-0.1351, 0.0813, -0.0120, 0.2650, -0.0239, -0.1483, 0.0726, 0.2662, -0.1781, 0.2174},
  {0.2571, 0.1631, -0.2132, -0.3035, 0.0361, 0.1176, 0.2656, -0.0562, -0.3090, -0.1489},
  {0.0940, -0.2274, 0.2010, 0.1036, 0.0659, -0.1805, -0.1754, 0.1909, 0.1253, 0.1087},
  {0.2016, -0.2600, 0.1169, 0.2542, 0.2436, 0.0247, 0.2457, -0.2727, 0.0868, -0.1206},
  {-0.3500, 0.0991, -0.2314, 0.0303, 0.2767, 0.1099, -0.1393, -0.0719, -0.1189, -0.0567},
  {0.1394, 0.1276, 0.2398, -0.2052, -0.2660, -0.2562, -0.1744, 0.2313, 0.2057, -0.3589},
  {0.2322, 0.0219, -0.2608, 0.1962, 0.2367, 0.1237, 0.0720, -0.1694, -0.2683, 0.0367},
  {-0.2698, -0.1519, 0.1246, -0.2463, -0.1419, 0.1748, 0.1079, 0.1636, -0.0085, 0.1169},
  {-0.2520, -0.1468, 0.0174, -0.0178, -0.1690, -0.0102, 0.1287, -0.2386, 0.1571, -0.5099},
  {0.2413, 0.1551, -0.6390, 0.0333, -0.2070, 0.2416, 0.1966, 0.2146, -0.1401, 0.1716},
  {-0.3792, -0.2037, 0.0962, -0.0072, 0.2884, 0.1037, -0.0870, 0.2760, 0.0427, 0.2631},
  {-0.1334, 0.1596, -0.2635, 0.2372, -0.2942, -0.0181, -0.0540, 0.0397, 0.2432, 0.1256},
  {-0.2373, 0.1953, -0.0035, -0.0727, -0.1592, -0.0470, 0.0953, -0.2244, 0.0361, -0.2252},
  {-0.2524, -0.2000, 0.0226, 0.1750, -0.1337, 0.0067, -0.3180, -0.0121, -0.0697, -0.1614},
  {-0.0807, -0.2298, 0.2209, -0.0018, 0.2743, -0.1189, 0.1728, -0.3002, -0.3058, 0.0386},
  {0.1978, 0.2644, 0.0786, 0.1671, 0.2371, -0.0981, 0.0048, 0.1571, -0.3089, -0.2474},
  {-0.2761, -0.3002, 0.1161, 0.2225, -0.2552, 0.0471, -0.0311, -0.0595, 0.1559, 0.0688},
  {0.1493, -0.0685, 0.2602, -0.1493, 0.0367, -0.0457, 0.0518, 0.0633, -0.1207, 0.1984},
  {-0.1491, -0.2455, 0.1050, 0.1848, -0.1111, 0.0192, 0.1901, -0.2473, 0.1817, 0.1294},
  {-0.2141, 0.1290, 0.2274, -0.0110, 0.1497, -0.0191, -0.0079, 0.3431, 0.2448, 0.0594},
  {0.0592, -0.3379, -0.0539, -0.3362, 0.1721, 0.1924, 0.1709, -0.2515, -0.1493, 0.1091},
  {0.0659, -0.2169, -0.0076, -0.1090, 0.1688, -0.2752, -0.2913, 0.1205, -0.1206, 0.0420},
  {-0.0300, -0.2436, -0.0114, 0.0130, -0.0127, -0.0079, -0.0526, 0.0753, 0.2236, -0.0726},
  {0.1652, -0.1205, 0.2498, 0.2563, -0.2772, 0.2278, 0.1463, -0.0158, 0.1320, -0.1515},
  {0.2859, -0.0016, -0.2889, -0.3298, 0.1095, 0.2231, 0.1717, -0.0148, 0.2392, -0.2312},
  {0.0412, -0.1256, 0.2460, 0.2307, 0.0379, -0.0665, -0.1907, -0.0781, 0.2630, -0.0940},
  {-0.2453, 0.2591, 0.2408, 0.1076, -0.1703, 0.1447, -0.0983, -0.2937, 0.1898, 0.2441},
  {-0.0729, -0.1413, -0.1895, -0.0434, 0.2065, -0.0103, -0.0854, 0.0250, -0.0489, -0.2570},
  {-0.0949, -0.1987, 0.1665, 0.1568, 0.1194, 0.2497, 0.2683, 0.0374, -0.0157, -0.2182},
  {-0.2089, 0.0854, 0.1135, -0.1377, -0.0251, -0.2648, -0.2575, 0.2450, -0.3855, -0.2087},
  {0.0351, -0.0494, -0.0997, -0.0347, -0.2081, 0.0788, 0.0828, -0.1128, 0.0483, -0.2897},
  {-0.0269, 0.2031, 0.1729, -0.1340, 0.0598, 0.1627, 0.1922, -0.2442, 0.2200, 0.0356},
  {0.0667, -0.2655, -0.1728, 0.0972, 0.1297, 0.2017, -0.0142, -0.2267, 0.1593, 0.3289},
  {0.0771, -0.0686, 0.2201, 0.1755, -0.2781, -0.1200, -0.2762, 0.1821, -0.0352, 0.1974},
  {-0.1201, 0.1085, -0.1411, 0.1980, -0.2052, 0.0790, -0.3841, 0.1403, 0.1131, -0.0243},
  {0.0066, 0.2459, -0.1953, -0.1511, 0.0404, -0.2983, 0.0819, 0.2449, 0.0581, -0.2256},
  {0.2646, -0.1370, -0.1574, -0.0566, 0.1445, -0.1015, 0.0563, -0.2997, 0.1761, 0.0871},
  {0.1584, 0.1533, -0.2747, 0.0080, -0.2455, -0.1634, -0.2506, 0.2579, -0.2323, 0.2603},
  {-0.0655, -0.2313, -0.2479, -0.1046, -0.2325, 0.0820, -0.1522, -0.0428, 0.0986, 0.0277},
  {0.1625, 0.2703, -0.4014, -0.3785, 0.1562, -0.3270, -0.0751, -0.1849, 0.2196, 0.1356},
  {0.0409, 0.2485, -0.0699, -0.2864, 0.1349, 0.0637, -0.1744, -0.2848, -0.1816, 0.2750},
  {-0.2364, 0.2496, -0.0315, 0.1474, 0.1589, -0.2709, -0.0412, 0.0337, -0.0904, -0.1459},
  {-0.0658, -0.0041, -0.0029, -0.1249, -0.0542, -0.1394, -0.1816, 0.0195, 0.1621, -0.2023},
  {-0.1580, 0.3239, -0.1476, -0.0601, 0.1561, -0.1422, -0.0034, -0.1983, -0.0410, -0.2470},
  {0.1032, -0.2062, -0.0277, -0.2998, -0.2311, -0.2539, -0.4018, 0.1521, -0.3080, 0.2229},
};
