float conv1_weights[6][5][1][6] = {
  {
    {0.11154223, 0.00786229, -0.20131132, 0.18761289, 0.04364257, -0.00108072},
    {-0.05387850, -0.14031523, -0.15911171, 0.23230861, 0.00946954, -0.05221906},
    {0.02367545, 0.10034560, -0.33413523, 0.19657618, -0.06343450, -0.01735696},
    {0.12160367, 0.01895132, -0.23028471, -0.08105885, 0.17239828, 0.01700008},
    {-0.10442436, 0.01698010, -0.01127857, -0.22680247, 0.05543911, 0.06501129},
  },
  {
    {0.08047222, 0.10851416, 0.22166547, 0.21139495, -0.08819008, -0.04998778},
    {0.16972843, 0.18182415, 0.07300346, 0.30946007, 0.33975035, -0.00477588},
    {0.13805762, 0.13009632, -0.07071727, 0.11868576, 0.35942957, 0.06903219},
    {-0.03799424, 0.31092301, -0.10501004, -0.11984088, 0.09575165, 0.15701026},
    {0.13181591, 0.29566523, -0.05098244, -0.33152837, 0.07174651, 0.06016716},
  },
  {
    {0.12565792, 0.16519834, 0.30375224, 0.08229209, 0.33213955, 0.13971047},
    {0.13320558, 0.12782538, 0.34468055, 0.25066319, 0.32424778, 0.29858324},
    {0.32143700, 0.11792460, 0.10436951, 0.22409829, 0.38188237, 0.31091133},
    {-0.08349283, 0.32917807, -0.06374456, -0.25686526, 0.20141526, 0.02760823},
    {0.00539017, 0.18341933, -0.03805624, -0.47793433, 0.27282882, 0.04461695},
  },
  {
    {0.16884467, 0.22221003, 0.06516096, 0.30690542, 0.28165734, 0.03597052},
    {0.26248676, 0.29543805, 0.11413361, 0.20123343, 0.01275675, 0.31235364},
    {0.12558454, 0.22322126, 0.22756609, 0.05430472, -0.03786500, 0.18383808},
    {-0.13900983, 0.06627601, 0.06994995, -0.35286987, 0.01962614, 0.25012130},
    {-0.15026079, 0.09004927, 0.01598071, -0.28405550, 0.00077188, 0.08757136},
  },
  {
    {0.16161600, -0.14204994, 0.15035051, 0.14225334, -0.02889824, -0.22748438},
    {0.28903261, -0.09908962, -0.00148043, 0.29174542, -0.17083006, 0.15506159},
    {0.01096013, -0.31025633, 0.10823716, 0.02648576, -0.05102570, 0.18401161},
    {-0.23499006, -0.06126479, 0.02478472, -0.18318279, -0.08498108, 0.06670706},
    {-0.15294123, -0.18751717, 0.10788485, -0.27265880, -0.14470753, 0.03481150},
  },
  {
    {0.04983744, -0.30645946, -0.24398437, 0.05084433, -0.25384620, -0.18938147},
    {0.11330985, -0.38084930, -0.06609143, 0.07400927, -0.23575000, -0.26250312},
    {-0.18601865, -0.51079750, -0.14607131, 0.18415616, -0.04603991, -0.07351162},
    {-0.17812248, -0.32747287, 0.13810736, -0.20508431, -0.05343235, -0.10936735},
    {-0.17846330, -0.22309738, 0.20557499, -0.12338255, 0.15779659, 0.02050671},
  },
};
