float conv1_weights[5][5][6][16] = {
  {
    {-0.03526462, 0.13599680, -0.07621044, 0.01704399, -0.36724740, -0.06805987},
    {0.23385818, -0.06439431, 0.17188068, -0.05784630, -0.16834983, 0.11412401},
    {0.03014451, 0.14954051, 0.24782313, -0.14297386, 0.02551104, 0.14934762},
    {0.10543545, 0.02338055, 0.11570872, -0.08516148, 0.10024188, -0.01704072},
    {0.14886099, -0.01984160, -0.13499442, -0.18451433, -0.04199151, -0.17822723},
  },
  {
    {0.16201915, 0.15346152, 0.00010922, -0.19382198, -0.45530784, 0.14511737},
    {0.02292687, 0.02082504, 0.29336825, -0.51086468, 0.01612663, -0.07381048},
    {0.34995154, 0.18409179, 0.30824596, -0.56047875, 0.02108899, -0.00051486},
    {0.19646107, 0.11809409, 0.05397514, -0.45083645, 0.09896962, -0.12461278},
    {0.03520913, 0.10775724, 0.06727301, -0.24733865, 0.06425349, -0.14999886},
  },
  {
    {0.20633589, 0.11864479, 0.16163063, 0.06114443, -0.33386073, 0.13484357},
    {0.23324533, 0.29087022, 0.03936200, -0.23353611, 0.02431344, 0.14220150},
    {0.09352668, 0.16284774, 0.17559235, -0.23528090, 0.31320220, -0.01976333},
    {0.11276305, 0.13017611, -0.04180449, -0.14871179, 0.31996462, -0.12533057},
    {0.02376084, -0.04853792, -0.08990651, -0.09416084, 0.28254771, -0.18963662},
  },
  {
    {0.09269715, 0.07183670, -0.08690097, 0.14819108, 0.01265805, 0.06491491},
    {0.02221271, 0.02489371, 0.05908783, 0.29093534, 0.32353106, 0.14061074},
    {0.06461299, 0.23462334, 0.12393450, 0.21320076, 0.15974751, 0.32737288},
    {-0.14875163, 0.04271344, 0.11323986, 0.19397372, 0.26874745, 0.19255058},
    {0.01666211, 0.00306151, -0.17104821, 0.21472134, 0.04900014, -0.20183755},
  },
  {
    {-0.04618889, 0.06120981, -0.02393249, 0.22256359, 0.13986759, 0.12262701},
    {-0.17210798, -0.07283332, 0.14469889, 0.25803477, 0.27742946, 0.30766287},
    {-0.07013358, -0.10885496, 0.00687641, 0.27354473, 0.37666741, 0.16380589},
    {-0.35850984, -0.15929639, 0.02161586, 0.40310884, 0.11683193, 0.01995482},
    {-0.26568156, 0.13570508, 0.02713076, 0.23281723, 0.08769577, -0.02327005},
  },
  {
    {-0.09842406, -0.03467993, -0.04695198, 0.13422640, -0.10099355, -0.05855611},
    {-0.30245134, -0.15098515, -0.11598665, 0.28470099, -0.15895964, 0.14668722},
    {-0.06987593, -0.12637533, -0.02053820, 0.08856530, -0.07620518, 0.04471935},
    {-0.29516563, -0.12087186, -0.02085289, 0.12491854, 0.02727093, 0.14787640},
    {0.03229349, 0.05352078, -0.01570227, -0.09424879, -0.11991434, 0.13601898},
  },
};
